-1.947958442696627037e-03
-4.077709215619521911e-03
1.442675785918227578e-05
3.713704571453003804e-03
-1.206541904882703700e-02
-3.364623459917651018e-03
8.222717523321730615e-03
-1.204186656253680189e-02
-1.241187805925824056e-03
-2.738580372635539620e-03
8.640466556563428449e-03
-1.866758307159995835e-03
-9.200141529578141977e-03
8.898486348356174358e-03
-4.784097441772027989e-03
-8.083057825688851755e-03
8.260979459093500954e-03
3.180534161108553633e-03
-6.557804057067369470e-03
-3.722333525112075329e-03
-3.486089763645617168e-03
4.579976840208683370e-03
-5.615704271474831338e-03
-7.710682897753107050e-03
6.224362370879618460e-03
4.314028791243493602e-03
-9.396628781022278720e-03
-5.073321606034754058e-03
-1.566284758049412557e-03
1.404966759123392516e-03
-5.065892820547605348e-03
1.693020980682280170e-04
-6.596935517769040485e-04
-8.292655582653738963e-03
-1.849129010664957119e-03
-3.587059359207460732e-03
3.744569283138000134e-03
1.655659630266176569e-03
6.784746389957777143e-04
3.153633494514011641e-03
-7.002662663315614884e-03
-1.816753443054614208e-03
-5.195883374241335286e-04
-5.121290759815965050e-03
9.215067233099280075e-04
9.719784790518588499e-03
-5.693255808933218517e-03
-2.829818870398241332e-03
2.062128218234252769e-02
-8.677932610672839733e-03
-4.288804552682614311e-03
1.955715633739209605e-02
-4.164914199812638253e-03
-8.368860500362805543e-03
-5.785885680176991279e-03
-2.717232842591589797e-03
-5.977751774835042380e-03
-2.798184494722095973e-04
5.991497015185550008e-03
2.612644373444977970e-03
1.114876075778420319e-03
6.871653294258464953e-03
7.421051274141627491e-03
-3.648239046439708585e-03
4.645286562118541157e-03
9.835962472289579150e-03
-1.725753492701623216e-03
7.998169014105249372e-03
1.148834806649360121e-02
1.626509086702063222e-03
7.385252964505988234e-03
1.091820890283506235e-02
5.070547375640967018e-03
-1.071347894915548893e-04
-8.953996505936976866e-03
7.611235430045315380e-03
3.784185019295157291e-03
-1.942382595297087976e-03
3.790054437815642413e-03
-4.576776280422532699e-04
3.439740093784164621e-03
-2.848726320112689604e-03
3.203538915159482615e-03
3.985053460687611009e-03
-6.213715658486536862e-03
4.742094394610863600e-03
7.277911639882245903e-03
-7.256873712146733567e-03
4.134157698643213009e-03
8.009623798542846868e-03
-4.761714230219484326e-03
-3.830736748915622176e-03
1.239409179071901054e-02
-3.308682130189929439e-03
1.072470495518825255e-03
2.894990323315982123e-03
-9.760250179612818154e-04
9.552688550450943658e-03
-2.028490612087760665e-03
8.784123864585571774e-04
-3.102305305978630967e-03
-4.538288238110511907e-03
4.197302208292440565e-03
1.531177459391289868e-03
1.497397242472734303e-03
3.832607054123014691e-03
-2.254833278371047491e-03
-1.612632090029355409e-03
-3.336874142335254784e-03
-1.031250154387800986e-03
-3.383246523045653926e-05
-7.181753237474883429e-03
2.385409638374379193e-03
-6.588214384781891468e-03
-5.806142755488416865e-03
1.144449608904169954e-02
-3.447162366601395217e-03
3.468694756276111645e-03
2.783339615104562896e-03
7.668371918198867848e-03
-1.905352890072223955e-03
7.088948025117917592e-03
1.166075179856183169e-02
-4.747955296562993664e-03
2.393564503061683824e-03
6.315465104523248704e-03
6.858772736083302776e-03
2.591173937630256857e-03
-5.153272310896231910e-03
-5.664166551262955415e-03
1.651883617645680084e-03
-3.407583368582240736e-04
-1.328795406713138318e-02
-2.792386548579179045e-04
2.008744530877640700e-03
-3.164068461638971323e-03
-2.554456673569949470e-03
-2.650735142891964737e-03
-2.161098758114158875e-03
-7.670149543103572986e-04
-6.992126332328076608e-05
2.243128173620424944e-03
2.859984054537365386e-03
2.858779377593960967e-03
2.991451147395718033e-03
6.239883232236394933e-04
-8.062609712059815720e-03
3.668849475842101901e-03
6.969667306618018872e-03
-3.755607423692344012e-03
2.450256459745408025e-03
7.301114946869923655e-03
-7.058280196454306057e-04
1.264313395052473355e-03
-6.441800380477281755e-03
1.685696230922292555e-03
2.303906246207692785e-03
-6.066020495114863263e-03
2.890894187920255501e-03
3.710201423002943322e-04
1.454729735988336339e-03
7.682959964833457542e-03
4.332027139033920674e-04
6.801445543595210008e-04
4.696453269838247622e-04
8.821670241623978843e-04
1.330562678142588069e-03
1.393239778481504846e-03
8.629044502466961045e-04
1.593653668911948181e-03
1.345558351117467086e-03
-2.913029584032819207e-03
2.882650650727136619e-04
6.527446665669878710e-03
-3.705714193429028146e-03
1.807251541139146033e-03
5.074161406471181142e-03
-3.490862214763659505e-03
1.184366430801410018e-03
4.024668027904013644e-03
-8.054950311260933651e-03
5.534763306802652563e-03
1.033969511362735176e-02
-1.149684459586432748e-02
3.793602506988987769e-03
1.181386299843273369e-02
-1.471159131497911006e-02
-2.860058699754124828e-03
1.030850343251413573e-02
5.113062418852655500e-03
9.484178101763399149e-03
-6.212387407806215650e-03
-3.430324442997234168e-03
1.624208678093584657e-02
7.324008985532236022e-04
-9.031284029776357261e-03
1.505171633643563600e-02
5.567370241186643011e-03
3.349178913692997962e-03
-2.693135629909700502e-03
-7.938376024591053612e-03
8.148172835467298175e-03
-3.192011489403561754e-03
-8.583192968358513072e-03
1.546537507898537852e-03
-7.614771308836506061e-03
-8.658309101250417222e-03
2.376587642499259408e-03
-8.155361153142068331e-03
-9.429327393759737858e-03
7.350666846432889548e-03
-9.789079598452482892e-03
-6.412744688105828129e-03
-1.490210427721791854e-03
-1.090911521173026227e-02
-3.209231489642947062e-04
-4.874046263899310324e-03
-5.292767020891171043e-03
-4.404329965512526930e-03
-3.683481942225367341e-03
2.749654249378667703e-03
7.442665823652241247e-04
-8.919525612023977701e-03
1.479215704966905468e-03
5.680448560042526511e-03
2.812124447204016487e-04
-5.767551345415380427e-03
-2.131729622628931228e-03
3.711011498945894754e-03
-2.561151865237805349e-04
6.399803011028353547e-05
1.283675546021315148e-03
-1.620887483621557190e-03
8.458929556396277590e-04
2.868041396167426982e-03
-2.343033866104027481e-03
3.020955713016945047e-03
9.598073176223688788e-03
-3.677282214445933266e-03
3.351616990124063004e-03
8.405671613666555048e-03
-8.214429900363008630e-03
7.666721707836416039e-04
5.359873404740880809e-03
7.885632582784900257e-03
-4.113052974293151219e-03
6.371902733097074834e-03
1.251022187990213398e-02
-2.567464479295828274e-04
4.587749294277690230e-03
5.789071377716405696e-03
-3.163343217396497389e-03
6.504781238420863192e-03
6.822883416060339032e-03
-1.415785305807404273e-03
1.308626502932918635e-02
-9.148065886925949930e-04
-8.415895002514928863e-03
1.028184674055423672e-02
-5.735552093232256649e-03
-1.145837141579904295e-02
3.179232963057124651e-03
3.217410401111489484e-03
2.135604995213570556e-03
6.769906353094799073e-03
7.426896311897802395e-03
6.127162108276817433e-03
4.882559659415210661e-03
6.697833807944852773e-03
5.970228973112914200e-03
-4.471820596887433191e-03
-2.733483289970785757e-04
-9.776273184519473306e-05
-5.276536779487877096e-03
2.951053055890647502e-03
1.559931899031123713e-03
-5.924732129027725398e-03
1.035449891332693682e-02
6.381275968033765615e-03
-1.659012319341964187e-03
-2.926051751030826764e-03
4.022660622645258220e-03
-2.726854226951333938e-03
4.008711652620373413e-03
9.291132378892400651e-03
-5.199014632539891191e-03
3.928254462429071761e-04
4.380395736570138684e-03
-1.009340109830587570e-02
-3.715862819089872648e-03
-2.719469587367684404e-03
-5.407642144305147523e-03
2.056298704312262832e-03
-6.162598627899951251e-04
7.400383665529466568e-03
1.210561374927260174e-02
7.028809577246077772e-03
1.003685019829125141e-02
1.144470582893331338e-03
-3.393220530964219384e-03
9.390334936827917506e-03
-2.046279027964651234e-03
-6.524427570606311511e-03
4.813472723972027356e-03
1.969293701785464808e-03
1.145281493834454179e-03
5.440339873927148295e-03
3.455346008212437005e-03
8.328424483800411912e-04
2.731141151594370601e-03
5.402282697466014201e-03
3.764041924158979466e-03
-4.264879069643078696e-03
-6.810008030508840453e-03
-2.293347837560585391e-03
-3.859413147402450828e-03
-1.382853472328906316e-03
2.367059872045614455e-03
-1.630726712824932204e-03
2.124290709029792810e-03
2.918910443771490296e-03
8.231369669251312887e-03
7.569236115344883838e-03
4.265500596159216805e-03
5.078134148189843849e-03
5.052849097762841107e-03
-7.820662926729145389e-04
2.592650132736590545e-03
3.596585644474406150e-04
-1.056071448313111250e-03
-2.603630318391933485e-03
-5.632738214770147828e-03
-7.664090328863048043e-03
-4.256914019208542406e-03
1.067264900480143809e-02
6.550441103065402296e-03
6.063073907388877998e-03
8.206276058746181726e-03
1.293330660311003445e-02
-4.076493825178664591e-03
-1.979792587619033910e-03
6.843210750425202625e-03
-2.246880020746675789e-03
6.333788073158336078e-03
3.852427941881950320e-03
1.881143369425816812e-03
5.785338303611431247e-03
1.971391353777431684e-03
4.842796825780672047e-03
-9.313136744784739594e-04
-3.615857147146327773e-03
-2.078175113800981907e-03
-2.354995498880056975e-03
-2.787360559187411664e-03
-3.459730139198471596e-03
-2.351605496769471580e-03
-8.754659982714864917e-05
6.340880408389438713e-03
5.550501094046382880e-03
3.320428766822453026e-03
1.498269796691096417e-02
7.595382732517631970e-03
3.844503478801186182e-03
-9.870596210090529753e-04
-5.017025793511057687e-03
-1.745549381815205423e-03
-2.105240085175826437e-03
-2.976950533860797925e-03
-6.640319794756082555e-03
-5.541899187966386683e-04
-3.847053514302797416e-03
-4.703838094283925401e-03
-6.693832914245221449e-03
-7.012511228883978529e-03
-3.226965497595590641e-03
-4.975045230916800426e-03
-3.432726484340913823e-03
6.340805504689344058e-04
-5.790565362515512522e-03
-3.160356075826095852e-03
-3.909161397891225583e-03
7.112313615669357825e-04
-1.124556859380686745e-02
-1.108653776102043985e-02
1.162708309987149158e-03
-4.238542231911019559e-03
2.151877219190881547e-03
-1.843580557385311671e-04
3.103398953884443055e-03
-1.529672981341870166e-04
-1.530992436148243940e-03
5.298381510533568123e-03
-3.350962824679611356e-03
-7.932564351415706885e-03
1.264236216730743557e-03
1.894986618371308294e-04
5.489547598412677053e-03
6.159133722089270985e-03
1.836222575310848858e-03
1.100148443536774811e-03
-5.785729544798439740e-03
-9.174667848647684310e-03
2.406681664865479003e-03
-2.707980927524950964e-03
-9.487475977729451643e-03
-2.050690507510952946e-03
-5.354304090440650463e-04
2.864728591015689059e-03
-5.891293593872999092e-03
-7.657427906031561045e-04
4.385666686080696465e-03
-1.602980117779221865e-04
4.033690715440572602e-03
5.263650755135265008e-03
6.870237398976742661e-03
7.904686761992154448e-03
1.012783206470914811e-04
4.411816438757168446e-03
-1.597458321524998417e-03
-8.450031337683489019e-03
-3.725295807851621965e-03
-6.401154370688094848e-03
-8.127273210114664345e-03
7.801661425766867554e-05
7.390699313885770163e-04
-5.446153968806394068e-03
-1.594636455269902260e-03
4.388871693471511903e-03
-1.319380703969023688e-03
-1.452126504512715223e-03
4.988735536958377285e-03
5.681072875662941148e-03
4.277648756952089765e-03
3.197871855310727325e-03
1.327560954475880042e-03
5.765050375148683681e-03
4.352091537999674964e-03
4.012240734458442232e-03
-4.774225972236592229e-04
-2.468087369814177864e-03
-1.647925908826663403e-03
-8.815958557952960351e-03
5.919083737581555191e-03
6.084809045015323985e-03
-2.603965294706545378e-03
7.051309777781403047e-03
6.125210010510830777e-03
9.336491892669057310e-03
8.213777054629431418e-03
6.917003611228472910e-03
-8.547998932205839225e-04
6.993579579976907847e-04
7.043075596610478021e-04
8.823514773540699777e-04
1.452311499232484962e-03
1.489236933043575897e-03
7.826134903313071694e-04
7.016899540541645785e-04
4.628225770346948691e-04
-1.673657855631791383e-03
-8.731176975956430036e-04
-3.392943038884565100e-03
-1.292627959087320165e-03
6.850047890492026205e-04
-5.147034403819689911e-04
4.506938912038464112e-03
5.122140768774347853e-03
3.625647409138065946e-03
-8.308234801121045648e-03
-4.538909378990935682e-03
1.198431852962085313e-03
-1.145930107618882941e-02
-4.928637337062967416e-03
2.302631715700750696e-03
8.604813388728008768e-04
4.124931086721122554e-03
3.483800704516023649e-03
-6.193722508846695278e-03
3.034116689384111325e-04
-1.206519188041893162e-02
2.226662989507041668e-02
2.909101194562751201e-03
-7.847720581928631020e-03
5.007952865093718425e-03
-1.459436234668744399e-02
-6.694354453031465223e-03
5.915024653815003069e-04
4.188245268270385235e-03
6.164081546967184293e-03
-3.350235039426128613e-03
4.040124072305488825e-03
7.181823726773700622e-03
1.250983365717188087e-03
3.425078293977245128e-03
-1.364055256524795198e-03
-4.065134940351212457e-03
-1.777120072042749892e-03
8.630463551144312590e-04
-2.953147008943817192e-03
2.023476251319872212e-03
4.663997338787271262e-03
-4.428963463460810698e-04
1.052950315646937387e-03
3.633918171185781133e-04
2.390727699329167101e-03
-1.223249486881028642e-04
-4.178919235024585420e-03
-9.946525916682330201e-03
-4.951648450510801741e-03
-6.441789627989712164e-03
-7.782244122171738665e-03
-7.028845287149610224e-03
-1.399770647190046874e-02
-4.967553641544726617e-03
8.202561009416114296e-03
2.068698053792431685e-02
-2.322033690166558709e-03
-5.311297347155091112e-04
1.205244083193761839e-03
-5.366876937793597577e-03
-7.397408420883828072e-03
-7.139333993213448429e-03
7.857693748304321732e-04
-5.817674579331808329e-03
-5.920570488931117814e-03
-3.353257142432990428e-03
-7.280226807924511032e-03
-8.278966615795494473e-04
-6.294546895651746167e-03
-5.935722810681760483e-03
-3.072070220027671092e-03
1.992609481678570514e-03
6.491755621792717670e-04
-1.006170481373468454e-03
-4.814978288343940011e-03
-2.446205211901963331e-03
-3.142463672209181835e-03
-2.079532961108520445e-04
8.271170534172800825e-04
-5.319080712568233053e-03
-2.429652016764889851e-03
-5.476827382384658743e-03
-8.062382566970376779e-03
-2.537547487053573060e-03
1.451866431898198636e-03
-9.506561614708345601e-04
4.518459275307749531e-03
9.124367575308673511e-03
2.959544481710548337e-03
-3.139076979796972481e-03
-2.010735828712292839e-03
-1.097833048230577833e-03
6.325470801138701957e-04
8.097000618429233635e-04
6.152439247441930225e-04
9.347561962764513836e-04
3.196856474687810091e-04
3.965657949174619147e-04
1.164823607897301017e-03
-1.247201739191361035e-04
-2.077519967717125944e-03
-7.601585107274812410e-03
2.857072387698056815e-03
5.399049644736326342e-03
-2.331135186506724799e-03
2.410685528927542041e-03
6.302292809214841106e-03
-2.085678722604001473e-03
-3.641566361549450261e-03
-4.003233477424674802e-04
-9.187454432837879534e-03
-5.811577766533366357e-03
1.306441368489029420e-03
-1.413108121965244704e-03
5.600608882295615015e-03
8.162437884389564871e-03
-1.896995994455489805e-03
5.437239237105639554e-04
-4.469012096725332242e-03
-1.086423180040130146e-03
-3.662491172422962442e-04
-5.923264833103755386e-03
-3.564313158973825366e-03
-1.724552544967126186e-03
-9.429408124964760995e-03
-4.571461026336610597e-03
-3.325147178081132391e-03
-9.501788798706754325e-04
-7.145401914104620783e-04
-3.577496764643226662e-03
8.548762947382425662e-04
-2.217119364020780079e-04
1.387471583836211077e-03
3.417913981326813500e-03
-3.528098037093075918e-03
-6.161974586224324910e-03
-6.449891763338282472e-03
8.590650348236032047e-03
6.941970042310800261e-03
-3.579670318202252382e-03
-2.276496720090243758e-03
1.028055767219944417e-03
-6.276873485216308626e-03
1.688420774156213248e-03
-5.272485749976708706e-03
-3.059100660758747991e-03
-6.122469667382329696e-04
-1.052133155765079238e-03
2.311085486349519734e-03
-2.663874672602565760e-03
8.995027512771097992e-04
4.190638433515018156e-03
-4.194966079810596125e-03
-5.722268685194350016e-03
-2.024076633944851128e-03
-2.544643353905717961e-04
5.101717399962333623e-03
4.392226300583198899e-03
-3.635673975462639772e-03
2.070006010907545369e-03
-2.447896628871663928e-05
1.358569196466450496e-02
-8.700034123576261789e-04
-5.596704153931226361e-03
1.619679935150246039e-02
8.346124379493374129e-03
4.369119878564596700e-04
-1.923195402098629939e-03
-1.080662537917687245e-02
-7.523506233930612845e-03
1.631112323826816807e-03
2.771765288799663690e-03
-3.889727485547102032e-03
7.961329392182665962e-04
3.963862020016298802e-03
3.851025968206441778e-03
-7.205932232109272303e-04
2.074621346908925214e-03
5.891249393431190716e-03
-9.133480616291225762e-03
-8.289126935138214653e-04
4.118497348200639806e-03
-7.095033450098792160e-03
8.387586946920542021e-04
1.030981022585885157e-02
-3.434921087834145407e-03
6.867753992698414668e-03
9.343561296442181793e-03
-1.701018535632114288e-03
-4.223082929245311305e-04
-5.335959792769383488e-03
-1.794561017886738821e-03
-2.022333972370202008e-03
-6.301733400776786224e-03
-2.453277179100091330e-03
-5.711203922469851573e-04
-4.904796642027016949e-03
-2.504858823435174645e-03
4.289231366386690204e-03
1.193997098890380894e-02
-7.701575513447627514e-04
-1.604617772615682392e-04
7.596919983597651832e-03
-1.377024481914029862e-03
1.382978392034748616e-03
-8.361262696265311413e-04
-9.104079352573301448e-03
7.976817085795792975e-03
3.721865407417123024e-03
-3.025641999147885876e-03
1.628974570837435354e-02
1.143184267198576326e-02
-1.777695277731332650e-03
1.324857360570776306e-02
8.198278308054767274e-03
9.234197716295081820e-03
1.920162451275494618e-03
-1.237112551079092709e-02
1.133692342833751351e-02
1.899822403530681322e-03
-9.242627557093815310e-03
5.645961515129451803e-03
-1.345602487171289633e-03
-1.075585411286438713e-03
-1.547085265798116976e-02
5.923666901039751666e-03
-5.594672701094786363e-04
-1.808437318680576264e-02
-1.789544715505351049e-03
3.028952358487592596e-03
-1.223148125806132469e-02
-1.692103826605542184e-03
-8.032960089888793037e-03
9.608734830643258021e-03
7.174619585157708881e-03
9.887149802203159393e-03
2.091154967933638042e-04
2.193099752087270069e-03
4.505643973955265544e-03
-3.166209355796297063e-03
3.715112869204356075e-03
3.260178140218677242e-03
-1.077893648424389610e-02
-8.428494513721903475e-03
-1.973376968771652952e-03
-7.269666242115356558e-03
3.125889836300413871e-04
4.156764852481621177e-03
-5.464788601613338077e-03
6.585194783915109635e-05
-1.421341915279440574e-03
-8.245188804218360826e-03
-7.269518633612827340e-04
-2.243018230471579156e-03
-1.335816557512992022e-03
3.270046980324415806e-03
5.958470011735227806e-03
-2.431701001942919004e-04
5.220133750819962691e-03
7.347295830145088302e-03
2.952874679253742526e-03
3.241478676526862203e-03
-3.863145287197773496e-03
-1.440822932945473719e-03
5.015661275801836481e-03
1.554773575823566525e-03
-1.180897027883481311e-03
3.307025664098230296e-03
6.948214212434629432e-04
-2.972307779234253065e-03
-4.769951501556297609e-04
-5.368252457365853964e-03
-3.071094402367329466e-03
2.968216416698323066e-03
3.452814396134653088e-03
-5.819518454130061767e-03
-5.498339059556619493e-04
-1.253029172235082221e-03
7.514562700855660637e-04
1.317707344238633468e-03
2.118203675244321755e-03
1.432169714951431238e-03
1.843366557536795956e-03
2.808934541759579816e-03
1.227239671934727671e-03
1.957004909291998503e-03
2.498056531610236535e-03
1.103682102246554683e-03
2.783630331950193073e-03
6.951653086639722652e-03
2.609543911704188465e-03
3.619382513162849434e-03
9.892689894457332503e-03
4.580363434654639051e-04
2.918867075575013164e-03
7.044224730882680738e-03
-5.603519664428032940e-03
-2.835189394387501501e-03
-3.986105740102824715e-03
-6.167575998428552302e-03
-2.158750666051940676e-03
-2.008747747986809606e-03
-2.776432948710522153e-03
4.917009960462745757e-03
4.957583939392096010e-03
-2.246074681155813425e-03
8.272795082452159138e-03
1.629221870156973354e-02
5.095803145857219843e-03
6.768953967300805723e-03
9.285703904044916371e-03
6.760392306968718941e-04
-2.097057472108201752e-03
3.034185850991484319e-03
1.235630866477512198e-02
-7.599813587588175349e-04
-4.714054695226847086e-03
5.879085645014967693e-03
-4.023712310790386951e-03
-2.122711793129436041e-03
-3.135929233991787725e-03
-6.152263268625017024e-03
-4.615906056604084616e-03
8.834255048986529302e-03
-5.137580023926593444e-03
-2.419223677255152426e-03
4.832648213006044378e-03
-1.156304056057679827e-04
5.728121435756742619e-04
-9.268531380546564738e-03
-6.966055380418323222e-03
-1.682489078747940146e-03
-3.930416944262635909e-03
-1.730862074079637502e-03
1.974278959534005520e-03
-5.584776689274651741e-03
-1.767405092459789061e-03
-3.160102512985768150e-03
1.780727494183808419e-03
5.131975490647062467e-03
2.720624083267528335e-03
-7.546836822592982788e-03
-4.833064417577233839e-03
-4.880194674160637930e-03
-6.674611938990809151e-03
1.361434049845659409e-03
1.685793195937041866e-03
-6.827726752724955391e-03
-6.127652488310726848e-03
-5.111150023896415297e-03
2.820262209180127242e-03
-6.980541943230084145e-03
-6.868523429556754392e-03
5.842946714090127211e-03
-1.026114825567269774e-03
-5.579684379530020812e-03
7.851438717494816028e-04
-2.480166527977695212e-03
-6.113417263857129184e-03
-6.033589704443950014e-05
3.916349707097365428e-03
-2.648546521015184224e-04
6.078439923722722162e-03
5.146074122158020292e-03
2.205034376857773534e-03
8.234291661596858380e-03
8.200026477409361192e-03
4.363333955732205671e-03
1.632448144056183534e-02
5.611899751614595269e-03
-6.831698229250745755e-03
1.266010403710031776e-02
1.658430361576819284e-03
-5.513653074508809149e-03
4.958590577973405597e-04
1.350162616858352396e-03
-1.350865538094220362e-03
4.189669064244670380e-03
5.683564964741711321e-03
6.204000966725213215e-03
7.378970154646382826e-03
9.463917303803831560e-03
9.065805789734378284e-03
4.089979165200587248e-03
6.313138544301894611e-03
5.590836715955646401e-03
-3.588345622393874449e-03
2.916119427753037421e-03
6.998591488888370729e-04
-5.973534707848565856e-05
1.014546578318718112e-02
8.252493221981632363e-03
-8.022590041808044456e-03
-3.271752739773432350e-03
-1.958520833925571445e-03
7.944440152166160410e-03
2.441705149842644113e-03
4.428345587092903353e-04
-2.287673841525622673e-03
-2.342164511635074896e-03
-1.355888192781811103e-03
-6.818648829819340916e-03
-5.424185982228273096e-04
2.521210136943702329e-03
-6.649960016816504685e-03
-4.359871113394124466e-04
-1.553998449278485303e-03
-8.840270047464916445e-03
-1.467458379664097687e-02
-9.613189936968810981e-03
-5.553744445884463247e-04
-1.386988901738015010e-03
-2.025181571277173166e-03
-7.255312933093346385e-03
-6.427730700561781751e-03
-8.914933389843532341e-03
-3.279003687336105519e-03
-5.924315970384914226e-03
-2.381212153366922633e-03
1.687840193094252220e-02
1.657825607813015467e-02
8.586300304633651473e-03
2.026249929869247332e-02
2.391071549077404546e-02
1.438529644664604361e-02
-5.711192736737254888e-03
-1.285300086009349280e-02
-9.482566355184084833e-03
-4.131812805350600776e-03
-1.506802424232459719e-02
-1.331705246090304599e-02
6.393416752245871353e-03
-8.474082662171654066e-04
1.202739310769877041e-03
1.111604583936016055e-03
-9.402851230759319470e-04
2.924612138342002395e-03
1.312165516901410943e-02
1.074257973283133591e-02
1.017135739474078586e-02
-1.828464778497184903e-02
-1.266755708741242395e-03
-1.296768522094808368e-03
-6.164650973631333360e-03
-1.280410703572676953e-03
1.038621256576518874e-02
1.252990529269864400e-02
1.371962142277341652e-02
1.338016397280214660e-02
1.682282111164503866e-02
2.615207557043392611e-02
3.376878794517897478e-03
-1.847371962019976957e-02
-1.926676551936460507e-02
-2.200960453886136384e-02
-1.017933659637398208e-02
-8.219550616788655686e-03
4.714275829924130697e-03
-2.003752219405037505e-02
-1.664902816980601968e-02
-1.931376939592374317e-02
4.770611262822407189e-03
1.678166118259449488e-02
7.537920603455244145e-03
5.150032346823060206e-04
9.853095450957735646e-03
-2.429689981136396126e-05
-1.182803336287590289e-02
-9.675003877613814682e-03
-7.023223896003798379e-03
1.524182108565573512e-02
1.329234463643418768e-02
1.063237233418394545e-02
1.390365155480982780e-02
1.778908253181520072e-02
7.907576740367142087e-03
-1.046840237412895863e-02
-1.104720092222918719e-02
-1.580554280514642404e-02
-8.617442177294184005e-03
-3.229545934795934568e-03
-8.308232345477209804e-03
-6.832144580518190440e-04
-6.499459308055626980e-03
-4.802386152579340289e-03
-1.798116664408376530e-02
-1.325475441011087288e-02
-1.223979521555299509e-02
2.286107593276536301e-03
1.077546118329068131e-02
1.042565600084529621e-02
1.239993521084394382e-02
1.362851442904603784e-02
9.260942908143094884e-03
1.290634401109823359e-02
-3.396160781383642099e-04
3.010866000996985543e-03
1.399875855333278935e-02
1.148978862670513128e-02
-1.865407665996778258e-03
-9.755907819199844538e-03
-4.814646591565070917e-03
-1.721930374580888864e-02
5.390586646439032674e-03
5.928842839178809915e-03
2.004077018623991180e-03
-7.430754255352880686e-03
-6.343772215770475398e-03
1.354801104065094962e-03
-8.298741315647683442e-03
2.605640773241878292e-03
1.585373175993687669e-02
-1.955023720766881773e-02
-2.094291058342503606e-02
-1.862914043564775635e-02
-1.939571048416489311e-03
1.074422973887356920e-02
3.770020776054371168e-03
-9.930712385433033973e-03
-1.028093892902733064e-02
-2.070109122498929241e-02
-2.322298484426300706e-03
-3.585907574748245681e-03
7.940020573460408390e-03
-6.806674827150818079e-04
-1.177447985642104782e-02
-3.146549655498616111e-03
3.470730162827045245e-03
-6.553966241647200559e-04
-1.409986978566558739e-03
8.022581348699880368e-04
1.646613532272245967e-02
4.142773072087486790e-04
-2.877359216535899794e-03
1.073365019274268332e-03
-9.807070848920609787e-04
-2.052624748127273788e-02
-1.095351000278345713e-02
4.010448927425144285e-03
6.153360217999486381e-04
8.987649074843627505e-04
6.399234689806999887e-03
-1.906551257549072165e-03
2.692857329077363339e-03
7.295100349728663239e-03
5.221085183369362538e-03
2.543725393801766523e-03
-2.123235415566692666e-04
-4.635139101706091391e-03
-3.231212847304018522e-04
1.780701476496974675e-03
1.259563730680472076e-03
-1.722249484123834903e-03
-6.881306469905961593e-03
-1.589041245090981949e-02
-8.135510850911525579e-03
-1.187151971916490870e-02
2.548044020453780773e-03
-1.064659327295975656e-02
1.197517813816526867e-02
8.370712791025971058e-03
1.351556037994647427e-03
3.776609258309113031e-03
-1.833885885541101978e-03
-1.769921816332790303e-04
-7.852053630640593029e-03
-8.816889055441055672e-04
-1.176129671454903981e-03
-2.226931874115217411e-03
-9.067674042767554649e-04
-1.377460320046837612e-03
-1.545081426477049437e-03
-2.879297445308465079e-04
-1.138858001963151401e-03
-1.369585645890012034e-03
-4.658153353470714450e-03
-5.240325554319165760e-03
-4.313009316173008374e-03
-1.725589161378181897e-03
-3.734753563163913017e-03
-3.603282057091867011e-03
3.005956623413200135e-03
2.431804020897599707e-03
2.012075402593441043e-05
-9.391327198411156957e-03
-8.555671478186839887e-03
-9.894450129489914397e-03
-7.052715925184270540e-04
3.968722794330747927e-03
-7.028274702676917673e-03
-3.604223779752227345e-04
1.045574300757400217e-02
-1.073166790962160153e-04
3.800909864537990995e-03
9.366300264399352385e-04
-1.011107852868266092e-02
5.736048492782312019e-03
4.969007339091741776e-03
8.953791926230049696e-04
-6.864058623494055135e-03
-9.812871554891543224e-03
-4.785562755997607547e-03
1.537942671271276714e-02
1.495112415907043704e-02
6.995924830518863470e-03
-5.356379176345551531e-03
-9.866424898784226238e-03
-7.404045615675374122e-03
-1.552988450506032764e-02
-7.722265618418138605e-03
3.429607297951636768e-03
6.384973598174790467e-03
4.439187310249664321e-03
-3.928760785923080846e-03
-7.964570550060594972e-03
-1.295168422639272031e-02
-7.375998439076513792e-03
-6.528867455155529199e-04
1.527344105366308701e-03
1.062725650264216646e-03
-1.129850562081844909e-02
-1.331377520752261012e-02
-5.157031786247729538e-03
1.226504762329687533e-02
1.938252831766591397e-02
1.474290640151444329e-02
-1.296729182049269477e-03
-2.734540545758444661e-03
-7.856239606560542349e-03
1.820091591184781928e-03
-5.565169640432264531e-03
-1.528899175100298640e-03
9.093615714119224896e-03
7.253850523797195776e-03
8.517224711781110069e-03
-2.508558644333387568e-03
-3.384880104606437061e-03
-2.871057656514116934e-04
2.053042207784067097e-02
3.378241878327170253e-03
-1.041807393859743710e-03
3.548331003647349838e-03
-1.424600586267987454e-02
-8.106130664505146674e-03
-1.366073555196414650e-02
-8.944241073521356014e-03
-4.450953560233583163e-03
2.771896682554585503e-02
2.972557900123670369e-02
2.085967875154099728e-04
-2.382049836237427626e-03
-6.685704187118579091e-03
-1.082258145436471725e-02
-4.155479906796564170e-03
-3.635554549656216418e-03
5.846430970888568876e-03
1.678484333710451165e-02
1.139793531004771460e-02
1.331663630174362463e-02
-1.044899570207756014e-02
-2.039773233085429016e-02
-8.831788853845671389e-03
8.987064826398723227e-03
-7.511014450739183709e-03
-4.755234832130517814e-03
-4.468949842883759914e-04
-1.521330280388343828e-03
-2.656782182193812882e-03
6.084422802992845748e-03
4.955579378589231899e-03
2.350909914322953705e-03
4.446779288789992450e-03
3.701426367229909090e-03
2.910654550284261233e-03
-7.683361239499218297e-04
-4.544351867770346325e-03
-2.959444009736785473e-03
-1.238156568544766106e-02
-1.588306301512959137e-02
-4.274107050562318301e-03
-2.039044304307757217e-03
-2.905922853154087760e-03
-7.121168417232883428e-03
-2.146243164844449658e-03
1.042646507277359135e-04
-1.659652644060172991e-03
-1.141549381276964203e-02
-1.374140881782860701e-02
2.906986660005355782e-04
1.123686789756751271e-02
1.037457799114030466e-02
1.119961027344739020e-02
-7.903360868953367493e-03
-3.624261552166942093e-03
-4.379258756241483086e-03
-1.901750688309267190e-02
-1.702877415319763513e-02
-1.376725583054316630e-02
-1.076970390185352788e-02
-1.590411532447516194e-02
-8.175956173463210658e-03
-1.460861868858901770e-02
-1.926227335977901897e-02
-1.802638221900178597e-02
-9.225303728755594734e-03
-1.201365005429103593e-02
-1.076160610043002189e-02
-3.666479996800382085e-03
-4.696093515357670852e-04
-1.153633734123965700e-02
-3.714863177674181029e-03
-8.115069995792477051e-03
3.638473344181949141e-03
-4.160856579351670040e-03
-6.744637518268212575e-03
1.248566737287463285e-03
7.189685459699838438e-03
2.749497736024390793e-04
-1.355950765962605272e-03
3.163735757786117261e-03
-2.050726280835319087e-03
-1.139190275320490792e-03
9.296382040984858472e-03
3.685950629214080048e-03
7.459294296764885229e-03
1.275915825207722676e-02
9.132719582559966492e-03
9.283952582373976997e-03
1.683240913441963037e-03
1.025431518029254821e-02
1.155936855500682911e-02
-1.065314329666880097e-02
-1.107270187069880375e-02
-3.230990729412316995e-03
-1.955937494225585844e-03
-7.723904472393601853e-03
-1.213834415487261703e-02
-9.179941204132390517e-05
-2.059781798869029634e-03
1.137724973207356939e-04
-1.209345468290824862e-03
-6.410075110762195744e-03
-6.383301835439706209e-03
-9.452448563852479044e-03
-9.574420891454273400e-03
-1.273533446008257020e-02
1.883212743719642722e-03
8.081622162477765728e-03
-3.618245182442308625e-03
2.380750823199496470e-03
3.439522447551609467e-03
-2.239502674869870043e-03
-7.343467353249225234e-03
-6.804390089749230187e-03
-8.131669413590983733e-03
1.806864194823090339e-02
1.596888375930737361e-02
8.085551509881196142e-03
-6.505678193016933147e-03
-6.866163671203151866e-03
-8.136283397206109380e-03
-9.125003018574695188e-03
-7.782421086291447382e-03
-9.854909939672518854e-03
-1.765647224170796472e-03
-6.686417207353947435e-04
-1.256331896682233960e-03
4.096006005375965424e-03
1.966391527937959467e-03
8.152256880327404158e-04
6.028450414420207654e-03
3.696105349607773163e-03
-6.888928685337761260e-03
1.127391094870327029e-02
7.419308445657209379e-03
-2.066299260373730075e-04
5.134246284238911349e-03
6.777346529339397900e-03
-1.057518808892369855e-04
5.791222676924198502e-03
8.467163089763097769e-03
-2.542352707247291549e-04
3.229419979561050195e-03
-6.978665269551141172e-03
-7.350016552286856020e-03
-4.132655975143114530e-03
-2.673804365060324421e-04
-2.815427945181917229e-03
-1.125999502962397175e-02
4.641756321700630898e-03
5.254055471046216452e-03
-1.574705646614366463e-03
6.222549510962391284e-03
-8.264236400559189441e-03
-3.298334935971887656e-03
1.182877333435677165e-04
-1.010985908986421558e-02
-1.792546826055588629e-03
-8.486143682627029367e-03
-8.268381416970258663e-03
3.278099248394492505e-03
1.145120613968396948e-02
-2.667351066698076846e-03
-8.396234864241047466e-03
-1.622521809369371687e-03
-2.049140909356415765e-03
-1.677042074405381278e-02
-7.978104694216791443e-03
-1.277877789607845781e-02
-5.956978393364433834e-03
-3.710239733005880110e-03
-3.625961746427580363e-03
-6.423835137488015899e-03
-1.918790819166659714e-03
2.097660200381597922e-03
2.904577944098342239e-03
-1.670646531472298486e-04
2.938149416176157481e-03
-1.653465129889062843e-02
-9.553399506415340831e-03
-1.103594868944245307e-02
-2.821177685226116533e-03
-2.474283655000024569e-03
-2.935737922735780041e-03
-8.236328443927303997e-03
-4.095695725836557416e-03
-1.453340546607366848e-02
6.897494163821705007e-03
3.766262499295923438e-03
3.969747605661193106e-03
7.031174329705721336e-03
7.558526983056500226e-03
1.057255834618845043e-02
1.148481395080694009e-02
1.483590973996226983e-02
1.579172983905251931e-02
1.563441983276396986e-03
-1.668793304676526642e-03
-1.165253928649941269e-02
4.390055108059703892e-03
7.006765672605597172e-04
-6.341814257164164401e-03
4.319238264936416105e-03
5.650411887280058602e-03
1.928416580678201341e-03
4.969179289465153887e-03
1.028146689774210587e-02
1.309687678091341415e-02
6.369886492083027922e-04
2.795742181320417814e-03
8.470846449783932947e-03
-6.946645840242174873e-03
-5.863211400497782624e-03
2.226725092506874702e-03
-1.817834285981465665e-03
-1.693909326018363517e-03
-2.393007187542030463e-03
1.154883388731851824e-03
1.663141658551854684e-03
1.463146842215434567e-03
3.548541303210896603e-03
3.677330104602562644e-03
3.144279854512023898e-03
6.050080532221486715e-03
8.169468901319101861e-03
5.237775148768486315e-03
1.039503178945279382e-02
1.097545321026312769e-02
8.857401859998528110e-03
1.033136363210023986e-02
9.568936275922958201e-03
8.208781727507620182e-03
4.171649275762982258e-03
4.386185107262565927e-03
-3.370996254416760030e-03
4.871038709743640005e-03
9.298774612318882332e-03
6.754763210430567502e-03
-2.008821556124260402e-03
2.641697851057345833e-03
6.105648092839368983e-03
-1.205438160840818437e-02
-3.259563002493961244e-03
-8.654587628313060912e-04
1.490094372935524096e-02
8.559313747704085096e-03
1.111682392223618115e-02
4.009438873976777819e-03
2.210255656677578839e-02
1.302425481184879899e-02
-1.202020398385525435e-02
-1.058098599432952432e-02
-5.178128154039963668e-03
-1.345899751613164989e-02
-3.392310287032361798e-03
5.331185631949525265e-03
-5.769293890876047402e-03
-3.858248663925997399e-03
2.300203501907915633e-03
2.512119051725426183e-03
-2.869129098036761211e-03
3.845082103263078310e-03
-5.747883527537192387e-03
-5.359914764992360602e-03
5.309777418850027478e-03
-1.231412966279982549e-03
-3.695159674337976027e-03
1.770951219596012156e-03
-6.066541474605316800e-03
2.056570846435221579e-03
-4.589083843354816415e-03
-7.977824518028399370e-03
6.034316912461565362e-04
-2.084350433777413733e-03
-3.250451685748902229e-03
-4.159711576893354449e-04
1.928697831986272027e-03
1.007937041595445213e-02
1.191358178498477284e-02
-3.570959698760941322e-03
2.087835412715048633e-02
1.763422263994754782e-02
-1.469868468947209666e-03
-6.941022104224374607e-03
-2.218384959107683792e-03
-8.443412190882688961e-03
-9.002646658223499576e-04
-5.223533253402462898e-03
-4.041027395318331876e-03
5.090836822024886370e-04
8.404331805568808836e-04
-3.736253543787004718e-04
-6.466438689990535111e-04
6.068166840536284509e-03
6.883924003231226517e-03
-1.865590242034437284e-03
2.387504187464200775e-03
-1.379454989383824444e-03
1.081888847693617944e-04
-8.651690180777698008e-04
-7.017160574735616238e-04
2.333608330435459413e-03
2.227723233617015790e-04
4.461518743181981488e-03
1.897895008106254737e-03
-8.046079565980163162e-03
-5.398433937833713907e-04
1.959967042783113383e-03
-7.525663584799386144e-03
-8.184666793103843180e-03
4.044970289229719330e-03
2.811578586682618626e-03
7.475074258343930404e-03
-2.094584713027365479e-03
-2.101328831262828500e-03
-2.713761510472567293e-03
9.937337645282966897e-03
8.844908539278707044e-03
7.551582570024807997e-03
9.291062563836261640e-03
8.640316489691763149e-03
7.115294703739055183e-03
5.853163762024134534e-03
1.216760461206089702e-02
3.647654436194186413e-03
-3.337355114583734610e-03
-4.339133999671257214e-05
-7.258679114871192072e-03
-7.501099250369718235e-04
4.612331586225372829e-03
-4.890988200462439810e-03
4.422327620541146448e-03
1.910289202791658376e-03
-1.074605513934264074e-02
-8.051367004562317783e-03
-6.487074322088581292e-03
-6.536829140649065388e-03
-2.697922739847072662e-03
-5.172360997056961793e-05
4.097667925376025956e-03
2.173874541609345165e-03
6.519250104929849837e-04
6.417177264065190108e-04
-6.442238935884915876e-04
-1.214806475563386112e-03
3.035777163836047947e-03
-1.606919638956481097e-03
5.158155366466087716e-03
9.481748222059951936e-03
-8.306580226633795971e-03
-7.185224954637378300e-03
-4.583989621388250869e-03
-4.199611696247200314e-03
-2.254441919782634862e-03
-3.282055077191853038e-03
-5.475527222762696959e-04
1.485474828264953234e-03
-5.994847444866711374e-03
-3.525985930322477185e-03
2.082179998640794328e-04
1.393020950834303676e-03
2.963791297302486791e-03
-1.860604588851102505e-03
5.946278388942041271e-04
6.513798685376851090e-03
-3.413074073409230400e-03
-2.105086806321666924e-03
-1.957049733495083016e-03
-1.708445695039989814e-03
-9.050972242625959048e-04
-3.366290463881082174e-04
-1.031312074312414019e-03
-1.695146510933268806e-03
2.417274602068875499e-05
-1.541466549381450288e-03
-1.308943522577598511e-04
-3.590304743145967831e-03
-6.144955205180117376e-03
-4.821963558905237486e-03
-9.714155742214341778e-04
-1.616255687425290771e-03
-1.371755805942253366e-03
2.889768762861679558e-04
7.198289490874708796e-04
7.173577900882426158e-05
-5.548900186769527634e-03
-1.122101914538442720e-03
6.080213328354193772e-03
-9.937419555369070030e-04
-7.515630235248114532e-04
4.481347170639902490e-03
-2.003099523245815104e-03
-5.887227813319980893e-03
3.264523508466978560e-04
9.730499097161936792e-04
-1.505892100558313407e-03
-2.828793318719959298e-03
5.849525686945089304e-04
1.440984196553428127e-04
1.509443948202106962e-03
-2.513307949878872821e-03
1.381190714727783056e-03
2.766039697322651529e-03
-5.748427928645487295e-03
-1.300484786728266923e-03
-2.337388487784039862e-03
-4.256575446889561236e-03
-4.256194834670190422e-04
-1.550469235046968283e-03
-3.025231530315608455e-03
-1.288689006349779407e-03
-1.741241878197665122e-03
3.849427519300039485e-03
-4.071533649069415846e-03
-4.066089789422988945e-03
1.151072188900782722e-02
-3.277738515921668544e-04
-1.091412866340238852e-03
1.345693391489969151e-02
6.480767708966966856e-03
-3.238838289737824838e-05
2.118441090516677474e-03
3.090834800342362465e-03
2.019807134845676491e-03
8.063072873654061543e-03
8.564821692140874368e-03
5.635984495174108447e-03
1.108583536755959262e-02
7.331956053603531052e-03
-2.313877905257083424e-04
-5.143235018547982068e-03
3.513246033919316391e-03
8.071973355198028624e-03
-1.214619513258530844e-03
8.161732707466791414e-03
1.330116945449327445e-02
-2.366142737816065520e-03
2.651095243221083479e-03
5.830764034191147742e-03
7.945358586090515551e-04
-5.126461621222656558e-04
-1.248514935908438470e-03
8.139889520487567521e-04
1.757992014271998456e-04
1.331422541314429987e-03
-9.865685346494687449e-04
-9.411551145727742524e-05
3.216319218034440364e-03
-3.548025820255408958e-03
-2.706778025847831216e-03
-3.864885783647355535e-03
2.798220620391565511e-03
3.629939588712730036e-03
-5.331752483414920005e-04
2.192387880508938399e-03
1.155649974019617152e-04
-4.480696437143377210e-03
5.058127044180883713e-03
6.645122985513509176e-03
2.123351904058320277e-03
6.358791524073070453e-03
6.101291656324207661e-03
1.116480935003987066e-04
4.686418504775921069e-03
4.046090056584951584e-03
-5.361982659822443591e-04
-6.589094918692335948e-03
-4.696477978150608371e-03
2.751828236028553906e-03
-3.059034053344362753e-03
5.415080099784151278e-04
4.382737639282444954e-03
2.494104914887340825e-03
4.772767466883490119e-04
-1.710784613827323738e-03
1.566634496041649342e-04
-3.328404573623346390e-03
-2.921149789662076234e-03
-2.274926504321055434e-03
-2.681842255549104700e-03
-6.030248161221495344e-04
-2.540890269009313598e-03
-2.534683004181864738e-03
-2.778533751379381588e-03
7.424592241088836869e-04
-5.125697052979084466e-04
1.690840271843212748e-03
-5.220806056827752447e-05
-1.075654037553531138e-03
-4.790655223514193157e-04
2.786938477511564233e-03
1.533026785989959691e-04
-1.802801906653400720e-03
-9.714314209486729981e-03
-5.041851437626805425e-03
5.930033312779891316e-04
-7.546324909761402584e-03
2.959976161374017244e-04
4.160506771054619038e-03
-1.360165015338140682e-03
1.867600918927075568e-03
2.843410107312608227e-03
1.285443916453454186e-03
1.383443712269261626e-03
6.766826577622333085e-04
2.840847153601648838e-03
2.833320975842903728e-03
2.187555355615168270e-03
1.539712505673768638e-03
1.788141503215140383e-03
1.174587627213883852e-03
7.236656016731085432e-04
1.275320620021354497e-03
9.545107508279986183e-04
7.805934136826861956e-04
2.708108278638986319e-03
2.466539750929507609e-03
-1.263827381288592741e-04
8.227612059466265929e-04
1.214539116559786719e-03
4.379687943894459284e-03
3.093590531670924637e-04
-7.810010961829002120e-04
2.861133435975355722e-03
2.506803086421533280e-03
-8.569670499910340272e-04
1.082009738238878544e-03
5.990699673049043952e-03
1.628152654245597266e-03
8.576907365859861437e-04
1.280872644484897698e-03
1.949303300765998798e-03
2.094993167984583130e-03
5.051885032859763404e-03
4.202209687217467113e-03
-6.184966010716052036e-04
1.262077989831109776e-03
2.708680650796229609e-03
2.520593955221116841e-03
2.550256847870051389e-03
5.571556645236589063e-03
6.463115327119748135e-03
2.732044105910656426e-03
2.616440049960620969e-03
1.156563646882053514e-02
5.134019201670242220e-03
1.737935872900302518e-03
-3.843214148394204655e-03
-6.850086154832410858e-06
-1.272799536562182728e-03
-3.412611610662928067e-03
3.102928615499195904e-03
2.002403575692672175e-03
-1.468727018315719784e-03
5.956276365384417099e-03
4.166897945147730181e-03
6.074334919462656864e-03
3.183703164189140983e-03
-3.934317710204718495e-03
4.184502786813233156e-03
4.999863425756476305e-03
-9.456889650037958147e-04
2.946483181969961843e-03
6.622189572776813506e-03
2.649889292739921170e-03
4.654177974751338466e-03
9.671726784254879635e-04
3.216979401414181861e-04
7.950651102222669117e-03
1.204479933950736029e-03
5.142999207616041858e-04
6.448750050803459151e-03
3.969298124830624580e-03
-3.279460866174872379e-03
-3.991160647724735500e-03
1.501620462579109029e-04
-1.318396240758419385e-03
-4.220771293212869681e-03
8.530933829397539889e-04
-2.413601505154281714e-03
-4.199712737306200011e-03
-8.782364400613904432e-04
-3.462747166459149376e-03
-1.064262566793863427e-03
1.157908292572260500e-03
9.155585793630316351e-05
2.243017156357483746e-03
1.676745698335353838e-03
1.091775872700264608e-03
2.484348273924016220e-04
-1.142172783189673163e-03
4.340148469456768000e-03
1.148660927622861252e-03
5.016534182811795660e-03
5.678306305996186007e-03
-1.311580403451868826e-03
1.641988882484616673e-03
3.853234949939117037e-03
-3.377341157313704014e-03
8.348817715421023335e-04
2.248134704267326037e-03
3.237728873448283366e-03
4.366647686587852954e-03
4.147884198586152850e-03
7.275712238679398446e-03
8.346399708380313615e-03
7.575266849012376666e-03
3.594527677880906061e-03
4.831391634698286967e-03
3.574932109278869223e-03
-3.741151484326853648e-03
2.037861209420979008e-03
4.924036109004260170e-03
2.698500655064834785e-03
3.721217900671327204e-03
4.865048484142699310e-03
1.225509849442120869e-03
-2.383372491809307610e-03
-1.104662605750318357e-03
1.660551796925388221e-03
5.469259914831122989e-05
-7.044997701448834455e-04
-1.742761564801593738e-03
-1.254350456868457558e-03
-1.232813736871065389e-03
-5.135749111830018553e-03
-9.984235585265789550e-04
-5.441699984654762602e-04
3.271349108452580468e-03
4.010882786001075326e-03
2.957030119834315029e-03
2.291993701048039480e-03
3.829030598818028886e-04
-2.001359933090834931e-03
1.965066690622963453e-03
-2.390719953937816677e-03
-3.785364605053535315e-03
-8.127873097901886553e-04
1.462228008766635300e-03
4.365048424622262543e-03
-2.973664210414144003e-03
2.235541904905412932e-03
3.400362118243126317e-03
-2.849381045377302399e-03
1.493365614666183590e-03
3.440899173952362364e-03
-9.427212523253984114e-04
-4.715272183121148840e-03
-5.236550677228000647e-03
-4.900916973517022157e-03
-8.081294588215652552e-03
-4.547977873911862069e-03
-4.260411041199091420e-03
-3.854492009005293200e-03
-1.083467236196623525e-03
-2.217864565609328851e-03
-9.569069224302911023e-04
-8.169234115135064829e-05
-7.333106669996098791e-04
1.233491264847715778e-03
2.332119069847487722e-03
-7.596660196084369316e-04
2.654395869460724269e-03
2.226963184245644121e-03
2.091984681267663668e-03
6.048128535506663156e-03
6.558720066459620447e-03
-4.437321663129859331e-03
-1.088364179994760718e-03
8.223143355255609901e-04
-5.212325797031018733e-03
-4.056779411694332212e-03
-1.714136907433347432e-03
2.865791220592921011e-03
1.471130407607083032e-03
-2.852621500336390004e-03
-2.398178803924351944e-05
4.557139156526415508e-04
-2.045211494509526981e-03
-2.570245419527931140e-03
-2.461269602460147178e-03
-2.422641263612099281e-03
9.263930030986791556e-04
1.561753833449083329e-03
1.343148084351925573e-03
-4.377211701148585798e-04
4.710144609436397165e-04
1.274085180954555915e-03
3.750009338756999234e-04
-4.917846679393958432e-04
6.719962049161100218e-04
-6.514866007297365202e-04
-5.770127032161449397e-04
8.491184591897966982e-04
6.140668318366636173e-03
5.801906558156951117e-03
4.006101517115170756e-03
2.726151634272293116e-03
3.420686257623566616e-03
3.428033590706272993e-03
-2.569696209796030377e-04
2.435690357547098169e-03
1.470405915047424700e-03
-2.260300567594634730e-03
-2.003237207768335248e-03
-7.111289410379977960e-05
-1.005563128676124993e-03
-5.185481665391931580e-05
1.828917480543916724e-03
-1.790845256954094126e-04
-4.143946107369819872e-04
-1.397401528228201949e-04
7.488579893547333546e-04
2.542712792221725644e-03
2.601644847723425056e-03
2.903623073096230165e-04
4.641423749981206902e-03
4.640707191430516396e-03
5.420948652807152171e-03
5.344716490750581889e-03
2.067575261899128568e-03
9.496764837463809658e-03
7.633103890870450783e-03
3.182643508889471985e-03
7.755984499433049226e-03
6.548881601487032376e-03
5.028472035696640065e-03
-2.624432349962358573e-04
-1.126868469143331658e-03
-2.911593225882929629e-03
-1.851581271013385193e-05
-9.029319475761846646e-04
-5.919525890291075804e-04
-1.739711156859268318e-03
-3.041502044056407141e-03
-9.556637219954317985e-04
-5.890163298508994776e-03
-4.377069623617621009e-03
-1.813374169271104921e-03
-2.425348083005038520e-03
-2.699927824593634663e-03
-4.396826040578568446e-04
1.567517890964384344e-03
2.923688181776472154e-03
6.201889923159989784e-03
-1.323159230313432138e-03
-1.868007901951308433e-03
-3.623571943359234823e-03
-1.088795701926968413e-03
-1.032022975121583204e-04
-1.174468188632021371e-03
-1.212592056743182602e-03
-8.093036774562299349e-04
-1.557018699356067055e-03
-1.484734735243754258e-03
-1.048143911632488760e-04
1.014183899583424560e-03
-2.735253117967402330e-03
-1.813919558924613614e-04
6.438296356007467899e-04
1.314058040470507047e-03
3.638597046305558705e-03
2.979918707224544789e-03
9.625674852063864097e-05
-2.770389464386856064e-03
-8.926895827766857458e-04
-1.585354130828967316e-04
-1.565670442283560379e-03
-7.256835425599057190e-04
-5.314002325848181732e-04
-1.753894520224516659e-03
-2.449266475374105387e-03
5.145415507807559428e-04
1.221569387890550666e-03
1.736946007807804921e-04
-6.202246072007001508e-04
-5.777247070579829636e-04
-3.362933284010176838e-04
-2.528621257663978255e-03
-2.161909012342436587e-03
-1.007732374883649846e-03
-1.056010158286925038e-03
-2.754309579026055759e-03
-8.644763350418937327e-04
2.563012101092617713e-03
-1.506802446557973553e-03
-1.240479584024617140e-03
-1.381209934959653314e-04
-2.017110557079460596e-03
2.665298813969860996e-04
1.116958656860468288e-03
9.682116510306141470e-04
9.383348179265287850e-04
2.059976538273008018e-03
2.153445114423566901e-03
2.127070485111469227e-03
1.389357809547237324e-03
1.705807667277796976e-03
1.900460349448175558e-03
6.822548344339933414e-04
1.296653028685947322e-03
2.875314382172074277e-03
5.010937288172843257e-03
4.608042435730706418e-03
4.999835552661229497e-03
3.092400474699663181e-03
5.095299899382487070e-03
6.128338721504166843e-03
-1.986308971152319150e-03
-1.076639727627417631e-03
4.457136997453699711e-04
1.614151644861211606e-03
7.999760745055307454e-04
-1.191261473632533683e-03
3.812278379660231638e-04
6.406091332049529191e-04
-1.360082491863805199e-03
5.321166442094162063e-03
4.724724820176141003e-03
7.825093537623306963e-03
5.191699577605423700e-03
1.675910999151291290e-03
1.075551387293527655e-03
3.173087582791803314e-03
2.850610669841260533e-03
2.555267479857140089e-03
2.218409147169331588e-03
1.539996944282492767e-03
-4.350176565589896835e-03
-8.386230288894349358e-04
1.302893420591516322e-03
-2.789488680938282013e-03
-3.750201518085336666e-03
2.580552872586186204e-04
-1.805319533981504737e-03
9.681836763026971772e-04
-1.344184647930994235e-03
-6.186373058583738774e-03
-1.883436610872359042e-03
-1.183243716792025529e-03
-4.539342439780580905e-03
-3.821480801580544925e-03
-2.607224072214988763e-03
-2.192541045559408350e-03
-1.164473982001912366e-03
-1.818857891802867560e-03
-2.626574973162012789e-03
-5.914326175895152525e-04
8.731447393882200980e-04
1.699023354979639243e-03
2.137665031753494763e-03
2.090446144695272401e-03
2.118665063777215758e-03
-8.951525048569026729e-04
-2.374451268548794392e-03
-2.114798777129248738e-03
-3.854891354123352650e-03
-2.154437379785897107e-03
4.797276483628079916e-04
-8.244848746826954162e-04
-3.180187639261671060e-03
-1.593524543879064640e-03
-2.890734422453696863e-03
2.247692839640008048e-03
1.021014875608401533e-03
-2.015166137177916254e-03
2.907610059528775714e-03
2.839846129710789022e-03
-1.883165532232616715e-03
-5.928822491836363779e-04
-4.860213303619457539e-04
-2.493257469654105996e-03
-2.396569669364754032e-03
-4.748171873642067359e-03
-4.259958214983543441e-04
-5.976136513539156677e-04
-2.962231891195527163e-03
9.273791269503639436e-04
5.125889911737146294e-04
-2.906094810741967176e-03
8.854332997931925811e-03
6.934655891058723841e-03
3.886784747840154718e-03
4.869840341945655231e-03
4.888619406542609770e-03
4.023368859151525354e-03
2.948986210149430638e-03
3.303919096823048490e-03
1.229148129568158722e-03
4.099295561862824691e-03
3.625479925589963209e-03
3.162752066849975653e-03
6.185798283711830235e-03
5.578816037027547158e-03
5.525885177753638543e-03
3.977591537444973013e-03
3.721022583918257541e-03
3.951888874614643485e-03
1.207908199856274701e-03
-1.638481430287882156e-03
-4.638933793500061263e-03
3.327982358318828764e-03
8.844701257970785310e-04
-6.779903046136572745e-04
-1.210919743964024254e-03
-2.123868524788486160e-04
2.170153696532040564e-03
-1.151594367314037401e-03
-1.271370280626556897e-03
-2.816995008474019752e-03
1.046797231151032912e-03
7.644873111618025966e-04
-5.797536094624281336e-04
-1.142305112073350526e-03
-6.547122161535318162e-04
1.218946962844857251e-04
7.824031974108752382e-03
2.192856524768307773e-03
-5.840614262838709179e-03
3.007042584908905299e-03
4.446526006032569533e-03
-4.803358570504937322e-03
-2.399682117580175401e-03
-2.471226439905920697e-03
-3.457317444175306027e-03
-5.894410091370562259e-03
2.534015576943184338e-03
9.268358902184492890e-04
-6.228485663959535540e-03
2.401672181915827983e-03
4.937349293875037751e-03
-1.027647783769479461e-02
-7.707176758868354051e-03
-2.588608270694538562e-04
-1.236834267377533115e-03
-7.303807814471359981e-03
-4.736608193214253632e-04
-1.690441721604659915e-03
-1.139296011093112425e-02
1.800144361166378538e-03
6.166445283179978164e-03
-5.807577128441670893e-03
3.232568841503444083e-03
-4.359793458453462521e-03
-6.728050253296142050e-03
-5.436023060221123991e-03
-2.210846370568511025e-03
-6.268179916304570873e-03
-4.697349504556862405e-03
1.287245194560669888e-03
-3.758740269743180915e-03
7.651856295990276300e-05
5.448638263215896567e-03
6.903721580239139538e-03
6.790942550154163010e-03
7.690931912289701491e-04
-3.528851272935558977e-04
2.226748804033191770e-03
-2.395944470991465559e-03
-4.339547818951460488e-03
2.127880125083879848e-03
6.903964223761204291e-03
-5.323889465133627846e-03
-3.321859397470513890e-03
7.132527479648538386e-04
-7.941382485640363295e-03
-7.399366580705355433e-03
2.742419886323426499e-04
-1.880959990763332677e-03
-4.181330197331769444e-03
4.861886351315716044e-04
-3.822819469578059900e-03
-5.240474337205151996e-03
5.803446699624630230e-03
4.257197545761198278e-03
-8.987585476230850520e-04
-2.579286109990561876e-04
-1.543408707124271050e-03
-2.918903253796020585e-04
-2.656743637190670491e-03
3.052958391514293789e-03
-5.485299390815393840e-04
-5.415636484062592675e-03
-2.424716536054227420e-03
-3.107612270824437577e-03
-7.541410711991738264e-03
-8.627066925799885613e-03
-4.884183886470037407e-03
-2.494663414833182824e-03
-4.570855061495166134e-03
-5.194159936550543991e-03
4.740811592671329705e-03
-4.898818535783839266e-03
-4.945840202752594186e-03
-4.895398924949266074e-03
-3.725623061369468057e-03
1.294512392262414224e-03
2.706883023186773887e-03
2.206858008484281330e-03
3.283549972891458557e-03
-7.987371585764724757e-04
-7.757394120128035045e-03
-5.773886809952636853e-03
-9.826541839874044712e-03
-9.766203676856727994e-03
-2.531316793338162559e-03
-3.367031291002267786e-03
-9.731664832518079544e-04
2.873537955780279367e-03
-1.299824315834097882e-02
-2.371701267355494878e-03
4.143651678197975141e-03
-3.538010379775739789e-03
-3.816062904917093788e-03
-3.107268566194713779e-03
2.275188070980154083e-03
3.595720631114972948e-03
1.108495216941847265e-02
1.271880677407046011e-03
2.773944978652829758e-03
1.053409325612378843e-02
-1.084385362307357123e-04
-3.542480800114715563e-03
1.519548115030078467e-03
-5.019094976253503371e-03
1.111901509020219846e-03
-2.360951658865695314e-04
-6.652038093662926248e-03
-5.990791553139114024e-03
-3.242236482671304737e-03
-3.776422250475801323e-03
-5.929963259893593526e-03
-1.415691925122248510e-03
-1.215342153734574231e-03
-5.672282297040144063e-03
-3.697396015954403092e-03
1.643880318562322479e-03
5.046556637145542708e-03
2.242994134930250457e-03
-4.258560094880440954e-03
-1.086070709645074652e-03
1.824672828344256958e-03
9.494312166174814771e-03
2.190504674582391485e-03
5.901014580051631292e-03
-3.087952979474223769e-04
-1.152386152862043718e-02
-7.293557538259501198e-03
-1.099080228543135307e-02
-8.487292633449113055e-03
-5.581179098713967904e-03
1.047134060440654075e-04
-3.667030543331578456e-03
-4.660908903272161993e-03
8.226723357053913150e-04
8.697754811742032782e-04
-4.703344074923655749e-03
9.117836938617548959e-03
5.165785981218594218e-03
-7.553721440147780422e-03
-6.252797156490937439e-03
-4.374754538373794993e-03
-3.243056272295417788e-03
4.422529320465922158e-04
3.187442635341446303e-04
-2.606311884316018894e-03
9.852666136204023695e-04
2.088429565617458839e-03
-1.400528561547128997e-06
-1.733701848943277420e-04
1.974599403149142167e-03
4.734091997648789268e-03
2.021620101481082666e-03
3.218768834244912624e-03
5.525064676526834223e-03
-8.926780107389944638e-03
-1.411137394819869315e-03
-3.862370202235060682e-03
-7.586055182777927310e-04
-1.240868542846776000e-03
-1.037306448902857803e-03
4.309073536126460001e-05
-4.815265699988217397e-05
2.441255363906118432e-04
7.293242731294747108e-04
7.618963488478619180e-04
9.575974222908283096e-04
-1.433930710583811337e-03
-6.753140045508095914e-04
1.029179198573405840e-03
-3.279996528736996327e-03
-5.647676984674972547e-03
-4.336093498631028893e-03
3.477083285575129253e-03
1.174420525537778030e-03
8.999557827259649064e-04
-8.219592091385155910e-03
3.310513593021310614e-03
-7.747130928758646021e-03
1.087483337287634003e-03
1.158195875036711550e-02
-4.186325780263742795e-03
1.658967159829086505e-03
3.610583232959150776e-03
-3.242981525821222316e-03
7.523367268287792795e-04
4.367492022416654199e-03
1.117035364857481110e-02
4.795747991052407727e-04
-4.815029836923855056e-03
-2.881405223988685099e-04
-1.139641410837261611e-03
2.063253241850063549e-03
-8.038934867878331017e-03
1.026907099485227515e-02
9.642141803715498574e-04
2.160207006536591073e-03
1.258823614585333900e-02
5.376865826920306304e-03
5.334184460078428974e-03
2.925652392241408131e-03
3.439080111668964615e-03
8.429280167423718051e-03
3.667887302594116314e-03
1.219900187273433197e-03
2.222271118918106320e-03
2.556170561046286764e-04
-8.556864488341339552e-04
3.005864076784441671e-03
4.395745705344121707e-04
-2.020654774175571506e-03
3.099032893117811306e-03
-1.449484434795226054e-02
-3.467824409143041488e-03
2.811116416414166609e-04
-4.300083456410430834e-03
8.407341996527623040e-03
1.034693163640673826e-02
-5.205248729364932159e-03
3.320625354168678118e-03
4.214870699993474544e-03
2.895717317243215981e-03
-1.451587345319782594e-03
3.713518652854942595e-04
3.993512649051748388e-03
1.312529198453957907e-03
7.016699180871113599e-04
-4.943817043325775783e-03
-3.866565045400274878e-03
-9.237291006431593661e-04
-1.081539265186777445e-04
-3.441415979347439268e-03
2.256600414825856490e-03
-3.274941697519862362e-04
-8.654223304655849977e-03
-3.276334274380358815e-03
3.764676237582688118e-03
1.323830445609688053e-03
-5.823395290503480086e-03
7.817173541142780719e-04
-2.488970413394677502e-03
-4.583550984224491441e-03
-2.200490916542530064e-03
1.803219298734413999e-04
-6.676422879713301770e-03
-1.763018126456391025e-03
-2.344946549898664027e-03
-2.716415055200586091e-03
1.188262022739869275e-03
1.758452618270112599e-03
-9.369569018473964230e-04
2.108268054778378883e-04
5.537926397590929237e-03
9.809354832553698021e-04
-2.445217572796352847e-03
-2.337331127262061350e-03
3.547708694442730428e-03
6.154812923673115381e-04
6.334333774756911988e-04
4.380702937052422950e-04
3.483143077487439818e-04
2.934945332401476680e-04
8.886782671721931738e-04
4.334311045452644991e-04
9.808287233344511417e-04
1.446501356285110999e-03
-2.128394067633774481e-03
-2.554458334036963357e-03
1.210583725382715845e-02
-1.012349537517922768e-02
-1.323166122194322641e-02
1.924192189073794731e-03
-2.698520458687155140e-04
-4.524133187620538524e-03
9.644107490691316426e-03
4.217231590789660353e-03
-1.733762227304722374e-03
-6.006647653476160711e-03
3.354958847502624835e-03
1.206078595557882709e-03
-7.410171724372526490e-03
-2.574007523669248274e-03
-1.773300529122601860e-03
-5.413555690745304287e-03
-3.746376832939005141e-03
-9.333671342212978422e-03
-4.020692491156926084e-03
-5.861793646009787889e-04
-6.770199606595438124e-03
-4.387379368669733042e-03
-2.152454080716750384e-03
-8.033877064272569937e-03
-3.105302318642984716e-03
-4.313785008687374273e-03
6.680285395673890136e-04
1.843421461229519673e-03
-2.928895074283914025e-03
-8.766632605519891069e-03
-4.731342784951812243e-03
7.575506105015241375e-03
-1.796025962541601684e-03
1.363940983462912353e-03
-6.947697412134749579e-04
-1.211568794896878028e-02
-3.408273273754958230e-03
4.151854429407188588e-03
-6.863307031056818490e-03
1.104685589476476180e-02
5.370537646793443337e-03
-9.757381853875604638e-03
1.059248786017566186e-03
-1.284894657647484397e-03
1.983080879600403277e-03
3.437787922167265166e-03
-1.764386705443419558e-03
4.609128145124104237e-03
5.535438057859106559e-03
-8.780410295724676078e-04
5.738114041907571919e-03
4.312076233728838123e-03
-1.568702493936469631e-04
4.201014262105367235e-03
7.861207741269724686e-03
3.287543454357701070e-04
-4.268323194108959023e-03
1.847318995531592413e-03
-6.983969645003193462e-04
-6.508331657983290261e-03
-1.605262717435912857e-03
-1.980735180255088160e-03
-1.152553244641763529e-02
-5.021197985365284840e-03
-1.890534200619829264e-03
4.598288975074272047e-03
7.513968441106242020e-03
-1.031653636018738107e-02
-7.701155287047317666e-03
-4.927480747806970568e-03
-3.114026617160336931e-03
3.305377146262947902e-03
6.154852751739371859e-03
-8.518996938528871840e-03
-5.984026805521403848e-03
-4.966930729324560423e-03
1.193785888928946236e-03
7.801879647483089125e-03
9.888027722995931107e-03
9.641549822636035969e-05
2.794588226411639630e-03
7.542433004348498421e-03
-7.403778231098489052e-03
-6.467739947498990852e-03
-4.542304352469074373e-03
6.971098846536178946e-05
5.541772935303153867e-03
8.022431135919026041e-03
3.898884329752315327e-03
8.513811236110013086e-03
3.972958101345946784e-03
-9.012371818693801695e-04
-4.576286063194774656e-03
-5.721251583322333259e-03
6.211729755814534258e-04
-4.937228592978255143e-03
-4.764448342796536937e-03
4.525887129995936897e-04
2.397859366806583820e-03
-5.532936564059471457e-03
-5.036689032718438645e-03
-3.404230636774842333e-03
-4.580041931461178127e-03
-2.748612061024476808e-03
2.421487619604742892e-03
6.604937202532972125e-03
1.028835512901645930e-03
-7.040276930142460275e-03
-2.426794559129599304e-03
1.022943084070885352e-03
-5.913357219124498222e-03
-9.054821034381628844e-03
6.390540931514713564e-03
-1.096349727009754849e-03
-7.634502944661870905e-03
-8.209476888598160604e-03
-2.753846067361158650e-03
-3.212098271531984434e-03
-5.158093579568596987e-03
3.405616749199308260e-03
2.018066471748670293e-03
-4.830724181917376778e-03
4.863419824696629682e-04
-5.761621439448886758e-03
6.874817110068024220e-03
5.881593288277944982e-03
3.684405006543336157e-03
-7.938822209132188890e-03
-2.289169060270814134e-03
-1.127568033601950535e-02
4.611421912984646964e-04
4.901919765522189283e-03
-3.050621901818989599e-03
-1.978429765995387210e-03
-7.866915431480387593e-04
1.528402592574698397e-03
-2.495326935818588387e-03
1.243332343894278927e-03
1.779493898935775907e-03
-1.007790221419860473e-03
-1.042465809333471350e-03
-1.487140221330974675e-03
3.138373319139386216e-03
1.096997763206879022e-02
-2.727100398079985739e-03
-9.859789214452100489e-04
9.010641087408980884e-03
2.500023584935069220e-03
-8.637565300797013859e-03
-3.443735222721274868e-03
-8.440115877026751340e-03
-5.759958486388680986e-03
-2.564061310709379957e-03
6.485572684781355747e-04
-3.033720494620170509e-03
1.398905650277609087e-03
5.062475687852491420e-03
-1.188911584494150523e-03
8.804456673345091491e-04
3.619061643053500445e-03
-3.461635929152829128e-03
2.243439092124883960e-03
2.274887901958134225e-03
-1.057079768275226254e-03
4.209373512832693606e-03
-2.895064003048972785e-04
-2.366890636820622677e-03
-1.150258254863932832e-03
-3.193530665555160877e-03
3.590134278638116520e-03
-2.275534181649155850e-03
-4.942257355395336671e-03
-7.442929224729479855e-03
-5.173100251271493116e-03
-3.689383746721407436e-03
3.517978153489572345e-03
7.423716866458245772e-03
-2.493249867352229435e-03
-6.170443079872238012e-04
-8.175910438826072910e-04
-1.450537249818881300e-04
-1.812497789443582273e-03
-1.983320299019175094e-03
-1.087084443705251023e-03
-1.694634129786832307e-03
-1.815831905320779236e-03
-8.375374307801643214e-04
5.560688214933552122e-03
7.128159512646824528e-03
1.206487719145870642e-02
-3.905526022990593246e-03
-9.670508689606522462e-04
3.480559418540011933e-03
-8.801355676375646536e-04
2.273550857149795961e-04
1.161372509043403058e-03
-3.687082723726963288e-03
-1.925878730971677293e-03
3.077607754217239876e-03
-5.472296245659424851e-03
-5.386222482591615512e-03
-5.618034702542016798e-03
-1.140363798710450566e-03
2.326039077987879840e-03
3.269963119365300493e-03
-8.190731149991582229e-04
-5.208345882692780489e-03
-4.442210997758215714e-03
-1.227084032393858243e-03
7.038865997523065070e-03
-6.885757851992487140e-03
7.223358324917791493e-03
8.412482408465446135e-03
-6.167335400542618955e-04
6.540943103024362063e-03
4.866083986235334932e-03
-3.734155750805387333e-03
5.545295302812653856e-03
-1.134284626551539544e-03
-4.178317339390753859e-04
-4.948535910089353271e-03
-9.453381051598675269e-03
-2.740447362440473489e-03
-2.906200729051081934e-03
-7.631303048761863342e-03
-2.777321007724490448e-03
-2.095039242109944814e-04
-6.586460667579077666e-03
5.465348882174374213e-04
-4.048799261743060013e-04
-4.325119818937470453e-03
9.220201620756870303e-04
-7.795228980789721323e-04
-2.236343666630855997e-03
-1.509208181213642780e-03
-5.787598828234735704e-03
-5.001536954339575250e-03
-6.204414862519966149e-03
-3.083522215744113545e-03
4.593776854560855175e-03
1.187927368302949200e-03
-3.450909595527632684e-03
-9.333462470726427724e-04
5.226331932409972875e-03
-3.510969312290930164e-03
-5.516829594022939348e-03
-1.461176712761827652e-03
-2.151265002455101088e-03
-3.422074447682636831e-03
-5.189239105712280080e-03
2.269399393161147804e-03
-1.326075618651842772e-03
-7.933323581332652960e-03
1.074323197760159408e-02
3.302368938637619857e-03
-2.219224796339548667e-03
5.072592208380753958e-04
-4.166050053509653441e-04
-7.035386015269520267e-03
-4.090195528392194177e-03
9.953082026677138611e-04
-3.419763878459373962e-03
1.502847719876361943e-03
5.811070141031117117e-03
-1.794862277248610071e-03
-6.750559768197704827e-03
-5.112157890191625260e-03
-1.736131777386020272e-03
1.306968268897613309e-03
-3.759879782678390240e-03
2.948664741393580355e-03
1.650624296611731979e-03
-1.663636379265262392e-04
2.276376540880112494e-03
-5.787610856483047569e-04
-6.434499978752499828e-03
-4.209003691928259704e-03
-1.413711526603534004e-03
-9.540651911760342392e-04
3.173798992436192498e-04
-2.473290993987377600e-03
-2.198525994778964283e-03
-1.258716588039409702e-03
-2.257349379447959239e-03
-2.456696784431942546e-03
-1.849949936194008422e-03
2.178299158771173152e-04
-6.161675059626897308e-03
1.932635742654084101e-03
-4.504503768366768519e-04
-3.497168902061556679e-03
6.478996287748196685e-03
-1.133652475279169503e-03
-6.030677889286044022e-03
-1.035672273779603874e-03
-3.952648117685145061e-03
-7.109632191755616004e-04
2.226036221526221659e-03
-8.094099830624090124e-04
-7.259911789687231373e-04
-6.452960476041977745e-04
-2.122703067678894263e-03
-1.895775653014989673e-03
-1.918757435197550570e-04
2.163945842593607751e-03
-1.530040337817515587e-03
-5.422035506167413935e-03
-5.259255554665697059e-03
-5.887010102117621463e-03
-3.257519162637043976e-03
6.331196138167521404e-05
1.005101335688566135e-03
4.303108056491507585e-03
-2.259533650905498972e-03
-2.208372768666831253e-03
5.847484058873822499e-04
2.845367102139375205e-03
1.778943917415812053e-04
1.776603116708887209e-03
2.663344638334461893e-03
1.364366908388208507e-03
3.369162801644196101e-03
9.893322040824370327e-04
-3.883774955698713737e-03
5.799237886798254242e-03
-5.065416890228812211e-03
1.245435215778525071e-03
8.437143608579845619e-03
-5.316340159600993140e-03
-9.298136180407603167e-04
4.562523083894781499e-03
-3.673894236665862286e-03
-2.654247157999339076e-03
-3.398132234200794497e-03
-5.920276967545889252e-03
-3.730652901932284601e-03
-4.517418714588211127e-03
-7.734588676543198774e-03
-6.374569689720465705e-03
-7.448693571928004242e-03
1.255405561126677911e-03
-2.266119194454832477e-03
-8.512728946781069131e-03
-5.768859457529278666e-04
-6.386583584478395083e-04
-4.301749619483757371e-03
6.135080724784349512e-05
2.555682292023416392e-03
6.527114851576232800e-03
-2.448069653287144633e-03
1.674902980959510051e-03
1.630951969409336283e-03
-2.422132382791755342e-03
2.671410047395635957e-03
1.258793629423268518e-03
-6.796599071390639450e-03
-3.521700294331283742e-03
-3.862293472206058693e-03
3.856202021949978274e-03
2.013259459991100647e-03
-3.318657349284333258e-03
5.068147824386889976e-04
3.916794987512818398e-04
-2.480712049554609049e-03
-4.403276488829637055e-04
-1.642875680424462021e-03
-1.993683764915277819e-03
-2.115187256432942298e-03
-5.039153253999621024e-03
-5.115584047036927581e-03
-2.494155250119753104e-03
-3.052337371658392449e-03
-5.631122892306873046e-05
-4.544425550071092348e-03
-5.054258817886846632e-03
-1.403433014543706888e-03
-2.121992649484418566e-03
9.357676765601659645e-04
-2.939733240284965899e-03
-3.309125566767327949e-03
-3.059794217982691154e-03
-1.787994672630647576e-03
-5.053190531094133020e-03
-4.718931376440335711e-04
3.793226359295760047e-03
1.541035369314222494e-03
1.748410897589289291e-03
7.350673785014887789e-04
2.723115014545614623e-03
-2.870257389088383231e-03
-8.253169625389309219e-04
5.091562506473324215e-03
2.313005935371154368e-04
-2.510983820570284950e-03
3.520452066117889679e-03
2.327054006110475248e-03
2.162407890230102613e-03
-2.765925166243906469e-03
-2.642393747697107612e-03
9.501046761284012362e-03
-1.624118598094344366e-03
-7.216455805978265123e-03
1.583586899602047043e-03
-2.588207804479341571e-03
-3.349405744931269191e-03
-6.263050745715175414e-03
-1.763531586781410393e-03
-2.476199027830063883e-03
-6.565056217336238953e-03
-3.643027963055891182e-03
-3.594318374361788523e-03
-3.389605964910645270e-03
-1.203739649928307247e-03
-3.644625848552409731e-04
1.735353214771928132e-03
-4.781113138114593576e-03
-6.957789374651086010e-03
2.149366042825848113e-03
5.075351304101484960e-03
-5.684089579726257259e-03
-3.218903336098175721e-03
-6.135891668361375013e-03
-4.963362126438833170e-03
2.109098362566421553e-03
-4.940246967995822087e-03
-3.140166537656285603e-03
-2.396338554154998825e-03
-9.446981962527052981e-03
-5.890757343147363760e-03
-2.546475455023790649e-03
5.690077780248449166e-03
7.782046912547778590e-03
2.427744367983731069e-03
3.792905532406005628e-03
3.806961840400574417e-03
-2.983559982898204878e-03
1.394299034646535526e-03
3.618908001494235832e-03
-3.083474906604987374e-03
-5.369309971496505265e-04
-1.770756369742336423e-03
-2.930468316433675578e-03
-2.301413276804022937e-04
-3.297992064169465339e-03
-7.083767258006614699e-03
-1.930566648705417604e-03
-3.054370411466645631e-04
-4.003805966829932991e-03
-4.215655531888758308e-03
-1.284195194284237264e-03
-3.776636527225785481e-03
-3.624478658388328219e-03
-3.205434713659076774e-03
-4.146897032006984819e-03
-3.344580559637143260e-03
1.143372285744119341e-04
-5.047164268771827961e-04
6.859463531099005591e-03
4.277941679470040511e-03
7.580469488826805692e-03
-1.356323299649113672e-03
-3.447750051296837731e-03
5.484373065583176762e-03
5.688133930031504665e-03
-8.376256090131059409e-04
1.737131041689127893e-03
9.006071939698037524e-04
-2.975661591288270621e-04
-5.523719735492862862e-04
1.803795006391570722e-04
-3.293185483710469154e-04
-4.273397128940924412e-04
1.908335148920245049e-04
-6.479943073223992352e-04
-4.024004710850136862e-04
-2.200189055577695188e-03
-1.304970404150176131e-03
4.797196236965157990e-04
-2.052924116357698458e-03
-1.490312623841776344e-03
-2.822310598634597046e-04
-1.147009104947042859e-03
-2.521108259400237171e-03
-1.902855669920452400e-03
-7.974550715569520692e-04
-8.052806060644315117e-04
-2.531638880126913307e-03
-4.720535226845827239e-06
-2.872641932461109191e-04
-3.626038056019807547e-03
-1.801426227421129740e-03
-3.036282677136268888e-03
-4.149545735634223818e-03
1.489775497990933470e-03
-4.834054545681662138e-03
3.613366317015154813e-03
6.355766734399913818e-03
1.573255109174466742e-03
-1.516703511462388389e-03
3.147192064253189186e-03
5.391104612710236358e-04
-2.264921099881138985e-03
-2.191154632851714020e-03
-2.079092314043323297e-03
-2.688124432445830516e-03
1.646798176160693336e-03
8.547365610948464039e-05
-5.616828840083242479e-03
-6.867460769771917793e-04
3.701405106956952035e-03
-2.431170072015507132e-03
-7.543991088003215066e-04
-6.101989256084212367e-03
-3.995407517017773510e-03
-3.549079084495116755e-03
-3.126851440612416714e-03
-2.648860561153552722e-03
-5.862346197666297443e-03
-2.914466027897528577e-03
-4.714476157524170354e-03
-1.230845048430884029e-03
-5.551077364432006889e-03
-3.779320310198650262e-03
5.013312274177650872e-03
-6.250034462206517432e-04
-3.904855512095406923e-03
7.491473188973219247e-03
4.906445817149556084e-03
-2.789856096999777848e-03
1.395056578086090269e-03
5.896432243926838859e-03
-1.055319932735491149e-03
-3.659048714405525871e-03
7.133064958321114028e-04
2.704227840391231627e-05
-3.998355176201866777e-03
-3.403718939540456741e-03
-3.013477693959848002e-03
4.457981663171327498e-03
5.102931764997258035e-03
-4.292349064964155574e-03
6.197811684149037020e-03
4.040223156325729176e-03
-2.386740163487797127e-03
4.885916588767926687e-04
4.104500021265886263e-03
-8.732474347060268814e-04
-4.438461782600892393e-03
-2.382967926649025032e-03
-1.147823599065123969e-03
5.106944302454651365e-04
1.662489366289576645e-03
-4.593079040216521865e-03
-9.043884207785275015e-05
4.140159667322128138e-03
-1.741155082899539970e-03
-7.400742094760024564e-03
-7.517626900451338835e-03
-1.007438898302048802e-02
-4.585347239992901454e-03
-4.011385945918028925e-03
-8.235455123934663779e-03
-5.561889472053545974e-03
-1.415312414806462783e-03
-1.777353843109615722e-03
-3.380174591694683705e-04
-1.035050319915823899e-03
-1.853520191849125339e-03
-8.670630454872831593e-04
-1.029655485814789202e-03
-6.344246648891951022e-04
-6.341984954239738605e-04
-1.199093411903367785e-03
-1.129979289829497564e-03
-1.070280350504376694e-04
-1.013242953562950785e-02
-3.689101061983984971e-03
-4.625937451401790183e-03
-9.056534075457027544e-03
-6.423038551731019216e-03
3.363039396518617812e-03
-3.999817004965147346e-03
-5.482141479519111321e-03
-4.307034528833720254e-03
-4.642434685361042195e-03
-1.856620950363522269e-03
-2.013928381925915272e-03
-4.018374972952884830e-03
-4.166341783128689122e-03
-3.618724935597426168e-03
-3.242527358085229260e-03
-5.955145411033372499e-03
-4.387597749302606098e-03
5.311804293827695513e-03
7.887770484720264689e-04
-5.305268072480169572e-03
-7.046205308845695375e-03
-6.399266936614850590e-03
3.697621342945016138e-04
-6.840363902656158498e-03
-1.426891321934902271e-02
-9.022086816337411205e-03
-1.206886952243103883e-02
-5.619925409323112304e-03
-3.918435968354784548e-04
-7.289615412567651206e-03
-1.119685088002950711e-02
-1.421250871254099019e-03
-7.844315294235096282e-04
-8.800036296812276809e-03
-6.676477439462974797e-03
-1.387057309626651969e-02
-4.968088501731059321e-03
1.697641163038262962e-03
-4.311334958148725291e-03
-1.059806691625279386e-02
1.018380960509661891e-02
1.450924326951439323e-02
4.383071118727135972e-04
1.495574095813749244e-03
2.857883699189608852e-03
-1.212439278117009075e-03
5.421449696332031158e-03
6.689217125244472685e-04
-4.023389308952811730e-03
7.562884819143599925e-03
1.496658723392889747e-03
-6.225340938458634801e-03
-8.542735012638327102e-03
-6.195204864357756538e-03
2.183832689330506005e-03
1.100053987599219386e-02
3.062773769990614642e-03
-4.385943225521801540e-03
2.000822280103547318e-03
7.716359211170721426e-03
2.556473497159522830e-03
-1.418593025394284182e-02
-1.267400280803646605e-02
-1.044081601739461039e-02
-1.036348613101509969e-02
4.944074018288458112e-03
3.747936461376727077e-03
-6.381188828091166262e-03
1.814608059530524106e-02
1.024288584894491629e-02
1.669033329259535323e-03
-2.420448637740634130e-03
-1.969158597097812099e-03
8.261126267397696579e-03
2.143576679797918813e-03
-1.397627866533326674e-03
2.045699064530031653e-04
-1.165195415494261555e-03
1.053144691952933969e-03
3.659952881480259615e-03
3.322105692179729442e-03
5.810120294985355802e-03
1.660236634002094360e-03
-1.751252069268425214e-03
2.759886472439133058e-05
-4.417060732568855834e-03
-7.338753990109564591e-03
-7.308196339729212086e-03
-2.443855592510891898e-03
-5.922329883117671487e-03
-5.761905480943501089e-05
-1.167257266570956791e-04
3.232371192129017065e-03
5.489044811828729456e-03
-1.046998960106811094e-02
-1.810530577123001380e-04
4.802802817815984317e-03
4.956575659750390994e-03
9.271550528122401644e-03
2.305643608824322136e-03
-4.718832315763124910e-03
8.729972339698882807e-05
1.748579700810865174e-03
-1.318640930703836485e-02
-9.231905941002132437e-03
-4.981673655268247479e-03
-2.430837662175492752e-03
-6.896531207034351484e-03
-1.176138592792939398e-02
-1.156871609694995473e-02
8.183443839696108099e-03
1.401388587932057578e-03
2.298387571762466192e-03
-4.688299080184778894e-03
-3.543457443233641486e-03
-2.463092141295300172e-03
-7.352257269871059590e-03
-4.702567216760857038e-03
5.347894843476563506e-03
-3.574166002347086649e-03
-3.622955616598251809e-03
1.107390298846293655e-02
1.405498693566399268e-02
1.020936516767966679e-02
6.674573295378896307e-03
-1.051188666414591363e-04
-9.067041412421669375e-03
5.151197201583337416e-03
8.619560396600512917e-03
6.781522756513390891e-03
-4.017085028224348306e-03
-9.451281355928101841e-03
2.623474028038390391e-03
-1.136657984743734157e-03
-1.586857946571450457e-03
-7.422531278470681851e-03
1.836656099049443873e-03
6.063440282652792033e-04
-9.730148908226205764e-05
-4.399443769141691586e-03
7.067272757308163105e-04
1.466643334183999163e-03
2.478123135197866835e-03
3.613225265636491393e-03
-2.281288160043354243e-03
-5.257301615907000562e-03
-1.140542106128813495e-02
-9.608509102818865721e-03
-1.105741121065238405e-02
4.112957325310531535e-03
6.555582285516835771e-03
4.835387317707741210e-03
8.034822520985079788e-04
-7.653769340557792678e-05
8.962534273377554400e-03
1.798931862390448040e-03
-3.225926947233878194e-03
6.191137905571788766e-03
5.158019454964715873e-03
-8.237665747393726687e-03
-8.125136241166152837e-03
-5.790322416227228555e-03
-1.822999384885684365e-03
-9.670427355904183397e-03
-5.214573397198820834e-03
-5.809777856339971500e-03
-7.992149656526276527e-03
5.236525882234024888e-04
5.670911513865141244e-03
-1.133313851427861316e-03
-1.269375017341113458e-03
-1.047240771882891261e-02
1.029218312269987359e-03
3.408738460013456279e-03
-9.557154671522427938e-03
-1.611391244556690649e-03
1.808052053774475854e-03
8.779389372267128872e-03
-1.075958219703730808e-03
7.651786269312055560e-04
1.333468608237969736e-03
-1.412089216801146532e-03
-3.589526490840526211e-04
1.761843462945778037e-04
-1.051981621298726018e-03
-8.827564196547077425e-04
-2.628513369455998203e-04
2.176518772350099790e-03
-1.505891180771661182e-03
-1.873508558898861077e-03
7.118482804516872153e-04
2.732168305626626534e-04
2.998204406163277463e-03
-3.178624952125663587e-03
-6.915732606922767207e-03
-5.407940523342465687e-03
6.761565760597358296e-03
7.728030959836862217e-03
5.540007343458476508e-03
3.398471825297275963e-03
-1.036757939885495430e-02
-7.940758603026829010e-03
-1.005494680679910446e-03
-1.308530213964609161e-02
-1.365195874965137619e-02
-1.463987992946114147e-03
-7.744010447750141607e-03
-5.290212558539380411e-03
-6.480751338311665014e-03
-8.101809371155925185e-03
-2.444907323249052595e-03
-2.548016714878293450e-03
7.332731111021469246e-03
6.472396424687083295e-03
4.186382316676015049e-03
6.770442014433750849e-03
1.159477553053303404e-02
5.014837164817936496e-03
-1.441483165109998070e-03
1.387927528940240303e-03
-2.083774516534788509e-03
-1.262477351687675423e-03
-1.890246589453790189e-03
-1.513313933046184744e-02
-2.946944476988399252e-03
3.963814034970398505e-03
-2.820259015990519546e-03
-4.777561280100123264e-03
-2.605528306673862270e-03
3.899713182774669062e-03
2.224471127270385203e-03
-5.791244075002975264e-03
-5.415999091784071996e-03
4.881908039151746856e-03
1.267183578388595550e-02
-6.537354952039507554e-03
-1.248553884764751556e-02
-5.444049384092839415e-03
-5.495890217177528368e-03
-1.163053227090619229e-02
-4.010732338836734204e-03
6.145822349268209410e-03
1.039997742017276369e-03
-5.673283117218672587e-03
1.898461749384127394e-03
1.875248955431551082e-03
-1.223447975483485557e-03
-6.830068222744489423e-03
2.427079466445935217e-03
2.322675248420623395e-02
-5.880871655058693241e-03
-1.073907081673778373e-05
2.592825032622944267e-03
-1.145238272247527632e-02
-1.367054578051343696e-03
-3.185219474336601232e-03
-6.678965855015762433e-03
3.782346599135766405e-03
-3.537990632308488526e-04
1.488408204094129222e-04
4.770222737845278976e-03
8.597444164013921461e-03
3.421728187043088449e-04
-9.804292031526572193e-03
3.957566581798329167e-03
1.540664930702653236e-02
-3.422678470069463567e-03
-3.340402060614454990e-03
-5.117651474098787977e-03
2.095035423015441118e-03
1.061944333824410384e-02
-1.237231878137353292e-03
-4.451367738836661467e-03
2.373222728416258653e-03
1.735769717237383922e-02
-3.858558455961324032e-03
-8.106298958583524686e-03
-1.655584982802556010e-03
-1.389932994452646071e-03
-1.492823494753552690e-04
-9.983721883755813844e-04
-1.009522596829911124e-03
-4.973434711953197669e-04
2.006028736631441153e-03
2.427206802266744685e-03
2.953907746898608473e-03
-9.747657267878927223e-03
-1.092600527397000025e-02
-1.557439793933023189e-02
3.543846817231159608e-04
5.978197685226420942e-03
-1.292655078282666349e-03
-5.286244100851163197e-03
1.438722903365214495e-02
9.159597084938722947e-03
-3.149240054131348474e-03
5.273560611208767679e-03
2.374890722432653140e-04
-2.399377506010622247e-04
4.439093828545168097e-03
1.004153024167921994e-02
-3.385690255501992620e-03
-3.240483220568119924e-03
1.050151837124551572e-03
-4.568393962954425853e-03
1.565870092202522115e-03
2.471934074106505244e-02
-5.650575925818268966e-03
-2.136898538736711414e-03
1.242821240642717762e-02
-5.069397815819906214e-03
-3.076119477347194747e-03
4.741365983545305085e-03
5.266169250137084888e-03
4.761587829560623604e-03
-6.023239453140617587e-03
7.896591624311052188e-03
6.339734192586477662e-03
-1.117720659306898484e-02
4.830181463373498657e-03
-3.068260626994956126e-04
-1.873055189015716696e-03
-8.122710677170236551e-03
-7.475565216975073746e-04
5.577130743121378690e-04
4.733374188719733462e-04
1.317095855673241145e-03
6.424055107173336741e-03
-1.583374223762961308e-03
-3.325324144718710701e-03
6.045199829664363485e-03
-3.826602290100601655e-03
-5.463462714206696047e-03
-2.909384754290947946e-03
-1.071372871281937780e-03
-4.934960532356848228e-03
-1.527020960723476440e-04
-8.804754986008224427e-04
-4.664431470619734288e-03
9.542619334578366112e-04
6.457086178405087480e-03
1.598901163434272204e-03
1.318844806608149636e-03
9.230099483620934171e-04
-5.425545303312194305e-03
-4.608066711496841550e-03
-3.188956393214295928e-03
-5.370003253667138439e-03
-5.289134693602090065e-04
-6.472426726899498800e-03
5.510630774674269046e-03
-9.371790392343339960e-04
-5.253831129040443734e-03
5.709279902614818221e-03
-4.230637687844645807e-04
-2.687041425317282517e-03
3.145958856338768473e-03
-4.230884584723694671e-03
-1.302551965590463480e-04
-3.290331176094765577e-03
-5.225809089589693182e-04
-2.659961762177509657e-03
-6.704036504157352173e-03
-4.174023678843175912e-03
2.120882847449148765e-03
-3.379615238971827012e-03
4.762316755200129482e-04
2.492560636040645067e-03
-2.844333057053343924e-03
-2.306270133906909454e-03
-3.389598679826485213e-03
-6.611503453146260444e-03
-5.874778292490477789e-03
-1.624754745748544687e-03
-5.399170195459671896e-03
7.475510257628954509e-04
-2.369315226761285406e-03
-3.456874297760871486e-03
1.887887657683468218e-03
-1.974034331832686274e-03
-6.752478377726564562e-03
1.141014598313157139e-03
1.038455668420205230e-03
-4.149112977054066065e-03
6.697871981536693275e-03
-5.795686078997699421e-03
-1.797855340956491669e-03
7.568193732538445670e-03
-6.128044741261565176e-03
-6.923022607018698357e-03
4.439732621047112228e-03
-1.687384198043433321e-03
-3.900664799030812303e-03
3.460234717229693138e-03
-3.958156476856238525e-03
1.814847527048188696e-04
-6.006552316630590742e-03
-6.646613063318238673e-03
-3.984144516286399059e-04
-4.357360326212255351e-03
-2.986545995528184475e-04
-7.285070913113110558e-03
-6.047847458347585872e-03
5.903262192134302441e-04
-7.692883883528019162e-03
-8.588579373011719434e-03
3.415168221483444542e-03
-3.810272305304651750e-03
-9.533759619069739205e-03
3.757535535311196627e-03
-5.094900296990316317e-03
-4.652323943476841667e-03
2.122862896551989433e-03
-7.818486326048888551e-04
1.428298193189635884e-02
-6.545967038005880319e-03
-5.883885072949547601e-03
1.874352095127011092e-02
-1.025874600122294970e-02
-9.819803183194943802e-03
1.317538622955859162e-02
2.445733088219057775e-03
-3.799665319575064142e-03
-3.754381507515262232e-03
7.091213332568613130e-03
2.383859621058247689e-03
-2.613109003646693369e-03
5.361591784568601679e-03
4.187376783093373599e-03
-8.703079691473746167e-04
-2.219421425541362848e-04
-3.746007854480569183e-03
-2.378573271475730062e-03
-3.766491555729078924e-03
-6.438617653180943139e-03
1.425065255873814857e-03
-5.223617942814909321e-03
1.582849841010999228e-03
1.902489700468867418e-04
8.559159147627132301e-04
5.620943090119184457e-04
-2.458614079921094941e-03
2.928312618637242751e-03
1.485163889104907818e-03
-1.951935464479576674e-03
4.953974113114521099e-03
1.864811623240644929e-03
-1.159213116841458467e-03
5.265617975961945155e-03
-1.079283907802280071e-03
-5.922093751571342072e-04
3.372716076284236301e-03
-2.335674056366195388e-03
-1.443800846544390001e-03
-4.153491741104341564e-04
-2.945376739285939308e-03
1.254633634416237866e-03
-3.433479936096184206e-03
-2.638403244358873082e-03
-2.153913414466714343e-03
-7.318220642749632444e-03
-7.073917609537799453e-03
-6.516754885008129751e-03
4.559777950968345512e-04
4.338129429141028733e-03
-1.239146813386879549e-03
-2.582079158513536209e-04
-6.709841522064407138e-04
-5.607526959095915364e-04
-6.674217613424157257e-04
-9.651190094229747298e-04
-1.147713672005167083e-03
1.351370151012767462e-04
-4.147042001326606124e-04
-5.683927173057227696e-04
3.932262557407199995e-03
-2.196568253768123140e-03
-3.166853828290499412e-03
2.123826281787324476e-03
-4.611366457192119656e-03
-1.283921671648768003e-03
-4.008999754515205809e-04
-6.653311884903157121e-03
-3.200342557930451956e-03
9.871118741473464565e-04
-3.710244446582587011e-03
-8.751884263113067280e-04
-1.139052953028053816e-03
-6.623805606964400586e-03
-2.970175673597467980e-03
3.672085517093672089e-04
-5.884797364480845450e-03
-2.207192971029868240e-03
-1.076783677732349401e-03
1.876677295646335094e-03
-9.016233675803984188e-03
-3.315770630492103840e-03
-1.941411506019050321e-03
-9.100461814980880318e-03
7.525938567014013245e-03
2.314536389320287230e-03
-3.181678733745482192e-03
2.823103118811657979e-03
5.513116214461453134e-03
2.912729879262838505e-03
-8.045672128051248231e-04
1.531275956998578167e-03
-1.262029027897150968e-03
-4.353142574558254221e-03
-3.656127642365940614e-04
2.050517152884572154e-03
3.700100497545837975e-04
3.832002760160229185e-03
1.313531296688222436e-04
-5.023514493094639530e-03
-1.542673298462492399e-03
-4.459361343109970351e-03
-7.884701413481711579e-03
-5.603931071602894984e-03
-4.356713083270650697e-03
-3.012439578834433512e-03
-6.053857019142184527e-03
-2.528598672597827651e-03
-5.969458959785084277e-03
-2.877839938403941450e-03
-1.078149089744188461e-03
-3.188362428904862288e-03
-4.168950275717945263e-03
-4.839198157564924933e-03
6.606748377242893135e-03
-1.409477810500354457e-03
-6.582277518294130797e-03
4.226332034851133443e-03
-6.101885100937252948e-03
-6.890548356318117185e-04
7.279782210531065070e-03
-2.636871945880307506e-03
3.688491470160098259e-03
-1.432460733390425412e-03
4.979283816395028116e-03
-4.315454244974945529e-03
2.732405575503827136e-03
1.317726711653846410e-02
-1.990724661699215525e-03
2.176429939236050278e-04
1.293427705706327521e-02
-6.940841032087524155e-03
-3.344258563849405227e-03
-6.971220272851181080e-03
3.800118944269790730e-03
-2.315753898504649844e-03
-1.691397238738495202e-03
2.893801510702359407e-03
-3.243329170165313788e-03
-5.148948528077861367e-03
-1.876146862324158454e-03
1.113360988167078200e-03
2.458627693704078677e-03
-6.211934720792003893e-03
-4.984675042527937595e-04
3.023737506068288269e-03
-3.810953330596622730e-03
-5.790261238585817441e-03
-6.460970308340291575e-03
-6.655009237919843473e-03
5.446669524646512769e-04
-1.284003707296598818e-03
-1.706925859123754972e-03
5.292355781884573685e-04
-1.092856681365559149e-03
-1.736912653180413798e-03
4.897038583534684590e-04
-3.405687818313600924e-04
-7.813597129172423009e-04
3.837697019018071129e-03
5.767920348424109825e-04
-2.349252208214109661e-04
-6.627604692773806034e-04
-3.066707479235058868e-03
1.299646633037502630e-03
3.020613226909243682e-03
-2.400412804666571427e-03
5.015384879725282539e-03
2.201786786542815535e-03
-5.639689101216241798e-03
-4.833672474316126969e-03
4.924117574388878031e-03
-5.592952648090667930e-03
-9.198615341507471871e-03
3.995542446000194606e-03
-3.394388042294403142e-03
-6.675126879670347825e-03
-7.102771981401878078e-03
-4.385374364707285248e-03
-8.810734635745123833e-03
-7.350878942406336054e-03
-2.320670398825252275e-03
-7.231571380746455203e-03
-6.821389859879691507e-03
-2.071558179417955139e-03
-4.677564552093030521e-03
8.801114997767351886e-03
4.842884156624146369e-03
3.347388259089899461e-03
1.552008891829201320e-02
3.248996798540258312e-03
3.926162975050035905e-03
2.697525737491175690e-02
1.567711692511805643e-02
1.084524278835076114e-02
3.704460965483641517e-03
-3.123503473015996185e-04
2.980869322818230187e-03
4.232993760579827416e-03
-1.352627310085130008e-03
1.970535492937035196e-03
9.289727837390259575e-04
-1.363837479309823074e-03
4.901055929819320145e-04
-8.823637871753542460e-04
-1.878754375402579089e-03
-2.926130439395293464e-03
8.720301245306433767e-04
-2.397981373292046997e-04
-2.068846237512102920e-03
-2.235387737528218323e-03
-1.723942940796973754e-03
9.864343547920718968e-05
-4.963572256751571689e-03
-5.364978704350122779e-03
-4.973634356077764711e-03
-5.388761370955716390e-03
-5.578033769055093516e-03
-6.410984729514260412e-03
-1.987799688368422756e-03
-1.410275249729873179e-03
-1.553308222151596370e-03
-3.349821714477788787e-03
-1.293336505055479825e-03
-6.061011747745766176e-03
-6.679322362072525297e-03
-1.316573682605271054e-03
-5.026443438669599140e-03
-8.204674639242128323e-03
1.451249434578367808e-03
-1.536649888700083099e-03
2.053168471906164987e-04
-1.249637499837710341e-03
-4.589595131617984006e-03
-3.725615605266705075e-03
-3.019899105775181516e-03
-4.524255058030546978e-03
-4.319072261699328195e-03
-3.679544009755693519e-03
-4.310263556775041811e-03
-3.885878485236307894e-03
-4.014674767500567634e-03
-7.033795095366606777e-03
-3.223021019845045704e-03
-5.626072078190457772e-03
-8.652799394489426449e-03
-4.107037138486065511e-03
-6.435881014077988842e-03
-7.002297819028650665e-03
2.682487793634901613e-03
-4.992925638057576013e-03
-3.505718385204940109e-03
8.264824281928056680e-04
-5.313739645897848710e-03
-2.897105663977642478e-03
1.938232533365079552e-03
-1.652829788373688788e-03
1.407916030070630660e-04
1.946495585176704094e-03
-5.067308853820650218e-04
-2.855077085697073271e-03
1.148054723240545926e-03
-1.016933607634667005e-03
-1.580498841886876678e-03
2.007504065518914312e-03
-1.041200373219468723e-03
-2.354899549977414880e-03
-5.992004511191600762e-03
-9.354965047327173239e-03
-1.145645302182483720e-02
-4.974675460904270062e-03
-6.470413998532813238e-03
-6.109451504014830857e-03
-2.975935640900883444e-03
-2.562200484413740178e-03
-3.523914259537954232e-04
3.751513785067663379e-03
8.041737796529505738e-03
1.130334531769878505e-02
4.754195510879733605e-03
5.310204712759384292e-03
5.599478133250953421e-03
6.049811585989466577e-03
7.148208020641555818e-03
6.690482658012115481e-03
-6.090534763843860654e-04
-6.393758431217276767e-04
7.700015234194501190e-04
-7.419923419867470796e-03
-4.353196908632379555e-03
-2.963749169308946534e-03
-8.686629559360774244e-03
-7.858781259383607054e-03
-1.508958567431476069e-03
2.055399809243903947e-03
3.111802281612650184e-03
-1.734663236241026528e-03
7.156569834682231963e-03
6.652915770065871877e-03
1.301192695857061486e-03
8.716829802172358643e-03
7.512645403487650496e-03
2.513461734519353147e-03
-2.831323129041784809e-03
-7.441108902340004029e-03
-8.880940307653467300e-03
-5.962822077132558587e-03
-7.590451501554570241e-03
-8.244098322717269625e-03
-5.073203252703647158e-03
-8.130609529728436910e-03
-6.071593907314635878e-03
-4.190135546763860983e-06
4.291949233389910461e-03
-1.691323187430504604e-04
-3.269566903735103038e-03
3.318111000166419286e-03
1.151204631336886353e-04
-4.462490275568862380e-03
1.120143073610452029e-03
-2.830106811489986845e-04
6.443588241251700568e-04
1.077828298139552130e-04
2.323256098978190116e-04
-3.027841590484538301e-03
-3.571986692499965876e-03
-2.402375472200510027e-03
-4.252681732044430625e-03
-3.813693795439194491e-03
-2.257317710026387949e-03
1.798572405905239776e-03
1.896363090237631688e-03
-1.014623194890943748e-03
-7.461374846118470862e-04
-1.497443088392391925e-03
-1.308908946158011868e-03
1.083484814577160291e-03
-1.936433321793652046e-03
1.127217287394142791e-03
-1.235806030121700590e-03
-7.257873796647714999e-04
-1.473363314815350758e-03
-1.021019591356451834e-03
-6.258429897002663368e-04
-4.230617068865113691e-04
-5.373214358666312000e-04
-3.344037397747107176e-04
2.803535834510727785e-04
-2.529886533032238874e-05
1.989160211899183330e-03
3.889708556663913283e-03
-8.467334920141704122e-04
7.289268701505724393e-04
1.909971606682412315e-03
-1.553566283590627692e-03
-1.193465251638667259e-03
2.020077547240968583e-03
2.520536440473620556e-03
3.690739741976804388e-03
-1.048205486254195950e-03
-5.280158847452012067e-04
2.148716991148131184e-03
-3.652594717659838133e-03
-1.470292006360103846e-03
1.501019363859296780e-03
3.494052301969395873e-04
-2.444393550842110206e-03
-6.161130727019500930e-04
-5.521553422075058289e-03
-3.897338513057088324e-03
-4.080644819426135043e-03
-4.485519921192159323e-03
1.922790353408505111e-03
9.530222067971726857e-04
1.577690844690145169e-03
-3.419839705339565005e-03
-1.345230970659011928e-03
-1.827057762370866076e-03
-2.060007018012062745e-03
-1.940721768084991078e-03
-3.929551241356655025e-03
-2.937297625722957994e-03
-3.932877658227473816e-03
-8.154843844866550145e-03
-3.949473650072609678e-03
-1.957156163924121607e-04
-3.991742899765167267e-03
-1.911187350035203902e-03
8.908156684315593314e-04
-5.945249946977038125e-03
-2.328329721396168355e-04
2.965450110821899951e-03
-2.337412073161080576e-03
-7.498291740789799105e-03
-3.400892942763419392e-03
-7.475298351732317112e-05
-7.457047026180998843e-03
-6.408466128616608498e-03
-5.086872962356792441e-03
-6.857764218518675944e-03
-6.066376407031412975e-03
-2.156540206521076475e-03
1.691450659609860597e-03
-4.692977037758146522e-03
-5.049911936390422476e-03
-2.499799325396427716e-03
-5.159522589291995996e-03
-5.743472150752044862e-03
-9.391311024129571881e-04
-1.451297011067445401e-03
-3.954872269128044946e-04
-3.413051360632487260e-03
4.108829459669418780e-04
5.373350361802330978e-03
-2.456936025817835125e-03
2.807623639263646768e-03
5.324657301743144361e-03
-3.571805409670894809e-03
3.643902985275938606e-03
6.226552172808945754e-03
-7.841123819661465627e-03
-1.617357004202723495e-03
-5.693655629323190939e-04
-4.589002066073102730e-03
3.067092193973552710e-04
-2.767989963009127841e-04
-3.483057375343564296e-03
-4.314630914415505517e-04
-4.517389442542932764e-04
-5.212391552637323303e-03
-5.802389234257147562e-04
1.379551829595293414e-03
-5.390609471471093268e-03
1.936866431901116846e-03
9.679673764997453588e-05
-1.015234815266564949e-02
1.444056197543553332e-03
4.108564835956032141e-03
-1.273177624783124661e-03
-1.999188843626163118e-03
-3.054396653948485228e-03
-1.014086909424923803e-03
-1.009282504312381369e-03
-1.407760586196834000e-03
-4.594133928675986291e-04
-3.191035674351897617e-04
-8.818698119732417589e-04
-2.243046896042275484e-04
1.534014807432620162e-04
3.351877346919658433e-03
-6.042699721156659896e-03
-6.030396277024335262e-03
-4.070670982690024163e-03
-2.687995838615215780e-03
-3.229436299255011855e-03
-2.815796459802882585e-03
6.165487585020995934e-03
8.898646800376417559e-03
1.168150129914197471e-04
8.844682593441151666e-03
8.770333665561583225e-03
-8.000448130341368405e-04
5.679039803764837115e-03
4.716277869369186505e-03
-3.467022129842108578e-03
-1.906913039171228641e-03
-7.990999497587485470e-03
-6.811840691206779742e-03
3.423179846442469219e-03
1.016246384835833719e-03
5.245505505704291076e-03
3.874518495271522985e-03
6.538506993446818651e-04
1.524919785567142166e-02
-7.696357966069464901e-03
-2.767108446460068028e-03
2.505980082106853100e-03
-9.625016923814904042e-04
1.731251115796614759e-03
1.241368456628013902e-03
4.146231831797441911e-03
5.498687944462825154e-03
-3.952407893748656476e-04
3.853519981006709588e-03
6.623366296932340150e-03
-6.502472750329165363e-04
