-3.481970360737902687e-03
8.254009206292468870e-04
-3.507052975003733218e-03
4.776478692413018215e-03
9.482165379056977511e-03
1.816699041764485278e-03
1.098425592928256762e-02
1.448084753884030899e-02
7.208458606566215711e-03
-7.804841537214422115e-03
4.161524127899874498e-03
-1.434830366475857780e-02
-1.698767743868025842e-02
-2.039262965508975307e-03
-1.372832683177186743e-02
-2.191702676346036702e-02
-9.898050186866617917e-03
-1.033585507854340411e-02
9.306376496788087982e-03
1.476700734982220112e-02
7.947391192407567140e-03
1.739585769475677363e-02
1.486941680000304286e-02
3.731113199230796235e-03
1.127857343715369005e-02
8.223963676895885630e-03
-1.341363595020458833e-03
-2.495055172296772178e-02
-3.573015136378673243e-03
1.678066978216982003e-03
-3.412674655451416322e-03
1.210874051251695921e-02
1.862069929499784657e-02
7.310370193318967667e-03
1.549373753882831231e-02
2.481184648406606352e-02
-2.529021545576959698e-02
-2.012045148612840936e-02
-6.854798867692789635e-03
-1.623775093342655698e-02
-4.762044718295851617e-03
1.515682032098575500e-03
-1.740741127011849465e-02
-9.502292395727472349e-03
-1.009423114319994361e-02
2.491753608725190416e-02
2.221004933858276159e-02
1.622928915228783256e-02
1.384378561575734697e-02
2.023482835895170501e-02
1.480633232718524261e-02
1.177499232954901283e-02
1.603840392343675036e-02
1.467216802553870242e-02
9.688756478088384611e-03
2.634438773833439745e-02
1.328125631413996227e-02
1.805377107051637240e-03
3.496408942192182068e-02
1.934349834136680699e-02
-2.105019422832787521e-03
3.093299467138840506e-02
2.000343433811923796e-02
-6.786270690565449938e-03
9.583196964421046918e-03
-1.739249162846559851e-02
2.267326017118281509e-02
3.349254931103649163e-02
8.133410802246941393e-03
-5.249966596974522774e-04
3.768340212088204522e-02
1.466063802890220369e-02
1.097259015171113579e-02
1.012659768642241824e-02
2.917283741272069450e-03
1.757612653481898171e-02
1.405460001680287202e-02
7.020348078736794901e-03
1.211513170215290126e-02
1.131901908151463840e-02
6.279910519778302523e-03
-1.556619604553331412e-02
-1.182433176065803525e-02
-1.654232328963305479e-02
-1.355926845596634039e-02
-1.207503838357122314e-02
-1.579431750191602826e-02
-1.456600955804660501e-02
-1.115472144004652812e-02
-9.601702198427581811e-03
-2.884886843828611287e-03
-2.015334353680166019e-03
5.637906279071686370e-04
-5.410497062802754539e-03
-1.345918083267088087e-03
4.449237695568343358e-03
-1.498339906795355739e-02
-1.026496902889326157e-02
5.522812287777663235e-04
-1.392809554861747234e-02
4.716654859172437868e-03
-4.595456146203002329e-03
-8.581327172768922137e-03
1.181240092569266209e-02
-4.331353013082679063e-04
-3.331690677947591293e-03
1.568322647351416688e-02
6.285136324144355649e-03
-1.132973032724408219e-02
1.951080159275191128e-04
-9.095128735034063413e-04
-1.074833126994853214e-02
1.766960669465399278e-03
4.888579811722063365e-03
-5.544938075695936622e-03
4.373050227019521959e-03
7.200783324974752500e-03
9.222888025033321169e-03
1.132339496769316223e-02
-3.605480872859004142e-03
-2.718711305956996675e-03
7.070769963047662636e-03
-7.017402635222104793e-03
2.115672399298735781e-02
9.458003961194018025e-03
4.951249895219477989e-03
5.007862685511765485e-03
4.456086095657845088e-03
4.730737049549995667e-03
5.846606183401934767e-04
3.194650855902554827e-03
4.611488324258898770e-03
9.747690553226395077e-03
1.183883999420867923e-02
1.065195526322775844e-02
1.788143308374550919e-02
1.291917111078506007e-02
4.067797068999544526e-03
2.232500104446592457e-02
1.400053752311283296e-02
1.008348439387274365e-02
1.702116329380148896e-02
6.409135213999489836e-03
6.461006512362306269e-03
-1.487161341620953396e-03
-1.245586293229762782e-02
-2.087396593258189145e-02
-4.191774712241998126e-04
1.583788695300614646e-03
-2.677248597045756712e-03
-1.185257597974190280e-02
-6.253605239981683585e-03
-9.746120732946610132e-03
5.628526067566849006e-02
4.679746606679079102e-02
1.373139407068015710e-02
9.438893370707137145e-03
-1.070333491926336519e-02
2.167821747008060341e-03
-2.908094129911773570e-03
-2.126565511915216866e-02
4.847429530414405427e-03
-9.667277830969248434e-03
-2.813374544155468077e-03
-1.177041761623452525e-02
-8.870686891381414016e-03
1.648912198752963080e-03
-1.040646751658937455e-02
-9.028541327465382888e-04
7.157978517409206362e-03
-3.395805486669512853e-03
8.847391745467805130e-03
6.554776608676987290e-03
3.986661069953763986e-03
-1.567459761360003381e-02
-2.895576677161252471e-02
7.102354034766300908e-03
-2.970660600553498391e-03
-2.437589987305159578e-02
3.066968676015577929e-03
4.972457882350123093e-03
-2.224473721225164041e-02
-2.361560601161142095e-02
1.494114557899648039e-02
-1.227919197845276679e-02
-9.180587208024670876e-03
2.890098940030692148e-02
2.309389147269844123e-03
-3.691620757932910935e-03
2.140967652236016108e-02
1.965193921125681434e-02
1.394474490384400682e-02
-5.186982486623217120e-03
-9.878999939757764515e-04
3.054273234235912928e-03
-2.002275856036667481e-02
-1.620874435350891721e-02
-6.122735271474983795e-03
4.646431052700682879e-02
3.698064335063905306e-02
2.637138270293580208e-02
1.147647788357261667e-02
4.786602195566789369e-03
1.911871859650657660e-02
-2.514069669058421365e-03
-9.564556536318061242e-03
2.584648661012687795e-02
5.352966613199543894e-02
3.707326626305965100e-02
-5.441026893299460293e-03
-1.286706749308551452e-02
-3.829753344208218502e-02
-1.657679738714713802e-02
-2.865426874314527458e-02
-4.070921616971238943e-02
-1.025527332185178185e-02
1.228414011504918094e-02
6.851531728552218668e-03
2.979296603295814114e-03
1.915535730546601839e-02
1.190085467217267580e-02
1.173888881427415445e-02
2.198832592576378114e-02
2.405359334680103045e-02
2.569072146582425387e-02
-1.525593997014786443e-02
-4.803413009852073451e-03
4.666607647844317822e-03
-1.479082178388037988e-02
-7.173332150483931885e-03
-1.405039490816282002e-03
-9.634656974825394141e-03
-4.885812781376784250e-03
-6.989715881742511114e-03
6.134695884716104969e-03
1.245791167751275803e-02
1.576894926525929455e-02
1.511953695483565958e-02
2.269144497021374426e-02
1.296911758611745541e-02
1.805563836544895120e-02
2.297200225671246904e-02
1.877891965779604141e-02
3.568437586656796317e-03
-2.003372983739206206e-03
-6.289573994908530252e-03
-1.421771582383770174e-02
-8.413709415955053506e-03
-4.940374528122549146e-03
-1.865193301067752385e-02
-1.835348429192101491e-02
-2.001767131785846601e-02
-1.875589960473939347e-02
-1.933583526998212954e-02
-1.078232212543024128e-02
-7.410755583977236133e-03
-1.462021638841069261e-02
-9.250683487909827987e-03
7.294180047476971074e-03
1.501709865442356394e-03
3.433585529485225912e-03
-2.184579954722815770e-02
-1.894652044874338545e-03
-3.543021751364409944e-02
2.551660910427333562e-02
5.664087901313749618e-02
3.301409753615183046e-02
4.418122487293288587e-05
2.111164470547681818e-02
1.869660888078590252e-02
-6.770042903215214847e-03
-2.746287859139264972e-03
-7.262885375945125031e-03
-5.797300629623441948e-03
-3.846140810755961127e-03
-1.512391140950286031e-03
-5.500851584340381815e-03
-2.207992373781793045e-03
-2.012154122395473470e-03
1.474859617395825155e-02
5.157938461413157614e-03
-3.220569049544349909e-04
1.964634295339422881e-02
3.838751355010976835e-03
-2.653120894972463891e-03
1.638940862429852721e-02
1.810818588354364683e-02
1.327449249010851685e-02
-1.311751579477327774e-04
9.630819921912649835e-04
3.244405495111521345e-04
-3.905748569108700389e-04
1.469798763672969721e-03
1.112821620947957281e-03
-4.883646719014587620e-04
1.028938941529327885e-03
2.942733559216068311e-03
-2.071450690606951688e-03
-5.091736681922823249e-03
-4.478184661142740886e-03
2.561109964635641546e-03
5.200534139150658590e-03
3.220948854261087603e-03
-3.883390484633402005e-03
3.407478218807013116e-03
4.359555042671712718e-03
-1.297011459507982703e-03
-2.012245573637491420e-03
-2.696930928463048792e-03
-1.993434283560521943e-03
-1.766904303887737154e-03
-5.048525864282959758e-04
-7.738300189243320273e-04
5.560774276709060901e-05
2.037200330776855854e-03
-3.760312027916606122e-03
-1.490073045174952716e-03
2.471922917312366352e-03
-2.676012146551051858e-03
6.455464541342787821e-04
2.574827099199528384e-03
-3.160949985383440346e-03
-2.529430838199399150e-04
1.871397669983433437e-03
-1.002225163879285827e-03
5.485149627838197157e-03
7.554801598669671873e-03
2.306080113817324338e-03
5.454475002493644475e-03
-6.492718602160347813e-04
2.631025947915722855e-03
7.302806956191835140e-03
-3.819586227674899581e-03
2.498791687800463492e-03
1.120317920393711347e-03
1.548057777337617975e-04
2.692236332863760188e-03
1.788131507777584615e-03
2.490672593010106062e-03
2.822961857545183868e-03
4.759799716272016847e-03
4.599512475970883411e-03
1.691661454119079103e-04
1.357193934567979239e-03
-8.157219154281926865e-05
-3.791689150539501326e-05
1.811007036344515399e-03
2.929024126449585302e-03
-5.041795193515478772e-03
-1.232506735744999180e-03
2.701230398516744555e-03
-5.784647322987790559e-03
-5.157160883601914769e-03
2.280358444366786114e-03
-1.134134711548246506e-03
4.192131503606501101e-03
2.005253275146082811e-03
-6.292356109313878947e-03
8.585220638949761333e-04
-1.403496790477649925e-04
-1.326179356553780888e-03
-4.946519058487235370e-04
5.175394072098003366e-05
-1.350895498006308895e-03
-7.200580299088402527e-04
-6.019866517169050442e-04
-2.018445753935313707e-03
-7.198143730455214924e-04
-1.702190884753891804e-03
-5.552480141068617770e-04
1.324056601156626102e-03
-5.367936439926060226e-04
-5.541560392676895619e-04
1.272045429737872534e-04
-2.396582534782040665e-03
4.855075384524660306e-04
7.238818089483441869e-04
-7.723455091441483022e-04
1.203212365850319385e-03
1.703293968852349731e-03
8.809722431961996636e-04
5.777109363819715781e-05
1.204562747661777492e-03
1.425809247638026508e-03
-1.058935925396250227e-05
2.733705143963575338e-04
1.674409427934669438e-03
7.106259420326025257e-04
1.615943753532309794e-03
1.026131006228599022e-03
8.903289468130007409e-04
2.602178982433860956e-03
6.186109347353487085e-05
-1.438890750528303150e-04
1.104330389310318079e-03
1.333377176341969629e-03
-1.258116612439282977e-03
-7.749783802560118512e-04
-8.553325862186213777e-04
-2.707421710078162830e-04
-3.269332945878272311e-04
1.267849023736706974e-03
9.955144944462745830e-04
1.167823843735408705e-03
3.907715561488059146e-03
3.924810050907391948e-03
8.443311054192985388e-04
-2.236309531136714164e-03
4.573835850365767439e-03
1.412277563020110328e-03
3.281135366930025988e-03
4.382311753509606118e-03
1.400868260378868848e-03
2.809732153401835186e-03
1.892525100588732592e-03
1.062859477720302752e-03
-2.403883138557399437e-04
-3.923549990174577664e-04
-4.206921521887510050e-06
4.038858733637786360e-04
-8.428713347459269693e-04
1.381280255703120382e-04
3.513082230765890933e-04
6.352354511415925610e-04
9.762447373747614289e-04
4.523850251664200814e-04
-4.033631547078638229e-04
-1.594578897517955063e-03
-9.665565997430187366e-04
-5.161651031488303674e-04
-9.021876610021414096e-04
-5.460850457029352246e-04
-3.231174913951398789e-03
-2.484796646156008093e-03
-1.128982163486126492e-03
-1.930636666514741733e-03
-4.723980304489793424e-04
-5.493078753576246739e-04
-2.137359800711517027e-04
2.973211771179903699e-03
2.464678648488093180e-03
-2.846029940902760572e-03
1.554203282240077325e-03
8.889710718608535411e-04
-4.132734346211867221e-04
4.618820029752847799e-03
-6.386856156392901451e-04
-4.572174077386549455e-03
-1.032338865718373773e-03
-5.402246319648675889e-03
-2.134276677709847931e-03
1.560200414963215567e-03
2.742911802976037011e-03
-3.467409818772019224e-03
2.876149955624388043e-04
7.304072096134173913e-05
-3.968666090968698754e-03
-1.636282412784559109e-03
-2.612125229179634769e-03
-2.241663046925144401e-03
-4.233107399793675438e-03
-4.268842539128836315e-03
3.727490071907958724e-03
5.623920383140536359e-04
-6.024621147316437881e-04
4.419821426484619314e-03
1.143111446514183741e-03
3.041146830679492853e-03
-6.609203290739952205e-03
-3.017592169302471278e-03
-4.674797277113224361e-03
1.304792799339898023e-03
-6.263594184047121334e-05
-1.508177317949352912e-03
3.558193585655621948e-03
6.466556426795919393e-04
-3.463663020097393005e-03
6.828537765952085586e-03
8.753287787086751898e-03
8.811008592365977832e-03
4.451067359845080340e-03
7.013682421402784445e-03
6.807274777425403010e-03
3.959147268137242978e-03
5.714836058382693693e-03
4.726840573768888686e-03
4.255149436831140441e-03
4.887146058527635194e-03
4.469438135473075523e-03
4.640851919993500309e-03
7.958840384720368422e-03
6.181398553242946521e-03
3.375756245917261103e-04
6.485660966156332752e-03
6.974979531903778042e-03
3.101692579352618041e-03
7.130481072083011580e-03
7.858420355227394016e-03
9.540287064785891655e-03
1.281655810184238915e-02
9.889523463435342943e-03
7.512585012546385381e-03
1.042350184002497487e-02
9.181202072408597634e-03
3.146470205780008220e-03
2.813927166922624516e-03
1.497233152021288510e-03
5.716087120848875082e-03
4.518420293853496646e-03
3.231732236161475973e-03
5.897238448043146813e-03
4.906673944799477653e-03
2.985991285957236528e-03
-3.154132728505815598e-03
-4.254134569246303434e-03
-4.907968600911222223e-03
-3.121586314020624586e-03
-3.675441889757532620e-03
-3.686732831861827542e-03
-2.255041598521670323e-03
-3.849746947658423766e-03
-2.284167602963018632e-03
-4.142078418653784809e-03
-3.372448765963861894e-03
-2.454715433537003715e-03
-4.330915568625801244e-03
-2.686561003170064976e-03
-1.081312812709523665e-03
-6.940589406857131799e-03
-5.415517578264097964e-03
-1.971047036432820813e-03
-2.017221162747363794e-03
4.097642213148750792e-04
1.186974357999343423e-03
-2.784438696350717297e-03
2.122278466287033736e-03
3.953057686820929395e-03
-2.092501375716920332e-03
2.288381530098282900e-03
4.313749631167400865e-03
-1.696287938479271607e-03
1.220167536829472234e-03
1.189061403780641239e-03
-5.567760869244833821e-04
2.508819751319179745e-04
-3.953598849317565287e-04
-3.955485777717294548e-04
1.951240489055938894e-03
2.051896337622967879e-03
5.683778592377831257e-03
1.047776690937516145e-02
8.291901849733383442e-03
3.277298869992816173e-03
9.695279386088081000e-03
1.186105491546411185e-02
8.422264700811065916e-03
1.063366229559361241e-02
1.024006241014961335e-02
8.471827481453502850e-04
9.553795457800881314e-04
1.647183642729817482e-03
2.969136516934402009e-04
2.924895355412531601e-04
1.493030687008348656e-03
1.960747098150491304e-03
3.369514462648768357e-03
2.503947973523941873e-03
4.667678359631433765e-03
5.805744781189998809e-03
3.459782997738698740e-03
6.490729291163890510e-03
6.257176898774511990e-03
4.563743592464994912e-03
6.322734977169083490e-03
5.299406467019701986e-03
5.727978039290586298e-04
-9.547165846530554457e-04
3.255139902596506182e-05
-1.326586153946926862e-03
-2.823882045764731195e-04
-7.746081508154804189e-04
-2.524318360070436796e-03
9.990253939913479667e-04
-6.074020933624794732e-04
-1.599591587003854846e-03
-4.445297844277726687e-03
4.991868834781417602e-03
2.999702037730283665e-03
-4.463323848607746516e-03
7.025968443178673938e-03
8.321357615119573045e-03
2.267297950830178630e-03
3.933358582974649971e-03
4.241208183062487695e-03
2.303404830872924063e-03
9.327923629173293226e-04
-1.541101545678888809e-03
5.315359631581441195e-03
1.780102830487265099e-03
3.551551588129430045e-04
3.770489076339916183e-04
-2.899331203801211367e-03
-2.527721392612631776e-03
-1.650672984849014787e-03
5.402259289352355628e-04
-8.598990702587183460e-04
-1.922544577132391779e-03
-6.105876707828093979e-04
-1.388679080464865108e-03
-2.356288426425341438e-03
-2.046731940389810711e-03
-1.376845571767040203e-03
-4.502907929850657846e-03
-4.274205516949442559e-05
-1.588866664819344517e-03
-5.231100008869024468e-04
1.123994632501742943e-03
-4.963297960235219658e-03
-2.567529490050998731e-03
-1.292376615568609569e-03
-7.200403561989850675e-03
-8.353483383374174075e-04
-6.736290332096105419e-04
1.847495627804645940e-04
-9.800312537514570439e-04
8.995210077216260957e-05
8.311178721923834526e-04
-1.435467757476965867e-03
-7.777629197163454930e-04
3.983113335096013260e-04
-5.164296533557965682e-03
-3.312193387629868042e-03
-5.487022990455143502e-03
-7.180074302005286062e-03
-3.459027361927457991e-03
-3.697113620283536909e-03
-4.101434830080377854e-03
-2.731949658604984361e-03
-3.143390220555066644e-03
-1.357558616350318685e-04
3.883747805306994594e-03
-1.157515006449547513e-03
1.383992863018815170e-03
9.450765049431649606e-03
3.409986273386072728e-03
2.940709763841275071e-03
2.180296772611136497e-03
1.332676206217829140e-03
8.515671780093287541e-04
2.644372918175896402e-05
9.540962863248761156e-04
-5.869924728116205238e-04
-1.747080997450844173e-03
-9.521069218277981036e-04
-4.638180990438825891e-04
-2.063242353500839999e-03
-1.231952903361001155e-03
-1.045180113560430311e-03
-1.507300773931379749e-03
-2.537321535352845756e-03
1.177958791567743427e-03
4.728871472083543125e-05
-9.408467771286631353e-04
4.210161216396338265e-04
-1.140174575578817989e-03
-2.545237445468502471e-03
1.208699267161983924e-04
-2.782827008739527201e-03
-3.220699971531776947e-03
-2.104644573678400923e-03
-3.812665368959150796e-03
-2.361920210359323702e-03
-2.814003854458323357e-03
-4.895101053847711672e-03
-4.101417378631444337e-03
-2.405523997940907984e-03
-2.388196890580230203e-03
-5.948297339453973570e-03
-1.450244268454933035e-03
-2.416311846023018548e-03
-4.762754299201523052e-03
2.432813533409580590e-04
-8.875415445018487118e-04
-1.604916124755156577e-03
1.397038492306805317e-03
2.344994654126528969e-03
2.052676507985462095e-03
1.413543250477170433e-04
5.842537363852064658e-04
8.891805208208517722e-04
-1.582815962209741358e-03
-2.118101318830709068e-03
-2.211224096170650352e-03
1.986126078683949918e-05
-5.251404434099335786e-03
-1.716213914950632906e-03
-1.913715318588373642e-03
-5.443552605776469724e-03
-1.696678192485400090e-03
-3.912989050415621728e-03
-8.715669076533424237e-03
-2.844866406293907520e-03
-1.503372687699611882e-03
-1.560300488740167619e-03
-1.541936362587045827e-04
-5.536467811555528720e-04
-1.161441834163363419e-03
-1.049821024360208339e-03
1.054126749878771339e-03
-9.791511301970283606e-05
-9.336119098076686457e-04
4.432131397266345432e-03
1.653971308697604111e-03
3.941002317607888647e-03
5.495860639118841165e-03
4.254488064491942015e-03
5.656344163518985460e-03
1.996243220598843422e-03
6.215687097606704525e-04
3.593019586845281384e-03
-5.024491913524320279e-03
-5.265799708920592412e-04
-1.233220971019018380e-03
-4.557237247377527757e-03
-3.545768251618658991e-03
-1.401189566533757140e-03
-6.557954175299279820e-04
1.836121847432217302e-03
2.715401521228586867e-03
2.803263723750321675e-03
-8.489369096286256827e-03
-1.150471533509108031e-02
1.324223129846018379e-02
3.273463371359483856e-03
5.891542690786288894e-03
8.698395047889986506e-03
-1.049090331333360146e-02
-9.306636688511314009e-03
3.439019525133351057e-03
7.787086743111598652e-03
8.069052470229947163e-03
8.693363874760208455e-04
5.535407241428504793e-03
3.158941882713523115e-03
-1.139554077702629314e-02
-8.716898473693371688e-03
-1.053639352818507187e-02
-1.580382096383124366e-02
1.367163206867770542e-02
2.671893746371094974e-02
-4.089706954143590423e-02
-1.299623216560408072e-02
2.551182785252572791e-02
-2.943492136461585765e-02
-2.686356925404881357e-02
-3.229918794021605435e-03
1.295492333894964453e-02
-2.041772835402470582e-03
-8.322707693553565642e-03
1.281980929646477606e-02
3.713911932976255142e-03
-5.932380719752808687e-03
1.357340076730724314e-02
-2.789975777115454546e-03
-2.931806370149689020e-03
5.548041846157585055e-03
9.651265685770144681e-03
1.003329187583728785e-02
3.284152534332845149e-03
7.632553911002681532e-03
8.250660965461925622e-03
1.203346440111035393e-03
-5.405609787054278326e-04
-2.639636176554974742e-04
1.525726302094693350e-02
2.940550091367331170e-02
3.779688144835335883e-02
1.849975534324080871e-03
2.717244973131747315e-02
4.330665713249820525e-02
-2.487764085474808776e-02
-2.894518018719540245e-03
2.609426429862881161e-02
5.271742526471418812e-03
-4.865194138994799813e-03
-3.509406813723761620e-03
2.618013936296758205e-03
6.566639169154604369e-03
8.544865083371584388e-03
-6.258973173738680701e-03
-1.275023303274797765e-02
2.810584480979000637e-03
-3.678479953468976639e-03
-6.279115288708610881e-03
-3.355450880070681100e-03
-2.228172015215533746e-03
-7.552757715937440629e-03
-5.542965648716697939e-03
5.852884817266886474e-05
-8.211827497129191647e-03
-5.281273194344121048e-03
9.390827060583058564e-03
1.095392158332065234e-02
9.328984015936283777e-03
2.530672645478783574e-03
4.878818887052559922e-03
7.910627580062347050e-03
-1.373158742014170784e-03
-1.596953979239873348e-03
4.901090064664390469e-03
1.544284637981846106e-02
2.045134976895172582e-02
1.869388451211896965e-02
8.010136593078974118e-03
1.633662691603943867e-02
1.853198766029113057e-02
-7.583169484755907137e-03
6.236096125505605041e-03
1.920906638289555241e-02
-1.119005373627584557e-03
1.376568785458736309e-02
2.017614943397240054e-02
-7.663169072252643162e-03
4.386144865157948561e-03
1.487261719900466114e-02
-2.804159903299293082e-03
-1.847702198128753533e-03
4.831252072669526935e-03
6.101538426899760434e-03
-3.729407734797464749e-03
-4.046433109945997940e-03
1.316138407936732688e-02
3.329113224134082685e-03
9.098696801594720373e-04
2.342435397104106545e-02
2.024019749531634146e-02
1.259409655213203014e-02
-2.073070212844692686e-02
-2.433242385330337040e-03
1.007587117109653291e-02
-2.110926653626330265e-02
-9.438079683577689505e-03
5.396296410422152072e-03
-1.329435496464334045e-02
-1.805600747840901271e-02
-2.047589193366439013e-03
-3.157053602257127358e-03
-1.478693123677255394e-03
-5.066314408841162244e-04
-2.919995514556054765e-03
-3.204395295084608297e-03
-3.174987176888154506e-03
3.156279771379651242e-04
-3.430158936464696036e-04
-1.558965010377271572e-03
1.108225985849915383e-03
-8.494844052517283584e-03
-6.730216993849856381e-03
5.416436567813338182e-03
-3.809584678928400452e-03
-9.498809648950664675e-04
8.802025155678336321e-03
-2.498805612622077843e-03
-2.011523741377624092e-03
-2.432597001138420839e-03
-3.694683823212185740e-03
-6.408744987802705156e-03
1.304412653042590943e-03
-2.531506870416051942e-03
-1.607915508493150056e-03
-2.519374464090282364e-05
-2.734914552189171306e-03
-5.171067745192681545e-03
-1.087692917456863431e-03
-9.369446721869948607e-04
2.461885459039176924e-03
1.989040684518914373e-02
1.644178271287806284e-03
3.528518414041016660e-04
-2.304424868532405567e-04
-2.791752872915943730e-03
-8.741201253427701226e-03
2.794627727233710800e-03
-1.562338485227964392e-04
2.108799343411748759e-04
2.694314079676067130e-03
2.892301574960771601e-03
3.664560204317842025e-03
-2.239647641717436993e-03
5.644338181513979024e-04
6.297209334642032410e-04
-3.177917299468083299e-03
-5.674170316124275276e-03
-3.744661813301439473e-03
-3.792568202848040516e-03
-8.699483192271024665e-03
-4.723968473327103471e-03
-9.406980896754442087e-03
-4.539771584398980334e-03
-2.026402713689765770e-03
-2.034330542817836679e-03
-3.448360653926218437e-03
-5.968313209935486793e-03
-3.400203186616780702e-03
-9.856601674876437277e-03
-7.857372695033343650e-04
-5.719566764039496314e-03
-1.368676856371007881e-02
9.116548157587419385e-04
-4.008292349617688204e-03
-4.082721719020211519e-03
-4.417808401441990392e-03
-1.032469380650526125e-03
-2.646648457262752979e-03
-3.433343500651626651e-03
-2.996042949512618681e-03
-4.590470621892608731e-03
-2.612038878516965458e-03
-3.754832413355984472e-03
-6.645279468325990431e-03
-5.419109166959950284e-03
3.076892497137120874e-03
-5.765613478280554212e-03
-7.543460562387429257e-03
-6.439385252837227444e-03
-9.430939177176102944e-03
-9.798315268029151107e-03
-1.113653884402586360e-03
4.540665683180403894e-03
-1.850300156623670448e-03
2.381455999902440390e-02
-2.147252975653047603e-03
7.979473120829619695e-03
9.401437400709917406e-04
5.203852203175204222e-03
-5.023034553415830746e-04
1.146826384321569456e-03
6.525155060749778186e-04
-7.672309991888644990e-04
3.572890068978620565e-03
6.366758850277718382e-04
-7.148977687113371345e-04
3.179246116684607444e-03
1.377070126823583306e-03
-7.651556366597536728e-05
-9.104691351602878582e-03
-6.635426825793528001e-03
-6.212115012297869145e-03
-3.877683146451305334e-03
-2.983428869587444361e-03
-6.455734009984978421e-04
-5.053358950920744906e-03
-3.125154046071885235e-03
-5.630671860043330243e-03
-6.859901492396391735e-03
-4.659258962268372078e-03
-4.852018968370988908e-03
-5.516154762948592000e-03
-1.621596877909629213e-03
-4.774107114171379472e-03
-4.934923675263996543e-03
-7.703874451596249640e-04
-4.345339305649542280e-03
-3.376297852671190924e-03
-6.785665238298692163e-03
-1.049786500979030951e-02
-1.367875553255538555e-03
-3.907507060424526661e-03
-1.174837717486385165e-03
-3.865521480230865725e-03
-1.991429267253828732e-03
2.699818144529203372e-03
-4.336651067592124350e-04
-2.893447308836359346e-05
1.514865142122483058e-03
-2.294700412205165395e-05
1.412829062098584299e-03
1.003317468924898141e-03
-1.459945016490592998e-03
-2.924786746020667408e-04
-3.179001169566367767e-03
7.143457738317413258e-04
-4.934702136061493681e-03
-9.883891542638382696e-03
-2.449740094760053267e-03
3.843897582072564392e-03
-1.228461351118719956e-03
-9.814610242703841053e-03
1.191185081305819052e-03
7.310512648286558030e-03
5.662063407706718866e-06
4.100143617638201754e-04
4.736442663089187178e-05
1.376595419865766492e-03
1.060866665759325426e-03
-1.934348646732620596e-04
-1.232904675123644000e-03
-2.329157282167340810e-03
-1.961228318637856741e-03
1.360092699938916967e-03
1.308642658482086184e-03
4.679932053182721610e-03
6.320247600375560222e-03
7.417295797888624927e-03
6.956815418859016789e-03
5.470327915916054461e-03
7.787606934842761230e-03
3.891954033078974008e-03
-3.738205178898128169e-03
-2.610939612098257985e-03
-8.768399343594145178e-04
4.250776807419196987e-03
2.461066551949943251e-03
5.174762463664048413e-03
6.408108391794138832e-03
8.047948265002545162e-03
6.823056427609806157e-03
2.289825422642885119e-02
-4.321489103906520947e-03
1.378058498285474574e-02
3.427066923628327780e-03
-2.387107584696080212e-02
-1.808401909997827545e-02
1.485502239072980686e-02
-2.733420829122314068e-03
-6.342208526876055375e-04
9.668890286347320284e-03
1.047403517968686741e-02
8.776687806991582963e-03
9.559196517561782333e-03
8.008039038590946193e-03
8.868369970771117217e-03
1.544967943771034455e-02
8.364629881226052360e-03
1.058217979057200775e-02
9.158695149059974117e-03
-2.486471536467114302e-02
-1.210539833400881699e-02
1.094296487445430358e-02
-2.553003248933337355e-03
-6.310587496073146417e-03
1.521335372632492099e-02
2.772804252329517591e-02
2.255327135649685608e-02
-1.717633173633722685e-02
-4.565763320875286004e-03
8.943675513738402402e-03
-1.133064264323677302e-02
-8.053722727644764892e-03
8.948626525984127670e-04
-3.501529065937480055e-03
3.919551986038596544e-03
-7.574072110398079836e-03
3.174400876805849678e-03
8.877319470690099145e-04
2.139733579088412205e-03
-2.386279581890889036e-03
-2.686727174809834008e-03
-8.900850737345717117e-05
-1.406506031596915481e-03
-4.814528489022723134e-04
8.646458792049934632e-04
-3.734874288570711495e-04
-2.544790168068131533e-02
-8.150681133103045845e-03
6.527448446817904655e-04
-3.446989067448574806e-02
-2.065830177999515918e-02
1.695496015194089892e-02
8.382129206359377818e-03
1.167818825147590688e-02
1.211350162148782175e-02
-3.617170155001316056e-02
1.514316442126015239e-02
-1.906606738178217436e-02
-3.648124124035876520e-02
-1.147279160477158999e-02
1.593165365791325561e-02
2.141032890088019960e-03
2.563050816608686278e-02
-3.130474953086207889e-03
-7.424035431325453488e-03
-5.857310053557787666e-03
-6.241365711750664937e-03
-5.927828337098034819e-03
-2.072838611187117000e-03
-1.231403924138095227e-02
-8.535023191360653974e-03
-4.192025830886425899e-03
-5.529371669572631653e-03
-1.057443882126745879e-02
-4.081434300327146936e-03
1.129004586921769290e-03
-1.780209512414926995e-04
2.877475777062676356e-03
1.144308499571975064e-02
5.503317163450030178e-03
8.966277419548156560e-03
-3.532982594879248341e-03
-4.194578661009934310e-03
-9.575290755140502402e-03
1.935182073669082037e-03
-6.283497316972187947e-03
-1.019199632248547066e-02
5.034992135672928908e-03
-7.215985533717566951e-03
-1.097217794884573772e-02
6.649441618850867979e-03
-1.332339795853007504e-03
5.370793600631187589e-03
7.061562876655022407e-03
1.129941311958172420e-02
7.884633950390334406e-03
1.265839012987043238e-02
1.905910085753345640e-02
1.366665626893250052e-02
-5.679749779297462928e-03
-1.531217259410178749e-03
4.090413926480147150e-03
1.226185123145543537e-03
-4.227649232299421876e-03
8.594069672775549867e-04
2.611390032770422552e-03
-6.541369444821743678e-03
-5.806486159508611640e-03
1.819269045132842870e-03
-6.483094328892085451e-03
-5.855859709704968989e-03
-2.811621704020301083e-03
8.397294083092228870e-03
1.921151014490297482e-03
5.882591721357045009e-04
-1.588422023718766285e-02
-5.972591502334634143e-03
-1.007832053503460515e-03
-1.654759455449166016e-03
-2.167789806093550244e-03
1.764620056623978674e-03
-8.488328867576308329e-05
8.957395670182121111e-04
1.225571753020934622e-03
2.018128299055229474e-03
1.881493107817595271e-03
1.090927035538470820e-02
6.347182435059633109e-03
5.935348112897703352e-03
-3.457160219630584907e-03
-6.471876122709979218e-04
4.929151311376746324e-04
-4.499232545669675822e-03
-9.873011723039245777e-03
-2.141897044374032783e-05
-3.010476064569025861e-05
1.355598394901872230e-03
-3.412654527041916828e-03
5.427010365024258556e-03
6.271899674715700028e-03
6.450661571472490752e-03
-9.520801684467302024e-04
1.986296727377811003e-03
6.247308037669896744e-03
-8.455346683420166681e-03
1.305455223661320177e-02
1.101902707876935110e-02
7.843373780156965777e-03
1.666701896570646838e-02
4.173410047537364463e-03
-2.207394756771104225e-03
-1.915250419703091794e-03
-1.332798978912339482e-04
-1.309650703274499103e-02
-1.656306939519852639e-02
-1.653401456780662082e-02
-1.865343404485824558e-02
-2.105043208973989000e-02
-1.996895161875879635e-02
-2.116249597544447164e-02
-2.298951366357792486e-02
-2.160041194765212336e-02
6.525566400568776071e-03
7.937377421454849119e-03
4.731906795343650447e-03
1.718487468835126070e-02
8.401880613943502399e-03
3.474844825349489210e-03
4.717004903609554704e-03
-7.692978846939025478e-03
-7.883496385933608241e-03
-8.427160403013226470e-03
-2.245441667812274594e-03
-5.530484165435258816e-03
-6.311373607876827330e-03
-8.825358073166833864e-03
-4.418317243628657777e-03
-2.999914602392845468e-03
-6.851411570971102823e-03
-8.213988887864318716e-03
9.215926131517533995e-03
1.268954147587453632e-02
1.251109022730944979e-02
2.918816981422996115e-03
1.402665342166142413e-03
1.088712983333009997e-03
4.384804412966204919e-04
-2.455875675018787119e-03
-1.838156932892533700e-03
9.513015884055951374e-03
1.582150835963162111e-02
1.989288834278806969e-02
1.582216337200614831e-02
1.727151095333273600e-02
1.836551244836717375e-02
6.517751206729266965e-03
7.989038676808474237e-04
6.276074982368378893e-03
-9.031855551098817714e-03
1.691383010669811901e-03
8.128054030766518681e-03
-6.218805345653968114e-03
6.335481117870626032e-03
-6.071719190299788675e-03
-1.574239393054980424e-02
-2.474382584265134855e-02
-1.521311626752806963e-02
8.742787034567876467e-03
1.114901951479565362e-02
7.045004757600238296e-03
1.012676103813452654e-02
1.027212537257458057e-02
8.362006699622741637e-03
5.289833829351238588e-03
5.843453573450303057e-03
7.191367892255917313e-03
-1.579846420012704852e-02
-1.403904765053448113e-02
-1.075611006817260747e-02
-9.626896975230737549e-03
-8.394065708274858068e-03
-4.976950008082888476e-03
-4.808864553677128818e-03
-4.986735426121538181e-03
-2.174888910376822360e-03
1.442537095205420963e-02
4.973485617952409441e-03
8.448133766687022006e-05
8.668188242929466755e-03
4.010120332655096875e-03
5.190593258936637179e-03
2.949382112314639752e-03
3.754490010532758344e-03
4.202103796836316983e-03
-1.402983770971181652e-03
4.165820779655457799e-04
6.621263333865218086e-04
-4.872697569996578635e-04
-6.198203146053377077e-03
-3.971211502558839694e-03
-7.189800530925050982e-03
-1.382280999738954089e-02
-9.617897687309865523e-03
-1.114877053516890801e-02
-1.292861580550176172e-02
-1.349403095941789123e-02
-9.965503504187223777e-03
-1.291759471079704201e-02
-9.142882021691962208e-03
-7.724334718682276252e-03
-6.405115301859071880e-03
-4.282387623285414946e-03
1.006980118509922736e-02
3.135002475641501026e-03
-3.513798177844279502e-03
1.430232718007849908e-02
5.160339064407562515e-03
-4.344145233040257875e-03
1.300138471215193936e-02
3.710121783412551229e-03
3.592391305832596127e-03
-4.612539795425400595e-03
-5.343136794118715296e-03
-6.112738583806096720e-03
9.827440554935652772e-04
-1.267648531852620880e-03
-1.696782612239421031e-03
3.831186109721461939e-04
-2.996279615110708592e-04
-4.641157179445316492e-04
5.094277622794568007e-03
1.019512611763664575e-02
1.124066822379056821e-02
2.959010189061389139e-03
3.431346730154002413e-03
1.802692695588377749e-03
-9.048240658271408665e-03
-6.771148780995097857e-03
-5.333183660637048559e-03
-1.459672068945843185e-02
-1.077255711651595692e-02
-7.563422379526060085e-03
-5.042036547177397750e-03
-6.211461402806056457e-04
-5.243418818848268395e-03
-9.840706652085872991e-04
1.049783160184758306e-02
5.172324659940987120e-03
-1.764659232270861938e-02
-1.436584958132871301e-03
1.751590064397385996e-03
-1.191162111946184217e-02
3.173444935883908656e-03
-4.267123572218522835e-03
-4.269872003838443703e-02
-1.330055995722939123e-02
-3.754175061207094127e-02
-1.997335216716879507e-03
1.053411760156292704e-02
6.930240680354325666e-03
-6.470840002344582049e-04
1.008402746145346113e-02
1.619311549053011837e-03
-4.308846066647986466e-03
-1.437016189050476390e-03
-5.658354274921293184e-03
-1.163222821460391243e-02
-2.238722094219083164e-02
-1.335648545452766157e-02
6.754349850519726466e-03
-6.956409010227050313e-03
-7.424028601575472647e-03
9.895271243170404574e-03
6.897803768332221724e-03
6.894112019080038747e-03
-1.402550751961264934e-02
-1.035384054675897100e-02
-5.014331196612349141e-03
-3.077119941787816800e-04
-6.359974155539860514e-03
-4.374112999123476973e-03
1.773112727242961636e-02
-7.473651292048363350e-03
-2.028686445961415397e-02
1.105421716848755190e-02
1.537496035045881650e-02
1.343884666197990921e-02
1.297426807569693804e-03
1.088578945706329161e-02
1.001206841646308521e-02
2.332184693277600425e-03
1.037939924959043955e-02
8.441822931555235596e-03
2.049339136556769733e-02
2.413692517940632318e-02
1.713596728692344182e-02
2.075373657453187526e-02
2.758579474026732342e-02
2.119933234920267848e-02
2.994549821209149289e-03
2.267277951749877701e-02
1.265157691528536084e-02
1.351547903894386587e-02
1.519824931675701346e-02
1.007769756009291480e-02
4.591188948440061424e-02
4.358421222848653243e-02
4.162957918754963543e-02
1.320383650709639010e-03
1.215191993747286731e-02
-1.519571098662031612e-02
9.560411784412517142e-03
4.290805146639912852e-03
-6.361562750917546319e-03
1.896017935680589447e-02
1.584340703814391890e-02
8.961913229296776182e-03
2.576470923714032323e-03
-3.591817001002960163e-04
-6.658385998056846541e-03
-9.312356799202902574e-03
-1.087472371616118871e-02
-1.199482439654651553e-02
-7.171520368072666768e-03
-4.852375751693942252e-03
-5.886948966754262935e-03
1.693457812278309927e-03
2.274394188808669982e-03
3.274684260713753466e-03
4.637082337585712692e-03
4.844573713922655823e-03
1.283718541406182398e-02
-1.129249197718732931e-02
-1.197971943086228314e-02
7.962628982591926684e-04
-1.804848271078418956e-02
-1.470101706217060399e-02
8.322886716012529475e-04
-1.404850293681450361e-02
-8.099473022180482540e-03
-3.584320608602066527e-03
6.645701002171475842e-04
7.945676835089116388e-03
4.374363504738091636e-03
1.711265766818219347e-02
2.454888237565322831e-02
1.319564896637737822e-02
-1.579801537324157859e-02
-3.791820778779370852e-03
-4.547361636436572478e-03
-1.100101205758859287e-02
1.691056380845614945e-04
-2.271746292174499707e-03
-9.917900646476145513e-03
1.288408605443587627e-03
3.159368730686257232e-03
1.081141971145713719e-02
1.952734284432965442e-02
1.126261122065400598e-02
1.442609546862931059e-02
3.143458059087847478e-02
2.730256177922787617e-02
5.302328755428045715e-02
5.472471028051383024e-02
5.631546609087172139e-02
-6.426567531881728114e-03
-3.114337613238726734e-03
-1.221654159220293169e-03
-1.393488105290630399e-03
1.982597215614206182e-03
3.534898275086595723e-03
3.655069431021649735e-03
6.673629288473248260e-03
5.660944417414712389e-03
3.856706724062995868e-03
3.264151854345990946e-03
-9.808572058035107746e-03
-1.137738866271994142e-03
6.505944537723829489e-03
-1.658596723674252279e-03
-1.674652374802941199e-02
-1.305505257133955654e-02
-1.851503159265079079e-02
-3.025318573716851735e-03
-2.238162029198578155e-03
2.355710870933437357e-03
-2.624242511564289781e-03
-5.078848514047811652e-03
-2.043999188824414774e-03
-1.248188514693004481e-03
-5.401833576452497697e-03
-6.077036141238043900e-03
-9.143729195871867083e-03
6.005892910222996456e-03
1.149619415215140557e-02
4.077947238516933803e-04
9.352681381791849713e-03
1.003341334942704256e-02
-1.076648483786548293e-03
-5.222741126325166836e-04
-7.388297203099412338e-04
-1.513894291293237365e-03
1.687382275372897953e-03
2.768567053152826748e-03
7.998459655071449206e-04
4.025430801085348211e-03
1.336533197838418383e-03
-1.856475220750003301e-04
8.947200095593700045e-04
-2.311012379308056627e-03
-6.243106769305663880e-04
4.039363491042954695e-04
2.096690268241972429e-04
3.382970449444139358e-03
5.808120338785660065e-03
4.464486061319057619e-03
5.258578874989316976e-03
8.846915663035090707e-03
5.446643020077649756e-03
3.815034470002058239e-03
5.937068550729362494e-03
-7.900760479928920985e-03
8.228392383945895214e-03
2.901521668514236811e-03
-4.679121820293378857e-03
7.945948525138713751e-04
-5.066130988588839548e-03
8.811849776346568483e-04
1.411359858329243669e-03
4.995203848598401761e-03
5.650366561416155300e-03
2.026815529452098870e-03
6.180327398264258594e-03
7.422367554646478079e-03
2.217685825003893382e-03
2.503821175630342125e-03
5.019424998707916474e-03
1.101984107559368610e-03
8.141303404480806829e-04
3.434949313063620675e-03
-1.768802846066073195e-03
1.506364315210357002e-03
1.356500160155337193e-03
6.909544126109281974e-04
1.632344624344688779e-03
1.420896549179740580e-03
-5.862918495246709043e-03
6.278392538089403591e-03
3.554753209964673592e-03
7.503644064656578988e-03
1.071606258783732585e-02
7.523322248488443185e-03
7.113228240313472796e-07
2.925971041074305933e-04
4.134925766053214151e-03
-9.942567924466282851e-04
-5.122369499142591289e-04
-6.161686704088569552e-04
-5.584192413015007207e-05
-2.310171267109334837e-03
-1.575238944300242239e-03
-2.390723050788356573e-03
-3.403932542521648404e-03
-3.582331984941979769e-03
-2.836909441203263032e-03
-4.441831381584445716e-03
-2.918108613372976529e-03
-2.577221357346887089e-03
-1.770409855622668768e-03
-1.868515332439074162e-03
-5.289816285840630381e-04
3.080907042030485887e-04
-1.442908869910665328e-03
-8.950074738066132653e-04
-7.409011865635289212e-04
8.313693241774576526e-04
-3.017672995254255201e-03
-1.585903655573014763e-03
-2.428909873169759516e-04
-4.668242458602826143e-04
-2.417345515568090550e-04
-2.629019766005465212e-05
4.245052323384242154e-03
4.819573909625663594e-03
-1.326580449625681631e-04
5.252404231922322073e-03
5.185724607440211908e-03
1.147884545483865600e-03
3.971846798170770160e-03
4.947486906555554655e-03
3.728253830946357894e-04
-7.025264281752239409e-03
-3.411208617969061115e-03
-1.813309509518728636e-06
-5.038383890076571919e-03
2.746384614446854226e-03
3.031770975890336461e-03
-7.969973297790774449e-04
5.245063202798504881e-03
2.588445200986616112e-04
-2.324470679963679901e-03
4.165338239940395877e-03
1.097419987107730926e-03
-6.693163969179559747e-06
9.403821913331054591e-03
1.107643746321275782e-03
-1.038724281503009255e-03
5.880186569124545154e-03
-1.745644206678741801e-03
-1.191149506943637096e-03
-8.075003139797459067e-04
2.747841017405127251e-03
3.838646774172053749e-04
5.295587306256977064e-04
7.594901199885281543e-04
2.449895218146993202e-03
4.689219210486683426e-04
1.417491915036418488e-03
-6.368290953612479321e-03
-7.994377682979636815e-03
-5.541169069121935908e-03
-7.849726098366717128e-03
-4.267389816878050350e-03
-2.084325565087511226e-03
-6.472942194034522582e-03
-5.657184675534215369e-03
-4.273607172673886921e-03
-2.560302043661969416e-03
-7.368588925000785737e-04
1.691736619439777141e-03
4.472450418268655165e-03
1.694959231513516154e-06
-1.698192494070713439e-03
3.642713667125573214e-03
8.546092736043640621e-05
-3.273087517606126842e-03
-1.878543483387929390e-03
6.269072064551593770e-03
9.383256050617048288e-03
-2.403156962995418693e-03
-1.466256074974419191e-02
6.164626883990196454e-03
-7.224702575136139615e-03
-1.005110844280527986e-02
-1.816433787722186027e-02
1.267337836253746956e-02
7.523791133263861911e-03
9.149089663190376753e-04
1.527667042870130450e-02
9.402695238284672352e-03
-2.471556796821441590e-04
8.203726031808923277e-03
3.234949444296514928e-03
3.562237306161502182e-03
-9.294901134652734653e-03
-4.072928735383288083e-03
6.655617908423751977e-03
-9.550398385089671829e-03
-8.894743786070443206e-03
7.040287959253163121e-05
-1.191576276151081609e-02
-2.978689469763502046e-03
-9.673251151227947597e-03
8.281101420431383198e-03
6.149635113994001388e-03
2.031218163760852100e-03
2.907898322125237849e-03
-1.040604794933707862e-05
5.590107107403574291e-03
-7.097598958143945362e-03
-3.084786596364438253e-03
-5.106531248514538900e-03
3.473563623095790066e-03
2.525668353111270702e-03
-3.203056104454545514e-04
2.597736250810406960e-03
2.860875129703291213e-03
5.632581048584184638e-04
8.606546188106344378e-04
-2.852823551059498371e-04
6.346431757724746480e-04
-7.682718768530254032e-03
-5.857026907924111313e-03
-5.264201753031692160e-03
-8.289780069645098781e-03
-7.822068759844065869e-03
6.656323829941383427e-03
-4.352573434578711764e-03
-5.308223377624304157e-03
-1.238560827871639392e-03
-9.714881462008318619e-03
5.333812191810794953e-03
7.867920025384439811e-04
-3.259077086892779411e-03
-1.662910058282001183e-02
2.351609744161378690e-02
-8.148215898875507332e-03
3.908275811281072820e-03
-6.951708822584464972e-03
-3.448207998441856978e-03
-2.108121194099412017e-03
-2.931203822138766200e-03
-5.047548684272584567e-03
-2.756278319890554610e-03
-6.789337157298755941e-04
-3.563913355926762606e-03
-4.303025143324242809e-04
-2.814375679476665074e-03
-4.607858049047660622e-04
-2.736940685516957316e-04
3.804924454055888267e-03
1.726022020496334897e-03
-3.424991252457147261e-03
-2.235885701617775119e-03
2.296673429380596126e-03
5.598533134623686052e-04
1.790542836136539348e-04
4.664316075008853243e-04
-1.711340609325122690e-03
-2.211694156120761010e-03
3.437283965724336507e-04
-3.203653278930551282e-03
-1.762260757589238823e-03
-2.637443869050696589e-03
-2.686056225714955007e-03
3.279057767561487612e-03
-3.653237279035183999e-03
2.809167779916204970e-03
-2.982919953903440287e-03
-4.187078748582126302e-03
-8.881284377738115233e-04
-2.292089891056548184e-03
-6.315227335996993763e-03
-4.969490169904105560e-03
-6.164542801226052804e-03
3.305733117911299583e-03
4.480002545293435695e-03
5.957849616155620753e-03
5.385262248339602389e-03
4.566588546750758280e-03
3.722720659415136319e-03
3.869386598611779769e-03
5.030952054584770725e-03
5.150052860936376459e-03
3.688530552157941525e-03
1.449615068272196682e-02
-2.753068507082024382e-03
2.492132036057938087e-03
1.238772118515402663e-02
-8.608208971479928626e-03
-1.342301357499397357e-02
-8.855671833527077944e-03
3.761182171090820398e-03
5.733748122447509263e-04
4.335667940870611102e-04
8.951835982923864697e-04
-4.222956864042148200e-04
-1.217359340207803007e-03
1.668556869871290363e-04
3.071852238181540379e-03
1.341709881966294767e-04
2.178744923611737258e-03
5.166256170138585659e-03
2.369432300550404318e-03
2.636901254946090803e-03
4.912340423069892770e-03
4.335395139013611954e-03
2.151145783959868951e-03
8.121273912738067452e-03
7.184159174220263074e-03
1.655544968694793329e-03
-2.807100234716496546e-03
-6.263218696591931790e-04
-1.705863846808173070e-04
-1.627377345051172043e-03
-5.333704229634754664e-03
-5.239818464740135517e-03
7.314408953150416991e-04
-3.520419982327170887e-03
-7.979959874220990748e-03
7.962554157319054427e-04
1.087406309061202635e-02
1.572669914372800543e-02
1.578349768596636147e-03
8.708973317573380848e-03
-1.034930519188580027e-03
-9.901489371262695363e-03
-1.429675115582375484e-02
-1.618160324401112307e-02
-1.196858766160070406e-02
-1.414473331154738819e-02
-1.491932687591489975e-02
-6.876873176154756073e-03
-8.398342372376769657e-03
-5.580302147269180016e-03
-1.858119022628689377e-03
1.275949629578116871e-04
-1.016554960153988893e-03
-3.385409831930150885e-03
-1.073435987315813549e-04
-3.191738196159002623e-03
5.059048299723202871e-03
7.903311049644036815e-03
-6.122266161847078614e-03
1.024215884278620141e-02
1.613609588894850469e-02
6.716952646245370577e-03
1.233292779640879008e-02
5.164257760656591756e-03
1.523262910639091965e-03
1.961653182257518807e-03
-3.549590201975501898e-03
5.430258247894093364e-04
-1.202382072522206920e-02
-1.068883095781329208e-02
3.436440493354908383e-03
-5.472452225522370789e-03
-4.800452421911442715e-04
1.594422958993406891e-03
-6.768092119719468572e-03
-3.249029087654668312e-03
-2.025540846354408151e-03
-5.404840527990682590e-03
-2.829229674701587080e-03
-3.466397157985241177e-03
-1.224075927430524208e-02
-4.241411316295793862e-03
1.296267753196972232e-02
-1.537541948675552606e-02
-1.199612418455157578e-02
-6.116060506240545347e-04
-7.499395500859461390e-03
-1.057080323533989008e-02
-5.526300041010947725e-03
-4.311256018994839845e-03
-3.630791951774881097e-03
1.591782161300577328e-02
-1.293198192235415914e-03
1.334889377344678852e-03
-3.558194607418977730e-03
2.422140216558293577e-03
4.984021549504071523e-03
4.908576900377176894e-03
8.363607410198907076e-04
-1.242633435034307555e-03
-1.463995716086278218e-03
1.298641893993034667e-03
2.877464910784451480e-03
1.419473649077248852e-03
-1.425212642481461182e-03
1.575472144678770120e-03
1.730799323836563564e-03
-1.170661406238734416e-03
8.204709814617149695e-04
-7.844197640541762228e-04
5.037527937710893286e-03
6.686854492262953378e-03
4.369527903331623699e-03
1.197060388486790444e-02
1.214469069927531786e-02
7.910327068670661155e-03
7.842630140648313916e-03
6.381023741775506027e-03
5.921354145362427157e-04
5.249992222913813476e-03
8.132267771669128217e-03
4.541403104414193717e-03
6.140774653496746185e-03
7.620589552904863916e-03
1.603590205710679617e-03
-6.581761760045034063e-03
-4.194280034038596477e-03
1.909367981910947872e-03
-5.432492600579090503e-03
-6.087791607452932088e-03
-2.209672562561276407e-03
1.924639567752279342e-03
9.570529101206855325e-04
4.212682577113906722e-03
-7.708942073494758768e-03
7.585524785784879395e-04
-2.849425763754270379e-03
1.781572946271700901e-03
6.007618855810555394e-03
3.438779447096625228e-03
-1.554696791481066393e-03
-3.290099909330923382e-03
-5.507213127414782236e-03
-7.100699561649155382e-03
-4.540669549499518586e-03
-3.360189018041723902e-03
-1.253886891716151156e-02
-8.395690457663420106e-03
-7.672617208942700447e-04
3.471294037084995000e-03
6.965419739284652197e-03
6.052065546051659320e-03
-3.079757627529857746e-03
-1.577669272188992776e-03
-1.057628291581846685e-03
-1.862388463827831589e-03
-1.112148821563702789e-03
-1.331406212687833313e-03
1.983583694951167819e-04
-4.422485851859413284e-04
-9.030630325850271889e-04
-1.654629373340532443e-03
-6.058079517274058724e-03
-7.161460984823802937e-03
-1.549196561358496009e-03
1.454053225627377098e-03
-1.085068029078305532e-03
1.324707365625463716e-04
4.133363814775181493e-03
3.189191219381781045e-03
-2.561093356333893779e-03
-3.665512802389470515e-03
-8.414881383735769646e-03
-5.041583375982358617e-03
-2.925703191495691250e-03
-4.479626142512350452e-03
-7.333287460837402058e-03
-7.308861000391847842e-03
-8.749806059957994028e-03
1.491720588587445648e-02
-5.675463710287531431e-03
-1.250057697728562678e-02
8.440902990175297785e-03
-1.511047560333412436e-03
-1.147105857659281788e-02
1.282787959890135769e-02
2.205751420998739928e-03
6.328719378726768707e-03
-1.603621807292853179e-03
1.504998807364926012e-03
1.444600229929598892e-03
-1.469417399542022069e-03
2.010844291256342307e-03
5.140175082600339899e-05
-3.748241747313111813e-03
1.398396724612492505e-03
-1.403819204975446716e-03
-2.600036356536200317e-03
4.795069615675304903e-03
1.054632297940606873e-03
-7.882655741161974372e-03
1.022923894430905790e-02
1.932294832040223551e-02
-8.851004458653770335e-03
-1.149381836347881068e-02
-7.075350931188660467e-04
4.146811326271709550e-03
-5.567685385167439778e-03
-2.250409311129010666e-03
8.509811265081854408e-04
-1.664879071121051074e-03
-6.205961210300083193e-03
2.870828442074846529e-03
-2.678776420458350762e-03
-8.245683536943379478e-04
-1.518531843094819483e-03
-5.615229879936869256e-04
-7.975141696282642698e-04
-9.447699196594712238e-05
2.552188885629571896e-04
-7.455550321192709606e-04
2.841208409796555537e-05
1.137913549464454784e-03
-3.899500500975947655e-04
-2.450477093767708392e-03
-8.053262193308534378e-03
-1.170716863216452602e-02
-5.111868861331480413e-04
9.036856645639803134e-03
3.982761127363694705e-03
-1.120079309243549558e-03
6.970546181724978155e-03
8.694678525617848680e-03
7.747483577640914805e-04
-1.305293641035304084e-02
-5.702480301741008270e-03
-3.863958108188820118e-03
8.822012832615780745e-03
-3.102014983014581354e-03
3.710605649207651680e-03
-7.596337195409247692e-03
-4.502801073763397586e-04
-2.874711860557755544e-03
-8.354137208268691333e-04
-4.852962442277740959e-04
-2.575153501453388526e-03
-2.138207351522827815e-03
-1.506708560026492243e-03
1.653081290068296244e-03
2.668762256470831964e-04
2.483070600100753251e-04
9.013066617965347430e-03
8.574787555914089449e-03
2.712001990691301039e-03
8.151106213342461729e-03
7.026180708326902266e-03
7.480609861554726476e-04
1.669233210074665564e-03
-5.752478476494798801e-04
-2.465836927266496555e-03
1.495252160536779265e-03
4.058763636275550431e-03
-2.894301472583621598e-04
4.510447309563937746e-03
5.252458831539335432e-03
7.626319843996614460e-05
1.207667962959405083e-03
5.605619887335593944e-03
4.303182675247715396e-03
-2.271820437637676882e-03
-1.273331588992229930e-03
-7.773648036008311757e-04
-3.240560626308757863e-03
1.479351501424874772e-03
1.693351715901893380e-03
5.207010683731284895e-04
-1.691524308523064757e-03
-1.557653459007788581e-03
5.080163861477244094e-03
-1.068330741165926306e-03
-3.893877357343050998e-03
5.600886774206341630e-03
-2.550017861451276541e-03
-3.648418425425133116e-03
3.163811751634371377e-03
-1.432115672485362616e-03
-1.886451352189973292e-03
-1.139264343476549188e-02
1.056952270146109801e-03
1.961471068286560655e-03
-1.399960577296520924e-02
-2.576238708737568859e-03
-5.429480107419748861e-03
-1.316181884066526704e-02
1.208476407333548383e-05
-6.885992877472177885e-04
2.639520588758245408e-04
-8.867591335348050515e-04
-1.984118178936417325e-03
-1.463385309245065092e-03
-1.894099620023627058e-03
-2.482884770672538245e-03
-2.859823661944573860e-03
-2.586257851206215114e-03
-1.675728299116497439e-03
-1.079151317494474703e-03
4.411916157532734355e-03
2.294622389210770452e-03
-3.864602973897339152e-04
-2.208188743116538608e-03
-3.913640606598452372e-03
-3.546929649197458692e-04
-4.772543004589068459e-03
-7.564116262347532656e-03
6.730335477966244324e-03
3.267186718036944621e-03
-8.396505448661438151e-03
-1.152259348208427465e-03
-2.096173739272680619e-03
-1.198878353404781230e-02
8.895868053389280761e-04
5.116864262412537494e-03
-2.874531593169988002e-03
-1.658501294701685697e-02
-9.582899311633226794e-03
2.307321420861748948e-02
-1.455427739201229503e-02
-2.091490272790933955e-02
-5.238265868174728050e-03
1.392253230399286522e-02
2.457875203695130632e-03
8.621816463283880905e-03
3.473601746738801122e-02
2.166684928340501318e-02
1.321992977062298735e-02
3.135112212696157530e-02
2.747306577193281765e-02
2.094389168417215910e-02
1.912799639383309241e-02
2.504511571742650683e-02
2.605799440261965735e-02
2.352285551197516936e-02
5.119402140830851822e-02
4.546112819021898288e-02
-3.253865608377724122e-02
-9.744281008779824560e-03
-1.050370885157270520e-03
-6.450758298079015129e-02
-4.947304262070328917e-02
-4.717619260027994949e-03
2.277207982309993259e-02
2.573993148740013129e-02
3.439804981962105851e-02
1.169144045467685779e-02
9.304345138927826164e-03
1.309476137686137361e-02
2.690824772015976141e-02
6.538592809055440887e-03
-7.596308930811584460e-03
-5.689293447588785260e-03
-3.307105764238576790e-03
-3.693703405641000827e-03
-3.667352652051792360e-03
-5.522086939190689464e-03
-5.661757316638971888e-03
1.640188640535845011e-04
-1.427752605368015930e-03
-4.232177458824584390e-03
-1.259319589166495341e-02
-9.407881271506521141e-04
2.426644588261559279e-02
5.273385111788095932e-04
-5.307526381551188992e-03
-3.684083535465271838e-03
1.376537498353132445e-02
7.502927814498601758e-03
2.778131242161399964e-03
-1.045671131620611038e-02
-4.131508948725259867e-02
-2.462777732316376311e-02
-7.695935920026107484e-03
-3.115597769022212735e-02
-4.180296559021173808e-02
3.528261453284346066e-02
1.586831247901843156e-02
1.029998856739407914e-02
-1.001863782479909919e-02
-1.231665370813937385e-02
-1.224612575666480727e-02
-4.446415527773114711e-03
-5.247660321507505859e-03
-5.330686023229357084e-03
3.055959627673233720e-03
-1.728318720278379864e-03
-4.490605985472764100e-03
2.228937754956613129e-02
1.740320853693382019e-02
5.462924900230320922e-03
8.636343965858432614e-03
1.039266891503102738e-02
2.716396048672997752e-03
4.818216967722707689e-03
5.660295484659653639e-03
8.732473366322162853e-03
1.008974345384344891e-02
2.176410626845385124e-02
1.723067433522756237e-02
-2.217480775038605315e-03
1.240750270029307434e-02
9.762186761776545443e-03
-1.070243268761527332e-02
1.187525450519700577e-02
1.968868013558420366e-02
-2.465644704314289091e-03
-7.999610935998905867e-03
-6.292231964338195578e-04
-3.256369336519608897e-03
-8.287547553148666771e-03
-1.123412422069628401e-02
2.226523718200076017e-03
4.529831518368445178e-03
4.433185485517705977e-03
-6.677652234305624449e-03
1.010448886770569203e-02
2.615862638568338880e-03
-1.284331176567838316e-02
-7.389144097139334171e-03
-6.726977492543272964e-03
-2.026379831102465088e-03
-6.464264294582786931e-03
-1.238330804254466136e-03
-2.292580710480801240e-02
-1.460535769925472467e-02
-5.657726333094426248e-03
-1.757969816626168275e-02
-1.109747457905465792e-02
4.499579377155499618e-03
-2.791143223018011446e-02
-2.690638359041854638e-02
-1.094330847254908895e-02
2.093234313647998439e-03
1.059312803544952553e-03
6.856401035766507301e-05
2.050118401276293360e-04
-2.143694912211191374e-03
-3.073082301071244308e-03
-2.070261059925434730e-03
4.031163427687255472e-05
1.471864655033723471e-03
-1.159956170034159156e-02
-1.460705645659505884e-02
-1.899160419273685993e-02
1.975649032549941370e-03
-7.914623782502646797e-05
3.867681175808780278e-03
1.173155564605593039e-02
4.260434623449631773e-03
5.881856723874595225e-03
3.452633732712959337e-07
-3.229460668090497282e-04
1.206147058721625514e-03
8.449605877439303079e-04
1.046586230175217819e-03
-3.103850621705368296e-04
-2.392151144951339039e-03
-8.347377307222661165e-04
-1.178709059789928440e-03
-5.814232489020305927e-03
-1.143178998250539966e-04
6.293040452513526395e-03
-4.535176712079912209e-04
-5.904440364755697166e-04
-3.450776954234663525e-03
-2.494699285020217892e-03
4.716451714072629996e-03
1.221128862693859202e-03
1.114323603158724751e-03
2.770033157822590370e-03
2.748274710417762581e-03
3.651357710262022414e-03
2.425160843207639985e-03
1.309220191417094243e-03
9.989706159527879728e-04
-1.917920815007953961e-03
-2.487301966851630797e-03
-7.528294386607929309e-03
-4.779744170467259932e-03
-4.538265397716764564e-03
-6.647207150979318052e-03
-5.368299933103523255e-03
-2.072555693553631423e-03
-8.866002247466120076e-03
-5.596439864418236571e-03
-3.087266771888204798e-04
-4.840194700349287164e-03
-6.958527568718021403e-03
-1.131148546712080170e-02
-1.677926793586695213e-03
-2.443388914536377948e-03
-8.139446654423041633e-03
9.210652982459296804e-04
3.898769613112222296e-03
-5.317847134508121333e-03
6.346343990447397658e-03
8.595180961165523048e-03
9.352871638505688007e-03
2.512971630307473444e-03
6.065749070432198756e-03
6.455444676376849780e-03
1.179679414866533453e-04
2.147593758364980347e-03
1.654616239683511132e-03
3.362431312536437629e-03
1.692324852759898544e-03
3.419295022290993308e-04
-1.876582156991515827e-03
-8.070901963641451040e-04
-1.094616718666749670e-03
-9.389055213048880938e-03
-1.549437617974056772e-03
1.238237075650050782e-03
1.124451869182760237e-02
1.454578101934474697e-02
1.322108739416960783e-02
1.050325260395145247e-02
7.399200756055475045e-03
8.691573132537799493e-03
-8.265890352169258729e-03
9.764550209085563412e-03
1.710305535476826146e-03
6.341526941794868762e-03
3.478792508004366086e-03
2.715404548571007017e-03
8.970011847824446022e-03
5.562398226218862735e-03
8.366384893982166220e-04
1.088136270114928306e-02
9.108631723479693534e-03
6.816643170566977043e-03
-5.848892074176237701e-03
-4.644838481256166954e-03
-4.101198964279571466e-03
-3.452549801038044559e-03
-2.471879521586096105e-03
-2.185966480819128560e-03
-6.616152641090150728e-03
-4.408645515562597053e-03
-4.564114465127736865e-03
-1.928843053693761857e-03
-3.047297983720964089e-03
-5.335885730080740935e-03
-7.816190732853126315e-05
-6.431229548847274815e-04
-1.116185459503352476e-03
-1.773841183899521059e-04
-2.756390273894430195e-03
8.492156508841506744e-04
1.596784042332117159e-03
2.220615154857321413e-03
2.332004237903316339e-03
1.080680808278544234e-03
3.200574323193556853e-03
5.209855186004290310e-03
-2.279053632662460249e-03
1.248079281543059077e-03
1.403244020752471408e-04
-1.011285700783801436e-02
-6.342031580990292045e-03
-4.865387212233240194e-03
-3.320706988473767340e-03
-2.647573906513751071e-03
-1.544139913602211390e-03
-1.463660642237832018e-03
-9.576824428388104994e-04
5.764948648827275968e-04
2.262857966841776407e-03
-2.738925351319851918e-04
2.545207478521062470e-03
1.017931746530228998e-02
2.176375608326651563e-03
4.887326112739134865e-03
1.683667929980032368e-02
-6.203487663500842526e-04
3.985351220832932494e-03
1.553597964219136053e-03
-4.122564401616613287e-05
1.946382465629826770e-03
2.012234208621786519e-04
-8.895630758198489960e-04
-1.136066208459912772e-03
1.298915584944063334e-03
2.392252072790424010e-04
5.158604407009640411e-04
6.292231560996538846e-03
6.493088242405177686e-03
6.940344400835361631e-03
6.617762870273384730e-03
3.607422625882104709e-03
1.690190050608448907e-03
1.090732528615057616e-02
6.491407720444202813e-03
2.771379631717405846e-03
