3.841197322725425217e-02
2.330097176370954717e-02
2.143271981774586277e-01
1.792867853981086265e-02
-2.766752222350162688e-02
1.537869758837620837e-01
4.774945858302582363e-02
3.571923425266050611e-02
1.669293448099164190e-02
2.371778877193540108e-02
2.565293803653146965e-01
2.332652102534956418e-01
3.039777468368768699e-03
5.220267818211511007e-02
1.687221288390831631e-01
5.428607847835150574e-02
-1.530110320007678770e-01
-1.187898751000531980e-02
-1.111545030150959262e-01
-1.387632666021204053e-01
1.429738005717068605e-01
-1.259437586552875354e-01
-9.879818962234274138e-02
-6.145260347776184545e-02
2.864506553749274556e-02
-7.630029870845854434e-02
-1.237425145154555928e-01
3.537142147042970364e-01
1.370168209905278933e-01
2.116970253219331924e-02
-6.052892626036501106e-02
8.309193566109394913e-02
-2.181508136592293645e-01
3.093057995209610306e-02
1.702236524895007763e-01
1.571796896815875200e-01
3.002952490003900632e-01
8.684257088168950700e-02
4.464856951413594122e-02
2.940837851084773247e-01
3.402642297785239411e-01
2.693782796698567794e-01
3.295513282075934192e-01
3.789095610553996907e-01
1.876571370671945016e-01
-7.984793641452864188e-02
-7.187724701293501939e-02
-5.317362537112723525e-02
-4.210149759979560369e-02
-7.331255959454694576e-03
-5.923804518833166713e-04
-5.576100693811692627e-02
-2.933580157193912616e-02
-5.507100079657832430e-03
-1.806280426251833868e-02
-7.939891532726441048e-02
1.199525117307885941e-01
-7.104306520056902219e-02
1.476657177256481823e-01
-8.706748474758820022e-02
-1.840245578858645814e-01
3.313305211793371452e-02
3.449706243959144158e-02
3.067642070706974589e-01
2.249150547964147706e-01
-2.814625371444715723e-02
1.548564330314496085e-01
2.539559736138747859e-01
6.817346188741606194e-02
-9.759450742631492134e-03
7.240337488993761617e-02
6.693385541592092314e-02
8.276121290744205272e-02
-1.272907045322414776e-01
-5.691530774036528129e-02
1.440719206891296622e-01
1.506754108142787929e-01
-7.448338156038628033e-02
1.212494787552323705e-01
3.804462188910236187e-02
1.068271560815877846e-01
7.206366166158244269e-02
-3.964735233961958621e-02
2.099254473153717160e-01
1.477429268508869964e-01
2.964051154433122170e-01
2.660397796083404653e-01
1.327567521239112480e-01
4.285637090422927398e-01
2.883411683021115390e-01
-5.470345983676379309e-02
1.058559244600816990e-01
2.152140707330973401e-01
-4.061896169951712682e-02
1.385453296094597830e-01
2.133974651063279826e-01
-6.628088268608271771e-02
2.698062828512445832e-02
1.465630301340498792e-02
1.785693683917817243e-01
3.467167389220642271e-01
-4.674382868895651105e-02
2.563741765393775518e-01
5.617869379809679042e-01
2.903765010118025125e-01
-1.485164568200171009e-01
2.952083017652866737e-01
3.089703648194859209e-01
-2.169827442173659637e-01
-2.653651779694906621e-01
4.967750756980970038e-03
-2.206408771751373898e-01
-3.143768546548145193e-01
-3.162654111680190394e-01
-1.162168144833943539e-01
-2.559281593000389265e-01
-4.105290936953530645e-01
-1.981410479064795588e-02
-2.955713670518893624e-02
-6.967578315276383005e-04
4.021608037856149072e-03
-4.917605308295779770e-02
2.184483240281764882e-02
1.219201976647995775e-02
9.946970012710477926e-02
1.369662251151472325e-02
4.931698261151285650e-02
1.004726482290881767e-01
1.914278691741622823e-02
-1.415682224727175254e-01
-1.339060625655777437e-01
-2.442287284552155380e-01
1.182471432880989604e-02
-6.946163106868688542e-02
-1.338673255687812536e-01
-6.489567386648888159e-02
-1.376106979787109219e-01
-1.287666142088643717e-01
-1.043372520886658023e-01
-1.604899963127236484e-01
-5.937701378810562175e-02
-1.323161526463623727e-01
-1.946221815253804943e-01
-1.356788445192035897e-01
2.081541433777642502e-01
2.092085365690551577e-02
-9.262016358412841766e-02
-5.439140805109872467e-02
-5.517937571166868782e-01
-2.989416566794134700e-01
1.630435459337277460e-01
1.976247697076791709e-01
-6.751843168361049141e-02
1.354875461562378147e-01
2.468410130461952123e-01
1.041083553045928506e-01
2.192102154526757302e-02
2.152230005867958873e-01
8.932821552216037297e-02
-7.151250497643282800e-02
6.702245227823323825e-02
1.353640709455950497e-01
4.591840970556605034e-02
-5.624571579557353235e-02
-3.068485953938232362e-03
6.106544903601851537e-03
3.156104433923884525e-03
-7.952237129792549819e-02
-2.371269978446851612e-01
-2.110572811827169937e-01
-2.575932994305457635e-01
-6.860304153194128618e-03
1.511814426294649100e-02
-3.163399884923789526e-03
-2.895249783650842290e-01
-2.850539648593533038e-01
-4.147923889635398709e-01
7.271599837669062705e-02
1.738519618170266401e-01
1.861833608728520606e-02
-7.878344360417591230e-02
2.386625326581254258e-02
-9.976864275695428511e-03
-7.947859554742663091e-02
-6.452926462738491076e-02
-2.993199634133267631e-02
-1.820451319149420794e-02
-4.192697820794815539e-02
5.637652963375384269e-02
-7.207516999066918006e-02
-9.537697997779397141e-02
-3.071982699942739092e-01
-9.944223643548089075e-02
-9.718361086088390943e-02
-1.653584172517975626e-01
-9.794826457498484462e-02
-2.532006679470150123e-02
-9.199807547608426783e-02
-5.537404239035634279e-02
-3.630979369114688271e-02
1.590799743738028627e-01
3.199044607710113675e-02
1.993656560090127094e-01
-2.175116892095968757e-01
-5.136024904427920895e-02
1.939954495907646459e-01
4.134548158075100899e-01
-1.249294490177066674e-01
-1.726834690895351909e-01
-1.664049362604203830e-01
-6.180500500374548449e-04
-1.351430887207534792e-01
-1.236260655904988515e-01
-1.270351576881173228e-01
-4.192566353773117399e-02
-1.109967484248704367e-01
6.045775310719191109e-02
1.802656012285460685e-01
1.018713179988221806e-01
-8.606624747659315233e-02
3.775803440217921358e-01
-5.410786136256246631e-02
-4.820770030894008240e-01
-4.866301627257426099e-01
-1.964586572252121632e-01
-2.732931465163339624e-01
-4.244123291320491265e-01
-1.311534520939476312e-01
2.937282281441995491e-02
-2.426384136828714337e-03
-7.128559843243449656e-02
-4.151494672331072777e-02
4.118323743734101511e-02
-1.272878373038221350e-02
-4.480846547022223486e-02
2.259198355652573126e-02
-4.228635922619036064e-02
5.954268728163385031e-03
2.145785492464291067e-01
-6.681421128358934480e-02
4.101586331235800020e-02
6.059457983178570539e-02
1.980402193348808002e-02
-5.673510109191505502e-02
-1.099492745505110530e-01
2.007306573373589947e-02
1.798848865723406409e-01
2.821953182622701992e-02
1.863235323952505337e-02
-2.363148084232647439e-01
-1.209763962033810758e-01
-3.944357447124098304e-01
3.585459120431038760e-01
3.654095838278486053e-01
-7.406191207734966198e-02
1.978117296511685413e-02
-1.272840731954114069e-02
-2.043539991644446607e-01
-5.058875489345978499e-02
2.542189561425572952e-02
1.408214330799123781e-01
1.666565918172193544e-02
7.127958969761118146e-02
6.737338342663867774e-02
-4.636324290404898740e-02
1.901653308964977845e-03
-8.563122863724587086e-02
7.511575172328602279e-02
3.494109052824224265e-02
-7.887308612275037434e-02
1.793399488480828044e-02
1.309899209575883794e-01
-6.382485878966999426e-02
-2.080789857572542256e-01
-1.543856067013863187e-01
-3.651096314388677655e-01
7.461989963334031417e-02
1.717524058032315060e-01
1.806316054169550961e-02
3.828806653390319503e-02
1.066370058385785607e-01
-3.731360667566845785e-02
7.143800607489467214e-02
1.316337412562510086e-03
-5.204025875435700638e-02
-2.245312532048084758e-02
-1.451135614850129589e-02
4.736095858649051055e-02
5.071992237315020927e-03
2.261099648207396187e-02
2.058273942311436219e-02
1.175544682701824481e-02
2.870241701269921064e-02
2.274399179974147603e-02
-2.805772707193650989e-02
8.117383572053174512e-03
-8.236526650634325153e-02
5.288311813389411781e-02
2.069201150530715350e-02
8.925078739210338952e-02
5.647226961262623995e-02
9.316779379487915777e-03
4.409687564366743251e-02
1.120797111012886565e-01
8.401600170336781526e-02
8.491624824063158383e-02
2.681603270077721063e-02
2.446625304311635107e-02
3.006939403451240611e-02
7.573468401169631235e-03
7.584384006149321941e-03
-5.464102478290625182e-03
3.229666630816838135e-02
3.953191707785131542e-02
1.431027665207488565e-02
3.108854841528153889e-02
1.186461175361046576e-04
-2.677795885756496103e-02
2.809015844361355610e-02
2.541935265373217873e-02
-2.693219381018990832e-02
3.304913322517039065e-02
-2.101865664896097538e-02
-5.235953621376083188e-03
-7.168428156735030810e-02
-8.422288809927981623e-02
-7.403630895639584653e-02
-1.326164877463844975e-02
-5.455554758460749720e-02
-7.529754305621008670e-02
1.501309058043528988e-02
-3.793132119104018068e-02
-7.450931533523173778e-02
-2.173354365300423849e-02
-3.992450539766021628e-02
-3.167995475811950790e-02
-2.341956220922863235e-02
-3.552505341234649117e-02
-2.846894778510797655e-02
6.681984846022069428e-03
4.805900786947504659e-03
3.927986998578301275e-03
6.868476170645030320e-03
-1.815867113359033100e-02
-1.773989816977769238e-02
2.604168955578244158e-03
2.914840306065831152e-02
-1.316392413503461242e-02
-4.019019802629544835e-03
-1.160321168956601409e-02
-3.433997524169525584e-02
-2.131114388424932074e-02
-3.858510033614686446e-02
-2.954125514809938235e-02
-1.258900136703659280e-02
-3.208084161343270624e-02
-4.331894500525248354e-02
1.584019866488577382e-03
-1.942976481677038958e-02
1.984053788583534442e-02
4.090278911063661288e-02
5.605745696763692748e-02
9.212585775299531737e-03
-3.741869387038028461e-02
-4.608674246506753308e-02
-6.509628549821880328e-02
6.399868877943668682e-03
-2.232842018875288992e-02
-6.212558034896249748e-02
-3.881242618732450023e-02
-8.575645593873724298e-03
5.136879074827822335e-03
-3.939694730728340866e-02
-3.140029576017245444e-02
-6.355525481013014899e-02
2.960855710799419754e-02
5.304996067209114983e-04
-2.550968672718090594e-02
-1.981203830042526856e-02
-1.884194723546622069e-02
-1.130956476437567325e-02
-4.003860138404896629e-02
-4.807661562703573199e-02
-3.576524047181944832e-02
1.404007017302285817e-02
2.340080300450445364e-03
2.283190187401287069e-02
-7.318480870653809589e-02
-6.389682121264879389e-02
-8.262039828478291714e-02
-3.816248308590676486e-02
-6.427331146415705965e-02
-9.611729925475695491e-02
5.131185878747972738e-03
-4.606706768231247362e-02
-6.288946979936226034e-02
-3.134238291349184490e-03
-5.648199604406235058e-02
-6.424621821674733613e-02
-2.414601821379232965e-04
-1.035261769704834828e-01
-1.124778100088166671e-01
-9.955267610610678622e-03
-8.128437084388624723e-02
-6.397821825538746454e-02
5.997497695642726653e-03
4.826622397492727132e-03
-1.072255243521778000e-02
-2.529754019598896841e-02
-4.846323430199646343e-02
-4.425542788909866271e-02
6.792544063535283123e-03
-3.698878940524480408e-02
-4.979742678249050869e-02
1.743131223213191397e-03
-4.184273394465497925e-02
-1.821122873646980169e-03
-3.072539745090187291e-02
-9.801021244963187273e-02
-5.751826044779782821e-02
2.937433145063091805e-02
-2.256578189108899429e-02
-4.449236604148696858e-03
5.346105774418503237e-02
3.187461590471472178e-02
2.163873377254719663e-02
1.895607302252494408e-02
3.211073231947973467e-03
-1.270514155257462287e-02
2.818842837207235011e-02
1.331840066330344449e-02
-2.836753293488105190e-02
1.837585789154471128e-01
-1.369395428146627774e-03
-8.653082524039214241e-02
-1.164126147068984402e-01
-1.777440358798472730e-01
-3.113164801816967198e-01
-1.256905658578643392e-01
-2.435039779693689010e-01
-4.143135570976894666e-01
-1.088259544231790638e-02
1.309877595618282042e-02
-6.530306353329846936e-02
7.776289292038154541e-03
5.624080947342317144e-02
2.033190637631998934e-02
3.375677078542485554e-03
2.637538929430652615e-02
-2.556380191895718523e-03
-1.053061138619297565e-02
5.893874642850302492e-02
5.123622454756750211e-02
-9.116824317448513071e-02
-8.475785509049661368e-03
8.429262917400417998e-02
3.663227590047696703e-03
1.139881969172606632e-02
1.006888831377596299e-01
-5.747076482954817378e-02
2.218621114557501120e-03
-2.041407528793393877e-01
-3.327663855147123401e-02
1.197510203706699449e-03
4.230869537361183624e-02
-1.789522863241822630e-03
-6.415837905839305577e-02
1.763634064550233527e-01
1.351382895656447203e-01
4.249095864637775222e-02
6.134010727954126996e-02
4.726374789496341072e-02
7.322527349912334727e-02
1.795180222687122948e-02
9.756031676839853339e-02
-9.932974117621264087e-02
-2.927411554377419914e-02
1.773516433813201066e-04
-8.554629085578493303e-03
-4.173036812470255069e-02
-6.381134602385615806e-02
-7.639509147859063765e-02
-5.595614718111444064e-02
8.110987078914338446e-04
-6.830127913410946605e-02
-6.564891465380823243e-02
1.147999603223587295e-02
-1.392317060518293848e-01
3.994852844225792871e-02
-2.610225621091835299e-02
-1.525463743589921262e-01
8.987372484010164309e-02
-3.654605386691762992e-02
7.420325188502183145e-02
1.808470320791543684e-01
1.309351133537857703e-01
1.725673027351901090e-01
1.502090838987642507e-01
1.322664071132365060e-01
1.349142584274591328e-01
4.289281385332994329e-02
1.553327270629032142e-01
2.326381349380113872e-01
7.943021415697001930e-02
1.820947427720350301e-02
3.327746544751775809e-02
1.294853678451019785e-01
-7.444919354957785229e-02
6.650544434702058971e-02
1.380666701711850686e-01
1.464780520162950461e-01
5.535559580661849471e-02
1.243679256616911505e-01
-4.140888750932060491e-02
1.744067100624334746e-02
2.126007869802098299e-02
9.946305042793456008e-02
3.575683410358878461e-02
-1.981815393960187702e-02
-1.912523724124032543e-01
-1.743383543087487220e-01
-2.250579685248541451e-03
-1.212249573962496420e-02
5.391908951012856083e-03
-7.359225854417096591e-02
-1.336605568061555692e-02
-3.175287031458708109e-02
1.698549949481031537e-02
-1.080522371116705155e-02
-9.318226461625368773e-02
-2.926558475754827485e-02
1.626927734526280311e-02
-2.241058103008376420e-02
6.159371141551230056e-02
-2.804231557339156508e-03
2.476610166361634460e-02
7.572222294144288768e-02
4.553785460853936734e-02
-1.299310337501039803e-01
4.815319219270378093e-02
-1.647998569410491498e-01
-2.373664567052831131e-01
-1.163283068119512625e-01
-1.741139089829190911e-01
-2.343252691364014761e-01
-3.773280501404305820e-01
-1.380701315964960874e-01
-1.325441879736875828e-01
-3.361623839703895555e-01
-1.790236449382863991e-03
-1.109087043875120193e-01
-1.144733881574380996e-01
8.955939487854595871e-02
-5.081717019869597812e-02
-7.520263933439312598e-02
1.357946808307670672e-01
4.737185382854464111e-02
-7.768610253117394504e-02
-6.445680569365865031e-02
-6.373422280529174311e-02
-1.055119503286086752e-01
-1.331816301540944547e-01
-6.599162978215586395e-02
-1.400017696366207542e-01
-6.210515623535639573e-02
4.937893023106736633e-03
-3.930275665248081363e-02
1.318492846538761587e-01
6.716690201457466147e-02
-7.278862653007063532e-02
1.401879765674546863e-01
6.138559247906631017e-02
-9.937710649179336275e-02
-8.034999769963734398e-03
-6.447429180844566066e-02
-1.622747989501142074e-01
1.143060929588405293e-02
-2.675622443340282958e-02
5.568395938830534436e-02
8.471305055199443435e-02
-4.971184209418159916e-02
-7.569642722293122572e-02
8.204097980517476019e-02
1.057572610359251569e-01
3.297994789225815876e-02
-6.269913374045157049e-03
9.240179364364086920e-03
2.002370052348906651e-02
1.387884009409397906e-02
-1.900005235214098295e-02
1.321161685917020615e-02
-8.605561508903507295e-03
-2.996833283503618980e-02
3.510695900434111782e-02
-2.325125650503657646e-02
1.764755843154514059e-02
8.470487856654683456e-02
-5.521681668615695260e-02
4.434440285976207208e-02
1.024888712437941746e-01
-3.540449509717912696e-02
2.641863634467159216e-02
-6.841027657312441501e-02
-2.387029030000131086e-02
-9.511768982169599429e-02
5.181638951348366273e-02
-1.152200242220636911e-01
7.340251720888103792e-02
3.133241581045854984e-02
-1.056540328527401790e-01
-2.457255618798620533e-02
4.664093801882821660e-02
7.283870076136028486e-03
-2.156228066239946478e-02
-2.642857162553587796e-02
3.565979634728939224e-02
-3.576995976595939014e-03
-6.344308265152831527e-02
-2.607876346990593841e-02
3.037824636486958791e-03
2.188842712903133619e-02
5.842852491324519726e-02
1.334382441920328455e-01
1.189215629418264863e-01
1.627233291184134248e-02
4.887333404427614270e-02
1.167271826556917115e-02
3.110502231188819189e-03
1.590110235972052449e-02
-3.358001088636628634e-02
9.702858982996266646e-02
-1.585175788965337632e-02
1.062856304434760431e-02
1.278199873473538084e-01
3.085526031995504126e-01
1.228823810679143674e-01
2.258587407302032821e-02
1.400468866998700879e-01
1.047367401233380568e-01
-9.119442070503076814e-02
-5.747079349296835282e-02
-8.047847933813924437e-02
-4.386584465216884776e-02
-5.797650459653850424e-02
-1.285693752623531805e-01
-6.410286516733114393e-02
-4.973533950099799650e-02
-1.006408146460922859e-01
-1.702718510494518056e-01
8.706963211217316062e-03
1.547555590597314568e-01
-8.919253195735053763e-02
1.107033678651755428e-02
1.349054441442402996e-01
6.386127768826375950e-02
-8.574056398821194858e-02
-1.705925130186337901e-03
4.089127227826085120e-02
-7.034970355038500101e-02
-6.739275486344384336e-02
3.789961287251283201e-02
-1.476581307254005992e-02
-8.083568777419924967e-02
-1.395014951308791162e-01
-1.270904986381556773e-02
1.981349515348592664e-03
5.192529259295472661e-03
-7.010275710230400026e-02
-1.152420970074994749e-01
2.670722958951720141e-02
7.298789425650618889e-02
-5.902545390881054448e-03
3.435478924439863690e-02
7.477340062415216426e-02
1.802588344649629082e-02
-2.128482911936257008e-02
2.657053164985157673e-02
-4.661507157870475003e-03
-9.435994457724918016e-02
8.756336325357168271e-02
-1.662507203008697226e-02
-4.483715167796142181e-02
-1.199455127184106788e-02
-5.936635207288441796e-02
9.190686619097063973e-04
9.875298491096966280e-02
2.371922988529334697e-02
7.657538744327502256e-02
5.113411129093631963e-02
7.365426490903069501e-02
1.135537648140254596e-01
1.804620220371538561e-02
3.096917695462184442e-02
1.599678282974828850e-02
-4.127783583400500278e-02
-4.819124285067410279e-02
3.728324129136402487e-02
-1.282636334851585194e-02
-7.741899245317615530e-02
5.701850358498916811e-03
-1.726292245339934930e-02
-6.174832239115066873e-02
-3.828645444425674699e-02
-4.128125627327482172e-02
-3.787150798235490380e-04
-7.824233767894903796e-03
2.346944261917838920e-02
1.053803471627909882e-01
-5.837612310965337864e-02
-6.040457839229284448e-02
2.146816803411582750e-02
8.926034764194742954e-02
-2.491438275700474589e-02
-1.680758110920456752e-02
2.818901105967587528e-02
2.203509910330666427e-02
4.418932048025753061e-03
-1.252866297349616853e-02
1.689768188236434815e-03
-1.207057095584917854e-02
-4.295161905289054949e-02
1.508354911611764493e-02
-1.178655073115269548e-02
-1.154446797143085512e-02
1.575804783957724872e-02
2.718420262304420756e-02
-1.915217628560766591e-02
-1.423121608896681404e-03
5.031290412868531792e-02
-2.302234179757272139e-02
1.374169607745762134e-02
-6.028694376670877021e-04
-2.791678617027177137e-02
-1.214353085399273550e-02
4.656735329046188254e-03
-1.269573716332028646e-02
4.439462932783291502e-03
-1.515412684657921338e-02
2.886919322110432454e-03
1.626420344661429207e-02
2.395863687828446789e-02
1.856316090825470277e-02
3.492870248983513670e-02
3.614149412536037803e-02
-1.859303371048241435e-02
-2.253027285822365236e-02
-9.881645090394580375e-03
3.388591965529990507e-02
1.760696969670219603e-02
-5.378475852756535273e-03
5.741922558667044568e-02
4.693050194944455022e-02
2.521638020210854869e-02
3.178512580425661704e-02
2.911472776745840235e-02
-3.637306569077715813e-03
3.367918297274197920e-02
-9.450681220007237310e-04
-6.903156434681244347e-02
3.346521960571627319e-02
5.473613303922378326e-02
-1.394179181676791571e-02
1.203618982505226267e-05
7.659739570543953879e-02
5.557773147309257034e-02
-3.984053765557936388e-02
-3.692490856811043998e-02
-2.447131464569844705e-02
-4.599000860259210011e-02
-2.890106680636496048e-02
-1.031718755005906624e-02
-3.683840957397183091e-02
-1.381292765858354449e-02
-3.307584227220855327e-04
-3.173464199446178469e-02
-9.961053618953812777e-03
-1.962408428459690591e-03
1.547376937210682459e-02
-5.956042304976642832e-03
1.214106965111699278e-02
-2.649292663641280958e-03
4.891604481313534085e-03
4.008151431792733588e-02
4.947697240057427094e-03
3.481706293765208377e-02
4.179031161867661354e-02
-3.908287185199159353e-02
-1.019476709017191028e-02
-2.831499430187715220e-03
-1.395948937474978660e-03
-1.159080200900925242e-02
-2.061691020399766122e-02
-1.583907137927743902e-02
1.059292127909748291e-02
3.925505797569389665e-02
1.743362571244842785e-02
2.268483988602381513e-02
5.467547749259380613e-02
-1.014502431113000966e-02
-3.399967768363546666e-02
-2.447614769185913614e-02
7.584002958340626752e-03
-4.918254889517081896e-03
-2.647709309769990388e-02
-5.046067982758504350e-03
1.222822086129329335e-02
3.544383328699155650e-02
3.714408475955771616e-02
3.761904188214506423e-02
6.577620535165581983e-02
-4.109198875651013522e-02
-4.750441664570423383e-02
-1.360480699211940106e-02
-4.401693467107056085e-02
-3.870641188323376003e-02
-1.906210617709057364e-02
-1.571864298441435354e-02
-2.277942537825383001e-02
8.535852056606263102e-03
1.789423626170872500e-02
7.622788289999047479e-03
1.920171419144140260e-02
7.771283224629566173e-03
9.033606227481899217e-03
4.386307816099233037e-02
-3.937343218971980224e-02
3.625331130697390710e-03
3.534912574263752300e-02
2.903393089598852242e-02
1.414062289991823958e-03
-2.225917656502217346e-02
-7.210076660907170512e-04
-5.118444892298155274e-02
-5.774443456085393001e-02
1.654213465876049408e-02
-3.491260141722540150e-02
-5.637273487399276778e-02
-1.670885077677991895e-02
-1.765040826558861298e-02
-1.204671028224173213e-02
-2.304629180253248838e-02
-5.488138051555466884e-02
-4.360314854738692181e-02
-4.161502842232747690e-02
-4.838731937091587249e-02
-5.270114816779670336e-02
-9.084658887354723350e-03
-1.975651192890201524e-02
-1.863845453663293128e-02
-5.541989737147284822e-03
-1.092382147843862228e-02
-1.045894782284672968e-02
4.013096177441916913e-03
-4.580335058418540453e-03
-7.868977776768589644e-03
-4.646190897332359154e-03
8.527724692848331206e-03
1.563351816642199674e-02
2.345145581545549432e-02
2.804455621834445536e-02
2.339563603936396785e-02
1.873751073278047408e-02
3.020410291058445509e-02
1.354082770461228005e-02
-9.954641588150622139e-03
8.634219865646693484e-03
-1.187598589856391634e-02
-1.113252508658452676e-02
2.861721938799568349e-02
-3.819441542352067925e-02
-1.014023624679392596e-02
-2.372494532096427848e-03
1.103111124859553621e-02
-7.013095908473790559e-03
-6.093131303689217765e-03
-9.471727321555885315e-03
-7.192343465058177732e-02
-4.955902398059638253e-02
-7.301115944944483460e-02
-8.091846693633537868e-02
-7.890964223319918425e-02
-9.824733426984388895e-02
3.579172337231717460e-02
7.742979341157359141e-02
9.526488294207238750e-02
-2.128147590409418602e-02
2.314340160292864892e-02
1.898086788433409923e-03
-8.234235254870791998e-02
-7.478773128349890109e-02
-4.795419847037660915e-02
3.790140520059739199e-02
3.785968874177134819e-02
-4.671338668470313010e-02
7.011474287011046358e-02
6.420852942541734054e-02
-1.369951403523745823e-02
-3.448734928817300156e-03
-9.329822697555356648e-02
-6.050600251444812616e-02
-3.272028597793925214e-02
2.679876251884787119e-02
1.023173409978875292e-01
-2.957846100205778483e-02
2.858646943212458068e-03
8.491996591384089188e-02
-4.675327100731265298e-03
2.801976042564467348e-02
1.004351787460222994e-01
1.528682323776053009e-01
1.843165462746947370e-01
1.968169781402568930e-01
1.167713908947292378e-01
1.413953838771845051e-01
1.918223100259141833e-01
-1.557244324157343145e-02
-1.481269796213628351e-02
1.464363323444294561e-02
-6.828619198298335399e-03
7.649405533100314680e-02
-3.452631918732076977e-02
3.410253160754864090e-03
6.019545213645369902e-02
-7.898500404808413144e-02
-9.627308743733999086e-02
-5.512790480113883423e-02
1.186092915972880718e-01
6.031992720786113343e-02
1.013326829067599660e-01
8.450608732931524925e-02
4.162201499998734872e-02
4.736439122593168877e-02
-9.537166572860612812e-02
3.579520344434066609e-02
8.701790989995114578e-02
1.152160404632650119e-02
-2.011680138413697583e-02
7.191966018683228212e-02
4.996169512145279962e-02
1.007094029941401139e-02
1.684920864468811980e-02
5.178079093577127312e-02
4.080116123467830702e-02
-5.961363376245024104e-02
-1.326223624243474605e-02
-3.585080236439087270e-02
-1.571179907463898448e-02
4.961551018744085606e-02
-1.825761155477844538e-02
-1.302572291655827892e-02
6.904547593907334191e-02
-1.386748342835251308e-02
1.784091157915813214e-02
2.819253300890368560e-02
2.520802258369672644e-02
6.747104760804745194e-02
3.594019383636297416e-02
-1.960924373417738398e-02
3.695344164016557686e-02
2.952703783950646685e-02
1.962433665523579882e-02
1.424864752674616028e-02
5.591079436864337948e-02
2.158572728594023923e-02
-5.338386078583742811e-02
2.891988944221859231e-02
-4.125158057545064150e-02
-4.757938352985002090e-02
-3.367967983164293910e-02
-5.061134282930736250e-02
1.379448579283135308e-02
1.755305074446998972e-02
1.048152712394201727e-02
-1.301090794076071866e-01
-2.048503444931477901e-01
-1.014279737257775676e-01
-1.487282377171610104e-01
-2.243002795427525287e-01
-1.784681339317339618e-02
-1.505918853608955721e-01
-2.227118223769627425e-01
5.078449450358784450e-02
-2.347258006966321253e-02
-2.481641826923259783e-02
1.652624694177624344e-03
-2.837585106561007001e-02
-2.771102902669465157e-02
-6.781196638392175680e-04
1.459587105503165616e-02
-4.010768205258075786e-02
4.602415809152086285e-02
5.651740578884446864e-02
7.319343068864508917e-02
1.874677876741917548e-02
3.766036251822153791e-02
5.103478338866505870e-02
4.203780630840871918e-02
5.557356782419285712e-02
6.320775379845318398e-02
7.562955511418394117e-02
1.456346658476752598e-01
3.611864127241832395e-02
8.295874139243436529e-02
6.026814962398606423e-02
-1.801747342798525747e-02
5.489694955815622654e-03
-2.212028016377961398e-02
-6.687631053567699713e-02
-6.620191696128926995e-02
4.790087047403015358e-02
2.907602226926119249e-01
6.959541632790998411e-02
-7.365108819687644914e-02
6.277222451002355957e-03
-1.673735716904105331e-02
3.508152189844472302e-01
-7.409228585793990740e-02
3.424559025990665806e-02
2.047681922462969012e-02
4.109575645649735792e-02
-1.038042453872401044e-01
3.570434446576298965e-02
3.060200157472837967e-02
-8.561901841076725861e-02
1.203920240740576075e-02
5.750387931516506151e-02
4.877769123178962718e-02
8.640364390950821399e-03
3.249919485810427895e-03
-9.147759388906925859e-02
6.665698367932071378e-02
-5.277659953389700342e-02
2.467653132401694850e-03
4.319302260036698288e-02
8.147841379572159579e-03
-4.158137726928834432e-02
-3.533911971828310183e-02
9.109673365405486500e-02
-3.475850992173808440e-01
7.779671214546161895e-02
-4.442916789952967016e-01
2.683393107502411029e-02
-6.158273617100377441e-03
8.639239404269059841e-02
1.943747162689971400e-02
6.255713698971432368e-02
1.203656634948340048e-01
-2.302662192073254635e-02
-6.327795076992590029e-03
7.461416769501305613e-02
-8.872559346175140638e-02
-7.017288333054916283e-02
9.529192425345086107e-03
1.915607033521619582e-02
1.285265071153136353e-02
-7.440703848323765301e-02
1.105326824959834350e-02
-7.828118618403202573e-04
-2.924119641233539207e-02
-4.901516603392082685e-03
1.667524628418713337e-02
-1.389377528218536766e-02
-5.519270873777148284e-02
1.739386608266720036e-01
-1.793532917740971872e-02
7.708801973362038040e-02
4.401043717365589747e-01
-3.626053230548996753e-01
1.239685188534071433e-02
-5.573200303530317576e-03
1.568937889464383506e-01
-6.918442017831658020e-02
4.754309917329751362e-02
1.380940948066466077e-02
5.616888652940606880e-02
1.316016893684310574e-01
7.942284618985420708e-02
-4.494868824852449318e-02
2.675985110029697328e-02
4.131661181772808278e-02
-1.862392727018362393e-02
1.397162004991039930e-01
3.572910612076689307e-02
-1.621356247976952769e-01
2.032112734643351792e-01
3.646456089278950902e-02
5.382158846425855875e-02
-3.178715231932651708e-01
4.439782429933124969e-02
7.316040002425071298e-02
2.719394906927572256e-02
1.269009810135364735e-01
-1.088434805549512072e-04
-2.326488857104874394e-02
-1.945824124253310236e-02
4.986678938590002885e-02
-5.272097922713932933e-02
-3.233241476257204400e-02
-1.633906338885313114e-01
-1.501478866654490374e-02
-4.759640601827209300e-02
-1.110107549808097421e-01
1.835822706292568329e-01
-1.117791405635199242e-01
9.609617727909685637e-04
-8.716581652953614423e-02
1.009136012451645852e-02
-3.431099270304436427e-02
-1.087756931962740869e-01
1.438151979432456817e-01
-8.093650147941258699e-02
1.041252718866189642e-01
-1.018403564648740715e-03
1.327479013299439348e-01
1.470360404357186068e-01
-1.330701109161080697e-01
7.926492870285403725e-02
2.162382069158143294e-01
1.588471706525034777e-01
1.396525832285016866e-01
2.753290109051110268e-01
1.096017396176032777e-01
7.078268842911022984e-02
1.459233531710320553e-01
1.980297047567440294e-01
3.660514205857968995e-02
2.422743626581851106e-02
4.094353652803540966e-02
-1.127579750292426464e-01
2.800662309581215120e-02
-9.970726270475252506e-03
-3.945649132016128269e-02
1.554361557445954056e-01
-8.099408617878302991e-03
2.746296191953243038e-02
-2.189699543030159193e-02
-1.204870528844955019e-01
-3.681775446762428072e-01
-4.101086470847508658e-01
-6.042123076288838934e-01
-1.949217474855553106e-02
-1.129011168165304640e-01
-2.097208043766108643e-01
-1.813011738836703413e-01
2.021067155286485062e-02
1.219407900995584347e-02
9.157192456116654625e-03
-1.851606021106589825e-02
-1.796317915747241284e-02
1.323101592193919214e-02
3.094908878182884779e-02
1.021356244707794791e-01
-1.818042093945219234e-02
-2.012251310140741878e-02
-8.489338679593907977e-02
-6.253529839129304269e-02
-4.400554326410156813e-03
-7.773190587497930126e-02
8.646593872321145166e-03
-7.776639171161813359e-04
-2.155175054827273770e-02
-1.777202354931478601e-02
-3.161225631125851726e-02
-5.399895024676448080e-02
-6.469680807852418863e-03
3.681120852481971698e-03
2.078484720533253088e-02
2.104505407123638885e-02
8.052759327383147980e-02
4.594439140054705495e-02
9.511278236400341757e-03
2.915945877713736062e-02
1.430096146421082869e-02
-2.022660652036830861e-02
1.560424148650929382e-03
9.476353637343929229e-03
-4.587580957360664008e-04
2.842843982604203318e-02
3.804734603878411059e-02
-5.114637196417286258e-02
-1.470484745766608217e-02
-3.793597672344919264e-02
-7.464636550092705602e-02
6.341136019096739636e-04
-3.489719863989534238e-02
1.323634003327425930e-02
2.867439136029080113e-02
1.836089385325113260e-02
-5.723821459135042256e-02
-5.762481023271139036e-02
-3.942242745549254940e-02
4.180176044847221106e-02
-1.074746021952867336e-02
-5.785942954168167562e-02
9.902614290637773431e-02
4.580402819032043660e-02
1.852828542132311379e-02
-4.240518180400387749e-02
-7.181473515916414474e-03
-1.726612455261850379e-02
-8.326700865147576569e-02
-5.684082257813651007e-02
-6.028769788497113924e-02
-3.440251847210947650e-02
-1.421070091984755548e-02
-1.743514962131270662e-02
-1.281628282835064851e-02
-4.288980230575279579e-02
-1.356825713180201121e-01
-2.570851454180182044e-02
-5.942954974683902630e-02
-1.119062063742682772e-01
2.974517547619731986e-03
-6.406023940818841855e-02
-8.176854235133464155e-02
-6.990900172680254709e-02
-3.028996498022111863e-02
-3.784382920422921237e-02
-7.521794545276912214e-02
-4.298554663918313645e-02
-3.544720808261347250e-02
-2.270373387523613729e-02
-4.949881908614471582e-02
-4.732469497940803432e-02
-4.537554407882937735e-02
-3.143834408144683171e-04
5.527906183464795925e-02
-2.781537459115631175e-02
-3.786011974128749430e-02
1.658047007796825331e-02
-4.211680224043582582e-02
1.403364694360320283e-02
6.262911795107732604e-02
-5.373158384546558933e-03
-3.688789337458352191e-02
-1.274140639125391841e-02
1.223112495845092226e-02
-4.982746844227528560e-02
-6.436365547839151269e-02
-2.837749669298014060e-02
-2.905384673622777442e-02
-5.697699827542502399e-02
-1.976952651300284414e-02
-2.206408497414449540e-02
-2.654051184692373874e-02
5.983895214008157042e-04
1.778407469274369962e-02
-8.658917018802851986e-03
-1.173639365112652717e-02
-2.732019488642880960e-03
-1.381698798879729857e-02
-1.399561987920894084e-02
-6.683877282704905887e-02
-1.480254176393538262e-02
7.619620776732580507e-04
-8.794579838400552393e-03
-5.540479839570054688e-02
-9.145219937254331008e-03
3.390564152762477051e-02
-1.847356240932595400e-02
-3.359780596367833994e-02
-3.653264849380330470e-02
1.732100394784220204e-02
-4.552723136165441609e-02
5.031777062087083169e-03
1.642432772606872149e-02
-4.508215951085938616e-02
-3.250451526274685671e-02
-2.336255417405691537e-02
-1.932505499592106213e-02
-1.370170612818801502e-02
2.471679141131919236e-02
-4.109923511417420960e-02
-2.560822027174724201e-03
5.315750472660985687e-02
-1.003844238729480198e-02
5.604253808735351616e-02
8.584955905330642068e-02
6.334772481736306027e-03
1.162819128141718249e-02
4.795230756012540917e-03
-8.611684837472113885e-02
-6.389227196444335899e-02
-8.438925100159319626e-02
-8.882600248630130590e-02
-8.856694811289633762e-02
-9.037670523102235565e-02
-1.412142240285471986e-02
1.858137419154531900e-02
-8.944032175161025638e-03
3.157328724174136847e-02
5.640623952081047499e-02
1.944240170804282727e-02
3.045110863075891836e-02
3.762554490148114356e-02
-3.747325283802646016e-03
5.281383013177826623e-03
-3.708639753093235028e-03
1.175442780159654740e-02
4.837687174123273329e-03
-5.512280223014906499e-03
2.020480479870193427e-02
2.193270197169652335e-03
6.121279947854178262e-03
2.181820069217019903e-02
1.370447406380413159e-02
1.065986627049763866e-02
-9.397097886180845808e-03
-5.674478828905823481e-03
7.343368922138091871e-03
-1.557903235390126900e-02
-6.150730475379342747e-03
-1.517146281263046133e-02
-6.350276556540333968e-03
7.623370179072077452e-03
2.590394140539699439e-03
1.134113211446460996e-03
-1.146062494006184042e-03
-6.509122130914533552e-03
-5.222337256033326124e-03
-7.296997175144591050e-03
-1.517386676069214062e-02
-9.577121896775271301e-03
1.085946049553295281e-02
-3.135201311692432501e-03
6.712058568618404879e-03
-5.322009410854707835e-03
-9.483387396296595606e-03
-1.289720028387655783e-03
1.965514672650439925e-03
-9.013608396207411708e-03
9.520293192090439893e-03
7.595427258038337306e-03
9.828519201052795910e-04
3.544583550972840291e-03
-1.319800212875869676e-02
-7.812117697411014722e-03
-8.180933313150638708e-03
-1.090566022284067405e-02
-9.384753039485186840e-03
-9.544235303073739587e-03
2.244096604894005309e-02
1.387474163712574052e-02
1.554529188260852374e-02
-1.256550386571078258e-03
-1.239048519521867252e-02
-1.032951490562964737e-02
9.231088341024738103e-03
5.134315918797986884e-03
1.020668744055757381e-02
1.856236841205385207e-02
1.167956732267951513e-02
7.827604337613024502e-03
3.659019376467780894e-03
1.748435944817215010e-02
-1.069391670179023479e-02
3.798315427448199690e-03
1.815040290230348144e-02
-1.838978263004225613e-03
6.472744294911010436e-03
3.277225740943796265e-03
7.728836908969218466e-04
2.969319293709037424e-02
1.308885076964865987e-02
4.477476058798377824e-03
3.701716501682937588e-02
2.311082152422138866e-02
1.131843822808804162e-02
1.637352528755223885e-02
2.806018382425977137e-03
1.354733137613068662e-02
2.705640973940011147e-03
-3.141960928024273812e-03
-2.081233992197122247e-03
-1.867719425702504821e-02
-2.887950060501927665e-02
-1.122350554017538353e-02
7.147047398671890761e-03
1.188089256342080534e-02
1.906872837202081006e-02
9.424783589099526050e-04
3.532859165219292413e-03
6.713881274062557906e-03
5.877024435719830665e-03
-5.298325329400080559e-03
8.359457290447352626e-03
-2.046938784464853722e-02
-1.544221260202961049e-02
-8.567019056211835903e-03
-1.129261471940930760e-02
-5.236752830267260225e-03
-5.331188662578060719e-03
-1.444716202491446583e-02
-9.953596445600232379e-03
-6.454501012197233316e-03
2.047294724569395218e-03
1.457901646642200885e-02
6.954252008293006215e-03
7.599149482748596661e-04
-4.490242029158757198e-03
-4.218937232848879795e-03
1.806764033668866072e-03
-6.081133907035704859e-04
-3.909705882421039315e-03
5.370606865386410959e-03
1.333536201162485897e-02
-5.737903244372835262e-03
3.272201197385992723e-03
-1.167320854467208610e-02
-1.376874072660058158e-02
-1.374132008546187923e-04
-3.678424333002991518e-03
1.225992252418171662e-02
4.455610355248638271e-03
-1.984731922170033906e-03
-9.296146132093062106e-03
-7.961796732208452007e-03
-1.728074061162044109e-02
-1.666408709264870572e-02
9.692480029076053910e-03
-1.084748240778999825e-02
-7.445154809419195566e-03
-2.572090001805009060e-02
-3.201900457262587402e-02
-3.271222091627299516e-02
1.804768605313800470e-02
1.016405252371935068e-02
9.096080205277867065e-03
-7.816880695314493491e-03
-1.600648152867040555e-02
-1.335678603569837031e-02
3.075642470673831466e-03
3.913597692576243313e-03
-1.800642080247713724e-03
-7.873037819999643971e-03
-1.187270810478598289e-02
-1.188055853148379214e-02
-8.755579408477565453e-03
-1.159063882502576158e-02
-6.344681048270762840e-03
6.588502490975112202e-02
2.384403192271382088e-01
1.307697362137259234e-01
5.685383906004475886e-03
5.922417976117956284e-01
1.724553381171041733e-01
2.574141336015542403e-01
-6.697104747018196857e-02
-2.626884985418854179e-01
-6.054493840941157362e-02
-1.888928945658993608e-01
1.423165074121856069e-02
-2.447723992634232293e-01
-1.024838881870528962e-01
-5.924386127090547349e-02
-1.513122420735917018e-01
-1.596083305266906283e-01
-1.156987687137856213e-01
-6.896156300022797392e-02
-8.336548638061846983e-02
-1.475406023507657149e-01
8.629236634105606762e-02
-2.097599827802564265e-01
-3.480347785558274287e-02
-1.497618337668038535e-01
-6.622801804061394237e-02
3.662753780368309120e-01
7.716200036480727609e-02
2.997516654135942149e-01
6.187581048706401743e-02
3.562052094836869465e-01
-1.010551766327656559e-01
3.117531913532075039e-01
-3.372123603276620807e-02
-7.696348454739157519e-02
-1.705056905603175854e-01
-2.200637844875748539e-01
-1.759630096412359290e-01
-9.004322162052941225e-02
-1.557528084191624473e-01
-5.098011621531704785e-02
-5.216379122560287768e-02
-1.491281713055795377e-01
-1.329048304362211996e-01
-9.387043626358057558e-02
1.589779366643284397e-01
-9.707238717136064052e-03
2.351696053892855798e-02
-1.103703338070369105e-01
-1.137034551602762178e-01
-1.515054477287918269e-02
-2.523397474825144968e-02
-1.043252856924331146e-01
4.848269868291286977e-02
2.576808827311520278e-01
8.582893145982257999e-02
-3.409122394481970547e-02
1.706385931883823981e-01
-5.156146536352298471e-01
4.480918684250361217e-01
6.938841229708553326e-02
1.924524966099206980e-01
-6.940015827802317738e-02
-2.442591418463791464e-01
-2.663951246098041903e-01
-8.133309607894691207e-02
-1.661570732217745039e-01
-3.219430920037071320e-01
-2.379672288699077598e-01
6.183421712956510552e-02
-1.686622707186360703e-01
-3.830774968731512353e-01
2.813157540412254409e-01
-2.716032960533929300e-02
-1.169488941641469160e-01
4.220099527112256554e-01
-9.869281515826484885e-02
-1.878381963692161150e-01
-4.734235445647298757e-02
1.547722637188035655e-01
2.637060815363022614e-01
-6.382193774539693387e-02
-6.832264456211684100e-02
-2.872761926389736861e-02
6.943481940927229146e-02
-2.536990476306981712e-01
2.013833924078025917e-01
2.707961094466944107e-01
-1.818198843445561486e-01
1.149568317303613363e-01
4.979743227217283547e-02
-6.110243552549319418e-02
-2.014094957529399543e-01
4.274130340259987837e-01
-1.295110809438742017e-01
-1.152236857347889581e-01
5.407910276311271580e-02
-7.185415588297609790e-02
9.896747534585727257e-02
7.564967560454768924e-02
-5.291422307024098298e-02
6.588242576188589605e-02
7.497862701441329603e-02
-2.176442347683837653e-01
-8.291030689640413454e-02
2.484010508953852711e-02
-4.357742672275422002e-02
-7.871779574201921703e-02
5.634431343902774891e-01
1.670910447581328007e-01
4.494264006342486573e-01
-3.580301713553235565e-02
3.086354724128955729e-01
2.548618473061122214e-01
-1.567749185103989862e-01
3.472486717899188058e-01
3.183818049707536901e-01
3.726922493730096871e-03
-2.120978070404115970e-02
5.359647054428424290e-02
-5.346143021760534769e-02
-4.813254784491616083e-03
1.952713048061626225e-02
8.190944444568520888e-02
-1.764163136139106636e-01
-3.344982521698377370e-02
-8.894832490158362248e-02
-1.106233513255861362e-01
8.941881785886267309e-02
1.532577663016532477e-01
-3.380306986245960876e-02
-2.302852349827061787e-02
-2.828778995893817538e-01
-2.919933576085743665e-01
-1.973441033797563027e-01
1.429700244266050024e-01
7.204211604877236441e-02
2.585659388989774987e-01
7.589181410741894888e-03
6.712225075604696944e-02
3.031157877665225930e-01
1.382518561544658908e-01
2.047643821291905419e-01
3.100697231061101400e-01
-1.926552349937198372e-01
-4.320237715790881811e-02
2.053484085453304298e-01
-1.308342349608465904e-01
-1.130036558904214117e-01
2.063592617745085150e-02
-2.057446676053314161e-01
3.340214317867424426e-02
-5.546595025915437155e-02
-6.598042056400087174e-02
-6.667972211397625582e-02
-1.119213933854421028e-02
-4.332779032274162306e-02
1.223483336456339041e-02
2.591840488339399937e-02
-2.667906223193234824e-02
-8.804107789617947322e-02
-1.286184425851528111e-02
6.244463396719152071e-02
8.704141544931398577e-02
1.420632487011274925e-01
2.415452086626966588e-02
1.518204024130657970e-01
1.751561422758538822e-01
7.733947159424689466e-02
1.352326518514039566e-01
5.736083284495651496e-02
-9.015132062080394998e-03
4.326858554135009499e-02
1.102333754817869937e-01
3.055665706753038502e-02
1.921246840491395158e-01
-1.185121199859971025e-02
-5.997424130657431213e-02
-7.621074187502641095e-02
1.600745032266410184e-01
1.465593165279291121e-01
3.051278156057176533e-02
-2.736139783683539176e-02
9.269825353840317750e-02
5.780865514478999295e-02
-7.021655363323045518e-02
4.256881209091573082e-02
3.282529854938660515e-04
-5.272418986635347971e-02
1.667629182158576057e-02
5.294415165885768548e-02
3.547679487106417118e-02
-2.549065832768917291e-03
5.123324158928706240e-02
2.900235428122691431e-02
-8.165305626261470939e-02
3.168363401361757453e-02
2.448201354272247499e-02
8.565922899231401266e-02
-1.198888209122650761e-01
-1.364058113733602751e-01
1.867889629866514578e-01
3.864457775995656097e-01
-2.286374327595086797e-01
1.595539770457789566e-02
-8.310966067294527082e-02
-1.556835318766584542e-01
6.676931453841458697e-02
1.380158158916164890e-01
9.275179801111495259e-02
5.468154058751473201e-02
-8.746637554516586976e-03
-1.566572198236582114e-02
2.635079928409546010e-02
-3.766832057712466569e-02
2.184698754579395344e-02
-1.640941088900399747e-01
1.361440813965819341e-01
1.065904487545836915e-01
-1.626327530163580448e-01
1.100868666186589212e-01
1.289111332269638199e-01
8.995029976418184026e-03
-1.684827956425624662e-01
1.086820713857016008e-01
6.750168407610715460e-02
5.853647546218500308e-02
-1.145086563144881442e-01
2.750830868924331735e-02
1.088030926303898693e-01
-9.755478340467566012e-02
-7.634448071224239629e-02
-1.431729513439059312e-02
-1.098669784825755530e-01
2.978581390987905878e-02
7.906582579233040545e-03
2.230415422376330614e-02
-2.194635754799583935e-02
1.628672925381197401e-01
5.850805032580883025e-03
-3.723536064492079245e-02
-3.971763321233038463e-02
-8.735013572576291740e-02
-6.549403600682082716e-02
-1.918977848205229673e-03
4.006672844312696158e-02
-1.314171368944382079e-01
-1.329668305365763054e-02
-1.587611967588552775e-01
-2.749247131034796704e-02
-9.974632409170309383e-03
-5.683140921813931157e-02
1.817834848564656505e-02
-4.583899987623156480e-02
2.225920258401201460e-02
1.567477797688787977e-01
-4.745777699905169567e-02
3.682709184308048667e-02
8.416590623198581811e-02
-6.673480588104227507e-02
-2.881230698289663494e-02
7.507171024419906358e-02
-5.477807294489325796e-02
6.719843434942328331e-02
1.204555883444501374e-01
6.759404173736191512e-02
3.846400092956733102e-02
4.849462595113204072e-02
-2.744174325942303969e-02
4.738741139728143426e-02
-6.974921612711508512e-03
1.924638032043604315e-03
2.487018787422544050e-02
9.403182176399053904e-02
1.125786333738739015e-01
1.841762448979273326e-01
7.002939141945221935e-02
2.179264658500593838e-02
7.497791690694480260e-02
-3.183937739445720505e-02
4.436334966325025664e-02
1.288139816562846318e-01
3.141130500272119180e-02
7.954826036789094945e-02
3.981150769648896665e-02
2.473140419638859226e-03
-1.090004419016949756e-02
-2.767952616052972437e-02
-1.987534197213858267e-02
5.432958222834488593e-02
3.510302230419733160e-02
-3.283500173049311299e-02
9.120896997637909648e-03
5.566932618340786343e-02
4.635672182785277769e-03
1.993897076710831814e-02
2.291393783620295985e-02
3.295231890880560149e-02
2.466392579662134155e-02
2.737812894326403096e-02
3.429713365919666301e-02
3.127822489043223519e-02
1.770293156270948479e-02
4.283502331345785674e-03
-1.270666866202998201e-02
1.152937372486264288e-02
3.222229236943792430e-02
3.913712651539526244e-02
-2.631650652891136949e-02
4.138242943832293880e-02
5.369093025571205005e-03
-5.832062870833457785e-02
5.806586967508692819e-03
-3.687660375540819518e-02
-5.878169717469141492e-02
5.660595342518623396e-02
3.609627636241132930e-03
3.773567207852968151e-03
4.043904068452680578e-02
6.025870077203348760e-03
1.342546710850982782e-02
9.304541614867109511e-02
9.226552565962649333e-02
4.344220668623005599e-02
9.977686646502965245e-03
5.428381907948497120e-02
2.806317130981071314e-02
5.341839024766315697e-02
4.036305665220945443e-02
2.920346353038879086e-02
4.996001164730427824e-02
2.724888462574009615e-02
-6.148619089303691311e-03
-5.884316583523672289e-02
-4.367573015528649488e-02
-6.875363768750908378e-02
-3.752469285340982730e-02
-2.294938192334392175e-03
-3.435535906993821692e-02
-1.493738847613875279e-02
1.728077057869965849e-02
-2.163257034549604090e-03
6.239642100765319804e-02
-1.295459167250832301e-02
3.206494327380051551e-02
7.586441546629435484e-02
-3.135772447548171304e-02
-4.348771920801657032e-02
7.163563904663809538e-03
1.363292468456333249e-02
-7.572312953394977342e-02
8.927552435298084744e-04
-4.593480469721166089e-03
1.200698561017456666e-02
2.493562180106633983e-02
-1.905495014803430809e-02
1.853788481977766689e-02
5.314475628630743742e-02
-1.328173790088494829e-03
2.929774943539776091e-02
1.742532143670297295e-02
4.998466386813919804e-02
4.157371411706769354e-02
2.347725266531597733e-03
5.046729710073499797e-02
-2.732678697122457520e-03
-4.092934716979111653e-02
-3.706850280916798579e-02
-3.354602057714087260e-02
4.527466721068469755e-04
2.006169945809460349e-04
4.701114975869975787e-02
6.751399960452145188e-02
2.187249225599905561e-03
-1.063380732615101798e-02
6.889504554653801127e-02
-2.280113939628663003e-02
-7.511822415806354569e-02
-3.613997420871242067e-02
-3.409682843792130602e-02
-3.142478076502266092e-03
1.151683288800662772e-02
2.802226897143361359e-02
-7.865434185762396058e-03
2.935855427288382169e-02
4.330631939652037493e-02
-2.079515349203349406e-02
5.958892362636761253e-02
5.125931590802022819e-02
6.574263789633626176e-02
1.035572304081647521e-01
6.487073611231630732e-02
1.766589430022632787e-02
1.059961637437699944e-01
5.627696136228262785e-02
-4.099123647739744310e-03
-2.703095828909408277e-02
-5.023521372129484408e-02
2.825181830795065949e-02
-4.904979101587454704e-02
-2.986721614310677841e-02
-2.607522987747111498e-02
-1.304403708814853673e-02
-2.429672326558292988e-02
-3.641801040074368889e-02
-3.082284904549366725e-02
-2.983314982749898578e-02
4.627230995216486883e-03
-4.198363840356190979e-02
-4.161759282128389692e-02
-1.574266613297672923e-02
5.597918930427767288e-03
-2.377372349465071283e-02
-5.453370104535856452e-03
6.759269921504749284e-04
1.384147960077599954e-03
-2.149394038275892439e-04
1.641873740503702050e-02
1.776842990017260884e-02
1.733049973165333001e-03
7.590968074785981248e-03
3.007429371432738564e-03
-1.052233246813037183e-02
4.912683513297528420e-02
4.246610906724524598e-02
-3.943775707677779629e-02
8.190788091879054600e-02
3.872651876209820543e-02
-2.314371002760418072e-02
6.843181626838627796e-02
3.090529586945211030e-02
-7.972319181487677597e-03
3.009625238781380233e-02
-8.625227431616888651e-02
-1.424815963092186666e-01
4.693954193327973257e-02
5.852955027167745794e-02
-1.205275170923653660e-01
4.800444396712130052e-02
2.463521350562138806e-02
-9.546772836322429956e-02
5.309078934656707126e-03
1.826105847807917362e-02
1.585474221250636473e-02
1.658660887478545509e-01
1.334444427448802373e-01
6.138459075254043551e-02
1.597531031136479318e-01
1.584452914805199453e-01
1.035411390087046662e-01
-3.291934683200901240e-02
-4.434178552778289713e-03
2.940095252964955441e-02
-6.611405107018166784e-03
-5.225126536499720420e-02
-1.728740019575223524e-02
3.070802791302845031e-02
1.153568351044315793e-02
5.197404652740269387e-02
-5.399059457661600780e-02
-5.354882392009750226e-03
7.009583376218186598e-03
2.802865982338674511e-02
-1.686320750199350044e-02
7.970645385663772953e-02
-2.800256297086698917e-02
-7.321223970288971705e-02
9.884950352192346801e-02
-2.856062907688474567e-02
-4.019008119531906204e-02
4.841106189920611758e-02
6.591399440737875925e-02
7.548775079700573154e-02
3.851251773574953380e-02
1.257068980311390749e-01
7.652667121741871248e-02
4.171004159310747611e-03
7.345847042876176014e-02
8.152121345559482091e-02
1.143932682452961230e-01
-1.427921736626191866e-02
-3.342040079848798695e-02
-1.193727813853329850e-02
7.250572644093808417e-02
1.712907608937987505e-02
2.140242888718179443e-02
1.344824748639655010e-01
1.078641574539836723e-01
-4.467121567638918100e-02
2.064174604994007539e-02
8.138178215800156989e-02
1.126544464057870204e-01
-6.624107015733086967e-02
-5.785373702372038907e-02
8.451523708202987595e-02
5.526066540738793637e-02
1.263630566118810195e-01
3.200431403649715151e-02
-3.693677521566621907e-02
1.030761732840036193e-01
9.551059090296541709e-02
9.948957264483316784e-03
4.311549514812407918e-02
2.170040596634361524e-02
-3.685564209385826934e-03
-6.582198399579930470e-02
-2.883732613748315673e-02
7.311474583122240696e-03
-1.356601383485106227e-01
-1.226345278281420897e-01
1.309742688176449565e-01
1.214944530943744272e-01
-1.566131419825976534e-02
-2.643467751604092891e-02
2.438641070725628898e-02
1.031032784785710504e-01
-5.746724591901586354e-02
1.343645228525307822e-01
1.560514314403218528e-01
-8.128871058645764647e-02
-5.281209880974581383e-02
9.470589393534241396e-02
3.525271275151794104e-03
1.840946642071120132e-02
2.486681126773005856e-03
9.793372487340490373e-02
3.111823586291159738e-02
1.327226218903190536e-01
4.129066413276215319e-02
-3.707073745805801457e-02
2.138960773801837703e-02
8.352921460554685318e-02
6.575277651938385426e-02
-1.070436151113256761e-02
3.166755260098705338e-02
-2.181722159229602942e-02
1.109783418411007666e-01
-5.055283322639800292e-02
-3.549895148010465129e-02
-4.224947978020151401e-02
6.785093625274205009e-02
-1.197777747663410046e-02
-6.913836497162048622e-02
-8.479901334402019722e-03
2.874979244448682206e-02
4.796670556557963011e-02
-4.596522742835033870e-02
1.272032216108954783e-01
6.870172885683049901e-02
1.957452482938884172e-02
5.905335995730389559e-02
3.004527189431737896e-02
5.315583941271450480e-02
1.533026750129132809e-01
7.625762795312508724e-02
5.637037784171987365e-02
1.835473505485169798e-01
1.376572237956607825e-01
2.190683519083357414e-02
2.975004694872855626e-02
1.183026223682285584e-02
6.521563831248428089e-02
5.726975492653427896e-02
7.931856547795285151e-02
-4.181953953677099850e-02
-3.824242051393463102e-03
-3.025141062026502712e-03
-1.634010045471456438e-02
-5.121142783348371641e-02
3.743108129314039190e-02
-7.211385431089339937e-02
-4.732970628401508839e-02
4.101619022629743316e-02
-2.283618404260811391e-02
-2.220978755770209104e-02
-2.184831694039499842e-03
1.244541481383106551e-01
9.445957524060490107e-02
1.540917612278319970e-01
7.680820279683012175e-02
2.311336081952643576e-02
1.769124140930886657e-01
-1.063942854827994167e-01
3.977591103515498716e-02
6.570115383959636290e-02
-1.671627617300507074e-02
-1.306885443299999616e-01
-1.139300226281573375e-01
-7.310944598724315735e-02
-1.859262303683069106e-01
-1.616876677471284496e-01
1.022433474612592930e-01
8.694446536249482091e-03
3.784631873551941306e-02
1.359450465780596973e-01
9.304456293857367444e-02
-1.749801834826296143e-01
1.059226971897986175e-01
5.480769997426869315e-03
-2.182583648867976733e-01
-4.718027306332236992e-02
-8.878777343860927429e-02
-1.585502525853732803e-01
2.059575206509540179e-01
1.734012078460544504e-01
7.812345283139988938e-02
1.646010348451215910e-01
1.173843606453485455e-01
1.429582523310017096e-02
9.601850961184266176e-02
-8.601162845464650764e-02
-3.234728722566851400e-02
2.863224867855631781e-02
3.588605249143794751e-02
-9.018117008350369848e-03
-1.641946750758861984e-01
-1.567805333269466639e-01
-1.162859847089304371e-01
-2.503749679026249231e-01
-2.737651820691772708e-01
-1.790523758696699330e-01
3.490070851018685361e-02
-4.218559125994581285e-03
-4.235031900142623845e-02
4.854520564208654465e-02
7.643942137677220416e-02
4.810461033901621691e-02
-4.402460068649050040e-02
5.414677185954857967e-03
1.166841144068901659e-02
-1.813482662434895420e-02
1.218684342418471234e-01
-5.855528636971375767e-02
-1.113083672811862046e-01
-5.093416353709739192e-02
-2.750579934394826731e-01
-1.447179639790243111e-01
-1.637292723586068408e-02
-1.885741646453955589e-01
-1.608556101456128651e-01
-1.368016381262261438e-01
-1.039987747842032462e-01
-1.675080080111584768e-01
-1.959955793291570381e-01
-2.278602666348141792e-01
-2.041594454111939627e-01
-2.223312865206598932e-01
-1.647737751860575417e-01
1.288421695105541886e-01
7.401079375687683037e-02
-6.359487545282778605e-03
4.866331758270390356e-02
-1.153805466459618435e-02
4.595123823427093440e-02
3.008632386793815006e-02
1.801973584913657989e-03
8.100478646051488540e-02
3.987537639498183600e-02
3.717927796976006755e-02
-4.192349474325149372e-02
7.822969758221740011e-02
-1.834997397020450005e-01
-3.330229974803471937e-01
1.487485372081580048e-01
-9.565349553295569851e-02
-2.349750981412928874e-01
3.581420865721678028e-03
6.264164177181640036e-02
4.531859708288147465e-02
1.029321406179345422e-01
5.813383119126518117e-02
4.472536130440359949e-03
1.518490993608782175e-02
6.755539410690687696e-02
2.331062859598091730e-02
8.092667761475777488e-02
3.737000856934686449e-02
3.050982093748801430e-02
-2.479619813248326587e-02
-9.178324591538879196e-02
-8.151788452439900912e-02
-6.941050686595073155e-03
-1.804095953610661274e-01
-3.212243568817591682e-02
6.832033495627892750e-02
-7.014989152089483315e-02
-6.663281223249144236e-02
-1.615254884628452431e-02
-1.787965665023615036e-01
-4.911843791979459556e-02
7.116265648487557494e-02
4.379030800710732169e-02
1.243669510540357064e-02
3.183030852691073193e-02
-1.614328350496707556e-03
3.461781543680388790e-02
-1.423708049491726260e-02
-3.803036240219473396e-02
8.037151893819448334e-02
2.431265279605636029e-02
-1.990002845915923163e-02
3.147848860659417658e-02
6.995902288530245206e-02
7.052297549720190628e-02
2.050550907311257318e-02
1.493945847810320970e-01
1.085095127698537942e-01
2.058424949870649862e-02
9.861274006940473624e-02
7.672254754869288484e-02
3.015759472251354142e-02
6.982088530606532506e-02
9.894724298215425151e-02
-7.211434051639042941e-02
1.378210210051155904e-01
1.180371277067957941e-01
-5.810068301653072836e-02
1.261597392543370444e-01
2.510789385087807898e-02
-2.800227188251969840e-02
1.567751132841072315e-01
7.689328417142113868e-03
-1.859278972485887416e-01
4.785232042723793627e-02
5.201196927078126364e-02
-4.181550830996191848e-02
2.502409070732017501e-04
1.116395659356937964e-01
9.167084885536691541e-02
2.210384409921250792e-01
2.435498483304402717e-01
1.624966095890715556e-01
1.051218335773044660e-01
2.808520942367360163e-01
5.058659397884011227e-02
-1.543030789195891928e-01
-5.215597271080632535e-02
-6.810156827389525491e-02
-1.470700964867072968e-01
-5.118091034955183499e-02
3.968825768575822560e-02
-1.344402314260434161e-01
-1.373795622957753593e-01
-5.183657371749807174e-02
-1.093675538590916652e-01
-2.646474916765374774e-02
-3.334952183340282594e-02
5.445475791050795322e-02
-7.013818677834056381e-02
3.170332382669364263e-02
2.729264366300856309e-02
-6.892954786835228664e-02
1.590383081481752670e-01
-6.296099626241036251e-02
-3.671583272072405368e-02
1.079801705885574808e-01
7.399227783995847296e-02
-8.454538441039406715e-02
5.956284727949908570e-02
2.761107189618794977e-01
2.398243987449900083e-01
2.894128590504220500e-02
1.919123592348245533e-01
2.486899128991305608e-01
1.083146951593281504e-01
-1.098890537646827203e-01
4.934850132403284664e-05
1.697436806510964000e-03
-9.285429370337441868e-02
-6.193433863067038941e-02
-6.341620554329242820e-02
8.043968524583057500e-02
7.431858404372908289e-02
2.871928756193629570e-02
7.105334882709804512e-02
-4.975475971023503308e-02
4.865015445269323113e-02
6.764310631621776870e-02
3.917738728839640500e-02
2.523574478178018943e-01
-1.655616113459404681e-01
-1.265548461815572123e-01
1.359038493089702315e-02
-7.023828696117400024e-03
2.372539961219593541e-01
2.249976767222460206e-01
-6.033514054292755946e-02
9.509531079586205568e-03
1.336806352638458817e-01
2.491274641163049308e-01
-2.414037908046491251e-02
-2.144018456747752779e-02
-7.971596938657785070e-02
-5.901177543589156138e-02
1.276195777819877364e-01
8.585159574469840293e-02
9.706130492502311816e-03
-1.250455032902878238e-01
3.485260206111359116e-01
3.020052726265689547e-01
1.204258134279482945e-01
-7.652793639064969788e-02
-2.685652809920656414e-02
2.120059434885453176e-01
-8.909434746334483901e-02
-2.626568345668297503e-03
6.864658232215317679e-02
-2.171210929312009444e-02
-9.317819506955307696e-02
-2.109090790974856577e-01
-1.330729803968180580e-01
-1.579657127603372180e-01
-1.006802750467931107e-01
2.573250921499676061e-03
4.610222114446347469e-02
7.472350448293549330e-02
1.508912037666739793e-02
1.282267125989465240e-01
6.472743772462691281e-02
3.879975844644924232e-02
1.826762479460339039e-01
7.771411544129287752e-02
6.273852514651440115e-02
1.200351360569962694e-01
1.415096817508532945e-01
1.321395535592723713e-01
1.626135893364184515e-01
-8.474805265002487153e-02
-7.224718364512114355e-02
-1.481819635343039898e-01
1.947465060383209504e-03
-2.262799626015561671e-01
-4.200276730845630552e-02
1.916275136288304037e-01
-1.215353386743250469e-01
5.238995426823025298e-02
1.357167022000361489e-01
-5.843632427541140678e-02
1.500754658356601712e-01
1.901601529613158592e-01
8.806717608517303231e-02
2.834173909136343261e-01
1.666056670163535980e-01
1.943795555577912740e-02
7.909797655454134380e-02
8.903116925950359251e-02
4.366602295742982864e-02
1.875205836791035349e-02
6.328701565068835244e-02
7.137832811523797671e-02
5.767342185550226180e-02
6.537315237716158356e-02
-8.269472793108914588e-02
-7.904070328284759639e-02
-4.670724581886942506e-02
-1.137401348395374046e-01
-1.707110525749663821e-01
-2.874176633219300333e-03
-9.847440073169784480e-02
-9.261060139284323436e-03
6.479813774355756839e-02
-5.499995949197257483e-02
-3.255694661728198575e-02
-3.463742582936784036e-03
