-7.075804320803150312e-03
-1.689766427750030373e-03
-4.398932015497728464e-03
-9.091233150908963057e-03
-1.800968715610420760e-03
-7.864331060834055254e-03
-1.612950343223529606e-02
-1.486825221773258911e-02
-8.088161952057823165e-03
5.712282556472683421e-04
2.026259130368453579e-02
-2.358001862132409060e-02
-8.155311239797978506e-03
3.392031299076294498e-02
-6.595780598817995062e-03
-8.429985053022216041e-03
1.422570655709397280e-02
-1.110572522931034013e-02
-1.934471520721546545e-02
-8.716518411748504572e-03
6.963961097566043635e-04
-1.203944053804839945e-02
-7.878030290522929774e-03
-4.324240633782347812e-03
8.311567861973315164e-04
-4.762394325310816134e-03
-6.544204451636085815e-03
-1.592992112694381623e-02
-2.451330976367489117e-02
-1.772817472946920658e-02
-1.734971440960279138e-02
-3.501601300147664381e-02
-1.521368297402149114e-02
-1.692167796245059794e-02
-3.264404074468828937e-02
-1.289557373650774934e-02
3.054169121695540431e-02
5.011018577164056548e-02
-2.692577666798025900e-03
2.928653561162986724e-02
6.162244046018876958e-02
-5.211408265449155334e-04
1.305693543136896353e-02
5.414510825786498366e-02
2.460849172307115473e-02
-6.097135116764996164e-03
-4.773688519360103858e-04
-8.880813618526229788e-03
-2.057870731383364300e-03
2.717221489421615347e-03
-3.688227787444368043e-03
-4.548306425988108727e-03
-7.067625569786525376e-03
-9.322957774525060179e-03
-4.815029869809613408e-03
8.877713455262562642e-03
1.392854235002297277e-02
-1.159624554140331956e-02
6.504472366456980070e-03
2.130336971272775437e-02
-1.604050896436041290e-02
-1.407252666920318085e-02
1.383930768417951027e-02
-3.087440716813912370e-02
1.893106130102154006e-02
3.121153795391072225e-02
-5.709992628426180383e-02
3.062733534081563125e-02
3.089441755361310368e-02
-2.867747587033604023e-02
-1.356749465117137706e-03
2.339438165186741303e-02
-1.102352109077620046e-02
2.982995550262985355e-03
-1.729601396707026702e-03
-5.486795134559760076e-03
6.093137929196277419e-03
-4.239667316133191588e-03
9.498695287246186614e-03
1.239300094636289380e-02
-5.626675104058041950e-03
4.155000282567541253e-03
8.553626906415650807e-03
1.806936382188549517e-02
6.477271321694626389e-03
6.428460201509793651e-03
1.505521343383537866e-02
2.666897672106419235e-03
2.144230967083755234e-05
1.144971418659701014e-02
3.521763668390567089e-03
6.253323489305494427e-03
9.204971676692031562e-03
1.175925521028305326e-03
-5.157673392503834111e-04
1.125143656984732912e-02
9.477141645103857176e-03
1.222574798376851839e-02
2.540474085835140935e-02
-8.441202440766028573e-04
1.804170336540206546e-02
2.804519902938211462e-02
-5.917444625940106824e-04
1.726407517526864013e-02
3.418870722639133497e-02
-1.453534679741334996e-02
-1.080872930342852319e-02
1.958479093764243714e-02
3.131140448675016202e-02
-2.770843088346130155e-03
-2.663429979465891523e-02
2.374185093307031036e-02
5.041080605872765887e-03
-1.529806397031158172e-02
1.528487651101886544e-02
1.446489891314286201e-02
1.295810792282108687e-02
3.874134495756348731e-03
9.128051486006122373e-03
-8.045841474011205044e-03
1.353800286344150616e-02
1.937642785843598798e-03
-5.751558285884515211e-03
3.147892779939059221e-02
-5.127895771228658400e-05
-2.720412720108485519e-02
5.738586576929986804e-03
5.528226533781204800e-03
6.460924006174038545e-03
2.214334852821634152e-03
-1.796830750436708563e-04
2.344238864874267751e-04
3.613911269394962534e-03
-4.049917644054201564e-03
-6.329643490665338469e-03
-1.084693443035953872e-02
-7.405188874885765445e-03
-1.584421384670508387e-02
-4.114099396925552724e-03
-5.135309311414085502e-04
-9.088200422359119304e-03
5.932572208434501101e-03
1.064541302051764948e-02
-9.991353748346998645e-03
-3.043409413788149970e-03
-3.629850541719668693e-03
-5.042769007676418426e-03
-3.209926800055511523e-03
-6.665682989284482706e-04
-5.967851511406637235e-03
-4.963257123957848758e-03
-1.073902317457939770e-03
-6.175748202061504682e-03
-1.339236403584698719e-02
-2.059682307885589425e-02
-5.960939183294243666e-03
-2.314540131370499895e-02
-2.615708213364199494e-02
-5.363519903776446662e-03
3.872670401812312521e-03
-6.188614286800009356e-03
1.237792440963425208e-02
2.549591249770153268e-03
2.191375624000929667e-03
2.991612602847664414e-03
1.296934527667495222e-02
1.021749039657630746e-02
5.972845014305503894e-03
1.202191328418008437e-02
1.207086496686102760e-02
4.589302757611203772e-03
-7.358349834478338999e-03
4.608203346541989501e-03
-1.628736064646159505e-03
-1.157206675787186140e-02
1.009054467031740392e-02
7.580099320661355840e-03
-2.571273959389907410e-02
-2.170742021017407417e-02
-7.229143941021644662e-03
2.324620425076119601e-03
-7.362772598898136879e-04
-3.812356404881793708e-03
4.918826999120462853e-03
2.245974283728936153e-03
7.138495316273390200e-03
7.959609211319133501e-03
4.896412208820295417e-03
5.144167458033122552e-03
-5.022659193356028735e-03
-1.975070787156558462e-03
1.775738079376664108e-03
-2.783626753421816671e-03
-1.609862391570763543e-03
4.263394875377012408e-03
-6.415510971533411148e-04
1.364218354765104604e-03
4.862698876496107832e-03
-8.077456460870173841e-03
-1.159463998468443849e-02
-2.071593338550731939e-02
1.794036426043094448e-02
1.702988743152481985e-02
-5.713614434836662877e-03
1.130338076074924314e-02
8.923483274044487906e-03
-4.991439859723337952e-03
4.293977557271127718e-03
8.839816866874043375e-03
1.064050441488744933e-02
1.778449240083239749e-02
2.006451921783583559e-02
1.336314259275303215e-02
-1.746690457653370457e-02
-2.171587423566253769e-02
1.015026422446439064e-02
-7.993960571760865691e-03
-6.746993494453301828e-03
-3.910200280086031585e-03
-3.257959061585287159e-03
-2.658931253845933217e-03
-1.594089547381115184e-03
1.521174495129087390e-03
1.958491384891183299e-03
1.490733427337763862e-03
1.769934959782140313e-02
1.527908352768524332e-02
4.975626794681599525e-03
1.556082142070715386e-02
1.280785320295373293e-02
3.433850047423279289e-03
9.592488176661431720e-03
4.819961391928373647e-03
2.080836793843310936e-03
-4.152567464428931314e-03
-8.300925503178232384e-03
-4.686732189814831265e-03
-1.961739792188586969e-03
-6.092062372654501526e-03
-1.331798818671605343e-02
-1.501034247540387109e-03
-5.853691428182061264e-03
-8.685864291282012137e-03
4.182715669361889745e-04
-1.438027059295385801e-03
-4.089129240170194871e-03
2.877439061695393450e-03
3.795763850550716838e-03
-2.899149145963527460e-03
2.623719044824705197e-03
-2.030241867604595709e-03
-1.106771256577857195e-02
-9.736327425452592776e-03
-8.403786585585798496e-03
-1.433588313586450433e-02
-8.114702499214322337e-03
-1.549415038811266347e-02
-1.598216696184609834e-02
-3.700852580136037868e-03
-1.167236808125942174e-02
-1.105373161407532424e-02
3.309650197207166314e-03
1.874139540994268840e-03
1.632542670080916469e-02
-4.916087699110525087e-03
-6.279616793874245005e-03
-2.325673966711250436e-03
6.921400743762910930e-03
2.069815974509000081e-02
1.266140953929157861e-02
1.033705475535644062e-03
2.706186472982313219e-03
3.997885407983426190e-03
-2.656641112172818727e-03
-1.573129130857996898e-03
1.949253588045475778e-03
-6.626543818134225661e-03
-2.106057409136909402e-03
1.648809022596384177e-03
-1.143980989103428889e-03
3.524105180717448417e-04
-3.601283643290883931e-03
-8.659987296151283251e-03
-9.572252347199897149e-03
-5.783305089957743381e-03
-1.105960034106736288e-02
-1.127715615346339129e-02
-7.731253106085798563e-03
-1.425969393181491032e-02
-1.189775385474487607e-02
-5.425867886338068928e-03
-3.931283372162286058e-03
-2.955720093891510457e-04
-4.406694137850207874e-03
1.262041519696663837e-04
3.664729980193479585e-03
1.062328948223840129e-03
-1.417720998665828770e-02
-1.138216948568652152e-02
-1.751098156744789608e-02
-2.704104539665172155e-02
-3.049117342442389522e-02
-3.086177983422440027e-02
-1.463517394381218424e-02
-1.743125553556613624e-02
-1.047526729363128413e-02
9.980754971444421100e-03
1.353117524574537663e-02
1.742878758980849138e-02
1.800822860550824189e-02
2.355876319308154720e-02
2.202029649838550818e-02
-3.460294933298043384e-04
3.441833238453758954e-03
2.452552133920360249e-03
-1.172885636759646820e-02
-3.428558310724839474e-03
-2.587492491685948297e-03
1.655407888025914103e-03
-1.513657933086016559e-04
3.846967261878363360e-03
-8.402060546108069614e-03
-1.724963062231946176e-02
-8.054270284097426666e-03
1.606156497124278451e-02
-3.103577108409191071e-03
-1.072655292926025759e-02
4.513741768367113792e-03
-5.732527222589957165e-03
4.464937872521306493e-03
6.167814001571503973e-03
-1.068129286605634144e-02
-1.310570311545396736e-02
5.771010852311902724e-04
5.190398367842598976e-03
6.782330562107516392e-03
1.050669655063623956e-03
3.245884359438103075e-03
2.560921157152758979e-03
4.643943627319879188e-04
1.950842603165432254e-03
3.695105473761794079e-04
-6.088626879690255296e-03
1.083344762876067499e-02
-7.460125337785763512e-03
1.131587152734091911e-02
1.652083786324846926e-02
-7.049178432199361063e-03
1.598896655572494899e-02
1.404535853471869031e-02
-6.438335652711103807e-03
1.563218429361005329e-02
3.383562440147720729e-02
2.210383936195685350e-02
1.530364787474257533e-02
2.429006771522389252e-02
2.690667015335856949e-02
-1.425643985189948074e-02
-1.919044980018235966e-02
-6.702594435060338536e-03
-1.136223668897155814e-02
-7.641247211087755231e-03
-1.174159238532487132e-02
-6.405198164843615288e-03
5.114705461939185243e-04
-1.915366688364657753e-03
-5.932380997504128027e-03
-4.371886437083552686e-03
-5.508140692184005337e-03
1.939985897134720305e-02
1.380498405457644163e-02
9.370512532112178217e-03
2.388181385610479296e-02
1.797334229132580702e-02
1.413364526687169685e-02
1.351144564108321990e-02
1.049070623820165353e-02
1.329888935579818902e-02
-2.354787115397188185e-02
-1.715576813699651315e-02
-4.733186178325930749e-03
-2.690220465359343879e-02
-1.999462638126248831e-02
-1.714180050908757982e-02
-2.176561373219928347e-02
-1.864034060977969726e-02
-1.875046683616643159e-02
-1.280015854321271077e-03
-2.024461919134618211e-03
-1.547825557407261259e-03
1.243789138441659531e-02
1.138972689834819377e-02
4.782368105897887196e-03
8.409303505106628315e-03
7.796933133779523732e-03
1.207425300145017868e-07
-1.100775548019883483e-02
-1.267804570403651375e-03
-6.254206279278694790e-03
-8.801759504306271367e-03
-7.013293985385441950e-03
-9.490387681218476895e-03
-4.775640429916959938e-03
-9.119084490213640037e-03
-6.606818593705270255e-03
3.238128265329447836e-02
1.579075034551541759e-02
3.125487913173075755e-02
2.009745315868249199e-02
3.419132648089279192e-02
2.804524371901525107e-02
1.588579525393634534e-02
2.944435846865969125e-02
2.211098974614065724e-02
-2.721806734405102495e-03
2.836316840070636936e-03
3.496033966771847860e-03
-3.918730570946610779e-03
-1.525326870351064465e-03
-1.296296413501053226e-03
-5.818163866426358938e-03
-3.910144525366456882e-03
-3.352332294171255032e-03
-9.090989215284412533e-03
-1.388644559574643556e-02
-1.235100315485958798e-02
-1.477480941265838996e-02
-1.099512513952114953e-02
-7.405470971396296669e-03
-1.368251788461075091e-02
-9.383021301223386582e-03
-1.154492868268158952e-02
1.854621385857428001e-02
1.218369364262036035e-02
1.255587275591349937e-02
3.025829345563599282e-02
1.972679450888535635e-02
2.171413587108864118e-02
2.012456793761355917e-02
8.014628919572008153e-03
2.239444149078361791e-03
-9.119130597983814840e-03
-1.262169866248034553e-02
-8.376637706023480276e-03
2.388525429560406366e-02
1.821830681018217143e-02
1.974850639036498587e-02
1.663179299610897249e-02
1.642631660253771053e-02
2.437264303869587576e-02
5.521245468017498166e-03
-3.845839836551860104e-03
-7.818896610168109274e-03
-3.612435832382670815e-03
-7.757896960621236439e-03
-1.024567185807741428e-02
-2.937473469069168397e-03
-4.508092196456916709e-03
-1.010331796061088305e-02
-1.604095859565324127e-03
-4.757508771320203590e-03
-9.132742706594179985e-03
-6.271971072219888373e-03
-6.781518391676828392e-03
-1.033713135762128962e-02
-6.762033244691488185e-04
1.219387047698377094e-02
1.512424052124515528e-02
-8.450496450950209515e-03
2.659678289109864910e-03
8.604220848197402169e-03
-1.454667007698642487e-03
3.579801656682579485e-03
-7.431868726721542213e-04
-5.736359268881796722e-04
-7.019550986892983402e-03
-1.645349340781429581e-02
-1.079751713923170209e-02
-1.046641977830404559e-02
-2.374890312212442692e-03
-7.378266734929930792e-03
-2.622043663977371899e-03
3.615282989351908168e-03
-7.686872473826000763e-04
4.658582587808271329e-03
1.043964760143311146e-02
-2.409823386174745480e-02
-3.056986894856275269e-02
-3.057022221402891718e-02
-8.924824365488061295e-03
-1.061182570346904004e-02
-1.017829530204330223e-02
-7.291884264404708410e-03
2.019297942201664104e-03
-2.268219713000830769e-04
-3.639740115362014028e-02
-4.931263552910379599e-02
-2.912636582682935973e-02
-2.825833447359189874e-03
6.377396875486254259e-03
1.310304726333522303e-02
2.543543429165932152e-02
3.998658293807533931e-02
3.314048413301138446e-02
-8.296594258912482617e-03
-3.074173957019621893e-03
-5.484975098336572832e-03
-1.076331081600143645e-02
-5.367486906281145054e-03
-4.869292655743047427e-03
-3.805924092636210360e-03
-2.840984120039294868e-03
-3.648510395382515456e-04
2.362775630837929755e-03
-4.453058782292869562e-03
2.139774946030031325e-03
4.428205859513764144e-03
-3.916573576571985051e-03
-4.955544743421876454e-04
3.727861023839148819e-03
5.416096699248281257e-03
2.436260890498787111e-03
-2.176887691159713756e-02
-1.909863273128810032e-02
-1.786635307447287727e-02
-1.974747680746031034e-02
-1.931375652584650660e-02
-1.477906181290701212e-02
-2.270457603246681111e-02
-2.766158450345835781e-02
-2.253352349928129661e-02
5.137167816036380388e-04
-8.676574961132062225e-03
-3.643256036396308808e-03
-1.588833048340861434e-02
-1.427816275743785078e-02
-4.409789572975062258e-03
2.076390057352079863e-02
3.150082106473084398e-02
2.974635136817685085e-02
2.094510600268615838e-02
1.781446395536917873e-02
2.249959490778265236e-02
7.508209626371054914e-03
3.606384418188432039e-03
9.801831915326963095e-04
-6.843915299106975193e-03
-1.292817132871295835e-02
-1.631443835904956494e-02
2.736038130295885898e-02
2.298254482380981262e-02
8.071270621253064798e-03
-6.317574390140776736e-03
1.070623985029669004e-02
4.767644236438235011e-03
-2.478046268652960710e-02
-4.631995875307073213e-03
-2.507901964979374933e-03
-1.794062946284875025e-03
-1.165448454344499875e-03
-8.539151441033426609e-04
2.061948936953684336e-02
2.165413071031131731e-02
1.945380490132333703e-02
1.259614641352513158e-02
7.591967706341064444e-03
2.050751118910760975e-03
-3.919574241330960095e-04
8.649149475560216280e-03
1.255738343060433179e-02
-7.363443530040500321e-04
6.506117514896748999e-03
3.627867374349524800e-03
1.566943372070697671e-02
1.054285224808097082e-02
5.842557840355396340e-03
-2.250623394975767924e-02
-7.441590588528880675e-03
3.478215019633296504e-03
-1.738389876275360513e-02
3.836045654390476001e-03
1.289370304115181574e-02
-1.379514938259782629e-02
1.329620782841240204e-02
2.714469861922249455e-02
4.159709365698082556e-02
-4.439360904830163754e-03
-2.089986130665863126e-02
2.978257062024089116e-02
-2.608186381713211918e-02
-4.306436377819505834e-02
4.634531110105002266e-02
1.370494406692317028e-02
-2.908745954386973351e-02
-9.583918566403072312e-03
1.319780708887763375e-03
9.381083839632847754e-03
-2.053518142116385684e-02
-4.195099683470422496e-03
-1.301411584705386036e-03
-1.584656759228030357e-02
7.662791852095245018e-05
5.084277908662990231e-03
-4.165738463817064002e-02
-2.129487951625090927e-02
3.716049271216811944e-02
-3.162788716188899563e-02
-3.220839899632166325e-02
1.783959508509912542e-02
-1.605953169207649869e-02
-3.352616701162845769e-02
-1.349286138709894500e-02
1.050068150209474901e-02
1.948667732152552408e-03
-1.158595187197897398e-02
4.705085715493479911e-03
-2.561996411423616508e-03
-1.992654274558745917e-03
4.305564477476145867e-03
1.386944837523914785e-03
-2.542205103545675145e-03
3.632329751741323817e-03
1.343061961432342371e-03
-6.246476153242842833e-03
-2.717590591454685772e-03
-1.927745053028397234e-03
-4.594834258805812616e-03
-7.324373692815980275e-03
-4.482464806799180655e-03
-8.385724409215528433e-03
-8.194463109903335485e-03
2.297654143745964106e-02
2.753996092185602429e-02
-1.996214615658480768e-02
2.192613829396035038e-02
4.027547385348303338e-02
-2.276924542217441394e-02
1.655845420700470527e-02
3.285215777867373649e-02
-2.132071432373726372e-03
1.258714659064051958e-02
2.149084229163070181e-02
-9.045658505132402744e-03
-1.603302196733107435e-02
1.311068515650009973e-02
-1.057408613783291339e-02
-1.291387977194189893e-02
-2.418023989272747101e-02
-7.150152528713752363e-03
-6.658727819733754535e-03
-1.793609824533118477e-03
-3.151779631842247312e-03
-6.270489782548400830e-03
-1.006659595715668037e-04
-6.969914715237645816e-04
-7.081819170000687620e-03
-2.520969985328714094e-03
1.783648631612571103e-02
2.537518761246633503e-02
2.921812621024878764e-02
1.395943766857229464e-02
1.318182656155975248e-02
1.746289947555556762e-02
1.130266481109045047e-02
4.968573169340659117e-03
7.692702036998383570e-03
-5.718695494419303443e-03
1.696783485114438175e-02
2.117081044068391468e-02
1.355354804310863375e-03
1.583551164206973075e-02
9.985611988394529556e-03
7.912982093427054983e-03
1.380277680195094239e-02
1.859679952567672503e-02
-1.790965320524169103e-03
2.206785139092136763e-02
1.592584071291630252e-02
-1.129989874874695772e-02
1.632696735086596601e-02
2.308705944374836103e-02
-2.582426754883561382e-02
-3.228040766395689262e-03
4.498471452072474487e-03
4.313936136512044710e-03
-3.642436912300540865e-03
-1.064253959032227491e-02
2.573349666958437212e-02
5.562670490170419473e-03
-1.142202557598468934e-02
3.064421661493822030e-02
2.295069686625163599e-02
2.642941569392208076e-03
-2.825298208103617717e-02
1.318489554336744422e-03
2.534863273050827481e-02
-2.368854375228560127e-02
-9.764860832396238949e-03
2.177355573387227544e-02
-9.863341634448540007e-03
6.586242194295913524e-03
1.489944582867566052e-03
8.980601851405136879e-03
8.675883177401443047e-03
5.392432680408420533e-03
7.574772877791102407e-03
4.862405877419258976e-03
2.355577422435614025e-03
1.096261391345823566e-02
8.755415768940295884e-03
7.586496178376465156e-04
3.771241148774825622e-03
-7.020492990222912053e-03
-1.099247625612528867e-02
3.960387625977590184e-03
-1.305490232968921013e-02
-1.882269298977511801e-02
7.801082520524837624e-03
-1.151970892607121107e-02
-1.588063224074558882e-02
-1.010187911089747764e-03
-2.477402144306604503e-03
-1.207716808293779476e-02
2.447236832465201576e-03
1.878414829353142494e-03
-5.303350336167871396e-03
8.476271367427037212e-03
3.787756048068848143e-03
1.275568499572822491e-03
-3.109338238382920293e-03
-8.642604773873269197e-03
6.929750260947682011e-03
-6.666426018981266681e-03
1.075420341638199176e-03
8.604087129607555437e-03
1.889363148294108353e-03
-1.875167036140940025e-04
3.849794376978814617e-03
6.284414440401699803e-03
-1.517946249309005784e-03
-1.697675092047220419e-02
9.658391216684561464e-03
1.490490592241998846e-03
-7.081857652702286746e-03
4.339014921777695384e-03
-2.709037203318221277e-03
-4.196676479118694250e-03
-1.819709968503730206e-03
7.289655411956564267e-03
8.004938289464287246e-03
-3.798523107002660739e-05
9.031218292382030624e-03
1.139482433165313856e-02
8.787459405744001834e-03
1.106036808564862979e-02
1.185341386582300545e-02
1.741308901906566883e-02
3.350612683124080948e-02
4.193974525213241961e-02
2.405063742303741731e-02
2.764098416260517624e-02
2.215588559706318031e-02
2.703921166429919254e-02
2.672365193492211646e-02
2.818493793626240460e-02
1.414000435138003213e-02
7.596501790457208664e-03
1.130216936420939955e-02
1.462226622797528630e-02
7.843024838577111052e-03
8.573639095056770701e-03
1.483303836741795521e-02
1.128564617387681560e-02
1.328901993609062776e-02
-4.621842740513846561e-03
-1.072932896616951744e-02
-4.720385976829025339e-03
-9.421655565424306468e-04
6.648531044334188072e-04
-2.944747931129742483e-03
2.054837017641328724e-04
-2.574645671292381897e-03
-9.677040619077391381e-03
-7.439832438262204695e-03
-1.510295918659146190e-02
-2.615449765754842507e-03
-7.126644319108908473e-04
-2.365414992691612216e-03
-5.692028207341894540e-03
8.542700478687806701e-03
-1.265495162370530897e-02
-1.432824319057244937e-02
-2.408479796284714643e-03
-1.836837859380889386e-03
5.387083450099731767e-03
-3.907854853140073012e-03
-8.301083463258569642e-04
5.858012822342407826e-03
-4.262155316022433159e-03
-3.504548334098769608e-03
7.970711466409336615e-05
-1.445147854454852804e-02
-1.679861544972587051e-02
-2.074485602416787158e-02
-1.931777560950299899e-02
-1.910233575674001247e-02
-1.852287003730256065e-02
-2.114360658901753148e-02
-2.099141897094023226e-02
-1.895703172875687348e-02
-7.604039632648189849e-03
-8.252153557753518637e-03
-6.386931453796785944e-03
-1.013619045045280331e-02
-7.487085098801650983e-03
-2.761239656360710542e-03
-9.327876571427333105e-03
-7.162136315562902568e-03
-4.607091822582569558e-03
1.212535707475679951e-02
5.438428725640936587e-03
1.315624923319384538e-03
1.578970723428662834e-02
5.658461642632528835e-03
-2.324015421566597191e-03
1.629715288290537953e-02
8.054150703169834363e-03
6.463328149379932858e-03
-8.351895898731408543e-03
-6.360286018236311484e-03
4.613879098187716188e-03
-3.687867626540816679e-03
2.036841009309790090e-03
1.268466260572996551e-02
-8.012482781430678436e-03
5.209625827427485749e-03
1.343497456951956749e-02
1.135970987083534389e-02
4.423650903603177850e-03
-1.170745515672526847e-02
1.936922556537969478e-02
1.743003307582906281e-02
3.390414592079532986e-03
7.988837896142471362e-03
3.612030370127677220e-03
1.111144543959346337e-02
-4.324940993884971059e-03
-7.242532743800945624e-03
-7.598090228744750624e-03
-6.512432665116726742e-03
-9.179598806782448758e-03
-8.989785257871078794e-03
-5.804870605878214088e-03
-8.530439794393270686e-03
-7.393014372722156793e-03
-1.378324261356029742e-02
-1.406201192420727941e-02
-1.055982876506576101e-03
-1.413692700692721974e-02
-1.429254033188527909e-02
1.400466511910377319e-04
-1.591937141952234555e-02
-1.234758055647389857e-02
-1.685026275377603591e-03
-1.171903056046293481e-02
-6.737762828581185873e-03
-7.673666301297774051e-03
-1.963972300274727939e-02
-9.734266654087669543e-03
-1.135194926315728423e-02
-1.136426786179761672e-02
-4.503877031092503452e-03
-3.375406330089028226e-03
1.862846841522438138e-02
2.837755974389354063e-02
2.320449249008716200e-02
1.482307151647820412e-02
2.676302031880364168e-02
1.612848706250721506e-02
-3.252474480964254872e-02
-2.972414317592304844e-02
-3.671679216442268190e-02
1.332957673590762573e-02
1.433980183214014423e-02
1.279243083094024069e-02
-3.655786518182102540e-03
-3.146317457065320091e-03
-3.406198120443957363e-03
1.579678791015011897e-03
1.405344912386101669e-04
-7.638037666720266100e-04
-3.020770994203347565e-03
-2.555521525412119029e-03
-1.679682104260786361e-04
5.429506769011827267e-04
4.406505391725311707e-03
4.046611414328364457e-03
1.103639724047926138e-02
1.648951789242911192e-02
1.865026715794727841e-02
-1.131334363390836331e-02
1.227232741893418853e-03
1.236311972653473916e-02
-1.050541151725314579e-02
-4.983218176666468109e-03
-1.065120424997212205e-02
-6.914035857004658010e-03
-6.738842617874610946e-03
-2.063313032926012910e-02
1.807337112355643371e-02
2.336078809295060246e-02
2.205616084310965327e-02
1.231121101083151349e-02
1.672096224152521196e-02
1.730943417012547128e-02
2.260968771934921719e-03
3.217463541160975240e-03
3.530831718671730100e-03
1.693770545499467036e-03
-7.883432505222135941e-03
-1.540694750181782931e-02
1.927857363425680660e-03
-3.080498255046464507e-03
-8.522099487737688772e-03
-1.880381431320577324e-03
-1.584158137033496753e-03
-3.591383602038442611e-03
-2.711067246819648391e-02
-2.698023121545930006e-02
-2.736452854854381361e-02
1.136947061663883159e-02
2.821897278755807620e-02
1.716733201661232652e-02
-9.416287679227667348e-04
5.240469519289472737e-03
4.704369283332743680e-04
-5.577779987459882682e-03
-4.817375071576031169e-03
-4.921187208455845945e-03
3.448324492249834732e-05
-2.057652389772871189e-03
-2.512212003387262037e-03
7.262787208955257976e-04
-2.887312890774796758e-03
-4.409736670745449671e-03
-3.013253942941353496e-03
-4.633664703930477288e-03
-6.548164359035389508e-03
-7.330087996011155167e-04
1.277914303978510552e-03
-2.643021519866031038e-03
7.682672879386765429e-03
1.158272414877426805e-02
6.820254789117946755e-03
1.023367876185890535e-02
5.900221659993504057e-03
5.105176127030540065e-03
1.601530243691976982e-02
3.986391027157154716e-03
2.248281174202080689e-03
1.893435380882609390e-02
2.778845688420246429e-03
-5.811664819194923073e-04
7.367558537577340028e-03
4.552177821033496531e-03
3.329976938427092227e-03
2.756623824777002050e-03
4.699566265252563477e-03
4.421938348589229788e-03
5.862608166208141056e-03
1.154833972795627807e-02
4.880927039633098201e-03
4.246128738316613631e-03
-9.821225136122841998e-04
-3.470338957519122480e-03
3.380066984230767346e-03
-8.677873285587091746e-04
-7.257986543998026438e-03
-3.838009417983239899e-03
-3.562412834706013120e-03
-1.001061947225277346e-02
-2.471640045773711852e-03
-8.171153848636732511e-03
8.897965875434712220e-04
3.380494370186459992e-03
-7.193816292885992815e-03
2.275928162805264474e-03
3.864368512982156723e-02
1.948371271604145902e-02
2.421345278273434945e-02
-2.591605489280344402e-03
-2.474973244431597462e-03
-7.121063908236974736e-03
-1.841944168018688245e-03
-3.933456202777787722e-03
-6.908233644092069345e-03
-3.368231069935440428e-03
-6.288250457795090467e-03
-7.764217119655639036e-03
1.433859938631297862e-02
1.769685968603089410e-02
1.543566883811761832e-02
1.822303415524650569e-02
1.773920854561164204e-02
1.370639643253954501e-02
-1.074338048800731237e-03
-1.501869545147641516e-03
-1.717561353869252088e-03
-7.366621231134993369e-03
-1.038198620465237247e-02
-9.091603439042517804e-03
-2.853032563364342727e-04
-1.322217635024347006e-02
-1.185931056146986851e-02
9.830054008556322279e-04
-9.765514739043077916e-03
-1.468421482723207550e-02
-2.652688883017846611e-02
-7.662073053764451372e-04
2.979638771454567320e-02
-3.350326361244456569e-02
6.292520654861730829e-04
1.984364481254000459e-02
-1.364961092128975581e-02
-6.094191829923280811e-03
1.905759330806851282e-02
3.458936671452424606e-03
1.228442715386159978e-03
6.426081183834020643e-04
4.215709164740284558e-03
5.975527835809924101e-04
7.669831276742171064e-03
2.528661820722179644e-03
4.386360046614266872e-04
-9.431981013692244476e-04
1.431937087625721229e-02
4.124933856519919992e-03
-2.568548220941485258e-02
2.706559561468505418e-02
2.327183785826536164e-02
-2.150969485738743470e-02
3.105791738119064241e-03
9.627573453666361802e-03
4.114655380264107144e-04
-9.869241974323837707e-03
1.462553882737267948e-02
1.518541612433365988e-02
-4.260443419852442785e-03
1.713130762576349150e-02
1.981326512716794636e-02
-7.192854242286928629e-03
1.594063181511930563e-02
2.801528170828473246e-02
-7.363369055503589389e-03
-4.875612129108976636e-03
-1.896084791533600737e-03
-5.059565791172483673e-03
-4.247009382485700604e-03
-1.562409993586139209e-03
-4.377987493856961253e-03
-2.594679369382353606e-03
-2.063408053768159847e-05
2.407124025772741215e-03
-5.038327533078234763e-03
6.309576004613399623e-04
1.631165967278210005e-02
-2.311468144594821909e-03
-2.316833329828378238e-02
2.322890983278396923e-02
1.129858759876593800e-03
-2.130401947970889803e-02
-6.898559676851908143e-03
1.505796482787809677e-04
1.121457415222350609e-02
-9.886760958298258101e-03
2.125498953516053932e-02
1.031980436793052819e-02
-7.472028827727018353e-03
-9.479282482128302892e-03
2.445706707343264438e-02
3.556516567294040537e-04
4.482788074119158431e-03
5.433381420407112049e-03
2.240510553083016696e-03
8.436839905260935454e-03
9.173847030743760567e-03
1.403283299412627898e-03
4.397586576909628779e-03
6.729076637428592182e-03
2.113789754782652644e-02
6.921700971556603646e-03
4.653321363419416282e-03
1.758772943983994558e-02
3.832148556163694157e-03
9.191368516687834335e-04
5.210474400345925343e-03
-1.280851165787513877e-03
8.887221387215743680e-04
2.103685916008667892e-03
-7.165952294733515110e-03
4.959807257140107055e-03
-8.206893497349458536e-04
-1.703505107940948143e-02
-8.749585534595982761e-03
4.916851132614913919e-04
-1.892703090857817197e-02
-2.689240157688768326e-02
7.939031471468975878e-03
-4.966805651179917631e-03
-1.241920960632091758e-02
7.787931365387423983e-03
-4.253084164804886609e-03
-1.267647078677866697e-02
2.149311834613564236e-04
-2.195278213550568014e-03
-3.965568782376172573e-03
-1.027758324510591112e-02
-7.348820294426521189e-03
-1.090582840252791140e-02
-3.730784527450457669e-04
-9.067677488162580787e-04
-1.061194165814644506e-02
2.670814113485279421e-03
1.050818786349551467e-03
-6.266153743895801730e-03
1.112782124136947777e-02
-3.021742109246256577e-03
-1.311241782842365727e-02
1.095657084907462712e-02
-3.464184456571460687e-03
-1.501964908722370172e-02
1.095286196775182089e-02
4.727380819924199493e-03
-2.615033662352029761e-02
7.330851918210454926e-03
8.347398339325198813e-03
1.034907414107236190e-02
5.104669952874981223e-03
7.136262768067472458e-03
8.036973190614358706e-03
3.467690870811520817e-03
7.428578852884026341e-03
6.880358809917252669e-03
-4.303801014277452812e-03
-2.372130708359258475e-03
-4.238256145422624604e-03
-9.748818903084726165e-03
1.928120010979591983e-03
1.164926693723517676e-02
-1.206622479904539275e-02
-2.221805635492742070e-03
1.356855768976606216e-02
9.267647050972214464e-04
-1.133821649064455442e-02
-1.023041554354032524e-02
-2.584720242825488002e-03
-4.182856367581288745e-03
-6.408722529589939987e-03
-4.958597713001175813e-03
-4.176121821611257848e-03
5.358268524035062104e-03
1.745365887363488008e-02
4.013771487111631592e-03
4.794460024669449164e-03
4.526636028639626635e-02
-4.248359282495692800e-03
-1.979223100306670008e-02
-5.701798680328675449e-03
-1.568191929130137441e-02
-2.241405643653316543e-02
8.532826986179969583e-03
1.293241406397658069e-02
2.433387272310726449e-02
-1.005009149393185390e-03
6.756940376404752327e-03
1.545041594129757320e-02
-7.054995894248396139e-04
4.674941410869925922e-03
2.578505116624422392e-03
7.564583550994955982e-03
-1.143211150660313445e-02
-1.434712253311063064e-02
5.345742260200094659e-03
8.686494846442072149e-03
9.371571200441021834e-03
-1.630850198151844593e-02
5.423738116109436298e-03
2.025015242941799812e-02
1.341226816710001414e-02
2.534136484061817393e-02
2.614908653215020085e-02
9.310810958733865123e-05
-4.417837580745452575e-03
5.063037741687197385e-04
-1.310153559957026939e-02
-1.056672734788022434e-02
-2.146797518918099751e-02
9.661606952028235426e-03
1.114833107689277257e-02
1.351316972671036919e-02
1.418548197510363824e-02
1.492396088773116115e-02
1.238046391377108611e-02
9.757960568777765756e-03
1.139075515464535102e-02
5.756269235980201147e-03
-1.098296585844144588e-03
-6.151311921069442523e-03
-3.516956474948508809e-03
1.013379013737680280e-02
-8.468718007317563084e-04
-7.308356944634268604e-03
-1.331777708884040144e-02
2.160622748710979563e-03
9.771359057950512739e-03
-4.424962420479332248e-02
-2.096403179673224371e-02
5.367919235043203292e-04
1.434715710555716124e-02
-1.323591536695209979e-02
2.613857942415329094e-02
-1.865340211827194034e-02
4.670718782234894832e-03
-1.590551513136609319e-03
-1.832271354318707303e-03
-7.999512217725662658e-04
-2.862929510218359917e-03
-3.037391447462331907e-03
-1.262305210651081238e-03
-4.126196501339802515e-03
1.157561839986913669e-03
1.708977471011553957e-03
-3.823781522949255135e-03
1.244992329113578204e-02
1.112744806958157300e-02
9.231311826203679113e-03
1.026006183297612298e-02
9.998372363528042900e-03
1.187014128013411801e-02
2.858785398525149485e-03
-5.035189427738760021e-04
-5.384036659694634887e-03
2.622782632046320381e-03
1.069732309850891794e-03
1.334863820406303678e-02
9.362813333277930639e-03
4.946520682703361982e-03
4.828574073882246215e-03
2.833248231800531911e-03
4.351669042101452382e-03
1.068163283101311763e-02
8.009621117784214428e-03
4.467788101414680788e-03
9.606610312039739336e-03
2.508657736441127772e-03
1.243529872971768820e-02
1.989680744712909663e-02
7.075029585674335892e-04
1.434187335273492958e-02
9.240499349735404808e-03
2.188522713061462615e-04
-4.283948700450812032e-03
-9.655807319988793033e-03
6.653251569493653407e-03
4.342543790627030782e-03
2.229585824026982573e-03
4.996561175040670384e-03
2.150053576924515508e-04
3.147422840437609677e-03
-1.609966982572895097e-02
-1.510424578300259731e-02
-7.082731743611732182e-03
-2.336156223529661183e-03
-1.109862214681376150e-02
-8.566703193622054319e-03
8.481755360211488569e-04
2.634513729611075226e-04
3.142771805040444830e-03
-5.637088224203730402e-03
-4.574232082392996196e-03
-4.796602475015617623e-03
-5.149388258395269993e-03
-5.908222844390517876e-03
-1.081149818664190604e-02
-4.488989966651415683e-03
-6.487016000114298291e-03
-9.670901108648058409e-03
4.075622010491015274e-03
9.854747590715433672e-03
1.167472698241813281e-02
4.226215422224863759e-03
4.737535241849725326e-03
7.329751665807676154e-03
3.197250379000352374e-03
3.758947564048449445e-04
-4.635693978150531684e-03
1.014157065442859154e-03
2.335233221715745950e-03
4.146233888027828392e-03
7.843746544446618396e-03
6.589563196668673205e-03
6.012411779012317818e-03
-3.329414942152254808e-03
2.549082867957756272e-03
-1.276973807925761272e-03
2.005228040513388609e-03
-2.870512878932494471e-03
2.823659170574171606e-03
1.266064105782859460e-02
-6.251928651544167923e-03
8.802030759934338297e-03
6.489841966822626831e-03
3.918264900180479932e-03
4.238123336673447691e-03
1.564049061856428655e-02
1.362714358314480456e-02
7.423517754091503787e-03
1.907241665614751308e-02
1.260111943654015909e-02
7.860178535018235227e-03
4.283887105841040037e-03
-2.489853931112236997e-03
-1.215518996423278590e-03
-8.261504665694096444e-03
-7.731756344663823742e-03
2.469620198977273305e-04
-1.668355611170509872e-02
-8.537216567115989835e-03
-3.253058810278327152e-03
-7.764887339867490752e-03
1.202371215671084285e-02
1.938006777370428809e-03
6.027891861302301030e-04
-1.101035402931956758e-02
-4.653108214960724118e-03
-5.089127657151289695e-03
-8.807605441192876972e-03
7.124299778006797611e-03
-1.290585002205690487e-02
-6.556481227687292919e-03
6.637723359165076040e-03
-4.578880831116262200e-03
-4.982780522842669355e-03
-5.108409270591647566e-03
-2.485422633939109258e-03
-3.767758606022514681e-03
-6.773622784863471066e-03
-3.937968391628061601e-03
-5.632285596835096865e-03
-5.809862782213668676e-03
-5.125006014519701940e-03
-1.169744832854910203e-02
-1.047307418639874775e-02
-3.034209120602079490e-03
-1.382413725667826221e-02
-8.080581914073703756e-03
-8.803943834668339491e-03
-9.476851249728785939e-03
-8.852272327541689523e-03
9.450707648472186570e-03
-7.066314592233943932e-03
-2.616149056740953854e-03
-1.523170450640808212e-03
-2.338756881496376061e-02
9.846423748510347435e-03
8.620276456251827618e-03
8.790138639628979414e-03
6.232866709245725619e-03
-2.299007472531910241e-04
-3.550608842740459684e-03
-3.254873832567757932e-03
-5.185746978976146435e-03
-7.689750761574542549e-03
-3.970160734567278020e-03
-3.710094510443688771e-03
-2.837203874355206674e-03
-2.412787445047593401e-03
-6.308088083966059689e-03
-5.598415000037719642e-03
-3.072358675581447849e-03
8.798973038637097292e-04
1.650144473721049023e-03
2.298514054114483927e-03
-1.754249763028193189e-03
-6.100549985207674372e-04
-3.428732810332542260e-03
-1.684967925658431738e-03
-6.427216964622202780e-03
-8.879020445264498504e-03
1.076274698845867787e-03
-3.657331985028585818e-03
-3.489890602884902424e-03
5.232917148443130308e-03
-4.946192442522454741e-03
-7.256674786437865635e-03
2.033480821393133034e-03
7.414681671779615665e-03
-2.588244088502575889e-03
-1.608081048105990465e-03
5.213996182835381639e-04
-8.213696944924426396e-03
-1.242091482439041696e-03
2.451614740207144240e-03
-4.790603412632576594e-03
-6.422767151107611032e-03
-3.146466334445307059e-03
-2.580971374566583959e-03
1.138978542786594009e-03
3.763554975684208024e-03
4.818308067722387907e-03
3.684529544857844362e-03
2.942464225667663479e-03
6.438012202108781001e-03
-2.361991649674144260e-03
1.598644110513591440e-02
-4.798648342172812629e-03
1.082476684295397701e-02
2.598160557256302614e-02
-3.011552272690964666e-03
9.720214471373874419e-04
-8.340085493912349074e-03
-1.123760340480546918e-02
-5.026114022193090176e-03
-3.377868841156430116e-03
-4.485438955569250041e-03
3.073575599000288872e-03
2.168974360470115291e-03
-9.072662871405914658e-04
8.158575058863441407e-03
3.962448678347454088e-03
9.169749520439771616e-04
7.611861771205542283e-03
3.558991695512417688e-03
1.422846072012863517e-03
7.717909908682111554e-03
5.128965355398464217e-03
2.223968525857592058e-03
1.369726033918422341e-02
1.054306595713328312e-02
1.256923198199618591e-02
-2.496133193350277509e-04
7.620944102981137879e-04
-3.481013883451358759e-03
1.611279288190605407e-04
-1.198871982342544990e-03
1.128165357702496513e-02
1.971441855869636006e-03
-8.289238646342334677e-03
3.981163348347053696e-03
6.706287508731102395e-03
-7.503290165091352180e-03
-4.432602269855283848e-03
3.803054992290149511e-02
2.074625505576860665e-02
1.027528614425141269e-02
1.808408811431635316e-02
1.770625369488677825e-02
3.279575315014757880e-02
8.032624578784400976e-03
1.805189596107381785e-03
4.467215370960434320e-03
-2.171727840543341125e-03
-3.288339981414281372e-03
7.672651411603089236e-03
-6.134273568376156886e-03
-1.147242683095077258e-02
-3.749731504048428067e-03
-1.382447495394489856e-02
-3.240722945347356693e-02
-7.353922142358011380e-03
6.003038454623995171e-03
-1.926377444072985279e-02
-1.928207627512049799e-02
2.344585748129089653e-02
1.361973284983218450e-02
3.169450183330811775e-03
3.731335242251929574e-03
-2.286764241252697491e-02
-2.892274666775845708e-03
-1.551898044608645069e-02
-2.021284579108179047e-02
-6.714796888978118855e-03
-2.739959702313618517e-02
-1.620376182470570012e-02
-1.189427960581417032e-02
8.190054519233506665e-04
1.522301624831468676e-03
2.378011863527000960e-03
5.540610128563778179e-03
3.094558929906320640e-03
1.351644089331397467e-03
6.263799973141003993e-03
1.142246714110145989e-03
3.975700556840123905e-03
3.933924496413117311e-03
1.539850649777966835e-03
1.314400164777658822e-02
1.220886332213848291e-02
7.367697629892229830e-03
5.000948251178866620e-03
6.667284245018167965e-03
4.085598161181826747e-03
7.474521123938372182e-03
-2.289103004056550900e-03
-1.407703599794961347e-02
1.118939088386322438e-02
1.085286157410533629e-02
-5.071353372433594180e-03
-3.660894770033704376e-03
-2.667220112566710821e-02
-1.777254980045818444e-02
-7.485241481560117420e-03
7.673118803536579761e-03
1.056655293446419168e-02
1.185528962836939620e-02
-5.221636961396044791e-04
7.026192612708355087e-03
1.079577949550301723e-02
-1.107123965993658810e-02
-3.709596772248780882e-03
2.059283543301077598e-03
-2.934849564075983196e-03
6.214211587035812188e-03
1.776407861823212433e-02
-5.026619219302639599e-04
4.978898977402684660e-03
2.043663399785691087e-02
9.869845232132874041e-03
7.673097450605609500e-03
1.794003412433750611e-02
-8.174632720721369122e-03
-7.767731268124365533e-04
6.101394325265909260e-03
-1.062342006022806186e-02
-8.181904105481602879e-03
-1.000986019659102838e-03
-7.223423704724373992e-03
-9.490780883879329846e-03
-1.141863950959738812e-02
-5.241821175279242316e-04
-4.061461045266188843e-04
3.286075147202547741e-04
8.230699111573801588e-03
7.814015881298656124e-03
3.313968480930899740e-03
1.344585996626091427e-02
1.745455720733163005e-02
6.615388793348876001e-03
6.081384019142738184e-03
-4.996577780718533535e-03
-8.409182804706229891e-03
2.130092116323776749e-02
2.226329657585902379e-03
-2.445573011631084915e-03
2.896511420437337947e-02
9.089490507032114627e-03
4.224896616178485200e-04
1.077723708475675744e-03
-3.288195018738462438e-03
7.155375235284558606e-03
4.945195511156929603e-03
-1.033898241184961694e-02
-1.316514721806309046e-02
-3.734439246650851098e-04
-1.701223361480043439e-02
-1.784652702980969036e-02
-3.463584672173090646e-04
-1.587858136050449053e-03
1.399921073318221437e-03
2.960941659449476174e-04
-4.699204289502633899e-03
-5.203147221212848367e-03
-3.605177143720476591e-04
-6.303161017075108521e-03
-5.363732175840420745e-03
6.257503705561810129e-04
3.083746636054003794e-04
1.857406528015191063e-03
2.191050463661828925e-03
2.786662595680165430e-03
9.161183210024436904e-03
-6.980176809209521702e-03
-8.392272706905365073e-03
5.431929166777884309e-03
-1.207260049352153544e-02
-7.310093568199063467e-03
-1.010841720790849746e-02
-9.618368817189403355e-03
-6.834359904507562519e-03
-5.888789934051207216e-03
-9.797551960198552443e-03
-6.573733934055785849e-03
-1.538845108430585314e-03
-7.244416658669206033e-03
1.505450062196369947e-02
3.075039604924785074e-03
-6.221813831215370488e-03
2.704996451180759730e-03
2.202434064351191118e-03
-3.207015798845711495e-03
1.162055474322894362e-02
6.722629149203766460e-03
-2.403644332118616556e-02
-2.494145107541317907e-02
-1.378283484400700566e-02
-1.897919881159024214e-02
-1.744218017082927938e-02
-5.170249055275002482e-03
-1.610291574970534184e-02
-1.471455158128889829e-02
-9.785740411184179824e-03
1.642866138585519567e-02
-7.633177775821538627e-03
-4.504233458192241635e-02
3.977567750364092991e-02
9.242229862057489004e-03
-3.000838001142090011e-02
2.441017547960204828e-02
1.044544597945429830e-02
-1.225884388220899700e-02
-1.182056108653956918e-02
-6.768119858839547506e-05
9.624952417369610214e-03
-8.450541681461282151e-03
8.863189787792305832e-03
1.170863441204869453e-02
-3.118798397364366554e-03
1.170522971115959231e-02
9.104390297191350054e-03
1.584539249944077847e-03
2.680484246207426530e-04
9.542643420889372182e-06
1.105714440238606466e-03
-3.050472896117453064e-03
-1.280775409881287821e-03
-5.531947650989757275e-04
-2.667269486516958554e-03
2.173730325147736229e-04
1.555099603761873027e-02
1.732421114658694652e-02
6.473606603087500751e-03
1.647993181672956914e-02
1.038075687300086224e-02
-3.772092504976330175e-03
1.726289538553510070e-02
1.056324749384387335e-02
-6.077412130999401349e-03
-2.204711545986169294e-02
7.525771552520404105e-03
6.383828476954198604e-03
-2.803684165437111964e-02
-5.161497507226599397e-03
1.997094131570615813e-02
-3.089110853435245163e-02
-1.877490623626841462e-03
1.218434829442592571e-02
-1.703506178359479777e-03
5.519369681267174282e-03
1.212282903836451459e-02
-3.549029566807330224e-03
6.861864769802541661e-03
1.616136111579289172e-02
-1.105812042084973121e-02
1.464205516888418676e-03
1.279650147714639016e-02
1.518323278556408910e-02
6.047331486059040646e-03
4.356968517955435612e-03
1.617309438130823396e-02
1.010171534072169634e-02
1.158643176567353966e-02
5.583206507690887874e-03
7.114144919587965001e-03
1.027602238976327124e-02
-6.001590563841694911e-03
-1.613299597376667213e-02
-1.085929864156066037e-02
-6.037382537178757197e-03
-2.646794984489370464e-02
-1.603864120909352306e-02
-1.473345957157790737e-02
-2.803354827598466409e-02
-2.359363018366986142e-02
2.654400268507676065e-03
-1.288542942764510715e-02
-8.976141723593008409e-03
5.191896547150904109e-03
-1.162809479099806073e-02
-1.265282242621981919e-02
3.830800920455768553e-03
-3.842562805744952851e-03
-1.521848477110948096e-03
4.978113991527760226e-03
-1.165049292061865610e-02
-3.625912590871188668e-02
1.713142098463414295e-02
1.191872922563706272e-03
-2.423565167786155550e-02
2.177496140242024189e-02
8.377818415261006554e-03
-1.719060394121655136e-02
-1.045038415307835951e-03
2.597958286588757104e-03
1.574435080878628561e-03
3.689634517320524755e-03
5.822343026341409745e-03
-3.688209000055997760e-03
-2.434505707654105022e-03
9.438207972200478649e-03
-3.349336778371835802e-03
-2.839143854782340531e-03
1.555693611376661890e-03
6.973836057470280889e-03
-5.535697051801991529e-03
-4.048392641712983257e-04
3.966596065448144484e-03
-6.575763412724091109e-03
-1.260412840630936856e-03
2.013457908141269830e-03
-1.524756035693330958e-02
3.732437283050223358e-03
2.015331030251035771e-02
-1.300614573973633142e-02
1.071339777025043585e-02
2.809521336662893984e-02
-1.895278233945914617e-02
2.634601066878946695e-03
1.571389200404014336e-02
5.320619840308026026e-04
5.936825961114620574e-04
1.271479507566278125e-04
3.253429919224676368e-03
4.318564825349807158e-03
9.306298805439419978e-04
2.833118833994675758e-03
3.667724721623267462e-03
2.077146031450460926e-03
-5.113323841714614371e-04
-4.770814409837248297e-03
-4.252925048828571676e-03
-2.720543521269309147e-03
-1.170732428466652632e-03
-5.281866931335057330e-03
8.864772702195966234e-03
1.008599978261112348e-02
-2.445087962555639663e-03
3.697743434306983469e-03
3.733288882546582661e-03
1.510865066690278641e-03
5.397664997836069782e-03
6.699730080186430507e-03
4.842430537357283668e-03
1.558681821974896046e-03
5.153039022892132517e-03
8.141738733796737709e-03
4.502770539101334443e-03
2.189582177491115748e-04
-2.825517342370004788e-03
2.258222278984226179e-03
4.519957709624652237e-03
1.063313334867357777e-03
7.519388718217075336e-03
6.293005843482574538e-03
-6.282459251760914853e-04
2.515768325811071088e-03
5.651067139974173814e-03
1.673196972151637721e-02
5.178629890068848184e-03
8.396159392550428188e-03
8.775727604161958836e-03
1.311070645178668247e-02
8.633084810940282877e-03
5.123546730708097852e-03
3.813723827856465871e-03
2.647174641181742217e-03
3.710577695230453561e-03
4.489176044054051309e-03
4.875620687163674701e-03
3.816804016493560020e-03
5.159674334090339973e-03
5.499623540767998447e-03
3.975426509589510132e-03
-8.238821684928361762e-04
-6.820564995122416208e-03
-7.150830477508169671e-03
-4.158008612019393211e-04
-4.573321931033571403e-03
-4.549126299080510048e-03
6.173756647107927868e-03
4.815524298622133811e-03
-2.831561152677511059e-03
5.862899224829361267e-03
-3.410118522163469758e-03
-2.473412715923241616e-03
-6.224582563344400847e-03
-4.255399802914224677e-03
2.376321778425097200e-03
2.923295617157112974e-03
2.565408691425765091e-03
-1.039065791531904211e-02
-2.458706756547872265e-03
-1.089832234826193210e-03
-7.110863640823864061e-04
-4.345105730297250772e-03
-3.548515966849305394e-03
5.039885633168729928e-04
-2.769546846711857645e-03
-2.564638092017742545e-03
-1.080565585781694763e-03
-6.327892161600075661e-04
-9.047751234266182335e-04
-3.452019249004932306e-03
-2.301246874510287817e-03
-1.921456743863063149e-03
-2.101653811388646143e-03
-5.069351417412820172e-03
-3.310582906896147870e-03
-1.668200735240042568e-03
-3.851055333511219005e-03
-3.215318128568459260e-03
-6.547158704073741120e-03
-4.224084750013573294e-03
-3.848338099744143693e-03
-4.473065843552353864e-03
-3.734031444710432610e-03
-2.606741536630708279e-03
-3.467141518975595110e-03
8.087806970596684089e-03
3.648493890883789965e-03
5.615966039574040239e-03
7.442400654713528241e-03
1.593516143748657625e-03
2.650225942961204322e-03
6.520769710012907019e-03
1.145607013527744555e-03
2.230010694129467164e-03
3.779194517314766045e-04
-5.503134993197278998e-04
-4.999167058495209218e-03
-5.161315447449255279e-05
-6.943233205981919824e-05
-2.299151048027697417e-03
-1.075620155754994627e-03
6.539472251103091828e-04
1.897122624916057921e-03
2.131199459297955425e-03
3.654356563601670639e-03
9.313090955282302477e-03
3.308100336366665006e-03
8.203328402955192833e-03
5.700744548735712895e-03
-4.004529848731656731e-03
-2.802416862166602716e-03
-3.208117654496805298e-04
-4.043558202388286733e-03
-3.064461442340302502e-03
-2.756210294310965179e-03
-5.535068564696651178e-03
-5.114702254591765689e-03
-4.087708535748559892e-03
-4.595789109364051099e-03
-4.961158410913008715e-03
-4.430567328680589528e-03
-4.969310452059619125e-03
1.742802914225828479e-05
1.355024377984347843e-03
-6.190706095785197295e-03
-2.013775062712227538e-03
1.035551025610131209e-03
-5.825982670388365862e-03
-1.409405161897896207e-03
1.743242674152612089e-03
-7.780707026063296908e-03
-7.343536923692457058e-03
-9.141938525567272489e-03
-7.365207546350702877e-03
-5.914497611774404903e-03
-6.891479756685522234e-03
-9.591732029626258427e-03
-3.941768346127340339e-03
-4.496796169390056622e-03
4.352736002341423341e-03
-7.275217557868581680e-03
-1.223263041867449653e-03
1.823755663295938134e-02
4.406127629557781041e-03
7.127389964217046084e-03
-1.937073054353937026e-03
-1.303303160090620895e-02
-1.507175497182824779e-02
-2.745056607940759858e-03
-1.583248417028072872e-03
-5.588831682192312023e-03
-1.786081886136752428e-03
1.935719275968599939e-04
-3.401342869700770075e-03
-3.609974530764328490e-03
7.289558261561644107e-04
-1.027570396866432732e-03
5.367427220814810149e-03
9.973212034299554045e-04
9.151751903364434976e-03
1.991514500238432406e-02
1.422094231297855310e-02
1.599862756614000431e-02
-4.662692392653774477e-03
-1.122445094658731761e-02
-8.795179621940292861e-03
-8.961156410955095977e-03
-2.062132512536639373e-03
7.584706197509586897e-03
1.326282057128675513e-03
6.330374303462344386e-03
1.141157663635771098e-02
7.324875783823513696e-03
4.513061455903931429e-03
3.951818728027206400e-03
2.686555313064593973e-03
2.511828633721741120e-03
1.570369629730905721e-03
3.237753329931698613e-03
3.113361374640567086e-03
2.496371253520017746e-03
2.187284660442677386e-03
1.704993239861844062e-03
1.942000275786167707e-03
-9.252226390172167692e-03
-1.155499697054821612e-02
-1.207577946090148194e-02
5.811788794209649459e-03
4.081594313641421883e-03
4.950018411020686709e-03
2.722771378108584071e-03
4.049627114227447033e-03
4.573283377099984087e-03
-1.125887481476555568e-02
-1.760571288590039030e-02
-1.298362054754683727e-02
-8.108625472360787151e-03
-8.866251716108873929e-03
6.570769598534829947e-03
-1.062411271025708558e-02
-1.088398966435276567e-02
-2.128538343998285717e-03
8.879692312636297286e-04
-1.664878144451649039e-06
-6.646894064816936737e-04
1.366500225857794583e-03
-5.857111917893233991e-04
1.398406922739280425e-03
2.569189493014592627e-03
1.061934290491617144e-03
3.514507831139908681e-03
-4.358066248077017112e-03
-2.642891609195824505e-03
-9.613543446800962983e-04
9.524669450409714881e-04
3.501029884956034354e-03
2.718379371386835715e-03
-2.537200685553300198e-03
2.626076637423943247e-03
2.939939195602291229e-03
3.262819642559809316e-03
3.699746092197999086e-03
1.055039602575435966e-03
7.824456771025457488e-03
4.366829728986864820e-03
-1.915662314907320756e-03
4.414234460486701241e-03
5.201548792413589672e-04
-7.287176096562340832e-03
3.432030207850548977e-05
-2.623294967984188871e-03
-3.382741176405441776e-03
5.025028840691316435e-04
-2.473983947663410004e-04
1.163783537978600085e-03
-1.286759022214982624e-02
-5.601350465732813158e-03
-4.563125834929258016e-03
2.719794160729304897e-02
2.510534790779869047e-02
2.024173235385746256e-02
2.660004596027543133e-02
1.615926726524133383e-02
4.648439098889680168e-03
1.584379270762350383e-02
4.755697534815444237e-03
-9.085740589870780828e-03
-2.543539567560967451e-03
-4.385626579125839405e-03
-3.710728455577644996e-03
1.819220515482456498e-03
2.470192077568066080e-03
4.530076864313826307e-03
-9.399577629043020036e-03
-3.907740071430763906e-03
3.023679960807017751e-03
-2.284512464810465986e-03
-9.180253015550315357e-04
-5.263719935470835597e-04
-4.109469085777001096e-03
-2.451844009950302633e-03
6.117025635001546247e-04
3.186376433136274989e-04
6.027886866700179818e-04
1.756338653439004161e-03
5.221182783281674324e-03
4.017763164125541867e-03
3.309507886409223526e-03
2.677002405122880929e-03
2.111596852709531167e-04
-7.868813887887784238e-04
2.028306727731442067e-03
-1.463288946882171935e-03
-8.162546447849440600e-04
-2.190290466912760148e-04
3.238272504878193445e-03
-7.146252564361915346e-03
5.392620636021873068e-04
7.988265918558914297e-03
-1.701639691266986377e-03
-6.958925158444286257e-04
9.945558408007072748e-03
7.228330105655486788e-03
-1.276571442179966469e-03
4.702897015678445675e-03
5.217640293451708197e-03
-6.678071304681553258e-03
1.258331803293010961e-02
6.236043752742347762e-03
-6.411005387948865743e-03
5.307416118226639763e-04
1.229751852157384110e-04
-9.834349841379853852e-03
-9.954283156398069377e-03
-1.268610991264376882e-02
-1.191979936223695746e-02
-1.111069978430743142e-02
-1.387942010509544272e-02
1.352419268706595490e-03
2.190518818753790266e-03
-4.992912800786952765e-03
4.522391290582621071e-03
1.935895942277709308e-02
1.172342755601907260e-02
2.817283010086520881e-03
2.061794262867272520e-02
1.686458258986199554e-02
-3.389230762458332602e-03
5.422784226492430651e-03
1.019220544066073812e-02
1.585588764228105726e-02
3.640155274477904074e-02
1.966267957180196577e-02
1.393201219785063574e-02
2.838433514756839859e-02
7.011802538495083732e-03
8.710644665533312514e-03
3.470382289251413427e-02
1.479343037501248265e-02
2.177715458406084565e-03
4.802997068436131584e-03
1.331577943888713304e-02
1.882425620135687446e-03
3.402629098306354273e-03
1.095057593524515274e-02
2.169315648787988396e-03
3.530251953146832603e-03
7.553595037373615241e-03
-1.968604140885982581e-02
-4.670919217616015424e-03
-2.074540687760402600e-03
-1.058160409514018532e-02
1.203552331709384663e-03
-1.325136164887566253e-03
-4.913541523653907565e-04
7.410667525661375227e-04
-3.410373133492283814e-04
-3.554824888659877807e-02
-1.508849938505548750e-02
-5.899075331654370785e-03
-3.584404077357399021e-02
-4.008427825196136420e-03
-1.652428751149952538e-02
-2.362836818799814165e-02
-1.852753097960843989e-02
-2.035911913569441248e-02
-6.951391987781195721e-03
-1.289834393650643885e-03
2.070904138940290410e-03
-1.239825320130913486e-03
2.548768899398519937e-03
2.358023942819986469e-03
4.029342454411785103e-03
6.657677634875272012e-03
3.613557673531966191e-03
-1.236666419106509374e-02
-1.221045567120943899e-02
-1.608987405990527225e-02
-1.188793929856095215e-02
-6.151598713242972805e-03
-9.058074976399571598e-03
-9.710802548382448107e-03
-3.594698414226499793e-03
-4.958963409268929553e-04
-9.743613840831685455e-03
-6.444605439784885544e-03
-1.094001705185318300e-02
-3.750876432945774060e-03
-1.024682748571246289e-03
-5.885558448056285585e-03
8.121259006811334946e-03
4.421279616801671551e-03
3.364451435922450554e-03
4.404343352474498173e-03
1.461774484616921825e-02
1.989569808669839832e-02
5.667386259622283476e-04
6.347570344551554250e-03
1.153105953230331403e-02
-4.893894521666204353e-03
-6.438040171849582216e-03
-1.507327586120649991e-03
1.730955960168912774e-02
1.643209884349603953e-02
1.310743634332198378e-02
1.485158384163426382e-02
1.967677638367308635e-02
2.268639752636171514e-02
3.383241559318789140e-03
1.153758555544314238e-02
2.799579337168031298e-02
1.979647789005481440e-02
1.320914949951234457e-02
3.353419378234775809e-03
1.804727838685349015e-02
2.620669838209417190e-03
-3.085931732456411152e-03
1.686177953542869132e-02
6.285886066382444758e-03
-1.944392867514038378e-02
-2.771741356675980184e-04
3.070832246562031327e-04
6.009052669076389965e-04
3.167172729249539552e-04
-1.649603268214361448e-04
-3.943081783934173951e-04
2.623305339733543635e-03
1.561974784442842325e-03
-1.121015992322386750e-03
-1.433834426988452732e-02
-1.080676755071426250e-02
-4.373118932480649611e-03
-1.154510916908350025e-02
-1.043738658869998968e-02
-6.432965596119614299e-03
-7.136459462833987660e-03
-4.830778113473607228e-03
-8.927769241603123254e-03
-8.342834438487821067e-03
2.086291934281678760e-04
3.292979557192096847e-03
-7.672743734653045961e-03
-4.442140935204580247e-03
7.466102217400307243e-04
4.658039073361350951e-03
-6.796257428343754556e-03
-1.008199880907206802e-02
-1.794679342592381613e-02
5.150049769288666916e-03
-1.059379812608528086e-02
9.754181685983973407e-03
1.829223775732929588e-02
1.287381307052143202e-02
6.199796801605214971e-03
3.436556541879329241e-02
3.158830385258270396e-02
-2.814023859161873288e-03
9.693899714991799019e-04
6.590782097729788562e-03
-3.800917109959914015e-03
4.955234601403258991e-04
5.427313476576080264e-03
-1.227723862433709179e-02
-1.839262095635654792e-02
-1.686782209419650583e-02
-2.362909392337706957e-02
-3.870376583460870268e-02
-2.742139707588911457e-02
-1.310915351327962119e-04
-4.585027368985893775e-02
-3.982275441782875958e-02
2.537431732872745538e-02
1.823314510700959484e-02
1.358606740149556277e-02
-1.002583631546069727e-02
-1.222391236325723329e-02
-5.021669068657716971e-03
-1.686738486095959184e-03
3.852480326331562607e-03
1.055651994418250680e-02
-3.712479400573541650e-03
6.927864863995057514e-03
4.868019988378559024e-03
-6.315073691527966875e-03
-6.150504653321810060e-03
-4.009575683610880174e-03
-1.155678466645864225e-02
-7.211879544996551393e-03
-2.978479077922231190e-03
-1.418764481380767328e-02
-1.072687665493951212e-02
-3.311901346035287571e-03
6.289088388175422331e-03
1.385872813009786028e-02
1.249793499242339914e-02
-1.092756601666180181e-02
-2.413028235315350239e-02
-1.214289396981850858e-02
-2.667664775581983852e-02
-4.710916996868120404e-02
-2.979406521333229085e-02
-1.017158049642486427e-02
3.363231834027922973e-02
5.946347962628694903e-03
1.006855145796343998e-02
-1.298504335526953248e-02
5.741176381877198011e-03
-2.143580129972850329e-02
3.171403269893072023e-03
-1.606144139494938838e-02
-6.427099093014307547e-03
-2.008979613041553432e-03
-2.455782011654370715e-03
-3.348247689060660903e-03
-3.641813487215175577e-03
-6.656651169200640886e-03
-5.558594259671551657e-03
-8.710239445403210670e-03
-1.298924472712963130e-02
2.396919313629636544e-03
5.777653200852634653e-04
4.101696793842827572e-03
5.554546729135552766e-03
1.517600013553550018e-03
5.612993708574713810e-03
9.118818405496307428e-03
1.423813137225096552e-02
1.209699674098045109e-02
6.609655536442548022e-04
2.413015280256478740e-03
3.167965783825718785e-05
-1.443261109664773466e-02
-7.201067160326252506e-03
-9.093147725002071607e-03
-6.301706615516274902e-03
-6.822066913040185886e-03
-1.116814978815790053e-02
1.024798249343892784e-02
8.886513379299779483e-03
1.040507761937790876e-02
6.952682592666807951e-03
-1.471900025486810740e-03
1.262818515431757445e-02
3.410276279597120909e-03
5.406199506699560335e-03
1.533242923264428216e-02
-4.292753606613475444e-03
-1.800518257027872507e-02
-2.797200327175193568e-02
3.971222231821770060e-03
4.917490731402121215e-03
1.725617936409285869e-03
1.285791513122305427e-02
2.620108836527698659e-02
2.569346983083388089e-02
5.295067078914006062e-03
1.379371848797892978e-02
7.937765836668228894e-03
3.136699443260337027e-03
7.661080480223294090e-03
-2.839355626062418057e-03
-8.300211369439199766e-04
9.939368006363130583e-04
-9.369628345248768447e-03
-9.592990679378562979e-03
-5.143091514632643600e-03
-3.362664356181283270e-03
-8.056162813715982141e-03
-5.438705368790541783e-03
-4.644166981394006778e-03
-7.375073496239632287e-04
-2.101455830690782990e-03
-5.136258183758594595e-03
-6.343037648782799340e-03
-1.173102373075103622e-02
-1.115965057551717744e-02
-9.693574219137650024e-04
1.634298258506776923e-03
6.964308832642641901e-04
-3.269039071078218023e-03
5.046220987282264321e-03
2.379143584815901231e-03
