-4.180464236580831369e-03
-2.729435947024115919e-03
-1.252967284831635851e-02
-1.112007894947272466e-03
-6.156561263919035779e-04
-1.187775744503321608e-02
-1.133829209667787212e-02
4.353107682302326774e-03
3.744091879036017326e-03
1.789937788762060653e-02
6.313393956038924719e-03
1.493607743304767310e-02
8.665005786372907692e-03
-8.203183386838293345e-03
-1.187020401761095488e-02
-2.382238753824408167e-02
-1.275988505954543141e-02
-9.797546101364439704e-04
9.591659265383868302e-03
6.319467972293694828e-03
-1.736903497046350621e-03
9.958145006881313072e-03
4.799962526123997299e-03
5.609008709581917058e-03
-9.987518087103863969e-04
-4.602960466749504188e-03
3.460261891008631959e-03
-6.798129400798169804e-03
9.707463377492871540e-03
5.581529614081147915e-03
3.278653896510260856e-03
1.787943333408499591e-02
9.155838816437384189e-03
4.529707253577416014e-03
1.280214995712000182e-02
1.028665707990858652e-03
-1.983052163479494603e-02
-2.021312739813949100e-02
-6.292817872817845805e-03
-1.766318518092033218e-02
-2.138235928568949298e-02
-2.964262857466819830e-03
-3.153503447223621626e-03
1.017990801568689069e-02
3.228587341065287768e-03
-2.854651966617810684e-03
5.533118633347508183e-04
1.075025078423565237e-03
-1.957690656512586259e-03
-3.576181884282408473e-03
-3.595851616646278479e-03
-4.433661711022489349e-03
-5.787616031572366234e-04
-5.166793947028225191e-03
3.739295879434211120e-04
8.344703901424051912e-03
1.884012898264859556e-02
1.140122750475902787e-02
1.040128032215595355e-02
1.440955844324445963e-02
-4.374930507859409873e-03
-1.018198390513147100e-03
1.409434958836669992e-03
-1.278049679850951602e-02
-2.092815195570912196e-02
-1.642003017526394090e-02
-2.018100172477350213e-03
-2.814142510051726234e-02
-2.454390264971030924e-02
-6.184987200697040013e-03
-7.612487081294935440e-03
-1.357922683879673152e-02
-1.301002671594442923e-03
-3.262482355136190563e-03
-8.587416472250345226e-03
4.286327044071675495e-03
-1.258816941856040971e-04
1.210002869926030469e-03
8.083670170954583220e-03
3.080278486695357289e-03
5.196717273928882184e-03
-7.330260241949969292e-04
3.321447889050983815e-03
8.958755625139184445e-04
5.701124112972221977e-04
4.426609125922555121e-03
2.573049404942788932e-03
-9.888368681903413754e-03
-8.835065550479278065e-03
-3.286640480776599916e-03
-1.541381302090321162e-02
-1.556661752056520860e-02
-2.316501499327692712e-02
-3.184040627021901375e-03
1.242447178724234713e-02
-5.629711854158375023e-03
2.477878636760797500e-03
-4.020074128677672901e-03
-1.201327344184633869e-02
7.966930246675294229e-04
-3.172109550643543562e-03
1.201613134029857338e-02
-4.009077353633033226e-03
-1.674490929067953826e-02
-5.218886081060061712e-04
-1.757534876885822901e-03
4.327865380340642954e-04
5.744261065413905701e-03
2.109088114078702930e-03
-2.524605034720994821e-03
7.439232351097982768e-03
6.176684096169682454e-03
-5.112388722210612323e-04
8.693807166038087370e-03
-7.959684425578298804e-04
-2.774329549143539526e-03
7.633570805602899606e-03
-1.186651379929334546e-02
-1.241759899169401701e-02
-1.377346300966598644e-02
-1.407432042798327683e-02
-1.306300510670712137e-02
-1.213783889521380735e-02
1.088114921124566301e-02
-3.959079088000938898e-03
-9.533749504062870653e-03
3.795019913492126296e-03
-2.023847092615123529e-03
-4.616289671287991322e-03
9.246419512041801833e-03
3.252150197097861996e-03
-8.893878943151663566e-04
3.901543560897860648e-03
-1.172186434217503508e-03
4.401639529961414755e-03
-9.094161481966492669e-03
-1.076897775458102342e-02
-1.470917093222962567e-02
-1.205481842579620398e-02
-8.305192503494859824e-03
-5.008911525660813061e-03
3.162371302460138724e-03
-7.075483338960011567e-03
3.140008201746299910e-03
-1.487367235328774726e-02
-2.273954569761590678e-03
-6.329641537248932408e-03
-1.728499929375535218e-02
-1.662543357878910888e-02
-5.403772402124686243e-03
-1.391869624861135496e-02
-2.522935549118136833e-03
-1.848706058798033763e-02
-8.838755104822473840e-03
-5.028971697795907130e-03
1.125421034242968764e-02
-3.060536253263742429e-03
3.283757952337400341e-03
1.526838206578469415e-02
2.675941122076414339e-02
1.366732141810970969e-02
-2.885172675703302075e-02
-9.237228142282003993e-03
-7.399732750482738465e-03
-8.434356189693134956e-03
-1.281228962175453168e-03
-8.985770301557500020e-03
1.389158834449653835e-03
1.561801878614709231e-03
1.742757344356746620e-03
1.285560497959288735e-02
-7.709886808014755795e-03
1.152672062791328111e-02
4.030876458976979763e-03
-1.842809526995740910e-02
-2.596287746892387855e-03
-1.752148996260723688e-03
-1.549615354348162855e-03
-5.034179127832670401e-03
7.766617670109248438e-03
1.545739595351334865e-02
2.291956875979837480e-02
2.167247968088414911e-02
1.438844720257207062e-02
6.381023501180381474e-03
-3.247287625270317037e-03
3.282533843839759592e-03
-3.836879229841343511e-03
-9.941247195606532985e-03
1.051063477445678997e-02
-9.016328001412882718e-04
-8.578410883339231477e-03
1.486319279980109938e-02
3.498862966380697839e-03
5.265729908985785322e-03
1.519925267209391688e-02
6.326057678049855360e-03
5.215481638661352212e-03
6.470609458734710370e-03
-1.881553554730424835e-02
-2.423230333621915339e-02
-2.186476019625598153e-03
-1.203962929823279050e-02
-1.340248178385337365e-03
-3.383043050367700970e-03
-2.360492532231535379e-03
3.208899294391983747e-03
-1.415391721180093293e-02
-1.907614088075610575e-03
9.186507532097926490e-03
2.418230429142297381e-04
-7.454029620338448181e-03
2.041031976474857665e-02
2.969854989458978883e-02
3.917229033514794609e-03
-3.163165533089094122e-02
5.591244754940122991e-03
-4.384003895612336929e-03
-4.311204319885094012e-03
7.488744456565791553e-03
-7.170127838074837924e-03
-3.773812895033736015e-03
2.828064760131743065e-03
-2.579347620779304760e-03
-8.124970463871750495e-03
-8.862214261465417228e-03
-7.497180321748831561e-03
-5.416577800728785905e-03
-7.366685718240002616e-03
-9.161987559367569534e-03
-6.626404642844248120e-03
2.160393174847273414e-03
-4.746783511541251711e-04
-3.877703696414918494e-03
4.683077452410537578e-02
1.256767174544967149e-02
5.899937949465643323e-04
4.564321780487726622e-04
7.284355555658318139e-03
1.387373822368686421e-02
1.541181632621581397e-03
2.728088105103969319e-02
2.512265228006658677e-02
-3.211047817202391987e-03
8.851938920921387927e-03
6.176888112714078692e-03
1.080272748328810553e-02
7.185434260646976316e-03
-9.162298165694414062e-03
-3.424157857861600922e-03
-9.093777708497605139e-03
-1.435066897734577768e-02
-1.618800477906870428e-02
-1.826632744185532203e-02
-1.617547725036553447e-02
-2.610766600411758981e-03
3.640559273343103169e-04
-1.475771720465816894e-02
1.799038470314251459e-02
3.226700700282139622e-02
1.226855239662712205e-02
7.085656752210190042e-03
-4.892954965870230724e-03
-6.807547953315946747e-03
-2.415279376747754298e-03
8.133650683091091585e-03
5.277351340185926741e-03
3.426904405024008404e-03
-1.481994759144685415e-04
-6.960212326977920777e-03
-5.951603823948041494e-03
-2.476296859470286400e-04
-1.008848277863745807e-03
-1.334103278437375265e-02
-4.142347691554471023e-03
2.294934137001080829e-03
-1.816275172857358122e-02
-5.375211039671140036e-03
3.795778841963621305e-03
-4.373015758365925675e-03
2.491582432056870747e-03
1.054993563320752968e-02
-6.642142874462990919e-03
-3.976160056234383754e-03
3.293243526606207811e-03
-1.202335559221871081e-04
-4.948335255536014110e-03
-4.682300546874069275e-04
-1.404891611224412008e-02
1.272881562795661822e-02
7.654234689806998192e-03
-2.000033896915971721e-02
2.262061187084548480e-03
1.911348433588902149e-02
-1.035616086790333221e-02
-4.740689717186624512e-03
2.142907910520796752e-02
1.445392026959877070e-02
7.776495836488129219e-03
-1.665051804636702784e-02
5.175656028107951563e-03
2.235081342120479736e-02
-2.155159953790128022e-02
8.677368388799721124e-03
1.471888385883144724e-02
-8.058394497921067198e-03
-2.076279271537286031e-03
-6.344994979711449622e-03
-1.427974893530329845e-02
5.290765956743921292e-03
1.943538561953432869e-03
-2.980388965927681637e-03
5.539677856915717867e-03
5.295871234504074751e-03
5.632098255844689497e-03
-1.450473557861445490e-03
-4.108774678886061016e-03
2.784729841387505352e-03
1.265977386288722091e-02
-6.187548261082023382e-06
-1.379665471766883776e-02
1.965775788213308325e-02
7.366564354394850196e-03
-2.316662784283825965e-02
3.274238233943780208e-03
-2.034371409177030895e-03
-2.892059557061528625e-03
1.739855002852545157e-02
-3.620650876603188038e-03
-9.415304394030512419e-03
4.010400794091832991e-03
-4.468225831087579113e-03
-1.399089660000505699e-02
3.423004288417270006e-06
-6.037646216260949064e-04
-5.228808324844181656e-03
1.085183290602334685e-04
6.025302302332465228e-03
-3.824857979726952861e-03
3.880136510813783374e-03
1.118076756392808076e-02
1.802500254726201352e-03
-1.093496145602353836e-02
-1.738759886785300884e-02
7.571961620387348581e-03
-8.921849570413057859e-03
-5.866484054201859082e-03
1.335989062113472018e-03
-9.197171687778601945e-03
-1.679522843422984364e-03
-1.116545321482628056e-02
-2.630840402174189851e-04
-7.878204373899228398e-04
-3.556895904344257054e-03
-9.143921583668572842e-03
1.907336104995147052e-02
3.646510463513484481e-03
-1.454274005109471544e-02
5.998076528964169964e-03
9.779201254994970838e-03
6.308102157048722444e-04
-9.342080955582071915e-05
5.925984479909462673e-04
-2.459099113601346826e-03
-6.352970362167394483e-03
-1.313346877705780192e-03
-3.829505388370004967e-03
-9.517649792505302256e-03
-2.668839086357670688e-03
-1.654374326509457441e-02
-3.966550883952880621e-03
2.421660113191153024e-03
-3.932128031418780784e-03
1.147192720337363763e-03
2.259242286552581858e-03
2.872716404982829808e-03
-2.574276720784284597e-03
-5.318120853655775374e-03
-1.171427487816093351e-03
6.049467105629086473e-05
-7.712118399698525591e-03
-7.692457336550512920e-03
-9.185940314174849408e-03
3.055628364252166961e-03
-2.288960589565158885e-03
-1.151334231841824249e-02
3.877317907117548961e-03
-2.222069993047877130e-03
-6.086992188401652189e-03
8.449140744545240514e-03
-1.435232824021260775e-03
5.888631710279508026e-03
2.030321382445270898e-04
-1.295903029060324098e-02
4.429230669350703482e-03
3.056495866679869149e-03
9.870480468951045583e-03
1.272292566493807980e-02
-1.940795873995738996e-02
1.523876878763671602e-02
1.992811586712919109e-02
-1.590043047676229296e-02
1.085577250986268123e-02
1.814633266866872915e-02
-8.020081761532791773e-03
5.152427444711063335e-03
1.609385160829864903e-03
5.423478244306404773e-03
-3.198413327137296196e-03
-5.305379921935314156e-04
-8.795036002523216011e-04
-5.905175404566706011e-03
-6.709366926265484914e-03
-8.200823554763144591e-03
3.324809692405362831e-03
-2.361801406754640998e-03
-1.308375324443036142e-02
8.874175822370371225e-03
9.327921891150458417e-03
-6.969619435590526137e-03
1.111046498908565931e-02
1.160539256318901535e-02
-2.492891783875733538e-03
6.101192809835791748e-06
-4.421318661323607457e-03
8.290702149316271641e-03
-1.149569246577455744e-03
-9.921748600876379234e-03
5.107777117019913701e-03
-7.825489316196703946e-03
-1.381728925360098913e-02
-1.545657052204709066e-03
8.732583098257329715e-03
3.242265411385743430e-03
1.217139433167635856e-02
6.143104036289480895e-03
-1.096886689900957801e-03
7.047666320165650242e-03
1.000257749469899392e-02
1.041889078374788266e-02
4.393112679254821892e-03
-1.168124531395169606e-03
-2.630313644402245982e-03
-9.308968374711963645e-03
-2.077350573580862003e-02
-1.610031119229460642e-02
2.084022107925946870e-03
-1.449217515426379915e-02
8.482421050286998929e-03
1.779565254412357814e-02
1.298709523003335623e-03
1.416004900638091236e-02
6.947780125307251309e-03
1.808784072656862210e-02
1.483570035476784559e-02
-2.227031855965010978e-04
9.064861715625449970e-03
-6.913399160356834341e-03
-1.539976513258187879e-02
-6.274934577036289218e-04
3.430359000121523897e-03
-2.327123071056120900e-04
-1.952397431116510360e-03
6.961471041376375742e-03
3.578926230764965799e-03
1.916578190776950519e-02
1.889874697186434693e-02
1.437911149788733333e-03
-2.924058582476735113e-02
-3.204258685917752564e-02
-1.552043297854194606e-02
-2.704297985627658954e-02
-2.522255085135440087e-03
2.653520825876086106e-02
-1.680266036939790167e-02
1.800307492453416536e-02
3.439124609436104013e-03
-1.610267838651590960e-03
3.509696285835553226e-03
-6.541396516947145566e-04
3.674083702054917536e-03
8.461902755568911569e-03
3.459595295105442024e-04
6.334593656816471345e-03
1.289715390254764400e-02
4.574974785891035831e-04
4.072635923219043545e-03
2.655103495291560173e-03
-3.656156062764155668e-03
-1.331612196857811983e-03
-1.031686640021912266e-02
4.116479879651272107e-03
3.020704710377037500e-03
5.757743740151903804e-04
1.455400713513469585e-02
3.075741011788392029e-02
1.213324755123458207e-02
-1.518840747257223407e-02
-4.959721106093616799e-03
-2.962660601847934630e-02
-1.480320446708938316e-03
-2.913992101103575136e-02
-6.812313699586931316e-03
3.560335680668849927e-04
1.416755014346659028e-02
1.256227137153609341e-02
5.121475681652589741e-03
7.517271370444675652e-03
-1.705210767899082618e-03
-6.605387417517224677e-03
-3.961885584494787699e-03
-4.871088605596148730e-03
-6.009358406490622646e-03
-2.938614175294515757e-04
-3.182900181886189062e-03
-7.420076352397539377e-03
-1.504717854401482757e-03
-3.652115440611665691e-03
-3.512513295170596826e-03
-1.170699759080114609e-03
1.641552045907104405e-03
2.072814214675204776e-03
-1.102389331702347160e-02
1.763731087444904335e-03
-2.217281402252149411e-02
-1.375122889948803516e-02
2.528594561431660604e-03
-3.012252477079534196e-02
-2.706001545868181798e-02
-3.215408122488386256e-02
-2.010230010834086756e-02
-1.292318701252009178e-02
-1.258750645742813014e-02
-6.842754202181084745e-03
-6.264396705815903320e-03
-3.987730307269275222e-03
2.096607168242503247e-02
-1.039544182062394342e-03
4.159224850497461297e-04
-5.064063869502557352e-03
-4.825249408169041306e-03
-1.363245384467111181e-02
2.781906399961324265e-03
-1.188750097134485748e-02
-9.649265802240123910e-03
1.400356650019230452e-02
-2.984769761969633620e-03
4.884239068565053229e-03
2.027614665910645181e-02
-8.397935478729351769e-03
6.618683479804832355e-03
-8.733702814872193465e-03
1.364185464306645959e-02
2.056795396916150445e-02
-1.852630439673837864e-02
2.026308128977910485e-03
-2.058313342131174589e-02
-2.776155950047970097e-02
4.852305811366479545e-03
5.175205084543497633e-03
2.728916926058428793e-03
7.223500398054922243e-03
8.422311914334599386e-03
1.138233883181748000e-02
-2.849391925238756434e-03
2.586222361975001188e-03
1.116320221483009870e-02
-7.513105638943830093e-03
1.365492121768617593e-03
1.031135459819569654e-03
-5.482307072699687048e-03
4.440241660050673993e-03
-2.493424371035161090e-03
-4.123562539224913739e-03
-6.793330706294046020e-03
-9.992655407352165481e-03
6.561162012178723031e-03
-8.168644258802260083e-03
-1.647095947413278194e-02
5.272128984573240702e-03
-6.490020939874957366e-03
-1.060469497843368261e-02
2.963362297114553647e-03
-7.727221915841908867e-04
-2.232884074221334187e-04
-1.005270173338167032e-02
2.694880032010504248e-03
3.816137458982148990e-03
2.423667738816461317e-02
1.096246829316741521e-03
-2.371763670730128813e-03
4.085948455035355587e-03
1.621779618863936415e-02
8.083036676392135050e-03
8.512101143507878540e-03
2.031242418324261893e-03
-5.900332673460875060e-03
-1.875211729112894084e-03
-3.517288258387882630e-03
-1.446914521200587736e-02
3.334324517185987668e-03
-1.283630144788636173e-03
-8.017941870488511785e-03
-1.428803447416322715e-03
1.352181483639655624e-02
7.257951380584853028e-03
8.323121371819040132e-03
1.808402638554828037e-02
1.968074098211355580e-02
3.002616208862014108e-03
1.122909590568059272e-02
1.354209195602805969e-02
3.181120061242975489e-03
7.580493076266475554e-03
1.223406802621379401e-02
6.473906114379318275e-04
-6.225848300265636112e-03
1.498050963587565718e-02
1.917753842232810093e-03
-8.564781449947628245e-03
-1.020366415054893561e-02
-5.971221413325393740e-04
-8.221327680457310785e-03
-1.129299740087660008e-02
5.999496023622192522e-04
-5.486596348353702489e-03
-1.184302237960329317e-02
5.986312615723254210e-03
1.173398562942258756e-03
-7.798476785128081838e-03
-8.528151099226107673e-03
3.674307753584859365e-03
1.294607064015833309e-02
-2.012346988302005091e-02
-1.531856272152463602e-02
2.716041323043149724e-03
-1.085061868681934383e-02
-6.830666617644839782e-03
1.077497741114371264e-02
-2.470453691413902059e-02
-3.693885965501551849e-02
-3.853238207213874333e-02
2.075854317138665223e-02
-1.580040864795338035e-02
-1.277536600415126421e-02
5.574983435802692913e-04
-3.188973335764707512e-02
-3.265707868762456750e-02
-9.692216532105866339e-03
-9.886065751803523385e-03
-3.910909638307077940e-03
8.295224069069380771e-03
7.275278024831942532e-03
1.222982033852913417e-02
6.571141146270330011e-03
5.074677110005851310e-03
3.619853973399978376e-03
-7.319413478953503034e-03
-3.473957629301310020e-03
-5.726462612213734441e-03
-1.326408372903447805e-02
-1.009146820555876026e-02
-5.664391397630080295e-03
-1.719013184771278277e-02
-1.273457500852550640e-02
-3.143930437751239304e-04
-1.393481248898186149e-02
-9.409862030025801030e-03
-7.891631434720805874e-03
4.768154034641504217e-03
1.337583932917969093e-02
-1.379002094682671604e-02
-6.657281064000728464e-03
-3.096051044583722836e-03
-2.252383306267790805e-02
1.022497405567615592e-02
-8.093923071127691674e-03
2.558358286987408824e-03
5.627352770456383116e-03
-1.399079290791139032e-02
1.338142197824410823e-02
1.897630650886687406e-02
-6.286312063754819629e-03
1.030892727551436204e-02
1.097873338198925713e-02
2.695550169795784407e-02
1.326733179910396208e-02
1.171961037679970265e-02
2.707410344184330020e-02
2.515169491820936840e-02
-7.564004791430830633e-03
1.553289411531967937e-02
2.440562467624692727e-02
1.405533173950805625e-02
6.463273151570761432e-03
1.717279109337286778e-03
-5.113967488097110117e-03
-8.686188353586180369e-03
-1.268409202835955700e-02
1.359967212963778677e-02
1.512886351834960563e-02
1.403575187835973299e-02
9.796677764003643499e-03
8.378113717754794368e-03
1.365644876094824003e-02
1.751924701417197777e-02
1.589757697758739305e-02
1.900227897505744543e-02
2.157247196496712722e-03
1.741990096579575185e-03
6.962630802684968007e-03
1.144024281644785007e-02
6.812426848819119057e-04
-8.460305008469271720e-03
4.168557184599947993e-03
-3.162050912155790153e-03
-2.845357758326780458e-03
1.355270751028053028e-02
1.560449092529694838e-03
-5.700191085354425202e-03
1.295319671639208513e-03
4.990706703738328164e-03
2.701388986030728301e-03
-5.029594006480291209e-03
-1.040605047492772564e-02
-9.261215068404647990e-03
9.731672636863057321e-03
3.198294719283747978e-03
-1.653451361737540322e-03
1.257177322263239826e-02
-1.694746114084871337e-03
-4.146410708102939678e-03
4.494853159107230038e-03
-1.015448417275124915e-02
-5.692965834179675340e-03
5.895976681968852738e-03
-1.665220628555365637e-02
-6.821411584209163999e-03
9.676264512331661863e-03
1.073388741755699691e-02
4.016568120772230632e-03
-5.410734013955409254e-04
-1.356610170697471196e-03
-6.802628058700152178e-03
-1.618160595029040361e-02
-7.856703768427350867e-03
-1.689050455608697571e-03
3.541283642129064001e-03
1.867644631072935780e-03
1.737897585581030940e-02
9.893321921261911435e-04
1.747002586330781556e-03
1.765441342290048968e-02
8.595734086369478250e-03
8.854206152654758724e-04
1.132486623857564302e-02
-5.923258244574521915e-03
2.096916245164323969e-02
7.504400608205301706e-03
2.417528177454841137e-03
2.239787736564494147e-02
7.189036925608669783e-03
6.529478036207641070e-03
8.841184482467377009e-03
2.473123563990295253e-03
-1.208175755732895235e-02
-3.795248863389583983e-03
-7.765467317855836125e-03
-1.412046411827144222e-02
-8.802329663950609132e-03
-4.710812382844589349e-03
-8.714975760731437718e-03
-7.841618258033446892e-03
1.396495271457408619e-03
-1.457307856589136127e-02
-7.672674354241851985e-03
-4.288214587698637413e-03
-1.014172728994569908e-02
5.845456204934024354e-03
1.196978729934173973e-02
-6.208395082651816180e-03
6.651835056956340725e-03
1.089914681857925838e-02
-2.350681374516718630e-02
-3.180053461954124219e-03
6.496174880967133403e-04
-2.288670353505526528e-02
-6.341689187153517907e-04
-5.644741500508006996e-04
-7.999287678892718842e-03
-1.268727184072667054e-02
-4.236868902153218854e-03
7.622829494495714578e-03
4.404502517869777686e-04
2.950437078312991707e-03
4.298228054847079644e-04
-2.597630276112100275e-03
-4.310488802532550304e-03
4.639831075076362304e-03
7.385284503117201102e-04
-2.804425945601356478e-03
-2.618494566381938254e-02
-9.738789002482256887e-03
6.335083697395240548e-03
-1.660588869400784692e-02
-1.473006336123142785e-03
8.927749619563045413e-03
-3.328479892350742417e-03
1.126716087877435886e-02
9.029376654569600327e-03
-6.664289345109561911e-03
-1.414850701284404468e-02
2.604892547767989966e-03
-1.029007305573269998e-02
-1.671471166733649177e-02
-1.347585288603975716e-02
-1.137876684937904302e-02
-1.879770391789009273e-02
-2.054828427310742903e-02
-1.326052205462504956e-02
2.044970283894529100e-03
-2.738668865578972305e-03
-8.012045790093338601e-03
8.908378375257043971e-03
3.319939134403304942e-03
3.944750548937779253e-03
8.917598708655067458e-03
1.332867614289470412e-02
4.900565026151174931e-03
5.108197232683336225e-03
1.046239586489779508e-02
8.174898219219425485e-03
-1.853911310674801393e-03
-9.220981717642266415e-03
1.222497272637213667e-02
4.352653463322198914e-03
-6.816661107495450810e-03
3.887925265960226473e-02
8.980457185776457218e-04
-2.192129010578550141e-02
2.498804391330961688e-02
-1.613968219142288343e-02
-3.120090448501882524e-02
-2.726774452601147050e-03
-3.307670060929023687e-02
-2.497211162924721853e-02
2.349213715384336574e-03
1.258514089076459173e-03
7.006235360540152834e-03
-7.758984121651229041e-04
8.040100695639961978e-03
1.157842608946294850e-02
8.039597326637801819e-05
1.190775471317264550e-02
6.334731011521709497e-03
1.908486446860161584e-02
3.113135958055285660e-03
3.310176123360872042e-03
1.762486642680842139e-02
-2.434827665230532637e-03
-1.299694532438077331e-02
2.052088423862164206e-03
-5.147393818006345927e-03
-3.666003139574722583e-03
-1.309444549071889403e-02
1.029426213265133630e-02
-2.101682718839796918e-02
-1.608079535101555185e-02
3.838875550081568243e-03
-8.018569009488843435e-03
-1.786523330383806701e-02
-1.975838690456393175e-03
1.166607335189525849e-02
1.019147778788589975e-02
2.245762601597427188e-02
-6.531767729207062743e-04
4.000169992586549012e-03
1.057700043880583154e-02
1.731588567374620774e-02
1.576206042694512990e-02
-8.209564563947581049e-04
1.233637127346939345e-02
-3.893204647610810400e-03
-7.827273133341045713e-03
-1.365243816689014171e-02
-3.079219973409807846e-03
-6.714003733664829048e-03
-3.064954994505577658e-03
5.527081996598266246e-03
3.792307809594809564e-03
1.424222597059157484e-02
-5.001742624716843354e-03
2.699809220409371373e-03
-3.060263146097764661e-03
-1.109343421796524839e-03
3.992366449888744978e-03
-8.075065043512994617e-03
-1.769300634831501989e-02
-1.551884706656384873e-02
-1.607815452899255190e-02
-2.314120116946594488e-02
4.477540859340534618e-04
-1.436408104393841791e-02
-2.289113063125452693e-02
-7.126752202991630536e-03
-2.360816342886411234e-02
-5.414230949169175459e-03
-1.715526198316080775e-02
-3.007976637822274910e-02
-8.327639199925582995e-04
-6.518033686907638742e-03
-5.393200797340218927e-03
-2.474886153986087804e-04
1.903679524380282387e-03
3.241130527366525502e-03
-1.223896057765536203e-03
3.929380855887954806e-03
9.520023376703792579e-04
6.710479825257146570e-03
-1.664021812090212687e-02
1.111874741911356504e-02
3.076360187747296214e-03
-9.238829266418063389e-05
9.699359016916313248e-03
7.088894193255752645e-03
1.239571644630019058e-02
1.226035011109082550e-02
-1.497526079168418935e-02
-5.540202940707047996e-02
-1.133697501938543510e-02
-2.567500943442519584e-02
-2.733406880726133373e-02
-7.572423563034156625e-03
-3.493462417587136354e-02
-3.265607046351006598e-02
-2.071748983129564209e-02
-4.653509682490416730e-03
-8.398595472172870266e-03
1.125317301420930734e-02
-1.031674507809586527e-02
-1.335655782379920574e-02
-1.804279674475902642e-03
-1.911813923146234162e-02
-2.250919496634118736e-02
-1.391320276872503627e-02
-1.211908501596336554e-03
4.493265662802889914e-04
1.764756637101379949e-02
-1.098907313411122931e-02
-1.184155161613899623e-02
7.036167547976430146e-03
-1.806947013196528312e-02
-2.227622066715815100e-02
3.580759805632589918e-03
-1.640048909476616093e-02
1.087501095660632459e-02
-1.919933054722641405e-02
-1.279180559945727359e-02
2.529242772633324976e-02
-1.389172625248598532e-02
-4.397739058709053406e-02
2.513692537430362722e-02
-6.928582073867495424e-03
-1.087435446745592437e-03
4.498826334826210721e-02
-2.002275918346492836e-02
1.903833200696088829e-02
4.462810833807426270e-02
5.710462839387773180e-03
3.359298976206594178e-02
4.851072940830171432e-02
1.374482053347417070e-02
1.858661283101813860e-02
1.766474095483063292e-02
9.241442768207139280e-03
-4.342591559466614341e-03
-4.140176548996978706e-03
-7.575442448882444176e-03
-2.036847986947504588e-02
-2.306142126519841393e-02
-2.112558984317438812e-02
-3.327073354108078806e-02
3.614590290589900223e-02
-3.389593298827771328e-02
2.518817692783528045e-02
6.637067745218047654e-02
2.207820019666836484e-02
2.214361729148813657e-02
6.801503211087669976e-02
1.118992908329070196e-02
-1.784893879314482582e-02
-7.243774407311449025e-03
4.238956470652235388e-03
4.496492061898535279e-03
2.062631859478742530e-02
3.588144304154219921e-02
-1.441886695184954603e-03
8.519263320648581481e-03
2.819857341520030578e-02
-1.022934644447764420e-02
-2.382585948987896076e-03
1.771158912948323167e-03
2.521699776578136942e-03
1.009808939386453884e-03
1.668139332933462476e-02
-5.293089014281305259e-03
-2.761714258981765469e-03
-1.517311071159604171e-03
5.817859105886233687e-03
4.036905184766963368e-03
4.786853198130338292e-03
-9.999337049750381401e-03
-3.077082656739163567e-03
1.039128527586040927e-02
-1.874077727493941511e-02
-2.712459037891455128e-03
1.662005024801983463e-02
4.628288277004306145e-02
1.790685233378834160e-02
-2.196752982063557985e-02
6.200408815301048510e-02
8.205563125240587785e-04
-3.899086034202418199e-02
1.982443762360691294e-02
-1.588889676833058276e-02
-3.173755018721418492e-02
2.992068554993718155e-02
1.123960941617900382e-02
-1.888335588535262899e-02
2.440044954179106454e-02
6.143322793996391744e-03
-2.136063619702253252e-02
1.031042361952040111e-02
2.210588703513522053e-03
-2.076632656191868334e-02
7.403729958659115151e-03
-1.166800017309110350e-02
8.157559614827992328e-03
4.120777957708537421e-03
-2.156536712876576736e-02
1.356793100818126825e-02
-6.522013982981544368e-03
-1.170669536490522890e-02
2.346525484374963749e-02
4.504161114202068390e-03
-6.258981959498722061e-03
8.669988959196699499e-04
5.973952640823338225e-03
-2.858245200946031334e-04
-3.648906302112419004e-04
-1.083543070310753753e-02
-1.129053842790964449e-02
-5.016104888678127142e-03
-6.294745192394343540e-03
-4.284249613635663506e-03
-4.035944460466277597e-03
1.018301682892328074e-03
1.537568480444806776e-03
-3.017830214635041719e-04
-9.245762364644824136e-03
2.487295841673579293e-04
-3.062125395906091507e-03
-9.676273922533782865e-03
-9.244909128145342367e-03
-9.029596064035492814e-04
-2.290245371607707581e-02
-3.278046724317328943e-03
2.060624056341979482e-02
-3.730797424951558944e-02
9.963603188521368351e-03
3.742325699940401290e-02
-3.606129698497916643e-03
-7.777536701980244591e-03
-1.396398605987412764e-02
3.118638982176428261e-03
4.746402997158954084e-04
3.841667758938612474e-03
5.875558182615200215e-03
9.447767980684270914e-03
7.142628966023507539e-03
-5.646142552339606172e-03
1.557982976102698525e-03
9.518778671677486508e-03
-1.561815999426027866e-04
6.788648722591938533e-04
6.414172055300511668e-03
1.247481131638841952e-02
-6.337691360098341234e-03
-8.789999089241185351e-03
-1.667060388568502791e-02
-4.626995715363856759e-03
1.466402119618568853e-03
-1.485076771064798573e-02
6.303844368061786198e-03
1.475815967907133895e-02
-2.056778034493853338e-02
5.453843543030221369e-03
1.429322786087273804e-02
-2.382316714093223389e-02
-1.313433771670507143e-02
-9.585765860964772997e-03
-2.151400316639769453e-02
1.374444430901147762e-02
-1.413285022880469109e-02
-1.800934361871408054e-02
6.734321138232137252e-04
-1.827303452575350720e-02
-1.893270549299658559e-02
-1.207450674697353385e-02
-1.352267489429984050e-03
-2.485609991334149921e-02
-3.022268460938252240e-03
1.846212973199599233e-02
-3.149634422835689840e-02
-1.417659859713357078e-03
2.280584509686064965e-02
2.332878991449444800e-02
2.589187194685621529e-02
-6.455343632736179962e-03
4.631707888912384163e-02
9.355669891234270896e-03
-2.795646680255197900e-02
3.224569668431011282e-02
-1.206930650381604977e-02
-3.604214082567928218e-02
-3.561341239875603741e-03
-1.848602910298854582e-02
2.248994136545720297e-03
-8.063156370323482092e-03
-1.177663638562870783e-02
1.444052572736401543e-02
-1.090970248233302277e-02
6.333058969161948527e-03
1.294772222903920605e-02
2.397876510711146117e-02
-3.152457019165760994e-04
-1.278700546879216714e-02
3.777308396419137848e-02
1.047631104294862239e-02
-7.681185136924063546e-04
1.843924066301088141e-02
-5.471239902049921007e-03
-9.302679655098754219e-03
7.235342610614125744e-03
-1.067804294005244431e-02
6.380832297364600302e-03
1.265664838802362142e-02
-2.841938093307138941e-03
1.443729796868250571e-02
8.241749018501795185e-03
-1.224465077065331822e-02
9.428124793323897643e-04
-1.685834855322757009e-02
-4.073906991631931485e-03
-1.411127903744008837e-02
-2.632824440288981244e-02
-1.464324717393883715e-02
-3.717019826918030803e-03
-2.604357052888158636e-02
-1.604986689690784604e-02
-1.651358235459354437e-02
-7.316553461437438552e-03
3.154060577324314246e-02
1.673726511962047789e-02
-1.851586585750109384e-02
-4.201923804372448973e-02
-7.721115117042788405e-03
7.892922012605245105e-03
2.699256525616285443e-03
3.359667374750399758e-03
7.074831895704976076e-04
2.692199841216923531e-03
-1.531239738606346001e-03
1.233308736916209972e-02
1.582849011566942604e-02
9.494305032850950885e-03
1.340069708719118270e-02
1.781638254995658588e-02
1.651711437841964572e-02
6.932030606263369851e-03
4.942590953862050288e-03
2.038912179511855396e-03
3.517334487305504541e-03
7.001488871633874608e-03
4.773336652619981912e-03
6.374781968322315931e-03
2.014072771978210954e-02
-4.696206228413706864e-03
-9.122845873875266506e-03
-8.393156866872832989e-04
-2.340531820247387235e-02
-1.949036315258037902e-02
3.688271584015748433e-03
2.432761470994716096e-02
-1.493633268774735047e-02
-5.747398931396131144e-03
-6.127393269192098375e-03
9.127219412312488622e-03
1.376661159989583938e-02
1.356944063581511269e-03
-3.614808760989591391e-03
4.599606662417064784e-03
4.975331248577847913e-03
-1.081407869479725226e-02
-4.667782436144821308e-03
2.002140562300690132e-04
1.053004764445029766e-02
1.483117258061506308e-02
4.480950297200872023e-04
2.809118245007100750e-03
3.470682086035474859e-03
7.532147167265012926e-03
8.954818781441076583e-03
1.081851534683030656e-02
1.114473199214066797e-02
-1.720117693071544079e-02
4.948944856684099614e-02
-1.216149155351459871e-02
-1.362613417642823815e-02
-2.339692058791709856e-02
1.962498679003439953e-02
2.564929054554567541e-03
2.685420389131112570e-02
-9.131695802535514175e-03
5.613305915655232049e-03
4.885295613424947558e-03
-1.809519620971461419e-03
3.846522847963404143e-03
-2.693598041118700197e-03
6.322067856803540234e-03
-9.930187979159102798e-03
-9.749856073077914700e-03
-3.347992060783328287e-04
-1.066465725666079951e-02
1.536494880475742023e-03
6.804912577878336963e-04
-8.786069388965679627e-03
-4.607061079347208460e-03
-5.293796609303588405e-03
-8.477094443020867509e-03
2.444412942047806056e-03
-1.955356557495643507e-03
-1.683557740160480237e-02
-2.088611448059275386e-02
1.846695282072992111e-03
-2.998478200341222078e-03
9.363600399067121063e-03
-2.036994227460684620e-02
-1.374662854980754530e-02
-4.126750252268108522e-03
-5.105393409331495519e-03
6.022753381717322295e-03
1.659901361917631019e-02
-2.217107339742982290e-03
-8.361444622506949628e-03
1.961549520648317359e-03
3.300869346347307109e-02
8.958448514463694667e-03
-7.025526502746371263e-03
-6.493693592970547698e-03
7.586538230400499336e-03
1.024866269004719166e-02
-1.429340851223224584e-03
8.315378710170056448e-03
-1.448964329130810347e-03
-6.562745360033070234e-03
1.566008025096420845e-03
-7.671815217304561458e-05
-6.981390697671697836e-03
1.376482396573236434e-04
-2.306796434503943435e-02
-1.481602181130407640e-02
8.070876639910028877e-03
7.539183631938303418e-03
-6.258000895041590864e-03
9.504920973424250963e-03
-5.281240977551665029e-03
-4.519069039052000039e-03
-1.351390534656256824e-02
-9.793729372344730719e-03
-1.322217911260506820e-02
4.051597153643898483e-03
-3.793938586824204418e-03
-1.472980747062485433e-02
3.425072812252141774e-03
1.317016415947569420e-03
-6.448863655218731693e-03
-1.158519943992396967e-02
-1.035483495225340486e-02
-1.515992779500229329e-02
-1.198585389643909080e-02
-8.922940571693557810e-03
1.040082956960241146e-04
-7.808164544096517657e-04
-6.456146847300919811e-03
-3.873829880217118885e-03
-4.727164360918204565e-04
-1.425448773436924265e-03
3.801722663279707634e-03
7.747533571356996461e-03
-3.754444406247771111e-03
-1.628151132782156355e-03
2.419800883224206174e-03
1.176764488122934715e-02
3.269228701354076811e-04
6.606781274401012267e-03
3.046220679171068434e-03
-4.920493045238187070e-03
2.081035316881681488e-02
-1.419361568706963006e-02
-1.811729928505220050e-02
1.015918130676589761e-03
4.248268683296428476e-03
6.292152196026576990e-04
2.386180045603112330e-03
2.021466514678125614e-03
-6.330727489324242119e-03
1.970415199761600157e-03
3.883462364046133368e-03
-2.093574667033580236e-03
6.958339805637718013e-03
1.956888345348463745e-03
-2.500169100396156994e-04
9.712399508207655895e-04
8.027485768740558192e-03
1.292788573260116210e-02
5.571761073726205424e-03
6.780865599930188496e-03
6.030657660736207099e-03
1.747948075397176906e-02
8.040295267191624115e-03
-1.415358644279981169e-03
-1.607389494486159698e-02
-1.945024365944483802e-02
2.882045866215284576e-03
-2.791159000152937386e-02
-3.144952367263653681e-02
1.122492997464063016e-02
-4.948171922921473093e-03
3.345475052692847579e-03
2.859939498625954472e-03
-4.468452573556686014e-03
-2.248367938999172502e-03
-2.002713553238624333e-03
2.075373625783921358e-03
-5.258952490269897494e-03
-6.170745786801308183e-03
1.482610941079925667e-03
-1.985824474778653261e-04
-1.376255579805863317e-03
6.741505714205786592e-03
2.681311551257960311e-03
-1.112955880713750300e-03
1.433551769463010418e-02
-8.022751159268872237e-03
-6.146170408050447009e-03
6.168161541758455935e-03
-1.342659292011659684e-02
-3.322574873966274798e-03
-6.038445166435910984e-03
-2.619308809074145233e-03
-1.701510424478637137e-02
1.484006974501291161e-02
-3.801820762383893715e-02
-1.719920489968675440e-03
-6.822099789785128661e-04
-2.512032278173137109e-02
-6.846267741612986797e-03
9.344020838433020684e-03
8.868905132728713281e-03
1.263450327685802441e-02
1.090701612942828261e-02
6.391494323080041187e-03
1.214690323265472591e-02
9.195945300934968425e-03
5.165622966533660321e-03
7.431835823987521794e-03
9.794972099427599714e-04
-5.694551091154331432e-03
-8.088851317662352353e-03
-1.998116923814399371e-05
-4.361495190405249682e-03
-5.042672723908810280e-03
-8.686158125222040449e-03
-7.819756155966771372e-03
-6.338034820450647727e-03
-7.096889409082115727e-03
-7.107086104528436560e-03
-1.099089787774341215e-02
3.122222434071311899e-03
1.849308098017642121e-02
-2.106088866138338886e-02
-6.053026360761450640e-03
-1.185601824583163572e-02
-1.608490829781467762e-02
1.158555129993145416e-02
-1.523219962077852242e-02
5.949901556299390729e-03
1.353965038413169029e-02
-2.508054204183170557e-02
1.060850626698321524e-02
1.016629123724342894e-02
-2.314288833554666979e-03
-2.089787680879857772e-03
3.988573600215424703e-03
-6.267087323788537827e-03
1.864873489893042330e-03
9.006593387961076697e-03
-9.406871401373237407e-03
-2.224561520948538547e-03
2.625547872019013199e-03
-8.354251980919392626e-03
-4.076141730495714405e-03
-2.198037887976344792e-02
2.444549613813924889e-03
-2.827645353690682803e-03
-3.051122628279107421e-02
-1.239107220358335454e-04
-7.055941400066352912e-03
-3.901476125187801607e-03
-8.565182089492662590e-03
-1.222632382650871638e-02
1.921597718685334744e-02
3.189598983056333471e-03
-1.889586548081238554e-03
1.520833418293997437e-02
7.443158805369541739e-04
1.768284250162659860e-03
9.132593320305942841e-03
-2.720540270764405712e-03
2.902301778077342933e-03
-4.125642197776403439e-03
-1.187908706683843873e-04
2.569644509275229895e-03
-1.056334761194396843e-02
1.678391100970803547e-03
-3.406714345362063957e-03
-3.697046409961561499e-03
-5.429212754396578727e-04
-5.230054438122231676e-03
5.977929250762374289e-03
7.505961956310825030e-03
-1.179401372458549306e-02
5.460604884382859459e-03
1.178332669031434930e-02
-1.991137867649080129e-02
9.329597657289482628e-04
8.563984003317474296e-04
-2.741935384761686606e-02
-8.992441548867080581e-03
-1.056537163883796262e-03
-6.996079466932953773e-03
5.818219086855366123e-03
5.664845410979501249e-03
-1.384193013700631483e-02
-9.201943274630225433e-03
-2.347388186098318258e-02
-2.281074160608185034e-02
-1.704022204057578996e-02
-2.130209935546952503e-03
1.718250989735257972e-02
-2.010428476709188918e-03
6.548802703262877889e-03
1.145603709725524430e-02
2.938905322251917761e-03
6.992158803420311236e-03
8.970828675065032655e-04
2.466246186992168341e-03
5.280386404149668353e-03
1.610128332950963234e-02
-1.408076965434760380e-02
-1.384471331585546312e-02
1.395472088783250054e-02
-1.789471415630262616e-02
-2.411464659520135695e-02
2.330264385542804226e-02
2.159575000149192500e-02
7.215755361075106358e-03
-1.562032421478279885e-02
1.797983027112370555e-02
4.003187526082028352e-02
-1.212098834747608184e-02
9.494957827255279953e-03
2.964782266851711742e-02
-1.485593219273155302e-03
-5.329486495065631317e-03
-3.833595048413620306e-03
6.637956057144713852e-03
-5.889306889355760445e-03
-1.334162746364088220e-03
9.299962855826982358e-03
-3.734397738212939105e-03
1.296579355068122217e-03
9.252768384320222972e-03
1.427762767265968770e-02
4.622218653476855947e-03
1.353546050446336087e-02
-3.455489824703380630e-03
8.205800227018583692e-03
4.535521701051807575e-03
-1.745456579615602133e-02
1.041757513009068138e-02
2.979589523348390168e-03
1.864598120180688615e-02
-9.967832485924954175e-03
-1.048599383480612775e-02
1.559166359243707375e-02
3.932578498193649991e-02
-3.401267394225303969e-02
-3.361899948036072098e-05
3.041890755720095055e-02
-3.791628848885736369e-02
-6.196926645280689296e-03
-6.015202328259790752e-03
2.296683144233912025e-03
-6.408064752489557418e-03
-2.396132896206402962e-03
-1.611706343473166651e-03
-5.093258203482550067e-03
3.265631494544954209e-03
5.238500527003723747e-03
-5.441886277113473606e-03
9.203365130459589122e-03
1.077622371189168420e-02
-9.051073894302243128e-03
1.041336360975399743e-02
9.591575674792887987e-03
-6.217422156589461242e-03
2.691240653430779662e-03
3.212437955530769804e-03
3.261574632210762306e-04
5.488253744054217773e-05
1.137288264458190604e-02
-1.983158279695545860e-03
-6.497706526321201694e-03
2.669023781924375130e-02
-4.173840159412681682e-03
1.000283558306321041e-02
2.143467618638014716e-02
6.993920075360521467e-03
1.790386558627805533e-02
-1.252452350426923496e-02
9.344468107378576388e-03
4.697250401339730236e-02
-9.569656145768695027e-03
-5.432305795905324405e-03
3.995170254791542003e-02
-5.843048015614616363e-03
-1.829047234375540121e-02
6.958712097943695399e-03
9.824499939286166633e-03
-1.898048051856496624e-02
2.717403798484647939e-03
6.681651432919818306e-03
-1.360740907021203323e-02
1.578814244919466000e-03
1.732648319375868287e-02
-1.009411240794915766e-02
-3.006018912985043007e-02
2.701371251490804898e-02
2.172100801660719130e-02
-2.851103313454223312e-02
4.426512421536021001e-03
2.447903248999804340e-02
-2.787496468203414304e-02
-1.233994583025181842e-02
1.295867096762020975e-05
1.018611861993073096e-02
1.701044056345931213e-02
-1.478637932933116184e-02
6.404142924884424076e-03
1.668065548869547901e-02
-2.189531756335161630e-02
5.752451187042851265e-03
2.221825677646964425e-02
-1.021446260911866837e-03
2.321511574096379437e-03
2.680645582466495338e-03
1.074138408659907305e-02
5.721507945619480097e-03
-6.692202268369411289e-03
2.167579466422267856e-02
-3.557734063852086709e-03
-1.353881541902495107e-02
-8.730487204233305931e-03
-7.577831583536430264e-03
-6.933072422891363613e-03
-3.044214573196824263e-04
2.384120712960504859e-03
-1.172585403489244480e-03
5.000691214134999479e-03
-1.873498455964661127e-03
-5.294742599122354010e-03
-1.171915562164994873e-02
-2.096095425108180851e-02
-1.426957999913569357e-02
8.933598555248615375e-03
-3.574868904024701378e-04
-5.062719769936822227e-04
1.748698909395713513e-02
-4.136066302244163599e-03
6.462991121792859180e-03
1.017139320020849121e-02
1.100763246643945287e-02
1.660263827427233647e-03
1.702443796895590413e-03
6.037014464425140108e-03
-6.532454044227386765e-04
-6.119200483075359215e-03
-1.923764720673350323e-03
-1.840316975045988655e-03
6.680421568505619072e-03
4.547137458138665600e-03
3.168883663336155045e-03
9.954217538320332334e-03
8.427420537524430919e-03
-3.737894070020626736e-03
1.852773796372139074e-03
-6.415726533433565616e-03
-4.486721282526565449e-03
-1.989012498054085198e-02
-7.860383357992183073e-03
5.869144497816752848e-03
-8.184594808206484273e-03
-1.303315473422292890e-02
-6.229477648182549059e-03
6.474996059488144669e-03
-6.287686906398586191e-03
4.820362481727933496e-03
-2.560239839114310766e-03
-4.323294258874819246e-03
-3.078304240632972772e-03
-4.402827192068873609e-04
-4.683142233883131125e-03
-6.373626935496373366e-03
1.211431604269757809e-02
7.340851999259542099e-03
-2.859232659106436709e-03
9.790298975582827426e-03
-7.015596779761484360e-03
-8.947810881727245522e-03
2.684860022823387562e-03
-1.365711122068070634e-03
-1.327645420775683087e-02
1.196489640990467361e-02
-1.095113257634590951e-03
2.446167652866230655e-03
8.117849904825877316e-03
-1.176167593273414434e-02
4.559331068592593211e-03
-1.888919419428073136e-04
6.212116454676483261e-03
-1.353180587556079492e-02
-7.348984726146911076e-03
-3.798258039491515803e-02
2.173376187727334499e-02
3.715067965935841578e-03
2.508263734895850063e-03
1.358422649798387769e-02
-9.476206560405128320e-05
2.038505334083841672e-03
9.531573824712718038e-03
3.043080415402211417e-03
6.645829284382643535e-04
3.380816202360627850e-03
7.034403364513491276e-03
-2.381224155974449863e-03
-6.360686058357527956e-03
7.299186077619541045e-03
1.463318811262620794e-03
-9.873357414240686164e-04
-4.800438709123378694e-03
-4.566698262537961968e-03
-4.577792951396424982e-03
7.927501364404558604e-03
9.414293376639975078e-03
3.156648806495265715e-03
-2.378112057154817759e-04
-1.230913392376319256e-02
-4.490550361398402794e-03
1.850340495235068680e-03
5.821197222829842428e-03
-9.119085914349510033e-03
2.886169378115774212e-04
-5.538223910299345555e-03
-3.232599078517871304e-04
-1.170871321493957085e-03
-1.022320691150914451e-02
-7.604746029496809410e-03
4.021426565711497432e-03
-3.048547329376867987e-04
6.703887227281941918e-03
3.824892952795117852e-03
-1.093701099191859288e-02
-1.622081575629975847e-02
6.535861702871301540e-03
-7.157885030095617954e-03
-8.314767226987816381e-03
-5.804777978955149914e-04
-1.075217414726348936e-02
-6.450235617701699162e-03
-1.504152970047843707e-02
5.604489059276182746e-03
1.156406449280305768e-02
-1.344590438237311218e-02
-1.393596213360466345e-02
-4.382351542806777432e-03
-2.342330934312800844e-02
-2.340231493216475903e-02
-2.132793514055755096e-02
1.400736611100958655e-04
-3.933112865967503327e-03
-2.886943631722445943e-03
-7.605174991921205031e-03
-6.358971740668600825e-03
-1.202741815464773191e-03
9.142503255929677582e-04
4.838308077613830659e-03
1.248536264745949385e-02
-8.343469998440013885e-03
-7.971665638626208514e-03
-1.140738950269685852e-02
-3.061996362003075508e-03
-2.063508422472438465e-03
-4.863115186740952015e-03
-5.098076997767698321e-03
-4.405543325573678306e-04
-8.965148505869333009e-04
-1.150769696919196929e-02
-8.092895144561886023e-03
-2.682019028634855234e-03
-1.705994677720473751e-02
4.253402193320304954e-03
6.327911469526124009e-03
-1.393151585196348088e-02
-2.797237690536566023e-03
1.157486566976874626e-03
9.315842067391305603e-03
9.853495739001986650e-03
1.546473755489436407e-02
-2.036990720462107315e-02
2.576655298511328421e-02
1.363188341673848836e-02
-1.975966882721925597e-02
1.788603057420014644e-02
8.417170554040438388e-03
-1.338966319576540172e-02
-3.402792984608090342e-03
3.686732552250881600e-03
1.114317332529940821e-02
6.594201904890608680e-03
5.294375706265444168e-03
2.394920626377740336e-02
5.050677298210504845e-03
-7.834455658834983682e-03
-5.507712723666366526e-04
8.913216721445958377e-03
1.163164385917454411e-03
6.190767168727430263e-03
1.727899483512353174e-02
1.285199672925635417e-02
-5.671524001111960403e-04
5.334818874719268224e-03
1.007931425502337809e-02
-5.759071061052690836e-03
-3.033777879804297126e-02
-8.707939887902964304e-03
-1.086928874143396236e-02
1.195920259010211685e-02
-4.395356773791877364e-03
-3.057557273682239007e-02
3.243227355496879072e-02
1.373499976059602314e-02
-3.006528509489405157e-03
-4.958872096093458893e-05
-4.462618350277971352e-03
-8.399995736170983926e-03
-4.242252116771016643e-03
-2.121241362999021305e-03
-8.280643268399433612e-03
-6.876619180684238886e-03
-1.087304743098934344e-02
1.132956037300721086e-02
-1.951077644306866213e-02
-2.241528008879529121e-04
9.647326273137669939e-03
-3.188279589198545448e-03
1.396309140320835447e-04
-4.430641189752611113e-03
1.374658290682295725e-02
-5.737677087814882157e-03
4.264876808703450817e-02
-2.515283590063798272e-02
1.080612559668693009e-03
1.554094848541073826e-02
7.182986097768189956e-03
-1.318843782915805202e-02
-2.611819592955634886e-02
2.656882773417218457e-02
-1.025760529315782911e-02
6.590676985654792333e-03
-2.353748148717034906e-03
-1.515216721949776656e-02
-4.547093580913268000e-04
1.081324708658941468e-03
-4.048001023470831038e-03
-6.139088574225804069e-03
-2.093400416794957090e-03
-9.676457998794574245e-03
-3.174833656297688239e-03
-1.223333328760084536e-03
-2.835311544869377129e-03
-1.434707684015719235e-02
-2.218576068605349148e-03
-5.364286729882666686e-03
-7.700268183784640848e-03
2.561946734934037948e-03
9.702977608317935737e-04
-1.247679611899762606e-02
1.107465739718876442e-02
-2.031246563736703592e-02
7.285384422035049053e-03
3.640494348534620631e-03
-7.551315998132412076e-03
3.372482924075755756e-02
-2.288807566794594239e-02
6.635274732872273318e-03
4.049009713046746589e-02
3.543912434536881061e-03
9.747790309827969804e-03
1.207457870451784238e-02
4.013034824158879382e-02
1.032969024527159892e-02
-2.671020684527370195e-02
3.381983964017947625e-02
1.338179734383442704e-02
-5.450274016448431770e-03
-1.830431537046372853e-03
-1.390638968213632129e-02
-7.127234661324234610e-03
5.293985988714027500e-03
2.801422224415221676e-03
-4.678391215271412301e-03
3.421988041665482202e-03
7.660676252392717780e-03
-1.790690281664104183e-02
-1.394013058176942800e-02
-8.845123777622485375e-03
-5.214296501652387157e-04
1.116085181057984961e-03
4.632243328484795218e-03
7.395605547163086081e-03
-1.084802060978479199e-02
-1.170637012989577536e-02
9.228406699386904055e-03
9.674722408463232171e-03
-4.096816571302720929e-03
4.766175507680676243e-03
2.491616791291480140e-03
-1.696114381937882014e-03
1.954391824040179176e-03
1.660300106656565711e-03
-2.092771509908197478e-03
6.727330564469083569e-03
8.215488334297303338e-03
1.836232894493885007e-02
1.574259006253553447e-04
6.981821996144782147e-03
2.774183842660104052e-02
-4.769526115242278021e-03
-2.629642133738859140e-03
1.019909347028749927e-02
-2.432472774368123203e-02
-1.102552388238893857e-02
-3.678151307505167326e-03
-8.580976513963811322e-03
-1.184641994542786486e-02
-5.866474592253446800e-03
-1.643025730886993330e-02
-2.832148551643783648e-03
-3.224842360616794745e-02
-3.489658754832748733e-02
-2.229986847947318038e-02
6.103206791878264953e-02
1.167163509570636956e-02
-4.999583210654165444e-02
-3.803501333262745976e-02
1.989578195668660968e-02
2.401351623679903041e-02
-2.039130623194373645e-02
4.592051196427175512e-03
1.182107500026011171e-02
9.436311134205446413e-03
1.934222880679977233e-02
2.170018312106009734e-02
2.103167865246443127e-02
6.421647075031278011e-03
9.148597137993704637e-03
1.641368405230040142e-02
-1.078847657482356935e-03
1.248473611624905701e-02
7.423673359748731229e-03
2.780325548815194402e-03
4.269357463613672292e-03
8.525024190511598654e-03
4.149156617727712930e-03
1.176021696966162745e-02
-2.896977406326993552e-03
-1.423648771761856086e-02
1.206606250588936231e-02
2.471250772491677405e-02
-1.316376110076142303e-02
-2.534949559903504693e-02
2.427433222477660968e-02
-5.472447121186901735e-03
-2.733807322185980576e-02
-4.435134112518333144e-02
4.450359930991406449e-03
1.121787168573208475e-02
-7.122358823387752585e-03
1.414447764908319943e-03
9.676424835010986880e-03
1.902608694097659633e-02
-6.413908296631189512e-03
-7.112025371089696416e-03
2.813594595874994737e-03
-1.086622108479489215e-02
-5.583379182284940907e-03
2.347392615345415129e-02
9.813190671864724726e-03
-2.143594778414639399e-02
1.893980130919281982e-02
5.981810188938562443e-03
-1.946293559451941005e-02
1.188511891279780616e-03
-6.570127879760440104e-02
-5.120780134056757789e-04
3.653002416610596353e-02
1.242972404124900038e-02
-7.867338089516885680e-02
7.555237812930294498e-03
4.249980282912297486e-02
2.435447955967887448e-02
-6.567426913124128907e-02
-3.746865430044423080e-03
3.299929552129488887e-03
1.988321389170383258e-02
-9.565653300599644485e-03
-1.465508824265748106e-02
1.016783574080577270e-02
-1.269241153547635143e-02
-7.134577412927944895e-03
6.210653234215592240e-03
-1.162828781492898991e-02
-1.582864621025872887e-02
-8.276310783628540793e-03
1.517511553178791522e-02
-1.390071780283024926e-03
-1.199290018451144857e-02
6.857368996545521421e-03
9.113649593735617671e-03
-1.319091142736491737e-02
4.915726650712161708e-03
-1.071096770700751509e-02
-1.105206516465266457e-02
-3.341520610049983787e-03
2.411667239679436692e-02
-1.548345437953421375e-02
-2.051809621253319546e-02
-1.845201189705074005e-02
-7.514094112578415148e-03
-1.190390503046849166e-02
1.257983403958704005e-02
4.058126530537147642e-02
3.394791398280534722e-03
-2.324110880383902650e-02
4.302982656601678918e-02
4.100044877284989009e-02
-2.782086992052136207e-02
-1.961839996266735026e-02
-3.488317842211360875e-03
-1.364714654228475765e-02
-8.064568253306611187e-03
1.972592094043101874e-02
2.769258778129947765e-03
-1.396289687960379847e-02
1.796310590361908195e-03
2.107834014952404689e-02
-3.934035196415088843e-03
-6.988904882647338675e-03
1.154871037151608028e-02
-1.302424064336525460e-02
-2.412030346114383758e-02
3.043371364129110555e-03
1.040389117616066263e-02
-1.781430187035817209e-02
-3.359426803660262723e-02
1.346472036125753897e-02
-7.268145912008458715e-04
-6.146381655103268747e-03
-2.162081014253268429e-03
1.460269143305449775e-02
-7.206547022473815123e-03
-7.077678605569621799e-03
1.076373632367887134e-02
5.571394639783887673e-03
6.443421715272980126e-03
-7.699035936749989116e-03
1.099709238751357850e-02
-4.064233070106659622e-03
-1.390213310586742301e-02
-1.959881193661596951e-02
-6.890114265473121051e-03
5.828610885692329935e-03
-1.459745002646857005e-02
-9.419415954199181901e-03
8.470421594287210268e-03
-3.083904108182605828e-03
1.309400848454254918e-02
1.656370948145669073e-03
-1.760905462408527810e-03
1.872580982452940260e-02
-3.527727871889480352e-03
1.194677320239947819e-02
1.989596119705138236e-02
2.467665170695208451e-02
-6.775909688166815298e-03
-2.060092548656901681e-02
-7.424795373353133875e-04
-1.201888409041476473e-02
7.730316546778627897e-04
-8.770776150470819058e-03
4.414991466237278873e-03
2.129420761447838734e-03
2.992846676813328000e-03
3.949746923862513040e-03
-1.380363121167541398e-03
1.768506765008054068e-03
-1.283894310562925471e-03
7.348232627840055016e-04
3.445862820448105778e-03
-6.457052717226074122e-03
-9.889801120417239695e-04
-3.430703745075124652e-04
-3.683122634934208120e-03
-2.551639801878937026e-03
5.471206130806835710e-05
-8.452468650306032367e-05
-9.614262296222298582e-03
4.116426607759863555e-03
-7.002105091462079017e-03
-2.982996747769882818e-03
-1.760478248258369460e-02
-5.572119212282414247e-03
2.779287982026602474e-02
-2.285101453264390056e-02
3.053842659039533638e-03
9.237671592592078956e-03
-4.727152057477052721e-03
1.806652200336318972e-02
-1.717390560848885278e-02
-2.666487153792777929e-03
-1.009409032529845138e-02
-8.637887053730617520e-03
-2.107151399913417301e-03
-4.956815419829962294e-03
-6.535491225130037052e-03
-7.333427014654772839e-04
-8.740824396489447297e-04
-1.353516038752516091e-03
-3.962930491357439904e-03
-1.314067817915398791e-02
-4.970954031708897311e-03
-5.640924445305835894e-03
-1.734438581931503284e-02
4.046898282139929637e-03
-7.447747406931286632e-03
-4.734468799385002993e-03
9.511022607728668657e-03
2.022748310870214200e-02
-3.345564628858518907e-02
-1.635701618646702091e-02
-1.023615799679314549e-02
-3.435990255895103596e-02
3.134157178076243944e-02
-2.730433338888242287e-02
1.691787436492049601e-02
2.416137920606993561e-02
-2.834180212041071279e-03
-2.391830119503112547e-05
-1.072417336429867677e-03
1.582542746306398124e-03
-2.464405781689910416e-04
2.936008166089739552e-03
1.271800108058168547e-03
-1.857338578555765190e-03
-7.063187635856702212e-04
-1.618686307119103192e-03
-5.748969826597753394e-03
-2.154264352525193417e-03
5.695092463385406992e-03
4.448154975157134032e-03
4.350672043975984185e-03
6.271305974541980556e-03
1.103403980933355399e-02
6.224122130499174302e-03
-2.065504549746897955e-02
2.202993629764467970e-02
-1.552124476960471677e-02
1.849250488129828771e-02
6.313373198457419497e-03
-2.226028991866815104e-02
2.005996665717676986e-02
-2.333277652970694102e-02
1.765531563581537039e-02
6.913547018334891686e-03
-1.191830220873012387e-02
1.874350034584483515e-02
-1.360662889967856337e-02
-1.305495178339821259e-03
1.815801174809082014e-02
-1.664126843813214934e-02
2.474837517951533616e-02
-7.831377629662849248e-04
1.344060552118743826e-02
3.954497769079949425e-03
-3.504778076988096513e-03
1.431027435983716137e-02
1.918021270405188480e-03
-4.154298800151331322e-03
-3.910840711545451528e-03
-1.068957585853709709e-02
-6.055356994820206701e-03
-5.045852196673004247e-03
2.948079484343075780e-03
-1.310393092183913602e-02
-4.575478472706774775e-03
-9.224421611019658490e-03
-9.574759600917125482e-03
-1.048877277086955086e-03
-2.167727132761636602e-02
1.221502264629142779e-03
1.172136270405374839e-02
5.895324564105828419e-03
7.872354120507869119e-03
6.037337512390605898e-03
-1.059459253433990165e-03
7.645251555637275383e-03
-1.449786602092109460e-03
-3.311703399012205480e-04
3.784170907612471185e-03
5.404177536541787154e-03
1.047403730288971185e-02
-3.594865041977844959e-04
-6.349400969932774558e-03
1.882184781422684334e-04
-6.797625350313607831e-03
-6.329917641637856571e-03
-8.768038746265584618e-03
-4.055408363136895483e-03
-5.189209751771314653e-03
-1.378361061810761366e-02
-8.292821354414258925e-03
-1.629289475643859062e-03
3.860395206327179272e-03
-4.090832697336972863e-03
3.445014454027243468e-03
2.981548115832108759e-03
-6.403591246032381244e-03
-2.215833676935655486e-02
-4.836114362369181574e-02
-2.864911740950298186e-02
2.615799985088177078e-03
5.675058593457980860e-03
-3.484123729242240915e-04
2.797311091044738310e-02
2.889610635560967491e-02
1.890889838713339169e-02
2.077794881872283006e-02
1.955323855348376286e-02
1.722968566938814020e-02
7.104182578278953920e-03
3.804648619325731208e-03
7.051100530651528177e-03
-6.204207162909342911e-03
-1.004992062682324820e-02
-4.058270150012731510e-03
-3.786846837359129046e-03
2.542757934513651882e-03
6.121625452551243338e-03
-6.343992538993030450e-03
2.013886566617124202e-03
-1.906809483005065826e-03
3.851785184389091166e-03
7.072970130504170443e-03
8.725095994570001429e-03
-1.854657445972863897e-03
-4.149755360602295183e-03
1.643791428433715937e-02
-4.218702009810199917e-03
-6.579742707762416785e-03
-1.678339613609962366e-02
-2.698071940414359902e-03
1.872541854131292739e-03
-8.504242272062726912e-03
7.663407330055089714e-03
-6.827859843074803470e-04
-2.842239859412504146e-03
7.903965597689320555e-03
1.433186335710862893e-03
-5.817436816716164798e-03
1.008896616183312112e-02
7.941607108687701033e-03
-5.574897881226429817e-04
5.642363471477078798e-03
-4.625418318710362853e-03
-7.850912127541775573e-03
5.305448154183318825e-03
-3.760826172179056268e-03
-1.987174326423956847e-03
1.203101838702542829e-02
1.285653903031514465e-02
8.133072496385921821e-03
-2.455495481451043342e-03
-2.154341649729301506e-02
3.909327928125949994e-03
-1.034461035684605852e-02
-2.399131248134450580e-03
-1.472043880603091798e-02
7.791402134939963073e-03
1.441622780521158598e-03
-1.056026720251221004e-02
1.216605257070420623e-02
1.530270371608556147e-02
1.066921449580754237e-02
-3.211229297624383812e-03
2.027292386678715939e-03
2.008280659063980348e-03
-7.553383908267410386e-03
-3.416130325363201086e-03
-3.891113139450126223e-03
5.759092039793980121e-03
-1.652890001027838580e-03
-8.075369594511822360e-03
3.196130821004511922e-03
1.668646380934511991e-03
-2.865001822136876205e-03
-1.810249657488300452e-03
-9.171427151579212948e-04
-2.219794267147190035e-04
8.804102786445033510e-03
2.116544080840793499e-02
6.512610852776800838e-03
-6.757707721215614957e-03
-9.862175281505921806e-03
6.025534049204685390e-03
-4.083201516209728453e-03
6.164900951582999965e-03
1.505913537007058656e-02
8.805577011657101478e-04
2.664501229299919872e-03
1.488171643498292090e-02
5.072971349359309615e-03
1.496255144007079159e-02
-7.674794710287770739e-05
4.738792263639097016e-03
1.080175808998982620e-02
8.828370036859602490e-03
-7.597563201162846683e-03
-7.577918171743988282e-03
-1.100056416251981618e-02
-8.144964952513001830e-03
-4.044811399488405616e-03
-8.982726448684507856e-03
2.411792065720564249e-03
7.589889775065345075e-03
7.270834015947508396e-04
-3.098131808751010234e-03
1.429899428525019606e-03
1.184268533962187613e-02
-1.266456247847681099e-02
-1.388900187890658097e-02
-4.735811880987444266e-06
-1.527985291467373781e-02
-2.096399939523336392e-02
-1.640327713622354716e-02
-2.046310451038990848e-03
4.434728623216015013e-03
-6.718358892169276619e-03
-2.265630059876362797e-03
2.283470110816021408e-03
-2.908568190213844506e-03
-2.785830523377666283e-03
-3.599960183187238304e-04
-1.426046811487466240e-03
1.204866311710260434e-03
1.571543583300027752e-03
3.762938544941834239e-03
-4.350575275714431943e-03
-9.052206254267043326e-03
-9.914281967320050931e-03
-2.246220111291995312e-03
-8.640980046292087713e-03
-1.283952673229270432e-02
