-8.111020920877749785e-02
-4.958708950457343251e-02
-6.110890017193442575e-02
-1.195815199214400187e-01
-5.896744057122575017e-02
-6.553641998109342726e-02
-2.340096785509407362e-02
1.081796757908211164e-02
2.159907373441905844e-03
1.222029891011312992e-02
-2.902381534560000489e-02
-3.052932608140308118e-02
2.222117461579879022e-02
9.613178971092347161e-03
2.818726850476796324e-03
1.789182118702229221e-02
1.322144984034123207e-02
6.082844528970072183e-03
1.340436038419118812e-02
2.552672542476600720e-02
5.629849237518710567e-03
-3.393979363428792796e-03
-4.457226844031987427e-03
7.661779773673779194e-03
-1.246135377293001653e-02
-2.131786998608975817e-02
-3.287154218815924612e-03
-4.263089800933962670e-02
-2.848485973818118411e-02
-2.010562865063810975e-02
4.993972541563451370e-03
-1.361726029751064888e-02
-7.606344206041754964e-03
-1.140645161986071458e-02
-1.719648089953088391e-02
-2.045687629078204312e-02
5.864067828572972971e-03
-1.775781341098773766e-02
2.749011040522191321e-02
-2.496001345786839215e-02
-3.240166041919533696e-02
2.443770049353784571e-02
2.257695244287789491e-02
-3.714708898404271709e-03
4.772685478954352689e-02
2.957336680434727305e-03
3.509782295267988017e-02
1.829668144938731075e-02
-3.296513535200230188e-02
5.235647785587355975e-03
-2.368289027330543889e-02
-2.843553875280836404e-02
1.157419052916462037e-03
-2.157033901762181460e-02
-8.807273737942104136e-03
-6.135710851773708285e-02
-6.889200440607282094e-02
-2.515099997902753293e-02
-3.908720476235070379e-02
-4.303777688857927247e-02
-3.067931369363887870e-02
-3.893215475491623723e-02
-4.753221452654698975e-02
-2.172443029527663938e-02
-3.505918840727610154e-03
1.303381962831619278e-02
-2.342567590681679870e-02
-2.598674360057962041e-02
-6.826626337115179223e-03
-6.393352645664901468e-03
-2.107023385853352970e-02
-1.655405645663330164e-02
-1.010396754143847754e-02
-9.984120430720912903e-03
-1.660899695734446152e-02
-2.142747620196894243e-02
-3.533695280688408519e-02
-2.996353056958616853e-02
-2.002592046068249476e-02
-3.235777173263696543e-02
-4.104304521885558665e-02
8.452284032036194023e-03
-6.588527834584163856e-02
-2.363431664421754286e-02
5.127078507680868369e-02
-1.295288773680718965e-02
-4.901276356243367688e-02
5.653895690202943164e-02
-1.090813860604556394e-02
-1.086546577002506057e-02
-3.434134137202846798e-02
-3.381517990028324455e-02
-3.541765369735957319e-02
-1.412314652167967650e-02
9.136068530570966295e-03
-9.018735556592094842e-04
2.767831132568270708e-02
2.675476315442168462e-02
2.865781308061889771e-02
-3.808709258186811220e-02
-2.649098413111114492e-02
-1.647184877510255926e-02
-2.266498195437764360e-02
-4.268681384774788284e-02
-4.387469061340572990e-02
-3.876335037221784532e-03
-3.771316532064548227e-02
-4.273233916907970276e-02
7.303027921523891353e-02
5.463996836655229949e-02
1.795771309947624683e-02
1.544496916113434481e-01
2.041798054813121488e-01
1.582580833563449474e-01
2.719152118695144713e-02
7.218172334028510884e-02
9.012958266038045840e-02
3.064488397096946232e-03
-6.478599425106590370e-03
-5.410061265930418174e-03
1.528681498294876440e-04
-7.605126241768933593e-02
-4.771566407280849326e-02
5.590581326536098183e-02
2.826769008026827276e-02
-1.385055926288179112e-02
-2.335219191137550762e-02
1.787078197524373047e-03
-4.094418734518319447e-02
1.420755248755556192e-02
2.353863314749271921e-02
-1.740636723073982900e-02
8.203304172977781208e-03
5.329565256763749842e-02
2.706380328219564618e-02
-4.968404501679330593e-02
-7.252841210709101705e-02
-8.272528992500352563e-02
-5.165168011430386341e-02
-9.709752501211033060e-02
-7.424088769044380476e-02
-5.329960827161021875e-02
-7.179803968247021329e-02
-2.484503684541250132e-02
-5.576186187621025997e-02
-5.447471656837597070e-02
7.419977705553039080e-03
-3.570166267392601428e-02
-3.060559718735339149e-02
-1.908710810348094710e-03
-4.215827291437632129e-02
-2.646718347560506057e-02
-2.257466809932418342e-02
-4.526480198976347291e-02
-3.285769571444405179e-02
-1.942703442826631752e-02
-4.554986481418218935e-02
-4.769910144968608073e-02
-3.575778837601831239e-02
-1.470848502289463094e-02
-1.939560016997929695e-02
-9.163690214937411996e-03
-7.482219650696288540e-03
-3.570457660853187248e-02
-5.271451134010352035e-02
-3.215713450163293179e-03
-6.162636966361440677e-02
-3.749933687375990587e-02
-2.842283369596469017e-03
-7.614053450337593398e-02
-4.941091573596251285e-02
2.673035857464496276e-02
-1.288183453655524120e-02
-1.540373925117747601e-02
1.423673561812375914e-02
-1.952905309059019962e-02
-1.628597447289441627e-02
8.818928570479127663e-03
5.908405532826575650e-03
-3.209907322225320769e-03
-6.065095194655844429e-02
-7.796313567748065776e-02
6.090045721973231380e-02
-2.712577648103845981e-02
-3.029848357800278558e-02
5.355892580437137535e-02
-2.977838097650279542e-02
-6.110853026831865320e-02
-3.385340377718298183e-02
3.172270761678785272e-02
3.030992039387810782e-02
2.053137336918733555e-02
-3.171437950109567017e-03
8.546067884967706307e-02
-2.768039335460575207e-02
-4.396030140820155613e-02
1.135560617864772234e-02
-6.414964830595235035e-02
-2.233579340312432174e-02
-3.532902026158917658e-02
-1.750657638496779314e-02
-2.615857364387393427e-02
-3.612424660382375363e-02
-2.851107307114849124e-02
-1.002388522039719849e-02
4.669428469913516899e-02
5.831678464051928690e-02
-1.197449629664257692e-01
-1.070527999059303348e-01
-9.644299943663971197e-02
-8.502418050458368515e-02
-1.157066814085608852e-01
-5.948759752591008254e-02
-1.177875523068172038e-02
-5.298509357032286926e-02
-1.252999580553141624e-02
-5.489354861874234243e-02
-9.351442117702984946e-02
-1.854884247954134008e-02
-5.319864723166529974e-02
-2.217670767175126956e-02
2.701981192851125868e-02
-2.435833125607913055e-03
1.240010981264400534e-02
3.672723932128030971e-02
-4.211305559442252155e-02
-2.205102348197686760e-02
1.616381116161786854e-02
-3.728535593599598824e-02
-3.831128738885929141e-02
-3.543537434527094243e-02
-1.674133488277068996e-02
-4.183103805813852966e-02
-3.188121811029311775e-02
-1.105950059894027964e-03
2.323467277774021299e-03
6.388660456044131276e-03
-1.844293529981985008e-02
-5.584703935534189936e-03
6.837225962970319530e-03
-9.987630136619761456e-03
-1.487852141110513303e-02
-5.533486325989411467e-03
-8.982070559215957206e-02
-1.208626395748639559e-01
-9.420543434712209951e-02
-1.131852975786220988e-01
-8.301649314944400948e-02
-3.439325621214370243e-02
6.943676674535388671e-03
6.085406073764008245e-02
3.176865115567709813e-02
-7.205583230644800607e-02
-5.576865602425500751e-02
-2.607351694959643071e-02
-2.133039084603088539e-02
-3.323286856947488960e-02
-5.700322519489770673e-02
3.421286856193436060e-02
-2.955248461287907427e-02
-4.421184190616749693e-02
-1.784422591525283708e-02
-4.029602109228246076e-02
-1.959091531834828218e-02
1.475309086952440209e-03
-2.616991534167663336e-02
-1.411507356399184336e-02
-1.090799457010701613e-02
-1.770177527791468031e-02
-2.835244330259978005e-02
1.292856166718564688e-02
9.736361404575608058e-02
2.080349485139149079e-02
2.515426569952104036e-02
8.910555356896968093e-02
9.271065383579768851e-03
-1.010396557868459694e-01
-1.059895021486316063e-01
3.774003693106778301e-02
1.269978760441230724e-02
-1.964800126003090827e-02
1.046070470222149572e-02
1.167061458802632137e-02
-3.145242734870382778e-02
8.670847245203618450e-03
9.843612315799280671e-03
-4.171807402331456638e-02
-2.826040826337498143e-03
-1.408304985864520208e-02
7.663130441474027242e-03
1.822918827956600957e-02
-2.294944310761910800e-02
1.865091035635906350e-02
3.083885942568252801e-03
8.693904732395349791e-03
-9.372462851950386781e-03
-9.329274648886689419e-03
-4.450296828491877299e-02
-3.710087636166504305e-02
-3.372864271642856543e-02
-4.939791085826124306e-02
-5.175478497169685999e-02
-7.361729095719492244e-02
-4.098787312090439866e-03
-1.028478004476301999e-02
-2.831456320939412449e-02
-6.506613625161612215e-03
8.703390757151480486e-03
1.269334113465535839e-02
2.042141763454316528e-02
2.393397934282866582e-02
1.453921125479384902e-02
1.045727528072317759e-02
1.916371489505878586e-02
7.403817808860777873e-03
-1.029687990896122757e-02
-9.226215511444466055e-03
-1.466583800103019725e-02
-2.065584814822870457e-02
-2.296647300698322416e-02
-2.118766231520444882e-02
1.514692456992198545e-02
7.177333586081219297e-03
1.455758316398291126e-02
2.211487102640375541e-02
2.201898420665368214e-02
1.960570088469303779e-02
4.665278341004606283e-02
5.104020486955363617e-02
1.978637012393559547e-02
4.038084916455514373e-02
3.785995619061372636e-02
1.003656359982985080e-02
-3.776668992968732624e-02
-2.604003760611617660e-02
-5.462148718664975450e-02
-3.474289852758526143e-02
-2.356727531370362509e-03
-2.414412426935291095e-02
2.892223670596463792e-02
4.314010597907746991e-02
2.896869003075355775e-02
-1.074712078332305115e-02
-2.370740055097474847e-02
-3.005748991477348933e-02
1.353124677574185468e-02
8.137439394126121713e-04
-1.193942403056870265e-02
4.875210362678551734e-02
1.665908842407202300e-02
9.557728023773782999e-03
-3.033169294587647821e-02
-3.304708464185548283e-02
-3.248583336182574860e-02
-1.632279021884818632e-02
-1.872968266231006540e-02
-2.893282346497310503e-02
9.238459095749100569e-03
-1.512732264060129804e-03
-1.954145364196557474e-02
-3.728343449373491825e-02
-4.878411152546615476e-02
-5.684868718986080260e-02
-2.434049944091856016e-02
-3.419522786436540729e-02
-4.884145771442528761e-02
2.398916786369650889e-03
-7.761067916941772477e-03
-2.542947850844779964e-02
-8.482721536981038812e-02
-2.304338379536527426e-02
3.165920259419667537e-02
-7.917811926969536840e-02
-3.360246019597572242e-02
-2.001447944159821107e-02
-4.789975380392065551e-02
-3.732008623169853767e-02
-8.282926449047396406e-04
1.211195908508648500e-02
3.681226523435153497e-02
4.893940141154266149e-02
-4.711642820636830452e-03
-9.888996025272683843e-03
-3.877604556959633568e-03
-1.821272392815315860e-02
-2.042586238103802519e-05
-3.460464725118234889e-03
-3.951498591869639920e-02
-2.421543432873905777e-02
-2.459486536434489501e-02
-2.924507561654635796e-02
-1.888541552984015007e-02
-2.123430353381216065e-02
-9.520531269302677860e-03
-4.671690746411087496e-03
5.822110221654227223e-03
-2.008394913702414228e-02
-3.142624536714325179e-02
-1.387719413737509289e-02
-1.394561983999329999e-02
-1.398845465335807857e-02
-3.309010112738942910e-02
-9.775133615414906621e-03
7.438354185950583376e-03
1.473031171180415148e-02
3.312650648802774322e-02
2.952594950038141611e-02
2.158476905740587884e-02
3.268417333034419336e-02
4.389855991007349245e-02
9.848366164536374867e-03
-2.586112411639888281e-02
-1.598591402237382886e-02
-1.943979935300954587e-02
-3.066003179473011583e-02
-2.034978404937631477e-02
-5.485085949918702512e-03
-3.263204586109375027e-03
1.114566597091867480e-03
1.844044812570374767e-02
8.772519132878771678e-03
3.343580460035720792e-02
4.434195821417349220e-02
-8.855102821392416002e-03
7.894070609717775827e-03
3.046928348308880138e-02
-1.772995440303675937e-02
-4.736693421836489504e-03
2.404389224950204129e-03
-7.159644191856442789e-03
1.208769763792575140e-03
-8.882966479255266501e-03
-9.988756444081686031e-03
7.517483987889260998e-03
-4.485822074573693995e-03
-3.908860880365103152e-02
2.889805688684703080e-03
1.454657022197486556e-02
-4.577471950926512156e-02
-1.481364821992288893e-03
1.107568485589325094e-02
6.832854533760394575e-03
-1.213283570598313503e-03
-8.264054194795181782e-04
-1.666690592683068781e-02
-3.023667466841459608e-02
-2.922145325723549819e-02
-2.029345821095631872e-02
-3.520587636306728857e-02
-3.002874713781807439e-02
-2.737936714440128080e-02
-4.064475536552237395e-02
-5.259735933866484942e-02
1.049465495169337251e-02
-5.182462921043045311e-03
-3.380289561608916526e-02
4.429469109761310919e-02
3.266152901435499106e-02
2.487473009661015071e-03
2.147702252913327031e-02
1.075385011956162722e-04
4.088847355777387206e-03
1.180760345122218447e-02
-1.108865749310139655e-03
-1.248264496997399629e-02
2.408978189283459120e-03
-1.228767962421424727e-02
-2.644971581355768167e-02
2.638627862961189646e-02
-1.920502913725426891e-02
-8.109977530396300649e-03
1.272439836527270406e-02
-2.249742906311305926e-02
-1.207556990073720658e-02
1.355827922121429288e-02
-1.344088353653228630e-02
-2.333015580304849401e-02
-1.833909745324961010e-02
-1.849296755888080917e-03
1.358514741513652639e-02
3.286925496350354137e-02
1.421820399786286179e-03
-9.234410419469617215e-03
1.113120934584105326e-02
-1.649040768149932085e-02
-2.710167127919664576e-02
-4.463153369717947488e-02
-1.179931870257639424e-02
-1.966068657978298218e-02
-5.396168622082879451e-02
-1.348445126022334260e-02
-1.109193767121872433e-02
-3.707742447555401749e-02
-5.689592319817304150e-02
-3.623036803219339269e-02
5.287364413373366913e-03
1.316931226322229885e-02
-3.882919214505598914e-03
-8.261792002990127684e-03
-2.537969411244758462e-03
-3.932208242762365302e-03
-3.008367808239128735e-02
-9.138619039824850618e-03
2.614310794252773518e-02
2.162577843876955022e-02
2.628202866843070556e-02
8.363054328019535119e-03
-1.907402981565876204e-02
6.277242556954261941e-03
1.493650900163888406e-02
6.114931290405600274e-03
1.619848912524310749e-02
1.781228300391561950e-02
-2.579110691580561651e-02
-7.916484226938738308e-03
5.710443556383467019e-03
-3.118893049668977277e-02
-1.368394223392312842e-02
-1.044795338308425643e-02
-2.757909454078696573e-02
-1.151116797733541842e-02
-7.973764466411806251e-03
-3.313125982834418809e-02
-2.950595187414433232e-02
-2.133507310419096442e-02
-2.229889995644589520e-02
-1.936849427094310128e-02
-2.213321991548919052e-02
-1.131509828876654626e-02
-1.120510761147280876e-02
-2.619953332734179310e-02
4.380165025112443128e-02
6.433004915103585075e-02
8.865995063397660858e-02
4.746214412263534410e-03
7.092645362364118078e-02
4.983563128490994809e-02
-8.143833259016708404e-02
1.586785324334650041e-02
-2.069003735726921908e-02
4.056616348741060724e-02
7.418052943211611572e-02
7.667716543848453192e-02
2.855806115524876353e-03
5.619172702926038959e-02
6.155524443409100821e-02
2.979829847989500912e-03
3.619778774174690211e-02
6.776619531424976292e-03
1.191350214955501884e-02
2.685378458169380630e-02
3.488263180092977117e-02
1.128462278238949977e-02
1.499362810038656728e-02
2.865410476056948208e-02
-1.805733014052784621e-02
-5.311704751051394245e-03
-1.719727791542245698e-03
5.679147165554387922e-02
-1.333416855776814458e-02
-6.392468752410684907e-02
1.492318658328860639e-02
-7.670719982990288448e-03
-3.712851044065659106e-02
5.990107951530674463e-02
-2.019479529114184824e-02
-6.646542009438477505e-02
-3.228718853247549564e-02
1.622783291355266513e-02
2.345228429660317290e-02
-9.959342973296285081e-03
2.984479660056126027e-02
2.688081391634142628e-02
-9.037754402639718715e-03
3.814116355486889265e-03
1.772350006371177901e-03
3.412902720536263590e-02
1.135165685240584720e-02
9.135115845296042439e-03
-1.394778779784861845e-02
1.019448223684465138e-01
1.118276077651292194e-01
-1.064140918170810302e-01
-3.658807601496807255e-02
-7.147466353435233399e-02
1.789230014003531655e-02
-5.162188570717781561e-02
-6.925364654418102173e-02
4.217555508034488698e-02
-9.260277218745623096e-03
1.345568624456368236e-03
5.549122246574151457e-02
2.871631669793863958e-02
3.833030678404149294e-02
1.670169563902253532e-02
5.060362548429901859e-03
-4.709619441936977423e-03
-4.077704489189110104e-02
-8.595061154586088048e-02
-6.030545682841506605e-02
-9.768671823028205956e-03
-7.003937316506021749e-02
-5.876903060781303589e-02
-1.143017356771987153e-01
-1.290480971150320955e-01
-8.575599152917076640e-02
-7.874646363482330769e-02
-1.026854804868547050e-01
-6.934746590790481779e-02
-3.530082032710282758e-02
-3.408223930419392034e-02
-5.286049905123961501e-02
-5.003208578198001244e-02
-8.735880631379581984e-02
-3.319014387944651395e-02
-4.699791137122874551e-02
-6.954900692636557802e-02
-2.617789340286942254e-02
4.238135480581853298e-02
4.688216424823647005e-02
7.316210263749159393e-02
1.063378884526375995e-01
2.241451308186634753e-02
1.018669357777884643e-01
1.338365477317363661e-01
3.750787715028795766e-02
1.450862912655950798e-01
1.684550850936930855e-01
1.162608928275540854e-01
1.422147869229417882e-01
-1.617307169412898413e-02
9.584719312760626650e-03
-1.804807476825072143e-01
-7.874424505585850276e-02
-2.260730590585902956e-03
-1.425287881914285015e-01
2.114535328155755026e-03
-8.006108742341858098e-02
-1.051937624574879049e-01
1.314171777246167863e-02
-2.103599904208234075e-02
-4.621207623290018301e-02
-6.216538321157160513e-03
-2.417288039566044613e-02
-9.725644895504611739e-03
4.195628472215665733e-02
-7.502866305405269179e-03
-2.055184964748692222e-02
2.941172062846248748e-03
-2.360786018054942745e-02
-4.321895276749451037e-02
6.704045969085616063e-03
-1.107229580065598705e-02
1.187521158551469889e-03
4.372373012346490728e-02
-1.524364530220024411e-03
2.140240459261715748e-03
-5.584715487666309930e-02
1.411093389582449009e-02
3.385456004942928587e-02
-3.343494598197161577e-02
-2.293426343435032988e-02
4.682057697847314542e-02
-2.182051991352414178e-02
2.310379180524822513e-03
6.124681917517448004e-02
-8.851903870993026169e-02
-9.945196434461649193e-02
-6.731315198361767504e-02
-1.753827426012413426e-01
-9.624773585621262950e-02
-6.308918984652252260e-02
-1.170108930926032353e-01
-8.409890837386738149e-02
-5.199779979777593118e-03
-3.589778205055990656e-02
2.992965271079487191e-02
1.898784070275502320e-02
-7.405981685461727158e-03
6.411204156325892023e-02
4.001482797354226351e-02
-5.885303517111643151e-02
-2.273440081910641647e-02
-2.953838219536207912e-02
5.695385440927602100e-02
-2.250623685306794852e-02
-1.131095316289822822e-01
1.321551687252694729e-01
6.913147036518854649e-02
-2.029584492693897388e-02
-3.926060035096561041e-02
3.178213479692492544e-02
-6.831220702945761669e-02
4.274102745149493260e-02
1.311443262729295378e-03
3.985480814270767752e-02
1.169803731628438620e-01
1.033775251994459715e-01
1.200394704144661095e-01
1.022386779753332031e-01
1.295014781954840488e-01
1.085718841297530490e-01
-1.750317248250266022e-02
-5.312345612304358866e-02
-6.845216077815506617e-02
1.829785444560328008e-03
2.488990461934624532e-02
6.647695269128907347e-02
5.853032115719510042e-02
1.260192641742885200e-01
5.095424295170056933e-02
1.733999455274164159e-01
1.267486822964412896e-01
3.630075798153094280e-02
7.395750419185645463e-02
1.533090997083246532e-01
3.426789457381698711e-02
-7.355172851069179119e-02
-5.270273397185296083e-02
-8.433423931456174305e-02
-5.567776637269993695e-03
-1.386566516826711892e-01
-8.498961236376403883e-02
-1.104987850711591779e-01
-1.308893175014168853e-01
-6.788992222699610779e-02
-3.348963515920359152e-02
-5.882149035433526657e-02
2.242907684702088143e-03
3.504016864822315745e-03
-4.872558874459280431e-02
-7.381519199725947167e-02
1.362477475806681774e-03
-3.093566010789083887e-02
-5.081673446286216755e-02
-1.532658157150209970e-02
-3.628751885270833921e-02
-4.973566192879166209e-02
-9.944652400315497076e-02
-1.587876031395496212e-01
-9.302613975291251780e-02
-2.838578942766298296e-02
-1.091757644434818986e-01
-9.413264154261770378e-02
1.577845522400741496e-01
3.377576914669319641e-02
-7.011390294928454558e-02
-4.482975202489401269e-03
6.278784653562960449e-02
2.453998166362063652e-02
-1.228167020316071195e-02
4.718630007482638861e-02
-2.646663180914379885e-03
2.696054295118438179e-02
1.364017796597966591e-02
-2.441641404977740529e-02
5.703995697660048381e-02
1.354675336462167479e-01
1.483279823890188420e-01
1.137824869164806990e-01
1.587819988161645948e-02
2.569923981420965675e-01
1.181855679554987904e-03
-5.328701362272750264e-02
2.337372052029922098e-01
-3.791405555176472625e-02
8.733636249376813820e-02
-2.004393493148042341e-02
1.518558943138917094e-01
1.752896587446743648e-01
-1.486416894546428204e-02
-1.097235749968729634e-01
-6.269239941016532813e-02
-5.801650309194310989e-02
-1.506607892325289022e-01
-1.710553561004041212e-01
-1.206226021918762464e-01
-4.634880580760203372e-02
-7.163562143824921125e-02
-2.715939755989862578e-02
-1.438601212557271969e-01
-9.474156912349150639e-02
-9.825203626550410574e-02
-2.954135677922413092e-02
8.521223711688710734e-02
-1.979095181902259040e-02
-4.653819769473159507e-02
2.624984408904716335e-02
-1.426716164467846937e-01
4.436397101722788089e-02
-7.383189644996514603e-03
-1.162101621257250750e-01
6.494151277372683939e-02
-1.128185818782397216e-02
1.221531105942395279e-01
1.028470195619804323e-01
1.713654507407136665e-02
2.034229039526747329e-01
1.716960575904521724e-01
1.735887562433171272e-01
1.755542242862278279e-01
-9.374756375629537952e-02
-2.254316413533764135e-02
9.824048518589385132e-03
-6.360877139408527281e-02
-1.871239930127624809e-02
2.120862136603659728e-02
1.043200908841439116e-02
7.259112240291153151e-02
7.163168104908780587e-02
1.432786654700350312e-02
-2.271139029684315219e-02
-4.012611864661393135e-02
-3.043299763643364172e-02
-5.241386293314047318e-02
-4.147934812069573735e-02
-1.991250824280424783e-02
-6.359897829715473183e-02
-3.399260871401564577e-02
2.527481842374508861e-02
5.526446440354704226e-02
7.423691492048313523e-02
4.866264862396071922e-02
-5.563599197769191623e-02
1.818824072884915044e-01
-5.776593630135781754e-02
-1.028697117663922300e-01
-4.069512145211666432e-03
2.391374434382358138e-01
1.578006875790453623e-01
-4.422911517715174406e-02
3.130624478597566762e-01
2.032450317956700780e-01
1.053731200977994636e-01
3.224453488316859073e-01
2.774512169859917332e-01
1.601865618667940860e-01
-6.982762186036357843e-02
-1.250398339062916142e-01
-1.236602949794858297e-01
-4.049038278614792291e-02
-1.129196405615856547e-01
-8.473264304366617816e-02
4.361487506425677785e-02
1.667078576989510993e-02
5.482461665478043783e-02
-1.435006777024439018e-01
7.510329170973088775e-02
-8.369184012930581951e-02
-8.165013254946857507e-03
1.561636174529038856e-01
-1.626935078670506685e-01
1.014064938286311501e-01
1.934458578879741653e-01
-3.439173709853194510e-02
1.092830206789360478e-02
5.898480188113394695e-02
-6.037348521167295451e-02
9.724540911319731751e-02
7.867544981595842035e-02
-9.430713760119767419e-02
9.876111091246939089e-02
7.391723939514405206e-02
-2.409969019906106277e-02
5.567856549686962808e-02
3.459781371198078492e-02
-1.062063926121954577e-01
1.185400993504323250e-02
-1.443330558318517767e-02
-1.909155212128115231e-01
1.064411980782149353e-01
1.740921324522630431e-02
-1.239201261217900973e-01
5.073153731643512826e-02
6.735527890880817214e-02
5.732151007045628577e-02
6.133591994144815818e-02
8.317779220841375887e-02
1.502309220064416140e-01
1.361484498577053559e-01
1.110414828839609569e-01
7.924989881298055705e-02
5.112451458251281861e-02
1.915448138436220277e-02
6.867502948262674267e-02
4.441465623101059634e-02
-2.881626919733626738e-02
-8.677204123112260831e-03
4.669136547431765316e-02
7.343292393043747250e-03
7.686493091300049089e-03
8.306151018781415124e-03
1.548797253713196827e-02
6.397572739312022694e-02
3.305934403934160382e-02
-5.152836384004188391e-02
-6.436833349077912547e-02
1.617983497422958994e-02
-5.146201478250032879e-03
-3.205941271554162836e-02
-4.339090346223568873e-02
-7.771766513013476929e-02
4.800394312835366134e-02
-3.391912144749070074e-02
-3.934642894932173507e-02
-4.310055066037684485e-02
6.966545276882496474e-02
8.058676817877453991e-02
1.056795262488753190e-01
1.147526986068768962e-01
1.016077870732761818e-01
1.045304807155087029e-01
8.050736336219142808e-02
9.409360856004220230e-02
-5.793001546802603943e-03
9.795574928990771757e-02
7.513709147345180861e-02
5.629042582451602474e-03
-1.546284029106640145e-01
-1.490788044237835452e-01
-1.499817707008569978e-01
5.092168185237415032e-03
-4.517623436735129089e-02
-1.631088265110100244e-01
-2.115035487235436898e-02
-1.153454419591671068e-02
-3.101295561062504189e-02
2.391924244792056203e-02
-1.903536515054532474e-02
-2.719091007893116932e-02
4.609503836481881195e-02
2.525467578832727572e-02
1.688858827706486709e-02
3.309226271415380283e-02
7.535596912965521199e-02
1.003596107434773094e-01
2.637990348029584098e-02
5.527253967890414718e-03
-5.766319402320317471e-03
5.331766768866930822e-02
2.603778529653472812e-02
9.887285239908717022e-03
3.218755230586969884e-02
2.553028275358715585e-02
2.439229479588131758e-02
2.971585712108336733e-02
3.000301355024835234e-02
-4.283005717071176194e-02
1.421562071092954960e-02
7.021761083648768442e-02
-2.006330167207961979e-02
1.062736353568036196e-01
2.789532737788382247e-02
-8.067335492408241049e-02
6.270135486118151580e-02
3.037230090190727594e-02
9.782706916304742539e-02
5.508671763343444411e-02
9.216535258865386770e-02
1.152080465816189975e-01
2.244304438558156478e-01
1.453430123065360124e-01
1.555516933613489694e-01
7.203019379176936986e-03
-1.913919140765413945e-02
-4.281293117158258693e-02
4.110357087428206241e-02
-1.123739775074208275e-02
8.410809161613314738e-03
1.670314821074460332e-02
4.051912836133830104e-02
3.314813617370094070e-03
-1.948400506692258560e-01
-2.781175772731995233e-01
-7.693882405874340191e-02
-1.921697461464059453e-01
-2.087099550248781576e-01
-8.779382284334334707e-02
-3.034926143311561866e-02
-1.783154885215729873e-02
-3.871772189975447587e-02
3.270685656310406975e-02
-1.034329627279701770e-02
4.918671453775392416e-02
-3.577917612282039556e-02
1.951192377881174819e-02
7.130830725298958894e-02
2.048888950714613522e-01
2.069391609489024120e-01
1.542031267849977572e-01
-8.828038139745582324e-02
-1.327557182595734409e-01
-3.922387850673682286e-02
-1.203424697688319500e-01
-1.549343195610738966e-01
-8.720180381000629255e-02
-1.177587303698586219e-01
-8.649511535672409213e-02
-7.643473049952570486e-02
-8.902291282818953697e-03
-4.155070809909975488e-02
-7.236527418988097926e-02
-1.553893342049544705e-02
-3.432935263967685363e-02
-9.827755951615331498e-02
2.348280784644082853e-02
-7.019515875072770798e-03
-2.036693725832354751e-01
4.161165539489599524e-02
6.130126434257909818e-02
-1.530052077401762231e-02
4.049206549895848634e-02
7.377615561945495559e-02
1.100717657505236452e-01
3.560542966348048677e-02
1.757754713209024877e-01
1.513493461452579680e-01
4.799695579278050184e-02
7.053711657531758217e-02
2.599600182259412598e-02
7.217482334990703297e-02
8.196244986937034627e-02
7.596636820687616143e-02
8.997247695791725508e-02
8.003514704406716751e-02
4.494630814442931999e-02
-1.332055599688406790e-02
9.684329988156081467e-03
2.646351186931118413e-02
2.662831785440817473e-02
4.333322461067092707e-02
6.367717645385605196e-02
4.115531643651148402e-02
1.496175932212159831e-01
5.192600593639263434e-02
1.586401209097254225e-02
-3.826004601434693231e-02
-1.615650902107585926e-02
3.633574316679757943e-02
-3.894266077227249295e-02
-3.875346037347641992e-02
2.388685079622727969e-02
-5.093363311510153840e-02
-8.117870973520864564e-02
3.500618185491921608e-02
6.789349653930493167e-03
2.572927226898174061e-02
8.345977750475382095e-02
-4.278841423626953550e-02
6.127302671413592527e-02
1.202265499077089378e-01
8.965442706414745999e-02
5.551547121079133257e-02
7.288023433518474314e-02
-7.290727917968015115e-02
-7.370724802232755946e-02
-1.026708782890776300e-01
-2.230566162055253598e-01
-1.625973528263390810e-01
-7.018172641790203226e-02
-2.351211033185247323e-01
8.043626839389696540e-03
-2.130671767681808354e-02
-9.312274729094502379e-02
3.600340148711588667e-02
-1.244266737168640558e-01
-1.440489408215747669e-01
-1.144488359952894191e-01
-7.532015317903030527e-02
1.717793748276222332e-02
-5.004404331541206785e-02
1.834901528518212768e-02
6.238398784523076918e-02
9.270540984514862026e-02
2.806742069632935793e-03
4.659033379108041412e-02
3.240430565350146952e-02
7.928490756238401604e-02
1.805884086037891634e-01
3.736366887760122352e-02
9.483096525437412216e-02
1.292956646381419883e-01
1.693736989730928177e-01
-7.688846587361334098e-03
1.687158840312654937e-02
-2.373433571097875033e-03
-6.427319906110839920e-02
-3.604956871233279403e-02
-6.524385492632334138e-02
1.475505094504691965e-02
4.493118032868091694e-02
7.980871268714333222e-02
-4.282817970715651484e-02
-1.052654356258491200e-02
3.136505029698248570e-02
-6.050716572667160648e-02
-2.649089364824501122e-02
-1.147278789711057845e-02
-4.018361553400091879e-02
-2.751719594766355650e-02
-4.440193200104213672e-02
-9.925099373914387027e-03
-1.793347962782645966e-02
-1.997612754374006316e-02
-5.976397303958015488e-03
1.601744879100850533e-02
2.538808741163292929e-02
-5.505999530906992984e-03
5.650613954021750651e-02
6.850570821569727797e-02
1.326231606839886890e-01
1.240821429383808239e-01
-4.931795860956537936e-02
2.863310659160508975e-01
2.984476967865251074e-01
3.298695538694670915e-02
1.370993725359173909e-01
1.278866732846423160e-01
1.033249058716025209e-01
2.728806791702082998e-02
1.401184456436331549e-01
4.800579176329385772e-02
-5.682031739062816389e-02
5.273526119666357287e-02
1.486513481341039944e-01
-2.820026475627617629e-02
1.219156815261853398e-02
-1.120762734087238019e-02
6.719340263171581784e-02
9.522120380202188372e-02
-1.060515505171757099e-02
1.941122722822449104e-02
5.370645039125697406e-02
1.172608421700307990e-02
9.676029148809624225e-02
-6.678396783002047386e-03
-3.960553333425293615e-02
-8.389429680512106025e-02
5.766061386215604913e-03
-3.599261598150965691e-02
-8.851346975909129070e-03
-2.163662766282015981e-01
-1.435439986200014728e-01
-2.113489913110975713e-02
7.956441179604119632e-03
1.715961689789684622e-02
1.613105875935050065e-03
1.130996478019261620e-01
3.375883074422619118e-02
8.648377850385501053e-02
1.790228526455204527e-01
1.400098806829252196e-01
-1.821642920448672195e-02
-2.961878646965736966e-02
-5.190618496303604085e-02
-4.813000682871400489e-03
-2.778718887209104954e-02
-2.042180017021885327e-02
1.700795077139783187e-02
5.641161856175120823e-03
-1.068642119775601619e-02
-5.249508271537790122e-02
-4.101408605065730295e-02
-4.707025398427892166e-02
-3.658701117249198165e-02
-2.616249776324335030e-02
-3.178666107782134737e-02
-2.373213151140000227e-02
-4.542581785767919986e-04
9.648257067863753172e-03
-7.742644417968377706e-03
4.795043976015878930e-03
-9.391910365957781281e-03
1.183072751968040383e-02
4.855932892784819294e-02
3.436531475911603489e-02
-9.687803881944161838e-03
1.301932713040996475e-04
1.214414365423664016e-02
1.024127394522631254e-02
7.676926322586091235e-03
-2.416235885387422750e-03
7.559210406974996473e-03
1.074370542483193795e-02
-1.153325116696630190e-03
2.959298114234952884e-02
1.635172219784633910e-02
8.273410978282073544e-03
3.558910840970712103e-03
1.388046037291059765e-03
-3.096059385556195961e-02
7.835704290360633734e-03
7.371292923907717468e-03
-4.702519964829177546e-04
-1.751341722660388830e-02
-2.856959015524932616e-02
-2.283033238121775707e-02
2.769394666547811065e-02
-9.196956303209496628e-03
-1.395559021366528027e-02
3.330005010759862910e-02
-3.046753298364321752e-02
-8.895216736446009270e-03
1.366060944007620355e-02
1.062872023735550453e-02
-3.110822993832602218e-03
-6.673323204993654098e-03
2.259119922959335058e-02
5.833196321675313684e-02
-2.527812537082749222e-02
3.095896441754986822e-02
6.418038155336190653e-02
-1.197471423979608665e-02
2.530088500959596851e-02
8.020570621289691005e-02
-1.463583076854681198e-02
-2.952337596420388788e-02
-4.064039088694572366e-02
-3.034384353328168152e-02
-4.756463790415619425e-02
-5.379767538830907553e-02
-2.479423477463753994e-02
-3.873426765838068608e-02
-4.307510444940910316e-02
-1.983050271955544286e-02
-1.794059888053875507e-02
-2.009008794290161742e-02
-3.327674196635665299e-02
-2.219544933849525170e-02
-2.220049941790944517e-02
-2.506945981753565603e-02
-1.891345050691682628e-02
-1.294883106426244525e-02
-5.749412568848531052e-02
-6.585010342973109110e-02
-4.751149851315442790e-02
-2.768229313050406953e-02
-4.823469688187342896e-02
-2.506980905934495449e-02
-1.364985900585442488e-02
-6.731934336686127077e-03
6.708075443253479903e-03
-6.402020704686773797e-03
-7.896535785776878993e-03
-4.430046004649698665e-02
8.973435117495799640e-03
1.845319908178195837e-03
-3.456179434436874170e-02
-8.337603336901165674e-03
2.819857858274109168e-03
2.692405809499650183e-03
-3.062957475539384786e-02
-3.437067551375935781e-02
-3.775184830623930926e-02
-2.988659601622432882e-02
-3.100205185794846063e-03
-1.623802470562995051e-02
-1.512434935435690020e-02
-1.178498487736664470e-02
-2.568414897036474034e-02
6.914169784071404201e-02
3.345388148294909519e-02
-8.441996213134510263e-03
5.392729873554698988e-02
3.245491813920962226e-02
-3.833059554893977761e-02
1.244549219872898059e-03
-1.405469775434540700e-02
-1.163205981665012614e-02
-4.347562374092128930e-03
-1.859560510775771017e-02
1.893857449130836867e-02
4.242776332999850103e-02
5.216272449784285087e-02
4.544667594978662323e-02
-2.743996859437077690e-02
1.678595939336412560e-02
3.350655914628274806e-02
3.994877961867805000e-02
1.164614626005642042e-02
4.436238297613197962e-02
-8.446339238578963416e-04
-1.650960734928999529e-02
-1.014651478646010595e-02
-1.136129617717170255e-02
-3.098863390193174264e-02
-3.671874068352460468e-02
1.371502152822351613e-02
2.304792716911233455e-02
3.188024502718632414e-02
-1.619139449632538792e-03
-5.305365535147502955e-03
-4.753285582821624618e-03
2.027101876858332808e-03
8.898589169622906150e-03
1.168502672933504141e-02
5.674684784692098083e-02
5.732337858255568547e-02
2.550334241477467817e-02
-1.475339241783723589e-02
4.078752239028592130e-02
1.625225363112408478e-02
-3.249024084146776015e-02
9.600893022242106695e-03
-6.197751205887122063e-03
1.436914393798029328e-02
-2.850045848900462780e-03
-9.447150564284809496e-03
-1.617307215686399416e-02
-2.554607632818840096e-02
-3.842132342878455675e-02
-2.957652821073238417e-02
-2.735563741036439039e-02
-2.775883065143487996e-02
-2.191432146624367264e-02
-4.144631778400636318e-02
-2.607158347826109973e-02
-3.105708636784792684e-02
-5.024080182693572982e-02
-4.560186358320632294e-02
-6.593302157709188260e-03
-2.229276246190367919e-02
-3.727888705035135690e-03
2.718323836925091216e-03
-7.210746999820650833e-04
-2.652131586865520002e-03
-4.223383985197581326e-03
-7.702201359416623733e-03
-3.696078561195167804e-03
-6.751621397438511973e-03
-8.459442234190976684e-03
2.348319066418014505e-03
3.786289006089358505e-02
3.132797481306495019e-02
1.930372822880667329e-03
-1.806414156363686865e-02
-5.395925757497938013e-02
-7.485950402582115804e-02
-4.174812484228514892e-03
-5.325843532181495643e-02
-5.065334424981523392e-02
-1.413708882511057439e-02
7.928418991860386802e-03
-9.849146098782307179e-05
1.092356817050178092e-02
-7.424918360948998090e-03
6.181969654153063320e-02
-2.855870259540917167e-02
1.653346613559325551e-02
1.802861210165727229e-02
6.581958548058552266e-03
8.735887480833847904e-03
8.514718856510386166e-03
1.955292940044266181e-02
1.813690920135627160e-02
5.853249872068681629e-03
1.827703015745707829e-02
2.428883152577120466e-02
1.669712877500482973e-02
1.096527257048380069e-02
2.900524467258827968e-02
4.360826385176343016e-03
6.525519571864641169e-03
1.553562122267864928e-02
4.498798004338519507e-02
-2.369038425966223896e-04
9.301018578147291632e-03
5.889139610184678658e-02
2.488167913869858416e-02
-1.705571548093566536e-02
-2.534221017153967179e-02
2.682299115778507062e-02
-1.599023496369871011e-02
-1.657795161452292956e-02
8.415950915994514780e-03
-6.038341281844774103e-03
-1.243607873928635407e-02
-3.122308871312301677e-04
7.184837435616967102e-04
5.519259324028031287e-03
-5.526382035738079852e-03
-1.955427280298517503e-03
1.440370387898622442e-02
-2.957564332197630888e-02
-2.696511650476070970e-03
4.023569890571816049e-02
-3.579141369115294846e-03
-6.980780802913965147e-03
-9.403044323393448464e-03
-1.000614850405767697e-02
-9.001813692735945865e-03
-1.180520983478298286e-02
-1.019791868135433086e-02
-1.348168086268153841e-02
-1.798019711672605228e-02
3.835841383747360528e-02
-6.014274985914335207e-04
-5.575066986730473767e-02
2.922125930198987004e-02
6.027643662411948274e-03
2.185198930234134168e-02
-4.086422381918244223e-02
-4.053937430054729146e-02
-2.251931862321780720e-02
-3.427804073078406615e-03
-3.278044150170381782e-02
-1.526615009928279382e-03
-1.983158044121235627e-02
-4.163263400409095844e-02
-7.187519634138249576e-05
-2.288539688734624045e-02
-5.856818994804433888e-03
4.132309434648853176e-03
3.752330382345875348e-03
-1.440283023881603480e-02
-2.652813036911207470e-02
3.918593159166485276e-03
7.904718757053374664e-03
-1.475896635996537878e-02
-2.513904892627289583e-02
-1.116443788952762965e-02
-1.193726716174703384e-02
-3.565674776355810122e-02
-1.382206307147927637e-02
1.709609897554693891e-02
2.620391719904969011e-02
-1.067957927217546843e-01
-3.529461293225182733e-02
9.279112224965029021e-02
3.693740676531272996e-04
1.041670903323411029e-01
-1.152920488993036327e-02
-4.529139832767987116e-03
-3.302668483089971768e-02
-1.355171884356017563e-02
-2.580627433164168691e-02
-4.723012638589511175e-02
-2.738049357128254264e-03
-4.221689305387374067e-03
-3.070267770810193586e-02
-4.048792644432101795e-02
-3.380205862288145763e-02
6.290948481920004276e-02
-7.278388324960183287e-02
7.703451919944706572e-02
1.499366984714226858e-01
-3.593960809740326390e-02
1.358627216594197884e-01
1.042021387015692468e-01
1.139237331180141706e-02
5.325016740221157063e-02
3.862266609492211872e-02
-1.320316924369167345e-02
6.295774424420814974e-02
7.504045391974445423e-02
-6.809686392130231969e-02
3.597787136324197559e-04
-2.280291648634709574e-03
1.486651303785452597e-03
3.454058287096405805e-02
3.122503951069917003e-02
3.388265540305310936e-02
2.381701877660222927e-02
4.217915253941671022e-02
-8.764684122938341815e-03
-2.378447143861295299e-02
-3.277468590637188511e-02
-8.639619572759600630e-02
-1.367528632743277295e-01
-1.100123879063274190e-01
-7.926625085463355480e-02
-1.464815604819362516e-01
-1.119301976786974406e-01
-6.477191040045148819e-03
-2.683876686373148912e-02
1.044191364186826225e-02
-1.744207447856047435e-02
-1.061830019215188187e-02
3.575261594942345800e-02
-1.504180963077292148e-02
-3.174511813683512235e-02
5.347660946316157987e-02
-1.098548104455761565e-01
-7.910761127144981530e-02
1.765041406660331977e-02
-6.796623507040762402e-02
-2.116677181643521199e-02
2.080153843265515334e-01
-9.116163631632609454e-02
1.103712461138516704e-02
2.488076247185811440e-01
-9.508360275233795900e-02
6.132664892875702017e-02
2.124369780381368256e-01
3.590891397993415703e-03
-5.022772344176445330e-02
-1.704724572465527999e-01
1.359544548543377696e-01
1.243226686471076980e-01
4.003095498230140742e-02
1.228515997781544911e-01
1.220643350978932035e-01
7.031261490678591963e-02
6.435355868674219604e-03
-3.583496340036316629e-03
1.189135916309206134e-02
-4.393236751799865086e-02
-5.388210094962485319e-02
-1.825627556037448182e-02
-2.652916061631607411e-02
-4.141574288482348376e-02
-1.809275070233334545e-02
-1.418983605693384950e-03
5.677742716735645172e-03
-3.724313508802577690e-03
-4.408452937517448600e-02
-4.388901827278773177e-02
-2.092092953988176213e-02
-5.951454353419882021e-03
-2.342283706279960076e-02
-1.939902895630516225e-02
-2.703478827321800435e-02
3.429364550955778246e-02
4.891268402063787130e-02
-5.483306433417369993e-03
-2.995143751440499172e-02
-1.270012193388554873e-02
-9.960767296620458289e-02
-3.121400076238337734e-02
-2.079195491415493369e-02
6.090187564723738289e-02
1.151259995534160280e-01
8.806334704755484910e-02
8.521129194188971356e-02
2.046228041275094667e-01
1.422215973879711048e-01
-2.308192262023283162e-02
3.045629238567499134e-02
-4.355912304525064171e-02
4.481021781261870091e-02
5.060918654464539174e-02
2.804416350823328574e-02
-2.245228911725959814e-02
-3.256682976716038236e-02
8.591684644467079135e-03
-4.479629546294016523e-02
-3.250818595892134011e-02
-3.765748491974224565e-02
-4.330621093995391108e-02
-8.371233442368566924e-02
-1.174920689421983383e-01
-1.476223751992200399e-02
-2.224632648597088536e-02
1.527146687061747832e-02
6.692495953750562596e-03
2.372704846075610052e-02
1.534362331785879552e-02
-1.389118065804671037e-02
-8.208770706759940805e-02
8.210020837071306532e-03
-5.216899269075871842e-02
-3.445483418657954711e-02
2.864802039851688589e-02
-1.534059468184664765e-01
-9.990353632600765255e-02
-9.518996149523466233e-02
-2.357290397503958301e-02
-3.598408783154810608e-02
1.429283507461874721e-02
-6.925116148932702886e-02
-2.406269379939331848e-02
1.626126291629529166e-02
3.435651339091921885e-02
3.787129382789731352e-02
6.641056753928993583e-02
-5.217393705380660163e-02
-5.134236599731475253e-02
-5.126269704823356588e-02
-7.978270605619516842e-02
-6.461850817960736182e-02
1.871662628089200073e-03
-7.764448024164162521e-02
-1.504160697292947733e-02
1.369099133363538799e-02
-3.298404610861424557e-02
-8.988122452816003916e-02
-1.114072061512695749e-01
-6.389340329908582694e-02
-6.060819269049692176e-02
-4.346506294762416539e-02
-2.468172805298834635e-02
-5.146419754447536382e-02
-4.005310572875592917e-02
-2.033246854154800720e-02
9.230816940312006405e-03
-1.535141856401517867e-02
-1.174561252540858025e-02
1.058796524298121454e-02
-3.729177297045236511e-02
-1.133425861145001372e-02
-1.929999519570162886e-02
-4.923126459219278467e-02
-4.719782753266443809e-02
-8.511272942181370704e-02
-2.743858402628041038e-02
-8.703404786070216559e-02
-8.943398796760805569e-02
-5.933728628768662750e-02
-5.158494255259582495e-02
-3.360708956918440071e-02
-8.327439326566370148e-03
-4.510864491622437050e-02
-1.470394653166341020e-02
-5.827279788589759778e-03
-2.838694948377595492e-02
2.505241610691604556e-03
2.704644964502871812e-02
-2.557488756060110127e-02
1.693223764266681836e-03
2.693302229421911873e-03
-1.071384018036765640e-01
-5.000512455485758845e-02
-3.160021777877258103e-02
-1.197924307981502456e-01
4.681658662091305392e-03
1.320820175069315101e-02
9.553034853907632629e-02
1.155162648433525896e-01
2.070737090195503838e-01
3.502782604314053517e-03
8.102353364004899472e-02
-5.526513573971808535e-02
6.444450810855484324e-02
4.140796131196737562e-02
2.525638756385140821e-02
-1.054847748426916525e-02
-1.828003682626918869e-01
-1.490264278051731117e-01
-2.518377013105777343e-02
3.505374183049373565e-02
4.207713995268061447e-02
5.099559889389575044e-03
-3.820184586218001999e-02
-6.257127573676021792e-02
5.647115989103632799e-02
5.798000125201460686e-02
-1.481058582138193580e-02
-7.642088101614132045e-02
-5.743896829319868058e-02
-6.217633222479909683e-02
-1.353473749718452079e-01
-2.979929030719374525e-02
-9.066120817602192627e-02
-8.620266237042839563e-02
-3.583634782201657737e-02
-2.613437947479578527e-02
-3.144786791371789042e-02
-7.893523002148410128e-02
-8.742387853502266160e-02
2.017336992614055316e-02
-4.307177976498282462e-02
-1.347007206516834255e-01
4.351515361820556399e-02
1.964523870280365098e-02
-8.692253721359260998e-02
-6.966164128873194618e-03
1.040843749612421071e-02
3.628133805466533801e-02
-4.151962334204432198e-02
-6.965081008158112777e-03
3.031679542288403389e-02
-1.677038727557789849e-02
1.557021187845467058e-03
1.937017194439517951e-03
3.959191263527470084e-02
2.896748363043812752e-02
2.551230779520986119e-02
-8.386145885487061510e-03
-1.602222823411903266e-02
-1.241432554141405457e-02
-5.547229356395097337e-03
-2.968562855695076885e-02
-3.434862926831101088e-02
-6.510376383992161342e-02
-3.424994710685754645e-02
6.972689711432095150e-02
-1.638663340656781042e-01
-8.285901061144389235e-02
7.228489324748790801e-02
-2.022176852581223094e-01
-1.328855802727950917e-02
7.133025028016710956e-02
-6.435591977270135877e-02
-1.152071505905811893e-01
-9.481836758516336283e-02
-8.948238656727973417e-02
-1.310725983220224766e-02
4.532073001187979233e-02
-4.541770056913741610e-02
2.142669881310802632e-02
1.126191122633692365e-01
-3.478435095669815680e-02
-3.100326346346990447e-02
1.389169706929837753e-02
-3.859917731836871174e-02
-4.954047895305550842e-02
1.779403255276456111e-02
-5.823711789714761111e-02
-6.066055654724996499e-02
-2.512776331644426750e-02
-1.170535466689144460e-01
2.931333389024010430e-02
1.494636999481456507e-01
-7.443615264720174207e-02
-1.284394967037429947e-01
7.434819914314699102e-03
7.017518603066240368e-02
3.410985437884007931e-02
1.727188095663964584e-01
-3.471551321476779722e-02
-3.954995757836023834e-02
-1.784470116444888954e-02
2.412365230203700542e-02
-2.535214949903066145e-02
-2.417175301909542731e-02
-1.082156845078709531e-02
-3.694158265864169038e-02
-6.863474713773218272e-02
-6.596180358584341485e-02
-2.331640489587268883e-01
-1.219155385287902654e-01
-2.746865444039395254e-01
-2.155517204055958091e-01
-1.710973767417540703e-01
-1.545035618009375777e-01
-1.713786424956827148e-01
-2.302385688223908267e-01
-4.704661178555730183e-02
-1.747857246702047215e-02
-8.720806670200388633e-02
5.026030563315827399e-02
1.474921028758175712e-01
5.461343285436361800e-02
3.356234513457562185e-02
1.109950417769444558e-01
1.215829327471695115e-01
1.106489881659118366e-02
1.023520833312992484e-01
1.467341113056574720e-01
6.521700680871271583e-02
1.706288113488584057e-01
1.903949196949840661e-01
2.967961254844780124e-03
5.285117414738309954e-02
8.712211340582159957e-02
-7.395139309810755401e-02
-5.228670005813094990e-02
-7.401307598793455123e-02
-2.417886517234578772e-02
-2.664290974302238948e-02
-4.498440216927750840e-02
-7.559340680748498700e-03
4.796283544024410039e-02
1.575288674259676253e-02
2.649430622000914504e-02
8.270950154836227697e-02
7.762226570139144077e-02
-2.522600352543130642e-02
4.403304863015288645e-02
6.125382446772208167e-02
-1.438242087216194155e-02
3.757224168189066127e-02
5.132697523201843609e-02
-1.371034411556763810e-02
-4.757924019175288621e-02
5.591182315629873723e-02
-8.696824619889310937e-02
-5.155834801006744378e-02
-1.475468430798995700e-01
-1.875544149746437642e-02
2.549463591080423919e-02
-8.054333088001189300e-02
-1.090455888628229925e-01
-1.928894498781612565e-01
-7.320094781089654667e-02
-6.468860094715019049e-02
-4.342874766861264113e-02
-1.705769652484012966e-01
-9.528691216240116335e-02
-1.420517995655865284e-01
1.912928825574000593e-03
4.772896656371349196e-03
3.600158027868626681e-02
6.517610980339028082e-02
4.391430603607092420e-02
3.742005611258757830e-02
5.195919717689075068e-02
1.138396451595222042e-01
6.525212878576358566e-02
5.619300983635783925e-02
-6.145932691145556542e-02
-5.284579976005051444e-02
-2.682460304463951326e-02
-2.635446671753580508e-02
-2.996933920641646834e-02
-2.209003665578555559e-03
-5.245492971556226999e-03
-3.022257590939133806e-02
-3.202332514026483279e-02
-2.136670316264174113e-02
-1.359985419766926995e-01
-1.633645374480676982e-01
-5.046245270902792457e-02
-2.178720324036223788e-01
-2.163602612647526624e-01
-5.748581752310393672e-02
-1.059821459105171892e-01
-1.999485745318357321e-01
5.421303968018795910e-02
1.778835621199617231e-02
-7.010286523214402654e-02
1.631168728170992455e-01
1.820470122145227410e-01
3.631165132538793222e-02
2.539850844340870925e-02
3.709137766648697848e-02
-7.565291253010417334e-03
3.999908990433897332e-02
-1.039535136950367200e-01
-7.961904432642838425e-02
-6.421582355280408723e-03
-8.687422736801846124e-02
-6.027034057961056651e-02
1.940888159732803014e-02
-3.902332362589387010e-02
-6.411264533204186211e-02
2.699538415226108989e-02
3.743628470641138187e-03
9.662636552478472141e-02
2.071218765815244223e-01
2.816501952675399267e-01
2.586297780986255290e-01
1.369190408919255808e-01
2.250674540504151167e-01
1.955726107771093014e-01
6.306733358534254152e-02
2.925876296422396522e-02
3.132764377929669192e-02
3.687453866565812421e-02
3.627525098744627252e-02
3.472446084765550695e-02
5.821283322277233385e-02
4.756762687611415519e-02
-3.688657634439668209e-02
-1.517631487846520522e-01
-1.799349096223633038e-01
-5.571076202823734003e-02
-1.310198139292906017e-01
-1.375565080701435794e-01
8.042176271299196488e-03
-1.525448809662416083e-01
-4.363131647178646738e-02
1.348942622096870221e-02
-6.031829888148229624e-02
9.061645886696450755e-03
7.475076929578554352e-02
6.606369290253225057e-02
2.167864694215351426e-02
1.244879749240269534e-01
-1.750593914252712713e-02
6.109538679113459686e-02
2.646419752628665495e-02
-3.215888938219209348e-02
-7.176027989551082842e-02
-9.319609362012434839e-02
-8.092537891645591730e-02
-9.290313811248308851e-02
-1.431035663758353782e-01
-1.660611092752884918e-02
-1.035573377939028317e-01
-1.092433447031379012e-01
4.768378902625368398e-02
4.566682547812063453e-02
-1.363649966460648254e-02
1.330526449672432554e-02
2.800657552425694224e-02
1.324861465869310671e-03
-1.489208991675907562e-02
5.515673886874180448e-03
2.567745206136873640e-02
7.734105002758016705e-03
3.661671304245469466e-02
1.019100735795884088e-01
-1.207430048333994060e-02
-2.855339505423803992e-02
2.033515185071855386e-02
3.619016223223753964e-02
-4.928552514228669301e-02
-5.961258568226606575e-02
8.838479921986693022e-02
1.199369864306806671e-01
1.346744236734072064e-01
5.965472414734017403e-02
5.238334414147410856e-02
1.471206560094822646e-01
5.560776567737504839e-02
2.641903843939639659e-02
6.158659366867318130e-02
-2.665365061030060961e-02
-1.043430131257864074e-01
-1.569494272890085626e-02
-6.644121791363898077e-02
-1.825365453618228717e-01
-1.084714835762617263e-01
-1.795072781359291769e-01
-2.062781056776950284e-01
-1.689749181084814478e-01
-1.024328704680054075e-01
-1.419912237099330010e-01
-8.221382963299074531e-02
-3.348804732676247814e-02
-9.877739091132391180e-02
-4.611194019710847247e-02
-2.253412868606076980e-01
-5.481746979571509859e-02
-3.222385383760470456e-02
-4.083482426722819664e-02
-1.520536213727899932e-01
-9.467080283634400628e-02
-9.189676761073310718e-02
-1.602352628635800857e-01
-5.362293774982018757e-02
-3.503739700422991987e-02
-6.932725336805634075e-02
-5.334293454200841195e-02
-4.914122060198038849e-02
-4.608033437145615807e-02
-8.112760243039944530e-02
-8.763041605395320566e-02
-1.492905958656137212e-02
-5.843769031397183858e-03
-1.012785237626071255e-01
-1.975706334976935416e-02
-4.220533520976865738e-02
-6.608450514499331074e-02
-4.827021402168817088e-02
-4.173785840047689738e-02
-7.464228521837765196e-02
-1.774185945881297799e-01
-8.951552128884443515e-02
-1.790026972312569742e-01
-1.630198228212258460e-01
-7.642437828763268270e-02
2.975883929412849460e-02
1.341923630067779448e-02
-9.697895063744078892e-02
1.287466325933012915e-03
-2.564595166754246244e-02
-7.333644879372819281e-02
-3.241841509359048509e-03
-5.449160374357422953e-02
-7.132405044366284252e-02
-6.779245855417426192e-02
-5.571542211494848185e-02
-1.838558243442929216e-02
-2.337405791772871611e-02
5.649406250823928513e-03
9.315272951007249821e-03
-5.811387491084752180e-03
1.578048484096158249e-02
3.018521877762832956e-02
-9.608299625131093424e-02
1.564275318427042413e-02
-8.630142152871318750e-02
-8.499101199860906175e-02
-1.329694460775163699e-02
-1.217717743265924191e-01
-3.623678418571415344e-02
-3.390940298375132167e-02
-1.453792279955323785e-01
7.695344309810797645e-02
1.400452157807275111e-01
-2.002290600902516260e-02
-9.156424617457320503e-02
-3.465447124783407884e-02
-1.979611292591993144e-01
-1.001299758076412555e-01
1.243444321286638239e-02
-1.151542297899376815e-01
1.299251152794766717e-01
1.073090001696885010e-01
5.499268167582617439e-02
5.261114805221153712e-02
9.419861058863245040e-02
1.288744423244230219e-01
2.983237272120281905e-02
1.331365818797524692e-01
1.746441033698712675e-01
-9.831902604759801267e-03
-2.709195706912166379e-01
2.199079631372607632e-02
-2.612129369105709031e-01
-2.290310712976881824e-01
-1.812023583191501863e-01
-3.314151400092135158e-01
-1.892888475869356490e-01
-1.469407392341339769e-01
-3.683927171984643228e-02
-2.372728748242146010e-02
1.589840585753909269e-02
-3.472053219423754805e-02
-2.008167634465769097e-02
1.255092956587099823e-02
3.761670755452468234e-02
3.755108942179059828e-02
-5.876430493207761285e-03
-1.200957037568766046e-02
1.565829266840971720e-02
3.830885079744288796e-02
-2.621681046112557534e-02
-1.208721165971671369e-01
-4.870224177822329165e-02
3.608950176925911080e-02
-8.190258056086224814e-02
-7.994240885249795023e-03
2.075967168907387819e-02
5.422562439541452756e-02
2.726352951602258046e-02
2.958712126860760586e-02
2.499097226736080035e-02
-8.134932853723009921e-03
-1.961042307430700335e-03
-2.160519180664926230e-03
-3.759533334434420060e-02
7.962167997844373348e-04
-2.783708365179615035e-02
-6.869913252192065035e-03
-4.309071795833679941e-02
-4.999181191744456881e-02
-4.180174853914600530e-02
4.153340245175011526e-03
-1.940720393777175395e-02
2.522397154318511969e-03
7.561921590865876286e-02
1.017425632325967971e-01
5.691772896314540447e-02
6.681703216862945605e-02
9.413568998433859136e-02
5.844062766176327806e-02
1.888132694841771625e-02
-1.152823788903862764e-02
-2.888677070862155638e-02
-1.234098383419522382e-01
-9.699880397052568215e-02
-7.814687670537771857e-02
-4.434191988672208512e-02
-5.495710560231373970e-02
-3.819786443447718144e-02
-7.437625941891415349e-02
-7.444964738263847026e-02
-4.708889021723730584e-02
-4.613648198223752050e-02
2.612321383059792567e-03
-1.332009451952788533e-02
-1.886495176536448146e-02
-1.860251498315736857e-02
3.269076577989010919e-03
1.580188477969677457e-02
-8.482444941580884884e-03
-3.240966774118041183e-02
5.687677543128930036e-02
4.480402933239558544e-02
7.051691355905886915e-02
-1.068035671925453116e-02
-7.034190601506641605e-02
-1.234944530955796316e-02
-3.385230245661391413e-02
-7.891729569469740913e-02
-5.218355229800503148e-02
-9.252224497801452008e-02
-4.292277221203606719e-02
-2.321914186277672723e-02
-3.430759929216390704e-03
4.272379148904923742e-03
-2.265567982351531298e-02
-9.437855219310786747e-03
-1.093620271277161854e-02
-4.694006294212901137e-02
-3.339716581307205362e-02
8.539224776373475698e-03
3.393530416571499675e-02
2.538360287928613859e-02
5.376059144559267033e-02
4.011825290260033483e-02
2.847486365838463110e-02
2.860053428876220549e-02
1.365945750643887159e-02
4.551388239330831156e-03
8.378120341264362614e-02
1.158306493875434079e-01
2.709033970634459887e-02
6.456058311634069180e-02
5.834628569342002052e-02
9.350249547398280237e-02
4.442192467033774517e-02
3.366590570582125852e-02
6.727335245312027201e-02
2.416025433631437819e-02
-3.561165345878690436e-02
5.056903044540410341e-02
-3.260028399396498050e-02
-1.239516054885571178e-01
8.416034229766207464e-02
1.557010541051213979e-03
-6.132161863107981475e-02
2.978058204198097067e-02
4.427062331865945499e-02
5.546960433409996866e-02
5.727149298909833125e-02
6.267715227942641243e-02
3.286546183942230803e-02
6.634293947079226983e-02
8.011407016343169429e-02
-1.003041057462641765e-02
-9.417714856599809781e-02
-4.837156320055301800e-02
2.243257462908199043e-04
-1.405903355436112501e-01
-1.428068367138727313e-01
-1.415155778838990963e-01
2.174321724565381870e-04
-6.902689204522055588e-02
-7.355612083507127863e-02
1.498764304166427114e-02
1.102636144481368777e-02
9.425395173434017448e-02
3.532090051425389871e-02
1.111556925929638867e-01
1.150565081589237093e-01
-1.845981950213803485e-02
-2.722954433652011175e-02
3.527638048532791976e-02
-2.773527495596286516e-02
-4.457295013577981108e-02
-3.037565307929093392e-02
-1.829155782159903876e-02
-4.882542498269684672e-02
-4.850722580743766638e-02
-2.606273022308404352e-02
-5.050862025922728260e-02
-4.587368699290112622e-02
-3.984731704440634681e-02
2.472324247421840704e-02
5.957259778854218091e-02
3.814123433471441893e-02
2.301205253182285124e-02
5.454021702560179347e-02
9.045720980121749188e-02
1.392096272762093079e-01
9.924590181433988467e-02
9.900324429535875548e-02
7.233301702988971515e-02
5.103787240519704754e-02
4.064427673462848306e-02
4.994955905041142258e-02
-4.041523998611636949e-03
9.573354741831604023e-03
7.775318927117653989e-02
3.508500220806023279e-02
2.134929619810743695e-02
2.892032425965767109e-02
3.424829710070997207e-02
5.511423838806574216e-02
3.924139299854561419e-02
2.932316266232326205e-02
4.048500360565675249e-02
1.798991849518024114e-02
1.455976262332783766e-02
5.588535376764299824e-03
7.407853812202752630e-02
4.194032352573400652e-02
2.267954843272660444e-03
5.068489598995075396e-02
-1.011871174684088499e-02
-7.771454517410430161e-03
-2.803683418637759744e-02
-2.884528542829402353e-02
8.600519133439616173e-03
-3.505397168115215178e-02
-3.196606158489036925e-02
-1.503500469882334926e-02
-7.451501907128930957e-02
-6.634354686548976643e-02
-3.597775004447679309e-02
-8.100892051995496612e-02
-6.510732288986459393e-02
9.874113012205691653e-02
8.047108252732725064e-02
7.258585341605407193e-02
6.044613593331722018e-02
4.175191102550571826e-02
4.569917559915607358e-02
1.031129101919173729e-01
9.467844498166026745e-02
1.458335668123630635e-01
-2.304319096584751467e-02
-4.620569827908346805e-02
-6.456908886699457006e-02
-1.004320413136455814e-01
-7.413250057987713637e-02
-2.135138759376912707e-02
-4.602288137469471088e-03
-3.299874603996403449e-02
1.189901630865500687e-01
5.977834439898347535e-02
4.724101032806826000e-02
5.278108628743998637e-02
5.899001727808831502e-02
3.958876714328538049e-02
1.609777632786832738e-02
3.709814184889034111e-02
-3.127400096132501583e-02
2.377514829899311441e-02
1.382769137586534747e-01
1.067812715798582973e-01
9.928678414974792185e-03
3.780753880755770985e-02
6.221196803715243681e-03
-1.515429301261036338e-02
-3.322247420331785744e-02
-4.595585881840454079e-02
-2.854326119607791465e-02
1.499569936473978127e-02
1.700902723117943965e-02
-5.297534802085399411e-03
3.401546246667178953e-03
-7.271992522730243158e-02
-1.064173709596131778e-01
-6.555510182547751030e-02
-1.497846893435425542e-01
-5.619772373371745983e-02
2.219349695650475740e-02
6.791845679430268123e-02
5.781460396866029694e-02
5.538277581591578846e-02
7.179327453227646316e-02
4.412871544834676141e-02
1.802246194660954426e-02
1.768433221567225488e-02
-2.824877043802189250e-02
-3.953253974843193297e-02
-7.253514152103607456e-03
8.922801202505999119e-03
1.000859242311918397e-02
3.405292292279506194e-02
2.360125542439056590e-02
2.660659321512861414e-02
3.943373020297306908e-02
1.614532532068135851e-02
7.379187007370183182e-02
2.186174598233562305e-01
2.551489268932665699e-01
8.416996049281685877e-02
2.615608990293299407e-01
1.299265760513323431e-01
5.467172131494207887e-02
2.266404095638407251e-02
-1.234208226189541062e-02
-6.253441007573805333e-02
-7.209874734244536842e-02
8.261080500302567242e-02
-9.863920795688453647e-02
-6.089376135158901249e-02
5.633571357449798644e-02
2.878805905827877196e-02
3.224477565503464094e-02
7.397402396116804259e-03
2.133150153587105163e-02
2.793248689219325967e-02
2.984136823439910435e-02
-2.851434653861054103e-02
-2.323002379488452521e-02
1.574247290121505438e-02
-3.468542104289328021e-02
-2.615958186622132156e-02
-2.069170800473594390e-02
-9.010537920380711635e-04
-5.490660062197291746e-02
-2.133763777973801332e-02
-8.987833818072960695e-04
2.403712007939885417e-02
1.505479508649434361e-01
-5.343285417118277120e-03
-1.708807976230233491e-02
-3.975410309478701054e-02
-9.894931298595517274e-03
-2.611089906997297524e-02
-6.346571078877777383e-02
-4.789707669736251866e-02
-8.525444258874137482e-02
-7.013025899899234805e-02
-4.583503177138387868e-02
-5.242021819090431772e-02
-8.016371633661782681e-02
1.254668792120077619e-02
1.058314024802734649e-02
-4.967714597045241182e-03
2.594861629841052966e-02
7.985677990300319232e-03
5.965444914126532584e-03
7.195394445910952182e-03
-4.165426498075907626e-03
-5.108441661380410531e-03
-3.684775239313404366e-02
-1.983240276254576509e-02
-1.658725362437075274e-02
-5.238054964201003388e-02
-4.901626146386852539e-02
-3.508860695160705839e-02
-3.289222682626929961e-02
-3.904859692235076313e-02
-3.695074464132076103e-02
-1.273120855703478715e-02
-3.219742361839583299e-03
7.017214406331810130e-03
-9.383507787447734755e-03
1.208439741616138853e-02
1.556281467869811974e-02
5.983845004708832505e-04
1.447720142301879565e-02
2.000117327157667491e-02
6.141892373829636008e-03
-1.286758109698592743e-02
-1.380222157482543892e-02
-1.556019185515416549e-02
-8.532867546373447756e-03
-7.023733996283918098e-03
-2.333341289743228950e-02
-2.194034967277488923e-02
-2.368874230692814137e-02
1.065557171228949211e-02
8.543389496928340682e-03
-1.942817807660152454e-02
2.952860671545695995e-02
1.706284504227128032e-02
-2.525059252254069266e-03
1.799077188297063673e-02
2.056351345192857297e-02
1.132006905666663914e-03
-2.371714615636724786e-03
-9.557433842380705716e-03
-2.312730753361445443e-02
-1.699288147146523452e-03
-2.898389010729669757e-02
-3.189439135451136494e-03
-2.271122025739769762e-02
-2.945298215307217901e-02
8.759285673141808254e-03
7.833127562672320687e-03
2.643812175675389411e-02
1.660467501829172160e-02
2.312178938537912815e-02
6.535344254332060843e-02
6.368725405570847820e-02
-1.617364632835454003e-03
4.730060412884446591e-02
8.699414533944979655e-02
-1.750836683758957499e-02
-3.385546673904889226e-02
-3.686342780188060081e-02
-2.656826852452236556e-02
-3.820043490340510606e-02
-3.914647098366368788e-02
-1.680006603255904465e-02
-1.822245609441295808e-02
-1.632464712546555924e-02
-1.991578701486241762e-02
-2.430209514159570663e-02
-2.874630756456659705e-02
-2.919906492462595940e-02
-3.252297788235586351e-02
-3.855425017346083422e-02
-2.634485933784313713e-02
-2.511841737929583832e-02
-2.243128795973212131e-02
-7.472991804309291053e-03
-2.818355203972386716e-02
-4.586395940011343819e-02
1.132801389354747001e-02
1.288657486647932799e-03
-3.662586833384443713e-02
2.278317923983165169e-02
1.503392785997478137e-02
-1.375034416888468169e-02
-1.027937289032180602e-03
3.020249326267577389e-02
2.052531824069635941e-02
-2.831230883188148861e-02
-9.720482926110671565e-03
-1.065063043140254337e-02
-3.468123202054321230e-02
-2.495172469151402811e-02
-1.556083739718687464e-02
-2.669497386650966295e-02
-4.269983979667875407e-02
-6.352586305355698015e-02
-1.756060025309389913e-02
-3.201591477951781783e-02
-5.020043607710154149e-02
-7.821407376225228761e-03
-2.092683769347545089e-02
-3.818438810196569250e-02
2.325739276886576792e-02
1.992862753263980463e-02
2.047926444798683215e-02
9.863480100811073889e-03
2.903414459309735379e-02
1.941944595313953303e-02
1.464150093540105176e-02
1.777413347076892483e-02
3.906282631694404754e-03
3.400733228778499845e-02
-4.013432829848713446e-04
-9.036828641190156747e-03
4.952915587150244492e-02
6.691118436461777896e-02
2.100125248262105920e-02
6.723466959768830374e-03
2.817583849917986230e-02
4.162052318545633040e-02
-1.082391039490533322e-02
-1.834088201645736995e-03
-1.996080794031961439e-02
-1.743516511806797800e-02
-3.513236096648772455e-02
-3.257901972115442857e-02
-2.408652365928975331e-02
-1.159528587580734363e-02
-1.110473930924952765e-02
5.172542062337051778e-03
-1.055028518024867315e-02
-1.940653731007528637e-02
-5.908629194045189083e-03
-2.211810942328592405e-02
-1.507369654557437662e-02
-1.105945906818430087e-02
-2.330968222291250613e-02
-1.253440229487278249e-02
2.952777712527024367e-02
2.830205817379957689e-02
5.809397461692926944e-03
1.352091798106315121e-02
6.473719108757682028e-02
3.442132965600821354e-02
-1.684096647695640771e-03
6.793966962269117060e-02
4.220117368484317677e-02
-1.373111086209233798e-02
-5.867246928062561269e-03
-5.321774348977189630e-03
-2.338075228023248422e-02
-1.796325805744045101e-02
-1.240545211480408548e-02
-3.129227369820027083e-02
-2.589282498486041029e-02
-1.949726480903803821e-02
1.159656542252579005e-02
-6.580881833174412505e-03
-1.067004998393879245e-02
-8.706228161425516934e-03
-1.090137983400996623e-02
-1.426535485559093062e-02
-1.490679508675220831e-02
-8.179406967327346872e-03
-1.653288744786985884e-02
-3.908465168102176999e-03
-5.227024711102571178e-03
6.951180126264421173e-03
-1.032146003326440097e-02
-2.836670137946116672e-03
5.453847853689237739e-03
-2.006179378892891663e-02
-4.935390247227073451e-03
8.321750468912415127e-03
1.159840700286079822e-02
-7.648695929229201024e-03
-7.243339264728204663e-02
1.330501246509261173e-02
-3.461408466119218763e-02
-5.199689329872152210e-02
2.671296004103456898e-02
-1.950654742876962652e-02
-4.187963002244804445e-02
-9.018864991961715594e-03
3.159066025703915342e-02
3.130764144436102431e-02
-1.828276345520465571e-02
-2.616834452200964001e-02
4.011390279917480955e-02
-7.947472889913558556e-04
7.412171526035265211e-03
2.956951155503412254e-02
-6.841440617812113816e-03
-2.462352782570095822e-02
-3.016955468648095315e-02
1.906324080406909469e-02
-6.295054170967419489e-03
-1.363682326749389440e-02
3.453098829315224931e-03
-7.515432429587072354e-03
-2.378498246015146866e-02
-2.113998083894347638e-02
-2.114418482841945099e-02
-3.749610734091119585e-02
2.224295890060387746e-04
2.574899382479349692e-03
-1.540395145432746707e-02
2.425612705489222157e-02
1.743837030293505369e-02
4.924675238399590753e-03
1.541647551915945741e-02
-4.381749226488689669e-03
-1.172643968914683851e-02
1.295663623003585896e-02
7.682440251760334383e-03
-1.403116209527938488e-02
-3.500048249787917481e-02
-1.284748743374828847e-02
-1.365053842605091355e-02
-9.940400142441060960e-03
-9.449343185629302533e-03
-3.332595415660193766e-02
-1.486827353342005421e-02
-1.059653895363897071e-02
-3.820473229045176500e-02
-3.131723392426831454e-02
-1.586000080405489468e-02
-1.793829673257746685e-02
-1.742223449910475230e-02
-1.894965397498134946e-02
-1.343009268934991507e-02
-1.141246342756745830e-02
-1.028022006122770657e-02
-1.263582656266685339e-02
-1.165971206946644911e-02
-6.279085713607894352e-03
-1.760505749674211046e-03
2.904741364090496214e-02
-1.193653257983564100e-02
-2.368133313258509107e-02
2.328230574675098363e-02
3.625993445429299966e-02
7.680783268976807462e-05
-1.095236282086200184e-02
4.660952693464403412e-02
2.008129080650909379e-02
1.256004926778412495e-02
-1.897096949820259795e-02
-2.636046881889272941e-02
-1.040893729676715430e-02
-1.241307994934204469e-02
-1.122167196895785743e-02
-4.069609710546540082e-02
-1.038762726752065491e-02
-9.547783126341106638e-03
7.157854006589017479e-03
1.450568108930940306e-02
1.338367409671722442e-02
1.432608854882295134e-02
3.821275129599167875e-02
2.477822496902138197e-02
1.867544859659146447e-02
3.326558855967792772e-02
3.548472582721039215e-02
-2.642596359064001716e-03
1.576328487261852498e-02
1.327398689090450445e-02
1.187368810150603651e-02
-3.545229599307709450e-02
3.651796117584955870e-02
-7.635724654852849881e-03
-2.291863208841023528e-02
-9.236033023328983974e-03
-5.357599239744800616e-03
-8.284544173134558362e-03
-2.191174804024490635e-02
-8.019874686712074111e-04
-1.531366896731918038e-02
-1.180875096819551315e-02
1.206241492440592381e-02
-5.909076623348539538e-03
-6.799452256535459642e-03
1.140757553482758986e-02
-5.936057916233625220e-03
1.593832352900747054e-02
1.977286791037067420e-02
4.139816201773595383e-03
1.322637234138400800e-02
1.633345452709410867e-02
2.308477723250322231e-02
2.187877433891976739e-02
1.624157243206200609e-03
4.879970198374223266e-03
1.193122309183487209e-03
3.279642896681690418e-03
9.573426668387039623e-03
2.784514608944864238e-03
-5.439189262860378085e-03
9.556468577546868223e-03
3.630377280437176255e-03
-7.843119507415724848e-03
7.969262764897710669e-03
1.761947799619013530e-02
-5.265320950080376768e-03
7.962529405299408058e-03
1.773793192326665255e-02
-1.374393161126808522e-03
1.604126329680212112e-02
2.725282574604933478e-02
5.605804500434563402e-03
5.413958616294471150e-04
-4.226136624905395787e-03
-7.705675012435105617e-04
-2.387122116440057017e-03
-3.363789857837475809e-03
9.932568275060227325e-03
5.940569100908696040e-03
5.843392091395439164e-03
-5.002365800908427189e-03
9.426010982248192796e-03
-1.067608911771579863e-02
4.598825584834576562e-03
6.132459957240673706e-03
-5.401590432247143844e-03
-3.008426829689482725e-04
8.856323871167772616e-03
-8.737573177501551866e-03
-3.609696722401795760e-02
-2.345090989525316916e-02
-1.100832721203843546e-02
-3.018214557580630938e-03
-1.790884370928772645e-02
-1.233816490142430975e-03
2.250725697975677984e-03
1.106892661714419749e-03
-6.344485055073710751e-03
-9.866032706881440809e-03
-2.409619351520638983e-02
-7.853065760205070120e-03
-1.902275086914565275e-02
-1.462016530904828443e-02
-6.959936317506908686e-03
7.305971148774363134e-03
-1.564037901701426786e-02
-1.293025248671404726e-02
2.485973238656402629e-02
2.413687880148043113e-02
1.475953421482767598e-02
3.410416710497798237e-02
2.857233146920714825e-02
1.430592440426926154e-02
8.506808890522748676e-03
1.517027081288208241e-02
9.547912223183248337e-03
1.646404013935304916e-02
1.565116735539288234e-02
1.426144682336713543e-02
3.159057902856259731e-02
2.799525761326369586e-02
2.142562090051190402e-02
1.071652585157997772e-02
1.346736177524416114e-02
7.755143592229602097e-03
1.552546716959804333e-02
1.287745214083683629e-02
-2.076910587049292031e-02
-8.071016297612509591e-03
-1.599409320333963769e-02
-1.612442361295701385e-02
-3.895176206348512082e-02
-1.478448006522094411e-02
9.965959088436109059e-03
1.550919405262318231e-02
1.045293311144359673e-02
-2.786921992820998173e-02
2.799933337401807817e-02
2.167997480625624002e-02
-1.660418047200987873e-02
2.762512899253979567e-02
2.324001608496054430e-02
8.353256287441376132e-03
1.938384016242857347e-02
-1.961723669424293368e-02
-1.816305879144528360e-02
9.703413759792797397e-03
-1.241906995775325304e-02
-1.168081692988465030e-02
-1.932004781482687126e-03
-5.093862764397085775e-03
-7.662011253637518796e-03
-1.730477573158678735e-03
-3.938577862889144215e-03
9.497032131709996078e-03
-1.605358451358805325e-02
-3.124419339757286002e-02
-1.485531085180027792e-02
2.367486392932961412e-02
2.640327610297352190e-03
-1.373196784443613677e-02
-3.518945166759038234e-02
-9.151276610174025744e-03
-9.494062803255041635e-03
-1.961144184859358111e-02
-6.387770748199038395e-03
7.659116241521832583e-04
7.093103882224160821e-03
2.325837321829502587e-03
9.869980450675556322e-03
8.868479663440115637e-03
-9.681295920430816118e-03
4.506366582202324042e-03
-5.444624829742030631e-03
1.702282918323177324e-02
1.690169687533726178e-02
-1.471111886547898928e-02
-2.294491870341476905e-02
-2.134919477523427797e-02
9.112901448137476421e-03
1.455072358961571020e-02
2.391451001638595503e-02
2.942895612753495052e-02
3.054256070185043526e-02
4.054175764833328061e-02
1.603303529762878724e-02
2.886434646835902770e-02
3.753686292295653482e-02
-7.702609255620470989e-03
2.381554376203326787e-02
4.151878225778940501e-02
1.336055074131996777e-02
2.383596246719538181e-02
3.032891369563317160e-02
5.352689200344726804e-03
6.093372887900421267e-03
3.938240862397643371e-02
1.426128389269043506e-02
1.908304768870897408e-02
1.474362769187538905e-02
2.929962075883599248e-02
2.802106300610445258e-02
1.792060381277379988e-02
1.183381548553734917e-02
1.397904639669845898e-02
2.152325045829248454e-03
4.237498296384620972e-02
3.865323066854420980e-02
2.956643137983719360e-02
1.379279668253562303e-02
3.714953929688807888e-02
1.921805986144457454e-02
4.713839347051634876e-03
9.787300613761136178e-03
2.362953844388548247e-02
-1.203838575676030760e-02
-2.096143888410518727e-03
-7.367836841124089436e-04
-1.020271731237584571e-02
5.784974211671628595e-04
9.985646268110997745e-03
-1.315845186245327356e-02
-7.245660197468674997e-04
1.579080892067205935e-02
1.775359405020389067e-02
2.504695719095017051e-02
-2.804239362428870980e-02
1.396442503102258981e-02
5.951783220372032675e-03
-3.308986046532132186e-02
-1.782142973868042213e-02
-3.190472766137675276e-02
-5.012834512525862762e-02
5.921166800534341350e-03
-2.513441605062146506e-02
2.972024043247857919e-02
1.491343720199185020e-02
-1.539848681420056577e-02
9.112652895727613557e-04
3.825067468676226351e-02
1.004733381737900680e-02
3.620126363907981426e-02
3.320712150708628879e-02
2.170997732657993853e-02
1.847985421647684728e-02
3.901866671952337190e-02
9.819062120370019436e-03
2.576012970123353965e-02
3.663210056245360009e-03
1.434111327404157671e-03
1.173027885944744227e-02
-1.665868909615554616e-02
-7.221424259309597825e-03
3.846640072166537111e-02
-1.533656235042817235e-02
-9.278192957091374246e-03
1.371371378969303556e-02
3.903113257884881573e-03
-2.511737815700086640e-02
-1.417072851888289027e-02
1.252909637870537433e-02
3.890411730973490634e-02
9.226996979612275742e-04
3.329174653677355322e-02
2.557344605945214427e-02
-1.530954162774387194e-02
2.141490488340304713e-02
1.508723103217679041e-04
8.290516339006522017e-03
1.121587678706390326e-02
9.945010858574722390e-03
-1.714446025850393032e-02
2.863796177459549189e-02
4.080535786998032433e-02
9.864104970966815905e-03
2.722584076836043199e-02
2.484651089466143395e-02
1.968878736840401142e-02
1.343469251200794801e-02
3.846721786888575995e-03
3.291428271048231057e-03
2.617560292681771553e-02
1.337034902645394333e-02
2.132882012785719105e-03
1.447818036837310481e-02
1.227698526360254325e-02
5.379837939989292293e-03
5.556463106321369444e-02
6.803950976541037199e-02
3.256553292212250456e-02
6.597851152026609767e-02
4.302451358802013293e-02
1.060930250329026117e-02
4.858457530097126664e-02
-1.550008572902829285e-02
2.844711176265277836e-02
-6.134616461125849164e-03
1.722029285060214937e-02
1.053629127199162512e-02
2.604836653749970955e-03
-1.249911962802952199e-03
3.599588785854195006e-03
1.596620213158133489e-02
1.812595049854797205e-02
1.419372252627161199e-02
-7.790265959684897733e-04
2.637959712171948981e-02
2.953957525038751475e-02
-3.420262627916339018e-03
3.721403573777122553e-02
3.569256829677557724e-02
-5.228965795923316102e-04
2.516241518864492654e-02
2.754082400525319219e-02
-5.819464807115232868e-02
-9.063759145335861800e-02
-1.977322619160361977e-02
4.140481889966968893e-02
-2.514803406258929105e-02
2.171780464929322363e-02
-6.770408039114971140e-03
-1.086868980315407142e-03
3.294497352978717399e-03
1.996698401735804568e-02
6.265321278788048114e-03
7.586315822568151339e-03
1.151363093617463690e-03
-1.212626274974986339e-02
7.530207817698144138e-03
-1.664362382751356437e-02
-2.787128731899034956e-02
-1.470419098660340207e-02
-2.979395965603607189e-03
5.387483525140374790e-02
1.103892017453634022e-01
-4.321002025616001510e-03
-7.997046172070577247e-03
4.609696489363340755e-02
-3.058705867838072343e-03
-3.428854633055845175e-02
2.968067057651261817e-02
-1.237387955281585121e-02
-2.792208879344549883e-03
3.641951770644880765e-02
-4.173325080218427685e-02
-5.998025029170613032e-02
-3.932442149885923000e-02
2.324616815084140642e-03
-3.598860699394279550e-02
-2.637248321870914666e-02
-2.633885403447602802e-02
-1.938145326284971062e-02
-3.584824250528137468e-02
-2.723833115702809036e-03
-3.175589126170104675e-03
-9.333603242656420343e-03
-1.191017246178610253e-02
-2.964610729485677929e-02
-1.782855906145993166e-02
-6.918728299818068667e-03
1.240160732083611314e-03
-3.112390811313229047e-02
-1.188070797690592888e-03
1.249581247138048350e-02
6.975213187740221012e-03
2.331730377826873868e-02
7.788548583855509251e-03
3.361705941378567535e-03
2.733273872329763585e-03
5.160960204487941017e-02
1.339643449215604902e-02
-1.840598890812357447e-02
3.998449297369939537e-02
1.612484082809541655e-02
-3.436874790173306132e-02
-3.748597690167206758e-02
-1.450882545454435825e-02
7.687563764279114510e-03
-5.829789723099058907e-02
-3.031396011986109071e-02
3.541017596925156996e-02
3.409731126519891398e-03
3.001653645700287990e-02
1.937838180965452753e-02
4.661819628655766018e-02
2.278890482271483215e-04
9.085544700021685668e-03
4.680026311024750030e-02
6.653346190977374452e-02
2.525975098374359448e-02
4.493870589065466353e-02
3.242097030369425759e-02
-1.133007314245192132e-02
5.276676092593838435e-02
3.831730516072833631e-02
-7.298106517757475820e-02
-2.721039208510250829e-02
7.370299838621990722e-03
-5.606992226942247165e-02
-5.118377604222203864e-02
-3.118775878687145980e-02
-4.677428614601417123e-02
-6.638672644066542783e-02
-6.369158705369291906e-02
-4.147464333133024650e-02
-1.004358319061944387e-02
7.665991647964135944e-03
-5.271742314106140498e-02
-3.844613849341374512e-02
-3.960479662599141609e-02
-3.121679798071680043e-02
-3.128760155915006475e-02
-3.908810323598616715e-02
2.900499615298124476e-03
6.179963393502137248e-02
6.931650539837430625e-02
-3.106188706289076534e-02
-3.930358626298868091e-02
9.214889522319179641e-03
2.545435936502019741e-02
-2.225293078985673186e-03
-1.891905659143596624e-02
-3.830169214994639387e-02
-3.786655368231886531e-02
-1.823840646403885463e-02
-7.201928526624075400e-02
-7.160625992000642370e-02
-5.189084251181433349e-02
-8.394351849361225693e-02
-7.400942258923565165e-02
-5.452407153154334440e-02
-1.493903349771442610e-02
1.466889319386926321e-02
3.982343244142250854e-02
-4.062686019990099928e-02
-1.973653270558795372e-02
9.179633633418129990e-03
-2.523104467739989074e-03
6.044318863900413792e-03
1.166930277987305795e-02
2.643371104079816208e-02
5.830552261874841907e-02
-3.969272923687652832e-02
5.929370881018689726e-02
1.013575361871679598e-01
3.955166878693965049e-02
2.760277840623550499e-02
-9.974946315723272339e-03
3.985133965006078249e-02
7.829514038439504275e-02
3.841555979968679091e-02
5.874235990269411484e-02
1.672466553469268910e-02
3.379723121038812755e-02
5.293118890457941539e-02
-3.026518078101958845e-02
-5.421920695259068584e-02
2.778893043876152005e-02
1.377307867234274161e-02
-5.577402301330978800e-03
1.741759979785539869e-02
7.726830402544944409e-02
4.812912486154493491e-02
4.615365135877316782e-02
1.039961014690138491e-01
8.304698956364393869e-02
6.586258878053546928e-02
-8.960083173939727835e-03
2.498769972116738833e-02
5.792485695630018167e-02
-4.277242160734912729e-02
-2.301949272491744455e-02
-2.312836119258040654e-02
-6.756911936825887866e-02
-6.375433592849720499e-02
-5.639566065559349639e-02
5.008427964910359270e-03
4.984509201335748929e-02
-2.695015287853517669e-02
-1.087515797089858537e-02
1.266909961780429521e-02
-5.459253735089712040e-03
-4.135402569572547288e-02
-1.257066553822782859e-02
-3.951490023039893468e-02
2.314258898887192051e-02
2.701886689612693904e-02
4.088691996585031713e-02
-2.326792406801371157e-02
-1.293875945681712512e-02
-3.835881967006313318e-03
-3.190176642205198865e-02
-3.189651233367606781e-02
-8.517695640747646388e-03
-6.216890427971847460e-02
-5.913405193956677158e-02
-4.511149882072214290e-02
-2.841227695945412052e-02
-2.255257817476615662e-02
-4.152013739754856214e-02
2.480111669575512517e-02
1.152047724681871249e-02
2.617600245004929674e-02
7.271586200624754678e-03
4.917736496448730024e-03
4.307918624443454747e-02
9.325644631993921727e-03
-1.886889706914940054e-02
-1.429442645011643658e-03
-1.400319701031131105e-02
-2.635967417721048894e-02
-2.399339745558050699e-02
-8.005038323035509884e-02
-1.958482488664414420e-02
8.429100608889510127e-02
-8.690820116704665865e-02
-1.143563654871326482e-02
8.390344118623666025e-02
-6.042865730297562743e-02
-4.259214415879401805e-02
9.163101618349558507e-04
-7.694582240264452588e-02
-5.903587947434927241e-04
3.569901666871750506e-02
-5.837063440785902890e-02
-3.499506609322111314e-03
-2.241603644207438781e-02
-4.092729242788731986e-02
-4.044161543255576224e-02
1.055611758312316982e-02
6.734248251368271654e-03
-4.159020476634344571e-02
-8.299635544607797399e-02
-2.019265398641673440e-02
-9.796157553491592618e-03
1.273181327529103284e-02
-1.248006362237369209e-02
-4.458626942374803448e-02
1.429208634321577943e-02
9.365789690780437424e-03
-7.221005747542673554e-03
3.060915167559246503e-02
-3.983532247863454112e-02
-4.406109704528805154e-02
-2.347292239647608136e-03
-9.581879126450913720e-02
-1.868290770709018014e-02
2.402685726128634194e-02
-1.030893561629248473e-01
-8.782985010652118174e-02
-3.423121421459687785e-02
-9.295371155019095666e-02
-4.875401591316451400e-02
7.468996035661960679e-03
-2.774496748734920845e-02
-6.292116462982231054e-03
3.698870502378986957e-02
-6.602499763297010188e-03
9.092799467437654923e-03
-3.412114165007662514e-02
1.472149948121821705e-02
-1.296207080551469749e-02
-4.566884473428970553e-02
-1.562745659020007422e-02
-5.451295962934774031e-02
-1.017717824004107929e-01
-3.256835477765462200e-02
-1.369524672353492588e-02
-2.692275045144850148e-03
-5.535817357361071805e-02
-4.783070672871962692e-02
-2.327129319139297284e-02
-4.119149442118696242e-02
-4.965154937519065254e-02
-4.582467297938724871e-02
3.791444420314592917e-02
1.146963635328824838e-01
-2.092994026849996549e-03
-7.053436719578924652e-02
2.042771616496373566e-02
-4.743096166523311924e-02
-7.184927618127510962e-02
1.274178698732362711e-02
2.584752046713936074e-02
2.055723036578850985e-02
6.562462033478276557e-02
2.225979648976449468e-02
2.869455885277955032e-02
6.294191601493678845e-02
4.570612478044250304e-02
1.810279631324712354e-02
7.056893047744508540e-02
-4.071131971246930853e-02
6.122146620170423187e-02
5.221255773870867728e-02
4.043460718636265883e-02
2.948154515500603281e-03
4.916137965634836959e-02
1.873660992382109036e-02
-4.776542053003637878e-03
6.734476828529342880e-03
2.576633281107326007e-02
-5.526052098308090882e-02
1.659831083035697569e-02
-4.402867698895759907e-02
-2.296107054912684131e-02
5.013717941409882167e-02
9.320029985366859795e-03
-3.651756271851706870e-02
3.511638472114671228e-02
-7.989341126094462453e-02
-6.242389610597037092e-02
-3.414502234540797015e-02
-1.095659449600873241e-02
-2.094923432747378134e-02
-3.813291734811022349e-02
-5.245469021300827595e-02
-2.533526278213069690e-03
1.707125424987035673e-03
-6.064653846160199951e-02
1.637920887119017829e-02
1.435926925010157576e-02
2.174686827832571917e-02
-2.022261164578959686e-02
9.404665595932996947e-03
2.189533446676372383e-02
-1.284657841136756067e-02
3.279697038838738643e-02
4.421935621873028521e-02
3.004138023034673421e-02
3.121912164221192845e-02
1.979081003232520397e-02
2.969067435587769907e-02
3.557107711022929053e-02
1.889452175917447768e-02
4.133377536798789158e-03
9.155011117704496548e-03
9.486010310072337613e-04
4.380894251127752034e-03
1.677263751143185863e-02
8.132935297186560995e-05
1.140468309869615378e-03
1.249940952399557226e-04
-8.051549857216108719e-03
-8.045326334201125321e-03
-3.048252311742641676e-03
-7.925415284699754981e-03
-1.455469899537299282e-03
-5.235148846412940836e-03
-1.480201892522389068e-02
-1.733648322084736793e-02
-4.179002103596673318e-02
-2.838438818943220254e-02
-2.792421196540018427e-02
-1.469001433381730490e-02
-5.034466837863494325e-03
2.005046971788628993e-02
1.987893012160279679e-02
1.809296724493371020e-02
7.192320036974619857e-03
3.757659670699914443e-03
-9.425870406821552829e-04
-6.498393285114392043e-03
-1.466844675502136132e-02
-1.122252552532707580e-02
-1.507896655497534613e-02
9.858459158198206243e-03
4.305395918273259570e-03
-7.527378636449539272e-03
-6.019753543531734677e-04
8.136689089443358003e-03
2.010444171112675885e-02
1.313441147397783129e-02
7.833317582211183142e-03
3.877334578827605388e-05
-1.417114842257937227e-02
-2.062081958209419780e-02
2.502011112851779823e-02
2.784375791492026131e-02
4.209792029736378338e-02
2.689566398895715249e-02
8.473666936488693374e-03
-8.881269363776127940e-03
1.947846173055450825e-02
2.046727806529148597e-02
1.725900147157091724e-02
2.979106866307843979e-02
3.000481254081410060e-02
2.442521111729422170e-02
2.462332004045526476e-02
1.829230992121375077e-02
8.913139037791131813e-03
3.041487716971447847e-02
2.759872359400285594e-02
1.781166982263232557e-02
4.149122690681129183e-02
3.456096356145752641e-02
3.646551903162494751e-02
3.044259298007293002e-02
3.106701237417565722e-02
2.050903573153691969e-02
-1.380476994780947125e-02
6.925171589763061235e-03
4.385474538192422195e-02
-2.003409553814188698e-02
-1.698024428020594723e-02
9.810892756394160724e-03
-2.847375058767567108e-02
-1.288410709362090324e-02
6.346210779028892525e-04
-5.830146736524734891e-03
-2.879527417963232815e-03
6.743805774463556939e-03
2.223814329456953731e-02
2.434805277902954770e-02
2.037601626904235116e-02
-2.384250404344850569e-02
-8.461799292408925949e-03
-1.366855230975399550e-02
3.223209968851656337e-02
3.940363449333324913e-02
3.432109354971230042e-02
3.803201416900073989e-02
2.941535918170950017e-02
2.346739261577594424e-02
1.104441503864558340e-02
1.049658673015989134e-02
9.499704627459361686e-03
-6.097703810982919165e-03
9.093856833248519650e-03
4.014653183258622138e-02
-2.978857206696107398e-03
2.209864021131505846e-02
5.089792366079179224e-03
-4.725080228046147496e-03
4.724013313941158657e-03
-1.622760953162750291e-02
-2.039876455470668315e-02
-1.684297683973922863e-02
-2.693352190019815059e-02
-2.293594276495808653e-04
-5.604543428322299181e-02
-2.085569297926593776e-02
-1.759470210179514202e-02
-1.938765681652835152e-02
-2.387633300639728853e-02
-1.721699568576618225e-02
1.545047408882831369e-03
2.402483341822277910e-03
-2.613717105202517654e-02
3.779565205447319234e-03
2.028605153917906537e-02
-1.724623443686792296e-02
-1.759777022848358491e-02
-9.123761742587744097e-03
-2.602020406943259933e-03
-1.803940678792780028e-02
-3.989229142043411447e-02
1.887660581582367020e-02
1.096320550688682782e-02
1.361390269344123216e-02
2.793733321216369456e-02
2.289593134705930969e-02
2.753365637853825640e-02
-5.719877955331622785e-03
-2.760914974900156513e-02
-1.937176090862412214e-02
-3.105796371052340406e-03
-1.669235115555063251e-02
-1.186414918743776241e-02
-1.153657387387131868e-02
-4.081406242790959482e-02
-2.217120405980925815e-02
1.426693112831588835e-03
8.933381658140416084e-03
4.564103509194383616e-03
9.963596484671127795e-03
2.345278094048726392e-02
1.303067508187179778e-02
4.739707474976139270e-03
9.471001301254897489e-03
2.559954045742669337e-03
3.341462552995279334e-02
2.150182026805331874e-03
7.229829725247906985e-03
1.617008172842685984e-02
1.232466490747367860e-02
2.700736570338446024e-02
-1.433767600376501406e-03
6.061642285351253809e-03
3.725647285159081057e-02
-1.977650978986267294e-02
-1.293080507696739781e-02
-1.381916259341822197e-02
-3.112302408131050607e-03
8.813670986572799161e-04
7.958489621954391649e-03
9.294411530796505526e-04
4.591824795294833887e-03
1.040942831807075558e-02
5.460923271552823449e-02
4.309734074871441473e-02
2.429940936722120581e-02
3.997801587258743156e-02
8.476999609962432292e-02
2.255818415826321005e-02
1.928272791048524226e-02
2.480234942509085272e-02
1.122928498659014722e-02
-1.871402248004620794e-02
-1.542473912813775890e-02
6.216709823002125601e-03
3.126500664898860388e-02
3.262780418402630445e-02
-2.268351619234293057e-02
3.271589518342452735e-02
5.534359131960254335e-03
-3.648803802059310403e-02
2.114841759065010096e-02
3.525603029435503410e-02
3.718126353524366795e-02
-9.497968303895076500e-03
-1.490865301154866915e-02
-4.324013098833726781e-02
2.418942224450713191e-02
-2.529407105654140828e-03
-6.579954975530415834e-03
-1.520477857206460962e-02
-2.158449028287319493e-02
9.021931764281817048e-03
-2.091616741612943586e-02
-1.295907325279993354e-02
2.072914002583752663e-02
-2.593285400637352148e-02
-7.332721826384573129e-03
2.275131101179045032e-02
4.440294758091823703e-03
2.358777680360936088e-02
2.844746189257553459e-02
-2.243765879895640372e-02
-8.215193433537998011e-03
3.170633092002197312e-02
8.160228448709515997e-03
6.951674694385818511e-03
2.923630412953329497e-02
2.002245616405667547e-02
2.023552241872004706e-02
1.152102345106379572e-02
3.785189305830422707e-02
2.461156002892914835e-02
2.092989099451276341e-02
5.027811929049203626e-02
3.122009700875537710e-02
1.540140391137797410e-02
3.982484396836960538e-03
-2.151870095393256400e-03
-5.596519412891488680e-03
1.299758140840322901e-02
1.141878724114836659e-02
2.975654239860955636e-03
1.228932635090273194e-02
7.852723269619410820e-03
-4.691598974714260859e-04
-5.856249598630801183e-03
-3.003180110418839782e-02
-1.799269528634324725e-02
3.033596488284095831e-03
-6.523395180844918095e-02
-8.502240213820698445e-03
-3.140741529784095432e-02
-3.516827468415420488e-02
9.783476400676243204e-03
-9.606153394140885815e-03
-4.387579276523032729e-03
-1.670615687006393735e-02
-1.245872424759712251e-02
-3.300069708060485163e-02
-4.697129131898704346e-02
-3.404559014691290863e-03
-1.836309244238911245e-02
-2.847789332873128590e-02
5.304065850736245508e-03
-1.173207925282908869e-02
-1.379676338630627871e-02
6.280538151839602096e-03
-6.785279899943638887e-04
2.928319359273279097e-05
-2.171837901941000432e-03
-5.841078884307474234e-04
1.896534021490670421e-03
8.022427978982646368e-02
7.081549883154784897e-02
9.323422696371437557e-02
1.371830969282512337e-02
-5.545296755484992873e-02
9.637254924223683308e-03
-8.388378661408927781e-03
1.062304899161145740e-02
-1.152324899795224497e-02
2.798131710976532998e-03
8.723123945771380644e-03
2.310573867964898359e-02
7.464353017165631723e-03
1.095111712195775099e-02
2.649456759874842943e-02
8.762728105359031405e-03
-6.458538439213380288e-04
1.147046404290684961e-02
7.622218170036688771e-03
-8.262249331258439411e-02
-2.529733815520023021e-02
-1.227362600241683512e-02
-7.182194013752174998e-03
-2.193354577524294941e-04
2.227477192078236232e-02
4.022010619174495177e-02
-8.146518238946329898e-03
2.511967813427178845e-03
-2.759980386403838512e-02
-4.371485155789401472e-02
-9.965005783405092576e-02
-1.039037666023073930e-01
-1.443526093219684725e-01
-7.391018995899333033e-02
-6.603898572088358343e-02
-7.583554332849137825e-02
-2.097310160253915493e-02
-4.679205967852885159e-03
-6.599823043207818374e-02
9.464093889649610736e-03
1.658187187377141089e-02
-2.277160990518000208e-02
-1.611986091532711246e-02
-7.963260175844840208e-03
-7.933309208843827148e-03
2.278755248666223740e-02
2.274768631582043885e-02
1.133302584138531216e-02
-2.740625470587688961e-02
-4.275459605958505799e-02
-6.632002149542767788e-02
-6.466274771885467156e-03
-5.117341112857343340e-03
-2.381567246429175388e-02
-1.701508124047658096e-02
2.014201842521071151e-02
-6.307529318550400554e-03
4.444602556995125991e-02
5.171191376377386878e-02
5.742589108899493790e-03
-1.967777090591442055e-02
-3.993408228727753084e-02
-7.267109799797011327e-02
1.110050821381594888e-01
5.346963033834850609e-02
5.472209145927987850e-02
1.808061381205378626e-01
1.011000602366051576e-01
9.150467973908707822e-03
9.667620441323661329e-02
5.590264253318014825e-02
-2.665842876139377232e-02
-9.005805080232190396e-02
-7.844487457945388542e-02
-1.227933190480186149e-01
-5.491173108963782329e-02
-6.410913007827293009e-02
-8.317261278412901859e-02
1.148304919325443957e-01
1.032772947329590463e-01
5.548397324129695357e-02
3.221250737116341384e-02
7.022712973205687270e-02
1.067921043658679042e-01
-4.373134315757235685e-02
-3.053611674861151856e-02
-9.570877119031070144e-04
-4.352229030858097841e-02
-6.010885717866658318e-02
-6.750929046003485701e-02
2.537926333062285114e-02
2.176683291802124914e-02
2.108748039339478075e-02
-2.878105943031419173e-02
-1.547801005839696646e-02
-1.955012984364900425e-02
-3.033332011581943433e-02
-2.126243824069429592e-02
-2.151271927912018142e-02
-2.243485445206051462e-02
-4.087052432377068917e-02
9.102435521792425974e-03
-8.703949369635377575e-02
-8.636434383313998375e-02
-2.579600539049021340e-02
-1.147869105766233244e-01
-3.892284097525222641e-02
2.564226410035323062e-02
-6.250014237107139048e-02
-5.296695964293823139e-02
-7.538361551839210806e-02
-8.744477439405638763e-02
-6.684992284555577036e-02
-9.193179160281778062e-02
-4.516136226950192428e-02
-2.243629096869752260e-02
6.011251406092856832e-03
-1.286035850955097315e-02
-3.553133370328910579e-02
-2.073626503182708636e-02
-6.791477521759797797e-02
-4.474382826303309468e-02
-5.850673138915504778e-02
-4.861938819741991324e-02
-3.119965787309465083e-02
-5.490178722024521146e-02
-1.789442052600650687e-02
1.174295926585959722e-02
-4.699378256776925999e-02
-3.173280150767290864e-02
-5.004129673965595354e-02
-1.481136268937067180e-01
1.479094050809365291e-01
1.434703095489385793e-01
1.322067882775145309e-01
-7.411207156145857566e-02
-1.225311766253205092e-01
-1.042560613757562149e-01
9.270368203513557059e-02
1.146615271290050281e-02
-5.839588315779061650e-02
-2.563778450055844219e-02
-4.613750042695313053e-02
-5.689408841921426291e-02
9.809330783161469489e-03
-1.843600025434146469e-03
9.840657696650426112e-02
-4.676490514137804366e-02
2.960413811668612463e-02
7.129915497014792380e-02
9.694466945256483004e-02
4.767036570857466349e-02
2.807813799179998196e-02
-8.629702837201554556e-04
1.117787443283136881e-02
4.493382256886286480e-02
-2.482096364990851387e-02
-2.217398497420646625e-02
8.682676938939608638e-03
4.244405420092629659e-03
-3.209737388272848927e-04
-2.732415300247971121e-02
-3.467215585588111215e-02
1.223188847309243654e-02
-4.629698292507004875e-02
-5.567070420888142052e-02
-2.263422741385976572e-02
-4.952722946298903500e-02
-8.119090650267893339e-02
-4.727153556979563076e-02
-7.059008096488736395e-02
-1.133198286876497922e-02
-2.809550251421490119e-02
-4.179754883574950813e-02
-4.647528103794323212e-02
-8.305925267305319659e-02
-8.535344100135948409e-02
-7.274891120525138477e-02
-9.400534587528797115e-02
-9.095029444474439506e-02
-4.077396676073206700e-04
-1.468482938063368076e-02
-2.322599210193474276e-02
-5.442404421826998323e-02
-3.665661694544793819e-02
-4.530538642342462480e-02
-5.282167226130767695e-02
-2.476422529155331703e-02
-8.073546918688360649e-03
-4.427371807155418976e-02
-3.308309961457778919e-02
-2.823064844468315543e-02
-4.381392585921214250e-02
-6.544066925371613830e-03
3.212026259708122833e-03
-1.278619165763410746e-02
1.576443074592646931e-02
3.368535961952554003e-02
3.558394227875323612e-02
-1.629884408630339482e-03
-1.027859558378973193e-01
1.730294654225660728e-02
-3.066196499924540506e-02
-1.427230293836061759e-01
6.032922239373410440e-03
-6.600165572259371338e-02
-1.560045828306946825e-01
3.822917834802751907e-02
2.263449949367376743e-02
4.433923262343358873e-02
-9.583431659019923943e-02
-1.684432524482838700e-01
-1.211872966868851459e-01
-1.024425198536305093e-01
-5.344528081451821455e-02
-7.440254105574403698e-02
-3.953710488247001720e-02
-4.025142452176359159e-02
-3.419836934786780330e-02
4.983390066238910926e-03
-1.789597445803943823e-02
-3.311502850465521813e-02
-4.299353396100346648e-03
1.079045707053601089e-02
1.078404602796636559e-02
1.872137311068253207e-02
-2.767858716541838661e-03
-2.688164757546287684e-02
-1.846325358237712461e-02
-2.881564919619163806e-02
-3.637890767053454134e-03
-3.854162476538428028e-02
-4.286665083536276427e-02
-4.384786295744053097e-02
-1.259520571805366855e-02
2.220032975000608977e-02
-2.711776588785644315e-02
3.220875169801660359e-02
-6.477600903904565804e-03
-4.994875073435112167e-02
1.508665725593482179e-02
-1.945227180388036520e-02
-9.501361212410899815e-02
-1.944084769073777322e-03
-4.889105827217613345e-03
-1.471559869245620857e-02
-3.664371744712347639e-02
1.244038420627420136e-02
8.029266414816682920e-03
-6.563407913292522433e-02
-1.411083166636517387e-02
-1.514954170294555494e-02
1.237838612403848078e-02
3.271083288716320099e-03
2.086377329323090696e-02
7.446225285778080780e-03
5.403151564232590905e-04
4.965962382438593795e-03
-7.610467075260486311e-03
5.759321855508219359e-03
-7.023933121609660275e-03
5.276209326013250878e-02
-7.351490495540981274e-02
-4.249734135640272081e-02
-2.366279923832324827e-02
1.814868720980294947e-02
-1.469935164070592659e-01
-4.232430993135768982e-02
-3.432020604076788800e-02
-1.503645043263832359e-01
4.477319506819536082e-02
-5.991613721612872034e-02
-5.444159984436378746e-02
7.782792064502744300e-02
-1.583179155368658400e-02
-5.573650055771103319e-03
8.900260299861241856e-03
3.874050053371390356e-02
6.511356615590283220e-04
-1.663941027634158534e-02
-1.106152079599246295e-02
-4.053258176051036110e-02
-1.666110864150808363e-02
-1.422723259326698873e-03
-5.672485801395170391e-02
-3.995010422537217942e-02
-3.588716713384264290e-02
-5.954125981811789203e-02
1.616307140054932534e-01
4.502786177409929397e-02
1.874464565191573673e-01
1.121657778637285691e-01
-1.351832118808575234e-01
5.814527011721074695e-02
7.665223137827971434e-02
-5.399975518260952817e-02
1.210546253871061344e-02
1.441331316053418576e-01
2.979775853384651965e-02
-6.862037048809381534e-02
8.536335733886615817e-02
-4.087911751122952353e-02
-1.090761010378081264e-01
4.579514466432881015e-02
-2.818062138840661882e-02
-8.288650790352647402e-02
-9.929430033220099788e-03
2.237161646251777450e-03
1.842242970664579454e-02
-4.043980694213181182e-02
-2.353895253460596901e-02
1.606304903076642698e-02
-2.976806894923215985e-02
-3.778144067005960883e-03
3.272457802191472420e-02
2.170495564709464323e-02
1.902731443797039956e-02
7.078955105463794221e-04
4.048427183854678285e-02
4.014754825736528004e-02
3.574871757678285689e-02
2.597561364265477124e-02
3.567698604416068286e-02
2.070166278118091771e-02
1.439946802519497145e-02
1.886463468247731937e-02
2.465737912257413497e-02
-7.298864484880071384e-03
