1.185381236482751718e-02
-3.813269415206076846e-02
-9.754164517998908934e-02
5.256942059501964332e-02
9.499846488591005833e-02
-3.943737494740835216e-03
2.637710777288557185e-02
6.021126733405122305e-02
-2.200689495355043213e-02
1.297643621023487626e-01
1.236194753087773018e-01
7.609523898635567329e-02
5.588232997333504593e-02
6.808252560353977856e-02
1.371551136223419509e-01
7.393357880853967945e-02
4.591820028509693841e-02
1.937329949447983424e-01
1.257178381514029997e-01
1.191792432548551993e-03
-4.401399480275602211e-02
1.593577500219412746e-01
1.641391884211792218e-01
1.042007980362171515e-01
6.501296176182169706e-02
1.182113976975134040e-01
3.699995165589826246e-02
-3.251714647087452503e-01
-1.757533901887578798e-01
-5.577715130527664128e-02
-2.558065853267328382e-01
-1.146449685015735881e-01
-1.344049567704562465e-01
-7.653530858687497551e-02
-9.053041328964725465e-02
-1.277843914943601333e-01
1.110305650809985736e-02
1.686448328622158419e-02
5.878527509177535609e-02
-2.912294969852799800e-02
-1.670993027321773100e-02
9.854569998563763450e-03
2.422438258785982595e-02
-5.322428363274888524e-02
-6.401811624475985119e-02
4.322267236028087128e-03
-3.705559404534827794e-02
-3.147427605605845891e-02
7.186987197296387797e-02
2.388452458814567178e-02
1.057931567377652232e-01
8.814583545173532153e-02
6.034986272092267984e-02
5.283212216149216212e-02
1.021000337283858306e-01
1.888295004241004882e-01
-9.182807916277953286e-02
1.135419402817672146e-01
1.598040039461597894e-01
-2.443397211606457287e-02
8.948524716222178155e-03
1.422030816117173489e-02
1.372731599578622397e-01
6.449767452565796644e-02
7.550537634125156772e-02
-7.858008350454995629e-04
-9.367384311663947555e-03
3.515977276102569965e-02
-2.084355580780715422e-02
-4.734288383899468156e-02
-1.411258702444609207e-02
-9.940672991285882595e-03
1.351128657510806096e-02
9.818116197378277954e-02
-4.411645805258881253e-02
3.563626201345460737e-02
8.825699685260644800e-02
9.150044440064408757e-02
5.168724235173537823e-02
-6.497311176007249112e-04
2.588885905207593055e-02
-1.223814098363261264e-02
-8.861604894853285577e-03
2.171000555558415951e-02
4.431108138525064605e-02
-9.333639319166821269e-02
2.508549623588636132e-02
-4.302336506887852879e-02
-1.136233433427004391e-01
-7.018195037848576345e-02
1.960192228682342552e-01
1.732292519715340484e-01
7.079340307706002977e-02
2.258838772130027928e-01
1.742802565235419820e-01
1.252662745655830356e-01
7.812817842597140350e-02
1.355226846011359232e-01
1.156662907233221571e-01
-1.305690071687674036e-01
-1.096187018262122920e-01
-7.573664955803770249e-02
-7.001845245838575482e-02
-1.128491351953787303e-01
-1.303549242568132482e-01
-8.912714243330309427e-02
-1.893425327064679475e-01
-1.431222258953250004e-01
7.136650063089609863e-02
9.993028347695971647e-02
7.255437768372891005e-02
1.419225618343728512e-01
6.048979103114222183e-02
1.829153635922817767e-01
3.656176246873034386e-02
4.656842012289879457e-02
-3.003853144155079272e-02
-2.393166050313798865e-01
-9.385351237124338331e-02
-2.904640464748319689e-02
-2.379054908574834148e-01
-1.900366993575326457e-01
-1.803723331143807229e-01
-3.655213457611699440e-02
-2.174000734681124647e-01
-1.145499178477814434e-01
-4.195536188861925808e-02
-5.446571556284608533e-03
6.133629209386941977e-02
-5.060820565060478171e-02
-7.521102610718390091e-02
-5.526082086381486208e-02
-2.423054377817865021e-02
-6.520884421133216202e-02
-5.805767960441263198e-02
1.036363876175239694e-02
-3.589479736827223821e-02
-1.042694711283815162e-01
-8.198700253453854170e-02
5.102549107458837635e-02
-1.114202964457215450e-01
-1.722137957141065545e-01
9.398910041866009868e-02
-1.175315891645634103e-01
5.136915843205459853e-02
-8.726257949317584028e-02
-7.065396877237377360e-02
-7.381348153069254570e-02
9.468175252037099032e-02
1.297745439151631319e-01
-3.204765874712213296e-03
-2.804918542142872603e-02
-7.414139479155447410e-02
1.784213987618191860e-02
-6.167635407495147132e-02
-1.782662645001534957e-02
-3.935729258008606457e-02
-2.451932461012185441e-02
2.572723336093229920e-03
-2.054039202761465815e-02
3.827188557626702656e-03
-4.794675256475666031e-02
-6.727689315388277191e-02
4.760988013876011303e-03
3.491127896441191363e-03
-3.098318118899103663e-02
-2.045930966879495536e-02
3.688262232907712351e-02
-5.085757989299384552e-02
-4.376225133202462508e-02
-2.551835607315598373e-02
-1.520991051824290919e-03
2.393439290652153023e-02
1.972420985044202532e-02
6.670355284876322566e-02
7.088155326277667534e-02
6.739884532245736526e-02
4.326756215928868193e-02
6.197360500791638388e-02
1.813284611987248801e-02
6.121966158939073921e-02
3.238399036881300930e-02
8.261317799272184514e-02
3.202039598847401802e-02
3.490308234930123571e-02
1.443778474846697107e-02
7.786398294258919939e-02
1.142307114652107991e-01
6.536690954145622789e-02
-4.364648331652060814e-02
-6.149303497532000728e-02
-8.701547659368782939e-02
-8.323829353011411025e-02
-8.845990267770233173e-02
-6.415090866722246432e-02
-3.299560334678588308e-02
-5.445893774550800842e-02
-2.444819927216889885e-02
1.216135277663700359e-01
2.610318009448305276e-01
3.480716057558087828e-02
-1.340616384366783709e-01
1.533826060914162959e-01
-5.986698877865202079e-02
-1.605098803934504326e-01
-3.095006769349619713e-01
-3.848781884470402898e-02
3.122583322118460680e-02
4.301526099776522422e-02
2.128624013213111996e-02
-9.474219816975670144e-03
1.329437608404181181e-02
-8.854458880326689096e-03
7.367009341092249815e-03
3.840891087015755462e-02
3.706791879430409303e-02
2.678389159073233522e-02
4.222210767178571217e-02
-8.828335559658874454e-02
-1.094735798327162307e-01
4.584433594414914076e-02
1.803066441666705544e-01
-7.900307793491251340e-02
-1.307526020619535490e-01
-1.300154411251259190e-01
1.525248489850106193e-01
1.526822724920409990e-01
-6.627491358950093718e-03
-8.012780252845866369e-02
-7.031566297567326540e-02
-8.558483384064964269e-03
-4.407882525068984592e-02
-3.140825975441777218e-02
-2.921563330645109494e-02
-2.407522855759225769e-02
-1.429329507892387607e-01
-9.204532355377512132e-02
4.079883517211681243e-02
-9.684487402546648749e-02
-2.610229071867063710e-02
9.697024012092641393e-03
1.772458991846718665e-02
-3.237631381919981247e-03
-4.895912546262352893e-02
1.513665546421896204e-03
7.216061128093413657e-02
-4.839722819374161350e-02
8.486551625532318816e-03
-2.721257312525746097e-03
-8.168559491446042431e-02
-1.194409940329457936e-01
-4.365069648516741591e-02
-3.916102767827025349e-02
-9.020818420744124155e-02
-5.499831426399726109e-02
8.396239699425179018e-03
-4.882350961004290613e-02
8.854878442369139291e-02
2.510151560045628324e-02
-1.166995868146258192e-02
-6.838377120534187836e-02
2.512157002796823815e-02
9.399144533710521165e-02
7.078972022485403859e-02
-7.127841428673246937e-02
3.166154122345107153e-02
5.693385925515453971e-02
-1.454578448501391182e-02
-3.348110283455782432e-02
1.684719475600610639e-01
5.538373703759423214e-03
1.785266801192013711e-02
1.581435345211011298e-02
-1.029554442093095872e-02
1.552253528924240093e-03
1.955887688102959585e-02
-5.448122797607127255e-02
-6.359943185180552683e-02
-8.939605646726817012e-02
8.564606517180686079e-03
-1.740224183701623295e-02
3.684008224761712441e-02
6.602432497494542529e-02
5.990092385000944653e-02
6.463783195394074040e-03
3.990446609280526129e-03
2.017412951983841088e-02
9.632965821850920929e-03
-3.947321527982649431e-02
-5.518084606871600378e-02
-1.565624091256167805e-01
5.632632087492942669e-02
-1.443221579707646036e-02
-1.400587863303084102e-01
1.689276413034519753e-01
1.000333869611758769e-01
-4.111447872994572483e-02
6.576505964543249982e-02
2.577896127089421979e-02
4.707575079042994326e-02
6.009511360340692721e-02
-5.011977171112971807e-03
-1.051252193067221154e-02
-5.549660297676433512e-02
-8.257339039354219534e-02
-9.091004650338094240e-02
7.184187006983841495e-02
7.327356302029691681e-02
1.558178386362910617e-01
7.405708856518279648e-02
-3.350804824113234881e-02
4.239560698928197119e-02
1.028744534662417026e-01
6.646249277728834282e-02
1.053912970491538252e-02
-3.096834631466654497e-01
-3.907206732904587865e-01
-2.624368606610872900e-01
-1.749201913151394172e-01
-3.238299860362010008e-01
-2.167989063247445503e-01
-2.627120825846942023e-02
-1.743241636720325172e-01
-5.818840839023874806e-02
-7.208814174787689377e-02
-8.866896273708604892e-02
-6.111243381787651550e-03
-2.732968994453359793e-02
-4.165987692978447704e-02
-7.462909348457252845e-03
3.949515815057047519e-02
-6.347238772068047874e-02
-3.567609773824154291e-03
-7.115032528440716486e-02
-1.584876020379568373e-01
-1.554581886039095029e-01
-8.922189143906908426e-02
-3.325981483564451890e-01
-3.843788303235686765e-01
3.708277022618337165e-03
-9.581392215605118168e-02
-1.342873736273876295e-01
-6.150893057615624410e-02
-1.504722578998630711e-01
-7.645513794942260244e-02
-4.635524415781629159e-02
-1.485098238067505683e-01
-6.176766449695900857e-02
-8.710667885595466380e-04
-1.092713777320794416e-01
-6.635156025410390845e-02
9.479971433819613102e-02
5.523841433181711502e-02
7.779165442312996337e-02
2.790486948737632214e-02
4.447893833726786206e-02
9.321430633108244990e-02
4.401115493473984480e-03
1.430825360673648391e-02
8.003529476326207148e-02
-1.339089500742541954e-02
-1.081879082789560659e-01
-1.455352227251456854e-01
6.750085304599834357e-02
5.908036156438851300e-02
-2.218554697638894929e-02
4.410166861737616073e-02
-3.243229069720773849e-02
3.355934003108771574e-03
-2.210878437035729838e-01
-2.555449746300105796e-01
-1.433135136541436039e-01
-1.460255807590317423e-01
-1.641220207739977621e-01
-1.241872511036410109e-01
-2.284061523287616788e-02
-1.418819377745167594e-02
9.619324852568816864e-02
1.590823324096859309e-02
-9.452245158522655510e-02
1.496628554824127461e-02
5.466884575135641522e-02
-8.029369434664469785e-02
-1.428158360565486562e-01
1.028570404983982500e-01
-5.624687091323059968e-02
-1.744533001821932106e-01
-3.040421150830211958e-02
-8.595121084136347900e-02
-1.984418940605111870e-01
-7.463772824942621620e-02
-2.339168662193537862e-01
-2.669445517443622129e-01
-7.297633494441538304e-02
-2.270887996119116958e-01
-2.175731347580895092e-01
4.814998852292739356e-02
3.343168536343581188e-02
-4.537531172633172544e-02
1.593248799696471707e-01
-1.019646443535341188e-02
-5.948503324173271684e-02
1.390383505551477383e-01
1.390448580058802619e-01
1.467475439215419446e-02
-5.329241445220776752e-02
-1.505115029957719286e-01
-3.576571915129605345e-02
5.043664342880921359e-02
-9.015397986932513485e-02
-6.351844190928451761e-02
1.269592563649521721e-01
4.618505480935525265e-02
8.872813096821977746e-03
3.726034452926826890e-02
-5.618943765072814678e-02
-5.469327242217739832e-02
-1.676819232792687298e-01
-1.906745080532470382e-01
-9.899804416678448238e-02
-9.593855513061577689e-02
-1.465296603381415208e-01
-9.406831589946985928e-02
-2.642670574490384519e-02
1.170159138333273265e-02
3.498193520682680441e-02
-5.141233599774195501e-02
8.709692295331675216e-02
1.251425701837892510e-04
3.155292316480697717e-02
3.942356037212994824e-02
7.031337430729170390e-02
6.499185423233204417e-02
3.957266337970580944e-02
-2.200506772938148198e-02
-1.281937818166210830e-01
-1.078368268550453507e-01
-8.553786498744003763e-02
-5.109808001784654080e-02
-1.850808215077136554e-01
-1.174851697162347108e-01
-2.764824852206521771e-02
5.261012118358975032e-02
-1.506494243423909252e-01
-9.182513206218139573e-03
4.256544009980070542e-02
-1.445086399555024770e-01
8.546155122869640575e-02
1.965683246390970487e-02
-7.052893640483938638e-03
9.732324830581462471e-02
6.249084542580429086e-02
2.024568631775059552e-02
1.482836978213381285e-01
1.758566968465253011e-01
1.077430428891630182e-01
1.343869373590962368e-01
1.894238387017889713e-01
7.594489794698081053e-02
4.720581521639177075e-02
-6.080645303657754297e-02
2.940346365764126384e-03
3.624766330789365443e-02
7.316729287524630088e-02
-4.677004668365895151e-02
-2.477032657415841055e-02
-2.839888465028179987e-02
-2.884743090304007010e-02
-1.184042170626351115e-01
-1.670409645877568294e-01
-1.110750770872982601e-01
-7.982090808884177713e-02
-9.603105812026856147e-02
-9.884073575601221018e-02
-1.020425327171948643e-01
-6.540134510033629445e-02
-5.321544018144779703e-02
5.431068798522389884e-02
6.837555446323574648e-02
-1.124387398898507237e-02
8.568743258762276382e-02
9.503333564299998315e-02
5.141000477798624707e-02
1.332133946119416490e-01
4.052810874501534821e-02
-4.298216242327493330e-02
-7.602847341833028627e-02
-2.006297268299962466e-01
-9.071480041841642472e-02
-5.794099045100586931e-02
-2.041616028328331611e-01
1.049786194044412778e-02
2.831831121302046117e-02
-8.958963488491530902e-02
4.255861251131803913e-02
-1.856894635284054434e-02
-3.910966079364580628e-02
-3.891478115922474695e-02
3.267360228003287487e-02
3.187174213633689468e-02
-4.652296428118989774e-02
4.270714873782630039e-02
5.594421549801861099e-02
2.059587583052908955e-02
2.162824009729941502e-02
1.319132981052432152e-01
-1.690539455258149859e-01
-5.422518921245598339e-02
-8.575174873423501570e-03
-2.751834806018998991e-01
-6.186882712000809498e-02
8.025935503586181796e-02
-3.029507830603991869e-01
-1.346497587343218616e-01
-6.597635565675846747e-02
7.819018001887771685e-03
-6.320361803731411321e-02
-1.330266554625939568e-01
-3.461063780708827087e-02
4.960028601650936370e-02
1.076362220443089629e-02
-2.465938155013419272e-02
4.522345449982157622e-02
-3.996165174934736275e-02
2.120283792241697482e-02
-1.186301655134714278e-01
-1.225790835130005779e-01
-7.985824671001778841e-02
-2.679797038335873099e-02
-1.093670223023031629e-01
-6.749194874714584125e-02
-1.009958726114956046e-01
-2.006371464059195919e-01
-6.507431545176538268e-02
-4.089184556149220301e-02
-1.258041797843212628e-01
-4.656745542617714284e-02
-2.003678710520627460e-02
5.086694970361271134e-02
-7.972956574227040016e-02
4.998914677996925404e-02
5.724163359042980931e-02
4.842875602665312751e-02
2.150683268190667699e-02
1.313489367451153023e-01
1.298335738720659827e-01
-3.956801562053254701e-02
1.862455107538107391e-01
3.592112435113469643e-02
-1.323225456006329459e-01
-1.549456692665409363e-01
3.393421980207526889e-02
-2.065190152191633544e-01
-1.843826052096066703e-01
-1.830922830733179019e-01
-5.172251757898371077e-02
-1.777324550958306881e-01
-2.285716918940530751e-01
1.735788607275008102e-03
1.129081464644914046e-02
1.226160893056821646e-03
2.389601900747034564e-03
-4.005952700620871165e-02
-5.967544524480061091e-02
-3.357756183986145698e-02
-6.461567120879652126e-02
-1.186840574190168723e-01
-2.037357665338275781e-01
-2.617670850595897325e-01
-9.919365893523907074e-02
-1.470142267982382511e-01
-2.586037541267757200e-01
-2.240988189660424457e-01
-2.016167540675029290e-01
-1.311943359361590344e-01
-1.410531697983443689e-01
2.636909553641370724e-02
2.745697110293168069e-02
4.328880049418502157e-02
-1.073063281147942361e-01
-8.788733342250229508e-02
1.660541895275962493e-02
-6.712955809624328307e-02
-7.840745961329820962e-03
-1.294474618893821580e-02
6.278305361019424768e-02
-1.840029170335065814e-02
5.056065422032725992e-02
3.812780745022554922e-03
-5.010094473386060565e-02
9.323727942019481574e-02
6.359798285660644979e-02
2.220491195249013616e-02
4.632108745439225683e-02
1.249472440125406689e-02
-2.330550976157250848e-02
-1.501092726392211536e-02
9.336888390333520499e-03
-4.351399852546833369e-02
-2.271213759045578179e-02
3.167876632917288743e-02
-1.903575707464251129e-02
-1.007259239582451206e-02
-3.446809427009953769e-02
-4.638367142852349752e-03
1.444800356483734666e-04
-4.635045282581071874e-02
-6.872598633173644667e-02
-7.171041576202784318e-02
-3.999875669135825873e-02
-4.905044513848476340e-02
-2.906681054470327055e-02
6.064837464552300106e-02
1.197204425201306953e-02
1.639536757148845475e-02
5.007198032690995254e-02
5.116404057213062156e-02
1.085863109716170630e-02
8.730241564305116220e-03
4.814140779355223498e-02
2.327958238115586040e-02
7.215833217591199888e-02
4.562163783677199852e-02
4.837137270891100904e-02
7.262120096445469353e-02
-8.326231380333641574e-02
-4.499355741166891076e-02
9.013794201478769752e-02
2.891715210881511903e-03
-4.829610807831341557e-02
-4.444148333936005085e-02
7.042819222141434576e-02
4.783314308312595908e-02
-8.454148976571938812e-02
5.217335999942443112e-03
4.049532573652554757e-02
8.690094841794129832e-02
2.279190282996366654e-02
-6.368995330554919065e-02
1.326543893580234973e-02
1.107873576246544509e-03
-1.558231838912111679e-02
2.397627241979181922e-02
1.477779559823092642e-02
2.620565348142873258e-02
3.558382569474540652e-02
3.228257412814906219e-02
2.787311449652645629e-02
7.396126642264520823e-02
-1.355900947779082287e-02
2.164784196222250406e-02
1.029171699472783974e-01
-2.421452538242396257e-01
-3.695016487727366926e-03
1.000767960020224057e-01
-8.810505216301617315e-02
3.749916344039062877e-02
-6.521298518141704914e-02
-3.734616259945737742e-03
1.399034483162398500e-02
7.470108310702733984e-03
-1.886484007370432467e-02
4.945095402127529238e-03
3.058369947113170895e-02
1.314989847958340265e-02
-7.442110935703846047e-03
3.412540620149297210e-02
1.296846391996571597e-02
2.883206695219646745e-02
6.792892359028673832e-02
1.474600395730062685e-01
1.440057617172674220e-01
7.169364477143945133e-03
1.425105056307715001e-01
9.621589300363893316e-02
-3.339053329727503100e-02
-1.066094816627745634e-01
-1.383260255482454161e-02
-5.663960141346768840e-02
-1.405827975726752811e-02
2.529933412938245238e-02
-1.015500549047118097e-02
1.204531461196814771e-02
-2.441703540412263826e-02
3.251656110194649923e-02
3.913063137727851998e-02
2.810808712291657224e-03
4.540110117259892053e-02
-3.366798084697913973e-02
1.012819487098691185e-01
5.788166643849761844e-02
2.173408408133030434e-02
6.640811688100878296e-02
3.716729582622252392e-02
-7.911672603281136307e-02
-5.211937565795796319e-03
2.586796691697321529e-04
-1.200067100467504672e-01
2.276432938488971713e-02
5.753958664416110660e-03
2.992597684774849290e-02
-4.457935615092206011e-03
6.448369536603489049e-02
2.378326947665872562e-02
-1.270942225312274472e-02
4.155687233747103887e-02
-5.542405218110746726e-03
-2.569026517517190508e-02
2.062988628167012131e-02
2.840097428738329322e-02
1.469799497950529527e-02
8.646316473615762305e-03
-4.169294949856035964e-02
-7.485525891040262225e-02
-1.696687911016540526e-02
-2.995847607303374349e-02
-4.045332377749091823e-02
-2.135392569700095625e-02
-5.151958308985210566e-02
-6.100203275438340761e-02
2.695014027189035141e-02
2.735247671506616310e-02
1.637055744870559784e-02
4.448449823523877023e-02
5.244145974389392839e-02
1.576414234161224726e-02
1.025222791171762765e-02
3.564137145500243659e-02
4.409321681620781419e-02
-7.124919288306483245e-02
-6.046387283189364609e-02
-2.682967279521834142e-02
-6.507523974839098113e-02
-2.227430201302505949e-02
-7.488142025373158150e-03
-6.522228305606328491e-02
-5.537271755706239806e-02
1.067018760931887945e-02
2.088203565609628805e-04
4.224664748621927146e-02
3.568388719655362501e-02
7.174991935157704059e-02
7.729222500833661524e-02
8.460835135473131208e-02
5.075600706844785037e-02
3.584497125414200236e-02
2.242697217586796937e-02
-1.497544584335538248e-03
7.002006574406813288e-02
-1.322893286395168981e-03
-2.098128251565452383e-03
-4.109096438926326290e-03
-3.164236781360223877e-02
4.816861685234787721e-02
5.287614012670837499e-02
8.938358781615597312e-03
-2.163398607367621185e-02
-4.907365110364049834e-03
6.904052727360887598e-02
2.558880299156903598e-02
2.927520029099275195e-02
2.759308492275131669e-02
7.005137046176559967e-02
9.410538079522914878e-02
5.394346529900872350e-02
-3.704599981871154607e-02
-4.945760441694443954e-02
-5.552397518522800279e-02
-1.492295077714436702e-01
-1.334873753589049805e-01
-4.861468599002764096e-02
-1.072110715608212556e-01
-1.433467665112107270e-01
-8.686718833324230671e-02
1.391463850963748847e-02
3.965616987289603129e-02
5.888228802230729281e-02
5.299416438405940566e-02
-8.405968252792958215e-03
6.921686903406609748e-02
-6.454587685570911670e-02
-7.309560388499064532e-02
-5.827966735589382163e-02
-1.015456278055080173e-02
3.360127168021687788e-02
2.534835078359275531e-02
2.388046647823254681e-03
3.125333636052157055e-02
5.754276664157091659e-02
3.693531375662095079e-02
4.021173450772409091e-02
6.373094446611606012e-02
-6.483005322089184508e-02
1.999404805955777575e-02
3.932457968575082952e-02
-9.499377973428357880e-02
3.528641235624522393e-02
5.270710163620364458e-02
-8.539842391012163192e-02
2.780936648926850968e-02
3.844856991760515347e-02
-6.671648086455514437e-02
-6.147828538652342495e-02
-3.720887360430315954e-02
-7.298541841898073534e-02
-8.629758372461612814e-02
-5.079917086849110308e-02
-4.154345202242729768e-02
-9.306383050019997882e-02
-8.931298747030082252e-02
2.905470906068998230e-02
6.933589836416829966e-02
-2.338147696170266021e-02
6.231434758742956243e-02
5.189000154916348362e-02
5.405343345199135202e-02
6.524600122075485675e-02
3.272034675706493589e-02
6.458729439035459929e-02
2.178187767827285612e-02
5.491218856577109730e-02
-3.252133226280095463e-02
-2.175924763095358344e-02
-3.437571554835607002e-02
-2.863953640266357972e-02
-3.891648677570599263e-02
-8.311996201301144471e-02
-1.352775224658324116e-01
1.791560029663705894e-02
5.866301529719319952e-02
-3.429595002557542932e-02
4.194590022658857553e-02
4.168579205529492071e-02
5.880124345713752358e-03
2.411611141159824070e-02
5.844801510141899026e-02
1.382369921666494039e-03
5.961213770501296028e-02
9.237320969950790772e-02
1.019676574656630114e-01
5.096179086351156767e-02
6.143581310757768171e-02
7.401553183983142215e-02
4.977562651000789345e-02
-6.047028589455222779e-04
-6.023632280879408218e-02
1.557498532148922192e-02
3.182070963002836539e-02
4.919577636826346495e-02
-1.942216476861698474e-02
-2.421557636030170421e-02
1.360007557429753974e-02
-6.003886287879309919e-02
-6.100341451154966260e-02
-8.750563072384883942e-03
5.738526126387104992e-02
1.704653833642066907e-01
8.975278402267178324e-02
1.187195270982731587e-01
2.088115553833580496e-01
8.062299341920831086e-02
1.499880000872626518e-01
1.814358184131935059e-01
6.592990860113993011e-03
-3.057589830237266576e-02
4.752823461646969033e-02
1.125157113318300817e-01
-4.972560908918734895e-02
5.229387298237309079e-02
7.715883493917226332e-02
5.504033060412893974e-02
-1.226897158592912818e-02
2.064111804127343949e-02
-3.995186087947603937e-02
-1.401844474333353296e-01
-1.046564121975672862e-01
-8.762074528237122351e-02
-1.155702023336267203e-01
-9.475610882119506195e-02
-1.413286302421807028e-01
-5.002088968708375688e-02
-7.519708963744657637e-02
1.090617840241625419e-01
1.885949580342627940e-01
1.200919466252597240e-01
-2.487947279471446754e-02
3.484836608245586026e-02
7.250748262280061474e-02
-9.844196459689409651e-02
-8.137127412238501223e-02
-7.923143803730348100e-02
4.306771610355211027e-02
6.477927001954315867e-02
-3.931558668380450566e-02
7.519633618497333083e-02
7.181511393486866845e-02
7.025428699511555679e-03
-1.062474837312995732e-02
-5.551215958208496892e-02
-6.875552891988422066e-02
4.058025355404638185e-02
6.912202275719565858e-02
2.571043768953940739e-02
-4.641298296266305884e-02
2.402272722339027135e-04
-2.956771410867800598e-02
-1.487332665129633379e-02
5.034438969810662440e-02
7.444461869356848449e-02
-8.483301550428924698e-02
-1.501665212583354891e-01
-3.255081792914590183e-02
-1.127386587173771493e-01
-1.601664152549054920e-01
-1.248897882065892195e-01
-8.706551559407540997e-03
-5.839932467508465036e-02
-1.049957320481521295e-01
-2.417036485996224698e-02
2.789176335833925061e-02
-1.259093363094946627e-01
-4.868025723585532594e-02
-1.146095459929412641e-01
-1.008758876478620115e-01
-3.375063020187008683e-02
-1.699842027173052439e-01
-7.551583908181537953e-04
3.194122340568080615e-02
3.959827601704785788e-02
5.664261340416809620e-02
-3.044288598589390063e-02
2.342187239363135998e-02
3.434657028510738203e-02
-2.222718608260974490e-02
6.353119241559390673e-02
6.523808264010799718e-02
1.763024297434456766e-02
-1.317908360133615044e-02
8.823199136655801578e-02
1.422109417249882261e-02
2.611771558086803478e-03
-3.737520517641157447e-02
6.746634422693512101e-02
5.668331226214592955e-02
-1.093177182512062584e-01
-1.568548895772231902e-02
-7.260302643112798160e-02
-6.642775125939374969e-02
-4.596612618629093011e-02
-8.638910341435196427e-02
-6.144651632871584584e-02
-1.678358692147545114e-02
6.258625740654990763e-03
9.692393979234093654e-03
4.467138067685494200e-03
-9.168006144651831557e-02
-5.946863702703297089e-02
-3.261503444382700401e-02
-4.180486408644074059e-02
-9.440668525281524504e-02
1.892400429203399889e-02
-7.153554668148502660e-02
-3.516011791463199976e-02
-2.267498800254372573e-02
-9.534953473381196920e-02
-1.456819881118182614e-01
-5.506408698723422313e-02
-1.148549904576365577e-01
-1.273215405334705008e-01
-8.429040547932628580e-02
-1.876014390963048062e-01
-1.138791674470243515e-01
1.630224704816510967e-02
2.309963701131801175e-02
-4.381502736229538064e-02
-2.078871485474321264e-03
-1.032909326764377793e-02
-6.755713125639720845e-03
-3.953255259742025768e-02
-4.433487407048705004e-02
-6.806993154216534059e-02
1.028537793739672940e-01
4.967648647281602825e-02
-1.060748641310975127e-01
4.352192281323807865e-02
-6.708826905302076038e-02
-2.162844872941287189e-01
-8.576814409421734675e-02
-2.230854918767440076e-01
-2.214143626897587813e-01
1.098280159033176474e-02
3.185789635441674608e-03
1.776320204329872449e-02
-1.931327120816288961e-02
-2.069606593683721851e-02
-1.875620803010296864e-02
-1.050079825286476948e-01
-1.109073254780117285e-01
-8.969454112505373389e-02
8.199076913559283364e-02
3.506354199178593478e-02
-3.209537410197147583e-02
7.579442569328743995e-02
3.415835093511172815e-02
-1.132791832142928251e-01
4.498134516712163494e-02
-3.495178164983823998e-02
-6.090000148528140061e-02
4.331772644770020414e-02
2.695159958276333034e-02
9.680269429381277435e-02
-1.350073623742079343e-01
9.676959062299843317e-02
2.056548101266253425e-01
4.904127676265588459e-02
5.595488402100596420e-02
-8.215140241143764621e-02
1.405237477814866853e-01
-2.499366714523261757e-01
-5.048295497487526040e-02
8.950433599832529827e-03
-3.430146974527521070e-02
-1.448029502333508800e-02
9.302338873498773586e-02
-1.174859383736784509e-02
-1.652170172295671507e-02
6.227573725485721634e-02
6.608525658742753217e-02
-4.081977607830928473e-02
9.025528018525189045e-02
1.595989181240603863e-02
1.168757419945172654e-01
4.212757701997203036e-02
3.862955731839495810e-02
-5.075112140498022617e-03
4.016772910794056545e-02
1.128489597998462157e-01
1.681788995275159543e-02
7.331292252782116436e-02
8.452979055962696331e-02
-1.052205230101889433e-01
-2.269676436923447407e-02
-1.221664084205578565e-01
-1.259000391133010543e-01
3.373288845597674675e-03
-3.675786985918173388e-03
1.013810501948333859e-01
-2.462369643945937214e-02
7.386841966750599953e-02
-2.365521003053722149e-02
-3.666229254417269906e-02
2.273783980824233691e-02
-2.356486523123754381e-02
1.442080471398999864e-01
7.325973450142776733e-02
4.989294973732798927e-02
1.554418140617263300e-01
1.239554749525125094e-01
1.968904988649169407e-01
9.153027683837665351e-02
1.864255627908604218e-01
1.715772316051876467e-01
-3.093425816919858490e-02
1.581374940298546916e-01
-1.816340352677006387e-01
-1.694994804692822460e-02
5.873047903454464008e-02
-6.374000262034826281e-02
-4.253532423903257781e-02
-1.818693745265458628e-01
1.676131242319734427e-01
-2.501441128595576976e-02
-1.011028058326861462e-01
-4.068359718732218050e-02
-6.324484912484083787e-02
-5.544948574027677712e-02
-5.063105385700640559e-02
-3.664770099526305086e-02
-3.823564079774550289e-02
-2.291533345336906058e-02
2.346637418299092614e-01
5.248927864825020384e-02
3.613875875300111284e-02
2.385629766869308555e-01
-1.162039148180795678e-01
3.496563788405012696e-01
9.907609270077534502e-02
9.833714287383850394e-02
3.163975822415443506e-02
3.476896279740718937e-02
2.085941434091721433e-02
-6.208765081644859740e-02
2.902576671237289130e-02
-9.098470984648937554e-02
-2.682332571869793653e-02
1.252525057597996851e-02
1.170908586480061409e-01
3.518059626538016377e-02
4.202341868430258670e-02
2.282680020287546907e-01
1.359407009225050700e-01
1.970646077741165098e-02
6.617603043776022764e-02
9.037903185142924511e-02
-1.431147965043625403e-01
5.311497330417082677e-03
6.373513050750663489e-02
5.551619268799726226e-02
-5.094121008154293972e-02
-3.634704872783128121e-02
1.923393638683246198e-02
8.185079018876895152e-02
-7.699536266509136688e-03
-4.002471972450778043e-02
-5.135427657996620432e-02
6.317033726210634359e-02
-3.610830566412408932e-02
4.367006696980327979e-02
-1.639818174433718412e-01
8.187693369838097701e-02
-9.235599031865755759e-02
1.426634920244297944e-01
-4.718025837246375698e-02
6.448104049564579165e-02
-2.045349773959754813e-01
-5.529379932898835504e-02
-3.306417428314530060e-02
-4.719039541820391204e-02
-1.225477823493420319e-02
-3.647849756954101713e-02
9.378206060774239849e-02
1.451455713193859284e-02
2.740415117103205817e-02
3.496350216335242234e-02
6.125854687956010756e-03
1.491300824528371018e-02
3.605881987142228740e-02
2.165599811639627031e-02
-4.544278093671944019e-03
-7.065259636481366345e-02
-6.961676229196171739e-02
-7.527038205576881691e-02
-1.045426652831204783e-01
-8.472310569995798735e-02
-1.402005388710789446e-01
-1.111629027002392495e-01
5.027085407342514467e-02
3.465700145361721995e-02
-1.626935964839626714e-01
4.045622874322372942e-02
-3.409757897370362112e-02
-8.631998597252182881e-02
-5.628871036438282821e-02
1.464171866543727404e-03
-1.262136607534366422e-03
-8.036840265882025380e-02
-1.068301993789581156e-02
-4.831150636567818624e-02
-1.136338496565407058e-01
-3.778552082111778093e-02
-3.066842453590386264e-02
-1.289858365274717221e-02
-1.930567702504912622e-02
1.068756377892412374e-02
-7.715309419783355702e-03
-2.840247310483771243e-02
2.055245338024935808e-02
-8.174849794390190438e-02
-2.648319886990890479e-02
7.304076754659717154e-03
4.438179132307280839e-02
9.789680095145224248e-02
5.811272292511537180e-02
4.531109806648477012e-02
1.244648652249147752e-01
1.277154331396780917e-01
-2.944159404353640166e-02
9.603733514165282981e-02
1.035569216665915837e-01
4.147882724697537354e-02
7.871711156163989365e-02
3.628538346504343176e-02
2.414515276861403659e-01
2.979499857035561861e-01
2.578614731505838864e-01
2.006941203406317487e-01
2.839256602618985825e-01
2.069754584438944223e-01
-1.552044577885187959e-02
3.791968925171319144e-02
-2.327244083522738566e-02
-2.922170318264268214e-03
1.096561392347257247e-01
9.797914513472516518e-02
1.992963294758932219e-02
1.097717766962578445e-01
1.252773378679151173e-01
-9.769350404747330352e-02
-1.074442200002353742e-01
-6.946590767322627369e-02
-9.010879854200042061e-02
2.958608724748289578e-02
4.171110595438273089e-02
-6.820086187852918147e-02
5.715871668973688050e-03
5.407898496783823672e-02
-5.715496966720774036e-02
-1.027747224820366179e-01
-1.401048130820574389e-01
-1.257940280973105507e-01
-9.046187286422316398e-02
-1.670082937282393321e-01
-1.065127890346615203e-01
6.154872565077180828e-03
-4.893071994813065484e-02
1.687706737421543202e-02
3.511670567105384250e-02
-1.728649567348145011e-02
3.904873684960367963e-02
6.715637487994942367e-02
-9.823905190079078309e-03
8.251070140567079436e-02
8.380797178226928601e-02
2.541506131988987421e-02
-4.892481107328618128e-02
-7.911503632299821120e-02
-6.139506291918494368e-02
7.727086717057360735e-03
-7.639730197345762086e-02
-1.397436764994594016e-01
-5.240495867270111158e-02
-5.578364126712460208e-02
-7.308915427940261555e-02
-3.457535263909148476e-02
-5.295673337565966199e-02
-9.449341133903152445e-02
-4.057605446551031808e-02
-4.728028681844881342e-02
-5.101324037397456795e-02
-2.362396949889743539e-02
1.378935805978674309e-02
5.277959507284702562e-02
1.903029862139517421e-03
-2.436261460310297847e-02
1.086370770493201273e-03
3.868283064505666224e-02
-2.566268936688686012e-02
-1.536814525881968242e-02
-3.334557758721706094e-02
-4.025246901303362879e-02
-2.836145059306119723e-02
3.204040111538006969e-02
4.022017105233300499e-02
1.058297547119687373e-03
-2.563653452873589696e-03
8.634972495621563715e-02
-1.463927176470960351e-02
1.945532556001739258e-02
1.171823862968240058e-02
1.478759383676898215e-02
-3.774442304903437295e-02
2.451736766838586226e-02
-2.561217653041187106e-02
2.793086662152919480e-02
5.226005153706674011e-02
7.932782543318328550e-02
-1.792974739795367631e-02
5.375646821171934688e-03
4.022601501516279350e-04
1.021179163762940267e-01
1.406976479269459596e-02
-1.231994666475291628e-01
7.337134844459902716e-02
6.704470363659026377e-02
5.321702396929041401e-02
8.530478263277922746e-02
1.141274575498138627e-01
1.780356126365748581e-01
2.933008178757553347e-02
3.636538046749530212e-02
-9.171683848156655938e-03
3.587602948533046010e-02
7.259691047919178408e-02
3.870014333790221250e-02
4.150062733561907767e-03
6.677175331858725693e-02
4.745287469495628602e-02
9.865450290611545159e-02
9.186568455351264498e-03
-3.010812660319034037e-02
8.537177841721634020e-02
4.458780418337653789e-02
7.707180365885706042e-02
7.722616254828262861e-02
6.490523185501716197e-02
1.052752461783625082e-01
-8.974819369459467733e-02
-4.945281883458619437e-02
3.855397508228176895e-02
-2.290431731168653725e-03
2.070315509648711430e-02
1.117402974625629625e-01
4.397586481356408755e-02
5.924807406139531545e-03
7.093241731169723507e-02
1.670783992981474814e-02
2.513948511861917659e-02
-2.200640843427837182e-02
3.408825331510972889e-02
1.124128302816190805e-02
-2.054392868636360434e-02
2.248916657264031851e-02
1.141100589113585098e-02
1.430054977581773565e-02
-4.210242245837707981e-02
-5.206568672309876827e-02
-4.871996995174075057e-02
-4.876745651591752467e-02
-9.414010746014954412e-02
-4.883843802847977894e-02
-7.074259296426248234e-02
-9.659367024578080496e-02
-7.920368020987006430e-02
1.011421438980103227e-01
2.143363674637237259e-02
3.368963644049632195e-02
-1.103418368532125757e-02
2.453859238020496616e-02
-2.092230539665613370e-02
4.801287682151115371e-02
-1.414447881627766551e-03
-3.389544509310445791e-02
-9.508375618052027078e-02
-1.545892394128748903e-01
-1.088744233273924999e-01
-1.521205379467053531e-01
-2.175887907455915093e-01
-1.936843755602616346e-01
-1.420520898457936776e-01
-1.694420330321959600e-01
-1.534793038649468477e-01
-6.014945445046335215e-02
-6.147588538551844450e-02
-7.713695683110835533e-02
-6.456302162486654561e-02
-7.740163540682550025e-02
-3.750241085498907945e-02
-2.537523056036847593e-02
-2.907069277863029433e-02
-1.344433644963905980e-02
1.836616079602328491e-02
3.706113476537437751e-02
-2.126363458861048675e-02
-1.126188698523197980e-02
1.686255053668097095e-02
-3.475951672967930034e-02
-4.828945606428972082e-02
1.250873503128775363e-02
3.953022969533295100e-02
-4.244716123982122252e-02
-7.083630120328771040e-02
-2.847607094998145724e-02
-5.270042379759495854e-02
-7.374273435985773117e-02
-5.496396937403258409e-02
-4.789383789976674882e-02
-3.161153228289277639e-02
-1.777774537487932308e-02
5.573822870811612901e-02
9.204986010698512633e-02
1.184609814903684992e-02
5.787272461198045281e-02
6.541878859540260771e-02
6.139245171156754166e-02
5.613983268241308500e-02
2.024254767940191976e-02
4.911776829266847541e-03
-2.176796615301775789e-02
-4.550332607376981336e-02
-4.811927330019845350e-02
-3.178114097686564332e-02
-1.952087703830034104e-02
-6.718596734655893701e-03
5.863000695110158478e-02
8.194721935778480348e-02
5.485104526658315244e-02
1.388320015471122826e-01
9.817140198772629500e-02
6.056547145486802092e-02
8.469707327700205790e-02
3.946034407617651785e-02
6.533003735509645971e-02
8.197911572559982152e-02
8.626806453272577169e-02
9.915541622271509259e-02
2.099840516358870632e-02
-1.805686923183443676e-02
-1.819296835645729457e-02
7.891106570513232998e-02
-4.413566529380601872e-02
5.185685678460903551e-03
2.625768469616192313e-02
3.880572998508604460e-02
1.269842843913369934e-01
-1.382190043144935002e-02
-2.938748144055653572e-02
6.966028050939159985e-03
2.414024512504042361e-02
-2.443187984044124447e-02
-4.197045341349374403e-02
5.281199980780004050e-02
1.788085352832655475e-02
3.242140460504108063e-02
1.596621486940628942e-01
-4.205323819470406857e-03
-2.852310406326694428e-02
5.591819646512456721e-02
3.059540559751630986e-02
-4.688258436017071068e-02
-4.382512754594438883e-03
-4.027016737660684548e-02
-2.674178899670041562e-02
-4.330858505860272220e-04
-3.290384603730400065e-02
-3.656099197776369047e-02
-4.885348963096639713e-02
-6.779844856109377982e-02
-5.305143219875926158e-02
-2.438693079519236445e-02
-6.654118985019402688e-02
-8.406970494074486600e-02
6.406696054030001745e-03
-3.775704578372448411e-02
-2.496835417129861581e-02
4.453676292535808240e-02
2.689535920360107760e-02
-7.446618913348461433e-03
7.156902495174778667e-02
4.220714445838191081e-02
-1.320963658953239065e-03
-2.681724161866869821e-02
1.789872345047919810e-01
-5.953891983556827781e-04
2.784748192467735306e-01
3.757096569755404847e-01
-1.897809660129845533e-01
4.904793726048303770e-02
-9.012331558158509504e-02
-2.492693586362835709e-02
-5.311109674308691492e-02
2.103759718636528386e-01
2.735934290605186378e-02
1.840103068151143981e-02
8.567177265904976635e-02
-6.388764676613514770e-02
1.428816398387155323e-02
7.783303329840457474e-02
-5.173740909363658269e-02
-7.899967474781223464e-02
-8.230501288420835615e-02
2.430296883128883409e-02
-1.620861115007089515e-01
-2.998357347673420367e-02
-1.231196134770325967e-01
-7.542093266250294095e-03
-5.330440271717588885e-02
-2.160589744737757834e-02
4.190863693168724730e-02
1.240507073097050633e-01
5.099666998933769652e-02
4.658684396084090962e-02
4.112991744116603621e-02
1.429895544519073358e-01
7.497074673821002566e-02
5.308693101524489949e-02
1.732816788694037727e-02
-3.821157085832360689e-02
4.748625066896160207e-02
-6.265337105174051402e-02
9.564888120400630344e-04
1.920444064848231963e-02
4.341256147907215229e-02
-2.973517510154339780e-02
2.776115519628567785e-02
2.305944364734646354e-02
-2.556613052991350029e-04
1.022472041750608490e-01
2.090021353493492703e-02
-8.702237385084403420e-03
2.157520151464027425e-01
1.136101204496020450e-01
-7.277662766636169844e-02
-4.505399497247221385e-02
1.950183292795404713e-02
1.125580677209729596e-01
-2.023499729230409938e-01
9.596447469286704945e-02
3.371620460407641785e-03
-1.870755209810787412e-01
1.901609683616788116e-01
-1.465327984724220101e-01
1.672249262344225051e-01
1.374729703422980509e-01
-3.081386595511865362e-02
-4.322675581250538801e-02
2.260835833123190849e-02
2.468118852336559713e-02
-1.996566603766739348e-02
-4.842521200912758977e-02
7.426309284754288587e-02
2.523289159378249574e-02
3.779873388516721139e-02
-1.156626070190005517e-01
4.138492913746185525e-02
1.574727524827058411e-01
4.825147183891562164e-02
5.895737680532018299e-01
-3.774509663800576509e-02
-1.467988695867728510e-01
6.655525531451006449e-02
-1.052113204975711896e-01
-6.952183659088191636e-02
-5.571397016949163061e-03
6.064643464635138814e-02
-4.381325232074492065e-02
2.428134373027538706e-01
1.131675514436330382e-01
-1.268207844987242344e-02
6.320711357064674740e-02
1.106977780825068036e-01
1.410165865249458361e-01
1.128106665661059160e-01
1.662848322808314627e-01
1.704842849798157423e-01
-6.639120624624378353e-02
3.052708898022311185e-02
3.051745866475917279e-01
1.761137830806046856e-01
-1.742776467645761052e-02
4.826580504320138187e-03
9.386429678665342280e-02
2.512048250256339668e-02
2.586567638759537657e-01
4.646202946518546151e-02
2.573276612500476901e-01
-1.522009083945190938e-02
1.711899788165819336e-01
7.336805780394556331e-02
7.962768594199801098e-02
5.775692070449992693e-02
1.820876179923333893e-01
8.551859072506970416e-02
2.210632029747593430e-01
-5.180896842858722512e-02
5.623862325553506680e-02
6.966034913411597862e-02
1.196761089081861684e-01
1.394463898259810652e-01
5.588334115626111126e-02
1.040151157288512901e-01
-4.735649758180004651e-03
7.623642921501615211e-02
2.102452561171070378e-01
9.900522540128293969e-02
3.791861227039743376e-01
3.735833830605545525e-01
-1.120252804112406159e-01
-9.053379304681770379e-02
-4.147232893333727827e-02
-1.306107223918601679e-01
-1.104718583001546711e-01
-8.412852794176339799e-02
3.052188739414295193e-02
-4.172816310794722622e-02
-8.919515562706184508e-02
-5.048942540733978440e-02
9.121522687466818158e-02
5.619706515067329766e-02
6.898989408919167787e-02
1.033619166014979329e-01
1.050754006838643395e-01
8.689132812054020660e-02
1.257365955699027704e-01
3.509972477708299399e-02
-9.420790163740534739e-02
3.658195003928486899e-02
8.634482265908437204e-02
-4.154324336370938675e-01
-9.932937213413821353e-02
1.470118851748476729e-01
-1.759470030841048527e-01
1.612384821248112263e-02
2.222063103295207967e-02
1.171542125385409555e-01
-1.473371759620576149e-01
-2.177102323726200217e-02
-5.015725206339629455e-02
-1.319601826251056986e-01
2.043512380153964525e-01
5.106320331412599750e-02
-1.319724730494267195e-01
2.008880878641642470e-02
1.235042617255925484e-01
5.028381302460555730e-02
9.050693811083157514e-02
1.664285509280121478e-01
4.559185357921682197e-02
5.040039466808775986e-02
3.792414926776229572e-02
-1.734087390393810463e-02
-1.240397719849622576e-01
-2.893109881379879109e-02
-1.874762700234413812e-02
-7.644142681093288316e-02
-1.351507514377624508e-01
-7.168753883161484153e-02
-9.537696173060493388e-02
-7.727653453541133421e-02
-1.189405940372504356e-01
7.430563741815504261e-03
4.966972260693261476e-02
-6.382313451475365995e-02
4.485478416214447317e-02
-1.082861962456519722e-01
-1.059938357164026679e-01
-1.757708192179359419e-01
-1.445170126632473462e-01
-9.453610664893882798e-02
-1.427151148205960673e-01
-1.008135105588747922e-02
-8.386460489466927848e-02
3.477562004155370506e-02
7.828215099095210683e-02
-1.480744443066163984e-01
1.179984633250709819e-01
8.485253200856616995e-02
-6.863399938075911977e-02
7.599017691318919743e-02
-5.104589535575226183e-02
1.394360802939090260e-01
-2.228963226260922970e-02
-1.949571345441352688e-01
8.348677444406804593e-02
1.618110131695223858e-02
-3.638139818955493654e-02
-1.206985428429945967e-01
-1.734612077477453232e-02
8.761447544066235105e-02
2.246184644842784753e-02
5.818709055983466161e-02
4.795051144477265048e-03
-1.605392710158098230e-02
3.290667096543394704e-02
-4.295364684484417189e-02
-4.140206820104459090e-02
-8.437492865355927102e-03
-3.808676045090781531e-02
-2.455806067489198496e-01
9.093306739490635004e-02
-9.572567527905184726e-02
-6.130176030056585512e-01
1.909499367233193912e-01
-1.195171036316902274e-01
-3.645476695453523930e-01
-1.120583745453147123e-01
2.835103639979238976e-02
1.488929536229912157e-02
-5.642424459017289506e-02
4.984668571134455439e-02
-6.822160749673472635e-02
-1.393706876341968375e-02
1.557419256165574637e-03
1.995902824085667854e-02
4.646443062617169883e-02
-8.941111374193665140e-02
-1.890960212435469634e-01
-2.997807951597710949e-02
-5.688661542134604288e-02
2.529802657753112485e-02
-1.408298397529942070e-01
-1.237227981405608773e-01
-1.862595560272815864e-01
-3.472683465932356328e-01
-3.625492465507539064e-02
-5.955476264300794270e-02
5.269530831125530251e-02
-2.543425896233238170e-02
1.168754986583455252e-01
-1.436299912000801350e-02
1.709212711916706096e-01
1.285846112500661775e-02
4.638924363862432371e-02
8.278922317587697477e-02
3.670131540052309210e-02
-1.744303013701878069e-01
1.767473251065926343e-01
-9.133191066993438800e-02
9.931111388522417815e-02
8.591140908125480258e-02
9.762090812446183596e-02
-5.595700953848755516e-02
-2.739922666169662679e-02
-1.864788070607362458e-01
-2.493056062908925730e-01
-1.211490945939546898e-01
-3.172559539864298617e-01
-2.142990821197522100e-01
-8.955503841189800529e-02
-9.671091623835484374e-02
-1.418127569351627093e-01
1.141785867755561873e-01
5.677881192834795948e-02
7.581180231056140750e-02
1.692633309623860771e-01
1.209681085929222161e-01
8.337241014517983440e-02
-2.386341096048392660e-02
-6.551109125457067750e-02
-6.504920317099199822e-02
7.968616978671022588e-02
-3.770759452533395395e-02
8.548519743866654641e-02
9.133559146196042547e-03
-6.225068242247320562e-03
-1.913257829672725466e-02
-7.607884155470591436e-02
-1.565349367371553502e-01
2.474108029768067735e-02
-1.967206640756782171e-02
-1.039029835906027377e-02
1.834804602829290948e-02
1.433684077119237905e-02
4.748304346050027935e-02
6.146750881983534254e-02
3.377926293242283773e-02
4.957956639058890350e-03
6.177130503851840232e-02
1.683814200240177144e-03
-7.053700885698904396e-03
8.163104669134125732e-03
-4.464148576406334369e-03
-1.217328055998569136e-02
-2.107028654559725545e-02
6.625967873902914584e-02
-3.337796285515702566e-02
-1.371705418235636201e-03
3.164077021786813187e-02
6.447840509806491982e-02
1.083310837453025505e-02
4.064137870456488444e-02
8.811646141938632437e-02
5.215013049615328106e-02
-1.748024171062084048e-02
3.375471638596534707e-02
4.952991552844312334e-02
-6.536120808103586255e-02
-1.227898096275636952e-01
-1.038816755525723556e-01
-1.065848821948758296e-01
-1.096966626325742156e-01
-3.172901604728017855e-02
-1.103905369562883376e-01
-4.332910646733002802e-02
3.508852827874546498e-02
3.420657056684196784e-02
5.953456425081739972e-02
3.088969634618246932e-02
3.076173296058880291e-02
3.182261708801485678e-02
2.782170706017150427e-02
3.462190183047403336e-02
1.291536980342980132e-02
1.441037857067720661e-02
5.215107839049213517e-02
3.922421008036344053e-02
2.273079844779183831e-02
7.051072633213907592e-02
-2.236858530278799592e-03
-1.036706633053715654e-03
6.208749908844665016e-02
6.613800357480570380e-02
3.059914479657952976e-02
1.419076476988914426e-01
9.710689453453980047e-02
-5.115806898141408293e-02
6.392790566848016720e-02
5.359266900313464088e-02
-9.728639908727070018e-02
6.791006148932178521e-02
5.300170780280472060e-02
-7.140308659687365223e-02
6.146748531832281178e-04
1.280922678883974174e-02
-2.680141709534456310e-02
2.897930382859167237e-02
3.972412877128982805e-02
-3.579384000522589648e-02
3.418221124910099384e-02
5.456887483075124196e-02
-1.533787829695187205e-02
-4.554181069139551924e-02
-5.443030991285370546e-02
-2.464972593135104917e-02
3.173741705462715390e-02
-3.484683794046718186e-02
5.497433389235172052e-02
6.792663788949541981e-02
-4.719464464944541499e-02
-2.673080523417015880e-02
2.038427426120933278e-02
-2.481419343297924796e-02
-3.104456347994073370e-02
-1.457086569946598395e-03
-5.451569482480667778e-02
-3.525371179312218606e-02
-8.503106534642554046e-03
-4.165085013978890582e-02
-4.931840974947912515e-02
3.416963010605805762e-02
3.246461808988129055e-02
7.215388941778143328e-02
5.496478366104185333e-04
-7.809397191546410544e-02
-4.588001782473014045e-02
-5.805779422406349109e-03
-1.899232746025884128e-02
-1.739381959858139759e-02
-3.001137666841915963e-02
-7.277405124743423215e-02
-8.895172084250198286e-02
-5.377989771965153987e-02
-5.104393780271388598e-02
-2.446501971051274690e-02
-4.994796826722656263e-02
3.319080699332898482e-02
7.946443441704022226e-02
-6.504183819338060779e-02
-5.741754408488081163e-02
-3.582096858452706728e-02
1.328061072663170618e-02
1.864983521780561385e-02
8.066424146873807377e-02
-2.922776573601460967e-02
3.002833065956082848e-02
4.272575918651119742e-02
-5.968887204857736654e-03
-5.793957926586872087e-02
-8.840206276706594202e-02
-3.661551320394595271e-02
-8.790955410304136797e-02
-7.424590005746362076e-02
-1.334069861049361205e-01
-1.019774341641953436e-01
-5.691401242809426830e-02
-1.055055830656122760e-02
-1.877071054721917570e-02
-2.054919769218068598e-02
-1.774819577253906530e-02
2.416591282696386317e-03
-1.004884018315851946e-02
4.078003449497754479e-02
4.279492100436228796e-02
2.226424172067425697e-02
8.576699170989960166e-03
-4.439112571781145267e-02
3.435711185552656893e-02
-5.961974626637882302e-02
-8.036897629910465246e-02
4.601056089301623631e-02
-1.037869096201997771e-01
-8.893325648748816314e-02
6.437146538219996883e-02
2.045156681501719698e-02
1.779686582336155454e-02
-3.876814614389375874e-03
1.714359318485896011e-02
-2.230696890173183844e-02
-5.096030633931356718e-02
1.912973897873801801e-02
3.042239542274296181e-03
-3.157896846084774084e-02
-3.706715436023981427e-03
5.536984668633850720e-02
-1.389457136214419103e-02
-9.796393284587395778e-03
3.161108571052309579e-02
-2.989268885745386892e-02
1.811338484427265152e-02
3.870769958360392726e-02
-1.402529416027399958e-02
-2.411655734858784289e-02
-3.180986547128442782e-02
-1.497724846813824548e-02
-5.375821719907120273e-03
7.673113885315550539e-03
-8.945718936581303904e-03
1.217156722761131120e-02
1.999494024323239527e-02
1.841309154258684647e-02
-2.204220411779192132e-02
-2.161901303737619184e-02
-1.715706103443137912e-02
4.399316801613518089e-03
3.680557261212691767e-03
-9.775548435850333479e-03
-2.063791445280426656e-02
-2.155236184262977316e-03
-9.604731834469479659e-03
-4.621326791581366333e-02
-4.399972275535734417e-02
-3.683840271400551369e-02
-5.939839038479221428e-02
-4.837876994981390316e-02
-3.128222355159899354e-02
-4.853302513701318599e-02
-5.031986747175240526e-02
-1.552123201401353104e-02
-5.781048535795883098e-02
-5.275008858157038266e-02
-5.470325936909842951e-02
1.448486501588596397e-02
2.582642769184545842e-02
-1.191107226304156073e-02
-2.694936879090715706e-02
-1.057918863988446638e-02
-5.832264000433374368e-02
-3.340838256256769417e-02
-5.405921782624817373e-02
-1.966911621566289417e-02
-3.091166877766104645e-02
-7.655277992535959586e-02
-1.943868017650088320e-02
1.580210210342653659e-02
-1.346332592709375241e-02
-2.106977402996432214e-02
1.203258876460659016e-02
1.108760105532067414e-02
-2.087262371513277492e-03
-4.690377614116167555e-03
-7.439331914359201617e-03
-9.063054603737420375e-03
7.681557245245344313e-03
-1.085547867820447522e-02
-5.814915336785875591e-03
-7.573809586099804030e-03
4.332117595657654190e-03
2.214486553270424152e-02
1.110628741092664108e-02
8.488626530955641070e-02
-6.284650900758380343e-02
-1.162679205596052825e-02
1.158046930542195319e-01
-3.235272722314001814e-02
-5.130915656281231918e-02
-4.067328012630176681e-02
-4.760428472013306100e-02
-4.618532469295455641e-03
9.474705842074493400e-03
5.293262639874873540e-03
-4.207561990224781279e-02
-8.552902362118950524e-03
2.379402284704489664e-03
-4.683434355855541423e-03
1.062213190692200097e-02
2.835733990475616112e-02
9.888922084076021829e-03
4.536712499323867359e-02
4.263200445067374944e-02
-1.737455778496566419e-02
-1.058559507083787696e-02
5.008397466081360508e-03
-6.519072299168524043e-03
-1.187573453577953075e-02
-4.020538455737500405e-02
-2.103853204220290651e-02
-2.996580726523104948e-02
-3.896158875200653876e-02
-1.798947352885976389e-02
-1.093156033381696007e-02
-2.988654160127830750e-02
3.793125960231528981e-02
2.758611113565178838e-02
5.423541728839974957e-02
-2.527196531583385253e-02
3.124533515197943853e-02
-2.599670843843233242e-02
-1.489614086411327962e-02
1.865635843515058012e-02
-8.892878402323599676e-03
4.043062348579470021e-03
-3.741519059015860349e-02
-4.251937963764110262e-02
1.536827513198659421e-02
-3.282305602018752849e-02
-5.393233596915070205e-03
2.767831997828520615e-02
4.581508404079239621e-02
6.873420626256661337e-02
-2.084638044541318319e-02
-2.788728535644168643e-02
-3.366134784339448738e-02
-2.308235710995389101e-02
-9.418103626613327783e-03
-1.485155161842091967e-02
-2.470080342876091947e-02
-2.545748874865196715e-02
-1.749457710240124100e-02
1.336749593141972094e-03
2.154722454145157479e-02
-7.833044173513485642e-03
6.030649650205123155e-03
5.338377528972213654e-02
6.104551174266972108e-02
2.836300576687905695e-02
6.481543013325316571e-02
6.726170451908602965e-02
1.370465255359160951e-02
-3.185003481087535226e-02
5.791928559290506623e-02
1.327014522768343342e-02
-3.442280052087295927e-02
5.590636745396149881e-02
3.929629582126331622e-02
5.909164690612384724e-03
8.362618567729646069e-02
4.614954200164184811e-02
3.826849126847381433e-02
2.937690362118369064e-02
5.988956180419093001e-02
5.096748459523083030e-02
2.584333920300283666e-02
2.193148472841374708e-02
4.815205288580613058e-02
-7.769015269987149599e-03
-3.750964859868362571e-03
6.599936778129275247e-03
1.348358484186756683e-02
1.715288661397817299e-02
4.705627270035026444e-04
1.936253814018379024e-02
-3.892251735080862890e-02
-1.686853071946155247e-02
2.773680346513048706e-02
-2.401689177697645481e-03
5.393698662676947760e-04
2.849120218893643613e-02
-1.640133553288053783e-02
-4.399876007723307891e-02
2.653627095019010437e-02
-6.067285801388903194e-02
3.778389823628443278e-03
7.032482375827286969e-02
-7.531389801073680446e-02
-4.575819743115511901e-02
-4.884423805683205111e-02
4.360011546305764089e-03
-1.276165076683570369e-02
-1.138815693185030176e-02
-1.639214495204937075e-02
-6.876470363844085221e-02
-2.930828287230995491e-02
8.016622369172965445e-02
6.673262986018625720e-02
1.119082831285824753e-01
1.079572211457778402e-01
5.945178746776466627e-02
4.597337370155150926e-02
4.884568977967354564e-02
5.342220841277205146e-02
6.295850896412143183e-02
5.773367813509629881e-02
9.848892328308254951e-02
-6.075240769080542287e-03
4.568362690148019406e-02
5.767657647299753026e-02
9.558999679553094667e-03
1.984856852172119102e-02
1.926569799611032793e-02
7.803781368717301785e-04
1.832127492449911466e-02
4.609028093352257605e-03
-6.253664777597698829e-03
3.504155996870466500e-02
3.099509434567497904e-02
-1.648685105509083496e-02
1.517139654127889169e-02
4.248535212021250368e-02
-2.338556397734573022e-02
-3.991494450864526561e-02
2.563858117888074759e-02
-1.131384597055763545e-02
-1.203928971449751834e-02
-2.667695870437436501e-02
-2.570723828423799456e-02
-2.627129644338211875e-02
-1.822961431107622196e-02
-8.176360075216199119e-02
2.779395670270586732e-02
-3.300432272429221214e-02
-5.632885008432405444e-02
4.257948159251552511e-02
-1.020033058514642661e-02
-2.884760986977048455e-02
-2.801963746033744179e-02
7.506670266986420828e-03
-2.011319468268718894e-02
6.042935412434200654e-02
-1.781628590506132218e-02
9.086194603016717330e-02
-3.982255338355373403e-02
-7.907201190806235902e-02
-3.174674350472812129e-02
5.497351419910222886e-02
-4.778768059858481965e-03
-2.979967879441354842e-02
-1.091730580492761803e-02
-3.420936259768805887e-02
-1.366277326658798565e-02
-4.077333123028242801e-02
-8.717818029611740238e-02
-5.556513564574370317e-02
-1.179639204817550940e-01
-6.865127986488969714e-02
-2.784251797317855576e-02
6.307975022712658530e-02
3.727817532317953542e-02
1.461374642372808771e-02
1.092359885857309837e-01
4.337986957696081392e-02
3.939496816300570164e-02
4.270174844655546739e-03
3.486101705359864050e-02
2.749952498925962302e-02
5.105878925331518159e-02
3.922154350917084892e-02
-3.776453629506697912e-02
1.352088236644947115e-02
1.426325808570903624e-02
-7.764824635688014065e-02
2.982847143835325328e-04
1.150888159458978918e-02
-1.829723906140174466e-02
-2.438643260335333213e-02
-2.112397171870034757e-02
-1.982609345091584582e-02
1.887972065718902803e-02
4.487884062802995760e-02
5.374612777084274151e-02
3.272488171904620186e-02
3.876617770772404492e-02
1.832871954862224165e-02
-4.038627334285126158e-02
-1.268091147195891943e-01
-9.787833305254529936e-02
-1.302270891942014508e-01
-1.736460479094315001e-01
-1.514104310504716111e-01
-1.336487246821531083e-01
-1.670442938989765147e-01
-1.434483696170498757e-01
8.583531174015388010e-02
7.137509219239575320e-02
-1.444049760271332722e-02
6.942219827189645420e-02
8.052379147803337411e-02
4.233933050642095519e-02
-7.048991934215675416e-03
5.692391336762250148e-02
9.164975058995292190e-02
-1.125393152332808318e-04
1.238324771570928767e-01
3.271920796808693715e-02
-1.290453989302844072e-02
3.638896619558787404e-02
3.582644355726860574e-02
5.644740681505242691e-02
1.123685010761642095e-01
-2.162544308870065213e-02
6.768842558812669663e-02
1.224521882024474095e-01
6.612105681567247151e-02
2.583606711947108309e-02
1.473077155412024497e-01
1.108156788112618363e-01
-3.091561519423092694e-02
-8.539024995923825273e-03
5.802035103710284636e-02
-8.272292992784635590e-02
-1.667540904502810284e-01
-1.893031435072751734e-01
-1.819961246647724962e-02
-1.775866316954429203e-01
-1.354770879169984177e-01
5.595728861467737930e-02
-3.322593453615268339e-02
-4.246388483687995458e-02
-3.560617172392750024e-02
-4.554106333684396213e-02
-3.845660179009242896e-02
-1.555948876358719847e-02
-8.607752131592062705e-02
-1.206137393177644512e-01
1.194105568454549987e-01
-4.538149671105700528e-03
-1.321695159291261246e-01
1.605883420944468898e-01
9.633173944468557959e-02
5.017674292522084772e-02
1.275622360764492869e-01
2.307816232476891105e-01
-4.304529119263444947e-02
7.498973414549277294e-02
2.360508163864141196e-01
6.775685574851716964e-02
3.850624711244399201e-02
4.659294572562343306e-02
1.894373947603490704e-02
5.753424644131416993e-02
-2.953133173670065628e-02
-1.442708596095997886e-01
1.026698593081281224e-01
6.493571757987805226e-02
-7.416590135347737867e-02
-7.777866796893311008e-02
-5.928040826398912194e-02
-8.109280195310564210e-02
-8.708777547885575288e-02
-1.045064317315403113e-01
-6.571524228968333992e-02
-2.325561039047398595e-02
-7.591066201016150039e-02
-5.089301965390564259e-02
1.149402867562830804e-01
-3.722872194129685230e-02
-2.008535604059053306e-02
1.109317778297072704e-01
1.395771715244770450e-01
-9.263540288490969277e-02
-4.449117426680362919e-02
6.677372824905467019e-02
-5.642068465820104101e-02
-2.821266262402517475e-02
-7.787496301737997784e-02
-1.130140767892320319e-01
7.138769931542461589e-02
7.054339287022660943e-02
-4.086993548489178257e-02
9.968476898775002759e-02
1.654506352810824477e-01
6.114549053879270862e-02
4.820204834509532466e-02
7.263320891112955147e-02
4.311294043052000570e-03
1.238512530060957434e-01
1.423747572950940787e-01
1.080068634873872085e-01
1.823628436258180885e-01
5.983406209463754816e-02
1.912666973008738669e-01
3.886800412560229706e-02
1.105752782789956729e-01
-3.588003506643632629e-02
-1.651098833978618952e-01
-1.575677226091692640e-01
-8.337498785951967528e-02
-1.632781538176096281e-01
2.505475246786677615e-02
5.406868652710728612e-02
6.645229942240520049e-02
5.546355682181919322e-02
7.556697183578940484e-03
-1.645566756481263481e-03
2.783120276752362385e-02
-6.290546064443573032e-03
-2.482397806955679437e-02
5.082600976120755371e-02
5.940279398950643747e-02
8.017574611570585374e-02
6.332078444691267849e-02
-9.418126538866762598e-02
4.699724222815338665e-02
-5.451822260070571247e-02
-5.195689791126410079e-02
-1.053133831138956637e-03
-3.418695237787551934e-04
7.530663811613179381e-02
-3.244529069136194849e-02
-1.738235964883414267e-02
-4.711214458117763543e-02
-6.197420550100064818e-02
6.002142956159920361e-04
-4.364850832068067898e-02
-3.857859424528353731e-02
-5.416854909922766415e-02
-3.707145650873299586e-02
-2.382434557631790684e-02
2.616391524147384379e-02
-1.266551018875650657e-02
-6.520693926942422447e-02
-1.074527950374520036e-01
4.017047611898533904e-02
-2.288548795566239247e-02
-1.750641059327559534e-01
-8.369971790965032021e-02
