-1.836121870107810909e-04
-2.965257503187361901e-04
-2.816179264147367100e-04
-2.632580135338176679e-04
-3.697593347339385331e-04
-3.457986886058002276e-04
-1.781063768443573740e-04
-4.564621690358786998e-04
-4.425833096988210326e-04
-1.181451607427794094e-05
-1.398575877051807514e-05
2.425009976280040368e-06
-3.363666491489738033e-05
-1.229427372202765141e-04
-1.346644142321479828e-04
-3.230951997961058978e-05
-1.917120455730793511e-04
-1.838571572437450684e-04
-9.670952557466174201e-08
7.314280140871573991e-06
5.055636539504947190e-05
-8.186939935132166320e-05
-1.161446944829026546e-04
-5.959646469574626879e-05
-3.046361966120541404e-05
-2.071056359336625444e-04
-1.168016496186587470e-04
4.150672958624749831e-01
-2.351434091714489638e-01
2.371872818096298630e-01
-2.937282177779347303e-01
-4.135766939823989907e-01
-5.531865196086209746e-01
-2.623108009614821823e-01
-9.635684873179574117e-01
-7.088397377509011998e-02
-1.961401492748118119e-02
4.899578933739356240e-02
-6.554237595708983788e-02
5.359849981147941644e-01
1.661218204991791625e+00
2.025764955128910028e-01
1.553119884260545924e-01
3.645292071732218475e-01
3.811736955592451292e-02
-3.777179076879972341e-01
-1.721523243488219390e-01
-1.157063052027362815e-01
-1.433831323431782878e-01
9.554418853092697672e-01
-3.073675568448086190e-02
-2.331614282859111875e-01
2.693440773490023421e-01
-4.624943540579241202e-02
-5.577306380180954704e-02
-1.927017775450296649e-02
-7.028164915267941237e-03
1.638761332979180724e-02
-7.109405870063618960e-02
3.056868051470539721e-02
-9.337496785032688845e-03
-4.031443567045886467e-02
-5.046244280463222168e-03
5.526461473891582099e-03
-1.008140790164308151e-03
5.675729059613659339e-02
-5.806965471296884895e-02
-1.981536569963108230e-01
-1.773415363625105087e-02
-6.475183265357903339e-02
-1.272297437672012532e-01
-2.077223902350576121e-02
-6.772739626975514404e-02
-1.304212323616593949e-01
-1.284571864165088007e-01
3.460423179685068185e-02
-1.455543781888992694e-01
-1.034608454676127359e-01
1.073397908288136054e-01
4.669042322352345321e-03
-7.283879178057518430e-03
-2.950333998165751148e-01
-4.239206220779920264e-01
-5.425050829906641336e-01
3.847429177524848698e-01
1.251924981847735596e+00
-1.233578079466056548e-01
7.431045499642985677e-04
6.619241192422906650e-01
-1.005786096612417274e-01
1.185801781969144236e-01
5.198952997034461676e-02
9.508582096364100178e-02
3.704779473368396969e-01
9.467601545051705925e-01
2.781481547330834636e-01
1.682873003045329829e-01
4.973501854241699216e-01
9.858957790489876472e-02
3.053177454875615759e-01
-2.764263602412822193e-02
4.432161543974910689e-01
-8.691847207659404440e-01
-1.279644397728169958e+00
-2.103974808791435891e-01
-5.234909586863757402e-01
-1.040401230699126378e+00
-9.655846216812463689e-02
6.248683237840405025e-02
3.307621920081386252e-02
1.277275049355671432e-01
-3.504398259070395372e-01
2.493803359121717425e-02
3.127828253068672404e-01
-8.224948427626421754e-02
-3.788219991665449371e-02
3.835082777841631457e-02
-1.118325787017987460e-01
-6.228875911565021767e-02
6.876779051339364235e-02
-4.668283900514424434e-01
9.840278391880044606e-02
4.421838145006112275e-01
-1.454814269942889815e-01
4.360389973130156943e-02
1.485434067268988634e-01
-1.751899130801458093e-01
-9.416925205507653551e-02
7.313933581327021483e-02
-3.820876395882579768e-01
7.961242931885384455e-02
3.771768876190506603e-01
-1.022766026813395207e-01
7.569736573707999683e-02
2.052803067662974101e-01
1.855328055472397755e-06
-1.939605787071564919e-06
-7.832620747984996997e-06
3.397931334322249935e-06
-1.318219639557929930e-06
-1.643513015215782182e-06
-1.040404728500534239e-05
-1.096300147852847102e-05
-1.303391188803356599e-05
7.383171005729344975e-06
1.178007064111309012e-06
-7.356729766665601022e-07
6.686085861767100657e-06
7.493192174492310250e-06
1.330724027987984779e-06
-6.965861558255177332e-06
-5.695193166981041291e-06
-1.275183079170387848e-05
-3.060095837026716026e-06
-7.775522881530878556e-06
-9.797711963394169010e-06
-4.257408248260962753e-07
-4.585558675091106757e-06
-5.212108964906158756e-06
-1.396703370057567252e-05
-1.092007135261375596e-05
-2.083053853851677195e-05
2.835121196251049608e-02
8.573720634682793218e-01
3.073844236636920080e-01
1.484754088997453092e-01
1.260356790554343798e+00
3.879047185947591125e-01
-4.897450089309045573e-01
-1.721997886874483685e-01
-1.971078269111449233e-01
7.055896590122981427e-02
-7.920256425154882651e-02
-3.795312377780591384e-01
2.150164247975218101e-01
9.357938843779714522e-02
-5.836206662446528082e-01
1.188131488511836586e-01
-3.004770249318062247e-01
-3.573709415016851909e-01
-2.265840442627268803e-01
-3.794674358254158664e-01
-4.087571155233186287e-02
-1.033336967428674508e-01
-1.137117589730567702e-01
4.818155313946344276e-02
1.501242249299036546e-01
1.431310427437306187e-01
3.146031705002939605e-01
-4.162599033170839152e-02
-4.809948412491055203e-01
-1.537457561583223664e-01
-1.465252433897515083e-01
1.492143205472866940e+00
-8.317365155205125316e-02
4.901498916007311912e-01
1.739649778956690596e-01
1.576953026765711696e-01
-1.334643780503960153e-01
-4.240346365302073012e-02
1.566520235727574539e-01
-1.067940532518017127e+00
7.848754301834217628e-01
-3.880589435621835115e-01
-4.294116922602654873e-01
-1.115930413955080747e+00
-9.117300616497815702e-02
2.144643222152139983e-01
1.720640020847351292e-01
1.834116790269102459e-02
3.070270070324049305e-01
1.501780464021499339e+00
-3.361182051518922260e-03
8.585688266791467738e-02
-2.299236889763938557e-02
-1.532836756081450702e-01
-8.411818198973445085e-03
-1.073391970654025834e-02
-6.422547490666526311e-03
2.470034613776803112e-03
-3.101066923367188678e-03
2.201224142343102038e-03
1.262418257860040138e-02
3.706570917893775054e-03
4.982633032404456055e-03
-1.187972002132077834e-02
-1.417582633747416568e-02
-1.469231397945442753e-02
-5.561489344669494334e-05
-4.544224413227385823e-03
-1.272678177138275796e-03
1.352365101567539613e-02
5.300219805798136660e-03
6.238949648803531443e-03
-1.023833925657137781e-02
-1.201586175121557507e-02
-1.294601136705302545e-02
-2.763407398659221362e-03
-4.907915226146609793e-03
-2.692455642779867375e-03
6.012009630530341930e-03
-4.001627609233438334e-04
1.304106321413636780e-03
-4.459218766346000908e-04
-3.956689788922131720e-04
-2.855922606645335091e-04
-4.219484335506223298e-04
-2.868967512282150230e-04
-1.962861416823769012e-04
-3.095310141045902051e-04
-2.074201577869326247e-04
-4.613870397394288488e-05
-3.593465224231052351e-04
-2.945929936291443916e-04
4.895413146980320319e-05
-1.762900912068014509e-04
7.629318380103591076e-05
1.966233810045768917e-04
-1.176153756732611536e-04
1.488529621549196922e-04
4.030738282842053237e-04
-2.031295386876555442e-04
-2.013695241139139877e-04
-1.764070362945792468e-04
-1.846339802624235259e-04
5.389065174485985026e-06
3.675975791924300984e-05
-2.701308964256096223e-04
1.562936328529920288e-06
1.891741648576216557e-04
2.016631725513626672e-04
2.356712245963254928e-04
2.208713093634879045e-04
1.433058037178756025e-04
1.844877212702663021e-04
2.020086611607641253e-04
6.609856620893474872e-05
9.122502436519109323e-05
7.735841033688427672e-05
2.777878790841788658e-04
2.544126372439997857e-04
2.754176344400259286e-04
1.787166917146337743e-04
2.337641579119543122e-04
2.470319656033319799e-04
1.610309217959501394e-04
1.599402381003642575e-04
1.978761760192089612e-04
2.840702470014881470e-04
2.696414098721169211e-04
2.833248591316450031e-04
2.158822052542757111e-04
2.212023036857078886e-04
2.442852144737440046e-04
1.574851229870971104e-04
1.966720797265133721e-04
2.028362103819913358e-04
4.492611416747827741e-02
9.494730572548994163e-02
8.755876927243867736e-02
6.751201674599853486e-02
2.351187226591942014e-01
1.540850596567441277e-01
4.271833169402800001e-02
1.364770455361249135e-01
8.903325651081123171e-02
-8.605815466182230311e-02
-1.256628564542388582e-01
-1.091159984468646621e-01
-5.789213912764920589e-02
-6.068737758077742683e-02
-8.003524046665873304e-02
3.042838943705659938e-02
2.694068583276653522e-02
2.295111862797907104e-02
5.606170617725237532e-02
9.112542605918436123e-02
3.979218869262250019e-02
3.212759996079452701e-02
4.340420505138147672e-02
6.505396137283969878e-03
-1.487126752043486932e-02
-3.794912704757334720e-02
4.685974047881418317e-03
-3.434559617168068263e-02
-3.016416151692135131e-02
-2.446380702897308496e-02
-3.850831460822023294e-02
-2.625415878601524561e-02
-1.926393801473444065e-02
-1.968597382543248869e-02
-1.881587100945648905e-02
5.432013642729664055e-03
-2.764783682257903209e-03
-2.561072213012932988e-03
-3.299349365446206661e-02
3.899952402280085217e-02
4.243969303543612681e-02
-4.655767535207660200e-03
4.598083398970626706e-02
4.249739764005549397e-02
1.821353133625305473e-02
-2.053197900315226546e-02
-2.258144989336813985e-02
-1.971917036543964150e-02
-3.157121634714254305e-02
-4.619979980320342711e-02
-4.030921464022400869e-02
-1.315902418556449786e-02
-4.002830020890278673e-02
-1.479229169533627201e-02
7.170806863572723455e-02
1.037222964046366352e-01
1.015899342307926001e-01
-1.007605703007583096e-03
-3.964534034988021483e-01
9.189171566749010367e-02
2.491026681537855669e-01
1.138240530817324347e-01
2.098599744096007469e-01
7.692145803182945558e-03
-1.399407484153614156e-01
5.173219251900471743e-02
-3.307463125049630026e-01
-9.378126570522321570e-01
-2.024139832100038394e-01
1.296787404060983570e-02
-3.524191357640995559e-01
1.926731290973893174e-02
1.500170255708934974e-01
5.225411685475021828e-02
2.076682127571653491e-01
-3.344738206766150607e-02
-4.866396008889244396e-01
1.250643605289604790e-02
1.102317569715964979e-01
-1.613302564544327466e-01
1.122050647454417571e-01
-1.785802578720111639e-02
-1.227523128453437799e-02
-9.264106650312969740e-04
2.259851536133448274e-02
1.787114132811867470e-02
2.275038153477730932e-02
1.729530206812501802e-02
7.344358775745692125e-03
3.077720997628768593e-02
-2.779522018349832313e-02
-3.261865761810086445e-02
-1.637193876350361010e-02
3.365997765366755823e-02
2.131110938383172157e-02
2.060289234423348659e-02
1.889386833351252779e-02
5.972548775144029091e-03
1.577595709614458899e-02
5.604953367763644383e-04
-5.225409868881987496e-03
8.049702287497103106e-03
7.015350166465526838e-02
5.654889920644443763e-02
5.621749120393149113e-02
5.479562901400489988e-02
3.171098963040539648e-02
4.165317931954381353e-02
-2.010172585285270944e-03
-2.474132529559168198e-03
-1.201036992985347537e-03
-2.011697322275791781e-03
-2.473695069848299601e-03
-1.351432958192938256e-03
-1.609975264423818379e-03
-2.019447353634652113e-03
-1.265947080663912955e-03
-1.232831746467844556e-03
-1.936737648173273742e-03
-6.428086028394317235e-04
-1.632767079391694853e-03
-2.249744424446619047e-03
-9.531544708022338976e-04
-1.257605652228375222e-03
-1.862896795892581610e-03
-1.059404480128192747e-03
-1.126196977846142481e-03
-1.797723542613506413e-03
-5.197480233059825760e-04
-1.506902000791726561e-03
-2.254891021650776411e-03
-9.517620947106748353e-04
-1.071081554631374885e-03
-1.892660837928086945e-03
-1.199508050055869994e-03
