-6.025358377403268462e-02
-2.763117249267666234e-02
3.260549943007841692e-03
-5.780517681794028473e-02
-2.694350903842588144e-02
-5.702767242214677214e-03
-5.126225214228044037e-03
8.356049495463801005e-03
1.379133755914778263e-02
2.443115858033441043e-02
1.710690159449169967e-02
-1.762986761273389186e-02
1.331226705099346729e-02
1.268602204982761765e-02
-2.567431337224270610e-02
9.287837666957163285e-03
-1.672652015786208618e-02
5.841510910665371516e-03
-4.622409973771051707e-03
-1.876474860602624084e-02
-3.387607864377312726e-03
-4.968357960826611658e-02
-3.044308190458031721e-02
1.274147705455100799e-03
-4.966699496746911080e-02
-1.849206424086413669e-02
1.099681213784532187e-02
1.286261560385655242e-02
-6.516126286710719959e-03
2.403021218911650242e-02
-2.463437272401022057e-03
2.409267353222632746e-02
4.157511564116905117e-02
-2.641085221115581708e-02
5.355738862928456634e-04
-6.128148785773717723e-03
-2.135045248212936227e-03
-1.058881951545635920e-02
1.572653504694434493e-03
-2.078556766368888642e-02
-2.043565714277226567e-02
3.850462926756324268e-03
-3.059006664539534390e-02
-2.251260998014155412e-02
3.381763197902560528e-03
2.116112909570488226e-02
3.433092362346953658e-03
1.777725128139511293e-02
-3.231923657702773255e-04
-2.310050860238349948e-02
-8.138398496679780450e-03
-3.092828275338239778e-03
-2.228835426021850627e-02
-1.490297764364756535e-02
4.008052723599558539e-03
-7.271665446352426447e-03
-7.164238062061839031e-03
-2.741166804822519568e-03
-3.483587961827324612e-03
-4.105411736814575281e-03
-5.362955572254010650e-03
6.818565140985624606e-03
9.033425243029193433e-03
1.168997242934765278e-02
7.033836019698506622e-03
-9.355946603197494091e-03
3.512510380087884715e-02
2.111097624546764973e-02
-2.185126978729272883e-03
1.193392353080098729e-02
-2.815977280645448610e-02
-1.522044950363229954e-02
-9.312409381115308374e-03
-1.707593015133122838e-02
6.758068256048764544e-03
-1.214471282121921784e-02
-1.993623982035004974e-02
6.611804722991640286e-03
-2.220203494014951970e-02
-1.117676296105181259e-02
2.629792873666957076e-02
-2.569645013242725928e-02
-1.028453080138228698e-02
-2.306548662217791992e-02
-1.489080362083548825e-02
-5.217486757254538934e-03
-7.650559644112729651e-03
-1.173973681052117163e-02
-3.747890509295089857e-03
-6.604244965600592106e-03
-9.320455023658354848e-03
-1.842135390659752764e-03
-3.232432552176238427e-02
-2.362794350897018392e-02
3.487848570989194284e-03
-1.130152039850820626e-02
-7.939953557816946741e-03
-2.298005629862012907e-03
-2.493912521038189889e-02
-2.610976926332445741e-02
-6.356803170787431352e-03
-1.780832880649221850e-02
6.518818676144613397e-03
1.442989404140979266e-02
-1.540466601598072457e-02
2.100808274338413981e-02
4.597445905858555532e-02
-1.482094791850905105e-02
2.588298550626370181e-02
-7.550523780226369363e-04
-2.462426954013009848e-03
1.462460967726097322e-02
-1.191628404708481616e-02
-2.254101902159329901e-02
1.308385172386511419e-02
-1.262401043436463081e-02
-1.688036063059576708e-02
2.146511510273161477e-02
5.503442719744888745e-02
2.747990712160186880e-02
8.962772730888605641e-03
8.219912155608270418e-03
2.108445127897491667e-02
-3.755150996095900362e-02
-1.695958814908430159e-02
3.842671582038831388e-03
-4.824203067729562408e-03
-2.139060524219952956e-03
1.112689787674408593e-03
-2.361404826938349501e-03
-5.628419193988745786e-05
3.195261142758893703e-03
-3.928309288312176704e-03
2.426221039630172081e-03
3.511962339885692057e-03
1.088633900668404229e-02
7.165310983733580961e-03
1.681577839580924169e-03
3.751874558365830836e-02
3.311943802492461203e-02
7.079065771609057735e-03
2.044728880300692581e-02
9.706834273220532258e-03
-2.767492307392153700e-03
-7.426737664840437139e-03
-2.898669196126417175e-03
4.831167421574880834e-03
-1.778429900667795327e-03
2.255890055141839858e-03
1.531661352624286154e-02
-7.407739435868336206e-03
1.739226200402513994e-02
9.799624442012740480e-03
-2.220199310501958304e-02
-3.800583498975474827e-03
7.769263239444679789e-04
3.000444504951146549e-03
1.068395110682451334e-02
-4.006666785509169736e-03
-1.202767680404885110e-02
2.406495775864213316e-02
1.607516212583892309e-02
-7.294162586299160998e-03
-9.333031410773731315e-03
6.583800585833227310e-03
-1.674010163397423451e-02
-9.206013979833593472e-03
-3.579634846074059278e-03
-1.199718347665910262e-02
-6.074263644301265870e-03
-5.193558557041553538e-03
-1.564561395274919687e-03
-4.567449968281539485e-02
-4.297273469748064990e-03
-3.988327758655955718e-04
-4.621059147307576137e-02
-1.453755226597093150e-02
1.872761843409412319e-02
-2.813016996968771555e-02
-2.608330704952662935e-02
-5.828212120502665461e-02
-6.596720917481169177e-02
-4.902877017802304699e-02
-5.561319082024642618e-02
-5.875343876713631786e-02
-4.559525946437670285e-02
-3.154559296608282909e-02
-3.120022155676452358e-02
-2.131233470230833524e-02
-1.623665469207187517e-02
-2.399883882988626191e-02
-9.245319578522509518e-03
-1.440323460485654246e-02
-1.238267104030887911e-02
-1.770359157046784773e-02
-4.590914097374565635e-03
4.854781858313327383e-03
4.664493873321413908e-03
-2.430746554811259383e-02
-2.739071462457318487e-02
-2.440534032871527828e-02
-2.132647647033930269e-02
-2.348265159680587924e-02
-1.746065945325086730e-02
-6.051240875829090073e-03
4.731027567508386267e-04
-7.645768027622999209e-03
-1.443274181846916984e-02
-2.304197154387307642e-02
-1.259552519321192540e-02
-3.071624139728957800e-02
-3.446883611753506077e-02
-2.420608707537756296e-02
-2.310175618572273340e-02
-3.048369634519159169e-02
-1.773781420086924937e-02
-3.659428334106188535e-02
-2.488650259336651349e-02
1.307606590736122044e-02
-3.503406756990931625e-02
-3.349842396114842413e-02
7.566592504224532376e-03
-3.016309581513217444e-02
-3.683556894709343055e-02
-2.397496591180926784e-02
-3.627735533776634425e-03
-2.855267938216530382e-02
-9.872498548964233830e-03
1.390002074439241307e-02
-2.027710200030570509e-02
-1.056684411934442729e-02
2.593524206589211886e-02
-1.410426731931063542e-02
-1.545046054214544579e-02
6.010041639865747881e-02
5.603663255847693425e-02
4.794885606313441240e-02
2.380800937878400220e-02
8.781362608703158212e-03
4.003843960116575812e-02
-1.814543777764768273e-02
-7.682035499411318108e-03
1.423691755167462089e-02
4.861409887596176808e-03
1.001233889546402842e-02
1.665663606741175917e-02
1.157110388407480393e-02
1.421888362244760201e-02
1.037223501366341116e-02
1.667018766128823895e-02
1.458620801620108196e-02
-2.422547765810401793e-03
-1.416106000231380502e-02
-3.910261762667926327e-02
-3.569476977702656928e-02
-4.609185291552807956e-02
-7.658236689278784259e-02
-4.487715049431324765e-02
-1.951697711277803476e-02
-2.859488654593780876e-02
-2.159056670452262974e-02
-5.049709807448946562e-03
-2.122751098813465201e-02
-6.715341589609133757e-03
-4.896146641862284335e-03
-2.941309353493781753e-02
-1.177192744889699223e-02
-1.193204319112143447e-02
-2.395574715193792351e-02
-1.385845007223968778e-02
4.403136369590134047e-02
4.904782010326285552e-02
3.559849220192046193e-02
1.613729476435637848e-03
-1.667485078416458544e-02
6.186521491987954230e-03
-9.258819924364811854e-03
-1.250256902860056966e-02
9.672045972097892408e-03
-3.012474047153757689e-03
-2.379752818462264885e-02
-1.174491241373926652e-02
-5.037262063358130190e-03
-1.361951470404361084e-02
-6.832867526033317230e-04
1.281771156831480567e-02
-9.828343511659564779e-05
2.593125428154191905e-02
-6.203088314292085070e-02
-8.461968954860096814e-02
-5.440368208713776410e-02
-4.975267425252099390e-02
-3.229195320405994774e-02
2.051792072875946796e-02
-2.861437328282178533e-02
-3.968717107719089976e-02
5.771113093824092183e-02
2.772252436819528255e-03
6.880132998850901037e-03
-1.397104863050761120e-02
-1.214360186432550566e-02
2.123223497859605142e-03
-5.452995273891741990e-02
-2.243473796821208663e-02
-5.911534753308193141e-02
-4.627859465497713085e-03
-7.503588962114787764e-02
-6.553334491142040474e-02
-5.682900335150715618e-03
-6.170010726170006843e-02
-6.741272990537219845e-02
-3.164758947586576721e-02
-5.754529977299367022e-02
-4.517538188111679121e-02
-4.048541568677069963e-02
-1.084230459672117786e-01
-5.436311864219788709e-02
-4.391445221041680863e-02
-1.392239855700383791e-03
1.286443141761026143e-02
-2.688036004693765760e-02
-2.327972352780413590e-02
-1.868121955061612105e-02
-5.702226311310161500e-02
-8.328792093271029928e-02
-8.575976202834213746e-02
-8.752847511374750589e-02
-1.216329564783393963e-01
-1.144274821838262707e-01
-1.013895684973709771e-01
-6.786252887649321663e-02
-7.784521913147639249e-02
-4.015497148367461883e-02
-4.033497004310508671e-02
-1.462024005226314309e-02
1.317259158898604308e-02
-2.455532304556075698e-02
-1.040083568221627543e-02
1.009219339299496053e-02
-1.980901006837097397e-02
-1.744359421672478372e-02
1.821262252435078190e-03
-3.076066835052038151e-02
-3.833013372131261615e-02
-2.553042613089650734e-02
-3.869974555724050853e-04
-2.708911588948866023e-02
-4.246098141405919846e-02
2.137577658415425533e-02
-7.308056415656373744e-04
-2.784204497528256633e-02
6.080661969919562426e-02
2.920302495744065210e-03
1.046542802272528057e-02
1.997421144003622487e-02
-1.626791075975674711e-02
-5.190174712451387645e-02
9.763912994807570980e-03
2.375788097858623493e-02
-1.574272510201512459e-02
1.019124788036917389e-02
3.024705687733828668e-02
2.311071772907770036e-02
1.736083657606529371e-02
1.961498626252499398e-03
-3.031161368090535754e-02
3.047288822048721535e-02
4.287812390982003070e-03
-6.475497729802742741e-02
-3.244080165961320261e-02
1.326484075198043622e-02
2.747598485927324127e-02
-3.314099194930669734e-02
2.090665143944633181e-02
1.130178323854189038e-02
-2.342575173216024376e-02
3.588568765936061417e-02
1.011554175612610490e-02
-3.960813296978686962e-03
3.527185411283440854e-03
5.401664530401628639e-02
1.155053906807570682e-02
-2.017527156038457625e-03
1.642200782420578237e-02
7.772469559291682144e-03
2.685363626660542107e-03
-5.741534315062593596e-03
3.246844150333744877e-02
-2.720859108826125319e-02
-4.379324557286234237e-02
9.024740654090130862e-03
-1.042851303715700180e-02
3.878793640146636825e-03
4.653406183342210373e-02
5.750602750361062838e-03
2.638722377513156789e-02
-6.559147742559615080e-02
3.718507224977922465e-02
2.140980912887700816e-02
-2.231060940432106135e-02
1.063702209538903848e-01
8.248973160281795891e-02
-5.822981234847187347e-03
9.604466633460619074e-02
6.693748253527934122e-02
1.085834024691270938e-01
7.202350992172287802e-02
4.808551587578216435e-03
3.582004697906463614e-02
-2.661010752637476325e-03
-6.721436072123784800e-02
-2.091178060473172784e-02
-7.393628582116809622e-02
-6.230361140377161516e-02
-5.002009566337671173e-03
-6.834189063475187191e-04
6.556524721390183906e-03
-6.926271597697414469e-03
2.961238881146765946e-03
3.596763584745389045e-03
-6.981182293232182298e-03
1.846256666973728746e-03
6.648995397989280846e-03
-4.974072791720846737e-02
-7.147027870683662562e-03
2.107731957734532494e-02
-6.028412596480528518e-02
-1.932595641670057859e-02
1.723936143717179695e-02
-2.674029513886505213e-02
-3.112809466451951085e-02
2.369617700174641434e-02
-1.950232033668131831e-02
-1.735725326775390195e-02
-2.915607276005136722e-02
-1.344803368763561671e-02
-2.136937006323388899e-02
-2.785990228860297721e-02
3.116997100203629245e-02
1.245442552949902913e-03
-1.181389228879011627e-02
4.264168478950464136e-02
3.705502678505665642e-02
-1.076167186776172055e-02
1.511540726030059616e-02
-1.674897335554171793e-02
-9.027063388100243016e-03
-2.683858637169756530e-03
1.298916786063576342e-02
-1.009580039260097456e-02
-3.154614335229958405e-02
-1.354283775932740505e-02
-5.179169711245125256e-03
-1.972122987325188037e-02
-2.481968334372400622e-02
-7.200048988044968450e-03
3.077924429977762708e-03
2.628743999073794840e-03
1.436331131836751998e-02
-2.942642399434185034e-03
3.899420070953308476e-02
6.225883485693833180e-02
-2.996274554769251183e-02
3.043687646552635517e-02
6.174901991371922055e-02
-5.897528065073478348e-02
-2.384963341410341331e-02
-7.050250906432328768e-02
-1.597702016016732752e-03
5.865007024947533829e-03
4.234619116879786462e-03
-3.993612314961515752e-02
-3.566154432095341303e-02
-1.653191766277523761e-02
-2.741268172004651671e-02
-3.507206147674826746e-02
-2.355010042766378722e-02
-3.169306886443945537e-02
-2.184988084928165056e-02
8.862344726562892613e-03
-9.295322878503162536e-03
-1.707674044234565661e-02
1.261674959343258651e-03
3.286821235731759300e-02
1.945005339219877533e-02
1.472456703725520850e-02
-5.321907787060773526e-02
-5.451864212001054921e-02
-5.705767765001057423e-02
-4.774809458642025051e-02
-4.275203094275003418e-02
-5.513839256736829258e-02
7.195016562212603987e-03
-6.237012866196855023e-04
-9.377693561350512394e-03
-6.771117309225926917e-02
-5.812045135822779818e-02
-4.813841853667036319e-02
-6.102793785071929794e-02
-5.432932695897044889e-02
-3.165759115074483210e-02
-2.006485630752987900e-02
-1.061828741445783493e-02
-1.588218193352579572e-03
1.473292572085233010e-02
3.309879577931253581e-03
-4.703281689060242327e-02
2.334114715765761312e-03
-1.212933555898723821e-02
1.256108215846214043e-02
-1.123307058704342033e-02
1.134313520873772921e-02
2.830834690738151527e-02
-1.701144131154713399e-02
2.281810654921644435e-02
-2.027848465967455743e-02
2.075754237965224402e-02
4.748247766250483087e-02
6.473888103760716724e-03
1.103852754699033434e-02
9.364813394175015848e-02
3.263287488220206756e-02
-3.273524496625846575e-02
2.220231649660947548e-02
-5.363558070141380418e-02
-4.594131748765750006e-02
8.015397922631152527e-03
-1.422412812130972176e-02
-6.745727941063202338e-02
-1.294410070058847617e-02
3.034329091608789497e-02
3.320856149583972100e-02
1.693386021876228456e-02
1.799748878786041131e-02
1.831938240787294933e-02
-4.660176365635008630e-03
3.244352023567093762e-02
2.513327908779561595e-02
8.921386591597158314e-03
2.458694203964401775e-02
-3.133348239468525254e-02
-3.417425025297553265e-02
-2.316025227758064867e-02
-5.141914163316673586e-02
1.534150236652963642e-02
1.240243577316354692e-02
-3.418383338164963925e-02
1.866180848322349442e-02
8.428584761900136113e-03
3.449924743258338949e-02
5.014944815773161174e-02
2.447799959560490943e-02
2.725271020166880262e-02
5.079036677683302498e-02
2.198327468364395451e-02
2.411186050861351474e-02
4.655893176995026805e-02
1.847076583195063001e-02
3.031334709396178197e-03
6.968106870303518441e-03
-9.881661493057219969e-02
1.633452574454400189e-02
-2.175128952671727400e-02
-3.331153965645804182e-02
-9.778283739269625144e-03
1.496175401277078862e-02
5.504871706867953650e-03
8.884120185158671940e-03
3.136607964180889579e-02
3.313396550617708075e-02
-9.658261666446201626e-03
-7.420975838352487051e-03
-4.481848239902749831e-02
3.741903365553218147e-02
2.850380995937570883e-02
-1.444352668568674343e-02
-2.622007504564722105e-02
-1.739326227642915695e-02
2.782263559082079687e-02
8.994983893502664016e-03
2.617085487761827353e-02
4.393596037837400187e-02
-5.530464476514888872e-03
-2.465426336256945953e-04
4.371772083774028844e-02
2.253754976441614197e-02
1.311423644269784153e-03
-1.696805437784788123e-02
1.880285842068711404e-03
1.550442396916089588e-03
-2.203091637535803046e-02
1.446002502666399701e-02
1.613095632115035816e-02
-4.136267545925269989e-02
-2.003587018371161266e-02
1.815909659150313771e-02
3.126308361891402821e-02
-1.392801371655177402e-02
3.336454930357157789e-02
8.267820904955026917e-02
-2.307714422103988861e-02
7.826818386859805618e-03
5.439431047207048814e-02
-2.141493422521238699e-02
-5.170151504300835726e-02
7.295264000245776578e-03
-6.889158466409824044e-02
-5.960624168256698635e-02
1.737683540054970124e-02
-1.183843741408669749e-02
3.124426858846247532e-02
4.899198741703920251e-02
8.655163403603526040e-03
1.635415506124675983e-02
-2.119487938480582936e-02
-2.659714651469840402e-02
-7.925579158847636738e-03
-2.274441080655698055e-02
-3.475431469593972394e-02
-2.618545133882253448e-02
-4.364250454915089700e-02
-1.285481181612711452e-02
-3.480706117068810973e-02
-4.584375881915642159e-02
-1.162817914649253923e-03
-1.996405928262281679e-02
-2.669868540573908794e-02
2.588894532230418682e-02
1.700600940915162132e-02
1.250030236182130342e-03
-4.327305552535736823e-03
-3.891706460883418870e-04
1.309335973956506083e-02
1.045356018114017294e-02
2.166026269384680250e-02
4.544918127019764026e-02
1.516889580923254204e-02
2.289990536453445635e-02
4.361512843800545436e-02
3.111511174783865991e-02
-1.582175227516354268e-02
8.877286567248345375e-03
5.458175037617533226e-03
-3.345062413801282858e-02
-6.375278388566613628e-03
4.159433703317769182e-02
2.395848359693061522e-02
1.006834994176689958e-02
-4.484137477073583261e-02
-1.649919464126525098e-02
-4.087790879943162606e-03
-3.726021586887201531e-02
9.773506866805654544e-03
3.159875234743428612e-03
-2.418302000588543749e-02
1.784568984691650706e-02
7.614694335718940471e-03
-1.022291130567297077e-02
-1.733757595317271874e-02
3.205359150059237678e-03
1.328605358372852117e-02
2.744998674219870094e-02
2.114113683799225332e-02
2.697830807632685748e-02
5.733070673642784443e-02
-1.428351319696184209e-02
-2.990341350862500344e-02
-5.325022119109092816e-03
1.447660244697091068e-03
-3.165285765190438416e-02
3.954601232221998525e-02
3.557698255535889087e-02
-9.716855910480918027e-03
-5.826810426217294940e-03
2.154970776355133455e-02
1.394991369857399334e-02
1.332783570830855906e-02
-3.492687397867604016e-02
2.847908940351229906e-02
2.149820071079606293e-02
-4.965879644933414439e-02
3.603630025408478127e-02
-4.115495135618738726e-03
-4.745812259157904806e-02
2.857066303943030586e-03
-1.943714320609447530e-02
-1.324698156114074467e-02
-9.565353198215411495e-03
-2.003119514441319485e-02
5.742404579294093162e-03
-2.772035304658424307e-04
1.026809972464774040e-02
2.915977693914963489e-02
-1.538160027262383892e-02
-3.634613308000957110e-02
-5.603554702939013421e-02
2.769170577215073273e-02
-1.201969381163810191e-02
-5.021202303639189790e-02
-6.004540063602195610e-03
7.616878439109243427e-03
-1.926893852672665122e-02
-4.039107442096838418e-03
1.929915472802461174e-03
-1.277593167520686820e-03
1.527583525488468387e-03
6.835710055596073802e-03
3.850922373305885773e-04
-5.085354937151755766e-03
1.593155599481196525e-04
-3.660299421914087973e-03
7.528509162490504281e-02
5.330776362435656057e-02
4.497094575968417496e-02
7.061624036751536215e-02
4.141626836853296717e-02
5.428541666954384004e-02
1.848048249304299825e-02
4.533035546533349669e-02
7.373820984553672298e-02
1.508145005314769430e-02
7.410583298912577083e-04
6.924212343355538347e-03
1.833107999645972389e-02
2.580513772321619843e-03
2.417054416548158891e-03
2.132708187825418586e-02
-1.082693802150285281e-02
-2.530868422089420713e-02
-4.345094129968359725e-02
2.914044497903753566e-03
4.369689250229503996e-02
-1.825686129142577163e-02
-2.084285784342766040e-03
6.544764811654146808e-02
7.837120704305000759e-04
1.729706801486121303e-03
3.672737323913027180e-02
1.903138516386367052e-02
-1.007371059303613717e-02
-2.177313473867329915e-02
8.820360217402699321e-03
-1.060451271095995580e-02
-1.037023837501387449e-03
6.803414043734059592e-03
-4.425957194928564070e-03
1.553630658844349852e-02
5.009982511621043078e-02
8.526608136093441481e-02
4.717802077858662332e-03
3.819917174104992073e-03
2.640502854831466503e-02
-1.374516571978238837e-02
1.808628810685890959e-02
8.746696229285177634e-03
-5.852092669939499420e-02
1.673269721029708307e-02
1.125399401919507675e-03
6.506844544625823082e-03
1.219509771899763249e-02
1.231530956040773582e-02
2.594073653522372888e-02
2.209131250218829973e-02
1.847659267292193000e-02
3.774543295278327826e-02
7.884665234258871752e-03
-2.261446345654000070e-03
4.653916675819733638e-03
8.123317903970139753e-03
9.025606685673974450e-03
4.248264891352479533e-02
7.657321987936719331e-03
1.885798851553688663e-02
5.522760108486478303e-02
1.070698011045231358e-02
2.199694260933460904e-02
2.993010642618400274e-02
3.218673111798674939e-03
3.731059988438231029e-02
4.335587460983134078e-02
9.068234035593704737e-03
4.421093823946806167e-02
3.289925970692520601e-02
2.405633142881619807e-02
2.459452322250139933e-02
4.750029619213008009e-02
2.490903864517577185e-02
2.901537520801052497e-02
4.715023051911665375e-02
8.739600236076556020e-03
1.213592438776788483e-02
2.871831145159527837e-02
-2.102865626913675255e-03
-1.208900017340666308e-02
-9.288279202462751405e-03
-4.014892159331876083e-04
1.853912604694520072e-02
1.618155799125456026e-02
5.364998315155748709e-02
6.519769297629617044e-02
3.751815470054124108e-02
-2.193645125861950346e-02
-2.530773198204583699e-02
-2.167601091061052004e-02
6.603744672133747898e-03
1.034439204313578053e-02
-2.242809217603165123e-02
3.591992910936309819e-02
4.243285286771612125e-02
2.834640323318858221e-02
-2.578824228536373206e-02
-3.581833882765440152e-02
1.792019951382079271e-02
1.548023710241235897e-02
1.362390429955274941e-03
-7.430327291262871052e-03
3.060402248556628318e-02
1.639870018997729648e-02
-3.658647363086682536e-02
2.492113510153051107e-03
1.043296854506580752e-02
8.234428458076177917e-03
-1.198454712919192616e-02
-1.219374553983295067e-03
1.875877127349793311e-02
-3.250291371439088112e-02
-2.171800464382352483e-02
-1.064272832318029910e-02
-2.759554174038749991e-03
1.206288540086274553e-03
2.608551765041194903e-02
-2.146092282711782942e-02
2.722987295367296223e-02
1.299853639964071786e-02
-1.473061956607509861e-02
1.470275826656405362e-02
-8.248609561763722842e-03
-1.467631927936461841e-02
-3.251028676375967291e-02
-1.068198716596118446e-02
-5.767044137368160933e-03
-2.716149313541875790e-02
-1.252023287206665940e-02
-9.549323844267891895e-03
-7.915618891642736341e-03
-1.499391965360965737e-02
-5.509042730003185090e-03
3.920901801676319326e-02
-6.908202638781080554e-03
1.948529172754645891e-02
3.636830210729370683e-02
1.558847945264750512e-02
6.671889000209256515e-02
3.972811364281304131e-02
1.171912249098234181e-02
-1.552340828651882325e-02
9.176687994461822998e-03
1.147290526608945064e-03
-6.040291342142571802e-03
2.303819614065142143e-02
3.742630899638085124e-02
-3.822100672899201440e-02
-1.938230180587968698e-02
-1.173342814146529321e-02
3.817646302512345963e-02
8.216692668110969766e-02
-1.743389240577129795e-02
2.521546672463981231e-02
3.187292066401877233e-01
-3.015095117037523351e-02
-2.687886715222120512e-02
2.374401755623185006e-01
1.210636426558413387e-01
3.707347940062512281e-02
2.111132763869059681e-01
-1.245436612177245744e-01
4.727298698380726777e-02
-1.601114142035916371e-02
2.181463639210852457e-02
3.108454399796705681e-01
2.337834628129711878e-01
-9.414073069448598841e-02
-2.746649878172309142e-02
-1.782267705502644239e-01
-6.390284524446172842e-02
-9.406638960578703190e-02
-6.757690127696802662e-02
-7.157816901225722006e-02
-1.484807424591718106e-01
-7.197234414141313874e-02
-6.798583503174328302e-02
-4.158282214809309041e-01
-5.676761587343627236e-01
-3.542355682327941735e-01
-3.828168301414809349e-01
-6.110038326826958688e-01
-3.942715174064456707e-01
-4.262048127657401819e-01
-2.905857190391807343e-01
-8.581948021142761507e-02
-3.268856662245280681e-02
7.726715210161225200e-02
-9.022313918393948251e-02
-6.862534136525051676e-02
-2.293386242711009659e-02
-1.700877961906849256e-01
3.762602834771092836e-02
6.615471574728583326e-02
-2.272894034630647611e-02
-1.680777446628095029e-01
6.611056860815969771e-02
2.001939070187624264e-02
-5.219893163351498055e-02
1.576465916864631944e-01
9.191734093911067827e-02
-1.528414624466565772e-02
1.735549937948616950e-01
4.384836855920191262e-02
6.972968003690088734e-02
4.029731977900581630e-02
-5.315247550857790659e-02
1.335062632751135292e-01
7.727269772698476535e-02
5.165302093203878037e-02
1.399905319554635430e-01
9.248749064481923132e-02
9.272294865542697606e-02
8.607969217719513289e-02
-1.475790105697320775e-01
2.505088774803419446e-02
1.262427451038040591e-02
-3.210298720443549754e-03
-1.389574611717848615e-02
-6.492866710354633364e-02
6.459060842161221117e-02
3.490953676866261068e-02
6.396677508171729441e-03
-1.012824332627468432e-01
-1.821151253918083454e-02
-6.048289768884571038e-02
-1.440553763244875607e-01
-1.623416204568206844e-01
1.788500163179472524e-01
1.047265042887332853e-01
8.240376779709308874e-02
1.114583884429332650e-01
-2.145536206206033469e-02
4.719521949086029344e-02
-9.740230773313960505e-03
-6.411391240633287913e-02
4.859632834315946032e-02
8.715565573235617425e-02
2.432457653280329420e-03
-4.579953412813674019e-02
1.224977083674971476e-02
-6.187434791028776498e-02
9.587028911237441275e-02
-1.672315218425745598e-01
-2.095666575869606363e-01
-3.928471499372568343e-02
-1.529230788676894659e-01
-2.702758233929396514e-01
-1.920608413909786483e-01
5.978438656156848802e-02
-9.129503264619320130e-03
-6.882972736893479271e-02
5.602627469305888203e-02
-1.743397162899090469e-01
-1.269147197534803151e-01
2.453552882100602517e-01
-8.092897144765671957e-02
-7.687668395894045603e-02
-6.065567362790669909e-02
8.778514693051804596e-02
1.544791120268981244e-01
-2.085642692960423383e-03
1.957179271496515827e-01
3.168924162935934374e-01
1.085935843948451912e-01
3.519233263356618679e-01
3.205906090003400877e-01
-2.135675457109892095e-01
-1.352415752793259263e-01
-1.954577779022662332e-01
-2.166529270082687975e-01
7.095947527873431616e-03
-1.005702627320223530e-02
-8.211028868102548603e-03
1.334854473741617364e-01
3.148616610976606167e-01
1.623155362117649839e-02
-5.006282936130946118e-03
2.091979230142011065e-02
-6.323741971427299623e-03
-1.947846446130032175e-02
1.534100871053876991e-02
1.242440984185846226e-02
-7.342005275167880207e-03
1.905105585171264909e-02
1.759328853333085863e-01
2.012916107457707049e-01
7.452256928927819546e-02
2.323460235125471285e-01
1.839478159367880228e-01
2.361145862441099419e-01
-4.010669550876081423e-03
5.173082473562806705e-02
2.039087894171063564e-01
8.313147928273055542e-02
4.636215102604763355e-02
1.048570872614184267e-02
1.481723297662082550e-01
-5.118183753245710704e-02
-1.880141952556919210e-02
1.627887959198938417e-01
-1.982952004250775752e-02
-1.321987797635527373e-01
1.771957595702955413e-01
2.932455396084699892e-02
1.051917492478118832e-01
6.884392152911442131e-02
-1.880868726567791471e-01
-2.405049918321750246e-01
-7.650595560182080201e-02
-2.424527276958943767e-01
-1.929388096155037480e-01
-3.934132328510255364e-03
5.666953422659500028e-02
4.681440337711064575e-02
-5.290877498216352108e-03
3.785010132146761352e-02
8.794686792947632725e-02
-5.453103875296384795e-02
-1.757637767691219363e-02
4.989378351550498303e-02
1.701038818052326984e-01
1.078937594825094826e-01
-2.786521604213649736e-03
1.615856724953281809e-01
2.451267094156883708e-01
1.567691516167355192e-01
7.034373921207676128e-02
4.381188626657276514e-02
1.697046859045341360e-01
-7.401703932302930097e-03
4.016001273555649953e-02
2.177143365977944958e-02
-2.960324804355541142e-02
-4.766726444295518728e-02
-1.137609221946962318e-01
-3.686863126149313163e-02
-8.602021204410749411e-02
-1.129451772072376792e-01
6.711970737758200800e-02
8.568518365032336270e-02
-5.206568147910305144e-02
9.222027402605142976e-02
7.837777581535147059e-03
-5.178070235430581175e-02
1.228031534906929290e-01
2.872716797243097392e-02
-8.464153326585963089e-02
1.685510703902880492e-01
7.851242557997646643e-02
-1.273431094106041404e-02
-6.047189886519022811e-02
1.472432064485892618e-03
-1.372301408098503504e-02
-5.785441320387860187e-02
-8.930754323106844528e-02
-4.038422434994749788e-02
1.379741557738894953e-01
9.825826180551631983e-02
8.099279895492030035e-02
7.568709450105770564e-02
6.041614222342413937e-02
5.225484342075280980e-02
-2.540904305010542943e-02
-2.948009224770843650e-02
2.453562091799881689e-02
-7.707346453354244238e-03
-1.047070120757424144e-01
4.556017107299585589e-02
-1.202322873931526981e-01
-2.080512164248982665e-01
-2.150679014516513610e-01
3.925189677500337537e-02
-2.133053333589266312e-02
1.498589591019720002e-01
3.007030523378252662e-02
-7.188283840809435443e-02
8.136011081069439987e-02
8.333576955835780842e-02
1.575755119536380658e-02
3.072904630481690033e-02
8.166625243802923262e-02
1.350842115574460434e-01
8.439159721186866026e-02
-1.430616728790187198e-01
-1.835641180784251467e-02
-2.491262606478860941e-01
-1.600601732853431658e-01
-7.909311197389277959e-02
-5.556093070495576880e-02
-7.140787870171140528e-02
9.739568929333491942e-02
2.476162099657245111e-02
5.107080949114501528e-02
8.888231259982648513e-02
8.027603017649109773e-02
-4.738942861179253063e-02
-3.273712385413708736e-02
1.074212722007717724e-01
-5.040723250274712491e-02
-6.624138594953618607e-04
1.111904819219613622e-01
-1.903143027963544176e-01
-1.935740808077294484e-01
-2.932124771181539025e-01
-2.737623712685055000e-01
-1.181579000090212245e-01
-1.475392042028468853e-01
-1.057611496339016521e-01
-2.330737878136643348e-01
-2.895872093850557216e-01
1.168457918420158503e-02
1.016764862561058691e-01
2.162374342311035591e-01
6.819892898764939870e-02
1.018397257001066453e-01
1.500161643774126641e-01
8.924522096497740364e-02
9.815695841441100800e-02
1.021339079222482599e-01
9.215253487231973850e-02
1.918383264738742489e-01
1.698017838630653045e-02
-1.381386561874689833e-01
-8.409198159724896871e-02
-2.412452668000552025e-01
1.357389056423454754e-01
-6.921777260147360389e-02
-1.255957620789464046e-01
-2.077846302909198539e-03
1.149778865759207569e-01
4.203156887168847666e-02
-1.645377904343258979e-01
-6.619042561352381226e-02
-1.377731862715507738e-01
-2.140093471989990559e-01
-1.332162138642614124e-01
-1.861041333338633308e-01
-3.775238415992474700e-02
-4.636096364640253376e-02
-1.540681783797977211e-01
3.096266746589201348e-03
-3.013746382100509699e-02
-1.137140749760795488e-01
8.921640405762375214e-02
-1.990102888351631683e-02
-1.320915403857662873e-01
1.628540238961606879e-01
4.303821718700571314e-02
5.394722199593977169e-02
8.988244325076340246e-02
9.508861489055030203e-02
3.089041392099380404e-02
2.739080834918872914e-02
1.231883637563602023e-02
6.637793984578098383e-02
7.844044876447676951e-02
-5.610267637045186079e-02
-1.618106208230429555e-01
8.474264221241972761e-02
-6.011953238491278551e-02
-2.112426809396915905e-01
2.773457584457773503e-02
-7.459441476251882364e-02
-1.098676826645343940e-01
6.604229820075908919e-02
6.056656109246140451e-02
7.622130694403492224e-02
1.419459678621305676e-01
8.700071756374376519e-02
6.648903526096930361e-02
2.734784314105210834e-01
3.027701012845467887e-01
2.438482561923694947e-01
-9.277014631942379075e-02
-1.721672566833848950e-01
-1.323323966458017642e-01
-1.064421735710469746e-01
-2.056742999711496100e-01
-1.840242208907435784e-01
-6.651270035928678881e-02
-1.317656008755358210e-01
-1.763186482262619481e-01
-4.526681115880605566e-02
-4.125587975170560279e-02
6.915590852016569035e-02
-1.555553575982422942e-01
-1.124499865283701688e-01
1.514417135537378086e-03
-7.803753380005939988e-02
-8.665988737369169359e-02
3.829233170949389309e-02
-6.974228077082385464e-03
-7.687560524860789779e-02
-1.156726396212213320e-01
3.374058197719958380e-02
-2.222248836753816167e-02
-1.292566671492653418e-01
7.001244342197997239e-02
5.120572868201342387e-02
-2.053976655266742668e-02
2.057685576133331737e-02
-5.438867607293403073e-02
-1.095711078748922429e-01
5.408641554898954706e-02
1.071514432325215010e-01
-7.705278795068211395e-02
-8.388947375416891394e-02
-5.418274249847902790e-02
-1.563705869041552565e-01
-1.044566773773973785e-02
-7.625801284477032316e-02
-8.413037445570359374e-02
1.241255377584506766e-03
-3.845428208772150996e-02
-7.144557066703742521e-02
3.372193460189976122e-02
1.271046514357528946e-02
-5.747019685233335784e-02
-8.594714572009311271e-02
-3.674696884703460009e-02
-1.618870379808963131e-02
-7.965099353844599939e-02
-8.966241894347216912e-02
-1.242084183768421730e-02
-1.565200658866732764e-01
-1.533666082080574478e-01
-1.196964368423366620e-01
6.092193198552897648e-02
1.742357307112054055e-01
4.445249845881384804e-02
-9.803580846106089985e-02
2.920420900362423119e-02
8.270164969665942667e-02
3.780591672329011027e-02
-1.252743088485488987e-02
1.438897362656365309e-01
4.776996193499472021e-02
-4.732349430137333668e-02
-4.675036006228572988e-02
-2.963391385927073227e-02
-4.277088768142280756e-02
1.543891459973065552e-02
-3.158880097035473428e-02
3.307892443812049388e-02
5.815294604916759758e-02
5.791195646463453972e-02
9.104907704594140949e-02
1.247075019679081548e-01
2.338486411157524383e-02
-4.155294895302621451e-03
-8.429789946448557059e-02
6.975817416197088727e-02
3.394273385783307811e-02
-5.218563874076035530e-02
9.849809449079942325e-02
2.104650241437481806e-01
1.485991324947214809e-01
-3.032763177362324258e-02
2.934441915596793238e-01
9.379304519585376920e-02
-1.579773637521015017e-01
-6.227713939454177644e-02
2.734480445354514188e-03
-1.726894831851528977e-02
-1.919507511339993075e-02
-1.434981844370427327e-02
-8.027777699983433893e-03
1.398842156110621793e-02
3.376283189152730346e-02
-4.549555988790658125e-03
2.708357176613206130e-02
4.095977298660177096e-02
-2.630201245104123176e-02
-1.010707239957807785e-01
9.983996667246220272e-03
4.571528421507829038e-02
-1.597364138418271851e-01
-1.704496205157147726e-01
1.885155343505330594e-01
-8.136644096228112799e-02
-9.591827379573078516e-02
-1.790082755330424935e-01
-1.361533934181548000e-01
-8.756830772580770361e-02
-9.417484211537587024e-02
-7.792159148386591794e-02
-4.368566316792266147e-02
-9.561210797504515746e-02
-1.003927355945470196e-01
-2.478282146521297927e-02
-4.100271597398880141e-02
3.230380358522448592e-02
1.379327754937589301e-01
-3.988928143093223994e-02
-2.310756859979948979e-02
6.459457470081216013e-02
-9.865480077212289770e-03
-1.325535486561348619e-01
-1.323463012798601346e-01
-5.333136836575791406e-02
-2.709904851822420024e-02
1.633161599358394500e-02
-7.054251384835463767e-02
-1.362842847436375633e-02
-8.312049138334822937e-03
-3.976155656226660479e-02
2.086841505003275699e-02
4.115218940131945558e-02
5.912409557738713267e-02
1.403150815008749608e-01
2.558636099028333555e-01
-7.294778500017595757e-02
7.288917777312209356e-02
9.295197871335052209e-02
5.265002185374179772e-02
-2.740606289378492641e-02
1.465997566653568472e-02
-4.732983554778869006e-02
-4.182234776591505637e-02
-4.662775429880778449e-02
-1.129268965889351634e-01
-1.146983819656523518e-01
-8.045422363957825673e-02
-5.285749143751247714e-02
-5.550956845507304394e-02
-3.761141572450115572e-02
-3.712482019470692007e-02
-3.493981777842237318e-02
4.386803719262075130e-02
-5.700060297357214395e-02
-9.632896046731861950e-02
-5.350345140580033826e-02
-8.452128743774657560e-02
-8.303049456989929078e-02
-3.120217659298337234e-02
-9.844886442007419469e-02
-6.139329241388290226e-02
-8.767597559037115795e-02
2.118983735963015855e-02
4.616021861697769402e-02
-3.479633284310727510e-03
2.173179588703755272e-02
7.279294248422467362e-02
6.438665792445590064e-02
-9.685027591835329575e-02
-3.348790011198959221e-02
-4.614425578598819327e-02
-7.754906617211188014e-02
-1.549997833065212480e-02
-2.638098221750418901e-02
-6.184320704128504209e-02
4.374059841610614119e-02
6.732308831938198235e-02
-5.466283845901705185e-02
2.293724655416238059e-02
-8.711433781160468626e-02
1.379750782457982855e-02
6.337306676451205656e-02
7.747942078769724794e-02
4.225779807412841788e-02
5.653752532962933591e-02
3.433041094321644809e-02
-1.220188857052341563e-01
1.820249450547520645e-02
1.049051171025452284e-01
-1.357331434914605117e-01
-1.833083405562648677e-02
1.509567734697883079e-01
-1.122077136955480503e-01
3.834468935072447848e-02
1.025291217883138456e-01
9.820399175954960813e-02
1.761110508731811297e-01
1.671996220128946220e-02
9.264356859695593860e-03
2.828734754425625206e-02
2.530269812271145058e-02
8.992470711649096227e-03
-8.834773384893751524e-02
2.121131371411264302e-02
5.367067921205650322e-02
-1.899264686219336376e-02
-8.426587936432078374e-02
8.127364988957076763e-02
6.918314560398039492e-02
2.225186697609497170e-03
2.821208308778807086e-02
-1.558734337407102072e-02
4.975810517543966666e-03
-5.371482073112474748e-02
-8.187717378132172014e-03
5.456956964019043371e-02
-4.714210632243848176e-02
-4.962441403550807428e-02
-2.617450423468413792e-02
-1.409245716638918566e-01
-3.492298000541761011e-02
-4.717982326728039494e-03
-1.871612352146599027e-04
1.711930240261591921e-02
-3.612223941618683543e-02
-2.643483698173866581e-02
8.175457912821856854e-02
-4.162310263708780302e-03
-1.508262710074234451e-02
2.548460273407436930e-02
4.750381846192139323e-02
-7.042960188688703049e-02
3.538976851454259803e-02
-5.343037291557346108e-02
2.018452620650372509e-01
1.524829667693323454e-01
-1.093949528824867193e-02
-1.205159019786409408e-02
1.507924593593226448e-01
1.544764013257743374e-01
6.974018368758093736e-03
2.974865208859559310e-02
-3.047563307629330004e-02
-6.266518589988713528e-02
5.081161035684152866e-02
8.539275746088165892e-03
-5.387940704577293995e-03
1.261599890410492752e-01
1.327435638410995600e-01
-4.933120158466729362e-03
1.367241799691294463e-03
1.516364258820125654e-02
-1.351028918711947441e-03
4.275081807847933534e-03
1.387504214740011704e-02
-2.865697192774487728e-03
-3.345623476777520502e-03
1.705797602422321445e-03
8.804106701026204879e-03
3.597330921261993487e-03
-1.227838802287225736e-02
-3.049921282356578799e-03
8.097246185080148257e-04
-6.994399989871706406e-03
-1.014483850974330463e-02
-6.623601701826175095e-03
-1.020837785349266828e-02
1.417918848513246210e-03
3.557543178810819808e-04
1.123857641111931406e-02
-4.721103632891178632e-03
6.836262079383189326e-03
1.366890236849812798e-02
-6.140360317353696362e-03
1.019372899218920839e-03
7.511600388700875527e-03
3.703995913070861831e-03
-3.698575760665072983e-03
-4.593688766189917352e-03
-1.708626373475233794e-03
-1.973577509175374837e-03
8.286936774580892437e-03
-1.151632874953213530e-02
6.251251779654321342e-03
2.354583062832388534e-03
5.386824956162068918e-03
8.400768330433515049e-03
8.440439933782996340e-03
5.275855346941556515e-03
7.997119338121524285e-03
7.744019158247834531e-03
6.456706912899686825e-03
7.186517065809463686e-03
6.703204661022999292e-03
-2.431862158717184273e-03
-2.840227686261939059e-03
8.208663541747312749e-04
4.718054428545376440e-03
-1.471810389788913865e-03
1.450450968921397155e-03
8.009432638649473940e-03
7.178213341208828681e-03
6.203812175871990103e-03
8.161733121669406330e-03
4.406639935773424416e-03
5.219280417373370860e-03
3.399486364182562753e-03
2.160991467559066678e-03
6.331803068926134329e-03
1.191225102657649925e-03
-5.507332421529366733e-04
1.786267894131885522e-03
5.339978580884796426e-04
-5.701846003010343708e-03
-6.423926983202181938e-03
1.720038772719196260e-03
-1.027017584795170482e-02
6.900224596076093373e-04
-2.637106147831834078e-04
-2.898499976759884474e-03
7.102048600742027866e-03
-1.351817367069706611e-03
-2.527669201221242109e-03
-2.271576633252937912e-03
2.683268024899499934e-03
1.559383056940111386e-03
-1.798708048244885508e-03
2.308221296756431552e-03
5.540440666588412714e-03
-1.066086178987353528e-03
-2.591369802860008561e-03
-5.536109656160428071e-03
-1.703700660072004483e-04
-4.771952703234895866e-04
3.153074381075101663e-03
4.469273463338177890e-03
1.901406567804892530e-03
3.478065598728859696e-03
2.180930629593884600e-03
-1.704037379913607994e-03
5.966834344508192660e-03
-8.591372108469802482e-03
5.881053600974719443e-03
8.936025091167280540e-03
2.703109970200017094e-03
1.405601419468774198e-02
1.119533216650780288e-02
2.031349266193990030e-03
-1.355439796275037230e-04
-2.534561169767253486e-03
2.347630493561709587e-03
8.079210465758166274e-03
7.377537135928421280e-03
1.274986411823612409e-03
6.270932270469410652e-03
5.158880220651191131e-03
2.689182665456854148e-03
-1.071792919248403322e-03
-4.126469957744707991e-03
-3.932964913871336843e-03
-4.728531522200998816e-03
-1.240631158178788149e-02
-1.050214490409176298e-02
-6.502988074605444563e-03
-1.236136284964070922e-02
-9.288500138204449502e-03
-5.887606637973847451e-03
-5.640087327756280675e-03
-6.756177214180391667e-03
-4.310715820336553580e-03
2.003320521778631860e-03
-1.140551936607189440e-03
1.115925237253278038e-03
2.193905131702492738e-05
-9.420013049044219725e-03
-2.040222676925704953e-04
1.331864885654203932e-03
2.519529732599389525e-03
6.727650147990983350e-04
1.794482216690208767e-03
1.797742368570702130e-03
-3.121810993113478534e-04
-9.129008664084670155e-04
-1.078245643125838853e-03
6.654672720577458961e-04
-5.394120634645159854e-03
-7.254131845154473783e-03
4.803344173506724803e-04
-1.431805310432241254e-02
-6.265601323509908949e-03
-2.940162164010223875e-03
-1.195243820300121058e-02
-2.070732414025972402e-03
-3.156527590252021531e-04
-2.740978149064316697e-03
-3.978383510517958903e-03
2.137457252315382722e-03
2.611956109859706748e-03
-2.886122782523850485e-03
2.307486863156506859e-03
-3.179345262134044702e-04
-3.716234212215322255e-03
-9.458522278396629124e-03
-3.466133399595129269e-03
-8.305218238933969460e-04
-7.153036762773343389e-03
-6.727375405046220370e-03
3.942826170479039709e-03
-3.962403694126100107e-03
-2.364685493613606204e-03
3.538448495000850666e-03
5.778832514861120123e-03
5.006133218909762130e-03
7.608136409265167481e-03
6.339102679329722788e-03
4.162655422083100590e-03
6.403559143535125266e-03
6.757415277647038296e-03
3.931249122064244504e-03
5.768216329517898699e-03
3.575686681903440193e-03
-3.214501103941163652e-03
-1.098053823059083871e-03
6.098701373937766811e-03
-2.713122458299854333e-03
-8.215831432814235669e-03
8.325559538137667845e-03
-3.007992216002472116e-03
-6.656868206685244253e-03
8.636689458163614164e-03
7.811168987994016738e-03
3.700848115818584395e-03
8.637223707861210048e-03
9.491480127496645242e-03
7.504853704617245325e-03
5.151999851270646844e-03
7.310837019589139056e-03
7.121245219590894085e-03
5.890220136379522957e-03
4.081578238444748957e-03
9.677660494973256214e-03
5.143544747730858027e-03
2.964499277419495142e-03
9.438128389756274619e-03
1.756762615271707968e-03
1.868307906802059697e-03
1.141889330215404251e-02
6.120851602315341769e-03
5.475762786109995145e-03
6.976230585252808820e-03
9.583749522831098641e-03
7.849511602215345288e-03
6.526531431564286390e-03
1.197437733639707645e-02
8.894371308397002254e-03
2.824577168211745738e-03
5.371849008222226440e-03
5.391211504967080223e-03
1.090955969326022623e-02
7.836130785272326510e-03
6.407498190638515577e-03
9.634926417046293587e-03
3.936591619040208552e-03
9.612098178127933754e-04
7.184606643937746506e-03
-5.233468752488559979e-03
-5.682048783305485885e-04
-3.498216887874516269e-03
8.230784526466188022e-03
9.038983903864221750e-03
-4.067924153027155723e-03
9.017454673180217567e-03
6.858331457645533077e-03
-5.325679169015553119e-03
-7.314265654262949723e-03
-1.715306706400468104e-02
-1.395068738287118769e-02
1.213349871850002770e-04
-9.333794387865338230e-03
-1.235268608408287595e-02
-2.041648096404057120e-03
-1.885586043342188855e-03
8.102442218017580616e-04
2.866457331304664465e-03
1.421066055977448931e-03
-1.521483324413819066e-03
2.397029324178933871e-04
2.547488046488836314e-03
-2.481268558281366030e-03
8.937427312314696198e-03
3.897580578334306975e-03
-5.565023033538714879e-03
2.210306794014725486e-03
8.466185166220430961e-05
-3.357746767247428779e-03
1.874895495552559232e-04
4.412478346222133271e-04
-1.266257794064217608e-03
-2.858343272719027217e-03
9.406788525940975578e-04
1.506599924052685674e-03
-1.504529423867714210e-05
2.347061298920691697e-03
8.391553874747650563e-03
1.332867967722119618e-03
1.751645712234287794e-04
4.160087386508177706e-03
1.137224253992152011e-02
1.068515565215733725e-03
5.122814679887971283e-03
3.654942255924310823e-03
-2.571543830986512593e-03
1.144927918375863865e-03
2.753952012235844765e-03
1.949106563022170481e-03
3.437039399618988748e-03
-1.867339573081540534e-03
-5.218887225323621919e-03
-2.999086121181621361e-03
-2.549617181438226972e-03
-5.764119759849577196e-03
7.919238314357569808e-03
4.091699984785410708e-05
6.229793323539275195e-03
4.436621321056841670e-03
-5.098933177766345852e-03
6.659818130038485480e-04
-2.226040767077478236e-03
-5.143030649125811954e-03
-2.615049548311106087e-03
-6.261313072717334012e-03
9.566683021911746810e-04
6.977157044020030133e-03
4.383021872325130498e-03
1.903645698230200254e-03
1.901339282815379342e-03
2.346601116775466709e-03
1.130675237677433720e-02
2.488517329620227453e-02
-5.719833101377215512e-02
1.363006245760761855e-02
5.387675705831918016e-02
1.066231070385157548e-02
1.925511567277100877e-02
2.961343009389871481e-02
4.699070538074590769e-02
2.791162704092072303e-02
2.738936613330390790e-02
-3.959926523520450325e-02
9.428138585672998784e-03
2.001852724584920334e-02
-5.807253672793203508e-02
-2.593329221539179136e-02
-7.837877478111205179e-03
-5.155289062293386560e-04
-6.199799746725711408e-02
-3.720670320441617218e-02
3.566870102347991824e-03
2.482970851328680784e-02
2.234799247429219982e-02
7.539073528683945882e-03
1.523655134590902807e-02
3.888305196993737528e-02
2.103285676253613748e-02
4.355373655300412428e-02
5.369816891674037557e-02
2.743167059880675940e-02
2.395936333204709556e-02
1.055685137032323501e-01
1.907252600812214816e-02
7.995720217726372953e-03
9.838775921997358620e-02
4.515162430010849492e-02
6.822189261611331761e-03
1.659859967490926250e-02
2.878034527003598894e-02
3.359242071184530276e-02
4.837428624487557366e-02
2.137469109122485181e-02
1.833237224437605801e-03
1.216908208247913757e-02
8.873357928956077112e-03
2.906656640512514031e-02
3.033273401166223376e-02
4.822715931319253302e-02
3.013987618280716818e-02
4.847457847492360472e-02
5.207391230133844723e-02
1.096719893478688944e-02
2.644985600787269978e-02
1.298483031227866576e-02
3.419158989109655211e-02
1.746565199409549907e-02
-1.941571643943683367e-02
7.921357189324258752e-02
4.027540019523027925e-02
3.601080063626646479e-03
7.051414015525100942e-02
5.545636988481011942e-02
4.971854940851992179e-03
-6.660329601317627191e-02
-2.463196240752417790e-02
-1.496831109276543052e-02
-4.924355173838845801e-02
-3.282375911081705094e-02
2.316863862769375296e-02
-2.282508273506947058e-02
-1.524659874922263151e-03
6.388797970227390322e-02
1.330021117857988627e-02
4.221152887733458183e-04
-1.952462576483044235e-02
5.233970470576116557e-02
1.500766311322145573e-02
1.803339892125557092e-02
1.797127420889109428e-02
6.956664739014874026e-03
-3.272441856428082163e-02
7.233580153184213102e-02
5.904483819401525058e-02
3.928753601378557475e-02
5.429027560256199231e-02
-7.359715506681371519e-03
-4.119974274874641483e-05
4.467191273562329257e-02
-6.418061588918329979e-03
2.429459709556043914e-02
-8.689395465479284042e-02
-2.955666671749737281e-02
-7.186582014283326644e-03
-4.835251625265158532e-02
-4.773468257474113713e-02
-4.701116193841561874e-02
-9.795591566651146165e-02
-1.265394312667591226e-01
-1.232286003897014870e-01
-4.390581863942998042e-02
-3.228902614033513779e-02
-2.639440606602564202e-02
-2.796328508978901048e-02
-3.411358709066687062e-02
6.401197682883988903e-03
2.637022625531856845e-02
-6.252318948588491375e-03
5.185751653798504474e-02
-1.286060945660640401e-03
2.389421289686051810e-04
1.696826286200037517e-02
8.216449202028808241e-02
7.474206186877292712e-02
5.764163187204684319e-02
8.589882948062850521e-02
6.701797216075507102e-02
3.097591623441704398e-02
4.464981995016137351e-02
-6.371683064623565040e-02
-1.297702094208129653e-01
6.324645596891391441e-02
-1.244774577450718199e-02
-1.055235155838130795e-01
-6.423960542584615518e-02
-3.425517459356586247e-02
-6.301866412015513785e-02
8.688847459028242043e-03
5.823980298944752068e-03
1.087597014521688235e-02
7.143178567664710404e-03
7.594047628775103635e-03
1.141361567537426715e-02
3.543494677548740101e-03
5.214717338041111386e-03
1.162127301764783946e-02
9.462368396880652122e-03
-6.521145980474351775e-03
-3.304482239018542017e-02
-4.849234137867688282e-02
-3.437543548115961495e-02
-7.695052786646877641e-02
-1.686472229310409868e-02
1.722380008815174723e-02
-7.351656064481292517e-03
1.459927215811431152e-02
-7.628742150937346811e-03
-1.732899543617574117e-02
1.226969803333185713e-02
-4.880477369571173396e-02
-3.996883381048450118e-02
1.312767633777883226e-02
-1.486494397885619601e-02
-2.955022198354030627e-02
2.998510981116004823e-02
3.584652856030270257e-02
5.730071954473310580e-02
1.298607399381142800e-02
-1.660403057838056575e-03
-1.063589619926865598e-02
3.790950014384060745e-03
1.888056977417298943e-02
-9.003316712702375121e-04
-1.496442366040877207e-02
-1.405260325836361554e-02
2.360937569140060456e-04
7.666124205075296009e-03
2.439810427205279381e-02
3.426499752571977170e-02
3.824472648681975784e-02
4.953795957783931059e-02
3.288384317627515013e-02
8.702759847582534902e-02
7.038372055633057393e-03
-3.062251885830334988e-02
1.622213185795213716e-02
-3.146362527964171457e-02
-3.623635704909597410e-02
-1.088072373942862176e-03
-1.800412862408384482e-02
-7.556202718816117450e-03
-9.994175821752233208e-03
8.402650255161901380e-03
1.162160471552680339e-02
2.722389193079893625e-03
2.284439282020449616e-02
2.283842300043655710e-02
-1.606140865247193336e-02
-3.164784560668213158e-03
3.985912492253029446e-03
3.222232295836616189e-02
2.598116764694906669e-02
3.578147273692724312e-02
7.402640328843763939e-02
4.823239264494062761e-02
4.826545483509112056e-02
9.147096612432244200e-02
4.978675710379896341e-02
4.551555697965977559e-02
4.984271720737260686e-02
2.379942484805907046e-02
2.848338847708571653e-02
5.172877769006204579e-02
3.435804731438368842e-02
2.087040271745261091e-02
4.631618253177616912e-02
3.431133876183015130e-02
3.916839562685677650e-03
1.485008992451128385e-02
1.453910553921318634e-02
3.004469855595995678e-02
1.553607935396134065e-02
2.612460100773155922e-02
3.308885027475739343e-02
2.438410357914146120e-02
2.855692968132462345e-02
4.311486204338273176e-02
3.833731063696230873e-02
5.174578926472707396e-02
3.506310009620645929e-02
4.943588827471562253e-02
6.652396679225745790e-02
4.139252080685878327e-02
6.754739017361263698e-02
4.258255558758586995e-02
8.454683968574319003e-03
3.959914094125657064e-02
-4.007520531317999152e-02
-3.766677075972711675e-02
1.331503926105507933e-02
-2.060076091091103678e-02
-7.340521552906652258e-02
3.055753353000283459e-02
-2.076575834409333503e-03
-2.616437321593694659e-02
5.799854287110662449e-02
-1.581390229946395137e-02
-1.614643684366022167e-02
2.777863993716535307e-02
-4.146854789005637726e-02
-5.432601104015984811e-02
8.769636855565265260e-03
-3.255395034225586764e-02
-3.332355991652879990e-02
3.883272776209244215e-02
5.601199722447983143e-02
3.215325819138643848e-02
3.654451699356228711e-02
6.253256904112007575e-02
4.705358327733219492e-02
1.845565143425770271e-02
3.356305394772891165e-02
3.314386611535345001e-02
-8.933948445873664268e-02
-8.925412976404333010e-02
-8.452322012536860052e-02
1.128902193785820407e-02
6.617996010218020995e-03
2.026658828378901170e-02
6.728047541339141936e-03
-9.644165177449707388e-03
2.246935716634894387e-02
1.014433459819809660e-02
2.005806385209358070e-02
1.812657300386742373e-02
2.344271049315572314e-02
5.065190605596160689e-02
2.436546876261909064e-02
1.967626809157724949e-02
4.561643543190999767e-02
3.674996746896328631e-02
4.178942848528365006e-02
4.895930632053140108e-02
4.928334435306291374e-03
1.667486792546851726e-02
1.256660362459611525e-02
-1.209984237640552782e-02
4.507015982047216096e-02
1.508351210359812691e-02
-1.881111913941460254e-03
-3.045224728043483160e-03
4.338406232813910718e-02
6.651072484896858317e-02
-6.071633207503281809e-03
1.365396381276865086e-02
1.965083421058952395e-02
-6.656588724511519617e-02
-6.092811412124425618e-02
-4.069271990811962336e-02
-1.419034376135908382e-01
-1.639835790440836161e-01
-3.186440318716896591e-01
-1.218047094065011771e-01
-1.359692983725298288e-01
-2.227981326084520763e-01
-4.217234289556918980e-02
-9.306969571166569255e-02
-1.083684540439049798e-01
9.009205224947464119e-02
7.829609907524368029e-02
-3.160854970425894944e-02
8.323247237351363848e-02
4.420115510342936122e-02
-1.341533572554623986e-02
4.452935698752374938e-02
-5.312724121520669834e-03
-6.681578792022449531e-02
-8.082249092675990176e-02
-1.240288129356447444e-01
-1.245597104281804118e-01
-3.244582591873946403e-02
-1.546710266692666313e-01
-2.102335653539851579e-01
1.268573025898640516e-01
4.183909224023148188e-02
-1.024995042831115394e-01
-7.544642421110170361e-02
-7.114082401214145979e-03
1.501963633568656475e-01
-1.289689706473509667e-01
4.009564963075474414e-02
3.758886975855650625e-02
-1.118563207278228389e-01
1.061862763887111150e-01
7.713256947328926694e-02
-2.328499359410996297e-02
-3.971159661686284037e-02
-5.366250622683393229e-02
7.418548132476920909e-02
4.111537440879336341e-02
2.431860032807148242e-02
-4.910268350880156452e-02
-1.659191145537244547e-02
2.349410913808306495e-02
-9.411104447219931224e-02
5.029087386131727975e-05
2.397371353958234128e-02
-4.598219359436582498e-02
-1.308533833789933716e-02
2.504127318798867602e-02
1.912886762256573239e-02
4.024861094545603354e-03
-3.830070897726376572e-02
-8.320307461116828451e-02
-8.853111305012754950e-03
-1.743612922514674746e-03
-8.735692012000112472e-02
-4.696253564737718628e-02
-7.184309106078416718e-02
-6.601730266513093637e-02
-4.718113387490335126e-02
-8.549343279873197754e-02
-2.878500490146320562e-02
3.420801162237452342e-02
6.042692441451165408e-02
-1.003437857686931695e-01
2.104066409271332719e-02
4.626957519592626855e-02
-8.214461372031423014e-02
-4.357378826487844081e-02
-6.489095326535720965e-02
1.122585019769394878e-02
7.923739036931868110e-03
-8.125148060271289441e-02
7.871269342602867092e-02
8.078557918411358174e-02
-4.404551208004594057e-03
2.226345512655036885e-02
-6.251329088254872768e-02
-1.700337996104778759e-01
-1.025443543453228266e-02
-6.804117290822919717e-02
-8.255150022793668330e-02
-6.299096988072079573e-02
-7.054783731396103985e-02
-1.358211924227406275e-01
6.066094318862550253e-03
1.720893047787079577e-02
-5.358766086331367973e-02
7.652789179538588282e-02
1.491530863063431633e-01
1.699350815550294547e-01
1.079368201858714321e-01
8.331339704648983713e-02
6.473694697913501273e-02
-1.232554012237298616e-02
-1.068588310288875499e-02
8.783586058931859564e-02
1.515848389553365629e-02
-1.329330210387009992e-01
-5.192783906880356695e-03
-7.477276975283281280e-02
-1.025283045064932785e-01
2.579172727972163515e-02
-1.043337785883815538e-01
-1.245666095495477910e-01
-7.526469153963527559e-02
7.205644422407414540e-02
3.609431800406590063e-02
4.661020704512858909e-02
-5.103019409902764814e-02
-6.102900698358271203e-02
-7.849498717695542471e-02
-1.335597210584084926e-01
-9.681177914133237694e-02
-1.543739025846037061e-01
7.114743446734284049e-02
-6.180792933260650240e-02
-1.029906668778974299e-01
4.452211435341883045e-02
1.025530258769494496e-01
-1.415149391407425350e-01
1.537368654294918036e-01
2.930497782294663733e-02
-6.926276482281268354e-02
6.865129194336167147e-03
5.755629816004145284e-03
-9.724061582421738431e-03
-1.523612730020094258e-02
-9.622263458982139445e-03
-1.434698845633851881e-02
6.544497003112775477e-03
2.557343503833141990e-03
7.305359530793162880e-03
-1.734013271431140146e-01
-1.212899887659081022e-01
-7.340464223240318609e-02
-1.442247177208563491e-01
-1.420223507540125107e-01
-1.060573638522992190e-01
6.676667714540306109e-02
1.205417083304051104e-02
9.359150310663404138e-02
2.352992972262189786e-02
-6.297050344955144874e-02
-1.778331090965557804e-01
6.347188771327537567e-03
-5.860261775195357847e-02
-1.392574484828395243e-01
3.916681139508094989e-02
-3.050103577181666539e-02
-3.421672068060271910e-02
5.872049458083933478e-03
6.114404622405669038e-03
1.912090447771047988e-02
-2.277416994675787384e-02
-1.469246296914163141e-02
-1.263731488095886160e-02
-1.401531969159048041e-01
-1.585802449223851218e-01
-1.039594103243589446e-01
-8.155655166692575564e-02
-4.124683586745103714e-02
-1.225591788446031907e-02
-2.613596745599893606e-02
4.609703365518526275e-02
6.153112157270660548e-02
1.947029619038620138e-02
6.047423391245725088e-02
4.576880290447427752e-02
6.468341383865046368e-02
6.045376170796460183e-03
1.018254889921351436e-01
7.877541481057695472e-02
8.661616521144573089e-02
1.179696466047661790e-01
2.878362219052807425e-01
2.716753620682850201e-01
3.494398795121795853e-01
-3.691995664206416256e-02
6.675371026122638163e-03
1.046625866714245498e-02
2.230205527760160955e-02
3.004001858474607267e-02
5.085629294064478861e-03
-6.982439371538061608e-03
-1.464929236668412876e-02
-3.393279152638761786e-02
-1.360352297248440256e-01
-1.022158349284458395e-01
-1.005854311029127091e-01
-9.223078853334727711e-02
-3.167219482053843654e-02
-7.221333428529468079e-02
-4.509537360581487159e-02
2.362910387061256320e-02
-2.981756377724215090e-02
-1.147178049248158554e-01
-7.203473652839099961e-02
-6.285602999476283537e-02
-4.724798318562543897e-02
-7.209085323106124987e-02
-3.437350682200349117e-02
-3.979842451293372219e-02
-6.091866722829120118e-02
-4.487372417691409127e-02
-7.511235374385255570e-02
-5.776404542638772371e-02
-1.082073292500292383e-01
-5.614554042021707714e-02
-4.456312515562232957e-02
-7.025404155019208952e-02
-5.853747734493421756e-02
-1.851066708944994893e-02
-5.714265686413463885e-02
-7.636485603149122114e-02
5.745111109581303721e-02
5.381467082291705589e-02
-6.235024357200743411e-02
-1.502632097809260790e-02
-3.312243054522485963e-02
9.537375976879104711e-02
1.282925680871817575e-01
7.379498528205220842e-02
2.054118415968651107e-02
5.114946518549517984e-02
-2.374915146906662888e-02
1.709658276072859376e-02
8.911697835399277207e-03
-7.097474859351883547e-02
3.469950040992798856e-02
4.238640329096585863e-02
-1.061341432791316902e-01
5.629792728924802592e-02
-1.227824967639434411e-01
-1.850088303841957438e-01
1.082855577810150002e-02
-1.981406584081292221e-01
-3.062955283558114195e-01
8.871654930850372822e-02
-1.320751686999080687e-01
-1.129141609864199869e-01
-1.678625017830805144e-02
-1.253288036942519328e-02
-7.236320975868143490e-02
1.590469459462642496e-02
4.094100849788323560e-02
-2.762870638696707237e-02
3.613427806142515547e-02
1.911433530177083714e-02
-3.850348252556985706e-02
-3.284144289924129101e-02
-1.258204137215951368e-01
-1.533453994684570443e-01
1.109736661920472656e-01
-5.247681283665410479e-02
-5.302980483753534646e-02
-4.028784645073863607e-02
-5.960403820840619316e-02
-5.903193362067415267e-02
-3.283206990883130033e-02
-6.572211553044186860e-02
-9.210624351602696158e-02
-5.019222797241039424e-02
-3.377151373944389801e-02
-1.023430674277716196e-01
-3.583760140931954025e-02
-7.416317897678412208e-02
-8.176498307208543426e-02
1.068497005180569920e-01
1.476027555885965348e-01
1.743410336599376664e-01
4.144108799053684150e-02
3.647039228512958392e-02
1.715030930754435357e-02
-6.254933085337371912e-02
-1.947985681380409295e-03
-5.894927695070194956e-02
1.751929163824177405e-01
1.671753810481677593e-01
1.367963442580873157e-01
7.370638497572210013e-02
6.971410303333731850e-02
4.657724714229481006e-02
6.496860157734932195e-02
1.869687581848635330e-02
3.507256390288030629e-02
-5.395940178332266079e-02
-5.565673374618358704e-02
-1.040142687430965773e-01
-1.687721541222113320e-02
-2.228297688770878096e-02
-8.795259138832228762e-02
2.268914463329100781e-02
9.107408889744133401e-03
-8.024594330362032346e-02
-3.897094091274332095e-02
-4.094479818428425205e-02
-1.031032696114203284e-01
1.645654621929994524e-02
-4.365841211965305196e-02
-8.328392856870431293e-02
2.049712720397520518e-02
-3.267467541533563419e-02
-1.051732320382430669e-02
-5.359544904403545224e-02
-3.261512373756466493e-02
-7.168254771028889638e-02
-1.893275079902764779e-02
-1.041224715432182216e-02
-7.798541128290900626e-02
-1.452253418645017315e-02
4.774485524305487234e-03
-4.556038065069926285e-02
-4.062557199183894352e-02
2.108202392074625883e-02
1.110569476603984612e-01
-5.946019666697650169e-02
-2.246126105802505671e-02
6.768640737933533102e-02
-2.320093087418916011e-02
6.499181073509815998e-02
1.626352540878228392e-01
-2.605522863592984323e-02
-2.419198712122288403e-02
1.983166402203483808e-02
-1.105650917847185964e-02
2.959996767188158816e-03
4.734855996433263298e-02
-6.204790026775106743e-02
-5.126041581121382196e-02
-3.136220535362323897e-02
-2.897059204147209299e-02
-9.733500504846019641e-02
-4.410524569698735797e-02
-6.486566802432247592e-02
-5.874425738812919656e-02
-7.306730554230251098e-03
-4.117145415608662595e-02
1.549786466880918737e-03
2.450724883517876873e-02
2.584846782083341163e-02
9.826945774382282381e-03
1.068339870512515812e-02
3.877899583963934083e-02
2.736769635040807794e-02
5.468926485518314611e-03
4.373103554443858593e-02
7.361298114994448138e-02
3.609026258632375139e-02
6.365235921676295518e-03
5.816999716293590195e-02
8.974100073090295060e-02
2.650733410117844455e-02
4.325205894257250910e-02
9.273545419133041867e-02
5.463374807292627894e-02
-2.869647264780195509e-02
-3.486735124383218143e-02
1.232217187026308884e-02
-5.506128973273270461e-04
-3.422072226875926687e-02
-2.207536402661373909e-02
3.537186575331515564e-02
1.359390239707090149e-03
4.428007943309435895e-02
1.114701876224926114e-01
4.126557589850664287e-02
-7.136423928639856751e-02
-8.678135440577426640e-02
-6.564491455559029465e-02
-2.853930654318689517e-02
-5.959772581064276542e-02
-4.137264029006264970e-02
1.084617352575589604e-02
-4.845939791757937487e-02
-6.288078344671682585e-02
-3.633260747122460388e-02
-1.653279400834570603e-02
-1.319360461466591306e-02
-3.233247214773759398e-02
-6.522966066659033162e-03
-2.815716978089343250e-03
-1.331013986131781429e-02
-2.813136428858276084e-02
2.205903901305900430e-02
-1.300436965811840526e-03
-5.551898161527250332e-03
-4.036125464800411483e-03
3.169183214061362282e-03
-4.775365502390558139e-03
7.144354998129444356e-02
-3.210560727209532672e-02
1.216541113298676450e-03
5.168573464027455960e-02
1.670920578997576317e-02
-2.767577318061254996e-02
-5.688679945838253510e-02
-6.879323625664369828e-03
-6.421010899690320073e-02
-8.092789228465509244e-02
-3.423673862102249305e-02
-6.979338334156347246e-02
-8.184379244124902197e-02
4.781417610938296786e-02
-1.612804540053417932e-02
-7.375305469543580635e-03
1.722693452358656924e-02
-5.754397103566696176e-02
-1.230444931349189558e-01
2.114359187265720322e-02
-1.230203142758783674e-01
-8.799018938503251619e-02
-1.566158425118769834e-03
-3.806360111911621415e-03
-6.413923191432969496e-03
2.881701955234980926e-03
5.042813352419199015e-03
9.118599328582693841e-03
2.804033620078030635e-03
8.744812382352244728e-03
1.806184242673526327e-02
-2.911279687557703430e-02
-7.901756055831118952e-02
-6.082006677523443816e-02
2.298489144247420346e-02
-1.109838829555915979e-01
-5.560702167399442231e-02
3.723283749259329034e-02
-9.761968464859800687e-02
-1.934432187763690178e-02
-6.616052913539682834e-02
-4.155628789042529331e-02
-5.169037746943505596e-02
-4.932114034049271678e-02
-1.965113824309962232e-02
-4.424714069618371215e-02
-6.769794168797774181e-02
-5.004918900035063532e-03
2.181986524150286710e-02
2.840658922954035926e-03
4.220571828946334536e-02
8.038342784983762424e-02
-7.853124884970773267e-02
5.131804979867937017e-02
7.667828587336973645e-02
-2.324447676225060988e-02
-3.332723937197189928e-02
3.777356043616617032e-02
-1.772079963170393457e-02
-2.578238613764054915e-02
-3.118246824536443154e-02
-5.504337094718607729e-03
1.916622548605310949e-02
3.165636895336823575e-02
-1.194211874772987785e-02
3.568193303808388922e-02
3.770116234585960818e-02
-1.244480828265658867e-01
-7.402261106590675432e-02
2.444584284242458730e-02
-7.764390044938696001e-02
2.519818302856258532e-02
8.643479232434859993e-02
7.849779137404859497e-02
1.228992415908795703e-02
6.097407350267556453e-02
-4.632012870783348141e-02
-2.487270145709163244e-02
-2.268116873162904015e-02
6.610289045346296258e-03
2.526729029658248554e-02
1.926956481700359269e-02
-1.975848430275433873e-02
1.036618010205345034e-03
-1.196486344670117177e-02
-3.690564948189094946e-02
-4.449351108766203683e-02
8.345010335800996095e-04
-5.240020455054023030e-02
-2.987904677132327894e-02
2.881976112184397865e-02
-4.294858034407957048e-02
-2.153826051810935754e-02
2.898478107194489561e-02
-3.998520426387706245e-02
-5.132802084937391346e-02
-5.952047364010166347e-02
1.843733651636734767e-03
3.697793255772387211e-02
-2.856116164041308005e-03
-3.172246354634896195e-05
6.837211662948797231e-02
6.690128337374098844e-02
-5.061085866153134522e-02
-2.399607756962948008e-02
-5.002349852251361528e-02
-4.927843945672741831e-03
1.293282830827876921e-02
-3.729279289463908846e-03
-2.317079942932904688e-02
-1.422345383531867713e-03
3.321462611887119817e-03
-6.695375344606339929e-02
-6.284642698037597175e-02
-9.125199516305849967e-02
3.387242910214358083e-02
6.813193354724476902e-02
1.984631311040221252e-02
5.590505234201136736e-02
4.879293284943943959e-02
5.526141961133854141e-02
-4.275672916034182341e-02
-5.415229279179149119e-02
-4.482243370440563979e-02
-3.312374355958641603e-02
-4.402649129658644384e-02
-3.712103638251055757e-03
4.102462996516275523e-02
1.935237523802601362e-02
2.615776286556482921e-02
-3.480733950816664035e-02
-9.388178467224950197e-02
-8.812801428020244909e-02
2.247998259765302681e-02
-9.737858614503397403e-02
-5.768543649101277870e-02
-8.959557079706771676e-02
-1.155906726828583725e-01
-3.185299089052797544e-02
7.980878971994520565e-02
7.210512966432378046e-02
2.002026991982854866e-03
4.932298996100761834e-02
3.896327249875577992e-02
-1.211330699446925121e-03
1.907207322958906536e-03
7.525947436822137335e-03
-4.021817664279315162e-03
-2.746187442644783608e-02
-3.648672217143691249e-02
-1.035098809842580209e-01
-6.279836970826675746e-02
-5.093386390096775462e-02
-2.529963048878336451e-02
-1.117598104977628737e-01
-2.756093240229784067e-02
-8.281187630759831268e-04
6.186673134665711046e-03
2.671643276149421320e-02
2.179304104956850466e-02
-3.473138066364547805e-02
1.824430232661499590e-02
1.490827231010912997e-03
-2.579833559373032742e-02
1.002886940933010252e-03
-1.464866422216141171e-03
1.730257907345424812e-02
-1.364678886873259452e-02
-8.436055793136201797e-02
1.555420650387187853e-01
8.393831867351390918e-02
4.598410805500225546e-02
9.092998280367005359e-02
1.548528818820152928e-03
-6.638863100343928014e-02
-1.600119382504339724e-03
-1.216825433771988318e-02
-5.852395068471869660e-02
-2.287844202626706375e-02
7.279251483966377168e-02
6.048597085441109744e-02
-5.660082418499062101e-02
1.419242457339390806e-01
1.898712682548471531e-01
3.464473370215304104e-02
2.210522068682017546e-02
8.933333801306977268e-03
3.261210436600243956e-02
1.068609088515011518e-02
4.064832172894704970e-02
2.740801015030424823e-02
2.968901875071416202e-02
4.721750149358707599e-02
5.375272697778725461e-02
5.327497259446998396e-02
1.816727888416275888e-02
3.392093362370632303e-02
7.060121362342229590e-02
5.351521835079124656e-02
-9.300559135908716482e-03
5.363310748787035453e-02
1.247846356177417793e-02
1.911622448761956736e-02
2.521440136021123671e-02
1.864054029730463982e-02
3.381752309363741243e-02
2.452459379422288269e-02
-8.828846402716672079e-03
3.927746172920936613e-02
2.937495263065084336e-02
1.230187270027309834e-02
5.817615735950665279e-02
7.858505312100678986e-02
5.199465875857258584e-02
-1.186266751962043384e-02
4.966498646260087552e-02
2.721391185632648924e-02
-1.020651170174932260e-01
-6.940695864519254125e-03
-4.971181218927277906e-02
-5.925535237002710863e-03
-4.534692210789719770e-03
1.522999927800208937e-02
6.450165898216353444e-02
7.115434597123576621e-02
4.890617576720285298e-02
6.178097367287265634e-02
6.062461087298939150e-02
2.181830213190106074e-02
-1.969579073623170876e-02
-3.356764145265068999e-02
-2.773166117900835101e-02
-2.802013167067887722e-02
-2.450792746615344103e-02
3.690429130817689425e-03
-2.422898382709559248e-02
-1.214767022561194162e-02
-1.400517709297242463e-03
5.221225841592914974e-02
4.718008084346889813e-02
2.860744769104327581e-02
4.080257376363220778e-02
6.080355087962787536e-02
4.585389000135894205e-02
2.353206227366281059e-02
4.984445322149440305e-02
5.826005115212602031e-02
-4.143606556635381216e-02
-3.780273666318268583e-02
5.518621668784876033e-02
-2.068856156090764439e-02
3.358628593367789586e-03
7.897335307701235096e-02
7.529817285757783168e-03
3.231583879055772296e-02
5.867946489119614528e-02
1.780463119657740454e-03
1.340055329622801862e-02
-1.788635001214370496e-02
3.723182642676158005e-02
4.211457911087387873e-02
4.912100714321907674e-02
-5.213090917654178424e-03
-6.541707227338479542e-03
-3.249709395831714559e-02
-4.146590919680338827e-02
-2.303908305097404283e-02
-6.498002507777698479e-03
-4.641900171497254091e-02
-4.235365383462814937e-02
-4.679176531145579077e-02
1.205078094510046542e-03
-1.733359573651328117e-02
-3.374400433804138760e-02
1.874670494870702905e-02
-1.685277146370964610e-02
-1.553061763955432446e-02
4.179734256527551511e-02
-1.601603825058339574e-04
-9.786645692060223431e-03
3.890968245513942020e-02
-9.424693402411565488e-03
-3.022586284264125456e-02
1.161606675222223023e-02
-3.620677361845547892e-02
-5.139196780276401866e-02
1.082473802587975188e-02
-6.738486718614412029e-03
-2.691748768880498216e-02
-4.360553012875676565e-02
-3.581718651782671292e-02
-3.836899108934956754e-02
-2.673857458617952959e-02
-2.677698360477625758e-02
-1.618482836430754079e-02
-2.696297387882830993e-02
-3.484130433332785493e-02
-1.699501510458062067e-02
-4.320195860535706867e-02
-6.003269426639750578e-02
-3.975981953075549691e-02
-6.424746986709124405e-03
-2.362151670097450973e-02
-4.134397171376416602e-02
2.798386930912150766e-02
4.607545870863723192e-02
2.348439261058229977e-02
5.912182350537562719e-02
4.756949236001265652e-02
1.547087373862775532e-03
2.450526396886383747e-04
-2.466450457396433902e-03
-7.501013991011915710e-03
-1.218730734160328785e-03
-4.137023994248261935e-03
-3.714296388773646266e-03
-8.455429463517103589e-03
-7.061484971002456208e-03
-3.106166999131913103e-03
-6.110172239199540035e-03
-5.179819149544782897e-02
-1.571524005694409018e-02
-3.029812418962847878e-02
-5.229540880818858012e-02
-4.441383854412040560e-02
4.206459145467104921e-02
-1.967834985578725132e-02
1.726257055812458526e-03
-3.646165940586509890e-02
-2.926817626695227964e-02
-2.404511613807124373e-02
-1.633325355617147590e-02
-2.666210063715266851e-02
-2.348851175657669030e-02
2.396890556517190796e-02
-1.502892293264572465e-02
-1.147332680311095518e-02
-2.008581396507164857e-02
1.710437920953210983e-02
5.258746461359503632e-02
-2.021663472841193562e-02
2.964700034636985615e-02
5.767062670674077962e-02
-5.184742300728455849e-02
-2.066579651788535629e-02
-1.202971312049992691e-02
-1.213143860975298034e-02
-1.212863917639756157e-02
-9.281929806088839302e-03
-6.779392712820119307e-03
3.028132334149390842e-02
2.888587165784951144e-02
-1.305883126677436813e-02
2.875798272392874125e-02
2.589273082464216974e-02
3.631201220540949265e-02
2.662681814806973010e-02
4.773309707922615379e-03
-8.176813487017898022e-03
3.131416415357077265e-02
-1.614015566667808751e-02
1.575590122463125728e-02
8.862958567232967835e-03
1.833465158120062277e-02
3.102098121161859026e-02
3.378659339066199252e-02
3.119286245483938666e-02
4.330748747245162511e-02
4.213587717718588616e-02
2.785254090953542816e-02
3.090973311775491866e-02
3.384137562518623604e-02
2.218872224724963843e-02
4.871297238565838739e-02
4.879294244037798295e-02
3.276521935213706077e-02
3.750543599123680460e-02
5.096199636258211263e-02
3.930848064022798155e-02
1.389984504997316545e-02
3.329881089048934706e-02
3.923674179749374324e-02
4.857759564011219361e-02
3.995713922629298004e-02
5.006658974504760162e-02
4.221729296860547015e-02
5.147557131524283652e-02
4.636278507175379399e-02
-7.541684787503744394e-03
1.737702872554249597e-03
2.451759591883467815e-02
8.671718895439283620e-03
9.295947504875876066e-03
-1.873899765697533901e-02
1.364777285592582573e-02
3.118789654043500892e-02
-6.137416092390363944e-04
-1.421648970728494991e-02
6.766192754429013918e-03
4.508604522158682869e-03
1.644881478812346490e-02
2.757647883187276314e-02
-9.491308163464842740e-03
5.986147146349550530e-02
5.439796592219655474e-02
2.184289098380639768e-02
1.728329939216098968e-02
1.669801250077904836e-02
7.400658765622311272e-03
-1.682996394066678739e-02
1.549498823030341470e-02
2.649354557954233108e-02
-4.753305866237232669e-02
-3.278981953204787581e-02
-2.229539665889884031e-02
-4.055390280323166452e-03
-2.074061941011281357e-02
-1.159174835644784241e-02
1.183653522696780439e-02
-1.814748319457815812e-02
-3.634769259068508333e-03
-4.370143585519203205e-02
-4.046144362246513471e-02
-1.533284623979813341e-02
-7.103980142777603299e-03
-1.694664098115902448e-02
-9.390530403470657289e-03
-5.340468250527243173e-03
8.787647154768979743e-03
-1.290683350518067977e-02
1.623189481109598917e-02
3.521597953073663662e-02
1.643618406200797119e-02
3.795017773457013636e-03
3.652312941162740717e-02
2.395993944883072560e-02
4.164219703415775187e-02
-8.728123866749223567e-03
-2.621928323875105486e-03
5.684580489138173903e-02
-2.038058707579374837e-02
-1.438994271126675314e-02
3.385821328933863450e-02
-2.514172937302519301e-03
-1.415713237454554671e-02
-1.091507561281905526e-03
6.654155381783192873e-03
3.207531125010002621e-02
1.686023661932409615e-02
2.675317355324800112e-02
4.594418128507583160e-02
2.864654346997251924e-02
4.892876381013944870e-02
3.930256458936357000e-02
1.485126157462633364e-02
6.731301931135709460e-02
7.513107486467297813e-02
6.039888620369889688e-02
1.501265874877099615e-01
9.700077640546039826e-02
-4.686626960352898580e-02
-2.614516409886433537e-02
2.279360092411745337e-02
5.731796607199091120e-02
2.457724636371599880e-02
3.296566274518696743e-02
1.832121798269639723e-02
2.637465957798057134e-02
8.487544359066370031e-03
-3.052271605837050122e-02
-1.697252972169373611e-02
6.933872865215720896e-03
-2.335626858817446781e-03
7.327211630474739397e-03
-5.101932057466830595e-02
1.008810878202453035e-02
3.836623545902522348e-03
-7.620335738576978005e-03
-8.856243941017229171e-03
-6.111879003827120488e-02
-3.248267758992121057e-02
-5.386645771006269914e-03
3.772293991125851009e-02
2.686523440072756744e-02
2.065538816353157739e-02
-2.179713032521208085e-02
1.189351850506463991e-02
-1.640175126787790563e-03
-3.290328311055914362e-02
4.024044667079892945e-02
3.010519588605215999e-02
2.153068807394580703e-02
1.495237865658538036e-02
6.361762718035467168e-02
1.117433442328279007e-02
1.773868696108636721e-03
4.151546357842379742e-02
-2.522310651969611114e-02
-5.362319503188553438e-02
-5.475274101004716336e-03
1.045369167405242432e-02
-1.965678688506251534e-02
5.895447929391476813e-03
8.409144722090024227e-02
6.192625343057111403e-02
1.182757702624079657e-02
1.116146476865481629e-02
-1.437932181687628097e-01
6.149672549014382344e-02
2.248437502989572567e-02
-2.313768197722721603e-02
5.051999848730927972e-02
4.009280363127332852e-02
1.106000285587413652e-02
1.801213689957355604e-02
3.876640676650923434e-02
4.953640114683825063e-02
3.666742895918986746e-03
-1.055616437844560281e-02
-2.086028014698965496e-02
7.164246830742697358e-02
4.180015623380464035e-02
3.648257537349733348e-02
4.228640861402905432e-02
3.497322990646163643e-02
2.994056008243911604e-02
-4.010895991850552122e-02
1.248600227600826264e-02
3.380568370118580690e-02
-1.625102749774322286e-02
4.795359975307090204e-03
1.392244946754913129e-02
-3.776826759763152880e-02
-3.074438314306359929e-02
-4.175571961951285438e-02
-1.705976412870624515e-02
-5.135428958369169655e-02
-3.291878815473853193e-02
4.077010420550992997e-02
-1.759740426538787539e-02
-3.126207262430716338e-02
1.321077924872624855e-02
6.743229896080386865e-02
1.380465909759145786e-02
8.650490717869259633e-05
3.557938315209389912e-02
4.293792074330632369e-02
-2.837115791699177866e-02
-4.575367927256655115e-02
-2.078538427117267509e-02
-3.174608855009573849e-02
-6.212350208239145188e-02
-3.731554448547914904e-02
-3.621076719144865341e-02
7.386905270633589357e-03
-4.005780419175873630e-02
-6.599229723008555662e-03
2.936131448389885795e-02
-1.024929163257705389e-02
-4.444606901502936788e-03
1.925594191148645787e-02
4.913476746722968136e-03
3.851538181709487224e-02
1.136313173412085015e-01
3.992805473754931084e-02
4.849858489747684714e-02
4.265306040258852460e-02
3.437771688040771462e-02
3.391061767535610838e-02
2.777134941655063499e-02
1.204838449298788888e-02
-1.365098328559465231e-02
-2.904931056671963135e-02
1.213573042012456617e-02
-1.175024776320853989e-02
8.448780856154239002e-03
4.423663002917865156e-03
2.399136120323711995e-03
3.553434794014579193e-03
1.349724039946306915e-02
-1.071015313807706371e-02
-7.666136063620659913e-02
-4.638649058711488693e-02
3.440673619284758886e-03
-8.269352086094991505e-02
-6.208515868528535764e-02
1.871843533812553718e-04
-6.016202235171220353e-02
-5.507398711905363980e-02
5.006222336692389696e-02
7.478770902549923549e-02
6.286280723470961951e-02
8.089992145017074754e-02
3.075652083169748766e-02
-1.241040836123048947e-02
2.596640394791433631e-02
-3.493224839004283044e-02
3.218456425809585603e-02
-5.855995079300208017e-03
6.253513643750254966e-03
2.621988568249796620e-03
-3.775935492698968225e-03
9.867747826232805761e-03
2.172557158258335997e-03
-5.605112467439308382e-03
1.155338712745857671e-03
-9.438425982783615192e-03
-4.812814069054100613e-02
6.974747971250744652e-03
1.193073431577122137e-03
-3.218703079241262699e-02
-3.052091123430554845e-02
-2.362076685942981688e-02
-9.121451755227417968e-03
8.426916833028390633e-03
-1.639991842814845363e-02
9.075717334420817933e-03
-2.291462245740829087e-02
-4.026785932373126708e-02
1.160694621404635002e-02
-1.242407686100437635e-02
-4.195014296838853879e-02
1.726092023884343019e-02
2.178449153039683714e-02
1.478018960345748103e-02
-3.546522063490284730e-04
-2.592324544685942200e-02
-2.224189033368883031e-02
3.142089793601193781e-02
-6.371002180101419630e-03
-1.133651149189706525e-02
-3.346700806628401855e-03
2.043003954388033713e-02
-2.348041228257305435e-02
1.791068629580397364e-02
6.524476574710933764e-03
-3.451162922059839745e-03
6.379064140132671701e-02
3.737658584778799642e-02
1.512923209184179225e-02
6.324959101285061724e-02
3.989429733942585071e-02
1.147956131807087964e-02
-6.091793225204743256e-02
3.611483363024768200e-03
2.779772671001878859e-02
-1.839335586432319647e-02
-5.628788662101918451e-04
1.205116027026326489e-02
5.670436825226583821e-02
1.958902641029866554e-02
-6.765854937659860312e-03
2.823652219005681405e-02
3.409541276616366579e-02
2.789153300723589898e-02
5.055875719809874852e-02
5.646929290815674851e-02
5.993252157014195003e-02
2.884457261979201173e-02
4.569615735250415894e-02
4.739341373788746870e-02
-2.602305039453149324e-02
6.649277361650824184e-03
2.397967977470609469e-02
-8.571173603662343710e-03
2.955732304415757336e-02
4.266747549207774298e-02
-1.922276068798007415e-02
-8.716290834054393061e-03
-1.689802967138833920e-02
8.623529060500127047e-03
2.435156295581251268e-02
1.489858949011667495e-02
4.646308573934061076e-02
4.104078928576693902e-02
2.359137902921455698e-02
2.504405855133809769e-02
3.487573258200212661e-02
-6.085833181373865274e-03
-2.480606236263886710e-03
8.574927025448727744e-03
4.344072912581030746e-03
2.666146746889066013e-02
3.148449747462402082e-02
2.513826261377308940e-02
3.754073029436719167e-02
3.259882893320167202e-02
-7.854487253469252155e-04
-3.986583762805231274e-02
-4.012592733480947749e-02
8.930736592093728096e-03
1.358722444591246165e-02
3.733451437667901357e-02
4.722011094214950688e-02
3.225812352579097986e-02
8.806952251271885079e-02
7.937037964918006172e-02
-2.982658279905050364e-02
2.549665492457301938e-02
7.644267555886961191e-03
-1.498511239422164673e-02
2.365018588691707169e-02
6.466794768629585688e-02
-2.256833468814075858e-02
3.125060177736207079e-03
4.781741391168389810e-02
-7.300125768966493622e-02
2.276353601898672020e-03
-5.367595351848084700e-02
-3.613160411377219772e-02
3.696423395542110940e-02
-1.567313508087556095e-02
-8.800037570918090718e-03
4.859858775284311289e-02
3.763161964665316661e-02
-7.151106539780203997e-03
-1.136664415698110560e-02
-3.746058840228201625e-02
3.437173480350350085e-02
2.128534492769276060e-02
-1.193210641078996416e-02
3.592932100218435010e-02
2.575800032152780750e-02
-9.954830136421162143e-03
3.634421742204797801e-02
3.455763739746671448e-02
4.555164573915463332e-03
6.417935941033113545e-02
8.844955988079183928e-02
4.714807059163442921e-02
5.168377957182172799e-02
5.187279994315451698e-02
1.337830274982793576e-02
1.717881681828184459e-02
-2.921231631287115834e-04
-2.296663220947582629e-02
9.960856084489119397e-03
-1.609261554989233067e-02
-3.071661952082134842e-02
-1.662016141925546156e-02
1.286820083509841338e-03
-5.054093770630355489e-03
-3.723083609270633892e-02
-3.902591542407556763e-02
-5.760068732468381913e-02
3.193324098476808814e-02
6.931014270493499226e-03
-1.486384469833470535e-02
9.141633855427067426e-03
4.807908493016509188e-02
2.755944584621264348e-02
-2.233179112241859623e-02
4.272012673805058135e-03
4.484472725482183120e-02
1.583574696146820837e-02
1.654968873165791471e-02
1.638587185643462785e-02
1.538509261841471132e-02
1.750999535875836718e-02
-2.691612495066243380e-02
5.310909020071884201e-02
-2.246641749122383833e-02
1.887883508426950116e-02
6.881589964085521594e-02
-6.890541513715309208e-02
-7.926969328185022590e-02
5.901317148221705416e-02
6.023980227428838742e-03
-9.323169963906290103e-02
6.763881919324030156e-02
1.171142299968176564e-01
4.162558374994040217e-02
2.415958806810205445e-02
1.262888863956633002e-03
-6.118845174081369298e-02
-8.581926345045001736e-02
-1.742327310904014936e-01
-1.318343901858125278e-01
6.787666890141487441e-02
1.034202814716202352e-02
3.553504228033783907e-02
1.593772129460868485e-03
-6.011036190006761176e-02
-3.233109901876798919e-02
-3.612000752264197395e-02
-6.107419194895848807e-02
-7.035050240315307568e-02
-7.427634491502613234e-02
-9.567047872209488713e-02
-1.867230532858035474e-01
1.118375116541454883e-01
1.324490346211603942e-01
2.144061796385956370e-02
3.822153281173343298e-02
8.219186678460239925e-02
5.284951137102240210e-02
-9.639336871079441649e-02
-1.165229444342290310e-01
-7.778323933164323079e-02
-1.494627676223179435e-01
-1.613740394715869331e-01
-1.275071267880366899e-01
-7.684211840295894491e-02
-6.231030322145657968e-02
-2.997400349733979341e-02
-3.619054863344684653e-02
-9.952388724899120798e-02
-6.770203313579691018e-02
1.335180628302326360e-02
-5.731534926774627808e-02
-5.882363705166335222e-02
1.459895717358158582e-02
-2.172583248517724608e-02
-3.484588035596026395e-02
1.867755973248722348e-02
4.384582849613454826e-03
-1.237895407089874104e-02
-1.591354888869477360e-02
-3.168948716755884409e-02
-5.721174595473947633e-02
7.161545785611692951e-03
-2.784940662277479370e-02
-6.356977873656967370e-02
-9.735239810859408829e-03
1.838087009780338399e-02
-1.641130955214744475e-02
6.284354869755837125e-02
4.041490142961499249e-02
-6.216453848558339129e-02
2.139267320628933378e-02
1.100294462999629186e-01
8.292915872657553866e-02
4.260751826768360145e-02
7.714700807595242793e-02
8.978518388113645998e-02
3.926117448490346745e-02
4.450707522510093106e-02
6.710173427023670423e-02
-7.942434781401143395e-03
5.611001263887643864e-02
1.011334666229902757e-01
-1.380655171653627023e-03
-1.083017005640092394e-02
6.911091951887595938e-03
7.889018946242250599e-03
-1.790284150649805450e-02
3.121562155696766885e-02
-9.455634909410206082e-03
7.018347840814113080e-03
5.249557612001831686e-02
-1.189903206843596628e-01
-3.543203502132558774e-02
5.756850843482579083e-02
3.765369740945270771e-02
6.147324204352264815e-02
6.408497881223301773e-02
5.228349098000434347e-02
4.848557454301458125e-02
-5.855141221154210041e-02
-4.091499207350219464e-02
-1.161673686922759866e-02
9.437500100872570075e-02
-8.150061330138812232e-02
-8.469661186129193511e-03
9.448617581841994850e-02
-2.802722000056639268e-02
1.925631527353647643e-03
5.296469209314846535e-03
-6.695114740384909904e-03
5.148004241449252727e-02
7.649203870842408853e-03
-1.874991746551149877e-02
1.244342268026458998e-04
-5.196827775922245596e-02
-3.864097896111544361e-02
-6.680476513455813059e-02
-7.007498315649442200e-02
1.239465284434966216e-02
-4.500905740069605088e-02
-2.034187995356550802e-02
-1.170043520073007180e-02
-1.074071255454575324e-01
-4.834124892849759464e-02
-1.134053565088148224e-01
6.583053367496965319e-03
-8.720836459980924049e-02
6.837902696691647818e-03
2.474596826741125993e-03
8.638199748971437872e-03
1.176364377343087735e-02
6.981338257608674103e-03
5.397553522962708974e-03
4.971086824099005610e-03
6.842934251582536223e-03
-5.425048795649814719e-04
6.225228729932086313e-02
1.208814952968627066e-01
-1.492472484595155739e-02
5.529403888469546641e-02
-1.578257810556907281e-02
-4.693440309062511112e-02
2.466589297762157920e-02
-5.907374882557256401e-02
-2.664572122456553005e-02
-1.189926485168518733e-02
3.903920344034932793e-02
1.261418597436755364e-02
-3.407830511216518483e-03
9.979894737297838781e-05
1.462442290926654551e-02
-4.850462410648889722e-03
1.188212427195016289e-02
3.126684998136369797e-02
-8.170873280288884488e-02
-8.486382111632922998e-02
-9.244547757097901219e-02
-1.121098009325364186e-01
-9.036424765190902153e-02
-9.702105921082466999e-02
-5.919563649760120616e-02
-5.190222316294409999e-02
-1.419884116263978903e-02
-2.118194932472235170e-02
-1.777236475010657291e-02
-1.277310014464742849e-02
-2.626526425573210213e-02
-2.753086946124855966e-02
-2.971859436067725985e-02
2.644509804177097492e-03
-1.589080754935334738e-02
-3.684868621590114274e-02
6.131627847336456466e-02
3.392851298443697039e-02
4.125452939862452734e-02
8.862286516713420437e-02
2.058330705967852114e-02
1.130462849907316013e-02
-4.859745280381952415e-02
-8.222848920120416627e-02
-5.907701638283094359e-02
-3.812445387353179810e-02
-2.094511451929523954e-02
-3.392757594459869502e-03
-5.336553034969625936e-02
-1.195249488983316823e-02
-9.726015741047429330e-03
-3.840895957388299614e-02
-2.109754861608036103e-02
-1.157860498615856035e-02
-3.865220061728752432e-02
-6.624328495662464011e-02
-8.932236943379549474e-03
-5.131567918303278630e-02
-8.780473004599101405e-02
-6.954148529716970561e-02
-2.011302233743205228e-02
-7.731870653044412012e-02
-5.323119803683556278e-02
-7.930587805520375455e-03
-1.560831822985756998e-02
-6.209782339704080466e-03
-6.419994474012680197e-02
-4.166748204987227172e-02
-6.377405879116861132e-02
-4.712752995471349016e-02
-5.679434169302797347e-02
-2.408316696518883818e-02
-3.055409022564353066e-02
-3.606284809250743378e-02
-1.751748991409680933e-02
-5.066039299401185053e-02
-3.426158366070406608e-02
-3.402464951294452422e-02
-2.409590694809026282e-02
-1.333655159664755632e-02
9.908817177897880774e-03
-1.556037964762152026e-05
7.234932383008538248e-02
4.622245149820385091e-02
1.366737740469466111e-02
4.190058480551372283e-02
6.779243734323080195e-02
-7.744557205880558959e-02
-6.842911161202566706e-02
-8.105946085237143717e-02
4.304168721922366908e-02
-1.947642270963289776e-02
-4.857428724586936725e-02
4.538679990741917997e-02
-5.168917950366861899e-03
-7.722146381164038398e-02
7.427470979393298485e-03
-7.265254347792296508e-02
-3.164344602387209743e-02
5.870493101920018497e-02
-9.750268157812863601e-02
-7.436662293084855824e-02
-9.226418318416071407e-03
-4.506923468979395775e-02
-1.552137838489737465e-01
1.220369003215138193e-02
-3.411153109496921354e-02
-1.011784472201552043e-01
5.899360641258528937e-02
7.053209750189655403e-02
7.856439762570138763e-02
-4.738903924757244777e-03
-3.633070723985782745e-03
3.188219249796640786e-02
-4.057887803145664163e-03
3.132747565342147711e-02
5.248218638456428331e-02
-5.284718622345808969e-02
6.437258291938468581e-03
6.779302265751373235e-02
-6.877658692649427086e-02
-3.103035079192449988e-02
-1.140696076721050417e-02
3.375651918787589412e-02
5.368055831045281251e-02
1.129721648710315662e-01
8.081974243437610450e-02
4.875256645865219673e-02
8.685462534854210964e-03
1.811195711625092353e-02
6.994646102761657887e-03
5.317269882767723839e-03
-6.825980274336795406e-04
6.337826551415120559e-03
1.618617512553757395e-02
7.358060223235743380e-02
-9.179166003752121938e-02
-4.384229513101373099e-02
-2.646830118871177848e-02
-1.596619951940120852e-01
-4.440764160512804953e-02
5.385942015259066046e-02
7.833307229233195650e-04
7.442766208180346191e-03
-6.857895475338406099e-02
2.474396262626745238e-02
-7.612664418512849265e-03
-8.762173609980990902e-03
6.008339985406210837e-02
8.628080255703690638e-02
3.920756184452925397e-02
4.249799468864991214e-02
7.666034609897384722e-02
8.639336490860829998e-02
7.459120396445645396e-02
8.757585026943889850e-02
4.604638956581059983e-02
6.865838668896759311e-02
1.178048660865504277e-01
-4.324675581193126311e-02
-7.073785629230927574e-02
2.615095872488247455e-03
8.803976203739950074e-03
-5.176521443415051799e-02
-6.631479688607158640e-02
5.677789542655285737e-02
1.534489978841875775e-02
1.186382359884186888e-01
2.823765487695978696e-02
1.684668893720120131e-01
1.776869326255687831e-01
7.462659188104647789e-02
7.812056380236491460e-02
1.176956911641673653e-01
8.576215780719519122e-02
4.667587334180414195e-03
2.670330974773523023e-03
8.270914210953476953e-02
-1.165730760933762246e-02
-4.183815900355879885e-02
1.494689579124723333e-01
2.569115744652052946e-01
2.462388263007415645e-01
-1.775088910702778966e-01
-1.355240024580350588e-01
-1.832543889799734538e-01
-9.625353991186055835e-02
-1.756923095817529701e-01
-2.488897734492739600e-01
-7.632670949760932133e-02
-1.408229041699721462e-01
-1.275757892962689488e-01
2.552049777823499344e-02
-2.708567025177199827e-02
3.358747700478105676e-03
6.747436387757008158e-02
6.833225863856833004e-02
7.388920509773302947e-02
5.716282896962134388e-03
1.129306831022146339e-03
3.394328926914895461e-02
1.649031240988775224e-02
7.957523633135493712e-02
8.057447829637538750e-02
-5.060164051189984351e-03
4.261088590707159257e-02
7.761366449169580795e-02
8.441191242578046858e-03
7.885319750016052398e-02
1.056853610064646537e-01
-6.280846694240679352e-03
2.207306095395568379e-02
1.735604949645492417e-02
5.417096078777358659e-02
4.717862498790404563e-03
-8.049390154775046269e-02
-1.030310415570341448e-01
-7.821200095309484290e-02
-1.414613577352836771e-01
-1.005677536597398836e-01
-2.480320937720337932e-02
-1.067915128760208582e-01
-2.469671636340858498e-02
3.711502854590870842e-02
-6.212200190265506489e-02
-6.370477141402819399e-02
3.070549803582154919e-03
-1.142605114587429832e-02
-3.791214754079961450e-03
-7.132968713386545097e-03
-1.730708368741411957e-02
-2.495049926580039309e-03
-2.536801401518385887e-02
-7.547268624425632066e-02
-7.693491856903925119e-02
-2.538480648044350724e-02
-8.470721977025487404e-02
2.221187494927173711e-02
-8.786012992444091479e-03
-6.494175528165653521e-02
1.531443622774650466e-02
-1.141955614745160733e-02
1.672200408604178692e-02
6.627907705010181727e-02
3.031684168498993345e-02
3.596431849113911061e-02
6.514301791675380926e-02
-1.486016074321841463e-02
-9.958705403894904662e-02
3.952507657469316732e-02
-9.309851875041940880e-03
-7.372543342041580627e-02
-1.850614908510131093e-02
1.283789147042555673e-03
-7.274822559149980716e-02
-1.727368994245754782e-02
-1.985064562285898757e-03
-3.189025106985448558e-03
-1.339588910576639327e-03
-4.966859389261907981e-03
9.002071000277014901e-02
2.565678387555497472e-02
4.340062035960210590e-02
2.538820002418194083e-02
-1.902340746684424641e-02
-7.761220404642496518e-02
-6.696830896980303371e-02
1.268669794438733248e-02
-3.682439728165603360e-02
-4.998126991439635902e-02
-1.101912064167187982e-01
-9.332850701631663359e-02
-4.641016789529218978e-02
-4.050094079395999414e-02
2.446603239449143125e-02
-5.626499766885315751e-02
-9.231291337497281313e-02
6.204135345944410823e-02
4.946707899879319859e-02
-5.168717620494181833e-03
4.153591321637036329e-03
6.405208919762987035e-03
6.233262997497099507e-03
1.689442027168488666e-02
1.654175593071441699e-03
2.623060344388910593e-03
1.268826619707271418e-02
-1.191825997033174427e-03
-8.995144772196168870e-02
-9.087019259900835921e-02
-3.377598862498636112e-02
-1.380720147685234322e-01
-1.835177364712117509e-01
-1.490830020577142423e-01
-4.877660968364432026e-02
-1.005804462568210406e-01
-7.957340148102375055e-02
-2.136966537048233181e-02
1.776356577197870171e-02
-4.118412115952984481e-02
2.811389276167604659e-02
7.442821296152036343e-04
2.493111517402375743e-02
6.923757804054339604e-03
3.294086618879309841e-02
5.654587050334156095e-02
-1.671974039587198479e-02
-1.620730998065894948e-02
-3.974773606068580240e-02
-4.179482626469538387e-02
-4.048794548640453211e-02
-6.204227752299729809e-02
1.038036091392446729e-02
1.903817761370703299e-02
-5.209295428505777981e-02
-1.437782771521790544e-03
-3.646847614773158965e-03
3.572003512139538400e-02
5.986188849608537095e-03
3.126172322167459355e-03
1.730844588454856156e-02
-3.126963086897744520e-02
-7.643501611889500467e-03
2.951627072854976462e-03
-3.211310705211992134e-02
2.737407632850292344e-02
-2.120094411137446455e-03
-4.329956285756988987e-02
4.477946125941992261e-02
7.007173923821294337e-02
-1.803150702743256187e-02
-4.467030226916708820e-03
5.891793898901900861e-02
3.292133074177931024e-02
1.652745551615783515e-02
2.044761112445194276e-02
-1.344965738992873455e-03
7.137464229465702130e-03
6.299767957634209298e-03
-2.314904533492635058e-02
3.300344494097118275e-02
3.920786255115611685e-02
6.809487520889057066e-02
8.584389494597167991e-02
1.366879056443104368e-01
1.818634874575734972e-02
4.118328737804794609e-02
1.053537602693323111e-01
-1.273710720442673726e-04
-2.276313462120391554e-02
7.782321183451131920e-03
3.718677623903264562e-02
6.831657611171453037e-02
6.171036079861542262e-02
8.697899549615099868e-02
9.357683581946059370e-02
7.850344210063407713e-02
3.234604010675417446e-02
5.361217583966400996e-02
4.458562299700861292e-02
1.123776682406023991e-02
2.892720676694307026e-03
-3.218471666678188875e-02
8.686897351551085833e-03
4.099441197420245625e-02
-1.240478261751104235e-03
-2.448819531531522872e-03
3.206206050687142317e-02
1.763106621094276405e-02
-5.220955623548183960e-02
-2.367485342882030136e-02
-6.803389763580033889e-02
-5.043387518060560987e-02
-5.628480661743585911e-02
-8.706951654939285024e-02
6.495683504291674404e-02
4.968437997831935682e-02
-7.249285744215037096e-03
-7.961413197195002511e-02
-5.483137413924852460e-02
3.189033604121569582e-02
1.214701562042038059e-02
2.001156199690396972e-02
-8.322252579720640017e-03
1.305536796891972398e-02
8.880205605096841426e-02
-1.237688492641190671e-03
2.924510852743493483e-02
6.106623539494292902e-02
-2.032369446750499631e-02
5.725628950089015068e-02
1.791904344783506464e-01
7.449138916858195902e-02
1.615735903489908531e-01
2.424737983925098206e-01
1.536977913744631830e-01
-1.850860794386640154e-02
-6.706104724450152703e-03
-5.745516497180835208e-02
-2.141390889612374698e-02
3.727090319734324003e-02
3.147493495444239620e-02
-9.087079005389187003e-03
2.115834159514647095e-02
4.772406412159315575e-02
-6.305681698839106508e-02
-6.454881053243871104e-03
4.039568517561285821e-02
-6.516271799577995523e-03
1.341282071163003020e-01
3.631178630230042642e-02
-2.925768694424944749e-02
-4.566207206511090771e-02
3.088957786846860485e-03
6.454518331745694171e-02
7.757729143838672237e-02
1.850477361119167927e-02
3.182269883769043434e-02
9.387541190598665264e-02
4.461801036240581331e-02
3.426980765673878770e-02
5.618218776664135605e-02
5.816763390344619616e-02
-7.307122828901946310e-02
-4.634808038379611278e-02
-8.437725207647081560e-02
3.190901911926232598e-02
1.038625925407014317e-01
-5.533879655486008409e-02
2.490368535648229686e-02
3.253981995135465932e-02
-9.093382818249150235e-02
-2.258253595901154112e-02
-4.131741201636707217e-02
-7.881776444253485447e-02
-7.823820930731885392e-02
-2.862556108999320115e-02
-1.932841561987860002e-01
-9.849187144105440994e-02
-7.874627166349455754e-02
-9.321854876419737035e-02
-1.707524839142390101e-03
-8.062827843247289544e-03
-7.400906602480101897e-03
-1.702942006472411623e-03
-6.867885335107608985e-03
-1.160665240680399703e-02
2.276023606353520193e-03
7.449962245806917432e-03
-1.857196168978392887e-03
9.563044577885730299e-03
1.521460885430178309e-02
3.789473953897589623e-03
5.086030323777416401e-03
7.929285507292865159e-03
-3.102048838102840645e-03
8.059462735917037471e-04
3.170024867365845399e-03
-1.233903905965607305e-02
1.450633772749331668e-02
1.797722095226661054e-03
1.405209560346340220e-03
4.182671459281505841e-03
-4.705645631409367986e-03
-1.191253215885402193e-02
4.733969156350598031e-04
-4.719950567032549921e-03
-4.631412504783249603e-03
8.265328505470110818e-03
5.164073686294588794e-03
4.804325627660751522e-04
