-4.750345079468577987e-03
-1.812611831714285168e-04
-3.198887027790081952e-03
5.541490851225384495e-04
2.968271845113936921e-03
1.463381034942302450e-03
8.719871002547027175e-04
2.700560956820651642e-03
3.005291771282385827e-03
1.265968555254983830e-03
-6.509500027041045279e-03
-1.222321674661356683e-03
6.737987972336048452e-03
4.646688994737503686e-03
1.967284972980183210e-04
8.210097446563232107e-03
1.156187534127785937e-02
2.589324845367387256e-03
3.635256112968320800e-03
-1.080111254836998861e-03
1.662678132863767847e-03
5.354182790735544616e-03
-2.162833319866737120e-03
1.654772087963963471e-03
4.916787143849886584e-03
1.007675761685267136e-03
6.815115004465952843e-03
1.196046608124483324e-02
8.902493436521177750e-03
6.978385782193618180e-03
1.231835534622283644e-02
1.000641700908667768e-02
9.214935018072623746e-03
5.251974426570965582e-03
2.852348649847891420e-03
2.793864194837423175e-03
-2.369852988984347091e-03
-3.430691989447751415e-04
1.157234414720348381e-03
2.607813781736452539e-03
4.321544779006403735e-03
-6.157338772368845144e-04
3.230211628744607678e-04
-5.615351664205483047e-05
-1.985869154123359823e-03
-6.848777109953209201e-03
-5.288774300878790191e-04
2.365687201159271096e-03
1.049839113841038703e-03
-2.855637977565842357e-03
-1.704708038243133849e-04
1.773789124952570705e-04
-3.874508070942371367e-03
-5.720350127741959285e-03
-1.775495536571112230e-04
-2.667818822167928108e-03
-2.650436390660945805e-03
1.668984273743796820e-03
7.043100806820722266e-04
-8.663263546188778273e-04
2.447134702791113614e-03
-3.337587568391147340e-04
8.802077547777583440e-04
6.183474354755653241e-03
5.696473147659710488e-03
5.825235963031890132e-03
2.455645109612767003e-03
6.870382372057084325e-03
7.392732818300175833e-03
-6.194714070842011547e-03
-6.080359759986248870e-03
-5.149324501388046794e-03
2.191365947781678033e-03
1.453741493516607936e-03
1.284239937987007463e-03
-1.091053515768710975e-03
-4.330368712887756009e-03
-5.220148931787998298e-03
-5.586425566076178885e-03
-8.398463088369983315e-03
1.109359020071175924e-03
-2.952999371608311385e-03
-3.087893244024393549e-03
-4.820155855649623650e-03
-4.475696624284596602e-03
-5.847468695625759882e-03
-6.082358130667553549e-03
-9.136802034579864437e-03
-6.136142178006129613e-03
-2.233981270220719833e-03
1.894296144123290516e-03
2.268709700807428845e-03
3.635223427876440368e-03
-4.601388290131762024e-03
-3.773689551831277064e-03
3.579182235530393996e-03
-2.486089919495389905e-04
-6.668002320504175413e-03
-7.741087196602092040e-03
-2.338178844913464498e-03
-1.950734137648476359e-03
-5.473642013298388349e-03
3.359649380854863089e-04
1.881059306467419180e-03
9.954865749075636830e-04
-1.881421965257588577e-05
-3.193480871955920613e-04
4.575838541175226526e-04
-4.183722363994853317e-03
-3.180648746520536255e-03
-5.488303462952609339e-03
-1.501139873191088088e-03
-1.887612563296891871e-03
-2.488892093614606445e-03
2.355851694911999857e-03
-1.069701719265885942e-03
3.651112338051233685e-04
4.090495113612072423e-03
2.707959445962458168e-03
2.141091696392274923e-03
1.644774405369079989e-03
4.879435578500761726e-03
2.828930093793170179e-03
-3.670938032222638512e-03
3.882084350329187156e-03
5.454993398805292604e-03
3.034974831157415207e-03
7.282853658623214717e-03
5.452492676998456182e-03
-4.016194613281321400e-03
-1.676023851430809113e-03
-2.658788368470361031e-03
-5.160745755054788227e-03
-2.361387550187192628e-03
-7.390552077297293451e-03
-6.667630917931464257e-03
-3.988156425450566783e-03
-4.184621724484823935e-04
-5.408320128525852602e-03
-2.247493537026644655e-03
6.092107031830605026e-04
1.345870697415285340e-03
2.908686298059149581e-03
2.319654517043636191e-03
-2.549145290922018303e-03
-2.883372839416530574e-03
-2.069622099751949017e-03
6.391290332640425613e-04
2.797964404293438903e-04
-3.196216426779583449e-03
2.073889273817445048e-03
2.120692243537916372e-03
2.794807690610699009e-04
4.337423071730968360e-03
7.481770755919137615e-03
1.589189347012276573e-04
-2.449403714360603827e-03
2.096166558065216436e-03
4.624344674823581414e-03
-2.762602674028374634e-03
2.418845859860838977e-03
3.466888959130816870e-03
5.475287718083855955e-03
5.585076108970625508e-03
5.693127818096435297e-03
4.676468860776383796e-03
5.327406830370228115e-03
5.894110946295708607e-03
2.228089834455510704e-03
2.745241061051252856e-03
3.112498039910562703e-03
1.301331659543018696e-03
2.666484562589172078e-03
1.687392850587600803e-03
3.746812205225540093e-03
4.298754942553468551e-03
4.258398638789584641e-03
-2.759385586609039605e-03
-3.262781177784787948e-03
-3.197638332369052028e-03
-3.121656735752070485e-04
-2.096801523225960522e-03
-2.809755603235800439e-03
3.741559273771151786e-03
2.942967338439158101e-03
2.753100576536819232e-03
1.887656074024300070e-03
-7.691114397525070350e-05
2.271807602143312895e-03
-6.878746632799117829e-04
9.403861094703218912e-04
3.434462849761374219e-03
5.250523166854394012e-04
-2.649532450094404796e-04
2.985104042876707969e-03
1.789948467830251725e-03
2.058011189278178849e-03
-3.669193439420333300e-03
-3.872622744878209938e-03
-3.839033296060165908e-03
-6.263489541533097567e-03
-5.964999497767629541e-03
-4.231792973998526643e-03
-6.801070199666196976e-03
-1.074025311547304254e-02
-5.092159524800134521e-03
-2.721612029659642353e-03
1.117736812857618098e-02
1.157139898594782002e-02
9.030180974826064119e-03
9.664275921021611357e-03
1.012757897920680758e-02
9.751015701129277929e-03
-2.792939643926320610e-03
2.113415750981092415e-03
6.630385943455223592e-03
3.206077435725933084e-03
-2.858962696784556317e-03
-7.901553093801661279e-03
6.225100172470427601e-03
8.305195241853975674e-03
2.257470817462264683e-03
6.029937488849538944e-03
1.585064155320428311e-02
1.772181309891448370e-02
3.962017303913681517e-03
3.657443461167095202e-03
5.365936308138859016e-03
6.845068913414465968e-04
1.172593493310193895e-03
9.330742254127346929e-04
2.130890824945953430e-03
3.665918684673283995e-03
5.145322555392971980e-03
3.945558174206009912e-03
8.511291609172274078e-03
-1.323693883392620474e-03
2.153062351062033902e-03
2.832813582353338293e-03
6.722211898593097789e-04
-3.472953813249762649e-03
-1.926405603653554835e-03
-2.393977917757233260e-04
-5.624276984327253922e-04
-1.650240934939836571e-03
-4.762744595853461802e-04
1.504324192244422881e-03
-3.243135355711377011e-05
2.982795892471080002e-03
3.734812404613976986e-03
3.268683439185523978e-04
-5.089646728245977815e-04
1.159999177941405633e-03
-1.725394994994865466e-03
-7.800835752745687501e-04
1.190025681103542860e-03
1.285367261378950752e-03
1.064297999199718047e-03
-5.849234106957926053e-03
-4.255535674563174810e-03
-5.514670547391466518e-03
6.689672328235916551e-03
7.215805709539949847e-03
7.726715124512932402e-03
4.770396238318371646e-03
5.377778928849974958e-03
6.294604708077226711e-03
1.592344457668217221e-03
1.981342581175802448e-03
2.322773341002030631e-03
7.433425965877202453e-03
3.480546955645764939e-03
-2.270165124229972867e-03
3.209798227475242020e-03
-1.868118924676760934e-04
-2.971696493275981059e-03
-3.901669798666001793e-03
-5.432468790422779505e-03
-4.384227290563231768e-04
4.291856722684208626e-03
4.585667385492942991e-03
3.927816623058934947e-03
4.070229107534118623e-03
4.514695976272176808e-03
3.067658673926529182e-03
-2.916994765141156417e-05
1.136066341743541914e-03
-4.742024537639252628e-04
6.746859029925627096e-03
-5.977215997842080797e-03
-1.745331198701611727e-02
1.601622879828002582e-02
1.010074591611083948e-02
-2.217956688059295051e-02
9.906994020587056929e-03
1.005236295005483213e-02
-1.197428233562070413e-02
-9.420650395500662633e-03
-3.594452222842078274e-03
7.254432903265435433e-03
-6.468062581695022129e-03
-8.103717919677098230e-03
7.361442884400005646e-03
-1.335110958065667888e-02
-2.209637952512031244e-04
9.788176801901532151e-03
-2.909634662624782219e-03
-1.855909045181251956e-03
-1.301180595068318104e-02
2.641658716908305143e-03
3.465413449334549148e-04
-3.338495150253567318e-03
1.693244610047915828e-03
7.113732312461215970e-03
-1.893266367950504703e-03
9.006926920743766121e-03
-3.516528827117996374e-04
-1.013110120611434911e-03
6.333547103992887353e-03
-4.410951149902003765e-03
1.067883134609332301e-03
4.203570461812262266e-03
-1.139264012898356286e-03
-4.895681687353142537e-04
8.691113255719837977e-03
9.742632382181195747e-03
-1.380115833792517135e-03
3.651925538888178314e-03
4.222923236369021532e-03
-4.291236380932540208e-03
-9.843905708535924393e-03
-1.398522584647249149e-03
2.882509824958082861e-03
-8.155203976540041297e-03
-2.699311986558810151e-03
2.660598200132414243e-03
-5.340110537910851621e-03
-9.922871441158755135e-03
8.854971942810572344e-03
-3.411377944135970518e-03
-1.319525645281399186e-02
-9.571215168475886992e-03
1.047027018770426733e-02
-1.957603266542056256e-03
-4.598200320548320730e-03
-3.707962711116030187e-03
-1.993826216282136490e-03
1.876198655667982509e-03
-4.910576174724728439e-03
-1.398030405202808782e-03
5.346389904881440613e-03
6.944806252261949593e-03
2.983405343789480128e-03
-2.148569841444145610e-03
1.769930032692402242e-03
3.329000696702880211e-03
1.265325235415403838e-03
-9.361550843800676633e-03
-1.701560494217644638e-03
4.667266228780967904e-03
7.011513120814322556e-03
4.841469555157282278e-03
4.806394760104458399e-04
-6.667866367626079475e-03
5.583515212952704782e-03
1.634588447554555452e-03
-3.671754493493212170e-03
2.768927260196451211e-03
-3.104545643116369408e-03
-4.197737810655423861e-03
1.921665929785022330e-03
5.062791578472746780e-03
-6.975881515092941139e-03
-4.198439883168381299e-03
-1.016285240383089754e-03
5.884887442813318452e-04
1.270164498321168893e-03
-2.260108918972663847e-03
7.512086387077157069e-03
1.031079501834335568e-02
1.476805729170277198e-03
-1.096687164347130011e-02
4.335021659123905946e-04
2.017768441390659431e-02
-3.523817106506236608e-04
-1.403048512843937294e-03
-1.607654969002398834e-02
-6.834181674872714073e-03
-9.370775683764482559e-04
2.682398090253291828e-04
-5.116570459693213155e-03
4.210400778286477359e-03
2.071972969913093900e-03
-3.608279978196006661e-03
5.389361748426136668e-03
1.438853577365339226e-02
1.272657235925840884e-03
5.660124915682663259e-03
4.735932785748910370e-03
-9.684840979130127786e-03
7.535654764908924531e-03
2.965902796432934654e-03
-3.769198578228867211e-03
8.226099518690707310e-03
-4.917249190204951454e-04
-5.897622962161641093e-03
-1.456627956046847167e-02
-5.751454696525008271e-03
1.103100070832255253e-02
-1.139699877636488751e-03
-7.733945419828299611e-03
1.448175205755458314e-02
1.019821788098238674e-02
5.441586312070535204e-03
-1.250184420706803093e-02
-3.145134368681611666e-03
7.836974719514737744e-03
-1.422860834413352182e-03
2.641627826985014122e-04
8.394647454546915605e-03
4.323863743601519607e-03
-9.071763760863046661e-04
-2.246122912165566740e-03
3.368174188551795092e-03
2.480107586292358036e-03
3.865295070259709004e-03
5.467985632564547477e-03
-2.046657172882220162e-04
-4.058245728696274583e-03
3.951845942354103441e-03
-1.245795200221911595e-03
-3.487556930448343969e-03
-5.715832120165818819e-04
4.839073289159196746e-03
5.168484540006068606e-03
-3.809704297025881450e-03
-2.633101891336904780e-04
8.268175237640231282e-03
-3.700400541074607818e-03
3.182282590431661931e-04
2.335830417600600912e-03
-1.129059613864518211e-03
-4.213972920697849414e-03
-2.036410430891993917e-02
-3.586810214229687547e-03
1.171231440077944233e-02
-7.856015268231460527e-03
-2.551531108516510559e-03
7.731387258950194775e-03
4.085257620130631866e-03
1.246468600549660924e-03
3.116529190844878681e-04
4.176380042462268121e-04
2.274625598820918370e-03
2.403878859282992768e-03
2.072289631229294691e-03
2.957595149576083219e-03
3.455868463037554874e-03
3.361131286041391369e-03
5.600949168838557533e-04
4.957405298434254754e-04
1.717108105454511618e-03
7.800591617403131661e-05
5.664237235726973449e-04
1.833441299077830967e-03
-1.587974286029163271e-03
7.480368772251569810e-04
2.485559736958194588e-03
1.487137854076677618e-02
2.155151771253126149e-03
2.740371506236983883e-03
8.362605574731701852e-03
-4.811118225400346470e-03
-6.103849475989331884e-03
1.113230603346961360e-03
4.226574742121772324e-03
2.652132143412530736e-03
1.837298262422934741e-03
9.136634183873290974e-03
4.462709038089908431e-03
-5.980077672017755121e-03
2.080091158573758783e-03
2.534849282660334158e-02
-6.663038510230452106e-03
-5.095245957571294809e-03
1.960719346957759054e-02
-2.873993235491892513e-03
-5.561530141701943007e-03
-1.440968507446679665e-03
6.979350057453889353e-03
-3.857036530460397714e-03
-8.687984185695366360e-03
1.298891176522848009e-02
4.498730015254623349e-03
-4.849860842421814706e-03
8.773641942981988059e-03
-7.320877445084627731e-04
-6.236803507671560137e-03
7.687867475689270230e-03
-3.216100403221327803e-03
-7.966207069874891786e-03
5.172443202483237301e-03
5.993739097015498597e-03
2.441652641582156644e-03
-3.104564493890070095e-03
-7.598954870946930673e-03
-2.965419963170413172e-03
2.147853828863240978e-03
4.609755528007191891e-03
-8.702863148900376322e-03
-1.712452597989863514e-03
7.375122843351724841e-03
9.110738923563446376e-03
-2.576109666044833039e-03
2.100328018576099690e-03
-6.513270855686004298e-04
-5.889035563486674785e-03
1.028483322589103608e-03
7.516108096679813104e-03
9.123300350472296136e-03
8.323822087965572145e-03
1.585509428560385233e-03
-7.938155059279864562e-03
4.926869738006612806e-03
8.902075115583144363e-03
-6.125362961077848029e-03
2.457972659311167835e-03
1.746288311094051221e-02
-5.326722686746563143e-03
-9.279484554928718598e-03
1.661694830472211504e-02
-1.061883804594611000e-03
-5.109346336299501121e-03
1.479539170561825932e-03
6.244303422636810624e-03
-6.514455603051622253e-03
-9.307365482871669468e-03
1.052654925179296978e-02
-7.602208134304019350e-03
-1.230862282617554287e-02
-7.132869491194388130e-03
-4.746684379972619487e-03
-5.183576722886718002e-03
8.494182391064730698e-05
-3.990149605645109711e-03
-2.119977653216180685e-03
-3.066681567195277212e-03
-6.253313934055935823e-03
-3.719889072883985400e-03
2.332629904727901663e-03
2.052837850508140542e-03
6.680440784143698487e-04
4.518173400253036771e-03
6.189996878162584010e-03
4.604781616717849163e-03
3.408156521161351347e-03
4.515968493369494109e-03
4.668028180222151720e-03
-4.217950592358583016e-03
1.722832721084762851e-04
-9.505684493156528123e-03
-8.083977357775636377e-03
7.612273972230663294e-03
-6.310069019783049078e-03
-1.034490383005140859e-02
6.625411098644730726e-03
1.534482918710099305e-03
1.316228502392250560e-02
1.534224869043220247e-03
4.575138537458530233e-03
1.838772963201844995e-02
2.751369903027297073e-03
-5.797506344626773313e-03
1.513342583894941584e-02
5.430171772570036720e-03
9.476796395304418327e-04
-3.717042618403477994e-03
-4.094368809403434173e-03
-3.666459187753273383e-03
-8.867363336351254425e-04
-1.140587592546125212e-03
-1.413707814361187800e-03
3.809808365275751518e-03
5.979755136539057631e-03
5.493068380309045796e-03
-3.424628768652099200e-04
-3.820824203945195376e-03
-2.765329653686077454e-03
5.383402140147192268e-03
-2.511825551806574040e-03
-1.691834905825032086e-03
5.527413283608812768e-03
3.150337287551441875e-03
1.352967204720505580e-03
4.372143401943770144e-03
2.594749522139571957e-03
-3.071329220835021089e-03
-1.334795538979920322e-03
1.135079178591772396e-02
1.688762740861894304e-03
-8.116170983541587391e-03
2.871930241376598365e-03
-4.652516561150808749e-03
-6.191266856134697598e-04
1.140068736553477872e-03
2.636675460519705919e-03
-1.858866866963095925e-05
1.750308096641792557e-03
6.002951148488709469e-03
-6.147578752883443636e-04
-2.078138937742568266e-03
7.849452623607206057e-04
4.063086920603637200e-03
3.471980354635042631e-03
5.848854710756280989e-04
5.018765580647109072e-03
-1.565207004412596256e-03
2.610388075877922379e-03
1.401313965400499293e-03
3.271733102509899200e-03
6.505878740294103457e-03
2.770665610262511812e-03
6.408889601268143643e-04
-1.596632497778518447e-03
1.314651330151940002e-02
4.152572514958046031e-03
-4.734288067744180616e-03
-5.826398814647426767e-03
-8.721531333155667365e-03
-4.208016078099912141e-03
3.348963011653806332e-03
5.591844744934084364e-03
2.523476317208679220e-03
4.498747066994299854e-03
3.883640897049307934e-03
5.624635058734430738e-03
7.104782325248490925e-03
4.282380490849725142e-03
1.447021765477279377e-03
-1.162563542739949909e-03
-5.052133939922582142e-04
-4.018136053435101239e-03
-3.914978183247748412e-04
7.738440358556896055e-04
6.548697961727356631e-03
7.036574772788930371e-03
7.970886029657599237e-03
7.662650616904496254e-03
3.870365306160218231e-04
-6.496804118802107378e-04
3.019640315310109704e-03
1.328071349973206344e-03
-9.223736120807337832e-03
-1.824152664159697399e-03
-4.531293863063111903e-03
-4.002921058973875693e-03
-3.864221470853573728e-03
4.964789059330020765e-03
2.881378300689803329e-03
-2.073727919875620156e-03
8.089110508416954854e-04
-7.543144578681890708e-04
1.380662441704588869e-03
-1.777441693035169447e-03
1.004364498967659719e-03
5.983574919074060748e-04
-1.161037311432693356e-02
-3.870157401042097038e-03
-2.785867579740127897e-03
-5.616885028613560586e-03
1.137059140973628937e-02
3.854757089092553969e-03
3.007125779159520573e-03
7.241029259493157386e-03
4.405110624698711438e-03
1.799615820827710991e-03
-1.407147839071879770e-03
-4.107041294089439944e-03
5.984858292142623045e-04
-4.893234250956025704e-03
-8.374187335439131283e-03
-5.850113682589727681e-04
-4.838171874676250317e-03
-6.929566618522679106e-03
8.125330020117229116e-03
3.345833882996527772e-03
-2.167017139190427228e-03
-2.949050839582111343e-04
-7.162433046055933540e-03
-2.221054333848886553e-03
-4.273696618866015297e-03
-5.114731681403486552e-03
-5.402078317911133444e-03
-4.612361361048727959e-03
-4.885554786569140185e-04
2.738537262401307044e-04
-3.588391228081680949e-03
-7.041665892648147794e-04
1.469598843395664633e-03
-4.364925417672365845e-03
-3.455611907194928913e-03
2.927913764282023823e-03
-3.011413801611624412e-03
-5.678127017686603745e-03
-3.409096887880779772e-04
5.927504837733256135e-03
-2.394052495896875025e-03
-2.520894897355842063e-03
-3.073219162444082355e-03
-3.295337175654913103e-03
-6.649273917442240049e-03
2.268596843009295077e-03
2.620345428537580474e-03
-2.777882935041075239e-04
2.155704034122907665e-04
6.513367281503523558e-03
5.440779666045256896e-03
4.188637540460318364e-04
4.687380320443222843e-03
6.200241069841652859e-03
2.348231263051444825e-04
2.231786590596705581e-03
8.452797892845646767e-04
-8.993141151491656094e-05
-5.424506680193876213e-04
1.311189157609963206e-03
4.762906924452067325e-04
-3.027585390438703242e-03
-4.504549120136102508e-03
-1.347863307187493901e-03
5.469276351704351318e-04
4.172027224020772663e-04
2.266039412208548619e-03
2.920144443995553816e-03
4.183976409933425587e-03
3.829263239211688936e-03
-3.072870455604410000e-04
-7.786186486131959673e-05
-4.647216546934208664e-04
5.640886281322058868e-04
1.380737788761671799e-03
2.318491103640667444e-03
3.414975936811767698e-03
4.551675819060268212e-03
1.959880824848322673e-03
2.039926603550038138e-03
2.165937549409729674e-03
-1.675076862989104826e-03
4.301649222931294247e-04
-1.765433152766828113e-03
3.626869008142709176e-04
1.343742218860764347e-03
5.466877941114887441e-05
2.610930508739635076e-03
2.371746304662925627e-03
1.021812437264544649e-03
-2.464750787943636263e-04
2.019935726807587685e-03
-2.811660674497591574e-03
-2.857668873563441476e-03
-3.190667912749225923e-03
-1.341724830260182088e-03
8.618090210793110523e-03
1.916118034032826328e-03
3.957121424518987747e-03
7.586155547658660851e-04
5.263026890360165445e-03
1.159473093337795753e-02
2.091090882519943545e-02
7.489927133624779167e-03
3.767908476862836479e-03
8.394669534348118273e-03
-3.554004941606143247e-03
-3.142521637892892270e-03
-2.500581363740937962e-03
-3.128001913759278357e-03
2.695955128644389833e-04
-6.373722145522455265e-03
-7.246363567337489077e-03
-2.166454591797064427e-03
-9.211173276806147031e-03
-1.000862163311666553e-02
-6.861316858521296705e-03
-2.127400250119802685e-03
-1.047100113195996007e-03
-1.445867653005550226e-03
-1.707577989178678691e-03
2.033129210837974089e-03
5.578801625271442681e-03
-2.673527590727698723e-03
1.894681384109719565e-03
8.525762367167254163e-03
-6.218648174526471631e-03
-3.441428689283429227e-03
1.495469758308364807e-03
-5.206654431551766340e-03
-3.513137818982215322e-03
4.900679925130780809e-03
2.118169823444123259e-03
-2.851789494886033168e-03
2.024540635569786924e-03
-3.399081170104693329e-04
2.084395546325022285e-03
4.300629317252707001e-03
-1.549194518233406107e-03
-3.302408752515618019e-04
8.547561408406481988e-04
-4.335437349400056775e-03
7.534849807474362912e-04
1.594485024215051274e-03
-8.163321094461609834e-03
1.378161644851562265e-03
3.640142290806855016e-03
1.865003381899205896e-03
3.660603715691350922e-03
7.570394163378676294e-03
-2.190957553684344788e-03
-1.777558917887655252e-03
3.113856286939715393e-03
-6.809885484950791226e-03
-4.186359157567915053e-03
-2.781277509566850922e-03
-3.040338333251309862e-03
-3.454039841135223758e-04
-1.710150588314767904e-03
-1.278857636491770528e-03
1.991194204431276545e-03
2.042037310387620572e-03
-5.374347798060057947e-03
-4.826872948704812039e-03
-1.343591359873388567e-03
-3.945909221856139411e-03
2.212075173945623997e-04
9.364809883155196524e-04
-2.835716665111892923e-03
3.573632932412839844e-03
4.490711476473280631e-03
-2.844203678482568097e-04
8.016322778176733651e-05
4.747409996801319940e-04
5.218162911373428262e-03
6.707277137173192280e-03
6.546734321793313584e-03
5.471468176161373848e-03
6.145997453923964654e-03
5.381430256552638056e-03
-4.229894753099690784e-03
-1.721724934983923832e-03
-6.823702684335542293e-03
-2.246324285910236088e-03
-1.888786672223758149e-03
-1.838069364526832882e-03
-1.412494017787349447e-02
-6.786730361557279274e-03
-6.389169281463708341e-03
-1.990649463344620635e-03
1.346798803305534033e-03
-1.542319140492895261e-05
5.123809270613266824e-04
2.570045579809000259e-03
9.142568379909891962e-03
-2.075687108232985179e-03
8.391474291533532019e-04
8.850546763525691391e-03
3.346157172315237811e-03
1.593379981247756679e-03
-2.063885675862351873e-03
6.152197969026032900e-03
6.090797168540986947e-03
4.272203973247279234e-03
3.631006677058962054e-04
3.375955756486621970e-03
3.293605861310419268e-04
-7.074757194097649506e-03
-3.233307812889690824e-03
-3.405672347698414978e-03
-3.911855990218272611e-04
2.532455633833801279e-03
-1.038557327114187365e-03
9.154324396177065254e-03
9.635178816213793920e-03
4.510124967295596823e-03
-5.499591938174614239e-03
-1.234731467357038032e-03
-7.041141784415119341e-04
-3.417115157357710278e-03
-7.815390440428593519e-04
-4.942193363406910574e-03
1.412024183677765710e-03
3.651735562087215885e-03
-1.430232285675101227e-03
2.662891524732364894e-03
3.513540155649170094e-03
3.646338721596313788e-03
3.247592903168991952e-03
2.362448236886775452e-03
3.102608905614256951e-03
2.374216036822267631e-03
1.210206925909022759e-03
-1.281418769673138092e-04
2.374284080330291841e-03
2.946640194130306818e-04
-7.499067565450565000e-05
3.745140237903558066e-03
4.924369797741620647e-03
4.049584995145918097e-03
4.350804128061091895e-03
5.494204894245117120e-03
2.810048016263173853e-03
9.977970296360179521e-04
2.419475085672909229e-03
3.381077867320712773e-03
1.886723594558281820e-03
-2.364968721761477686e-03
3.271158744599097796e-03
4.264774133295970329e-04
-6.347893440759853380e-04
3.179508292180552808e-04
6.505697303757560293e-03
4.212042011842599860e-03
3.796656307930266604e-03
5.311231322340213574e-04
3.895490408452620618e-04
-3.358389457042594128e-03
-4.234631817600482094e-03
-3.339237818400655079e-03
-3.402597079291933956e-03
6.200009022122856747e-03
6.141124660106713623e-03
6.758475848021232128e-03
7.761600503312133734e-03
9.968872272376461813e-03
5.428530663299929726e-03
-3.557770139614762489e-03
-4.298476860156247303e-03
-8.464895646626384440e-03
3.987639846596676731e-03
3.396020605026551890e-03
1.640263704620041011e-03
1.760438677102288321e-03
-8.159053388602632156e-04
9.810950424704435822e-04
-4.363061117160690547e-03
-5.279263438723647874e-03
-4.750861194935692799e-04
-2.268930048739363839e-03
-3.258210033076767986e-03
-1.509625961962774961e-03
-3.323158466603030187e-03
-1.795590443175701986e-03
2.946167616526845388e-04
-4.183372800826310085e-03
-3.269957920436359494e-03
-1.247925902195669290e-03
3.937802396069960478e-03
6.330883841566139515e-03
8.846729405536598451e-03
5.389292027370535046e-03
1.197514628733050649e-03
6.998249244050130805e-04
-3.977794515352688250e-04
-1.140662414302409813e-04
-5.912290402699622513e-03
-1.513272391196079838e-03
6.971841547937471272e-05
-3.347559784346060274e-03
-3.743127896409593862e-03
-3.227624316493309543e-03
-4.335189686992785285e-03
-2.831931404756215728e-03
-2.355230513786772933e-03
-9.573592732936944986e-04
-1.399002061835511205e-03
-3.578513932453851725e-03
-4.819973167059371510e-03
-3.586953457136124457e-03
-3.414769732775952988e-03
-2.475415155049190408e-03
-8.608054289228768939e-04
-2.947260359061031933e-03
-3.398641398171299306e-03
1.958598622935816842e-03
2.840105357436904180e-03
5.486909863497500817e-03
1.020505246005673624e-03
3.392878038502588484e-03
5.892008751996410248e-03
-5.100481730256746157e-03
-3.652909445706089414e-03
-1.676021494500759329e-03
3.701339172952553425e-03
7.253199430414971997e-03
5.853882025786560743e-03
-3.756843721283734290e-03
-1.053898316338040342e-03
2.040162663512302705e-03
-4.328385336190357369e-03
-1.089448972835646481e-03
3.379662051228864324e-03
-2.701010584068070600e-03
-1.786478789193508918e-03
-6.472938880229299951e-04
-1.965230469070014703e-03
-3.531338803973493434e-03
-2.606139405603043278e-03
3.333050012060607449e-03
8.263127584633397135e-04
1.148857663855719184e-03
5.330169353349762697e-03
6.955635266779023294e-03
4.004764448902543676e-03
1.800438889196612300e-03
1.785680795376397767e-03
-1.344441880726966656e-03
-1.484985778496427343e-03
-1.551590895743881673e-03
-1.871618361714344047e-03
1.435972623424508618e-03
2.119103461803689692e-03
7.655335923932292961e-04
3.207427214374402452e-03
2.918915925352213482e-03
2.511086351845831489e-04
-3.433970993131098791e-03
-5.178986688049943415e-03
-3.924070172603901646e-03
6.640074819840829055e-03
8.405401555147101744e-03
7.716989944232804412e-03
1.933074534068204928e-03
3.379507222964909467e-03
3.954096207374879247e-03
-5.674116188835840076e-04
1.436433061810576061e-04
7.143481563139625996e-04
4.922654547620720520e-04
5.496139289185289142e-04
1.324691459214413910e-03
3.540547145757385987e-03
2.260299491109679735e-03
1.986955728283845441e-03
1.926980859905141463e-03
-9.355915907096025918e-04
-1.952109678816906814e-03
8.520854457250573791e-03
3.405962624072240291e-03
2.178815100836797045e-04
9.247634087941516284e-03
6.105583374233060703e-03
2.142097375719556954e-03
3.565232776749907226e-03
2.111617291624298589e-03
-2.281783776209803365e-03
8.356914113375834771e-03
1.120385874848626659e-02
7.560896646044020473e-03
1.110351320891399480e-03
1.254824363878209769e-03
2.447008534472318048e-03
1.738034793042387682e-03
1.591105752111171730e-03
4.500241727618343492e-03
-6.801659729603678518e-03
-7.500567504189265509e-03
-5.367953199910413704e-03
-7.956249659694080920e-03
-4.120980204983300081e-03
-1.215895469664215762e-03
-3.745974649372850636e-03
2.843870218578855181e-03
5.799242343452522090e-03
5.255405191232455538e-03
4.231378720307615686e-03
5.167656325878087174e-03
5.044263310755307990e-03
7.466541490802600101e-03
7.729305925669562385e-03
1.185953834399435403e-03
3.736180004685700148e-03
1.653968476417290836e-03
4.859288258761476458e-03
5.349549294466200006e-03
3.588847175049589017e-03
4.226481504448403002e-03
7.321168399385079989e-03
4.211567517520603023e-03
-2.213951746130649479e-03
1.070183289440821729e-03
5.582762188884180443e-04
-4.231190030016192781e-03
6.719116458824076410e-04
3.551050550365366168e-03
7.165188826496091904e-04
3.089727279240683973e-03
1.358430177789420436e-03
-6.443701042714028307e-04
3.904048556715392776e-04
1.828506889498809603e-03
4.732214931081051988e-04
3.388749213807544080e-03
3.277094821904765094e-03
-3.201939010299955767e-03
-1.050331516111465465e-03
7.800656838011893815e-03
5.514917593650180052e-04
2.335640159568840284e-03
9.669008898372345034e-03
-2.691518567940864859e-03
-8.189586075973264573e-04
-1.360106582414659718e-03
-3.460223435042350678e-04
1.818391087972533269e-03
2.741437159552268313e-03
2.413775616622061519e-03
3.920743601100493136e-03
1.881906029002672256e-03
-5.201789249565309456e-03
1.216741445335341870e-03
2.979393186956047750e-03
-1.614241822651784567e-03
-6.583609569585712016e-05
-3.048450319632727695e-03
1.921817859075618728e-03
1.437103167907597453e-03
-3.466955802415319383e-03
6.562850655967062199e-03
8.662096168348336345e-03
8.931020297683485085e-03
2.512545400589100229e-03
4.804068875554691996e-03
4.522307204372294845e-03
5.696067940289995142e-04
1.638450446291338800e-03
1.248570324264309910e-03
-4.950249331413278213e-03
-2.210485680111572409e-03
-2.435405572330912993e-03
-4.793039012255519322e-03
9.311305773954147488e-04
-1.796979212239321368e-03
-2.447251318820198220e-03
6.916681157067846404e-04
3.188921722847786562e-04
5.008830638932022881e-04
-8.060210343393776683e-04
1.445420086494190928e-03
1.912368223724928784e-03
2.943517646666607510e-03
4.438686737775520211e-03
6.606223227840929977e-04
-1.597489702648060292e-04
-2.286925267197979436e-04
-3.149538356289545080e-03
-9.084073309727068880e-04
-6.285378775523605722e-03
1.630807265306852185e-03
-5.020096426792843404e-04
-5.470922101056394614e-03
-4.836886960848971878e-03
-6.028778458324451570e-03
-6.128488403444592482e-03
2.624745236880710736e-03
-1.684143732999058294e-04
-2.093892811373854364e-03
1.283802615225283815e-03
3.146761508414390538e-03
3.398272706535342743e-03
-6.391843240969874180e-04
-1.680606936735141131e-03
-2.515936663758940690e-04
4.399023683214356786e-03
3.561093152216787770e-03
-3.322843613565838999e-03
1.813865449050136493e-03
2.300697112443409170e-03
7.974934473014120857e-04
-8.706293473687687747e-04
3.650672024324900372e-03
2.539732894051110329e-03
2.155175190939134355e-03
4.655765967498082594e-03
3.157118266642258610e-03
3.440762134323889672e-03
4.959453842411028039e-03
3.631252483605128777e-03
1.033316858090789015e-03
2.933075341128892326e-03
1.024317748543792555e-03
2.015267808221413246e-03
1.971391017711037787e-03
1.745156563764227453e-03
5.294565966416120081e-03
4.088944931238424653e-03
2.253727939242001956e-03
-2.967704697607130310e-03
-2.670584569048583580e-03
-4.138190765958874376e-03
-4.778676447136919760e-04
-2.675963753764699481e-03
-5.309619901372422679e-03
-3.298702841894000839e-03
1.677841998058942144e-03
2.648722817153007533e-04
-6.002360317656404640e-03
-3.631328419487574633e-04
-1.860128442127369176e-03
5.824904999326440715e-04
1.301104275884554977e-03
1.945675873519918733e-03
-5.739027647748978648e-04
8.917839286721390224e-04
1.000179028555734512e-03
-8.401603103631024661e-04
1.538754958697358078e-03
3.038541792120158600e-03
1.146348126588568345e-03
7.365572363132824076e-03
7.336382562755503454e-03
4.199629262152039522e-03
-2.319014167913384633e-04
-2.562347519563793006e-03
3.021686384474403693e-03
3.749717884212222605e-03
6.824849923688063556e-03
2.702662998693229884e-03
-4.693221223601626822e-03
-6.853996332132557571e-04
-5.178982356130417200e-03
-4.321846649994267459e-03
1.614516589517286851e-03
-2.065726966280943648e-03
-1.420644405053979060e-03
-1.279810156501547331e-03
8.105560462795754345e-03
7.014485168901760624e-03
3.735896846129916835e-03
2.460130039542887236e-03
3.667836127840598190e-03
6.443338853077074102e-03
-3.269043276678692232e-03
-3.590629616405273741e-03
2.426109231339964732e-04
-3.434119984954237762e-03
-5.596379026840108545e-03
-4.658519704452492721e-03
4.423659924727867988e-03
2.248163159682765345e-03
3.019996457351401160e-03
3.024666278296097612e-03
-6.157801069023012639e-04
7.609334328032750852e-04
-3.926263386907167044e-03
7.899583202532838543e-04
4.272140011813260231e-03
1.400409473318230125e-03
5.416027061168273912e-03
5.362542494922727457e-03
1.711630164187228817e-04
1.588943954809900845e-03
-3.999834644839689421e-04
6.382129343659856055e-03
7.569062369507055694e-03
1.011899048116654543e-02
3.133020886903246406e-03
9.796445745706237190e-03
1.242019320395766797e-02
-2.883682586983710161e-03
-2.678507605826634629e-03
-3.431818443821535621e-03
-2.213432398144118355e-03
-1.441101979853756480e-03
-2.268573404260161228e-03
4.897976670799475277e-04
1.698392016541697006e-03
2.154652365313722805e-03
-2.204139685573380109e-03
-2.009778492893178788e-03
1.217418617818542912e-03
-3.494966912324063042e-03
-9.930551815665673160e-03
-1.141321029675221484e-02
1.637532920564622714e-03
4.032703562304082966e-03
5.713513898724346604e-03
-4.764963417235235608e-03
1.297302057770660395e-03
1.976325435115685366e-03
3.295380057472690766e-04
3.464021389447334912e-03
2.508402503596271742e-03
3.064293960949612903e-03
9.625109869033374524e-04
1.733323913838536682e-03
1.030820477746668398e-03
-1.595837517981650534e-03
-2.100684120512596662e-03
-1.887153598203540009e-03
-7.560192964107094807e-04
-4.157408911512159178e-04
-5.034944721719665332e-03
-3.913006679777323964e-03
-2.069201268728562085e-03
-2.528685402283851764e-03
2.909654781211679780e-03
4.047583457877636411e-03
-6.045906008853257733e-03
-1.199211056231236361e-02
-1.055074940999026038e-02
2.396087673641568178e-03
-2.177435488304690220e-03
-2.818347070736453713e-03
2.757251700968626085e-03
3.796790349079813640e-03
5.314929989152027134e-03
4.376646416290747195e-03
3.745419724605211602e-03
3.183314023654571813e-03
8.300390948662500490e-03
6.910216476751929876e-03
5.283395609447761980e-03
5.871190042108669072e-03
5.498991729254778041e-03
4.190160151941333712e-03
2.779811497000971715e-03
3.503107144591966968e-03
3.597372817096751961e-03
2.531159214106388274e-03
4.254010437792180022e-03
6.480162096245974980e-03
-9.177999864843788434e-04
-1.314840652532705883e-03
6.743013681680761926e-04
-1.659170260703256251e-03
1.956176485438134577e-03
-1.451071040594851006e-03
-4.666398405994830081e-04
7.492911885654317348e-04
-1.417160858238062965e-04
1.813930419036514907e-04
9.516558345948455261e-04
2.767762453392882700e-03
6.981723080489379493e-03
2.684244302337122803e-04
1.407547517015854269e-03
7.667243692297960080e-03
7.735144284922120840e-03
1.106407739027838281e-02
2.795128141811449758e-03
1.589444966556038084e-03
6.731463409474452639e-03
7.592380345235249595e-04
1.252548231400608123e-03
-3.417095372353032724e-03
-1.165064812326844839e-03
-1.252913431113513462e-04
-1.612778388869015372e-03
-7.229824710323369714e-03
-1.861991465330232803e-03
-3.940947782957281674e-03
3.359607428652826040e-03
6.959182857991951313e-03
1.202987192020290924e-03
3.756762234350543607e-03
2.482127980792849919e-03
-3.976836212964645137e-03
-3.810760429018348900e-03
-1.518501561807585271e-03
-4.922079002878646317e-03
-3.243510661596309217e-03
7.221066143012692777e-04
-1.391199842149310221e-03
4.669371696696311171e-03
3.814209616026586775e-03
2.241435523488931412e-03
1.001205884496522876e-02
7.900936842176436992e-03
6.096176506335282755e-03
1.342249497058377154e-04
-4.772934090809107140e-03
-5.275586476493379119e-03
-3.558694804625252978e-03
1.737790853914698624e-03
2.466142062583671912e-03
4.707289407040464620e-03
4.359962925596244827e-03
4.638171482039951318e-03
-4.680220387380023476e-04
5.173806924838006719e-04
2.417951665881502062e-03
1.183382905429997004e-03
1.348042697411828408e-03
5.534450013145429410e-04
4.766376484960749792e-05
3.469607393321541555e-03
7.117029503373194016e-04
9.461075628361407175e-04
3.114772928369781251e-03
9.077722051385358462e-05
2.200067682833652897e-03
4.086004656138005758e-03
7.962161208614134148e-04
-2.954386204138153248e-03
-2.354219174978735283e-06
-3.676000414332134154e-03
-1.778913365071503648e-03
1.875197469929871814e-03
1.290552018133247440e-03
-8.677730498079127457e-04
1.126074354356425408e-03
-1.308518778075940968e-03
-5.681825053172248445e-03
-4.641506293573077410e-03
-7.897465723376064992e-03
8.072677631613770291e-03
5.414776713190858418e-03
3.166372303794608590e-03
1.420230082843205489e-02
1.241931593227226828e-02
1.083050686977528494e-02
8.704316310835433917e-03
8.936944707579615177e-03
7.688543471498292606e-03
2.436837415079795479e-03
8.303535684663788247e-03
6.412178728793433737e-03
-4.863795619018532797e-04
1.221827804175415911e-03
1.507707087457333479e-04
-5.976394490722925293e-03
-6.922349238491286999e-03
-7.663822568550626539e-03
-2.982140297520659462e-03
3.976055158173773599e-03
2.121066066003366845e-03
1.733504344098348200e-03
3.409400850699484745e-03
1.931960957012459441e-03
1.379525643526151790e-03
1.215955389961985130e-03
9.398162042277874613e-04
-1.971355937935479440e-03
-8.681828268005269827e-03
5.858812808119765250e-03
1.456967800051095019e-03
-8.880789487865499779e-03
-8.250060343475714916e-03
1.293601806231851024e-02
1.086920401939857686e-02
-7.180147809976512082e-04
-5.443413615053370458e-03
-6.411433326840875781e-04
-5.425804054023803009e-03
-5.599158661293345517e-03
2.503691927532469830e-03
2.672219897777452623e-03
-5.004473891152398136e-03
7.314972325851845820e-03
4.857642822855974020e-03
-1.492129999261384253e-02
1.767577672716729321e-03
9.712797715105182111e-03
-8.471042184013366852e-03
-7.339951606592473241e-03
4.292676354300037703e-03
-1.955654011717238537e-03
-9.500505555089831106e-03
1.451540392713201446e-03
4.027427130435135873e-03
1.478411629580282226e-03
-6.520684616501547411e-03
4.314907253809880001e-03
1.975607443907852635e-03
-6.944160545739241561e-04
5.270268179885553329e-03
4.986919851112794205e-03
4.705020970642821189e-03
-8.404503136595601817e-03
-3.079290573438987419e-03
1.622239399675388244e-02
-3.364092777437319767e-03
-1.026774310611037327e-02
-1.596955952448213560e-03
5.759931216179379337e-03
7.309531453290473921e-03
3.150227399736240871e-03
-6.983028005540907641e-03
8.836719840422771130e-03
-5.752081544256071668e-03
-5.696599289866289065e-03
-6.535698156226278817e-03
-4.059403347097062520e-03
1.283795987801666537e-03
-1.335149398871322834e-02
-6.513384989734629857e-03
5.077558697277335074e-03
-1.098699392084141486e-03
-3.972273206152118069e-03
1.203439518305421049e-02
3.842844186879581462e-03
-5.498297865956562613e-03
-3.120467411294977709e-03
-2.197220858763234731e-03
-7.402940077479273212e-03
-2.836082075859166791e-03
-6.798247326100830684e-03
-1.193542339256202251e-03
5.959469596098073904e-03
5.362184008819269841e-03
2.796769710317322920e-03
-3.501642433198802473e-03
3.990095259475502426e-04
-8.661549272534633040e-04
-5.622964069674729788e-03
-1.053344627401614671e-02
-7.985085404368543263e-03
7.406766598864014325e-03
-1.595038725970845733e-03
-8.987718672068831585e-03
7.885518192761391265e-03
5.021673777368974682e-03
-4.740594984345449653e-03
-2.409691202420795233e-03
-1.024574941587991402e-02
-5.086598473610107196e-03
3.295234391388958319e-03
-6.946252451211613194e-03
-7.980113970077798088e-03
1.089583841589650791e-02
3.573023611870885380e-03
-7.215415628186314795e-03
3.295533946497601879e-03
-6.080434154545141670e-04
4.092769248604138585e-03
4.353002953405531845e-04
8.907614979863772917e-03
2.141090060185033006e-02
-9.202895894556041220e-03
-9.086682530991024159e-03
1.092584004053994209e-02
-2.281564251813233274e-03
7.547846172183451073e-03
4.266489261458794764e-03
-6.390486234939507862e-03
4.690270832823965896e-03
6.577521509264410392e-03
-8.427140575181459384e-03
-6.840527205551457041e-04
1.230446587920042308e-02
-6.317210886679578037e-03
-1.260376459523288896e-02
-2.410778565330558764e-04
-1.109802686246907401e-03
-2.659947176623743154e-03
-1.106511010916984804e-02
-5.155162653748194060e-03
2.725572986761399912e-03
-4.458922614758120857e-03
7.919991193875661542e-03
-1.875486221359313468e-03
-6.319975315505467484e-03
1.046170799023917776e-02
8.627281938874882018e-04
-8.789057191772361305e-03
1.307076068012226998e-02
5.434895293333983322e-03
-1.390296258523391996e-03
-2.318660942499762428e-03
3.433937444991789264e-03
1.112463838653260199e-02
1.146389063409068709e-02
5.592454824551625070e-03
9.675537781640850682e-03
2.905800945024415109e-03
-3.699207143374585137e-03
-2.476521320011860951e-03
-2.207562888216096746e-03
6.082593755045143449e-03
1.531647036200119508e-02
-6.220826263646650131e-03
-4.947268088157216227e-03
7.220165716337667745e-03
-7.649898363115512079e-03
-4.319408512009534004e-03
-9.647310615214876959e-04
-2.446882149671682650e-03
3.143976584759808866e-04
-6.436798118774277825e-04
2.765250204523008902e-04
4.378922401873226906e-03
2.174232217636207134e-03
-1.454048244472513733e-03
1.057453623351242451e-03
-2.963091412917915300e-03
3.053647623190416417e-03
-7.977941088809432577e-03
-1.344792657007635615e-03
1.206640626173309310e-03
-1.145078915610006978e-03
-4.861058009331677490e-03
-3.711878472034316309e-04
2.739495658929161012e-03
-2.737946973773881191e-03
2.365043103733789620e-03
-5.260305759061747761e-04
-2.098201109940845549e-03
6.475622047168529821e-03
4.252257811426581914e-03
1.596003979593711404e-03
1.958027211241753895e-03
4.294630471800637748e-04
-7.628689160494080829e-04
-2.110070796665744789e-04
-1.789696054605713739e-03
-6.362559545897758908e-04
-1.283053685077703587e-04
-2.651510015155466443e-03
-3.095249630089155334e-03
-3.159788999592629444e-04
-2.039772000615289367e-04
6.429651589753772496e-04
5.588197600470650242e-03
1.368569899092782465e-03
-1.388940845438824600e-03
8.659262951369829306e-03
3.565504114605504496e-03
-2.085159210952748816e-03
6.697406636371707432e-03
1.037104424263395400e-02
-3.370969633077999014e-04
-5.873956019791156183e-03
-3.575318233515916311e-03
2.330350969941522195e-03
1.601981616543110337e-03
-1.319054029890312561e-04
1.670356176821784222e-02
-2.572251311837535619e-03
-2.434414828370424534e-03
1.110688734842893953e-02
-1.130584008335382661e-02
-6.217570630846424966e-03
-1.924541044998941304e-03
-4.917305199088176787e-03
-9.575739447773149934e-03
-1.072813219319401767e-02
1.169934685204853178e-02
1.440891245491932905e-03
-3.217766562793825807e-03
2.362141809211707952e-03
-2.357774834336618655e-04
-2.810342471129728074e-03
5.163413331094032777e-03
3.458902891598704399e-03
-1.647235096921353470e-03
1.064628724469240777e-02
7.429876611457475119e-03
4.693232444169031722e-03
1.002507395529020481e-03
-8.083734398407451532e-03
-1.363394641898679586e-02
5.363369686305946744e-03
9.281424708979326560e-03
-4.599534963268325088e-03
5.467258865739846145e-03
1.672076774145325045e-02
3.978797014700466601e-03
-5.017336868677819625e-03
-7.222688324506273960e-03
-2.988890965560106385e-03
4.541931290587585164e-03
8.981978244398815259e-03
7.556805157175344560e-03
1.122036598044176818e-04
-2.219085061502151009e-03
-4.067286220941278112e-03
9.897001603397025810e-03
1.153536736051293844e-02
5.069431051493974993e-03
-5.082728420817952866e-04
2.891754319018594380e-03
-3.976637414200464822e-04
-4.174304865875948407e-03
-3.243432569931916851e-03
3.029346952822142402e-03
3.461643341259494438e-04
6.323423519446964500e-03
7.755926299621286829e-05
7.438214536073257249e-04
-1.485858451529895779e-03
-4.966597877600092102e-03
5.927912277004947217e-03
3.107880563078447515e-03
-3.107132597582418741e-03
-1.329162170255883575e-02
1.331657110157064439e-03
1.440501233594324287e-03
-1.500889514490662616e-02
-6.295072399182931148e-03
3.347916432660315387e-03
-3.719288402960698511e-03
-4.543581426056752907e-03
-8.025256224020995907e-03
7.413419710448790161e-04
-5.289496334559425333e-05
-1.545739038164515352e-03
6.128781316131620693e-03
5.998961436467942221e-03
3.115061954115907507e-03
3.171180209746209989e-03
3.290928655612434389e-03
1.232602499317720810e-03
2.017951882649135617e-04
-5.704276311800870157e-03
6.348305776796490246e-03
7.152153794817365205e-03
-2.097180519783131605e-04
-9.512064988309349052e-04
1.542378634858311819e-03
-1.963115774531261262e-03
-5.022196707623288563e-03
1.251509702089475054e-02
-1.577498888975185877e-03
-2.119166093988481079e-03
9.314732507124811808e-03
-6.718475099739510716e-03
-6.042587284901189751e-03
1.512854011145268497e-02
5.965458115899327333e-03
9.403367986272737999e-05
-3.013052196220721533e-03
6.452272228688656769e-03
-2.634234296220441026e-03
-3.162197820608153749e-03
6.839694826269269480e-03
6.245249556826978812e-05
-7.414551459252865899e-03
1.912626544740884948e-03
-4.543895346762387086e-03
-7.436781147915314492e-03
-4.622903957298038838e-03
-5.230527844105088350e-03
-6.787253639289215351e-03
-9.495394933891180850e-04
1.442619258687948469e-04
-2.933297378347411201e-03
6.278321732468547522e-03
1.388741368173009895e-02
1.133921812768379396e-02
-7.021758315135461469e-04
-9.142385760896020938e-03
1.684341311852251277e-02
-9.451653084970807806e-05
5.053657092390244137e-04
1.327398406870409185e-02
-7.888139448876851229e-03
1.909712487596214965e-03
-1.774367998447965583e-03
-2.048121367006379250e-03
-2.003114314571274261e-03
8.982288114507428010e-04
-7.219183165716116938e-04
-3.255396767259448819e-04
-9.518425042326183853e-04
-8.788404279554868932e-04
-2.512673549926117654e-03
-1.621501143717119170e-03
2.532711520508170409e-03
5.633424668878957153e-03
-3.696806438828829141e-03
-1.514589781493988008e-03
-1.746995714510812814e-03
-1.969871175483140814e-03
-5.295368136544730334e-03
-7.664305556461659466e-03
9.968577902969137129e-04
-1.027262547618781538e-02
-6.554754083432604884e-03
9.135605135975819998e-04
-6.825027864787445650e-03
3.906798952985761006e-03
-5.083399551382047606e-04
-2.417874411318526959e-03
6.324156218380966137e-03
-1.020527697976371818e-03
1.627193449381157588e-03
9.949941777141304341e-04
-5.433044407982303694e-04
1.984361437731772294e-03
9.396967910241898992e-04
-1.040178687986465135e-04
2.279368856149888763e-03
2.878070819371047833e-04
-5.998744320179045034e-03
-1.076532103629531008e-03
-1.058402577278641076e-03
-2.656097912178312977e-03
-2.994402378515134341e-04
-1.184574562975542139e-03
-5.034200934100100614e-04
-2.427433932346910288e-03
-1.216640145069115960e-03
3.870584861450123305e-03
-3.418180056967188608e-03
-6.364230864367446776e-03
4.484166565334436749e-03
2.291335002231811337e-03
-2.817352152186472156e-03
7.119448937791964319e-03
5.683111198074965523e-03
-2.082883564423840348e-03
-1.682983965700735399e-03
-3.820281457653630186e-04
-2.247298962965075739e-03
-2.792988195822587467e-03
-1.251496964463388222e-03
-9.759991211611989914e-06
1.089406520775136351e-03
-7.687197450941484454e-04
5.473661363343114601e-03
-7.338481976800206689e-03
-8.447710950600513871e-03
-4.772227761121663504e-03
-1.508916810981644589e-03
-6.197010481140146146e-03
-8.908445042392989371e-03
1.568239295188477225e-02
1.076197688766629109e-03
-4.318059664814308599e-03
-5.038738681423699656e-03
-1.335603375630440041e-03
3.661682331777730594e-03
-1.479545327866856790e-03
3.301358180579166100e-03
2.884762262060465692e-03
-4.546838360378255110e-03
1.902521938957544862e-03
-1.022767226613685446e-03
1.374021933494815745e-03
3.497073211668796922e-03
-2.035337778817395901e-03
-7.204574117176690273e-03
-1.928547053138810483e-03
-7.074044265825833386e-03
-6.683698267319108325e-04
-2.233216496643098715e-03
-4.458086498616775466e-03
-6.652155326402496918e-03
-6.896342010075422885e-03
-4.890763712584337251e-03
-4.144029237632169613e-03
-1.073016806528570045e-03
-1.747469009420242556e-03
-1.392664424195550702e-03
2.547264691384326565e-03
-2.585581226256888215e-03
4.331420162122761285e-03
-6.187617482949326654e-03
8.299704527447389129e-04
-4.689758250945321415e-03
-5.432406440489060892e-03
8.981959509441302808e-03
-5.889402094578241251e-03
2.317570675289907026e-03
7.764781551114469278e-03
4.650015170430967480e-03
5.497283923029092773e-03
-2.667301938740321114e-03
4.079655949239204341e-03
3.192738479068010608e-03
-6.162242362910681608e-03
-6.188670832409600732e-03
-6.783110366065265087e-03
-6.984385039625009076e-03
-2.447314723872840488e-03
-2.666905429361545246e-03
-1.155810314639197896e-03
8.468596614938451506e-05
-3.135748998317977165e-03
-3.538124236559523402e-03
-6.171580593590480883e-03
-7.940499964793375351e-04
-1.699401822306849689e-03
-1.892674148394802094e-03
1.650817674295510656e-03
-1.012930112015084485e-03
-2.398682746802046056e-03
-5.643903395970689858e-03
-4.927355810961243920e-03
1.076037160751217985e-04
4.057179066675662554e-03
2.270984801329327743e-03
1.057379275939277254e-05
-4.427048121897979283e-04
-6.855557236699423487e-04
-4.156785627091016998e-04
-9.066107384794908509e-04
-8.486002877098192121e-04
-3.433885935930032821e-04
1.145484770055486281e-04
-4.116702469937284152e-04
-2.109593827568991518e-03
-3.033992998120430603e-03
-2.616031037257585904e-03
-3.035711328778708650e-03
-3.208648996095682208e-03
-3.039704176372726163e-03
-2.395634361235075057e-03
-1.002383480610701113e-03
-2.293072390503721539e-03
-6.233538190686527605e-03
4.922470030907137063e-03
-2.568588773348493004e-03
-5.909400747268091572e-03
1.353225821438412300e-03
-5.300135500358791815e-03
-1.044067847360293129e-02
-3.444227374193462900e-03
-2.128104691217901513e-03
1.044012894823897336e-02
6.592476316800440807e-03
-1.431040019167835356e-04
2.670322663013719160e-03
6.580033360326962601e-03
1.407674163687230004e-05
6.203193104048120021e-03
1.105211517831405574e-02
1.091480044645937002e-02
-2.640227175606281451e-03
-2.146840360697521884e-03
-1.927678173977480044e-04
-5.038379732196063276e-03
-4.811773419560817604e-03
-1.806769457104904445e-03
-8.820014014631881796e-03
-6.866009135111770904e-03
-5.982307035908547913e-03
-2.766639102209573695e-03
1.531047788606492615e-03
-5.450495261257435470e-03
-1.897970869806940141e-03
-1.097875446735242441e-03
-6.953136104029383584e-03
-2.970035276719872920e-03
-5.608507671668988212e-03
-1.191862231433586834e-02
-8.633778573608603263e-03
6.547962542015272561e-04
5.281634998130886431e-03
-4.729286702024593919e-03
4.619278015022786066e-03
6.037975620505954891e-03
-6.365158396572674106e-03
7.695266962624426436e-03
9.709762743092400583e-04
-7.191822168326844709e-04
-1.550183945510452818e-03
3.152804452366583907e-04
1.385821001663049877e-03
-2.287385450575560222e-03
-2.591556250694034176e-03
1.984170121493949827e-03
5.154219123842462141e-03
7.558805567799564565e-04
-7.953704300685269027e-03
-5.424715120672763541e-03
9.763372735366775482e-03
-8.575135521081565706e-04
-7.836763638006451769e-04
8.505350055442419815e-03
4.584998733834257968e-03
-1.558037995144125271e-03
2.942464090504519781e-03
-1.539706606109033466e-03
3.141979727823469935e-03
2.023573495419674875e-04
-2.374515749949923996e-03
2.512328755139674186e-03
-5.333529435127608472e-03
-5.837346130429081799e-03
-3.864639626098363701e-03
-7.235636732219621024e-03
-4.628217886070058046e-03
-5.890857134127793285e-03
-6.172653740765888901e-03
3.376539726256863258e-03
2.792200912851663290e-04
-6.061557659634792504e-03
-4.125657328039937684e-03
-2.512648478987795312e-03
-4.498718070982217140e-03
1.276246254673393896e-04
4.599893646578168582e-04
5.127458348769917563e-04
-1.214687146727636436e-03
-7.755062353187401050e-04
-1.792717612482501715e-04
-1.124936055428089410e-03
-1.226971573459754820e-03
-1.299562171805267695e-03
-4.962840717493729840e-03
-1.353839476597370637e-03
2.302997521673243436e-03
-4.125280061300169200e-03
-2.189208766258748939e-03
2.481336449739270783e-03
-2.966206546633542995e-03
-4.805136744382420069e-03
5.532356408000546968e-03
-1.164595893026199470e-03
5.655507632418974549e-03
-2.106633791618616424e-04
-3.370390962992526451e-03
4.893841054622507375e-03
1.360288980106346638e-03
-3.258583274268909893e-03
-1.504602481798442354e-04
-4.612323281224642302e-03
-7.771083918049411475e-03
1.067030785548626036e-02
1.741024890786578919e-02
-7.610785481493651493e-03
3.852060079171275905e-03
2.039921070866951985e-02
-1.155212581105787267e-03
-1.424410597669448046e-02
-4.559684247589634171e-03
-3.064769002670135120e-03
-7.671112016095055740e-03
2.905952807602651261e-03
5.904233216936719941e-04
-7.330024409680076410e-03
-1.651062813391210998e-02
1.113186319989070000e-02
-2.905288023723923444e-04
-7.480399666060183125e-03
-1.695049401129502045e-02
-1.000918161480173624e-02
-5.754521111561214548e-03
2.735220509488190364e-03
-1.376957724324619431e-03
1.404125504451290279e-02
-1.158818579504768825e-02
-1.375622155754749332e-02
-1.120203229150776433e-03
4.588691848227346645e-03
-1.579238293573831213e-03
-5.358873261413094405e-03
-3.317615683073650047e-03
-2.291858444491304790e-03
-5.120380973345866477e-03
-9.809123101485639658e-04
8.352833494027129581e-04
-2.796971522655650189e-03
-1.319244727228144690e-02
-6.144403283168867365e-03
6.598381071080285272e-03
-4.310858927941013836e-03
3.963557623147124761e-04
1.909419729589038189e-02
-3.302426687949485806e-03
-1.435687634605189306e-02
-7.401085050570179943e-03
-2.010182759057656254e-03
-1.579069903429541899e-02
-6.664155281986032997e-04
6.844689315262994685e-03
-5.040557921674742800e-03
1.576988090972960763e-02
-2.746503465592639495e-03
-1.669311508464429647e-02
-1.624449516496026969e-03
-3.407752580055180107e-03
-2.714692730352989778e-03
1.879795310750061394e-03
-2.849059390852091284e-03
-2.747149267309647452e-03
-2.118291681002605880e-03
-9.776413775203281198e-03
-7.547785115510196458e-03
-2.023303719100681946e-03
-5.040696715975490592e-03
-4.638617791080378548e-03
-1.022505573868801899e-02
-1.787409741987155314e-03
-3.884573664667725912e-03
-5.629323345445984630e-03
2.094730940232171837e-02
9.510207326915749368e-03
-5.845431582660147452e-03
-1.315456867473330758e-02
2.464397926045205564e-02
4.722595690966234321e-03
-1.337699470605193709e-02
3.101468256880453560e-03
-5.489846911532082069e-04
-1.214853757614470925e-02
-1.453362476477596324e-02
4.389128299880828347e-04
-2.383243673742499458e-03
9.031353722234314665e-03
3.903044328567507773e-04
-9.399329662780151612e-03
5.591260233121555720e-03
-3.901193465745185756e-03
1.156505552071883814e-03
-8.565592910517224462e-03
2.334610558979078286e-03
-3.787961197119257828e-03
-1.796972383555691180e-02
-9.055115714740832086e-05
1.421116682337882856e-03
-2.977349208235004555e-03
-1.882788695598655235e-02
-9.732153701459737849e-03
1.880619095746851807e-02
-2.229940265835150121e-02
4.338946608117742678e-04
-3.116911368040546377e-03
-5.146423886897758156e-03
5.870525592235309974e-03
2.761935554852378537e-03
3.742756301584302531e-03
2.591938662422613952e-03
8.815431020342769444e-03
5.399630820155420022e-03
-9.160394049387593496e-03
7.980665149161653149e-03
2.064713611056520279e-02
-1.966598695202460140e-02
-1.120651595974971049e-02
8.778817900242621292e-03
3.186311375944058267e-03
1.130910862467700631e-02
2.189885455294992775e-02
3.522596699553171701e-03
1.007218892050022654e-03
-9.406595340315021189e-03
4.103009155730599658e-04
-6.596121581507820991e-03
-9.203536420791587347e-03
-6.257688007876107718e-03
-9.831824950465563318e-03
-2.314931874389628084e-03
-1.967629038776245055e-03
8.549385001938159326e-03
-1.465357365701174322e-02
2.741265613613545066e-03
1.449038625790777593e-02
1.449420208063200571e-02
-3.440441087192425400e-03
-1.263549840086393081e-02
1.435657834652381663e-02
-2.487504217535323713e-03
-1.985898042721411308e-03
-4.963826921271303344e-03
-3.264058228163411145e-03
3.877444536231679575e-03
7.991326388442458739e-03
-2.237500064822045640e-03
-1.664070594846348092e-03
4.998426503464282675e-03
-3.636874007620022244e-03
-1.222602337261309959e-03
-2.595477100654613664e-03
-5.146544107255317767e-03
1.334559698591164653e-03
-7.391693166813415039e-03
-1.039040057273154898e-02
-1.716945814535633056e-03
-7.559082563372518729e-03
-1.227172833584927632e-02
-1.101696805307625718e-02
-5.900482505068282632e-03
6.543055825818907059e-03
1.336519923158105069e-02
1.225805383147738660e-02
-7.874159913718136242e-03
-1.073784291702811061e-02
-8.372711083096107815e-03
8.831677301463805542e-04
1.718425300548822145e-04
9.163778385123912606e-04
-1.075505483908567117e-03
-1.784645081981822874e-03
2.256751242554266639e-04
-1.231130695947231036e-03
-2.934081513741806750e-03
-2.309817202352446898e-03
2.920662962389236963e-03
-1.433383445103513605e-04
-8.068997312014933700e-04
-1.031833306083322806e-02
-1.313576408807466504e-02
-5.194681236502832547e-03
1.015682609331463454e-02
5.639783945318505541e-03
9.112819445276639646e-03
6.581015454745573346e-05
6.565121057998785613e-03
-2.048003593683574586e-03
-4.263763368276904039e-03
-1.619146961879671743e-03
-1.677876668050975670e-02
1.014990066592586122e-02
-1.563112845138151647e-04
-1.482456211225479173e-02
-1.394008216363854837e-02
-1.881190397581840659e-02
-1.158814987181690584e-02
-1.197014199564559039e-02
-3.825796523503048434e-03
7.868318306530789480e-03
-1.489104662340554053e-02
-7.877467504370509743e-03
2.373602776681453530e-02
-3.099546976361428671e-03
2.768674018153673491e-03
-2.090918383256195213e-03
1.099326382349196220e-03
-3.056275812010712366e-03
-5.740221216398898145e-03
-6.221266138158018481e-03
-1.206263104780626143e-02
1.264618841955121630e-03
-7.165678690492662158e-03
-1.681587456147021903e-02
-4.221929949594519470e-03
-7.938710489575380100e-03
-1.525119742291893531e-02
-5.710388401999534624e-03
-8.868823963184769427e-03
-1.456934919313279675e-02
-5.785779016854431488e-03
-5.006698643788838176e-04
4.988248799034168587e-05
2.480370088422264706e-03
5.008704017325375617e-03
-3.019551860579231233e-03
-3.512457571774295524e-03
-1.914114242702559185e-03
5.876958912184226426e-03
6.175842641599384696e-03
8.684702301342750105e-03
2.094978932990125640e-03
-3.790666053109709491e-04
6.332209321367939306e-03
1.566051732812775293e-02
-8.455939697867191976e-03
-1.663991808669747219e-02
-2.426600359875588642e-03
-2.020666321222579307e-03
9.213778011421898742e-03
-1.219953611318955015e-02
-1.247497809753623892e-02
1.900358094624347502e-02
3.555656685554182354e-03
-1.308326718490955207e-02
8.937965160539240728e-03
1.315305622507369036e-02
-7.578588877686995816e-03
-3.298104470136793156e-04
1.179855774545565845e-02
-3.050029660258539357e-03
-5.849208012296076321e-03
1.186683188664898816e-02
3.391175846032805623e-03
8.054510860983669310e-04
7.596686225739620636e-03
-1.752345198886670575e-03
1.165442680384433296e-03
-1.752710656527094884e-04
-3.541821343080838163e-03
3.546598520447010339e-03
1.081357419024763650e-02
-8.484163927142744600e-04
-4.550350330864359229e-03
4.648653843680023399e-04
-1.071951819125338025e-02
2.765806487078375673e-04
-9.556856295506277292e-04
-7.928417055191554338e-04
-6.865129021250000437e-05
-2.368073660780054424e-03
-2.199154057055209988e-03
-3.415090104051613645e-04
-6.238848518533015534e-04
-1.051242321510791273e-03
-7.485435858084660971e-03
-7.278465388591335780e-03
-1.296202219883590620e-02
7.414944682046155366e-03
7.159144744675703144e-03
9.167600331126115817e-03
4.273736759331947348e-03
-5.384252411632587353e-03
1.285272495274544097e-02
8.468236260585631711e-03
1.119440799399287582e-02
-6.659747746500234607e-03
-6.526791787191745485e-03
1.630138041734019829e-03
-5.816731166467470349e-03
-5.869514434932510301e-03
-3.412984512865566838e-03
-3.436375026508318737e-03
-1.057181499683747250e-02
-1.112517244398484803e-02
-6.859225062795313264e-03
-5.342273782392209860e-03
3.530412391218768018e-03
-2.672246973965551522e-03
1.801640886199203670e-04
1.131463687039454755e-02
-1.441200082909919935e-03
1.321361676478740622e-02
6.540825804208337188e-03
3.493692409175428847e-03
5.450081051056215528e-03
-6.287871623438420245e-03
5.684998886190249139e-04
3.433184627605905762e-03
-9.060428490284679753e-03
3.735884403842409680e-03
1.303248132193408904e-03
-4.206403901092408207e-03
-5.675602899873650499e-03
-4.736499779206076967e-04
-6.144622776549237648e-04
1.454819000764062415e-03
1.096357569392468782e-03
-3.417850689131208641e-04
-1.485254209309184439e-03
4.183294293610241750e-03
1.412988766233603264e-03
-5.229233110581792653e-03
-4.639922760036413463e-03
-5.609236055276853490e-03
-3.869552947413484531e-03
-8.631686968060275564e-03
-8.753282929804664936e-03
-3.375264191400768714e-03
7.454269780645053503e-04
-1.331564604082124958e-03
-1.335743310445638510e-03
-1.403005473968408278e-03
-1.000853042503187240e-02
-6.851179280312257557e-03
1.011723601186299837e-02
-6.071658328513790132e-05
9.727725290953974889e-04
-1.751917466939898610e-02
-1.193312256643035314e-02
7.916782939977409089e-03
-1.146921357844455334e-02
6.868200064717930320e-04
1.587289120280943600e-02
-2.539486746032093394e-03
5.470837617527986091e-04
-1.147459130871049220e-03
4.017243034241407980e-04
-3.731598215582453831e-03
-1.737217986120101801e-04
-6.912894574545516355e-03
-8.724327165120771693e-03
-7.568391815218763856e-03
-1.705800407946816023e-03
-3.971787807795165888e-03
8.920816541389780911e-04
4.574698171886841004e-03
6.339943539403350772e-04
-4.434305511432292714e-03
-7.209022740766660511e-03
-5.372735893221576575e-03
-3.852366386769768419e-03
-1.301415813978106309e-02
-9.182840245621550282e-03
1.539214920109110117e-03
-6.336774341256091840e-03
-2.740825895238750871e-03
5.990311637670046874e-03
-4.406752300972904476e-03
-8.770926829280529732e-03
3.435020344961176812e-03
5.320907915536751166e-03
3.117221298148347471e-03
4.717202479882351071e-04
-6.823051306185441050e-04
-2.798367790856467509e-03
4.838559774740171411e-03
-4.481076223223627586e-03
-8.639837633097441696e-03
4.870141602265098610e-03
-8.359364233267824965e-04
1.523023925754612377e-03
1.016466383012421155e-02
-3.870660667144450412e-04
9.467344080238615164e-03
-9.385551865755127968e-03
-2.051283904740818648e-02
-4.975515123065975829e-04
-4.233887492802705307e-03
-8.806100293524221287e-03
-2.183555529025304684e-03
-5.018642574836348902e-03
-1.928075441891506040e-03
1.168453273596245338e-02
-4.267710389668472049e-03
-3.747098657383958822e-04
8.234225713296195945e-03
-5.668419444663931606e-03
-7.377070585879655883e-03
-1.090493180440001500e-02
-6.466665295157176391e-03
-6.393119539655428910e-03
-1.099786647240967065e-02
-2.357721462537520560e-03
-1.147139938903937728e-02
-1.009618333849235210e-02
-7.306059461806952218e-03
2.539490017931528374e-03
5.833794329710656132e-03
-1.270442559748104249e-04
4.050289400307915608e-03
4.736541586809969034e-03
-6.009642383076886120e-03
9.928847858595249778e-03
5.491145206688388854e-03
-7.053607699372511225e-03
-1.232841818731278936e-04
-5.576544508526860497e-03
-2.448474228054453323e-03
-1.085830723745011273e-02
-7.749837361429653439e-03
4.630661648685417339e-03
-1.080427999802834223e-02
-5.191196007243642670e-03
1.298846718541680698e-02
-1.717850813566218666e-03
1.277658297698916999e-02
1.398696764134007772e-02
2.061771251291207030e-03
-1.416588310042669364e-03
6.570068587181562142e-03
3.899527181682642309e-03
-2.292057712774883509e-03
2.002838162210912078e-03
5.918278045023880364e-03
4.787008817874183024e-03
-9.816867100429608486e-05
-3.396980151495782030e-03
-6.997553518250706345e-03
-1.016105092605911961e-02
2.859958207594620432e-03
-7.299315713526868463e-03
-1.108978503387254150e-02
3.631889079792464427e-03
-4.105989670974159039e-03
-3.555009985855133673e-03
-1.240876040502996401e-02
-1.115808593457985262e-03
-7.296699284611948833e-03
-1.602739938274349435e-02
1.872380260846605695e-03
-3.097601716730266890e-03
-4.248858068667918028e-03
1.738419863845921606e-02
6.706334110043137356e-03
3.429585901771698732e-03
1.233360069424576733e-03
-6.345178214955097705e-04
9.386075551436933243e-04
5.348757051122823413e-04
-5.907565846273424206e-04
-1.406583750431146355e-03
-1.291716631647190760e-03
-9.572171920922598574e-04
2.465636885655074668e-03
5.531904893900907970e-04
1.038583368914860940e-03
-3.178750639430378590e-03
-3.281953254956080333e-03
-3.489804302013406901e-03
-5.476573802554255896e-03
-2.776685458616759677e-03
-1.671961333356064778e-03
4.052980719365459859e-03
-9.682443475177791858e-03
-1.041516354100124539e-02
-5.023103991488272677e-03
-7.719433054156974415e-03
-6.684251151894822669e-03
-1.053948499497505895e-02
-1.650082868922442443e-03
1.031847545902297991e-02
5.241709044899947254e-03
6.457089899688221550e-03
7.422523812831799579e-03
1.038804549316672300e-02
-9.924577302743704636e-04
-2.040842364782521478e-04
2.029268747619686342e-02
-2.272770592693845303e-03
-1.006384915586954788e-02
-1.215306873506602839e-02
-1.052944408092536775e-02
-2.565120442156234096e-03
-1.193537108843101789e-02
-1.111745839575007354e-02
-2.844736240789479120e-03
-1.108160437642388522e-02
-2.306383360907003025e-03
2.552477459194700104e-03
1.331144474017441695e-02
5.082309193538251529e-03
4.152174349222233392e-03
2.606500699628274027e-03
-2.394182964525488899e-03
-1.719060143951862702e-03
-1.301173966078196520e-02
-1.431116815939764177e-02
-9.059443285010338603e-03
3.218460228696428359e-03
2.848557092240890532e-03
-1.943439809030949456e-02
1.238202535120153450e-02
-1.219095278621949415e-04
-1.883642211411030651e-02
-2.012830724857840158e-03
-1.119772136079204110e-02
-6.995659088477794094e-03
-9.142840911483304800e-03
-8.436723569333349701e-03
-4.319508193169618870e-04
-7.662930622812562029e-03
-5.779098532170983370e-03
2.566639330582874776e-03
-2.898653871580176579e-04
-3.450646027802168909e-03
2.255387263653546668e-03
5.447269035263954543e-04
1.164268423332681483e-02
5.910636342121057540e-03
-2.487306675613614858e-03
7.115162306989069110e-03
4.156928237329215146e-03
-5.435670697083165581e-03
-4.070110203541253344e-03
-7.955781618205091596e-04
-4.155769257840433595e-04
-9.473912418354539511e-03
1.375467805031336740e-03
-2.451912812588532588e-03
-8.982209735300875422e-03
-4.004385378322494502e-06
-9.427594682862772482e-03
-8.657688389326480966e-03
-1.052629233290843045e-03
1.945080775660956978e-03
8.717796635620542189e-03
8.767968850419025030e-04
-8.813331918364513545e-03
-1.023065876881855624e-03
-2.373179006101987405e-03
-2.555723728750872864e-02
-1.703367932489024267e-02
-6.712047210001170598e-03
3.264768512034272544e-03
9.166301702838170872e-04
-1.301471872521760579e-03
-1.467722826819448491e-03
-2.217491124649390889e-03
-2.266334948277231968e-03
-9.789532198371416177e-04
-5.388972330623783029e-04
-7.429795791098457464e-04
9.416498399473078023e-04
1.363166917332959288e-04
-6.067582450678633485e-03
-9.295408491507979945e-03
-7.651310653741063596e-03
-3.307260306453285292e-03
8.855695018072411856e-03
4.416540369905139554e-03
9.054382565445223338e-04
1.678369421108547033e-02
4.388534728462755753e-03
-9.205464884898562419e-03
1.714737055937166563e-02
-3.335106533684304656e-03
-1.159494358512516872e-02
2.015669097617772687e-03
-5.356931528316990522e-03
-4.157987969201799687e-03
2.946877203148078311e-03
-1.937627469470919747e-03
1.171693427634453149e-03
1.493865588498566321e-03
-1.971437922192107763e-03
2.194257769547379618e-03
1.412970555163341505e-04
-2.277564149296654617e-03
1.614556282046624076e-04
4.376431439619860551e-03
4.537088495737872512e-03
4.646174531616526393e-04
6.879375239879821809e-03
2.608126102707667131e-03
-5.209472845599714963e-03
5.871866043868340275e-03
2.520580409533548262e-03
-1.639739123865010997e-03
-2.858341892913898123e-03
-9.595168663917159587e-04
-1.452465583704364797e-03
-5.831928804900124094e-03
-1.383122727015511678e-03
4.774227057014963742e-03
-2.248512844338870342e-03
9.883687405349856486e-04
7.809789432548879667e-03
-1.336928523690990425e-05
2.457986764610274729e-04
1.626380464352242825e-03
-2.806998153847902518e-03
-9.470979918465880854e-04
2.372355911662988627e-03
-6.134678596749913553e-03
-3.692957729584692757e-03
1.021320486054175464e-03
4.776149946478458475e-03
5.911144269878636920e-03
-2.592787623675746507e-03
9.858383532282037967e-04
-1.587572752812236145e-03
-7.342040240926971280e-03
1.829997320979649201e-03
1.900084951584303994e-03
-2.777392329659037536e-03
-8.485885797659376353e-03
-2.277682546250453348e-03
4.463034933055340728e-03
-9.426654235669948423e-03
2.289942997183112231e-03
1.001537394157621386e-02
-4.084229513840731234e-03
1.018707294054612723e-02
6.890225610899186962e-03
-6.488463329677419348e-04
-3.965938663615786036e-03
-1.597811528195103954e-03
-2.807519012634764402e-03
-3.456694632556830873e-03
-2.342708377793241772e-03
-1.422651650160366337e-03
-2.066405889666444139e-03
-1.190386389457510821e-03
3.311442790960148885e-03
-4.954989642815204416e-04
-5.949305554539867369e-03
-1.099795304180047019e-03
-3.108892677714994619e-03
-6.063653888648132088e-03
-2.744506514705590938e-03
-3.289730194591063139e-03
-3.642165143705356802e-03
-5.409774880220261269e-03
-3.643105587246905832e-03
1.514272452331440200e-03
-6.773229224279128657e-03
-6.410223285832493574e-03
-4.378405112449199402e-03
-5.099757798463422885e-03
-3.896545169910846200e-03
-4.250437616259856652e-03
-3.139407187548036329e-04
-1.441625603517780220e-03
5.362928322851785194e-07
-4.291101042724674783e-03
-5.076152314331125806e-03
-2.854983458679309551e-03
-9.299417756519207231e-04
-2.658260407377870116e-03
-1.027251734390238801e-03
6.898868295827008347e-04
8.173627223017015594e-03
-8.854094909033599333e-04
-5.619163332233298967e-03
1.293089380663793976e-03
-1.852392492617609479e-03
-1.573179254164345890e-03
-3.273859587840954790e-03
7.024188324903587327e-03
-5.805286563300173647e-03
-2.175576662054677819e-03
-2.998385146641963008e-03
-1.403081028841717676e-03
-3.461565737884704291e-04
-1.395076575206255541e-03
3.997384396955656373e-03
2.766696796683083457e-04
-2.841020813717432935e-03
5.388111896418959794e-04
-4.534713385523773607e-03
-4.625480675909240426e-03
-2.900691853983884856e-03
-4.975381725322572044e-03
-3.765689022208416979e-03
-5.167961175940558207e-05
-1.574835933418988710e-03
7.988511756380128675e-04
2.215545805270024461e-03
1.915801598389546209e-03
-1.486136565106676395e-03
3.393331187909226672e-03
2.810162381954319465e-03
-1.983481043734912439e-03
2.026293470038527226e-04
-5.203435186354989561e-04
-7.945743966752545325e-04
-2.587947398146700669e-03
-8.090445240561596613e-03
-2.425055288532495818e-03
-2.764095283394167341e-03
-4.495511407737123356e-03
-2.728013775136446835e-03
-2.969670446126376718e-04
8.356869120058677686e-03
-1.119615159135679480e-03
3.379244145653493604e-03
1.524648942836094112e-03
-9.458341885158929978e-04
4.389720290298312032e-03
-1.366750067422377479e-05
-2.937715269280728823e-03
5.203074434202808497e-03
1.676017618896295618e-04
-3.930688129281022410e-03
-1.591047974153291618e-04
-4.304292863513918717e-03
-2.218912581440789147e-03
-8.456883666220103499e-04
-4.265576620572335796e-03
-1.713455423531436280e-03
-5.771416838927207566e-04
-4.035969510514539858e-03
-2.420011783190313941e-03
-8.325703061105347398e-04
3.566715257986734656e-03
-2.556065981578820989e-03
-5.929514091437184525e-03
-2.506375994772318695e-03
4.031502623216818605e-04
-3.649608492370651127e-03
-2.902364778061607489e-03
5.746445179808860708e-04
-3.908846452425841149e-04
1.555194039768448820e-04
-2.939423317300246335e-04
-3.735119923915836593e-04
4.903612243304988688e-04
2.630818949752336501e-05
-1.951425324605877564e-04
5.383757552084737818e-04
3.626880228684673272e-04
-6.705313716774951313e-04
-7.772663426072044151e-04
3.145300984981161158e-04
-2.797526836593245900e-03
-2.418920013999533488e-03
-2.195173919029187303e-03
-5.223057469138027605e-03
-4.386355709373910075e-03
-2.976983543507516657e-03
4.453416387944661610e-03
-4.446008163221162705e-03
-4.418641343971941270e-03
4.483928409831826334e-03
-1.679067986891394576e-03
-2.671675265197509877e-03
1.948822640518901601e-03
-5.327901557296203881e-04
2.742210140661015304e-04
-3.401406328477550329e-03
1.005220798028688082e-03
1.782184855211823259e-03
1.910906199001931446e-03
-2.740660735778603641e-03
-6.027464227919636028e-03
6.239024071284363093e-03
-1.206394052755496325e-03
-1.040351398737199631e-02
-2.847152868555730305e-03
-4.698076887706813254e-03
-1.536548934316086298e-03
-6.745293543522593548e-03
-4.118666343523921976e-03
9.123579986407833888e-06
-6.061412395762609713e-03
1.406784994853709945e-03
7.912698191514175305e-04
6.925462242006991120e-03
4.021274970415518804e-03
2.092924904770599066e-03
1.875163051383498805e-03
2.653309980481443828e-03
5.667381772228366737e-04
-3.388426275787375513e-03
-1.032846041679662133e-03
-2.953649830874854193e-03
-8.327016403828948598e-04
-2.438855777963087803e-03
-7.980665945881771847e-03
-1.071602340549867227e-03
-2.426439025489443308e-03
-8.478153261873306451e-03
-1.351253750177017470e-03
-5.540722789220627748e-03
-6.220282374992066633e-03
-3.200134434014202060e-03
-4.118895673593889022e-03
-2.119993024164808421e-04
-8.905189268112854604e-04
-7.611189884657067195e-04
-6.129532353877981858e-04
-2.032890185356815704e-03
-3.794418504049508652e-03
-2.533974339337868604e-03
-2.621958789084904810e-03
1.785823695581738226e-03
4.354060269342126602e-03
-2.120612669037967406e-03
-1.794424817178435138e-03
1.315241026305311641e-03
-7.892108244134697160e-04
-2.783662392318636460e-03
-3.958105585546330130e-03
-2.149696024592639108e-03
-5.036420550422407959e-03
-5.432067314328471947e-04
-1.956625570538317576e-04
-6.080849985151712093e-03
-3.752066933132190089e-03
7.974623896144322722e-04
-3.179520631624255418e-03
-4.084849012364132927e-03
-4.234139668217914640e-03
3.218252533989888770e-03
-1.508898635586632118e-05
-2.250643843157497034e-03
2.862756094298927762e-03
-5.184635389208973148e-03
-3.681125205342897569e-03
-2.697986902695319409e-03
-4.025324907254187838e-03
1.217136139589304264e-04
-1.010463119516402924e-03
-1.648746878262858685e-03
-7.970819534198701197e-04
-1.724430850418565966e-03
-2.139573304567450769e-03
-1.142369838952882627e-04
-9.204572283791878076e-04
-1.299149285071655177e-03
2.814088067848889447e-03
5.058235006222698039e-03
-1.688650383611976693e-03
-3.254827094580550056e-03
-2.398840680923893832e-03
-3.794845259942312282e-03
2.038028232642328033e-03
-1.281325933507527831e-03
-2.078882645540654130e-03
4.138537713594186637e-03
2.594749734874244283e-03
-1.427790282844908481e-03
6.440365189182998239e-03
1.303962143196053195e-03
-5.937760022172483727e-03
3.552461230657720601e-03
-7.820835912243264808e-04
-6.983136632532181177e-03
1.741706283757788951e-02
1.311467847917415636e-02
1.812816599724284203e-02
-9.629116508400590788e-03
-1.172009919359797217e-02
-7.514244949483399674e-03
1.965750292864367355e-03
4.657272961367482970e-04
-1.813929675248275586e-02
-2.899215677235738534e-03
-2.400387756981227187e-03
-1.154187532062499595e-04
7.174390075734413640e-03
1.621712276945540265e-03
-2.449274548747788294e-05
4.555392053178270936e-03
8.915141120837332886e-03
1.748541488448577055e-02
-1.397853935472334434e-02
-1.991098614962409988e-02
-1.190797313212509784e-02
-3.725611382630059348e-03
2.072451892541521748e-02
8.229586757800654365e-03
-1.336812076799991957e-02
-1.613688024170967586e-02
7.265406287689027409e-04
4.589279690997076326e-03
-3.548127854499965456e-03
-1.029410820042203960e-05
-7.039234426724075462e-03
-7.983332403407575675e-03
-1.706348964522084706e-03
-7.905340213892133455e-03
-3.387494730039936064e-03
5.078468709012348876e-03
-5.961861354454181874e-03
-6.889870823710114202e-03
-1.259116955497945924e-02
7.229652670774074780e-03
1.158943026690456742e-02
-4.961622136820107061e-03
-9.192306539165725002e-03
-2.822455483557271237e-03
4.283797749173331006e-04
-1.270133286760050106e-02
-1.240974770237730611e-02
-1.706141823012117739e-02
2.889704377887743550e-02
3.860237704458491237e-02
1.590548332918343202e-02
-3.131394486943690682e-03
-1.029902378008670620e-02
-1.456564211789225516e-02
5.071559082222171569e-03
2.402050160626335775e-03
1.741999475820174862e-03
-9.596913445810671683e-03
-5.412796811605434869e-03
-4.656423464112161709e-03
-1.903431087388235453e-03
3.390967916390810830e-03
4.007363683017480145e-03
1.377968893176649383e-02
1.099021375659964272e-02
1.085760675440130760e-02
-1.688811148727326766e-02
-1.422862784264933636e-02
-8.172286082560008269e-03
-2.906313995057076011e-03
6.372582191610001202e-03
2.224588028849816199e-03
1.100454001073208638e-03
-1.288698654682917917e-03
-9.808262130083712782e-03
2.687529612778797889e-03
-1.376968691170065220e-02
-7.314576038479307998e-03
1.006689132914483087e-03
-9.214056862850374466e-03
1.161517023530064764e-03
2.336010315318859474e-03
2.483430881354597498e-04
-1.201729764566760589e-02
-4.563804076099870627e-03
-1.213168441242899222e-02
-1.895980194871041413e-02
2.715004701412930804e-03
7.821295957235937027e-03
6.611209676230037947e-03
-7.398493777566544048e-03
2.103110231430992325e-05
-8.119119244848358114e-04
5.977147033484586614e-05
-6.128965015317990907e-03
-2.862466974833535044e-02
-2.347909168642888737e-03
1.473785485587914305e-03
-5.120687745811747932e-03
1.719530048600175463e-03
4.522893317789319217e-03
-2.065797161441753054e-03
7.879424888424368251e-03
1.164390646842734800e-02
-2.043916444037131505e-03
-3.539791028907957222e-03
8.432070684714146336e-04
-1.492385738869870604e-03
3.481248279837712185e-03
1.122446816765035327e-02
2.081963501981598259e-03
6.246666976515089821e-03
3.299212289869556895e-03
-1.262761312677416776e-03
-1.215648650732672510e-02
-1.196538978180396087e-03
-4.280171067242465217e-03
1.383197433273850203e-02
1.265988906100307294e-02
8.526811567697153635e-04
-5.783761053175398223e-03
-7.163022410144775573e-03
-9.242924885111410832e-03
2.129673804393646640e-03
3.173835239580854572e-03
-1.571104008992479538e-03
-1.312647996358481776e-02
-1.182420175649999579e-02
-3.040003838801525263e-02
-2.393526969693774049e-03
9.819351022892722908e-03
5.809535596838485104e-03
-3.928514709082818641e-03
-1.860459302062720827e-03
1.166577974362203139e-02
-1.270819210442755004e-02
-1.139205340151562725e-02
-4.587973583152793813e-03
-8.478921566924287403e-03
-1.162370086844314752e-03
2.538973489543210581e-03
5.849720894726032072e-03
5.359977277024269120e-03
1.005259608422046612e-02
8.177211895263339575e-04
5.826882302883852789e-03
-1.151264138970862876e-02
-1.034144902811983194e-02
-1.067731472229550751e-03
-1.198094942718774120e-02
8.776887651939914090e-03
2.291942199441716118e-03
-4.919097659321130557e-03
-1.321187467125285210e-02
-1.375587463519211458e-03
-5.879044132161666096e-03
-1.351506565278372783e-02
1.303368800932956824e-02
-6.820896577042133381e-04
3.384103097906307912e-03
3.336397601921511826e-03
-1.377416464134724114e-02
-7.307811999921061093e-04
-2.250846006066852673e-03
-2.118909267901143093e-03
-2.201704628701963394e-03
-3.235818460287451931e-03
-2.307427267680067697e-03
-2.602722994741981082e-03
-2.383218811221171282e-03
-1.083623179718045271e-03
-9.781539945021735898e-04
1.006412592796835802e-04
2.727860964036395337e-03
-5.549128794924245746e-03
-2.662667980201553243e-03
-5.794705288028719403e-04
-1.333941244316048935e-02
-1.178062296592633819e-02
-1.233368227000584613e-02
-5.751248983826972618e-03
-7.036216920685919515e-03
1.371827674562666952e-03
-1.481677018951909133e-02
-1.661412435772692195e-02
-1.851621832806279663e-02
9.965217562465586432e-03
2.174093874782485197e-02
6.441662179677530575e-03
-7.234297850144290679e-03
3.911331266517986162e-03
-9.954326353358081830e-03
-5.230379408377909892e-03
7.030417268498925960e-03
-8.611624542621626466e-03
-7.449195383235920898e-03
-1.104255962552740285e-02
-4.840850729161319706e-03
3.036535768969982670e-03
-3.293025952857819762e-03
-4.560570125789323304e-03
-4.341177497894578205e-04
-4.139389572656416473e-03
6.311983221952044594e-03
1.405176759960162676e-02
1.074328898312789694e-02
1.078316372379653325e-02
4.891940104977724434e-03
-5.182796243718984161e-03
3.315974007204516676e-03
-3.896707323987985000e-03
-1.185235114036380447e-02
1.647906530239974954e-03
-5.865195109741555383e-03
-6.479525973202251293e-03
3.244122106026815257e-03
1.504901985526750467e-02
1.749498587655931581e-02
1.172864223042370535e-02
-2.449385406666670581e-02
-2.362434811983279981e-02
-1.716688147707370188e-02
-7.166308610970935876e-03
6.019294283967283402e-03
1.275661298284272611e-02
-1.354826721187378860e-02
-4.642859106222215100e-03
-6.526767261342107836e-03
4.188609248271704666e-03
-2.344137053526132788e-03
-1.177863992706969232e-02
7.616497813123517154e-04
-3.782356217815890931e-04
-4.372898677390951987e-04
-8.405469125471594317e-04
-3.544763355423406672e-03
1.608594374128910010e-03
-2.491601187499221850e-03
-3.615462644336815516e-03
4.483022453271692451e-03
2.726137782343451745e-03
-9.098196693567121504e-03
-8.138874281039173639e-03
2.087969365402316327e-02
4.289672753735956044e-03
2.872844826501295078e-04
-4.862481047210704191e-03
-2.014364978830036554e-02
-1.044006699238894144e-02
-3.983022539997839104e-03
-1.412005375194233872e-02
-2.910425350910214853e-03
1.264272081295019987e-02
6.040381320691126481e-03
1.770285052125865691e-02
-9.012155754002725699e-03
-2.391312912236941840e-02
-8.394994214982548497e-03
1.414794498414888822e-03
-2.695022367726898019e-03
-1.918912744613698656e-03
7.539453265006964937e-04
-2.949143603163549045e-03
-5.624720716688341206e-03
4.403174982836891016e-03
2.088814986506627291e-03
-1.556552783055423347e-03
2.252751056765178814e-03
5.275720917384812015e-04
-7.725532855708607015e-05
-2.197803360233559211e-02
-1.381783180816392557e-02
-2.064641138164572537e-02
1.610758274191674555e-02
4.231720109895453080e-02
1.027575385016015093e-02
-2.783845453440132300e-03
-4.855034185890561016e-03
-3.439499032540707917e-03
2.076810856921170595e-02
1.822036334993317949e-02
4.694427264211358669e-03
2.053672716128950287e-03
-7.065139519153174237e-03
-2.611813033998224530e-03
-1.214026078415340881e-02
-1.112336822636660755e-02
-3.541659178648669595e-03
-1.808546417639303634e-03
9.572578558239278794e-04
-3.879845574309630056e-03
-1.252911338082810010e-03
5.009317531488290121e-03
-4.107080432186975376e-03
-3.822401381741561549e-03
-6.299487596172689656e-03
-5.993569613393916196e-03
-2.744693239979105037e-03
-1.248673221263434715e-03
-4.782702087119918705e-03
5.603133352418209574e-04
5.155665944191888984e-03
1.647277090393868895e-02
-2.607546593395963525e-03
-2.994738579576417502e-03
-3.010109302631502285e-03
-7.582375458745611516e-03
2.348695000967401976e-03
-7.874801657602254618e-03
1.067504037921369192e-02
8.520178015101043459e-03
3.101295621316052433e-03
-1.135565379647979559e-02
-4.860794220478871150e-03
-3.728781586642956457e-03
9.417194895066762286e-03
1.057963525211092111e-02
1.255008075980764901e-02
8.323138407282066470e-03
7.191489234789446260e-03
6.161937326771856245e-03
4.087024718676240780e-03
1.237398041793614373e-03
-4.561795596337116405e-03
1.834451032027161052e-03
-5.107079828203763862e-03
-1.254968532375204567e-02
-2.311961231176347994e-03
1.412649122948826143e-02
1.287393516598665799e-02
-7.829475417597512796e-03
-1.589160965465693034e-02
-9.985262422424553627e-03
-5.511138243426182484e-03
-5.506402742193117379e-03
-7.054104708704105227e-03
7.712961728485960740e-03
-2.280240926361349393e-03
-1.382782579111679552e-03
-1.382855024232803633e-02
-1.193245211943713517e-02
-1.451202593698099064e-02
-1.249935063895554624e-03
3.865774847287342057e-03
6.914648931810330953e-03
-2.609791465347561026e-03
4.260105226607489859e-05
1.089668846706796273e-03
1.096473590674574249e-02
7.697501723383947184e-03
5.461222937102715690e-03
-1.027346116269925794e-02
-3.820448916217018213e-03
-2.058163728599867077e-03
-6.081740114285649930e-03
-2.758217925416798946e-04
6.939509656798279131e-04
5.894704575271819506e-03
-2.225070800047421107e-03
-3.863629606685691745e-05
1.627690802731955252e-02
6.921096393123182290e-03
-7.712991077255712015e-03
6.677518595575920521e-03
1.195350059370152603e-02
-3.921915182142382550e-03
-1.127401015304645496e-02
-1.935709230621706148e-02
-8.946106206739277283e-03
3.845430897964203371e-03
2.353057386656594741e-03
-6.854074152312997215e-03
8.110001153721412698e-03
1.508419348747311317e-02
-1.735204150963872436e-03
-6.769031766875180552e-03
-5.600292082571812873e-03
2.659152543324344413e-03
-1.058303662005794996e-02
-2.719294814635862378e-03
7.681149206747057805e-03
-4.741374539760259514e-03
-2.091434111859390502e-02
7.313661675643570552e-03
1.972590284896751783e-02
1.577363377894289848e-02
-8.531903620952950920e-03
1.502494975191763114e-03
-6.923860120430550512e-03
-4.905767966312172754e-03
1.003377439415225475e-02
2.919595070774269781e-03
1.165078394383384187e-03
5.884663125402041228e-03
9.098732939161633879e-03
5.341711348394619432e-03
4.555954418820454092e-03
-3.834044656570953849e-03
-1.060305958652032858e-03
-2.732226809391778352e-03
1.040972487471449959e-03
5.777533937119454580e-03
-1.514651699024603063e-03
7.942352176267973921e-03
1.154493173596987839e-02
8.279919717879924076e-03
7.577340445593869211e-03
-1.475006608507770708e-03
3.642609736971321854e-03
7.288701782707304863e-04
-2.065127882727560253e-03
-4.743992450022124427e-03
-2.188666431580028795e-03
3.385889714796394816e-03
3.863885404384160335e-03
-1.242138331510164555e-02
-1.803150414619613881e-02
1.599718335814266645e-02
7.574957634424438549e-03
-5.304181531840847230e-03
-1.098361488905663652e-02
-3.138345044849148550e-03
1.129419670028339664e-02
-4.122542599829919115e-03
-9.267953774936096194e-04
8.239623548076228671e-04
4.209715551484508392e-03
1.527320481656008026e-02
7.332795374382469929e-03
-2.739557823141369839e-03
-3.046429332002660844e-03
-1.334027167062248149e-03
-2.069381291800648226e-03
-3.408300435378899991e-03
9.259816905756002676e-04
1.483169891580640807e-03
-8.990532211848685160e-03
-5.617153259728663653e-03
3.909822562201369089e-03
4.187004855581697750e-03
5.152722880454616537e-03
-9.134672361329271989e-03
-1.243974019824537446e-02
-1.273970254330545476e-02
-1.345917126024764919e-03
-7.315869012063327785e-03
-9.146796801515385753e-03
1.371245268787812423e-02
4.457394453436567747e-03
-6.689787462602654958e-03
3.945256258726021793e-03
3.445708840706224272e-03
3.624956297498380456e-03
9.191269301254767835e-03
8.606903629717733636e-03
8.186884581168216157e-03
7.273865052794493621e-03
6.818478419685872205e-03
6.050881273096472661e-03
2.970346353634035260e-03
1.593873296617373883e-03
1.196311617747548460e-03
2.914259001031757352e-03
2.336490315066099173e-03
5.662418794120182598e-03
-2.804513756093816694e-03
4.014789055087663650e-04
3.994535469081918829e-04
3.450015386499283385e-03
3.224415100629906324e-03
1.534531937785662929e-03
-2.250603302928266998e-03
2.794115795905158521e-04
-2.849602271063569718e-03
1.127035082486002593e-02
2.441385444101734029e-03
-8.970710979561548424e-04
-4.469445212763882742e-03
-1.041865416067789055e-02
-3.071496425182125567e-03
6.314376381535008464e-03
1.882411710285154544e-03
-3.678348042832556633e-03
-4.491013005785673452e-03
1.884115329135644182e-02
2.559558728909147596e-02
5.653966657366070285e-03
1.512447915350658215e-03
-3.046869872483356622e-03
8.223939719988053107e-03
-5.830686103812128941e-05
-6.130984723986682150e-03
-1.139655455094038027e-03
-2.647986108769815380e-03
5.718797008477422179e-03
-6.609347891065181502e-03
5.334672123203244853e-03
6.726298258977200274e-03
-2.631259935953823067e-03
1.654744498689202006e-03
4.819582523526127170e-03
-4.068416826317527470e-03
-5.330262547781634830e-03
-3.395158365218444579e-03
6.162305576598637626e-04
-7.878348688127578001e-04
3.161696161801386389e-03
-5.524996114634164041e-03
-1.493967612906761319e-02
-1.196448939096545275e-02
1.161215679222576957e-02
2.317309040426760499e-03
6.010658320749947756e-03
-3.947258771626352587e-03
1.146824648995250400e-03
9.302063533010522176e-03
9.982132916765753053e-03
-9.992964157476273354e-03
2.473676196320382433e-03
3.917309587832273204e-03
-4.222990926846521657e-03
2.364282982152255026e-03
2.442589979399233373e-03
-1.999523805365225042e-03
7.622353271631104009e-03
9.168447543428527580e-03
-5.757938690359405698e-03
3.960229537651782476e-03
3.186564764617004063e-03
8.413674419015799814e-04
-8.133045498796139200e-05
1.503914065442869298e-03
-9.225686140141122968e-03
-6.611966728130302083e-03
-7.150491011519845112e-04
1.307307892612963318e-02
5.639298914580146913e-03
-5.574179400853135694e-03
4.993845323476747353e-03
4.294426759225757409e-03
-5.729937955942429433e-03
3.383231488592924364e-03
1.209949527649601189e-02
-3.799097068353717629e-03
-6.350703670864999047e-03
-2.617041538279520421e-03
-1.975685189900688084e-03
-5.229034315825678569e-03
-7.142712042863514667e-03
7.687374544213051650e-03
7.881795160499700803e-03
6.332270480919914221e-03
1.406379298926577551e-02
1.345776622651258074e-02
1.441485833902101700e-02
6.620681768074505695e-03
6.089175856803092507e-03
7.692789392232265988e-03
-8.462723936631586646e-03
-8.173305986674504753e-03
-1.035796553884736279e-02
6.379593055136618604e-03
9.394436159861884947e-03
1.335569831080730269e-02
-1.443941244659866126e-02
-1.490088477881614144e-02
9.786000494866524489e-04
6.133216775159914050e-03
9.485485929533483268e-03
1.611087122412874304e-03
3.585632498776726573e-03
1.526566218273385685e-02
1.921918089248106842e-03
-1.498102236695958694e-03
3.271437390591887262e-03
2.085121191485769191e-03
-3.245041545429634341e-03
3.171885261428715203e-03
6.491236438472640195e-03
1.210683414843186328e-04
3.406655253301849842e-04
6.807283484074873846e-03
2.757170890000383914e-03
-3.246681443025097036e-03
-6.048011424801089976e-03
-6.271956272926351196e-03
-1.606691877748690723e-03
6.699114984248916681e-04
1.456287872709108658e-03
-1.554576375202267264e-04
-4.548781626409779955e-03
-4.238630010685390248e-03
1.998716999463421521e-03
1.244955481341810657e-03
-5.954778690861668201e-03
-1.644685168172669264e-03
-5.355544655913763684e-03
-7.716081714646839604e-03
-1.204790714392072045e-03
-9.794181651174662696e-04
-3.983348706586236840e-03
1.989253404527218869e-03
-7.324852543871644955e-05
-1.088698701958046083e-03
-1.608436798937848368e-03
-4.262940632175351782e-03
-4.056003804548694242e-04
-1.119530279915291558e-03
-4.451732705591860025e-03
5.974483437710872155e-04
6.886601152239239451e-04
-4.430572660056388045e-04
-7.703609684916227184e-04
5.253743236178640835e-03
2.390780689164537405e-03
1.679585042375826304e-04
4.085891554654502364e-03
6.955854619730703417e-04
-6.029092278166871266e-03
-2.560508837659473437e-03
-1.576735496405571061e-03
-6.231170462503539224e-03
7.256277213658741954e-03
1.042464586586730902e-03
-8.406081846538241559e-03
-2.422293305240345428e-03
8.561038126606731156e-04
-4.484463938181077261e-03
-4.881785004816042994e-03
-3.992933609377052884e-03
5.848256945162086211e-03
-1.068914445721525245e-03
-4.944931412965909365e-03
6.607979821343395142e-03
1.573456756065555202e-03
-5.302115534343878646e-03
-1.992080536821527574e-03
1.793280169830330098e-05
-2.440859076819820988e-03
6.499066992344293067e-03
8.284602578652108936e-04
-3.570294538633380418e-03
5.992509916762772497e-03
-4.768667012665498729e-04
-4.142858646175457023e-03
-1.196345314296439269e-03
-1.700272250991034014e-03
-3.054234706775635268e-03
-1.929623737453865437e-03
-5.836755773837471427e-03
-6.789099172955611466e-03
-1.000403909725749996e-03
-1.878348489585185063e-03
-5.585645877660651813e-03
-3.716170002789520328e-03
-1.307792158893321573e-03
-8.601396722411124929e-04
-1.675155789334258115e-03
-4.051892523128212270e-03
-2.211160939976795827e-03
-3.051545759950495020e-03
-1.754942536512522780e-03
-2.572698299202655272e-03
-7.985123021437326093e-03
-3.405993202499661091e-03
-1.234063090848445390e-03
-2.833687533430455721e-03
5.357630755444021953e-03
8.343580084150552592e-03
-4.472149872374190163e-03
1.078052751008454994e-03
-1.413061664706748806e-03
-1.751505700392418530e-03
4.246203840216899138e-03
-4.850944196913338329e-03
4.015486189969667136e-03
-4.084842109855733329e-04
-5.221480093680594230e-03
3.529581644779698768e-03
5.330987067454573750e-03
-2.905563623996113357e-03
4.924512136481760602e-04
3.118690580473506418e-03
-5.846212644099124613e-05
4.903302644809896457e-03
-4.425151649375174074e-04
-5.618851661302861657e-03
-2.232404186877768801e-03
-1.953765648726460240e-03
-6.141237434065962772e-03
-5.781100521279068476e-03
-5.853125082110263722e-04
-2.969620236624670451e-03
-1.233272875660730876e-03
-2.345613028062909500e-03
-1.854144935462556220e-03
-6.711960958627010126e-04
2.332901942744890472e-03
4.142680903797176135e-03
-5.509604444565390337e-04
2.559477589038896325e-03
5.055698669864229153e-03
-5.051413338043650621e-03
-2.726180425124867957e-03
-5.460604510108891738e-03
-8.788158075970133737e-03
-3.307429647631803405e-03
4.235527562303655243e-03
-1.019490856768426150e-02
-3.962050343725233119e-03
4.741605471859452851e-03
2.507938364730068551e-03
-8.117932838513430361e-04
-9.288656747208265917e-04
2.690776727755974165e-03
4.508591015612754306e-03
1.160198210748947896e-03
3.858617992627379114e-03
5.787585349102696008e-03
6.018206348635327975e-03
-5.628691706157456197e-04
-4.047624860060371546e-03
-2.765032298261144682e-03
-2.024870445492595733e-03
-3.207434000797689498e-03
-4.497578372115685827e-03
-2.622787499079763315e-03
-1.083700159066159274e-03
-2.610599487956582164e-03
-4.477515371526281582e-03
2.457120922156190088e-03
6.371946909218645328e-04
-4.190674774198566502e-03
4.427283503063639096e-03
6.396422087450517012e-03
-8.743631500508863494e-03
-6.436343579409209599e-03
-2.131356853686703409e-03
2.641933174946835619e-03
1.285561307828159616e-03
8.176148477942356751e-04
4.569984129694367142e-04
2.323213137139471137e-04
1.472978646796626516e-04
6.490146118201121006e-04
1.054180024502374569e-03
7.151701931600248658e-04
2.234954288951922219e-03
4.450051668810920064e-04
-3.110140486425087662e-03
3.235263341209619419e-04
-3.051452669357715484e-04
-3.302268921412553158e-03
9.588786224439776844e-04
1.531460767936610682e-03
-3.865114819380104138e-04
9.637336792408751282e-03
-5.976871224601297767e-04
-3.394944694071663424e-03
1.104405432003194992e-02
-7.027762487680015409e-04
-6.449014580392661324e-03
7.399342027566036852e-03
-1.796278056115643289e-05
-3.381804152577040385e-03
2.400462506382680054e-03
9.684130638044016054e-03
-1.528951936904298248e-03
-9.371720454665635703e-04
4.530782441625167550e-03
1.656368301279204135e-03
3.829106296870871725e-04
4.114225773083078457e-03
7.677744213185395787e-03
-4.801895739314994242e-03
-7.757701912139211044e-03
-4.075241384301272508e-03
2.301173873370779884e-03
-9.824289337695140019e-04
-1.556294595477774028e-03
5.477420152172843108e-03
7.373467194033382112e-03
5.604202683007394534e-03
1.067465607997078545e-03
-7.927988208621732048e-04
-1.209886962849468202e-03
2.916747944478732769e-04
-3.745974683386190957e-03
-3.874648034476345457e-03
-1.544223936518295101e-04
-3.838959131792746716e-03
-5.468030133087590887e-03
6.389337445028371934e-03
-3.566139349043783314e-03
-4.193338668314602023e-03
7.942390879229788495e-03
-1.476259760551189033e-03
-7.933135089922792316e-03
2.742949917461520552e-03
7.930905794381544515e-04
-9.305088159828364507e-04
1.292139753670021015e-04
6.794277040502144215e-04
1.865430917201596093e-03
-1.892410179636686571e-03
-2.868047455824220254e-03
-8.316874423670160728e-04
-9.471009219533900458e-03
-5.184185444199734295e-03
5.443223863526442914e-04
-5.558248103127143985e-04
-5.852606886600882768e-03
-5.435648056149477818e-03
-6.548933223110367692e-03
-4.392356466449557836e-03
-4.243419297528069033e-03
-4.623019923731304902e-03
-5.136024248072795263e-03
-1.603385249787750303e-03
-1.973218220280067731e-03
-1.690406362289151949e-04
-3.576508137916855614e-04
-2.719913292157725981e-03
-4.179751397459729838e-03
-2.517681627013700421e-03
3.096744671010321758e-03
-1.610819311573726551e-03
-5.526253156472885064e-03
-7.018328428569284121e-03
-1.450861983342437329e-03
5.115641891370485000e-03
-3.449402031565759839e-03
-4.365620742718239085e-03
-2.849294316351912593e-03
1.709319839099730884e-04
-4.733275577938430081e-03
-8.489648454166800334e-03
1.349781949773172041e-04
5.856138791159222218e-05
7.545064274627545132e-05
3.189333418469383744e-04
-5.782037360743228112e-04
-6.387753850100213234e-04
1.600097938784093192e-04
5.187322307092397371e-04
6.074059122026568788e-05
1.301517905682539463e-03
6.659821392294209934e-03
3.855481129734715604e-03
-3.888207879207565987e-03
7.049661851846809706e-03
9.052470749845248355e-03
-8.968217170561756241e-03
7.121380901483289130e-03
9.329842477982210752e-03
1.080060857499578163e-03
1.422331826357388536e-03
-3.025134007304812640e-03
1.514905542190986970e-03
2.280704623324785385e-04
-1.408057583847586048e-03
5.911384497851940659e-04
-1.876347964834975367e-03
-4.385627968065794100e-04
2.864647229379654273e-03
2.681654923225235305e-03
-1.122255472378768867e-03
-4.609760292425739078e-03
-8.134842556245480000e-03
-5.834373851787480296e-03
-8.762554490599759258e-03
-1.033243380937604039e-02
-3.939285479577361165e-03
-3.635016932145877008e-03
1.417120777801806047e-03
1.673496785634980043e-03
6.208288055698728790e-03
1.168956217842864222e-02
3.031666801252486370e-03
-3.012040042537690934e-03
4.890139169820791054e-03
-2.261421020327008743e-03
-4.757775878749393242e-03
1.062697229511326428e-03
1.101447659422624117e-03
-1.029667857914433673e-03
2.029613352355964274e-03
1.734938025266937606e-02
-1.117861309371339512e-02
