2.185665727044993137e-02
-1.237490564447593366e-01
-1.989269129200216257e-01
5.695257733692700441e-02
1.828706002063867561e-02
-9.486899221420973249e-02
-5.200134801478164398e-02
2.999066407890023291e-03
-2.483908279763348895e-02
-2.738248594263854863e-02
-1.998903470391449888e-02
-2.603452204397193465e-02
-2.036430086722937523e-03
-3.008012401539613898e-02
-5.770965144451570272e-02
3.434771288498143782e-02
-3.240264197893413106e-02
-3.701236166514404458e-02
-2.633882755462453595e-02
-1.485016193207407999e-02
-1.392388054882967921e-02
-2.234512347172311342e-02
-3.848242678746463530e-03
-1.227783106051871104e-02
1.338175569577395099e-02
-8.502807824127819403e-04
-3.185333973913443556e-02
6.443970695110876057e-02
8.054825293674447440e-02
2.461310826204386043e-02
3.111361361241841289e-02
9.681793445535044618e-02
4.573055149667974717e-02
6.129487828565888252e-02
1.677466355303613432e-01
1.441629471851786914e-01
-1.242347584370440822e-02
-6.524058827159655120e-03
5.550297691774688791e-03
1.193147729708982606e-02
-1.983351504106459912e-02
5.492008133446432336e-03
5.208178685697278931e-02
3.313643758812699625e-02
7.675490712394388362e-03
-2.046045855603289415e-02
1.368650027028088002e-04
-1.546114407850635551e-02
3.941190873884634072e-02
-1.025047850628796470e-01
8.543301772828409968e-02
-4.707609288081538411e-03
-4.557160497200170995e-03
1.478847661603056862e-01
4.390292070519630913e-02
5.449059844847198297e-02
-2.763357366849991323e-02
-5.488421333368275097e-03
4.989377389636569238e-02
3.390761222688962878e-02
-4.742898842520323205e-02
1.039723131714711223e-02
2.214667742838827627e-02
1.478049863646802575e-01
1.201366878842433095e-01
-3.264020978372872157e-03
3.337672181878009736e-02
1.141658432025587921e-01
1.150010111726977452e-01
-4.078575035786368569e-02
-8.206484800880207639e-03
7.053243467687284052e-02
-3.595517343880987732e-02
-4.723325880772689944e-02
-2.117899782324843619e-02
-2.039925467756271288e-02
-3.921686791969589830e-02
-6.015392082313378991e-02
-1.523017214878008216e-02
-2.283291439819775184e-02
-6.296486712206841863e-02
-4.126990435705215482e-03
-7.616240532840694993e-03
3.195043505916691194e-03
4.384226588193616825e-03
1.127171804146076360e-05
1.736432901410546242e-03
1.737919227222141025e-02
4.721924843340189956e-03
-5.755997574861397743e-03
6.176913486597092329e-02
1.428198806065463650e-02
-6.307955564960268657e-02
3.076506903756032890e-02
4.797923911505375810e-02
-7.245437133548261396e-03
-3.935290108121629327e-02
3.314238794015691297e-02
4.599309274863021962e-02
4.718151869368975536e-03
9.123656736107890741e-03
1.186759485863768913e-02
-1.551377313907402640e-02
-3.380988220264063288e-02
-3.054801642374162587e-02
2.022698657688556251e-02
1.940603453868716688e-02
1.787139908115704251e-02
-3.243438169760282097e-02
-1.310708654450431533e-02
-5.397842911004445410e-02
-4.306229824569657999e-02
-2.464676020747853108e-02
-2.818304900944957128e-02
-4.482052809800437382e-02
-1.998761743824918613e-02
-1.180728353297199294e-02
-5.907444582374210031e-03
3.016157351586388341e-02
-7.717364060883731558e-02
-5.101393668168319184e-02
-1.819092667418436560e-01
-1.566844713068088479e-01
1.239170547170707765e-01
1.140780033846382907e-01
1.189888649776715684e-01
-1.414105938223689934e-02
-1.745203720302649503e-02
1.559142433149600382e-02
-1.100272471461602973e-02
-1.708748077179698954e-02
3.212122999693240496e-03
-1.010647457775294342e-02
-2.654529034496696041e-02
-6.317591889602179253e-03
1.753057103099957964e-02
6.997902038319307738e-02
5.296410144969550260e-02
-3.559275552803718712e-02
1.399997383090200755e-02
5.698127426194402739e-02
-4.159773539586669039e-02
-2.276387769269181890e-02
-3.033952239959262359e-02
-1.011308460248069030e-01
1.151303634383101307e-02
9.479623343662136464e-03
8.589506160750876810e-04
6.946747605566455999e-03
2.380854763021213530e-02
6.970107412042512995e-02
-9.267730892011694088e-02
-7.139792763501939810e-02
2.250707026438895572e-03
-9.300604886900659327e-03
2.843266499588483973e-02
3.573573833919950482e-02
3.401122152604261345e-02
1.450833880938178812e-02
2.978265832593388063e-02
3.297696780847207687e-02
4.028644379404597298e-02
7.656773120428939788e-03
2.644282479985781906e-02
5.338030290309186271e-02
-3.353539626671857982e-02
2.848673269913500061e-02
6.713658038534862926e-02
-1.438655913969794260e-02
3.749385007266882452e-03
5.914686305339977856e-03
-8.234118716299569651e-02
-2.611724315847079037e-02
5.489809622493013047e-02
-1.391698320673495082e-01
-1.120210446239311430e-01
-1.015754450944454518e-01
-2.738688958856565561e-02
-1.014666163593833520e-01
-1.356552780401911185e-01
3.209063752824600768e-02
3.862552752598643474e-02
-5.374046750057963340e-02
6.029949197595944888e-02
-2.798740837139405621e-02
1.654784058009610773e-02
-4.728072614208989922e-03
3.694514099061230444e-03
-4.707058455799673080e-02
-2.654565547628091188e-02
2.116988307061337116e-01
5.671087359365253877e-02
1.918564486715505224e-01
-3.026129948725458929e-01
2.228783449226841296e-01
1.648837871249478615e-01
-5.638520592501152472e-03
-5.276609386231047999e-02
1.254773425162878861e-02
-5.061400456176352869e-02
-4.920942906845042486e-02
1.210450991454395109e-01
5.473260874793853432e-03
-1.542441407736585592e-02
1.560625354665394759e-01
3.040429041145241776e-02
-5.525726767609966811e-02
1.191463158166099212e-02
8.344324228127386611e-02
-1.210300486347676285e-02
-2.032101127133400797e-01
-1.251778399091822425e-01
-6.312151383223833789e-02
-1.031152307301234777e-01
-1.818738120492860988e-01
-1.904174000985303927e-01
5.923987043952412546e-02
2.849392577002487527e-03
-2.435464097269460920e-02
1.045693383313654225e-02
2.696374026483825542e-02
4.420536339213906873e-02
-2.073253243593902589e-03
4.519806594603632127e-02
5.864531564513515011e-02
2.633296373774792615e-02
2.523577725099214811e-02
2.125088241488981566e-02
2.943317047724475569e-02
3.700009026027702846e-02
2.726116203450353048e-02
1.012594269580852600e-02
2.146499658425596313e-02
2.314480733325690806e-02
1.691795197235617223e-03
-6.471702979690684143e-02
-1.022828787188736176e-02
-1.470855148555745041e-03
5.201113230944476480e-03
7.881971518180917735e-02
5.932746577444250602e-02
7.441279959734108107e-02
4.892900918013894790e-02
1.456394818916370050e-02
2.577795166876599778e-02
3.117104195688860310e-02
-3.504013218456137474e-02
-3.233981930230216822e-02
-6.832806637054844937e-03
-1.658423521906040796e-02
-2.734915599075720197e-02
3.759226610297915130e-03
-3.276225826236797700e-02
4.074653628695119184e-02
-2.017596591410049031e-02
1.517593244591141331e-02
7.380425813426262638e-02
6.166008965563299360e-02
8.581590801629548904e-02
8.496624834365044954e-02
6.308385007833906821e-02
3.424155566568182207e-02
3.785561171076269882e-01
-1.790841355887494435e-02
-1.535277381691865506e-01
-4.009463027382591527e-01
-1.194428628339005566e-01
-1.409950919054491977e-02
9.574065936944492483e-02
2.289852322967645890e-03
-4.799179420506004268e-02
2.479528704742495551e-02
-3.037544828398374211e-02
-2.833539883481089872e-02
2.877833953748409543e-02
-6.438014792206853132e-02
-5.409651812146609728e-02
-2.413950469734055596e-02
-4.373402177108197397e-02
6.334745887841448930e-02
5.774773197798224733e-02
8.916920778876218090e-02
1.875219527033454223e-02
-1.051102794079138668e-02
-1.514349931940522920e-02
6.630301377148314912e-02
5.904677332453425048e-02
-8.317243529977862149e-03
6.814894444782365179e-04
-1.637316600175874881e-01
-2.134723815430993044e-01
-3.491537939658913986e-02
-2.189473636246474231e-01
-3.283587189580912113e-01
-1.795119644841230988e-01
-2.700700086917585674e-01
-2.234126529293161689e-01
-4.377876322564033112e-02
-5.237917094118459821e-02
-6.589561977814031857e-02
-1.571420192723943857e-02
-3.412935160513147232e-03
1.445729892450241597e-02
3.470335097863968404e-02
5.418000136422393420e-02
3.423955528391816466e-02
-2.875245257354986511e-02
-1.152905525094067088e-02
1.238257904823745863e-02
-2.653245271114020726e-02
-2.393003101728931326e-02
-1.299823538559387488e-02
-5.728089835899053545e-03
-1.814918422300379128e-02
1.482477882281757302e-02
3.955144019816936307e-02
-3.202873253724065200e-02
-2.688581749512079441e-02
-2.584979063520731132e-02
-5.222025178662630801e-02
-3.652546387013357130e-03
-3.883250216382588133e-02
-1.421030542828180809e-01
-1.243417359105964265e-01
5.172480974587300578e-02
-4.565903890461716144e-03
-1.519092492684665126e-02
8.309924696597367766e-02
1.456759425987569703e-02
-1.555997444420712840e-03
5.847710274201567415e-02
1.672594647499983309e-02
-4.955570888645918770e-02
4.546812396329072414e-02
-1.324623089835223581e-02
-1.144481616457340006e-02
6.651919486267550419e-02
-5.747507665670194971e-02
4.871856440761253293e-02
-2.658846825213110471e-02
-7.222355709972155813e-02
-7.491581656977047698e-02
1.117878865053798798e-01
8.956263458216608131e-02
-4.313444415509680094e-03
6.653218909333660780e-02
9.845246420071628035e-02
1.074576474525120937e-02
-1.984367963901534360e-02
5.115476592692973223e-02
3.411591150336687472e-02
9.763296838856839327e-03
-8.738147515307927160e-02
-1.117547660159138034e-01
-1.490929287894461053e-01
-1.660185491383281697e-01
-2.343986686831371069e-01
-8.768345496320387178e-02
-6.849357321339503979e-02
-6.952618013692146715e-02
-7.367555496603588050e-02
-7.295596960704961442e-02
-7.667158441391620782e-02
-6.769234188563706678e-02
-4.324723904196683261e-02
-2.570901375625681343e-02
-3.762752357214714516e-02
-2.139403552505594885e-03
2.411479064597268213e-02
6.938844702045057940e-03
-6.167413508428380188e-03
-1.090820026656370671e-02
7.766869350526192303e-03
-1.821976838748164997e-03
-2.167996874923485816e-03
1.929532501462959820e-02
1.444461976335772307e-02
8.406812773816246809e-03
1.415788931782671796e-02
1.133097104598204813e-01
9.002332350050472332e-02
2.884342364525081109e-02
1.360862099184342033e-01
8.737040571073652340e-02
-5.788014148405490333e-02
2.872867819164745540e-02
8.343865703464620198e-02
4.768264925416395780e-03
-2.776267123535064787e-02
-2.550899235115040853e-02
-6.458816721314383780e-02
-1.055591874886586123e-01
-1.183430223647470025e-01
4.428176979905548011e-03
-3.490488089840036029e-02
-3.460814747310180656e-02
-9.947412961921874713e-03
-5.342954205689912084e-02
-4.305323737413582069e-02
-1.966531783102704739e-02
-5.151791027774804688e-02
-4.793715477146034964e-02
3.756844994733497811e-02
-5.912914387997924605e-03
2.063105745561297222e-02
-1.295416623043302122e-02
-1.190374880904714605e-01
-9.421979167475934280e-02
4.988775110222859466e-02
4.585416145612164485e-02
6.215757297646238438e-02
-1.129339375499313208e-01
-5.686121335132066079e-02
-9.512222715020839103e-02
3.323973277570699270e-02
-2.066133945516313714e-02
-5.702184820260914645e-03
5.414782799281927898e-03
-2.415522074821915485e-02
2.125331020293540554e-03
-2.873415467269609461e-02
-4.669488340611357285e-02
-3.757920527491743351e-02
-3.668388464200229154e-02
1.594320113504935077e-02
9.884322678153704272e-03
-5.280907183923460452e-02
-5.700128848453009725e-03
-5.637125065588433070e-02
-9.527777219667289688e-02
-8.192987504867221826e-02
-8.875134967256673169e-02
6.326633661497246819e-02
2.232096657316752497e-02
1.073664855285101222e-01
-2.635064576999703555e-03
-3.721730408478717000e-02
2.298077757333251425e-02
6.968079682186167911e-02
9.360234726776484049e-02
-4.352267577082580968e-02
3.759598962989540386e-03
-8.866514393758033810e-03
1.526374866903211806e-03
-4.611470619995774664e-03
-6.861343133093476127e-03
-2.601456031335330418e-02
-3.877730513714293999e-03
2.387369385132722451e-03
-2.112319404814878149e-02
5.052957504841053792e-03
-1.513758950700941353e-02
-2.670431975390189644e-02
9.597942933950300926e-04
-1.408563696946758120e-02
-3.412153935057536669e-02
-1.601642863096356187e-02
-1.554872698551659944e-02
-2.759088269280194142e-02
1.711677977195757983e-02
3.097047388040654464e-02
1.976091466773455610e-02
3.753742628696142558e-02
1.109698796441072055e-02
-6.123527708055505857e-03
3.898787143946346595e-02
5.284006842742808296e-02
8.206550364661360092e-03
2.770220784833379163e-02
4.326752075776601342e-02
-3.277973192433697881e-03
1.349761387651489397e-02
2.042149081255795889e-02
2.657499372221417897e-02
-1.082754623059604439e-02
1.399607584490418846e-02
2.539812133084514215e-02
-4.696069837987155299e-02
4.450834416583618336e-02
-8.338271336821756474e-02
-2.745351095772582614e-02
3.311440242874046785e-02
-1.195188899119458137e-01
-8.675724253968301880e-02
9.253311603001075636e-02
-4.376604830998317291e-02
2.629503897617664707e-03
-2.289065559396531724e-02
2.124644566046952204e-02
3.703047912815334020e-02
-2.148367367340944106e-02
1.866296826709554907e-02
4.763715259557191328e-02
-1.329987411248290466e-02
5.211116071850451816e-03
1.142590744556395282e-02
-4.245185167527545066e-03
5.310162728666837501e-02
4.833010227473567844e-02
1.560919678248123312e-02
1.431035354802755004e-02
8.035923105835689195e-02
7.029413376469559327e-02
1.269890462114248164e-02
-4.605333782916767177e-02
-1.543889065826096335e-02
2.485626096050045199e-04
-2.638225717502738765e-02
-2.985628229022196239e-02
-4.401740021486397203e-02
-1.511474447363685310e-02
-4.144536456102237282e-02
-4.971953712907103279e-02
-2.470501711507549700e-02
-6.884456532474305702e-03
-8.572629868833355968e-03
-2.295432090640483341e-02
-1.187853536432166915e-02
-8.367403371624018704e-03
-1.987643040371577657e-02
-1.680463995085515472e-02
-1.340856837652918722e-02
-2.916442492101882500e-02
-7.428913494716429811e-02
-8.256510918588645664e-02
-2.578045846287489468e-03
-8.153048284029429382e-02
-9.781622882195072088e-02
4.436408462116017519e-03
-1.804877496531389486e-02
-2.746736648365843622e-02
-5.234857040618598641e-03
4.275242838907208627e-04
3.840343962646414915e-04
-1.212307785866115553e-02
-2.200664514749225281e-02
-3.021071312657711352e-02
-6.924803401841279210e-03
-1.887217540112137715e-02
-3.087467023080245690e-02
1.778684220287107473e-02
1.724071812987813465e-02
3.220836863133589700e-03
-1.383856384397707390e-02
-1.142293808121963745e-02
-3.736960782517737001e-02
-1.173096270558288134e-02
-5.417906554895066638e-03
-3.213388349497305757e-02
-1.902529856244132914e-02
9.815135464396375353e-02
6.467291372500463820e-02
-3.308314381947379673e-02
-5.854576345275603472e-02
-7.466344145254769082e-02
6.738800127648503398e-03
-2.387439793518037964e-02
-9.562832217093004961e-02
-4.808637920132593363e-02
-2.634195025902681675e-02
-1.436730895642320677e-02
-3.762148440068107530e-02
-8.809007176603799935e-03
8.876639179873420382e-03
-4.089471746541813862e-02
-6.505987338614314074e-03
1.121976239784597089e-02
2.453051136436064025e-02
-2.756864449829639352e-02
-8.104720088962562297e-02
2.555224709551059611e-02
-2.151473326968121949e-02
-4.843016661163960374e-02
4.494413890210885443e-02
1.021264130659021475e-02
2.470850964236851952e-03
7.231662253414538298e-03
4.686205672426612366e-03
-2.716638172214798710e-02
7.815522568102948459e-03
-3.354276126688556653e-02
-6.410221328304860355e-02
1.193987522335311982e-02
1.707980707949503796e-02
-2.940903343224586519e-02
-6.404154661732299608e-03
-1.587395553964258410e-01
-4.866671163979175568e-02
-2.855497366520592939e-02
-1.135302643776661402e-01
-6.347790546306780746e-02
-3.095110561049145906e-02
-1.108868876864002595e-01
-9.629566792904158123e-02
3.429044983880521341e-02
1.480093552600884009e-02
6.406194734679188096e-02
7.418164032284670258e-03
6.029134769253698296e-03
7.651141832327432168e-02
2.728193451721902182e-02
5.666424127001456340e-02
5.423171780322529750e-02
8.182790805098361098e-02
2.027932195552728870e-02
-1.455243533965354559e-02
-1.096126192383275978e-03
-1.172398469450215523e-02
6.305848099071048596e-02
-3.677940100550718822e-02
-2.223549234558629822e-02
6.537754853751749640e-02
1.813435438661046770e-02
-4.681920784484072326e-03
-3.379550819049109006e-02
1.133844439537024101e-01
-8.310716010986361757e-02
-6.031943790599046673e-02
7.023871681737724193e-02
-4.874275162153214602e-02
-7.597532620783717383e-02
-4.247280897588496390e-02
-9.505355910160280530e-03
6.085821046080997637e-02
4.498693324106684543e-01
-2.677369240717261678e-01
3.618667348083250135e-02
-2.664352507096731399e-03
-2.266180089842377010e-01
6.421318234308728834e-02
3.225620900238143629e-02
1.279083065442941126e-02
1.639454151813614889e-03
6.644113331974603465e-02
2.978644268845434193e-02
-3.054417337038474803e-02
5.980296513732401981e-02
6.455699779522852677e-02
-2.317342994215467605e-02
-9.622292021074919932e-02
-5.895839076278475144e-02
6.378886893015908895e-03
1.309613368917185959e-02
-6.250398540519663815e-02
1.493507477318083143e-02
9.185169159954437168e-02
2.362214354879622891e-02
-5.278291700274953535e-02
-1.947581468178338424e-02
2.078523475385950572e-02
1.292666972689237616e-02
-5.057831566277684078e-03
2.082145601023642836e-02
2.503713365145400147e-02
-1.539293394856371469e-02
-2.261388221588615105e-03
-4.846351681355042310e-03
1.447807610785796679e-02
1.295366204820031300e-02
3.998569822684008152e-03
3.218983739516596745e-03
3.832451110925202357e-03
8.242772171350885510e-03
-5.290445945651419540e-03
-4.551685624825762069e-03
1.775932389671733389e-04
1.559509376065239608e-02
1.433492199339054217e-02
-5.620322547808966757e-02
-2.402592623730395727e-04
-3.551066794029188612e-03
-9.921137697895720392e-03
1.127477018340037815e-02
-2.419236640397023994e-03
-4.855879463513835398e-02
3.218600537007110240e-02
-7.973995245276737504e-03
-4.320213152192591693e-02
3.834328760832026589e-02
-4.528511905220942990e-02
-1.045012318714754473e-01
5.105961066715064556e-02
2.092281816075447498e-02
1.179766498527336921e-02
-1.586202355737357517e-01
-1.105989206088439430e-03
3.942341495463363293e-02
-1.135750349215933902e-01
-3.588429391951234587e-02
1.011314377387390225e-02
-5.817929710614593020e-02
-7.831713298025318182e-02
-7.456085820446868746e-03
-1.737878345776173450e-01
4.658188651782835255e-02
2.488299778955396085e-02
1.684242852644418642e-01
-2.941382346361444498e-03
-1.274384878333644500e-01
1.197871333462520622e-02
-5.628016977253681025e-02
3.440839482358332840e-02
4.540922184132508560e-02
-3.575790915380074736e-02
-4.010244852975326270e-03
6.038025576149674140e-02
1.716628056908958222e-03
-7.080310261662688120e-02
4.576773590742255066e-02
-3.124933451778647703e-02
-1.323391420797713214e-01
4.676990867243670941e-02
-2.617596007686149445e-02
-7.288817642458464419e-03
8.893756509686556733e-02
-5.733232347695656206e-02
-8.739188979767903431e-02
-3.964308028254098434e-03
-3.958557517881749338e-02
-7.379657266840293495e-02
1.749750606080660922e-02
4.014031719407214899e-02
3.094501017764224315e-02
-1.804358862478518816e-02
-1.857645171973265966e-02
-1.571122216192449503e-02
-3.908259859359715371e-02
-4.591060636551148877e-02
-1.538691076346677955e-02
-8.283776253002497064e-03
1.260795860235082704e-03
-1.113244900724006531e-02
-1.406917453960586503e-03
3.068519541184598024e-03
-1.250724257761474424e-02
-8.017436318633764519e-03
-3.715312190148495168e-03
-1.326937753521324585e-02
-1.863982231659247826e-02
-4.357397636968707647e-03
1.274680782699248727e-02
-1.630061054266051038e-02
-1.058188495164683798e-05
1.151494680822543436e-02
-1.278845403711693397e-02
-3.014528565834369636e-03
-3.044343748837260240e-04
-1.716227961526677753e-02
-1.923526773300175338e-02
-2.477577009560094634e-02
5.181851654194296296e-03
2.815838516729770712e-03
-4.600833791717297110e-03
-6.773842278632764835e-03
-1.017898561689288377e-02
-4.495237103980467483e-03
1.849973430155840834e-03
-9.751693537878088069e-03
-2.288739194845799355e-03
1.193997624489407262e-03
-3.318830202389578665e-03
-5.073533000164508026e-03
5.997381950949876549e-03
2.355534813074188979e-03
-1.256204583905039902e-03
-1.017504877022118101e-02
-3.503826760149977154e-02
-8.948692088285106067e-03
1.294593998483404423e-02
-2.273802231780194111e-02
-2.852569985791885560e-02
-1.147610536854654605e-02
-1.787074187754963961e-02
-3.479928323961201109e-02
2.776006950800629161e-02
2.633991687991088862e-02
1.316501712102528462e-02
3.852559091516229162e-02
4.196196324811776734e-02
2.651756324778505383e-02
4.463246512428657720e-02
4.527287093039918803e-02
3.190481551035188185e-02
-1.544832073920573284e-02
6.305662566137717508e-03
1.710168257999257480e-02
-2.955326314915441427e-02
-2.586625044848967284e-02
1.302690281469850910e-03
-2.948399005081493718e-02
-5.591715095034814620e-02
-5.019807199450087437e-02
5.093057917326678820e-03
-2.924822372508268254e-03
-2.982134574599309106e-03
1.910062264381618509e-03
1.153877728963851933e-05
8.277399578199130456e-03
-2.013853368559900825e-03
-1.038642134495518059e-02
-3.921475301441147221e-04
9.184434252319338546e-05
-3.155525312398477916e-03
-2.542436621397481562e-03
6.405006407773551234e-04
-9.837833011544082785e-04
-2.843279661891240807e-03
4.681952162512786723e-03
3.000466105226601548e-03
1.632974502015846138e-03
-4.697226130928948656e-04
1.014334006514631091e-02
6.301269667415822229e-03
1.016919157192532064e-02
1.942210410339290094e-02
1.457876186545737501e-02
1.912927439072237626e-02
1.261293540877495879e-02
-6.724487983470114720e-03
-9.225152753913427048e-04
1.660603303031965485e-03
7.332138077593507554e-04
7.097702155358667775e-03
-2.742550851589951942e-04
3.893614145429034803e-03
-1.757313670593851213e-02
-1.891348827914941452e-02
-1.469460411989358291e-02
1.004841378729910521e-02
1.371567983688543914e-02
8.324009507161278520e-03
1.134394541067643321e-02
1.019957339708373219e-02
1.355788280730627592e-02
-5.485335165587057124e-03
-1.390791634678483456e-02
7.199494885762924888e-04
1.343022296569303976e-02
2.554692139351187954e-02
-4.137948259617292741e-03
3.392717681682829584e-02
2.100886623705282633e-02
3.897734671342586912e-03
-2.144391975818895832e-02
-1.500850031639704846e-02
-3.722534272698329195e-03
-1.205118901731523813e-02
5.246528492853510042e-03
4.064351979122094935e-03
-8.041826042682352627e-03
2.269449048849424277e-03
-4.568768701596581140e-03
-2.923156725450773343e-03
1.995651052680162511e-03
-8.381590860500926984e-03
6.653030264934350381e-03
3.107136981788059197e-03
9.120992177102868470e-03
3.906178178064378947e-03
1.420450974729122904e-03
5.340334775323585248e-03
-3.479533179524775185e-03
-3.920461768545932708e-03
-1.185400690985165782e-02
-1.482528413048419258e-01
-1.078682780481187153e-01
-2.880191392777457782e-02
-7.406075284935079162e-02
-6.250165590964719409e-02
-3.689078609228676336e-02
1.980864443910916942e-02
1.034001446197816386e-02
-9.466904626118947952e-02
2.064043548805584785e-02
3.705869779195219288e-02
-5.962556990872710204e-03
-5.539599321641624878e-03
8.912757601204416430e-03
-1.347493344314233676e-02
-2.316520834655522512e-02
-9.464669757386145327e-03
1.144269168550470124e-02
-2.532590855272754543e-02
-1.879670854744244432e-02
-3.372418535316372423e-02
-1.285622526608021753e-02
-5.492665730322282558e-03
-3.090455472446074561e-02
-2.118654008577238942e-02
-1.635900930197178166e-02
-4.068294923495341386e-02
-3.744393969243889342e-02
-7.894554506779446340e-03
2.368369587066981863e-02
-6.020600225193115107e-02
-2.637127716404428016e-02
-5.244965981862641236e-02
-3.596444715580992407e-02
-2.634184375412299342e-02
-4.901718855423278093e-02
-3.214572236910572933e-03
1.507354394405751273e-02
2.401079344205024613e-02
-3.500367331337255698e-03
-8.747003264269298875e-03
3.255161591244844221e-02
-3.147856822272775829e-02
1.780626675518058935e-02
2.138888669139834414e-02
-2.710166205518788063e-02
-9.818393673467071259e-02
-8.169072680032725409e-02
-6.955739125796679689e-02
-4.826833229778158818e-02
1.421914877495718613e-02
-9.890815956163337419e-02
1.630736671552695805e-01
-5.680849360828025413e-02
-3.313769810625173673e-02
-3.031659149367516709e-02
4.230918287515769011e-02
-5.648983205979744154e-02
-6.321378106056829704e-02
3.183958039890414510e-02
-4.552152361316165463e-02
-5.768705717085413631e-02
-2.886538258226960946e-02
-6.603681251786769346e-02
-6.709778207653874227e-02
-2.301544653077833985e-02
-5.188845570369342991e-02
-4.947807294332808026e-02
-3.544905784989939995e-02
-4.407449598209937924e-02
-6.318511731895004591e-02
-6.941403211196119083e-02
3.782666568068808466e-02
5.495236638123293660e-02
4.074914205694482594e-02
4.821328281705319907e-02
5.310114831698710403e-02
2.908767586311149581e-02
-8.962015698633359756e-03
-2.135244808678201864e-02
-2.553389826930034523e-02
-4.299048153000832248e-03
8.108418504376107769e-03
-2.803679219424333739e-04
-2.255398320554265895e-03
5.479744131775941655e-03
1.964027713894212109e-03
-8.757140712412982836e-03
-1.307307088589458599e-02
-1.348399962353849860e-02
4.285883118210133402e-02
-3.170027852363783982e-02
-3.999942447291809228e-02
-2.919335024277369510e-03
-5.837677702136711416e-02
-6.583823876965012867e-02
-2.438046741947933957e-02
-4.978241542634130601e-02
-5.250905233135545747e-02
5.358295932675596375e-03
1.026764407460530742e-02
8.351921471291974194e-03
-3.630066212894468569e-02
-3.076324308485149650e-02
-1.989996942486602430e-02
-6.507493606829917177e-02
-5.325432039687375690e-02
-4.210040664115088233e-02
5.384739632796303049e-02
1.037565711364712984e-02
-1.215993695034712010e-02
2.816907539550981762e-02
1.905195198882315283e-02
1.611933984933582378e-02
1.187889883737094053e-02
2.390208958863836511e-02
2.655039555770519547e-02
-2.145644496696413883e-02
2.118199284230428900e-02
3.702262649839117153e-02
-5.790406723818684182e-02
-1.365766631238046203e-01
3.193377917244046189e-04
6.386261144002604306e-02
1.333009022568028556e-01
3.462773415508093450e-02
-9.195340442508574902e-04
2.818271106022696496e-02
-8.562644790874502504e-03
4.298489840196774957e-03
3.361171133820440443e-02
4.984997774569854129e-03
2.647271769407455108e-02
2.825652103735050782e-02
3.550390244519511379e-02
-4.140610584890783673e-03
-7.171868994527141709e-03
1.625881560763381287e-03
-5.226961000500507382e-02
-2.026216238814128323e-02
-6.944365288421894961e-03
1.840833338255924365e-02
4.870113929501665440e-02
4.631166967602008688e-02
1.077921773516066217e-01
1.207771360101219660e-01
-1.317079594953704177e-02
1.262397324731502624e-01
2.989638404458866763e-02
1.232646079584767511e-02
-2.532800473147035075e-02
1.302077867560195133e-02
7.334862772043224122e-02
1.318816705372747589e-01
-3.690885260447807070e-02
4.788982603616052242e-02
1.089102747149823212e-02
-5.463518908673123398e-02
4.078206572909490873e-02
2.895310196637321254e-02
-6.869145235006325623e-02
6.496929946254380306e-02
-1.419847573632162518e-01
-1.384647458763373917e-01
-4.281908813582101063e-03
-1.242506214870847114e-01
-3.508523872462852161e-02
8.862863522857039253e-03
-4.234671113480440591e-02
-5.777381489908094137e-02
-1.091571493824075312e-01
8.823843242998025138e-02
1.922905895412755639e-01
2.601528741616098706e-01
6.997132195121821829e-02
1.908912766266286087e-01
1.760470871365854284e-01
-3.440539736581816471e-02
7.416593955439809704e-02
1.065830850570320676e-01
-1.232844939496472308e-01
1.906032601865340903e-01
3.874451342979441659e-02
1.318958851158576473e-01
-6.008223602639173322e-02
2.039947149391242720e-01
-7.496333055165003978e-02
2.329830829986004048e-01
-4.852972478962409852e-02
-2.227845013600743621e-02
1.517866465210789551e-01
7.196044495298842270e-02
7.329097276488341084e-01
-6.720899075934393396e-01
3.947890728921690795e-01
-4.252508427010699976e-01
6.978651080137232565e-01
-2.436876820064089177e-01
-7.626683744696243460e-03
1.388052637362628960e-01
-2.224105726318414966e-02
-1.567395079558108195e-01
1.044753862756444829e-01
1.880174805491397483e-01
-1.523371700603284584e-01
4.205628194121922847e-02
1.714781034335239596e-01
7.423376460234977492e-02
3.189505112055024405e-02
-1.938978582560358516e-02
-1.592275999145247589e-01
-3.324620989730306397e-02
2.299743145109496290e-01
-1.151559899212974414e-01
6.985107358551567724e-02
1.505068658361382872e-01
-2.814706927434797515e-02
-6.604439261903181924e-02
-4.741574280508578654e-02
-7.292674791971355541e-02
-6.524763124470273762e-03
6.780707245753771033e-03
-1.148646859844148493e-01
-2.208974830100082429e-02
-7.373300170070407056e-02
-2.205332389397109821e-02
-1.355907503381516103e-02
-2.509967750571931791e-02
-6.640736302463778884e-02
-3.683953881072216108e-02
-2.565838854610693470e-02
-5.122960555822982098e-02
-4.073681939172236338e-02
-3.585719968459150780e-02
4.387664076668323226e-02
9.467875398855948865e-02
1.114069386773826748e-01
-3.654293714966612427e-02
8.039031006300008386e-02
1.210410177058871550e-01
-9.069379360926918543e-02
-2.618722253692029253e-02
3.906717955734411579e-02
-3.568317743593714397e-02
1.982797934850484556e-02
-8.952589475489389562e-03
-6.145957221726178893e-02
-9.203936027708499445e-02
-7.724139520277163717e-02
-2.161130937699599908e-01
-1.363587749532762516e-01
-1.620652767838815789e-01
-1.109546987957634179e-01
4.862035083869063051e-02
-3.021604744755014907e-02
-5.081495921170124663e-02
1.070287114948203916e-01
6.444553009123397957e-02
-6.023177627685282441e-03
6.315236511290069077e-02
1.009449679869814653e-01
-2.541693776775385549e-01
5.403515723967522444e-01
1.928445375563460004e-02
2.094427796089673166e-01
-7.169545540925589266e-01
1.222064761706511266e-01
-1.742179484357448127e-01
5.969684671907827811e-01
1.667159792941638463e-01
1.319634974858372722e-01
9.033368294136626120e-02
-2.929843812385725735e-02
9.196797978213190616e-02
4.568360568619090484e-02
-1.545290148212730974e-01
1.371690491890375369e-02
-6.184045443376676165e-02
-7.811342295093266774e-02
-3.809930013017089750e-02
-1.319946662236597644e-02
8.144110626314618462e-02
-1.545234515500272243e-01
-3.446385737357753054e-02
-8.475046562579173492e-02
-5.385872103595975430e-02
1.502309371949063221e-01
6.952088442529416601e-02
7.130028451855972838e-02
1.893541556206559950e-01
1.316215318932465739e-01
2.030847627983446979e-01
3.124487893277664852e-01
1.773238868711355387e-01
1.718428648757218957e-01
1.567477084385850705e-01
6.023147850916734519e-02
4.239534694824982804e-03
-4.677810434567564353e-03
-1.780096587233801972e-02
-5.276194136921358909e-04
-3.872729626886478593e-02
-1.919009335122946400e-02
1.780691208073541601e-02
-4.813828207697300882e-02
7.444355277580672579e-03
-3.312892571586224105e-02
-8.910764398334630743e-03
-9.915362494905963914e-03
-2.800069813367518645e-02
7.258727635782688298e-05
1.215675612622534735e-02
-1.984999877839488738e-02
2.924423326267437760e-03
-1.537261546864034795e-03
-3.052647594816754878e-02
4.570657303749824096e-02
2.199722550784138225e-02
-6.059487713355280608e-02
1.520494225102492734e-02
6.376691097614414251e-03
-6.341014126263749828e-02
1.116594136490210026e-02
2.030437169393462318e-02
-3.942220368483214527e-02
3.275131869487447021e-03
5.855262009612960568e-03
-3.148334579340020256e-02
5.706329626191053439e-03
2.827111993496837089e-02
5.210756918055217679e-02
2.991292267108569200e-02
5.828065523841044655e-03
-9.829407090113698175e-02
-3.580870967676850342e-02
-1.163190999138980081e-01
3.600560423479077371e-02
-3.354632294414559152e-02
5.111422683885665647e-02
-1.359808197651771015e-02
1.360409608311829999e-02
-6.588094292512845784e-02
-3.735315476051906999e-03
1.455782679909376452e-02
3.456363893224231182e-02
1.107528424206684348e-02
1.140964382807045999e-02
1.760747738582384841e-02
-1.399684068296852199e-02
-1.961257643396565123e-02
1.103194612112636669e-02
-7.040510716677028658e-02
-8.548327510142339491e-03
1.948420883509973181e-02
-8.056647322285418952e-03
1.596927325447573126e-02
2.649761421701734665e-04
3.500706442515771899e-02
6.145938868042090386e-02
1.883931914207595841e-03
-1.876316712168984990e-02
-1.611020946183125413e-02
-3.868245648149890720e-02
-3.086681150616447933e-02
-2.942252929369612580e-02
-3.187725117349130000e-02
-4.949666841184093696e-02
-2.793924560922407888e-02
-8.605888909483095511e-03
-1.044893354885175277e-02
1.010893376142129110e-02
1.288690875538005959e-02
-1.137834926718530627e-02
9.747935757069257218e-03
2.272357816289824126e-02
-2.481933247365055578e-02
-5.262860976061564319e-03
1.901478298092344407e-02
1.723920590271885850e-02
-3.933931672075676594e-02
-5.128661014552642061e-02
1.994994493349430686e-03
-4.769490681012572564e-02
-4.731397928796812064e-02
8.079721550022411942e-04
-2.260879206489557411e-02
-3.343373005111728580e-02
3.604911861202583778e-02
6.504733436183669781e-02
5.847404048245127134e-02
-4.441019078371832157e-02
-1.570426842763998979e-02
-3.846229516247853808e-02
1.301906191160205617e-02
6.007108435097912452e-02
4.667097400261103340e-02
-1.228868838075887482e-02
-2.532158199345238905e-02
9.728337359268299234e-03
-2.649305201583022906e-02
-2.896461544035427993e-02
-1.407816877870759868e-02
-3.198289984754652815e-02
-2.839164296608462368e-02
-5.769799099321933078e-02
-1.457387495796888706e-02
1.621125966031683116e-02
-1.014165790502297854e-01
-6.061347007987909208e-02
-6.815005902076640143e-02
-8.996605864361266122e-03
4.973339689244029443e-02
2.435171661815115768e-02
3.630360665826571492e-02
-5.363353851213539802e-02
-4.926248378858037735e-02
-4.652331122257759299e-02
-2.898468819546521150e-02
-1.954797640924599636e-02
-1.838385520472327755e-02
-5.100131491728458755e-02
-2.431174224860582420e-02
-3.844384173300812585e-02
-3.701295964949038314e-02
-5.069550513055486735e-02
-4.660697297025927222e-02
-2.605290609914026265e-02
-1.363200410485517931e-03
-2.746795208940381108e-02
3.750457705476215736e-02
3.794980882590496402e-02
-6.980085501341343895e-03
-1.862162003572639252e-02
-8.210888674413793775e-02
-8.582362155579346952e-02
-1.492723365727607332e-01
-2.103559625340407635e-01
-1.263165470894256626e-01
-1.099178989995233668e-01
-1.257622842151648879e-01
-8.529267758211937778e-02
3.836723858947756194e-02
4.382401936147670195e-04
-5.023688091066709840e-03
3.089281394208117509e-02
8.440262605129313436e-03
2.098534004250616233e-04
2.867534687226155204e-02
2.346564226063012695e-02
1.656544729612184977e-02
2.117413534019274568e-02
-4.574573031001262502e-03
-1.157863836240239849e-02
2.571455297147426031e-02
-3.629106567836081106e-03
-1.787871463067293790e-02
2.140688360479085089e-02
-2.011746605041559235e-02
-1.513862382241615116e-02
2.214230869986695202e-02
-4.314107701087862429e-03
9.433130938062864873e-03
-3.490629992558019756e-02
-3.585034899292056237e-02
-4.920790808316054255e-02
-2.139254692931469651e-02
-2.903086821194645478e-02
-4.977173498441896798e-02
-1.569159373855956094e-02
-7.798224322016150158e-03
-1.758571709318604986e-02
-3.598216692169124015e-02
-3.594615549200762955e-02
-6.303561226455605846e-04
-7.232248382720730950e-02
-5.022167738549795230e-02
-5.917591864468528702e-03
4.513439934320163938e-02
9.424367034988462288e-02
2.894863865106240761e-02
-2.896993295131953042e-02
-6.085967320669991021e-02
2.321746863694414131e-02
-2.544899787008191028e-03
-5.174617977704012994e-02
1.652853331260529385e-02
4.329802421572580273e-02
3.289820193245372032e-02
2.063486761939908962e-03
2.092550575708012825e-02
-2.002379770252940300e-03
-1.846202135950227030e-02
1.072791640502046041e-02
-1.086895770817479338e-02
-2.698775616380002379e-02
6.021963845262057365e-03
-4.939068401403906572e-02
-6.299654842356322559e-02
1.331178521219078710e-02
-3.125516121094885219e-02
-5.353009323133365444e-02
2.216895335329331987e-02
-1.667564666080696700e-02
-2.022091674733554265e-02
-2.402309743619109733e-02
-4.000667260753325988e-02
-3.084120916825776673e-02
1.862259282721171263e-02
1.822248286986134433e-02
1.428953898764819333e-02
6.524363002887689778e-02
7.075253240675813404e-02
5.624416976909409061e-02
-1.091626686424203643e-02
-1.778210566640754664e-02
-1.687688280266949961e-02
-7.456517557924789014e-03
-1.832608633367519696e-02
-1.745775579684422790e-02
-7.925466853048727944e-03
-1.892235425062177567e-02
-1.590655490300885849e-02
-5.628830828047061072e-03
-4.769634112592974901e-02
-5.240764872136755015e-02
2.827775493474863483e-02
-1.731597816896755446e-02
-5.481317710540649368e-02
3.010074744819300069e-02
-1.596482230347328127e-02
-6.158868736005598116e-02
-1.773482753197010153e-02
-1.122275646943533302e-02
-5.048483445637565355e-03
-3.919227639332929086e-02
-4.319972076809699968e-02
-2.564259039942532598e-02
-3.784592127137447089e-03
-2.082533632915337454e-02
-8.382646658890617955e-03
4.155137417726937482e-02
7.034683972667193225e-03
-1.755382861369653158e-02
1.408321822506788078e-02
-3.150016477525789671e-02
-3.743556832305355159e-02
2.630256972020873774e-02
4.102141704261106693e-04
-6.605634053942400878e-03
-1.192761179694515512e-02
9.902614039344812685e-03
-1.341091687880378164e-02
-3.825602019351932032e-02
-4.229427548512643825e-02
-1.091728062769123722e-02
-1.483843511995416864e-02
3.070667831016431464e-04
7.699261811082612310e-03
4.514672605119247895e-02
2.628317534844821016e-02
-1.664003968293825339e-02
6.326861397001646431e-03
-3.916892588579905243e-03
-4.208094324889834897e-02
-7.078083525409418868e-03
-1.958042661914335958e-02
-4.197193733898973989e-02
-1.052350083876067190e-02
-1.796497875937184204e-04
-2.848744651932890934e-02
-3.496485003259540425e-02
-3.124682107504374307e-02
-1.840623159222518068e-02
-1.532568659134428760e-02
-1.815333624235865653e-02
1.225438252426014341e-02
-2.683666338848308408e-01
-1.462688473627386798e-01
7.894763098937775461e-03
-6.046079597209276513e-02
1.092832158392213066e-01
9.939336796835121501e-02
5.808612403327290119e-02
9.605261568984166387e-02
5.938394280877323100e-02
-5.890193504586305889e-02
-5.054417351546404251e-03
-6.331853028305713810e-03
-6.181441745252683889e-02
2.681417523420456459e-02
9.117894725991085303e-02
-7.260702886735823092e-02
7.583192954618835080e-02
1.226847112520941530e-01
1.150786474310562524e-01
1.395528043532950346e-01
3.120804919297359009e-02
5.197056719599858765e-02
3.628136625211430405e-02
3.611350437781356282e-02
-8.137890214063203675e-02
-9.543501709520148257e-02
9.309562322291393618e-03
4.957160455369572644e-02
4.479227369506385420e-02
1.254606300887736205e-02
-1.840026408793946355e-01
-1.665266210603474351e-01
-1.694502962013324787e-01
-4.707238326430062325e-04
-1.539819540210618232e-01
-9.089517411725032969e-02
-1.850539336452187641e-02
-1.172283226526614069e-01
6.756154932907283694e-02
-3.905377851308958898e-02
1.239381351417600807e-01
4.063751434081236402e-02
6.229528873522264393e-02
1.356389829674214779e-02
-1.096620842066570178e-02
-1.799975125361271411e-01
-2.099860615656871932e-01
4.240245146200650322e-02
-4.339568937712409702e-01
6.857133905859461587e-01
1.421566123505743628e-01
-4.658052184326803846e-02
1.632662549830815046e-01
-2.067511448744183411e-01
-6.217616090869813178e-02
-1.695870568167263670e-01
-3.856312156681412223e-02
5.876063961076152115e-02
-1.457042706349985228e-01
-1.989804926306373289e-01
1.097240424991743346e-01
-7.190899966687507028e-02
-2.232275824712171841e-01
-1.101375825328326091e-01
-1.473251217695513149e-01
-2.230151203398100801e-01
5.590040892872796645e-03
2.651084047789082146e-02
-1.480925026283420182e-02
-1.097687662565726280e-01
-5.886448531689424807e-02
9.540483029351230770e-02
2.087380841776591625e-02
8.007584084712206229e-02
3.679061762436361405e-02
-1.715071727485345879e-02
-2.206121099407485839e-02
-5.198300742203258024e-02
-1.380946683224506533e-01
-1.337497615356043890e-01
-8.373834052659064053e-02
-1.204742849880162392e-02
-1.636122570087865727e-02
-2.658822659339151340e-03
2.415063333730612868e-02
-8.775377906276752649e-04
-1.287785695043719598e-02
2.023610286548685119e-02
-5.105654153552956209e-03
9.496120614380082871e-04
-8.912857876179956784e-02
-1.912855918580437797e-01
-1.470874933314679778e-01
-7.239981619217941700e-02
-1.646223922615969726e-01
-1.336146119745803273e-01
-1.593648321939300783e-01
-1.301705149293243824e-01
-5.747977784163434828e-02
-7.189263795966181758e-02
-1.735710568965701667e-02
5.671174201500339684e-02
-2.214080901368019882e-01
-1.004742730513605575e-01
-6.349880185522981113e-02
-4.032936723604508417e-02
-4.093380264226825771e-02
-1.127948980723172817e-01
2.098131195276931732e-02
-7.751780289061296902e-02
-3.960014519216893680e-02
1.943932616193274482e-02
1.448016500183413845e-02
7.055881121702750614e-02
4.660901988253855072e-02
2.968895536074078745e-02
2.118805282908014023e-02
6.314173753371403464e-02
-2.838151466362084374e-01
-5.931093609688249668e-02
-1.892507788461390006e-01
3.095671916070623642e-01
2.662325488405253848e-01
1.204124293811348889e-01
1.602557410975111729e-01
-1.822665459331158921e-01
-9.651714330469268743e-02
-8.599001727581218057e-02
-7.496344912820541995e-02
-1.238984291040872709e-01
-6.699440129750212913e-02
3.636909863926134079e-02
-1.211538557516110282e-01
-9.209375971437444922e-03
3.820139198708012718e-02
-1.418061490502793009e-01
-1.695826496602418076e-01
-8.073933714575558251e-02
-1.685988796382898586e-02
6.462155549783014929e-02
1.168120295338440362e-01
6.918415860823076691e-02
7.938487197793403505e-02
1.023326610395105668e-01
1.659285002067710790e-01
1.003733286835353650e-01
3.483359016332349123e-02
-7.212442630938969979e-02
-1.590019514579499305e-02
8.520102045530500434e-02
-1.912714165367872809e-01
-9.336336039500928163e-02
-1.308926623001799294e-01
-4.077655499598046435e-02
-8.951363500732154033e-02
1.847142292468667568e-02
-4.499932953743714104e-02
-4.266512543486718906e-02
-1.324950142427558028e-02
-5.500835255455437806e-02
-5.993744779171827214e-02
-1.110032741172242189e-02
-2.596449670898799689e-02
-4.812878794969337876e-02
1.407080056419221514e-02
-1.680967677447278404e-03
-2.584588685577931741e-02
1.088674291807279274e-02
3.799253072560574568e-02
1.469928275524384070e-02
1.420061712801644685e-02
-4.071685024561672028e-02
-1.792566543399113504e-02
5.964281261709356019e-02
-8.886284905543884822e-05
7.156454203601053665e-02
7.248662102444762556e-02
-6.127967750185264739e-02
-3.660539265554365457e-02
-9.626526571363317603e-03
1.366593145593995341e-02
5.994362176928461072e-02
7.101380421635074269e-02
8.490374372661937952e-02
-9.768474195635217308e-03
2.839333870723066700e-02
1.343547381737582834e-02
-4.773425991420863351e-03
-2.313983210027260873e-02
3.046391144455811578e-02
-2.651617197950113525e-01
1.443696828524772095e-02
4.243127317613219485e-01
-4.239960946345777693e-01
8.917777819719140131e-02
2.943616641190005545e-02
-2.530134533394429175e-01
9.092855985821624021e-02
-6.878430153465987795e-02
-1.203084151694774027e-02
4.066739437564878545e-02
-9.472274176806530499e-02
-2.368725875811906675e-02
7.215287008217648179e-02
-4.668886635026772008e-02
-3.287711567566716647e-02
-8.623939381275189109e-03
-5.496335006136292278e-02
-3.879745747075315915e-02
-9.443501422819652533e-03
-6.092248543601737343e-02
-2.625305495064815531e-02
8.244641525596513310e-02
4.272456525346803036e-02
1.463494606603631121e-02
-3.382653601021463896e-02
-3.962845621861942752e-02
-2.413170168453824399e-02
1.215369998282310633e-02
-3.114885806671946825e-02
3.791814797922015909e-03
-4.330075787217923730e-03
-8.462310626535790581e-02
-8.584438831782631452e-02
-1.075739313878320558e-01
-1.821150060412485977e-02
-8.991035819169894763e-03
-6.110628791182143998e-03
-5.235031934980103122e-03
1.953535977113901459e-04
1.477736096006586472e-03
1.517107964357161838e-02
2.032758337791116220e-03
-7.575782763431906756e-03
8.350222752835499695e-02
5.072420409558304338e-02
2.351781306070489450e-02
8.829455586731392580e-03
-5.607300461972196393e-02
-3.319980450377943426e-02
1.515508087051931768e-02
-7.423649434799964308e-02
1.830107277158375548e-03
1.360987073037369689e-02
-6.841219759531243401e-03
3.471902027688763409e-03
1.468549174688242864e-01
7.723918630826615006e-02
6.591131550737157341e-02
5.919269258146923895e-02
1.301603540305574028e-02
4.128520166050270862e-02
-6.130568545513432471e-02
5.897804156764586275e-02
7.019539797601368619e-03
-6.803367803734017977e-03
7.694357292405532012e-02
4.673711692628133851e-02
-7.676537574445107572e-03
4.866564547995809453e-02
2.652025755723680378e-02
-1.191956823563493639e-01
6.657155845569941166e-02
5.000057549514527744e-02
1.049843738245529179e-01
-8.437325523357060153e-02
-7.864401366834385121e-02
4.216376584949389772e-02
-5.048948716944603315e-02
4.300041453407681125e-02
-7.610405560104327276e-03
-6.479963077594293186e-02
-2.789936906828424310e-02
2.514072390217154604e-03
-3.548756111903716981e-02
-4.889091511411013807e-02
3.707268085167193111e-02
2.051920182594397721e-02
9.318716136375602760e-04
-5.283864681559896637e-02
-5.092381319612784146e-02
-1.868130419633172098e-02
-2.963016827535301309e-02
-5.136098165919629477e-02
-3.393416235539189335e-02
1.098204071703772671e-03
2.449116944628566134e-02
5.505979977975119372e-02
1.136548202325267237e-01
-1.205860298870529111e-02
-1.330323200163524566e-01
1.527801382971267219e-01
5.461918835155422924e-02
9.559668119325399893e-02
1.118583812355482959e-01
1.015667089224543268e-01
2.119852532219822783e-01
-5.663648335434250114e-02
-5.391930210157773462e-02
-2.544283487074222236e-02
-4.432384147233382754e-02
-3.919154191190072495e-02
-2.583875381714563838e-03
-3.246980780137433131e-02
-2.043336400178329820e-02
5.975650398638213253e-04
6.535744682297635333e-02
9.692204178493198097e-02
5.280329165203967445e-02
6.965003997600011099e-02
9.916117073361560563e-02
4.851276908786494868e-02
4.461107491842004197e-02
5.112589109962354522e-02
8.091806783946421666e-03
6.825495400601948315e-02
5.891512944260428319e-02
2.616490947305619846e-02
2.115669748323318125e-02
1.851549323172320405e-02
1.406671546460726459e-02
2.559056312220642226e-02
4.505726737323464959e-02
1.632387020156664606e-02
3.013771816233674905e-02
-6.334439701338229201e-02
-1.021679904262752792e-01
7.603850649257865024e-02
-2.286219485701230722e-02
-4.822191162523922076e-02
5.090613649154417802e-02
1.806161432337376888e-02
-2.000778702946687596e-02
7.253870195343889438e-02
-6.266796577173870675e-02
3.483451942191207601e-02
1.059258039455068801e-02
-1.659897563522077790e-01
4.195275185487663816e-02
1.163806736557713474e-02
-6.038460204606647258e-02
3.196083664802940039e-02
-2.649473677877086514e-02
-2.359846514428507250e-02
7.117724020772994709e-02
1.063280717256065017e-01
-4.087704206351405051e-02
-1.052098856996158162e-02
2.021422473771398998e-01
1.015196394801681778e-02
-3.772595773820194842e-02
6.025803657358965587e-02
3.799491459229267787e-02
2.083855004842037270e-02
7.597135331056448226e-02
4.000780497626645060e-02
5.444635445332254159e-02
1.918634652087116144e-01
1.365286502434985838e-01
1.110861002002365566e-01
1.427331259847467934e-02
3.337815860361211667e-02
6.497947200782365484e-02
3.153137416227188433e-03
1.904473088099505051e-02
1.280478293923011622e-02
-5.925910577212056309e-03
6.768492770063684778e-03
-1.802487838318391281e-02
2.400417807315509064e-02
3.453728590658178971e-02
3.678029161973954408e-02
3.003834545130292660e-02
4.323666275738404646e-02
3.859391261573505427e-02
1.787273384761590977e-02
2.833235035851408221e-02
2.572921966703257610e-02
-8.697142461849451112e-02
-7.909467619158069840e-02
3.394191870443099418e-02
2.578193413722774680e-03
-4.523177037994227656e-02
3.562062771346252016e-02
4.807062157211173387e-02
-5.490336646395385309e-03
3.922488130869224328e-03
4.130689339224790507e-02
2.638990762867153214e-02
9.346013971491108283e-03
-1.942092771163842976e-02
-2.136981843013616156e-02
-4.713097377081566569e-04
4.505931463150508742e-02
2.986817707167406175e-02
2.221444564541111624e-02
-1.719882911321111291e-02
9.869383008142522049e-03
-9.091295575086559208e-03
-4.852521011889298491e-02
-2.725473037603021870e-02
-3.285275397397955516e-02
-5.722497095213438523e-02
-5.275917061162165023e-02
-6.536679266391272336e-02
5.963309105833600882e-02
3.467573344830816862e-02
-6.207484413777628052e-02
4.736775095229182192e-02
-6.499542429092805551e-02
-7.188154176970279474e-02
-9.473192357709386488e-03
8.517679762978584701e-02
5.841278611779109065e-02
2.941822450527823568e-02
3.722228554251710841e-02
-4.390113027275303892e-02
2.124481999485399938e-02
-3.425839119812321056e-03
-7.202238069573366208e-02
-2.367441784285384543e-02
-3.083803019537233181e-02
-6.853756022068722975e-02
1.719495040452210383e-02
-2.947311357981859115e-02
-5.487609301759326097e-02
5.873723669725038760e-02
-4.514403087865315883e-03
-2.978196863960428167e-02
9.775290784727420912e-02
7.423671021149368110e-02
5.524355157445080822e-02
2.304456180231930287e-02
-2.313384295429910323e-02
-5.819833390658144673e-02
6.766253850062518838e-02
7.509111485450761792e-02
-2.136883257562278288e-02
-7.076198714775591703e-02
-1.148086918615893667e-02
-1.740339270433166293e-04
-2.667808976915777772e-02
-1.614826882900553123e-02
-1.752181683738050083e-02
-3.766178626306953409e-02
1.701713058600224163e-02
2.300261200894727909e-02
-1.409013507997199273e-02
4.333697582522762215e-02
3.538739815231348868e-02
-2.662112145427318957e-02
-8.273889269217238329e-03
-3.001755966450311494e-02
-1.438250584397979780e-02
-3.980115460647796338e-02
-4.906398659384121619e-02
-2.291394669684633165e-02
-3.645393982128564137e-02
-4.336310838089901809e-02
-4.055672136383308042e-03
7.902661302854163683e-02
3.543094850415237640e-02
-2.441680310475843278e-03
9.950626660182440575e-02
5.271811315419100419e-02
1.322578505345829540e-02
5.958729119781343286e-02
1.831673560668974077e-02
-4.443662201377884119e-02
-1.849012110435807946e-02
-1.194494595557663670e-03
-2.046713826894274238e-02
8.184783959842439893e-02
-1.789567619063709911e-02
-6.913566187783813134e-03
6.531381273322378611e-02
-1.032845927478939904e-03
3.436117992799774673e-02
5.466322934413750390e-02
-1.304511576432942077e-01
-8.587358801257245766e-02
4.631560575379073397e-01
-1.852621651126755697e-01
-1.376118905412372362e-01
1.788601578867962116e-01
-8.562559523293107600e-02
-7.433431172825866358e-03
-3.950334835216886761e-03
7.834700089827521807e-02
-2.732393855621838633e-02
1.128245855046937016e-02
6.121026373539583537e-02
-7.440741536057826622e-02
-1.640483334949874999e-02
4.168148100246937826e-02
-1.919090233969869552e-02
-2.218312763695788614e-02
-5.973662455320821740e-02
-2.004940813954481094e-02
-3.791515670033321350e-02
-5.199082813990175272e-02
-9.111837896254556049e-03
-8.978341316627615545e-03
-3.182846496308502221e-02
3.872297997228155153e-02
5.723428268607685943e-02
8.257494486249519761e-02
-7.515679402128268120e-03
1.293931478575167417e-02
4.513526891065608448e-02
-1.033482399556779133e-02
-8.474642909928123413e-03
1.947465681606139372e-03
-3.170660447477309518e-02
-2.038389985039350261e-02
-8.950650404714551034e-03
-3.232897944634994386e-02
-3.274523406091123245e-02
-2.184297692031887325e-02
-2.126507996801263803e-02
-2.547211976334994021e-02
-1.964808217138686378e-02
-9.720601868681538749e-03
3.817543579816676941e-02
7.554180335874179086e-02
-4.972055552762544989e-02
3.224400839199941839e-03
6.870886452220359430e-02
-7.970502161386715245e-02
-1.381651538983893687e-02
6.290380777178580796e-02
4.441570846662391131e-02
6.602957028785176596e-02
6.169668345696647377e-02
-3.090540851522662752e-02
5.951475807705673519e-03
-2.253440801820950912e-02
-4.391403811130211061e-03
2.074364881150203219e-02
3.135328744539420728e-03
8.665149225142167524e-03
4.665222867701205385e-04
-1.522914187722691597e-02
3.676627223781330639e-02
4.628830716626749359e-02
2.167563102999034430e-02
1.496693398139715969e-02
5.557891915913033831e-02
2.009106564343118156e-02
-2.563773458092255889e-02
-1.488245059720450791e-01
-2.363829943800682676e-02
1.198930596492122080e-01
1.960438411175977336e-01
-3.293602641342941589e-02
1.568298695160155048e-02
9.453284846425377697e-02
-7.550084375461659468e-03
2.448428837046753848e-02
1.958137920988934841e-02
3.159062416317244548e-02
1.266287145414362811e-02
-7.435838262707674361e-04
6.402072092262556247e-02
-7.130662249442262270e-03
-2.985413076589135337e-02
5.470376692601069263e-02
-1.469781976956560654e-01
-1.145899827371010260e-01
-1.105319339902207931e-01
1.040681161348763935e-02
5.595641493745839162e-02
-2.085811922126773119e-02
3.441225478028536039e-02
4.507299249366848726e-02
-3.215311964784854648e-02
7.992433317816918792e-02
5.019878982312271642e-02
7.910044387597519808e-03
-2.741171916852362320e-02
-3.759719876876068539e-02
2.956522968625564796e-03
-5.473447649543893923e-04
2.152062284772795001e-02
8.118036238046574815e-02
9.689574086268975747e-03
-1.714063760125491415e-02
-4.223990549612748058e-02
-1.210324795260210064e-02
-3.229950500141857278e-02
-3.800199933788098866e-02
-2.403376938892245671e-02
-3.400013144760083428e-02
-1.119870628912170499e-02
2.636943801884635355e-02
2.330534324114630698e-02
1.732511841990226403e-03
1.817831298017249381e-02
1.122496233764352057e-02
-1.742034533945945041e-02
-5.115369805333677602e-04
-1.534580279609625009e-02
-2.445047312073153276e-02
-9.328773877996521247e-03
4.018412097153013784e-03
-1.602099034372984204e-02
6.815660506765326178e-03
2.190303935477572845e-04
1.039566147728834995e-02
-1.641573636884850404e-02
-2.175397758475982810e-02
-3.672627122249336185e-02
1.866606434632979818e-03
3.182110513784534161e-03
-1.235626438764426092e-02
4.933143735168185953e-03
4.089648881194479779e-03
-1.240779271211740753e-02
3.496212834168215683e-03
1.492803034424966535e-02
-1.620453188609895581e-02
-1.642923411684683865e-04
-1.223957892889336596e-02
-7.917548889541450863e-03
-2.796716881175792535e-02
-2.007884670501363863e-02
9.334899803904181392e-02
-7.227785974613566700e-02
-5.054369757385026446e-02
-1.172398906425711858e-05
-2.449664651868819695e-02
-3.619154795218937348e-02
-3.375889196758215943e-02
-3.851525436070932923e-02
-7.862174871882611493e-02
-5.696052082368036062e-02
-4.855643329420130522e-02
-9.822983678718119616e-02
-8.689672418866394021e-02
-5.158567614874022544e-03
-2.308404052712636784e-03
-8.007416837464675571e-03
-1.981071366595871935e-02
-3.777311850077903072e-02
-2.313429221252367302e-02
-5.159884705124639231e-03
-7.626164515226869361e-03
-3.161226947589051983e-02
1.224188869097291889e-02
-9.257735142906743306e-03
-7.734771065352050688e-03
2.953623752027216554e-02
2.065648381761106891e-02
2.097838617622157370e-02
2.369062126429754764e-02
1.966294147939458628e-02
1.365636352680927104e-02
1.485831112648099313e-02
7.270779910233055379e-03
1.028450893022293897e-03
1.067694033912107779e-02
8.537332081135119363e-03
4.821536112386576138e-03
-5.590230191114244291e-04
1.028584381899045614e-05
-1.298363298353141099e-03
-1.692287921916860519e-02
-3.381175113570534380e-02
-3.620209033735877907e-02
-3.421215304408080360e-02
-6.235830131471692406e-02
-7.074188009858593806e-02
-3.162837713368522180e-02
-5.581014280868006050e-02
-5.975710470139350416e-02
-8.101463391741977119e-03
2.005403152733724759e-03
3.542333079281227790e-03
3.063289556615011663e-02
5.143932379841063829e-02
6.308913268934508711e-02
1.043876179949749204e-02
1.830475283520820867e-02
2.655604899635726629e-02
2.275576387239509543e-02
1.302783721830011281e-02
-3.267489756647872553e-03
-9.295936423339097587e-03
3.406879650775491899e-03
-8.259721331830827823e-03
-2.600209604658956786e-02
-1.221870935880435766e-03
-1.405124061373420191e-02
-4.306920231136517757e-02
-6.327635286154809080e-02
-5.513070384257780232e-02
1.629279877652465777e-02
1.492598836894711185e-02
5.867525016743557059e-02
-2.766038386618367706e-02
-2.310725626535222593e-02
3.572668790583624632e-02
1.395959281412095278e-02
1.871802954349049974e-02
-3.609971569521915860e-04
2.257548593080668103e-02
2.063574935444580094e-02
5.596685389584557871e-03
3.352814471327616314e-02
5.108131472119753491e-02
3.740485666880790511e-02
-6.892867236984527059e-03
4.107790909470880603e-03
5.230824496640920467e-03
-3.701551572966243868e-03
1.634418147676862170e-04
-1.663602618545212061e-02
-1.765737627925471898e-04
4.715673769958010522e-04
-9.373968357523673745e-03
-2.606766723635379427e-03
1.285876236945752288e-02
-1.184127549272125102e-02
-4.451728127585548311e-02
-4.702130941976229161e-02
-3.767577270035020465e-02
-6.421230921005921521e-02
-5.759925986412194054e-02
-3.621637530115654618e-02
8.128887274325133361e-03
6.915306790580580572e-03
1.359206062760587481e-03
1.635188667249540002e-03
1.178249597694546336e-03
1.079890489839177049e-03
2.030921519087037878e-03
-4.834754413966032161e-04
-3.047305065744348486e-03
-1.946536382922880309e-02
-1.310919456580319185e-02
-1.532046973556108228e-02
-1.736271417756549140e-02
-1.727465387543816733e-02
-2.449662755643439854e-02
-6.620718789572538690e-03
-2.732980301510875166e-03
-1.175368928404345314e-02
-1.726817047262328708e-02
6.903103592901873274e-03
5.743102395592005263e-03
1.942273147355123115e-03
1.039804677886756352e-02
1.550459288656706952e-03
1.844732375377957159e-02
-1.831359603688803009e-03
-1.041118578643131926e-02
-3.857708300418625363e-03
5.190308895311587269e-03
9.525502808105245842e-03
-1.225349463484072532e-02
9.264450595611529310e-03
1.630082126523150826e-03
-2.483198059839825458e-02
-7.054775558512174985e-03
6.065815277469649262e-03
-3.351052864313272084e-04
7.237237768051682681e-03
4.187272989623689462e-02
-4.002753935608830381e-03
3.307026587793125000e-02
1.632824657574425894e-02
-1.916018271862489700e-02
-1.577148974032675788e-02
-2.908549698137429321e-02
9.525398410682761911e-04
-1.190589480658361607e-02
-1.701136303780252657e-02
-2.905089676965546576e-03
-4.412768193402823343e-03
-4.206130715789184816e-06
-1.748387976337215793e-02
-1.318746626424503569e-02
1.823280965207882756e-02
-2.518726439982881676e-02
-1.838972705003790592e-02
-2.215140349792599217e-02
-1.247110729509127644e-02
-2.256809935219827173e-02
-3.919924105787266078e-02
-1.861634748582948265e-03
7.234200018309815995e-03
-5.677954637044695455e-03
-1.134244846416148159e-02
-6.278494352311265146e-03
-8.389466200565888487e-03
2.903211599622922221e-03
1.835635862027818269e-02
2.172049183587144647e-02
2.159742449495623273e-02
4.042174025647050223e-02
3.701017778507584982e-02
-4.609545495902163566e-03
-4.929006990013579462e-03
-5.656292710010313828e-03
-5.493634530076703729e-03
-1.957058459220969212e-03
-3.267891868647395531e-03
-1.091448145517823556e-03
5.029095597230398736e-03
5.909855752768413024e-03
-2.355952238996243675e-02
-1.611976922809209983e-02
-5.497258842656237848e-03
-1.112379559660339745e-02
-7.168779965454378025e-03
5.385364178470986377e-03
7.608544421309356397e-04
-1.720389610075995571e-02
-1.772787322177957203e-02
-4.278513915284991309e-03
5.985829900719042557e-03
4.882873553765491176e-03
-1.461304427986431613e-02
-1.845631807604450683e-03
-8.184391993634290360e-03
-7.139783850424974605e-03
-5.801098392568117962e-03
-8.894803538492722372e-03
-2.846632932189790185e-03
-4.143648589367000291e-03
1.073387821932930176e-02
-3.297197247587631795e-03
-1.398501736901496852e-02
9.823492873571760143e-04
4.912428248818288823e-03
-7.082144096199812291e-03
-4.201451666363935529e-03
-8.981691253075756512e-03
-1.294459534719484377e-02
-4.129303361068718294e-03
-1.750836526399299903e-02
4.081254178304945246e-02
3.130717960551795964e-02
-4.907585607555745022e-02
1.532126886016102691e-03
1.508900773476905093e-02
8.954997800782482989e-03
1.748935040356273604e-02
3.595086305857238349e-03
1.940535737467330652e-03
-9.951380254245678451e-04
-1.732780884554487033e-02
-6.650179311692682935e-03
-6.286917179407755518e-03
-1.320775810964207493e-02
1.488504100152545327e-02
1.305410878151158117e-02
1.477469077343570962e-02
6.054487618999093192e-03
7.681261531117798171e-03
-5.687547899161302968e-03
-1.129887545541947112e-02
-1.314672436292409555e-02
-1.377626987957885664e-02
