-7.432626901605551839e-03
-2.856935114715501364e-02
-1.402847494396438494e-02
-2.490824580919242387e-02
-1.574958063556443355e-02
4.803179543031966051e-03
-3.165202621782622905e-02
-2.672738597360740931e-02
4.432330278473149872e-03
-8.102910375177060920e-03
-4.078132864863543566e-02
4.198350285505583063e-02
-1.768798864258215239e-02
-8.629755911612185804e-02
4.729979298790507568e-03
7.147174343309155298e-02
1.540797879504923924e-02
1.592967162433749778e-02
-1.958699156344321027e-02
-3.408159460654963668e-02
-3.225259829056919408e-02
-2.448156634105704693e-02
-1.612112481586738810e-02
-2.817904213959528115e-02
-2.635072302110966214e-02
-1.328250511552574176e-02
6.259884509145324273e-03
-3.544302284024494071e-02
-4.471362981084985033e-02
-4.162735253000106328e-02
-2.532215612545201527e-02
-3.204540588808422324e-02
-2.174613291974926768e-02
-6.660646983488788773e-03
-2.377035881683716226e-02
-2.299161398104095436e-02
-2.712251044095849439e-02
-2.779547657759929430e-02
-3.171074870037070975e-02
-3.967705677893341304e-02
-4.902604447953785166e-02
-4.369282440931802208e-02
-2.667781391574908234e-02
-3.666153537469454826e-02
-2.502422226175380141e-02
-4.237658822218969001e-02
-3.167659302095884866e-02
3.193807383902107916e-02
4.423248924928375493e-03
-3.043669395897315860e-02
2.241130002360046045e-02
5.716476313626159961e-02
1.962323739565506597e-02
4.125507409343432547e-02
-8.797525810000494245e-03
-1.694006830517283402e-02
-5.542830112807715752e-03
1.722486814118320136e-02
7.439301276027925069e-03
5.780213661344054364e-03
6.483516894361054939e-02
4.043721772383231799e-02
2.144179646155453325e-02
-4.144752881651420778e-02
1.966619964559273778e-02
8.451574139279631470e-02
-7.351603449675002920e-03
5.793005786882081572e-03
1.278782210560973354e-02
-3.771223206343137652e-03
9.158452854945575358e-03
-2.197553845114703225e-02
-3.616135520285271819e-03
5.188081781768285293e-03
7.663350040102448468e-02
3.999348068686945507e-02
1.966765614574790197e-02
5.667953086034208804e-02
7.369300677333516514e-02
6.854674876890905211e-02
1.585254768880174983e-02
1.251800920573203739e-02
3.660529494860005877e-03
8.948772990443037284e-03
-3.413452712559069888e-03
1.243835966889630766e-02
5.666618361304388320e-03
1.763759974339969630e-02
3.734006624285601122e-02
2.912223259986894668e-03
1.219535838424603592e-02
2.163957266561369885e-02
2.740159689233958445e-02
-4.712389732019749838e-02
-1.474200836379287519e-02
4.848245009224626950e-02
-2.295980146502304281e-02
-4.925647181336405972e-03
-5.505201206067078523e-02
-1.322701396116055493e-02
-3.156282534337504202e-03
1.004422237322579771e-02
-2.674247201181249173e-02
-5.259253887082342149e-02
-5.664241112803712619e-02
-2.774403359273753741e-02
-8.140827428700971036e-02
-3.948932141666557094e-02
1.322383518711057505e-02
-1.548938363980392231e-02
-1.921123704660925371e-03
2.509869146298611062e-02
-2.109752186817728109e-02
-3.519251682592920011e-02
9.024521509337411762e-02
2.663721810317691216e-02
-5.272795434504329998e-02
1.652358133503049886e-02
-3.305033693947131718e-03
4.567508358183203221e-03
-1.766387680805471191e-02
-1.129421648283332122e-02
1.051763927963917170e-02
-1.913714473356141824e-02
-6.852734127972812984e-04
-8.980675298944742688e-03
-3.837143202128605324e-02
-5.781916715443009142e-02
-3.786418406982529350e-02
-3.994058270339907735e-02
-2.879845111382950754e-02
6.118072446615136807e-03
-4.458249674739545726e-02
-1.572186659085942836e-02
2.700461801499712960e-02
-1.500798180913783843e-02
-1.830904481338361395e-02
-1.920664982189376063e-02
-1.445926114191870351e-02
-1.739798444622354251e-02
-1.588145846610847581e-02
-3.849447925655945322e-03
-9.129013232943338288e-03
-6.756436944518216456e-03
2.075404459601899038e-02
-5.671894946041771204e-03
-3.995424978011279105e-02
5.213397105856926346e-03
-3.000504887639125762e-02
-7.038552615912736787e-02
3.017783634273677427e-03
-3.842471440067365962e-02
-5.538182676075502353e-02
-3.082169950411223561e-02
-5.995485885823801514e-02
-6.646461873214735971e-02
-1.663441048601259353e-02
-4.384243850773091727e-02
-5.909617543789487393e-02
3.897422638292555308e-03
-2.045464447211302328e-02
-2.267048197389201492e-02
2.025173973580647949e-02
1.100569806678763224e-02
3.533334387392145920e-02
-8.647598789286217377e-03
-1.320281653847966627e-02
1.445594572713251522e-02
-2.259519142669591182e-02
-1.269498298386373750e-02
1.669889139958289498e-02
-1.942334025709160569e-02
-4.337971591616816662e-03
3.610638958978062973e-02
-3.880224674862485512e-02
-1.966546388778240076e-02
8.894740738707497887e-03
-3.156843962593190722e-02
-3.003918353415139728e-02
-1.860293200912496031e-02
-3.566807613896256363e-02
4.004280048490709010e-02
1.096721793330682898e-01
-6.141141306907757502e-02
4.223653296912500271e-02
6.553406228455982419e-02
-1.329049484472741641e-02
2.262383492871642907e-02
-6.357470620159911753e-03
-2.834879197726667723e-03
-2.937845350036052267e-02
-2.323374511946450782e-02
3.058500621652571888e-02
-2.868046409043538414e-02
-7.245460625480809602e-02
6.155178064382501452e-02
-8.248052267340330937e-03
-6.183218244998540947e-02
1.311902573625430522e-02
1.262023449497280507e-02
-9.583204637617864438e-03
1.173654431835739927e-02
6.108256836806574830e-02
3.695971399048069567e-02
-1.353017921304495020e-04
5.776247626437008842e-02
4.726061313373116496e-02
-3.578769534345840192e-02
-3.431262856518273868e-02
2.738669254126725738e-02
-7.525294246426031397e-02
-3.399926631066564620e-02
3.489614457064476368e-03
-2.917518163592208377e-02
-1.245824164678756632e-02
1.907319686901697356e-02
-6.016700486279709381e-02
-4.056564650194707106e-02
-3.102270403325758583e-02
-5.188282989006214041e-02
-2.657512164553072972e-02
-9.671239110707682482e-03
1.378643164601410682e-02
1.243388055553254143e-02
2.459098553982708071e-03
-9.187863497099364729e-02
1.950153104145234406e-02
2.869662974061115007e-02
-4.091351729931567982e-02
6.778714189468772189e-02
8.394480083970490281e-02
1.553535348748468284e-02
3.742256121040724026e-02
2.769879800132056535e-02
-2.622489041698282831e-03
2.794410115683461284e-03
-1.688118665869387577e-05
-8.340366298257191613e-03
-7.365453715068022260e-03
-1.735203261710140457e-02
2.982375665037682259e-03
-5.662834614148721732e-03
-2.135168189602662525e-02
8.140937041599247484e-03
1.648824844312208812e-02
-3.138212472670198067e-02
2.454849477550664558e-02
-1.112732573995104356e-02
-9.365511469632785413e-02
3.564554693450062983e-02
-1.151040990612254601e-02
-5.345673446855791350e-02
1.697929771038294428e-02
-1.282243725826642464e-02
-3.103774052042646003e-02
1.071286195363248782e-02
-2.024551132070996368e-03
2.159139103986226077e-02
-2.868091455440089851e-02
7.486887388416951783e-02
6.067578439174059479e-02
-9.243016052717140107e-02
1.998320465204429103e-02
1.938410559646856074e-02
2.163394336759131426e-02
6.976292489692419163e-02
5.647826506209673719e-02
3.666219305208420765e-02
3.669448381067883652e-02
-6.456867446161214386e-02
-3.425086995551069463e-03
-3.104793752305915616e-02
-3.210034897795803477e-02
4.746641660565580068e-02
-3.562766952125590719e-02
-3.200033396524139262e-02
7.378768528960702455e-02
-2.222446408771709681e-02
-7.553917327413446625e-02
-6.080049684213986033e-02
-7.172250320877454621e-02
-2.985259235035596023e-02
-8.419555911384132840e-02
-6.980747278002047418e-02
-6.162427531134182651e-02
-5.676609952368812106e-02
-2.724371978325259430e-02
-3.829248520823651941e-02
1.108412566302114342e-02
3.337292462729801040e-02
1.544394070590626201e-02
2.910875595913764782e-02
5.235171205160296659e-02
2.625585234469394666e-02
1.735645271219352082e-02
3.902026672978283622e-02
2.332024184542981146e-02
-3.515775809654383098e-03
1.630887998525387336e-02
-3.832254331773987666e-02
-1.401305372694095636e-02
1.877637047271674131e-02
-4.027384246724824424e-02
-1.891220543898303533e-02
-1.290867123137955930e-01
-1.084177073182633760e-01
3.716676888788721100e-02
5.897539373604443469e-02
4.472221420511951484e-02
6.632210734043297862e-03
-2.734110589506293792e-02
-4.912278006763707433e-02
-7.304567931486600184e-03
-5.558962319739594454e-02
-7.880656016522057106e-02
3.356797160948352815e-02
5.044924430786631303e-02
4.182969082227609714e-02
2.148508896204852359e-02
2.743944799685109695e-02
1.929282396394529572e-02
7.583124086436930644e-03
6.745563831229644570e-03
-9.447058596412875181e-03
2.614403160758877256e-02
3.759840837552650555e-02
3.828307358674858107e-02
2.919084455793435895e-02
3.356103031839061113e-02
3.067943988120921950e-02
2.526193695203645881e-02
1.928723136076544373e-02
1.197216081068932202e-02
3.138776483760549046e-02
8.833234784149168739e-02
4.842120514585705054e-02
-5.738220255394687469e-02
2.917317476775792978e-02
3.333568896980573792e-02
-7.161204384842993764e-02
-7.271901984776547867e-02
-3.901093308396881565e-02
-7.086449152916367809e-04
4.372842411842950525e-04
-3.002020353757053200e-02
-2.852027956557847202e-02
-2.084383484912359294e-02
-3.627194743282272354e-03
-7.117568889938311050e-02
-4.331449234250943359e-02
-2.743110855496321346e-02
3.227234582735450524e-02
9.417327612238334325e-03
5.415846747010566453e-02
1.751951039989334616e-02
-4.551889305868615961e-03
4.516908826038317643e-02
4.763155826533346793e-02
-1.733746720935861602e-02
1.541243779642588983e-02
3.819006688115440112e-02
6.909965920059436828e-02
1.344385466721987818e-02
-6.375943048304699885e-03
3.356939943800762993e-02
1.337184000870290657e-01
-1.598107792558152440e-02
3.521504600635725572e-03
1.374773977473216502e-01
-1.790578088349373265e-02
-5.569068740645118955e-03
-3.692817478447932983e-02
-1.218570081028232284e-02
1.196368617025758870e-02
2.934195366213053838e-02
-4.046792492323677409e-02
-1.710009319037086644e-03
3.870563663555973144e-02
1.636009385317031134e-02
-5.073537059201474464e-02
-1.202548014861185427e-01
-6.120316731268036136e-04
-6.304305626700330845e-02
-3.576616308521941845e-02
-2.995795285194008395e-02
-1.130079946593488399e-01
-4.446556450105640379e-02
1.049238554363811499e-01
1.205276387426638951e-01
7.543585107410978596e-02
1.195606888644540622e-01
1.026813847887707992e-01
3.270980050114219440e-02
8.630047530613539630e-02
2.726738641588323520e-02
-3.573443594400776968e-02
5.757063634882273601e-02
2.110960056232037696e-02
3.038813483332614140e-02
4.302838749227649168e-02
3.411262718720717898e-03
4.282437948465390998e-02
4.724648808100045949e-02
-7.669821636568834380e-03
3.069015848771636246e-02
2.468709912377909516e-02
4.422425488543235694e-02
7.212287670751223179e-02
2.189661601752702566e-02
8.107395021273072766e-02
3.294979440410777255e-02
6.510140298551375659e-02
6.604396601418549562e-02
2.145398835067424681e-02
-2.861938174698512236e-02
-3.605782756337761602e-02
-1.005354393064202823e-01
8.461110190142584822e-03
2.252402794295300242e-02
-4.407537490844701950e-02
1.256886997118774989e-02
5.757846632302707213e-02
1.242909990291398044e-02
8.004674630055639423e-03
1.201227108600118679e-02
1.545186465958620428e-02
1.350405099448886113e-02
1.896038723223917102e-02
1.454263961331323483e-02
5.772178832084988789e-03
1.520298161723859787e-03
-4.431195917008714158e-04
2.675433102464102458e-02
1.539709358607998894e-02
2.742461242980737471e-02
-2.874862495985724010e-03
3.544389097574318637e-02
5.598100649422177444e-02
-3.084238380428068471e-02
-4.618454638686965430e-02
-4.496952037079223613e-02
4.856761527627298514e-02
1.027000817581279757e-01
7.104308056177924269e-02
1.996978285816777485e-02
5.583669029247283200e-02
7.085791956092225494e-03
8.055782647404816435e-04
-1.530846187238962819e-02
-3.568869431959190153e-02
-2.522500631564922671e-02
-9.904431478111774129e-03
-3.546597285498485908e-02
-2.436718639376935988e-02
-2.091581735676733070e-02
-3.083800139294457995e-02
1.379256138954474548e-02
1.886546136682738274e-03
-4.373401507284663259e-02
-6.684491681198534430e-02
8.000532113696742428e-03
-1.133157065451572375e-02
-3.732043687184020270e-02
1.508717483135759915e-02
3.619971678638813500e-02
-4.637302964462740318e-02
-8.128826133865252671e-03
2.850154302591578412e-02
9.775332861731068912e-02
1.116200497056840102e-01
2.958107042332380407e-03
7.570524901160056996e-02
3.087489081026357010e-02
7.094600470976764051e-02
1.353548795346004065e-02
-1.354135754877851539e-01
-4.130082379645405588e-02
4.650579791221607501e-02
6.499516166148659735e-02
3.007927870618317887e-02
1.570264559271221383e-02
5.713784272727250729e-02
6.021518911461327950e-02
-4.007614262583030634e-02
-4.310422728032684697e-02
-4.438843208302578787e-03
5.509655410796569092e-03
-3.352611941634751208e-02
-8.995124653207399457e-02
-1.412525862576219371e-02
-5.225186627820512658e-02
-7.932743728685345830e-02
2.254568773893581707e-02
-2.515353410007039464e-02
-2.247527238026685720e-02
2.744662341225165975e-02
1.935115389180402153e-03
3.112468001260753486e-02
2.776308693063042621e-02
3.345022357036433330e-02
-1.053247174701412228e-02
5.969942645496856271e-02
1.910500186004223527e-02
1.701377469079056598e-02
6.030400136782256698e-02
3.811966306382455483e-02
3.474824665350264435e-02
7.130074425492125001e-02
2.493276064862873231e-02
1.493372943037314486e-02
2.633203177786666571e-02
-1.160923449907662677e-02
-3.458213875475248805e-02
1.477693209475878511e-01
4.082687705716529780e-02
7.869130670411171244e-03
4.397469650987057693e-02
3.798974385823317840e-03
-2.641332237550210967e-05
8.348994489385035134e-02
1.165663543830387644e-01
1.121128253153483439e-01
1.780358397444304491e-02
1.402500066168187697e-02
7.440544691347667806e-03
2.239685062978146075e-04
5.170349768681372325e-03
-8.786380244890611146e-03
-4.369082408437392762e-02
-4.061913130443400854e-02
-3.596095286041907368e-02
-5.119283300152988048e-02
-9.805365074856363643e-04
1.156779944291127932e-01
-3.264912933020699785e-03
4.872480007112887229e-02
-3.823405092450019721e-02
1.083020301251329427e-02
-8.442359306244147377e-02
-1.959030461750952135e-01
-3.340588339426888570e-02
2.477904402617520443e-03
-5.762892340885047981e-02
2.556134979064386692e-02
5.879608254535317879e-02
6.776343428500407329e-02
3.584513552245659901e-02
1.075768053507551170e-01
1.315229307185602492e-01
1.008889389820009919e-02
-2.187361577744479160e-02
-4.954010499725529371e-02
1.744433011693494878e-02
1.192490727085012414e-01
5.423278545015632057e-02
5.408528383881317653e-02
1.755923239158231619e-01
7.418418295512287097e-02
5.076683063366414783e-03
-4.167107984765883871e-02
5.034476386243469902e-03
-8.635418869835036204e-03
-3.064285878252072555e-03
-1.828038142449182196e-02
-8.456631491063058836e-02
-6.080976593027311722e-02
7.276096437161436517e-03
7.504629295762595131e-02
1.033228936355375105e-02
-3.686941617831082652e-02
8.079697456173329240e-02
1.108159909901382939e-01
4.102373108330280294e-02
3.742178301932225920e-02
-1.713932055324086717e-03
2.370777693004403469e-02
-1.797156382757675308e-02
-1.583624653867881510e-02
2.293618641143813086e-02
-4.724245339756021241e-03
3.872326490268946254e-03
3.770334153277994649e-02
-3.373987681009693249e-03
-4.179332599908888030e-02
-5.791445080578766502e-02
8.473404150503972831e-02
2.478097621350040802e-01
4.186264861642031987e-02
1.125064116042637785e-01
1.329041296587644694e-01
-9.843038449390538458e-02
-9.693163050632458422e-02
1.074017713766487053e-01
-2.187894295043822379e-01
9.764473926553707966e-03
1.227139657936607807e-02
-1.910074567045429508e-02
1.696737528747589013e-02
6.732908003163899646e-02
1.358671039912222600e-01
-9.188618843019000920e-03
1.221592988192522940e-02
-5.710648346150947602e-02
5.279388841244152947e-02
2.778673251994188270e-02
-4.016098900977068190e-03
9.909786377311361263e-03
-4.572852936328497889e-03
2.100166242500839039e-02
3.795828213272584278e-03
1.320998285478714417e-02
3.928218093335281158e-02
7.632433767391738622e-02
6.880397436107268949e-02
4.907464589959577295e-02
2.883180330900586216e-02
-1.406167690116733038e-02
6.178571850117664521e-03
9.049417706352300139e-03
-3.070131867747881438e-02
-3.026974805617347469e-02
3.755401398751938985e-02
-7.494066344963422159e-03
-1.652396170545805676e-02
1.365231654928781846e-01
9.723998820995286008e-02
-7.981485273921919144e-02
1.995741313865600219e-01
1.450115032305123175e-01
1.379175747593519921e-02
1.903557858018388449e-02
-1.362169559078268630e-02
-2.613000578119984915e-02
1.808481324952879166e-02
-7.120958685718635668e-03
-1.732725314511297104e-02
-8.026466432867293554e-02
2.440450594383209923e-02
6.813743592449698905e-02
1.243506989326247959e-02
-9.509134231709408247e-02
-2.091694939843082579e-01
2.440798067827436857e-01
1.866721149114743405e-01
2.945700850273116900e-02
2.991178518796543395e-01
7.750707955084773504e-02
-5.184486405695867134e-02
4.006480103349263633e-02
-1.989313221668225218e-01
-1.189523381814521358e-01
9.269876840117990957e-02
4.722243759500618226e-02
-4.163339385294661382e-02
1.947742964184150105e-01
1.526229506565046079e-01
-8.521501746594092874e-02
4.310746945501570809e-02
2.404651115913357742e-02
8.678970772275087023e-03
1.166078416015949859e-01
6.409046933666659451e-02
-9.913432350663443915e-02
4.347245533880374213e-02
-5.103435727017674450e-02
-1.212159944539335926e-01
1.787215783645381140e-01
1.971451754468409867e-01
2.965161028358014733e-03
-2.135585664952700802e-01
-9.075201512573545515e-02
4.311958106931767370e-02
1.521527097377940556e-02
-2.203606922076488395e-02
2.990567664922148539e-01
-6.024480421733986735e-02
2.875096022628316830e-02
-2.097085773853195056e-01
-1.919519905485820438e-02
4.848247566119499169e-02
-1.682992622736941557e-01
-6.619793463075993034e-02
-2.333937494666211976e-02
-1.870867517530676594e-01
-1.926971157107705904e-02
1.128960453447465095e-01
4.686816732597980095e-02
-1.301922270925364757e-02
1.157841657933046248e-01
6.398703770472216612e-02
-6.036835433967727843e-02
8.620168107741903174e-02
1.690174665699960971e-02
4.839316777012651893e-02
2.109211126122799707e-01
3.662766421701522685e-03
7.729083006340954631e-02
2.086553470760795781e-01
1.047434774130459878e-01
1.886871916793307277e-02
8.104915501268983302e-02
-1.519644301974079105e-02
4.062956194493507617e-02
1.350522565617344982e-02
-9.289758038342578461e-02
8.091007404854816398e-02
8.540366057678387690e-02
-7.418391513421550287e-02
5.796194254362798531e-02
6.692971314923209722e-03
-1.419708413848692341e-01
1.067766827474973248e-03
6.920602500402724122e-03
1.763831681206489213e-02
-1.544005326556483967e-02
-9.076222840269036751e-03
-1.759990739727754000e-03
-1.752816273462040955e-02
-2.163263090431102181e-02
-6.460802437100957724e-03
-9.545971967491441446e-02
4.250976517469969712e-02
-1.242737385603531614e-01
-6.356956445849630544e-02
1.085263641832640291e-01
1.266920732471084887e-01
1.435844309052117934e-02
9.663071073265262767e-02
9.518366978569704762e-02
-1.398469682393201075e-02
-2.602315214640611718e-02
-4.646835638805313536e-03
-1.391119175867365498e-02
2.614866443907154503e-02
-6.937136630146981120e-02
3.814135234679557479e-02
6.818216896742067268e-02
-6.489759575080421283e-02
1.117082634376666966e-02
9.629758860775571028e-02
1.837061709577280169e-02
5.768923139684995621e-02
1.409977686476433512e-01
8.515709874942681279e-02
1.714000020558163057e-02
-4.795343901631874545e-02
-8.368292045951875036e-02
-5.025837857540461223e-02
-6.750264468223846070e-02
-2.746529183056213921e-02
-7.469752640047343240e-02
-2.740446455039346682e-02
-5.207043593496521461e-02
-4.425650196730085417e-02
2.280091877407256981e-02
4.827204607641290279e-02
-2.820419744012675478e-01
-2.216381400255599821e-01
-9.328950656052939494e-02
-3.272646995494017386e-01
-1.929721248448634796e-02
1.537298422999627823e-01
1.377121074950034274e-01
3.215143748425585701e-01
3.883487548223881758e-01
1.482137096989038505e-01
1.430384035860099989e-01
1.121164364961001886e-01
1.663920021860400278e-01
1.474273484310098803e-01
4.975955990864930345e-02
6.579961960486550854e-02
-2.106290406448395672e-02
7.009484098172212574e-02
-1.714204036316031299e-01
1.470521159661029587e-01
9.203581293757942539e-02
4.264328711880312900e-03
-8.273804247245183929e-02
-1.303211086564582399e-01
4.136326100353028556e-02
-1.337464419221505163e-01
-1.246839848029946268e-01
-4.685186771305693137e-02
-8.440270392826292045e-02
-1.385397353974198234e-02
1.391187837952111428e-01
-2.443505002522536871e-05
4.791353230182563566e-02
8.443519491557571754e-02
7.215909134769997457e-02
-1.807093568193160818e-02
-8.135681055352744773e-02
-1.297151255160453320e-01
-1.646646678443061951e-01
-3.016275426635631543e-02
-6.213623650106089163e-02
4.220941989785643306e-02
-5.733029854486589721e-02
6.347002663839092229e-03
4.768858765224078672e-02
9.874275812464065882e-02
-4.217846090208686449e-02
-3.515424637218479975e-01
-4.027870535271699248e-02
3.367041542541556604e-02
-8.865285922055599066e-02
1.862802803208216951e-01
2.975931872524945065e-01
3.452043593755558804e-01
-2.698214832365501345e-02
-9.045453955768875676e-02
-9.958083798385383711e-02
2.829269492987163473e-02
-2.164849034719991405e-02
-6.958871760166644715e-02
4.511938787798766559e-02
8.190354281086686949e-02
9.633337115660885880e-03
1.178039995059166622e-01
5.905526274026291766e-02
-2.392482606997924643e-01
1.587520519463719165e-02
4.056177409449387289e-02
-1.583635005912186478e-01
2.167592909283643692e-05
2.820740574125715772e-01
6.512632042300117718e-02
-1.010702973343362704e-01
1.188903341541560493e-01
-5.803032986902090240e-02
1.806901597441266938e-01
1.934515660388744507e-01
-3.863689055339852158e-02
4.360532785170950082e-02
-1.832749070122660293e-02
-8.399644030856445731e-02
8.830233844532474341e-02
4.194551770245200650e-01
4.139559379606416734e-01
1.902715456943898653e-01
2.954589454105585600e-01
1.566277347453030044e-01
2.209000531433599757e-02
-2.121170901190467042e-02
-7.023464631143042092e-02
2.096490461921991441e-02
-8.880840076774644890e-03
-7.836770632907766321e-02
2.755995614133794347e-01
8.888762582316893368e-02
-1.496824760621645878e-01
1.546068935817305201e-01
1.593980306123818913e-01
-1.469086832578674617e-01
3.089792980955479162e-01
1.421982255644658744e-01
-1.615754485275753272e-01
2.806772141667799869e-01
2.939542355283186748e-01
2.931518410808137132e-02
6.399044305548948208e-02
3.072611640291145196e-02
7.825281528937594322e-02
-1.222797154312943307e-01
-1.287834064340807882e-01
-1.060765397203429772e-01
-3.232790430620016697e-02
2.641299051229126574e-02
7.909562434673717349e-03
9.225841475870612263e-02
1.291278130515648506e-02
1.416661061324833932e-03
7.745170184200454722e-02
4.651631717906858782e-03
-1.478825503328778102e-01
1.142395385013532660e-01
-1.081972374367960385e-02
-1.858477096466789324e-01
1.970715206457063773e-01
9.448227254357649540e-02
1.302969160458710036e-02
5.822306257895661086e-02
1.775338647040119316e-02
-1.556266448813665715e-01
8.112692492514528286e-02
7.422033405708231002e-02
3.329161739172224049e-02
7.130638357681934325e-02
1.250304378748251233e-01
6.756958447647633259e-02
-1.408123345731122633e-01
-9.501333116556374969e-02
-1.147550848562587517e-01
-9.245477224836463892e-03
-3.021134023111845396e-02
-3.283881222021201030e-02
3.774260939609833804e-02
3.787998153780112315e-02
-3.755219520647606890e-02
6.040195193342465935e-02
3.056567774738100374e-02
6.659539759457630374e-03
3.086553183847168258e-02
2.174974777040337547e-03
-1.275630170782440440e-02
-3.477468029018582207e-02
-4.482962005820984031e-02
-5.148505570230590966e-02
-8.905441409254044594e-02
-1.466563256215567754e-02
1.690416128157060938e-01
-3.148053163637126728e-02
1.066605038721398918e-01
1.383087511812482739e-01
-4.777845885262777675e-02
-5.840289185280922446e-02
4.918151261422543802e-02
5.636485108958438905e-02
-8.080925998298447988e-02
8.072832061806800574e-02
-3.916524874419358843e-02
1.218781775722761057e-02
9.676916677194009886e-02
-5.067013148227417219e-02
2.846926120543493213e-02
2.231114516116530500e-01
3.136716922037573463e-01
1.149912738855831534e-02
-1.392978598100341470e-01
2.172620315872138830e-01
2.566543321718940951e-01
-1.375431195233759729e-01
8.450618309590493538e-02
1.109354097387438981e-01
2.695554522906013287e-02
1.766857792826562190e-01
-6.533018585096636577e-02
-1.444240545113146257e-01
1.707929179257407226e-01
-1.333559598781402233e-01
-1.656483059789954082e-01
1.391049120982810194e-01
1.284596362750558413e-02
1.420068585094002855e-01
1.827285216499405229e-01
-3.804784484058720828e-02
-6.158630368311222153e-02
1.146105915489677024e-01
-8.399427828220752679e-02
-1.061214319545909779e-01
8.598371224866170615e-02
9.869568811365179994e-02
6.473646859141765630e-02
2.694349036248023729e-02
-2.445478744458515485e-01
-2.621934433579031776e-01
-3.222631260862575120e-01
-3.066288499124279476e-01
-2.486067800891837154e-01
-1.322570462413132086e-01
-2.344715997546205632e-01
-2.905583190067723698e-01
1.839384435590788180e-01
8.471968789512308862e-02
-4.807690648970347480e-02
-1.792866746880941997e-01
-1.720406934493726170e-01
-1.502442183873382298e-01
-8.191631073412392050e-03
7.690288951606293055e-02
-1.752800237324203259e-01
3.504944044779020190e-02
3.578673507335834725e-02
4.205205751932315078e-02
-9.660653243024358572e-02
-6.289634416417493046e-02
1.117759009433866128e-02
6.557942029687666152e-02
-1.130946690589576704e-02
2.234006795140571627e-02
7.941727053796068803e-02
4.386589427332871632e-02
-6.829053661436472467e-02
1.820050994867165317e-01
6.030948155048918013e-02
-1.773803675511531341e-01
1.087605397314157368e-01
8.969583331952736549e-02
-1.904940114435917375e-01
2.197673293925498858e-02
9.689318236276019125e-02
6.741205845195838431e-02
1.007778083521453510e-01
1.441477069338287752e-02
-4.806833442234353243e-02
1.381480566666469234e-01
2.929103355483533844e-02
-9.604214116558519587e-03
-2.431123388986392367e-02
-1.993512810091226800e-02
-3.336200676410645133e-02
6.633237799441530497e-04
1.579595869856518944e-04
-2.201670480683839276e-02
8.685141500491261671e-03
-1.693211034845572413e-04
-2.664650315169549144e-02
1.574388942154906768e-01
1.194409165830599973e-01
-1.053493521971601565e-01
1.304841141228133827e-01
-1.912037595719567190e-02
-9.467158823864078865e-02
6.480966769699207652e-02
-1.599576152433443699e-01
-1.886037054990559458e-01
-2.113954674280548451e-01
-1.202231177296550907e-01
-3.135447938584325772e-02
-1.054594143672221151e-01
7.418796656569910490e-03
4.756277293849248133e-02
4.996902526774393144e-02
-3.720209292645728499e-02
4.370327580583101279e-02
8.022663878840728680e-02
8.587541528950795588e-02
-1.735706011085384401e-02
2.826354428815527203e-02
-8.350214002087419374e-02
2.849749188060702113e-02
-2.332439114421688137e-02
-9.549788473470338657e-02
-9.913335882401208554e-02
1.377539987301101831e-01
1.141017409311222419e-01
-2.901716552720434890e-03
1.770056126403751207e-01
1.246636295879737233e-01
1.146146362948256975e-01
1.837617796004698545e-01
2.479675261029151423e-01
1.756440413351200713e-01
-2.756285842240964734e-01
-1.414006419057048936e-01
-1.035161393960813518e-02
-3.255246548489277303e-01
-2.462468264481952607e-01
-1.174609341145800984e-01
-4.228283344685171419e-01
-2.636636926030835326e-01
-1.317747087103280923e-01
1.220249091416000520e-01
5.220999543893656281e-02
-1.516630796761155864e-01
-3.356546637031464914e-02
1.994988031135475626e-01
-1.332255628593966013e-01
6.238310909261685078e-02
3.168099895610289596e-01
3.523293031188949598e-02
1.504593201309571415e-01
-1.001683534118917446e-01
2.142159125276196091e-02
2.331055931982166929e-01
1.131290335245517670e-01
4.098260322065649941e-02
2.137216725223632374e-01
7.382503793303803186e-02
1.467405985682243563e-01
-9.681117307684360129e-03
-2.110272177639511137e-01
-2.146291052234075847e-01
-8.054840562354179112e-02
-2.283663193936858460e-01
-1.829222344980764858e-01
1.169728977462204944e-01
-4.735598292537294453e-03
-1.046789117599001839e-01
-2.669552267763533049e-01
-1.978225194671112963e-01
-9.582651557340539361e-02
-1.759352376381771998e-01
-1.781356428817187365e-01
-3.438444803556343996e-03
-1.011182718186438324e-02
-1.367159023237821125e-01
-1.139443958724707939e-01
2.176144388009005615e-01
-2.062002866335653772e-01
-2.747594908880293674e-01
2.202765419421283052e-02
-3.618376624733307123e-01
-2.713415218960401609e-01
-1.188384431154450999e-01
-3.231756067825249934e-01
-1.505135463941082163e-01
-8.372621386166319291e-02
-7.302033034736343797e-02
-1.780602372625090732e-02
-7.664398133339492269e-02
2.604143266515451804e-02
2.166013569570647210e-02
-4.141991199928379830e-02
1.952860669591815340e-02
6.986192038019362061e-02
1.571742014747745941e-01
1.079710142294875302e-01
2.560633230506632052e-01
3.179164529668122158e-02
4.680029707134455291e-02
-1.875362767481580234e-02
-2.731764522854307140e-02
-9.680220732935304606e-02
3.028344401697465327e-01
3.315742326462216283e-02
8.305436379554848036e-02
-2.750054139760669258e-01
7.823899543157938896e-02
-1.704665063000330161e-01
-2.190485139218219246e-01
1.670772346846610690e-01
-4.707533978968783672e-02
-6.893540689217395045e-02
9.754087824795842909e-02
-1.763741909838017208e-01
-2.548673545622830439e-01
1.269201564740047618e-02
-1.164847312094306198e-01
-2.785953005412195593e-01
-1.766524752135429643e-01
-1.090140792600446107e-01
6.945467733412138620e-03
-2.177571986456810771e-01
-1.699540681132554465e-01
-5.313863924443717329e-02
-2.426568446378497834e-01
-1.486858324154988475e-01
1.277773314616017786e-01
-2.645296491974648626e-02
1.608668544282138846e-01
3.883410184497946283e-01
2.177580685517760961e-01
7.772450629831495483e-02
-1.115835850247463290e-01
1.496027674119537187e-01
8.955324491609406579e-02
-1.624306344528105295e-01
6.774665481457495253e-02
8.697922452924941594e-02
4.450910410994192434e-02
2.672127037165116740e-04
2.881793688209817114e-02
6.767503197849657204e-02
-3.643328688325792042e-02
-1.427715299550241443e-02
4.739073257286494090e-02
-8.582200011677861007e-02
-6.435896962051008974e-02
2.930520985393587907e-02
-6.231250387685227654e-02
6.569415182683263632e-02
1.017944763565187122e-01
-3.115255770274769631e-01
-7.056592160722215124e-02
7.106795039844382433e-02
-2.565796654319073000e-01
-9.829559157910899847e-02
1.421024954243265033e-02
-3.537262347102254623e-02
-7.038153606139366247e-02
-5.378989981965152933e-02
2.034859412747103830e-02
-5.121378535753957906e-02
-8.537907440233871714e-02
6.406429916979325401e-02
-4.538650175362488742e-02
-5.521806222968254907e-02
1.845257343272560524e-02
1.980494768246910883e-02
6.241972824595620056e-02
-7.916461424540090219e-03
-1.993936716517284713e-02
1.162846346626926394e-04
4.557502277802097379e-02
1.152440172904379070e-02
1.690162345360097726e-02
-9.072691944273503922e-03
5.670068293097587329e-03
-1.686480267331474936e-02
-4.832594687645185016e-02
-2.673805168365933280e-02
-1.948722933190328785e-03
-3.032409836093582015e-02
-1.164558509859088195e-02
2.332078745259869718e-02
-9.983965300568201084e-02
5.484790638640533317e-02
1.796430836849826143e-02
-3.716485351127495063e-02
-4.236371101251511923e-02
4.470718485538769521e-02
2.313734541550130641e-01
1.033777239069083032e-01
6.730661528937292859e-02
-7.170514268298555649e-02
-8.472382636489085572e-02
-1.173603519679658203e-01
-6.206742161636040478e-02
-1.190480426490356097e-01
-1.038225272506637931e-01
-3.311951992710975706e-02
-8.594437460742278267e-02
-6.728272949744186493e-02
-1.662253404035230961e-02
1.559512813736948222e-01
1.105568630654680529e-01
3.195935859040413465e-03
1.143874075911119337e-01
9.725314351827156478e-02
1.145289949237279642e-01
2.761755907248906183e-01
8.048496787420350573e-02
-8.928728237054905925e-02
-1.220218718587044865e-01
-1.158032480587593283e-01
-1.931292196142628814e-01
-1.620728458202433664e-01
-9.545502945715141074e-02
-2.294594223010577305e-01
-1.670534077902153525e-01
-1.545597796760508624e-01
-1.180443253869057074e-01
-1.314565836437270319e-01
-2.205273988245539524e-02
-7.336849459405186957e-02
-3.799252190173762513e-03
9.216119353618833221e-02
-8.734450870584520299e-02
2.374085303012118172e-03
1.439953077199788989e-02
8.787728837118310987e-02
9.524215323349535800e-02
-1.514404177651665698e-02
-8.907132214074213461e-02
-1.879655981741665538e-01
-1.201144398717935019e-01
-1.689028491957140499e-01
-1.322676725673329612e-01
1.383915065983167547e-01
-5.732224629850188324e-02
1.420913587354483421e-01
3.142115961745408498e-02
2.078128441510428137e-02
-4.412907921837122896e-03
-1.041069880919770624e-01
-4.767034678350732385e-02
9.124286381422194725e-04
-1.988949967758718226e-02
1.183043066360168483e-01
2.706098280261258829e-02
7.193434019946744196e-02
-5.758198345580199662e-02
-1.287494974957421011e-02
1.777350672859471722e-02
-2.103543327815384778e-01
-8.097877734309615050e-02
-2.118168182554586512e-02
4.535799934061408856e-02
2.069478203253462961e-02
3.071203300679511278e-02
-3.794798688140825840e-03
6.448639962808651316e-02
-1.142704172025302452e-02
-1.568473189416117798e-04
1.230049516276193050e-01
5.213072563381240809e-02
-1.386202628719094762e-02
-2.745803099176246861e-02
-7.054904641374820651e-02
-6.257093138770475349e-02
1.306707582225624942e-01
1.268365875253028574e-01
1.536381218561226093e-02
1.349534335403659857e-01
1.561254174104967918e-01
1.563810683769988399e-02
2.641418409708492718e-02
2.432645510218017781e-02
8.353071498073311868e-03
1.123617905739671997e-02
8.400919595330054099e-03
2.310716252425305036e-03
9.097985958191268790e-03
1.604658931997443583e-02
3.530570476221459031e-02
2.663543454748855052e-02
7.773095742258512297e-02
-1.736821973671164726e-02
1.185262095626076471e-04
1.164761223414073760e-01
-8.702070214222355771e-02
-2.861862887728396435e-02
6.437918699416580147e-03
-2.818671545878005322e-02
2.850057293406567036e-02
6.019883308591587184e-02
-6.682504326954472051e-02
4.524904755253980615e-02
5.455397525223151106e-02
-1.019131190588981467e-01
-1.243883184962534111e-01
2.103390301026163492e-02
6.354828908128028479e-05
2.092619280457229045e-02
3.262968633829289172e-02
-6.615877120097764241e-02
3.395588643537694740e-02
1.496341008109738913e-01
-8.497483254587344381e-02
1.489890529947830201e-02
6.867437905839442192e-02
-1.349292543688543622e-01
-6.808800011720610168e-02
-7.685862023070433313e-02
-1.356813669556573287e-01
7.834470750512158299e-02
1.344682494311418841e-01
-1.057359394869449715e-01
7.608683243571053023e-02
1.460465848887579354e-01
5.998625962998696548e-02
1.008870181082896500e-01
-1.707085653085257601e-02
-4.229889994261391839e-02
-6.915184845816806092e-02
-3.388773318529398476e-02
9.660532854587684792e-02
3.965172894608976623e-02
-3.492989490766078287e-02
-1.110230854656412414e-01
-4.277331584771306566e-02
1.144122439328840168e-01
-2.411323151710073609e-02
-7.224629422803438561e-02
-5.420424097479808329e-02
-5.375914894553530943e-03
-2.609322448891305407e-02
-1.714030065109000966e-01
-2.257297933100173987e-02
-2.704005192981694464e-02
-1.054286983079602003e-01
4.275530468850318594e-02
-3.450057965872232318e-02
-2.594320073307835803e-02
1.456835804661365044e-02
5.078646508974894724e-02
9.044335282238331886e-02
-3.936026689446595755e-02
4.241170321782183200e-02
6.930740065881886569e-02
-6.715972600097697143e-02
2.406379353722101419e-02
1.326297029697469376e-02
-2.093879169727995773e-02
1.034356652005510302e-01
-3.804285879665219444e-02
8.831457650360292552e-03
-3.423148251928394975e-02
-9.015257375842306020e-02
3.127933054006366148e-02
3.063513704521139691e-02
7.484711594490297062e-03
1.148222195998717943e-01
1.177199649226359640e-01
1.204784535201720574e-01
-3.689597934031779713e-02
9.745224733089770386e-02
7.723242806300038843e-03
5.633143773791672582e-02
-1.409368044692864419e-02
-9.075774776906052332e-02
-1.216235844342063027e-01
-1.345897907237772750e-01
-2.251255721962575895e-01
-2.024085106326866876e-02
-2.843191507110414545e-03
-1.598833281931033579e-02
-6.913788593716993502e-02
-9.386828716919817794e-02
-2.394955387558667104e-02
-5.754472659610722352e-02
-1.110237754944147365e-01
-2.787758726233309850e-02
-9.813535938738904285e-02
-1.477891328573195662e-01
-3.109090809120664337e-02
-8.535282749154328441e-02
-2.647703773842460806e-01
-1.253344911139334938e-01
-6.287435393806893591e-02
-1.247325959134883838e-01
-2.532368632854300472e-01
1.407142678428016380e-01
5.869668738677696028e-03
-4.510258073073984686e-02
6.155956278611379728e-02
-6.987019657580327558e-02
2.339383192704879433e-01
-8.738011325174224742e-02
-2.374005503766205352e-02
3.401886681669543111e-01
-1.505587628378071141e-01
-2.396392478096093931e-02
-4.006241811221748078e-02
-2.751111626658774845e-01
-1.383632740945200668e-01
2.751355249062473196e-01
-1.272732419578286589e-01
-7.845944004445126740e-02
1.733463997932780942e-01
-1.609248022337333162e-01
-1.426712575084612133e-01
-1.032777683102923750e-03
-2.614558100886021363e-01
-1.358451901134433426e-01
1.162436272384399435e-02
-3.108002018821281465e-01
-2.451693003458280673e-01
-1.220020628694249015e-01
-3.554815364759133373e-02
-1.149916756456046199e-02
1.520865194008108046e-01
-1.441010205974837810e-01
-1.450765311732200857e-01
1.001919807586076072e-01
-1.424558370970825140e-02
-1.486843254920445223e-01
-8.961599189372106145e-02
-4.631908989303571561e-02
-6.164883490196550186e-02
-3.221961814025264131e-02
-2.265715744237830828e-02
-4.823131463224164528e-02
-5.920307393868620705e-02
2.702863397672989471e-02
1.111530377105955994e-02
-5.437675904185298309e-02
-2.433128712115604705e-02
-6.097284153405442553e-02
-7.780265428733106059e-02
1.183816066447176268e-01
-1.675203911434560572e-02
-8.794359782852066709e-02
6.809869892586262186e-02
5.817421276163317612e-02
-2.108483119170967077e-02
-6.435226672677818449e-03
-1.597425037255340019e-02
-4.759344796603047836e-03
-2.093993965746502803e-02
3.860868079712938966e-02
7.723445669314614459e-02
-1.775482472831366870e-02
2.658520442818180281e-04
4.051227543105484497e-02
-3.873267362332315309e-03
-5.428868203177864699e-02
-6.271070029172322313e-02
1.835219473624183709e-02
-2.615918409341229031e-02
-2.305185287097694102e-02
4.190750330334416102e-02
3.788041548962867155e-02
3.495344863501850113e-02
5.870033506885103530e-03
-1.846524589372488395e-02
-3.036188629400179972e-02
1.753387913281170482e-02
-6.485952200495309281e-03
-1.743096824835536560e-02
4.236660033887017923e-02
1.060448731598332903e-02
7.635970310070377097e-03
3.148034471666037726e-02
-4.668937094307023389e-02
-4.813093277537099784e-02
9.710034290036284599e-02
3.070316809619464543e-02
-1.817139443332724865e-03
7.539172584650788433e-02
8.907533163244713004e-02
6.776607139163418059e-02
-1.004541737701234415e-02
8.561912951150486145e-03
1.184098769849271232e-02
5.084605531209650947e-02
7.842485950723529151e-03
1.227930079871656331e-02
4.325142574340143375e-02
-3.947384180404768517e-02
5.833239779915865876e-03
-1.368442731719319294e-01
-3.144256434676360318e-02
-9.719597477628233364e-04
4.540935880203357533e-02
5.982982979739908530e-02
2.955666686526700962e-02
1.342782364086715918e-01
5.419561542747075578e-02
-4.791917302688012553e-02
3.902597437588266327e-02
1.889259114899709269e-02
-6.354946356643735583e-02
1.357751348143083348e-01
1.095736036037346789e-01
-5.582923636662352057e-02
1.382430791350013344e-01
9.408976107797920041e-02
-1.189103063048890380e-01
-5.078896493061790460e-03
-1.434520222133622847e-02
-4.122118441516283566e-02
8.147536211060137090e-02
4.235291217841831435e-02
-4.144469930939038982e-02
3.095321160383103856e-02
-2.334549391466860316e-02
-9.004429552957055050e-02
3.024591547887603080e-02
8.764608270117066335e-02
3.467285946776828276e-02
-1.076953113270081169e-01
-3.967590828916473661e-02
-2.600013523993595713e-02
1.831723938680901442e-01
1.289411425089222463e-01
1.216492774106630870e-01
-4.339361508415881530e-02
-1.083249667077937628e-01
-2.046065067239337121e-01
-2.734593834222653896e-02
-5.853037877713290066e-02
-1.061790565979786327e-01
6.568247080302866067e-03
-1.323772171141427215e-02
4.339071556208605115e-03
1.590088843699836302e-02
-1.065993725257813850e-02
-4.358871063495925458e-02
5.435550594777098510e-02
2.584623706525277995e-02
-5.945974204883607700e-02
6.848843295002561560e-02
5.225574052360977551e-02
-1.557193423479587280e-02
-1.078796182394294589e-01
-6.834282257593378429e-02
-4.138953388839897683e-03
-1.037015156646475950e-01
1.608108567959295500e-03
2.767826787001971198e-02
3.446377372296673992e-03
4.491243911191388632e-02
3.726835054275115522e-02
-1.653543273416781950e-02
2.896630403568136586e-02
2.161650084844869354e-02
2.597942983335659733e-02
-4.949224026652291469e-02
5.410902039534471603e-03
4.261812179734088962e-03
-1.068999824902326506e-01
-6.556006264618995105e-02
-1.201178364347774662e-02
-2.021787207839485789e-02
-9.421883209491430100e-03
-5.512678687335541804e-03
-7.617213623950755928e-03
-8.902987155617151120e-04
1.022166502756128269e-02
4.278636857917028809e-03
6.946799218405661641e-03
-3.403250605866831729e-02
-5.163792284439761016e-02
-9.395566422278464613e-02
-1.857798696343071140e-02
7.473201410045820711e-03
6.344932534996310103e-02
-4.481645486352026780e-02
3.217165521263225941e-02
3.561709487143636943e-02
-1.066613357151878355e-01
-6.137383134181936123e-02
4.834320598089559412e-02
6.786060789254842046e-03
-2.130321554271402337e-02
-2.723204753147658291e-03
1.112782265896443690e-01
4.069880128328465241e-02
-6.671664978410543449e-03
-3.286078099926457996e-02
2.606171786707037197e-02
3.303300858327305051e-02
-1.300781035068076900e-02
4.406895203248954035e-02
3.629767914929599854e-02
-8.553646494263303715e-03
-2.929079679965008575e-03
7.971984244452961013e-03
2.192493549538246031e-02
2.064740405656360911e-02
4.581311322355261645e-03
1.695026574627322979e-02
1.793223319447021305e-02
-1.740181597018207113e-02
-1.484934655395389906e-03
-3.749536701259297954e-03
-4.787364650322366993e-02
3.791563260147084308e-02
-3.741639530724993890e-02
-6.863427689672889354e-02
1.556021754799779416e-02
3.024310455331103917e-02
-2.137755002629763285e-02
8.211478726992664512e-02
5.553837000447094108e-02
-6.598429292879091912e-02
-1.614291194712376074e-02
-4.014707861243264203e-02
3.167923179528235600e-02
-5.165335474520712372e-02
-2.465351765384090829e-02
8.827588909873093637e-02
-5.030954103722758142e-02
-4.597276815768443908e-02
4.146023792872063560e-03
-4.260906481797747253e-02
-6.181619169160311802e-03
5.121937280607946619e-03
-4.960836612553730374e-02
-3.450937273467501870e-02
1.638388236694078223e-02
-6.758042949092518681e-02
-6.670204142810685910e-02
-1.361715719697076388e-02
-5.861525825869921130e-02
-3.596342063390163546e-02
2.153792178671966675e-04
5.843434620337140117e-02
-2.447640014667013669e-02
-4.888770199569262426e-02
5.569321052382776582e-02
8.668379575904258671e-03
8.188006693102203512e-03
-1.858032671665887578e-02
-8.206547123200563787e-02
-1.022317519530751700e-01
8.547918327323988930e-02
4.250515319569463102e-02
3.438697665917827412e-02
6.136660065865039149e-02
8.771230255006451371e-02
5.222461495958140298e-02
-3.496102766354759750e-02
7.066643311766970803e-02
-4.405427118843914698e-03
-1.031686197516986231e-01
7.526919888980647746e-03
-5.097880107054744703e-02
8.512598725430775559e-02
7.676241047258541839e-02
-1.873225965971495738e-02
4.977727134050405344e-02
-9.564781725022442754e-03
-3.722206490810759522e-02
9.717335447700074791e-02
2.365194923507630761e-02
-4.785518218557971958e-03
5.460707170449558695e-02
4.041633346735813009e-02
1.458516848027985660e-02
1.020811378898508065e-01
-4.747073978919951615e-02
-5.105595252036703585e-02
7.870817100354271512e-02
-6.998315671410780016e-03
2.133254904101686625e-02
-1.819554201558952825e-02
1.777600734790084000e-02
2.025722402952621209e-02
5.257004468918390766e-02
8.276633404236169965e-04
2.364437826077518678e-02
-3.094100139421349701e-03
-1.188648603235123793e-03
-2.778166200815485216e-03
4.389241543651180993e-02
-7.833130562213462197e-03
-1.577931590631256598e-01
-1.656098396701129183e-01
-6.472302297626351952e-02
3.902622204339304540e-02
-5.561226754618663060e-02
-9.579964548831676474e-02
-5.094067436884754108e-02
-7.958279975545140550e-02
-5.649179528226410535e-02
-2.100121421037920988e-01
1.014673553788565663e-01
-3.646689646559697628e-02
-7.670110772987330516e-02
1.727999295300609306e-01
-2.095987588527230966e-03
-1.364991293674227280e-01
4.112736876765281380e-02
-5.127402879715115686e-02
-1.298533442343572375e-01
-2.634349906006161479e-02
-3.501496884188606828e-02
-5.041209753565280283e-02
-7.919109244543330595e-02
3.088994967016281401e-02
-5.926025090311560356e-02
-8.363685513800062088e-02
1.418104960494472261e-03
-7.438770592210190713e-02
-4.491149463585532992e-02
-6.142906678388668912e-02
-3.771028214791674604e-02
-6.204600816154681037e-02
-8.161642229273133320e-02
-6.120946312703231390e-02
-7.240891241842707660e-02
-1.130064800109612105e-01
-5.495372405679167099e-02
-1.731475763548116775e-01
-2.287936547220058292e-01
-9.267417315805351330e-02
-2.329658224896583585e-01
-1.603910670325139065e-01
-1.027264326207437822e-01
-1.939750746852219321e-01
-8.186882641727288856e-02
1.755872394936623671e-02
-5.044983725150660459e-02
-5.853715169916751115e-02
-3.877989634781824763e-02
-6.262536477202793050e-02
-2.119444928417335908e-02
-1.252798004385832949e-02
-3.333066289482707056e-02
-3.692161813931802566e-02
-2.114247105212150105e-02
-2.469270143673572490e-02
-4.902680606217023340e-02
-4.500407222549201308e-02
-2.126577515237895039e-02
-1.427403993434701868e-02
1.484872887372880616e-03
-6.629657302754944637e-02
-3.052540270572607489e-02
1.426494545513283139e-03
-1.705194062381035561e-02
-2.124815158811415791e-02
-1.334221964476961508e-02
-2.926990059599842570e-02
-4.200722961853167736e-02
-4.394882613646500236e-02
-5.930814904170422786e-02
-7.329088674721527530e-02
-7.641036157347634583e-02
8.240958156524050282e-03
-1.306508142712129242e-02
6.638623490737392829e-02
-1.480706718361241570e-01
-1.409853702225192240e-01
-6.312876080340200889e-03
-5.872317905598468946e-02
-1.490914111333738745e-01
-3.444478350346171641e-02
-3.504232146617169280e-02
3.778128855574291317e-02
4.748499139048522472e-03
-2.650236462106744795e-02
5.003729473788025989e-02
9.353841743578378276e-02
-2.997643793308728526e-03
5.055729256738494132e-02
3.804940201767256086e-02
4.701645457146571422e-02
-3.659056337644270296e-02
-1.118087647343112695e-01
9.524749243469482485e-02
-1.627770557568220281e-03
-5.446362619756100337e-02
4.019219265424609638e-02
8.187109306472688253e-02
-4.149747226896736280e-02
1.143791733719400627e-01
3.553114655468434663e-02
1.802009319304743659e-02
2.246376019557152492e-01
2.984110336060476903e-02
1.070173610521464175e-01
2.065450799955332317e-01
1.228129020346869354e-01
9.852135282781125658e-02
1.188261784818891303e-01
3.035895624184761429e-02
-2.187241012970295162e-02
1.165953435505869135e-01
1.153646401866618640e-02
-5.149776364120511526e-03
7.392022623007678261e-02
4.255710206431199613e-03
-4.635051405656183399e-03
1.471483846499326842e-01
3.138013416326910707e-03
-2.309926222127607620e-02
-3.690917439691957652e-02
9.258393320706626364e-03
-2.345069399263882345e-02
-1.853184843768305723e-01
-1.796967930269481595e-01
-1.703570265555631458e-01
1.689973803621438453e-01
6.385058913690590254e-02
1.412298841827690395e-02
8.310060986152835449e-02
-1.048642640152367550e-02
-3.207172278292087092e-02
-1.137020466729567469e-01
-5.702887022572248471e-02
-1.179005445679132402e-01
1.121360189328314029e-02
-7.175602921268213474e-02
-3.792775099810863099e-03
-7.426288044720494308e-02
-5.466116173423687941e-02
3.046641155772595103e-02
2.150194257636637782e-02
-6.772155901015990305e-03
1.795061309592295082e-02
1.270152917683927372e-02
-4.478807137180556316e-04
1.466303948570986393e-01
-1.132513413209886195e-02
1.849865751842103001e-02
5.884814637853499203e-02
-1.158574788131159876e-02
7.306891249151360734e-02
4.120384507848116190e-02
-6.832404860875092171e-04
-9.264837800011509195e-02
-1.085372140904460742e-02
4.535828533047560340e-02
-3.275920151943737674e-02
-1.531348034079214188e-02
7.037945668995315186e-03
-9.855985794513097073e-03
3.600049216625175047e-02
-2.078333673605490747e-02
-2.560494463647417646e-02
-2.849017133642417834e-02
-2.746879818921526065e-02
-3.194731324833463559e-02
-2.867434278056089220e-02
-4.649155581407672655e-02
-4.602406104439009382e-02
-3.802363728453217462e-02
4.900856132494545159e-02
-1.718334126990626876e-02
-6.452551510883097752e-02
3.270638914083925236e-02
-7.199563717424794021e-03
-2.621826292776767778e-02
-1.562607992825624376e-02
7.035883628308139612e-03
1.903521911505876366e-02
-4.046348550757094403e-02
-5.179237456682793395e-02
-4.150713214234512394e-02
4.775640594300222474e-04
-4.452446077998586937e-02
4.414694735050315316e-02
4.746519498856038854e-02
-1.965690092979353182e-02
2.871894299908799714e-02
3.118839201522004972e-02
-5.130110535287272372e-02
1.158877261331676262e-02
-4.583343193686934686e-02
-8.413779629751867717e-02
-1.740946141142088628e-03
-7.001082476609833682e-02
-8.612464209633728662e-02
-8.331072098139418597e-03
1.163175347196818005e-01
2.818938417679918429e-02
-3.180673039819018055e-02
1.056242932180799787e-01
8.349202488831561353e-02
3.110752543742901707e-02
5.911466000316769470e-02
6.939589142510886599e-02
8.269966426675501303e-02
1.443693937385395754e-01
8.310110172909666512e-03
5.696747044787751207e-02
-5.031922612891983476e-02
-1.208474499396902518e-01
-8.418551759324473249e-02
-5.565383161989469890e-02
-4.291911405919323144e-03
7.982088255318985082e-02
-5.084473084686979422e-02
-3.971837459736677484e-02
-4.627118139567200188e-03
-6.815602512617405240e-02
-1.072540304853015006e-02
-2.019276098129645872e-03
-2.176742682866538575e-02
1.671564366823270406e-02
3.054656568816287165e-02
-2.295659527246587256e-02
-6.179583518886153787e-02
-8.216495604739788849e-02
-3.761232443982662904e-02
3.332900474333387857e-03
1.290130347157094313e-02
-5.463702472779165265e-02
-1.826414647114690468e-02
7.026980571781625551e-02
-1.602876861041731618e-02
-7.030022290965694254e-02
-1.930888915927048491e-02
-9.254079084344524544e-03
-3.659333456846419752e-02
-6.004077057231288483e-02
3.700630302926310317e-02
2.668739303034896662e-02
-4.619750774721764069e-02
8.697203357135312174e-02
5.285007999369653597e-02
1.423153142068517632e-02
-2.190866127656785831e-02
1.330162282258463141e-02
-5.265752144690006437e-02
-3.263099142049594864e-02
9.658559787110164094e-03
-8.211503402461357848e-03
4.519582197974057747e-02
7.591978452367655061e-02
8.470253632794130794e-02
-2.950292919498803679e-02
-1.354817524430312024e-02
1.032631590183708953e-01
5.809476245866373317e-02
4.131574495027320187e-03
2.720155944022926986e-02
5.244790219460254699e-02
2.354841590854413191e-02
1.546732485332234786e-02
1.310725907110444656e-02
7.606803949372679084e-03
3.123065205969789357e-03
4.007856363976543962e-03
-1.338641166392301289e-02
-1.658712830715093969e-02
2.653107041801838761e-02
-1.235823299647247353e-01
-1.069968826276655183e-01
-8.647063036425069182e-02
-1.443981020708903495e-01
-2.512618254991332289e-01
-1.248817959076204825e-01
-9.446032684739959218e-02
-1.664613466755008320e-01
4.834414712074325965e-02
-4.205214676203836155e-02
-6.015334993126115332e-02
6.604949831346459965e-02
-1.345930948002735036e-02
-6.059498362261361501e-03
2.302417889051251998e-01
3.663575687853159318e-02
2.429018262636371134e-02
4.217398286579037564e-02
-1.619389032788110527e-01
-4.080657581347101048e-02
-7.992832772746885639e-02
-1.116194946011029726e-01
-1.526353347108943548e-01
-1.197446422851268788e-01
-2.018654925169658387e-01
-2.028147360742209304e-01
-2.421900381134865082e-02
-1.535839925907871995e-01
-1.707181562313012102e-01
-3.464129220320373570e-02
-7.631442711445589333e-02
-6.806608688776735749e-02
1.187891362902751824e-01
-1.088522451263535494e-02
2.912442949496885092e-02
2.730204240655672784e-02
1.294941445825190454e-02
-6.761446372105837412e-03
-6.767492793636360748e-02
-4.045351124461343123e-02
-4.737020623367902555e-02
-1.248644360249387061e-02
1.231407799415668858e-01
5.948956704161829923e-02
1.135711860982761487e-02
1.453915639258134516e-02
5.504736047190165495e-03
1.468672753333195857e-02
2.032636624003420628e-02
1.382621057143224204e-02
1.219461850898695063e-02
1.745804556439307237e-02
1.586410988775507555e-02
8.804499294974928083e-04
-1.641638119318297598e-03
1.681661171391252846e-02
3.359839927432749923e-02
1.544378317141289342e-02
1.747706239784689586e-02
2.772021394991938670e-02
1.562553236448766675e-02
1.434011291376594173e-02
2.180470053840490117e-03
1.647660388703116362e-03
8.249829601346500563e-03
4.202096484075512096e-03
4.810156060081545969e-03
1.624964743802786646e-02
6.428206355081374571e-03
6.561216194729874510e-03
5.911233282802630384e-03
5.628282953768365578e-03
9.172947935710397058e-03
8.686304881781759316e-03
1.293738411515879365e-02
1.233795267218710558e-02
8.725636698898987451e-03
5.292105317272688229e-03
1.980819543146470057e-03
-1.636929861110495051e-03
1.334090578663081270e-02
1.450497367526676525e-02
1.238280888758640230e-02
2.866523254831672418e-02
3.162535440421774396e-02
3.056044671823181583e-02
1.706366844039507516e-02
2.021105584054445903e-02
2.100698484380893183e-02
1.727609111173974933e-03
-1.307920682146233859e-02
-1.335583725472288402e-02
9.040771263351201487e-03
-3.313937471306639421e-03
-7.939449828381545116e-03
9.001874106716510615e-03
1.940272262774883063e-03
-5.553541643480424707e-03
7.850068611902886627e-04
-2.128198136417430286e-03
-3.746181722054229678e-03
-1.303209741568938686e-02
-1.016535234056316524e-02
-7.354339556130018440e-03
-1.446271236078950327e-02
-6.336366688650511142e-03
4.915264358768685034e-04
1.609673663261588020e-02
2.107817959512882366e-02
1.173508779626509201e-02
9.880273609649025887e-03
1.080119170128055611e-02
1.575658185853623036e-02
3.884997608781504651e-04
1.445706655613171465e-02
2.551851690678806281e-02
-4.258829531838788721e-03
-8.197116375829552326e-03
-1.844516103635530230e-02
1.651253830824906885e-02
-7.663648597168446104e-03
-1.981912433777500634e-02
1.742969991634357382e-02
-9.346199848732148277e-03
-2.207677910726153075e-02
1.239096095834822317e-02
-3.852498953009137091e-03
1.350395769809564512e-03
1.724305364957368081e-02
-8.985559935463466135e-05
4.256182616273548533e-03
1.350187711236759160e-02
1.054192471224364236e-03
6.106631887976845217e-03
1.403860058784396278e-02
3.317586426814447473e-03
2.109301543091724861e-03
-1.335842749065450051e-02
-3.570589499962700808e-02
-2.267687414512069288e-02
1.984187899480416642e-02
-4.893558974710109609e-03
1.603462286827551930e-02
1.867344817387637385e-02
1.775204725573620648e-02
7.135554187724506845e-04
1.219510774985741938e-02
2.050133720202633111e-02
3.381341801284182269e-02
6.832508246201414448e-03
8.292791830634612185e-03
1.369022843313659303e-02
3.604006808973850891e-03
-1.495545663906584777e-02
-1.091599711555716126e-02
1.368013572635937104e-03
-1.150697442963722651e-02
-6.997922975314807385e-03
-1.809464881729200714e-03
-3.256672498010535106e-03
-4.100124225199321994e-03
-3.473784650976563179e-03
1.604452197795024418e-03
-1.045841287008873527e-03
1.444779255517348975e-02
1.041082763529277769e-02
1.677128200198543459e-03
3.702168353799362675e-03
9.064267653857406787e-05
-8.404587859590216536e-03
-9.112329883923976290e-03
-1.321163482018049978e-02
-2.529817774669785961e-03
-1.287635087922484739e-02
-1.296577991185532581e-02
8.958504157265547807e-05
-1.083875653665082595e-02
-1.312554767006332210e-02
-2.119118665559788402e-03
2.752130458957860633e-03
3.934361954299516080e-03
3.954575591046011716e-03
1.184359080848206014e-02
1.359946404699791632e-02
1.121182165190755253e-02
1.404656256024609980e-02
1.619736922286773434e-02
1.207445418696348298e-02
7.032511896670353389e-03
4.307671631679096946e-03
-7.684449089709983680e-03
1.006173357331765703e-02
2.841717634763634131e-03
4.685842928826591119e-03
-2.220840764324618320e-03
5.001869206197902436e-03
3.167808978843919369e-03
7.319285535229434585e-03
3.913128550646850258e-03
1.204802468372966973e-03
5.427615358537666787e-03
1.450964449692643266e-02
1.900405604505813655e-03
1.925983746987675743e-03
2.823008457428118501e-03
7.774187527830178981e-03
3.756741860871699954e-03
2.172953704648380318e-04
5.377640482398223301e-03
1.962715881567683729e-03
-7.349817197790518147e-03
-7.570979728690136260e-03
2.801605714623146663e-03
-8.727273410788421310e-03
-6.274104227740463606e-03
1.300547431535307823e-02
6.100336833277120521e-03
4.529359323875431845e-03
1.616813722663812403e-02
3.146186398365327305e-03
4.007015914623292957e-03
1.212533407124472516e-02
7.532259491817184550e-03
5.090846901005088680e-03
-1.203022074778547362e-02
-1.260968136676211132e-02
7.651793690259448173e-03
7.687686126563561713e-03
-1.779511328106119991e-02
-3.028474461806517689e-03
8.349219088275749079e-04
-5.740186277503667167e-03
-1.047808979968721868e-02
-2.995355828807113544e-03
-5.518137864922979807e-03
1.039433572790466644e-02
4.858564432437402188e-04
6.905104827143004713e-03
1.152482734798085037e-02
5.730441345762378978e-03
1.256192585981576355e-02
2.305364559526741630e-02
1.433127508941214011e-02
1.637311340702224914e-03
-3.687651603355776163e-04
-2.495082372615001817e-03
-5.351836787629474885e-04
6.127645220706369120e-03
-4.683783802054478779e-03
1.759328713545928614e-03
3.564586007164329256e-03
1.473779868222048657e-03
-8.331513700254209245e-03
4.299612394226669070e-03
-2.959983072435971949e-03
-7.216933779382444028e-03
4.242649362435605212e-03
-8.355232494178766248e-03
-6.432112118311895249e-03
5.976332057889036445e-03
-3.195387819092862600e-03
2.330044691352437837e-03
4.309256328925328838e-03
9.146016362882456591e-03
1.036936753292043434e-02
5.614620363070981987e-03
1.465234538767685134e-02
1.094406869541938998e-02
6.988846420076180385e-03
-1.647768499856137880e-02
3.188876192212814452e-03
1.337665244198424884e-02
-1.183022910966687220e-02
1.570626468872460052e-03
7.959754549066022991e-03
1.830906110705151149e-02
1.284482953894581364e-02
2.132875022564647075e-02
2.277879835459554417e-03
4.436916007684008761e-03
7.552683636256456515e-03
6.431150430536472853e-03
8.468282472559708965e-03
2.721490102119953573e-03
5.472764651960203459e-03
-6.080719382306511698e-05
-4.479015913492678455e-03
2.055160830505754765e-03
-9.334726304790121748e-03
2.572922402790517316e-02
-1.072618915152900171e-02
2.429739618529543326e-03
1.635009167929144663e-02
-1.147933436138899935e-02
-8.768443117507015300e-03
-6.177920288979446214e-05
1.905534761474408662e-03
-2.742013727479967328e-02
-1.037670672910128225e-02
-1.383508921445223208e-02
-1.555194913807189834e-02
1.067606966068648930e-03
4.282273207953228599e-04
-1.911498485229435815e-02
-2.758523128582157646e-03
8.821060127596517045e-03
-7.683252053167791140e-03
-2.739707472840267888e-02
7.072838639619757027e-03
-1.329924742216555093e-02
-4.180521836373503330e-02
2.509579763348337988e-02
2.192954851081169512e-02
-4.089135257137341620e-03
1.054774743666317578e-02
-1.929824900100855778e-02
-1.376483912369272714e-02
1.009103554440359506e-02
-1.768642017048455140e-02
-1.677080034172440115e-02
4.211300626802172084e-03
-7.282928232629805321e-03
-8.294464462950290606e-03
-1.037936297464736590e-03
-4.800347451221001482e-03
-1.778428467204496224e-02
9.299047291797797252e-03
9.787468290200884713e-03
-2.171947466214432104e-02
1.083870872049900493e-02
1.090237067853554696e-02
1.250922546302247508e-02
6.706530658317726157e-02
9.534570589881479624e-03
3.482551241138731601e-02
4.014132247171746729e-03
2.795156615404723738e-02
4.194022097313639119e-02
-3.201729266938749957e-02
1.356715304179685611e-02
7.330694779863516919e-02
4.712973423075155627e-02
-1.804509522116098108e-01
-6.120265486548762818e-03
2.171707269778715577e-03
5.244875479487633857e-02
2.211230411726568257e-02
1.713625793642769082e-02
-1.059795937562824086e-02
-5.166432170105317301e-02
-3.274021941846771977e-02
-1.148137592528917367e-01
-9.242659354382365411e-02
-8.482498122227792592e-02
-7.568275741138434654e-02
9.581651184152474576e-02
4.279005038719971982e-02
1.214085587168918789e-01
1.103803083143853891e-01
3.500759950314739216e-02
3.336040721498743228e-02
6.922334834638524392e-02
-4.478761508992139609e-03
1.672634369968307305e-02
9.409720495666547280e-02
-2.051766160435597799e-02
5.059404901761975493e-02
1.178245068603705759e-01
-4.420572401723771999e-02
-4.293737400797711587e-03
2.511048546183192957e-03
-5.237971480763115029e-02
-2.634504024728602165e-02
-2.905496308298087874e-02
-2.088496503817966615e-02
-6.057662361232582157e-03
-1.455458963129084224e-02
-8.426449917048935839e-03
2.122830124014807585e-01
2.066997226431701862e-01
-6.471810839137041860e-02
9.306161647251610936e-02
1.162970742909204686e-01
5.511482905669875393e-02
-5.875153997016914487e-02
-7.276554474602831002e-02
-2.425232968828004362e-02
1.607780381392083513e-02
-2.774994425083830707e-02
-8.203426070775135526e-03
4.098384190271398692e-02
-4.465518888622282967e-02
-9.241726213244171040e-02
6.409187046556574785e-02
1.575208914433212926e-01
2.400486043194028155e-02
-7.619700424494521562e-02
-9.428773448432996307e-02
3.976309171735042253e-02
1.210182022237660665e-01
-4.406071060024906172e-02
6.908606108888121211e-02
3.963155165799728818e-01
1.566710620292579570e-01
-7.211822621065143435e-04
-2.187846506327945084e-02
1.251174861478169531e-01
-1.025147976769582303e-01
-5.175113270445262648e-02
1.640995138185361302e-01
-1.658546826536305696e-01
-1.373449786251685900e-01
7.434485781110163061e-02
-3.911102254231976078e-02
-5.419304925159757619e-03
-3.306265422152548233e-02
-8.074001999549078323e-02
-3.146415174311877061e-02
4.491461401339569975e-02
5.037894243224693216e-03
-4.428136903565829674e-02
1.231722804020424084e-01
7.570722971720521277e-02
9.713031001429094091e-02
-8.265734192127116575e-02
-3.807256045909494790e-02
3.494652632161483058e-02
-1.430918143911553975e-02
-9.466780830569024308e-02
5.885466678782652616e-02
2.195363048792329241e-01
1.556363285470009905e-01
-2.753126760789490271e-02
-1.254320900395026195e-01
2.430783827968177602e-02
-3.411699612466574660e-03
-1.590029579520965686e-01
1.331987516998665022e-01
3.130222514300032843e-01
-1.002323672940666488e-01
5.234337156494000415e-02
-1.653950087223143503e-02
1.811412190208532350e-02
6.859588170925175199e-02
8.695082735131251517e-02
-1.142233719527938410e-02
-5.048591675842011017e-02
7.840430770658943227e-02
3.457325287954444992e-02
5.835083285810754167e-02
-1.260243826914997922e-01
-1.127082180032355774e-02
6.510683132127796646e-02
3.815585802756570055e-02
-9.593669339891662540e-02
-1.099604627493681042e-01
1.165077954526796272e-01
7.804474260611836411e-02
-4.176366308235597569e-02
2.065406271751457981e-02
-4.103476830682151882e-02
-4.863621642270578999e-02
8.993018053500057007e-02
1.093582413171171469e-01
-5.355866615875836539e-02
6.570315267424494191e-03
1.777919812602113403e-01
3.806886583171222721e-02
5.071294240990883301e-02
5.117311462047358095e-02
6.900407433457000222e-03
1.498362505108537593e-02
1.378411260312522799e-02
-8.093453575714367257e-03
5.367283156045039340e-03
-2.000580424628248862e-03
1.819431400176212688e-01
-1.785704576521086537e-02
-8.246832988040908585e-02
-3.018128651961203210e-02
-1.120627963263617043e-02
-2.674276900838469528e-02
-8.696760464010178104e-02
-5.177917506784405349e-02
-2.672128071579095432e-02
-4.115543115666937118e-02
-4.143418725378034129e-02
-1.521866960111724863e-02
3.103590904031056433e-02
-4.602576541313491837e-02
-2.513768697899143589e-02
9.484051868795485840e-02
1.540294968779736505e-02
-7.375381651949003414e-02
-4.734265801327987994e-02
-8.697990874018245167e-02
-1.110063961901890800e-01
-2.689616823863589037e-02
-1.008345462593361955e-02
5.667536888485652513e-02
-1.058309508279491884e-01
7.592916782432094711e-03
1.642163716268495999e-01
-1.523817893237725540e-01
-3.244950178825944942e-02
-1.115955745968828100e-01
-1.536600171529092507e-01
3.112017202482538023e-03
-1.229999097556290673e-02
3.739243476501237506e-02
-2.579032662713904786e-02
1.139751722643738280e-01
-4.087250763311598561e-02
2.915611660156872120e-01
2.224531183549637303e-01
-3.476412497419231577e-03
9.109931352002566263e-02
1.116988995937867879e-01
8.078338161464304612e-02
1.778657888739028636e-01
-2.815516984972199141e-02
-1.558908331665944391e-01
-9.657947646067883973e-02
-1.237980398665231851e-01
-1.118075952482731339e-01
-2.254735682521288170e-02
7.868243246124341853e-03
-9.237993648691392168e-02
1.746897031521322807e-01
-1.211839650078719438e-01
-2.395007519478857261e-01
-8.263841580322253688e-02
-2.375980613127673044e-02
2.037567891427398137e-01
8.679287566065410631e-02
4.643662496488572961e-02
3.879881945064984627e-01
1.388191972357792070e-01
1.539106459526659587e-01
-6.974388029319486537e-02
-9.372309916175945721e-02
-8.050873915246471724e-02
4.869342794006208548e-05
8.331206386707394607e-02
-5.592573040446907617e-02
-7.925582164424870013e-03
2.969841429191729665e-01
7.045625824409269822e-02
9.335125261026447352e-02
4.867777177958206025e-02
6.145114616051333689e-02
-5.488992392314846758e-02
5.564824265453624519e-02
9.879518555351025910e-02
-4.677621076616917534e-02
1.312870608958211470e-02
4.905756531886500821e-02
-6.779066527472626946e-02
1.869023236925939496e-02
2.973811525727197355e-02
7.424802743122140003e-02
7.378392844044220911e-02
1.683380667925568619e-01
1.690458498160660877e-02
7.048755924052436950e-02
2.140258573185698232e-01
2.010874704035376520e-02
-5.445352472877734024e-02
-5.544105191449833631e-02
-2.323105540799812532e-02
-9.219795131590922954e-02
-8.287469076326246797e-02
-3.255743020594832615e-02
-1.011711282294678466e-01
-7.225761699930134674e-02
2.885905723546980939e-01
-2.156610682557078690e-02
-4.730823144701639337e-04
1.742388538595532055e-01
6.695867482398747128e-03
-6.287942399063399523e-02
6.683297255901223324e-03
1.147552765572252137e-01
-1.542502062737605706e-01
-5.474775296278221182e-02
-3.813842674726271309e-02
-1.863198041085853962e-01
-2.472723935696030315e-02
-3.754851507735663257e-02
2.249165713239480169e-02
-1.332506718313390404e-01
-1.839931797537058822e-01
6.752959242867465073e-02
-8.018399697675031301e-02
-2.652738780319874867e-01
-6.957263643735495107e-01
-1.573431784506465203e-01
-1.783595666224238319e-01
3.763754002605361471e-02
-3.082324289080279889e-01
-1.062680210006266140e-01
2.511679888640163671e-01
3.086370259955867890e-01
1.012849595575728012e-01
1.045796583895551718e-01
-3.269304426438478500e-03
1.268593401686731459e-01
-3.546274362311313544e-02
-1.125295650747055731e-01
-5.866736758188133977e-02
-1.491405479279898048e-02
-2.840519844947476252e-02
-1.856235437926988946e-02
-2.069783485082048458e-01
-7.374774657228042041e-02
-9.685445299644426798e-02
-4.396426242320150557e-02
-1.574688977024143316e-03
-2.578281138699543146e-02
-1.031850540445609782e-01
7.606237524318433529e-02
3.532597834868955733e-02
-7.513967217819249485e-03
7.423268103167096621e-02
5.171876370683767959e-02
2.119486539267965292e-02
5.226982045536598953e-02
2.696254130012391489e-02
-2.649751267791195138e-03
-1.588464704872906766e-02
2.809218072185916686e-04
1.497286089835262422e-02
1.182386337187660841e-01
3.140856075235025358e-02
1.117178444899896150e-01
7.254182702429372298e-02
7.084005018741143522e-02
4.330805288876988374e-02
1.206003525356287229e-02
-3.504598521857448142e-03
-4.967158294712217467e-03
9.484332291807258744e-03
5.502155329260347699e-02
2.032018531654228646e-02
3.814259949672844929e-02
1.989135581882710974e-02
-3.076245369919964039e-03
3.964731389927907829e-02
1.841454983715077806e-02
-2.158322915884951058e-03
3.042548440896973919e-02
2.455811303691873143e-02
3.572268802411840503e-03
1.330605348041437319e-02
1.568935316639489055e-02
6.411107853181084032e-03
6.480955010279969286e-02
5.763693215097666356e-02
4.502378492190424464e-02
6.142752268400551025e-02
7.028217751440679617e-02
6.975618609647367407e-02
2.628025286714538722e-02
4.105172360359171657e-02
4.415874611585345055e-02
3.698060760038166667e-02
-3.291846645636058166e-02
-5.105663321769658008e-02
-3.668799406743957631e-02
-6.452349421082037573e-02
-7.159153691409712861e-02
-2.685416869243925989e-02
-3.426898560131207139e-02
-4.571157420223277701e-02
-2.095365225056714312e-02
-1.192165325620960295e-02
-3.384780799914003518e-02
-1.654617619075843260e-02
-4.160359660688809497e-02
1.033337329305594136e-03
-5.941384780237814189e-02
-2.782697974487791451e-02
-2.875832939268460620e-02
-5.902562993681899003e-04
5.963360961145551531e-02
4.722956161709889605e-02
3.008882860788989616e-02
-1.191262437436207706e-03
1.148074811700175446e-01
-9.146346232051053363e-03
2.332114202807258549e-02
6.240322118839544512e-03
4.989496466864922625e-02
7.200930556821608097e-02
-3.630973687600666956e-04
5.512211233109528402e-02
1.026560167072599825e-02
-7.141411585657577409e-03
-1.683000808423926534e-02
-6.440508403544437099e-02
-4.840653001397277055e-02
4.550510512176963313e-02
4.460777496163340766e-02
1.607771693256474996e-02
6.783331068545907228e-02
2.816612078541463199e-02
2.839994425875731407e-02
6.164655104676954739e-02
2.913887564640186417e-02
3.736463772408726153e-02
-5.108506806374737280e-02
-4.769460009746022411e-02
-2.377449268653757455e-02
9.061725849465131558e-03
-5.034766666088548448e-02
4.466232601700253352e-02
-8.457677999124446622e-03
-3.219887478615551801e-02
7.819044014687349942e-02
1.279013255639150082e-01
9.838162960724330941e-02
8.556679252852367190e-02
6.282235223875770602e-02
1.138174607462188598e-01
1.437083160267750570e-01
-4.879312719977503196e-03
1.106594538570310725e-02
5.311018825679652069e-03
-2.485154479625875656e-02
-6.323166654397455351e-03
3.412913592268018714e-02
1.421922194049586412e-02
3.471776010683822605e-02
9.582548639682118841e-02
9.450639108881029454e-03
2.474042176489910441e-02
5.706871039276049246e-02
3.689581962925640723e-02
1.967798406217315804e-02
1.876102238337601716e-02
3.705168682898915544e-02
1.651083275362720190e-02
-8.795555224911578984e-03
-1.057395393630469228e-02
-4.154510032013999238e-03
3.055756783752576478e-03
1.342658059478668217e-02
4.486947728140227437e-02
6.425505483177017252e-02
1.646318240281901711e-03
1.473380984556055262e-02
4.301778953863825972e-02
-5.074576436374600430e-02
-2.075858707729841615e-02
-3.251128348303811144e-02
1.823594974496443519e-02
1.357110757096996814e-02
3.619521672637316181e-03
3.104461365054685465e-02
3.018581110978926091e-02
1.835546994795980713e-02
1.585380484260144260e-02
1.975929013493995731e-02
1.054064482687802617e-02
4.392988917816476047e-02
1.839911000360315227e-02
-3.945243208758867498e-02
1.074394234352496133e-02
3.579498374835849567e-02
3.171534636083062769e-02
8.149249037143632690e-03
3.795443699965052320e-02
5.193099783305401423e-02
8.160296079330751906e-02
6.607525761706745104e-02
3.399112183146151683e-02
1.024506004771498363e-01
9.156669488911221844e-02
2.791794976147483204e-02
4.857597977191131788e-02
5.144528484182812889e-02
4.521266706388638035e-02
4.927577430654600521e-02
1.925664872961116046e-03
-8.495063650479738396e-03
6.800725970277134158e-02
1.359742035178678268e-02
4.974903645511408873e-02
1.329817879069540923e-02
1.662113164369929605e-02
4.785422522373387194e-02
3.452678803718906703e-02
1.007400735468843081e-02
-2.301439190892995423e-02
9.305262951710774333e-03
-7.141947277494493582e-03
-4.872612135848837511e-03
4.101583993987485688e-02
2.537675347713168675e-02
3.740272567000386961e-02
3.365269747838419562e-02
3.638592065435938133e-02
1.562709698147601856e-02
-1.896796465500905082e-02
4.961096321499917222e-02
6.078574335842953230e-02
-2.608505559467506202e-02
-6.775317773246763986e-02
2.235420347521528683e-02
-6.939213055502717331e-02
-5.934654227335053878e-02
-2.804267703896890038e-03
-1.091213932784121377e-01
-6.404559281715745123e-02
-1.459044672249221533e-02
3.790231302065698304e-02
-3.186688386135886307e-03
2.580720956949337022e-02
-7.086430912138792781e-03
2.437280348826928802e-02
-7.115457444314943203e-02
-3.013568242022876195e-02
-4.113892287805354792e-02
-4.359685328953458866e-02
-4.520149975227691352e-02
4.565171946250111485e-06
3.796148754808192916e-02
4.435170953167590427e-03
6.456327973005896326e-04
-1.402142586268789216e-02
6.469886083001244459e-02
-5.078639965546053944e-03
2.805083761501967268e-02
-1.457435309647819302e-03
-1.090468656691540549e-02
2.961450177918954329e-03
7.544948029527057121e-02
5.253473653183036995e-02
3.960582489182886551e-02
-1.713330390784168205e-04
2.109073178922528380e-02
1.753925066923280388e-02
1.609554243826057801e-02
6.217933472962049873e-02
6.939357773135509944e-02
1.206583500000185660e-01
9.751707976540140155e-02
4.760739687973863932e-02
1.192668879890921019e-01
1.151423289865024374e-01
7.348284850245001554e-02
1.257444314882001368e-01
9.586103488345937285e-02
2.396384210479997248e-03
7.012292896943918274e-03
1.298081873970884786e-02
1.417967814307988933e-02
-7.625671485665923809e-03
-2.710932125776484812e-03
1.951182101123549511e-03
-3.543952648479491846e-02
-2.352937966053320409e-02
-9.146124818016141203e-03
5.353392503454572349e-02
5.859893571425795616e-02
1.764477427174872617e-02
-2.321870205468045973e-03
5.952703907347619422e-02
5.657344091153265059e-02
2.773499039563585150e-02
1.401926318187849685e-01
6.242377345820778606e-02
7.331699302577278365e-02
5.038115282267487810e-02
5.811522589898461544e-02
-8.916514717715377097e-03
-5.443837672178883369e-02
1.751882655536230946e-02
-3.782595573887530954e-02
-9.802293887068547207e-02
6.829740475511049402e-02
-2.312052474507711800e-02
-6.663352855930675112e-02
-2.079744987375572174e-01
-7.012454570593631975e-02
-7.270030269035050730e-02
-7.408263999821751433e-02
1.771611967038928467e-02
2.546436482223730230e-02
-1.913043681482155464e-02
1.008696096296424066e-01
1.207157954080435164e-01
6.562918030120969137e-02
6.059300076515302530e-02
9.923637059045932463e-02
3.102307950905699302e-02
2.366338345658703865e-02
3.023301192898604842e-02
-8.605146055591605253e-03
1.859038491560104393e-03
-3.020055101473141310e-02
-8.039697394793997309e-02
6.428608631436574794e-02
7.714295657038097026e-03
-2.467143344977357211e-02
8.994870443537893168e-02
1.015281202063338245e-01
9.017932598180533610e-02
-2.398681598289379574e-02
-1.403433434888349922e-02
2.024169834552155475e-02
4.949514280100746066e-02
5.245201544351188461e-02
4.769401494224114607e-02
6.264185703492977653e-02
9.439224664003514897e-02
6.001251027009470856e-02
5.254525258116093944e-02
-1.401369512690548436e-01
-2.421854285210425783e-02
6.880812424268487049e-02
2.626274122702114758e-02
-5.332792414905660611e-02
-4.247759895942891661e-02
8.426898697569208674e-02
4.894097550570742500e-02
-1.198881630328874591e-02
4.341115999855481300e-02
5.809281151471504950e-02
2.392012630942760929e-03
-1.930176513138165059e-02
-1.144985015383333249e-02
-4.599993534947313147e-03
-5.814561080835402990e-02
-5.458320878910630919e-02
-6.291850880654822897e-02
-3.114727695320670259e-02
-7.476896627678410352e-03
-2.667003060062115780e-02
6.530239860623361821e-03
2.319881319479006471e-02
-4.889176835209171207e-03
1.928521849134387858e-02
3.581454074548117567e-02
4.543216173301405786e-02
5.025583944785846913e-02
5.373496864449439636e-02
3.727611253031775512e-02
5.068569412149060566e-02
6.134779259864473616e-02
1.289632462116606891e-02
1.718093859147658276e-02
2.832184244165777617e-02
1.397115934489471245e-01
1.322238425744666317e-02
-7.565845280857443067e-02
1.017163868453745679e-01
1.178283262932981468e-01
1.111698593222755320e-02
-4.772080728458623355e-02
-1.996155594700889033e-02
-1.316494207385197728e-02
-4.723123617708190752e-02
5.105790714713411525e-03
1.414801480598078601e-02
-5.990890454582420421e-02
-3.392774471044354007e-02
-5.081155971594000093e-03
-4.357444831898781012e-02
-4.581700512903189720e-02
-3.121121063426534822e-02
5.313575801480244915e-02
9.027467644165344807e-02
7.395189600559173848e-02
-1.997381410257663761e-02
-4.349523245967450505e-03
4.255850314236248738e-02
-1.939126587350823230e-02
-9.807299159658884602e-02
-7.296883039719129216e-02
-3.914783831801930264e-02
-6.254255938538225146e-02
4.134473202930454699e-02
-4.108124668861915657e-02
-1.907132320467331416e-02
3.969151770424793335e-02
-6.807528493556810889e-02
-2.640180709011331200e-02
-2.198497618724483404e-02
-6.456823250471064451e-03
-2.190542195083463456e-02
1.134822803172342263e-02
-5.731370537286130905e-03
1.929771707274362952e-02
-1.067607345125556320e-03
-6.391101513595183470e-02
-9.867667414675596049e-03
-9.191340644603121848e-03
-3.887481252413379357e-02
-3.292546284480409036e-02
3.226426331189454627e-02
-7.010991792423562630e-02
1.075477052505138635e-02
7.726477697266297129e-02
1.323168179150986147e-03
-2.067499556088150253e-02
2.021014379077080633e-02
2.234585892293889167e-02
1.285000560511889156e-01
9.209328949166838141e-02
5.216493987637721430e-02
1.169387346865145422e-01
1.282656141510089554e-01
1.379014950352491255e-02
5.140300726265652903e-02
-1.200355048873966504e-02
-1.441881265382310637e-02
-1.221990025601512285e-02
1.303202398833062416e-02
6.129820076369783127e-02
-1.228620881001429160e-02
-7.658487587188811743e-03
8.556167653240449866e-02
2.785112428124631931e-02
-8.924117127463179408e-03
2.836638355320062269e-03
1.171894097826846337e-02
7.684001576480500861e-02
1.481099170911502616e-02
8.030816729604510137e-03
3.168314517129351693e-02
-3.828056535217354631e-03
-7.861658813192987441e-03
2.193211456098274198e-02
2.203686008179012862e-02
-8.543705224762104811e-02
-2.833303916170055309e-02
4.116346163757014093e-02
9.151972428405628218e-03
-3.779937709201157403e-02
-1.532306489356233432e-02
6.558354901230858958e-02
1.670850183159935942e-02
-1.110244996451812717e-02
-9.965123580443201526e-03
-1.542552013570342101e-03
1.203771802705121477e-02
1.019899682900718071e-02
1.363490689998984005e-02
2.156656578321582488e-02
1.227808651303654262e-02
1.166628237826450656e-02
-5.983755150168329484e-02
-1.610069820457856946e-02
-5.548278073931596326e-03
-2.552010501248346344e-02
4.098419835629990397e-03
4.415321384829943435e-02
-1.987101692147448528e-02
-1.724744215753948318e-02
-9.210204277288521618e-03
4.108656633276863007e-02
8.193474600078044789e-02
4.211927186128239242e-02
4.925384609321740992e-02
6.680028715822659835e-02
-9.640068389860737344e-03
3.098634836779147125e-02
2.542493200165379941e-02
-4.215698666012857726e-02
-2.148442385248048453e-02
-2.807493757871984755e-02
-1.025460340589785932e-03
6.984186983553853680e-03
8.435228651228520239e-03
-2.212583722988258842e-03
2.060045999109776094e-02
-7.730852378849417846e-03
1.221946481811939274e-02
-4.387345078832170092e-02
4.178195441898837834e-03
9.831594635215363739e-03
-1.366253182808647992e-02
1.790011636853956409e-02
2.568130608050829544e-02
-5.683909409490356390e-02
-2.721758618554123363e-02
3.749315294305727991e-02
1.472120423692213076e-01
2.366112535574201731e-02
-6.950472158179295257e-02
7.831168009178926526e-02
4.656636792406927683e-02
-3.135185796505243760e-02
1.049190779822427137e-02
-9.817543081034113550e-02
-9.119476116766281337e-02
5.710596142562571892e-02
7.104086455505505271e-02
7.798737770120077462e-02
2.378859735093558081e-02
-4.942852881715505131e-02
1.151302373307644573e-02
-2.715041298901291807e-03
-9.639728766111387015e-02
-7.786060561231812616e-02
-1.669778240135639732e-02
4.407267831830825877e-02
-2.354252062141898305e-02
-1.967359881849022052e-02
1.315353466954308388e-02
-2.473585910062121949e-03
1.290848607212139332e-03
4.759557926382465554e-02
5.426368285838018696e-02
-6.139898727247164456e-02
5.890778740977088007e-02
4.211042240973275619e-02
-2.696583006359319981e-02
-6.195940563940363632e-04
3.906536157205125342e-02
1.421283717215178315e-02
-1.945365548644582485e-02
-3.571954404692830737e-02
2.436095152472724651e-02
-2.160365547489880554e-04
-1.191057229861633600e-02
4.296065897921630405e-02
6.313219928602857578e-02
4.822769439479072245e-02
1.305685552444585569e-02
1.955510806382087380e-02
3.030930922488344129e-02
-3.169577019887157010e-02
1.084369086141020594e-01
2.036015882434539237e-01
-9.747824932550788746e-02
-7.856666326268234649e-03
1.738363893903646096e-01
1.615449660111940855e-02
-6.441037780808080669e-03
7.870272825520475968e-03
3.124461201559226853e-02
1.352684653028542704e-02
2.608253761360798326e-02
7.514171002019010004e-02
5.658317593466381107e-02
1.780299323707257991e-02
3.213607538200125707e-02
5.820119369884792226e-02
3.040991764044836607e-02
-2.418765436595474855e-02
6.828891486335741945e-02
4.429719508395690147e-02
5.369972756031967526e-02
1.189819357394616833e-01
1.238237201908537061e-01
1.017469654493406150e-01
3.771258158572799585e-02
3.175832365756133674e-02
-7.548026521028589064e-02
-1.608320054680533739e-01
1.017333146048793602e-01
-4.821439439395098364e-02
-5.621826473058470774e-02
2.176375236502853250e-02
4.082837570318348722e-03
-1.684315632590736855e-02
-2.162421989772908212e-02
4.033637006151366555e-02
-3.128298219744714975e-02
-7.500451057392708287e-02
9.911049139428586285e-02
7.695637296283189266e-02
4.003804612730563206e-02
3.514728070067318216e-02
2.843486573481426860e-02
4.638363004429363334e-02
5.006712832185672424e-02
7.003611609847251555e-03
5.354578913335329010e-02
1.021800703240349634e-01
7.299046872207116954e-02
1.162543011135735126e-02
-2.461410389743295957e-02
-6.651947691018061937e-02
1.477772211676268987e-02
9.899024998337314918e-03
1.020950931494141317e-01
-6.413357287630270034e-03
-7.543478376660010636e-04
2.783097481559274403e-02
1.316677465297143579e-01
2.458139351775652862e-02
-4.693412861949058240e-03
5.569659588404253514e-02
-7.551754843843058729e-02
-1.117028325115099752e-01
-9.520344286921110510e-02
-8.714906245445536159e-02
-8.697892144896977873e-02
-7.122647349117486315e-02
-5.905926560574418366e-02
-2.198412643002664590e-02
8.107797468769072091e-03
8.726948240280912872e-02
-7.564459769010010992e-02
-4.253056597984929132e-02
-2.032807773573120855e-02
-1.407004515417878132e-01
-1.235252832856653937e-01
-1.574196776014301635e-01
-2.569936752509189848e-01
-1.846540763375807415e-01
-8.054567112350086155e-03
-3.428375625201909860e-02
2.260224420990383093e-02
6.882720680615282824e-04
-1.789637824210441389e-02
1.782235905726434894e-02
-1.074773427878507742e-01
-9.239310552353713346e-02
4.204180296176961151e-02
-4.049340030487406233e-03
-6.474909790734971471e-02
-1.110287105823835052e-01
3.147743239171810897e-02
8.648755030652949954e-03
-7.058252835590388650e-03
2.044991843226172737e-02
3.047494324589703277e-02
2.845111567790254911e-02
7.532118001127760185e-03
-1.376164252680053780e-03
-7.888303415832798038e-03
1.602524519972818931e-02
2.627546039454926527e-02
-1.477761723992756550e-03
3.019825125620916040e-02
2.860498219254026600e-02
2.147011051068963006e-02
-9.940910879610792561e-02
-4.523905824909058015e-02
7.813807485350027227e-02
-1.046683389964221389e-01
-6.627293239180236106e-02
1.063689027572378189e-02
-1.582119883400768534e-01
-7.677246145120183995e-02
-2.405130989815889089e-02
-1.059829747231652401e-02
5.633668638752284408e-02
5.488856444534910908e-03
3.500656829826466476e-02
3.921760434552634678e-02
3.163240678219042014e-03
1.431748204115687768e-02
-4.788211403732423738e-02
-6.012805034925017972e-02
-7.647675861993576130e-02
-2.486533705478538234e-02
1.288832400971001158e-01
-6.053956210861403953e-02
4.175848679782077216e-02
1.296595558783849855e-01
8.717378706306937175e-02
1.516756953038818634e-01
1.888297424230123145e-01
1.154426674242920864e-01
2.833657619086523555e-02
-5.138465066573114776e-02
-5.576321702959043808e-02
4.950753714547007078e-03
1.977975998022404175e-02
6.057947897751526228e-02
1.028716464907369621e-01
1.079230576490800841e-01
4.965891093947997353e-02
4.105977618003224527e-02
3.011542471493687534e-02
-8.085156282210675949e-02
-1.229013337704922687e-02
-1.236184115334828908e-02
-3.785190118476909615e-02
-5.709113957276638895e-02
-5.990485440101940562e-02
1.980376010984897794e-01
3.344806909701549258e-01
2.012048334635989644e-01
-6.729156523757418018e-02
3.374197675910516059e-02
1.128258698320545594e-01
-4.045984089938472333e-02
2.968367626990005975e-02
2.535809432428258112e-02
1.031956770916068467e-01
4.141110361049316763e-02
-1.725703976739285592e-02
3.240403460739743613e-02
1.219101567550099768e-01
7.473011543088896660e-03
-2.183571979421261230e-02
5.286157737960412578e-02
9.302274316047209890e-02
-1.030840150043065839e-01
-7.122256771595246450e-02
1.969066522109320233e-02
-8.636312713091233439e-02
-2.702314835652512223e-02
6.691502080923944495e-02
-1.190138436284228322e-02
-7.034122684426528938e-02
9.722593175390546738e-02
-9.776023821399074110e-02
-6.040205214970082587e-02
6.520748409843710180e-02
-1.225066068429278565e-01
4.724188233772103930e-03
9.128990225786452750e-02
-7.984096207613571028e-02
7.224730926597887348e-02
1.668741309730892852e-01
1.809869970669912564e-02
-9.469207610667298991e-02
-5.490390801275264049e-02
5.463456339405109267e-03
-6.449606624740696070e-02
-3.895051138187748813e-02
1.154211869428326161e-02
-3.355274541169211283e-02
-2.295401786813146272e-02
-1.980999447594591813e-03
-1.615230470950728206e-02
-2.372989255070439424e-02
-5.100066397889648634e-03
-3.035016873002677716e-03
-1.479085020128512130e-03
-1.148608736104359158e-02
-8.716764758448602643e-03
-1.039714363704470103e-02
-2.519523272980733752e-02
-1.516420563980432901e-01
-1.589429196800546118e-01
5.872101470046973276e-02
7.113944368950238066e-03
4.503208806568717928e-03
-3.984527498994944184e-02
-8.886814979664423020e-02
2.025195486906912826e-02
5.030326127007933579e-02
3.867970241803346532e-02
8.804381580441774519e-03
3.031007619099899617e-02
1.050927528931096082e-03
-5.051898418548144559e-02
-3.901617610582327339e-02
1.030242666450607719e-01
-5.986484777365935067e-02
2.639506738771884783e-02
-7.840979935362427100e-02
1.787832319988627572e-02
-7.122367302725965410e-02
-3.819648390818149858e-02
1.167079231760468662e-02
9.371831992578411041e-02
5.887377077474547499e-02
9.938955683924939610e-02
2.349110171138538497e-02
2.023898861856063963e-02
-5.940341492402685664e-02
-3.758439533220966910e-02
1.727308704111354606e-02
-9.431788078543197618e-02
-5.547459998751639448e-02
-6.701244720497076535e-02
-7.704792246774017084e-02
2.553247577581560512e-01
9.657820394072705317e-02
-2.852042203074904927e-02
1.236292748715275835e-01
8.760607662338648627e-02
-2.975809244358084901e-02
-1.374524545154318378e-01
-2.233254055736699495e-01
-2.244262956356323502e-01
1.616680890709447649e-01
-1.147403664681507195e-02
7.550976253325974996e-02
1.473295343081841846e-01
-5.887425290589570759e-02
6.790519509451033164e-02
-8.179330857205283078e-02
-1.304854567968497525e-01
6.929403029236935740e-02
-3.392391715513457667e-02
-7.985976775552232343e-02
-8.071175504664775124e-02
-2.798621045817738934e-02
-3.569063290010106304e-02
-5.661929217738330411e-02
-2.554666530589145071e-02
-4.625059248303337728e-02
-4.473723152846140194e-02
-2.910898876145508532e-02
-6.720294286438947828e-02
1.080483655866484871e-01
7.922451893264737845e-04
2.124364735455778336e-02
1.134184551771883626e-01
-3.970670588122214920e-03
4.722382806486111889e-02
1.365557239148480206e-01
-3.621283479088252544e-02
-1.053146255452046404e-01
-1.374620458478886809e-01
9.758277035373798258e-02
9.920494677020190444e-02
4.116067751038360312e-02
4.948083785076202307e-02
7.668721143154140496e-02
-3.351008962753315376e-03
-6.438358094681294330e-02
-1.659030470297458426e-01
6.723572008902338470e-02
-1.787110533753339670e-01
-1.426406934684011363e-01
4.594020516790423697e-02
-1.057219571249148476e-01
7.622810973731084308e-03
1.771759913899465799e-01
7.432387633984896547e-02
5.622210073899243377e-02
-3.279096537168141312e-02
5.968844162774807754e-02
4.255069495537167068e-02
-1.202738985186208032e-02
2.430571101573051132e-02
-8.893258098291308492e-03
-7.624644097912941509e-02
-6.385235191960152157e-02
-5.828585286947033511e-02
1.326044462828858683e-01
-8.992410164506627057e-02
-2.221356828472764167e-01
-1.456456579271269702e-01
-7.952763324808465040e-02
-7.046601931182730483e-02
7.007194120969381657e-02
2.681906326644095673e-01
2.551384448429184007e-02
-3.257284462316509255e-02
1.310410411407302855e-01
-2.426456676401809141e-03
-9.260691273697527898e-03
1.041520124379023554e-01
-1.373836969714478384e-01
-1.302776454484608215e-01
-4.124339377697791575e-02
-7.584140208691021734e-02
5.115676676142253410e-01
-4.636567052082361806e-02
-6.053083502188928017e-02
5.637721874299884972e-02
-4.377242041912583065e-02
-1.082216199283914521e-01
2.648059181181054234e-04
4.926194261497245097e-02
-1.844057198110788526e-02
-1.959137620911499678e-01
-1.647518922308438549e-02
-6.141972842675436084e-02
-2.159340272972564700e-01
5.414567214960166325e-02
-1.040300024825637631e-01
-1.188525605005591318e-01
-1.759966806447762350e-02
-2.413302856359658966e-01
3.059750842141660196e-02
-4.032860633900677699e-02
-1.203696579715454323e-01
-3.920594343946184890e-02
-8.811849484215650286e-02
3.521198437806677406e-02
6.626003538353353317e-02
5.621507205283691327e-02
7.798587501497114549e-02
5.816081570863126937e-02
-8.227796109238178293e-03
-1.329925172490009806e-02
-2.026818677233884619e-02
-4.368633205509765693e-02
-6.998523642770700104e-02
-7.684718987473865282e-02
-2.347877195963879102e-02
-1.651599310841875626e-02
-3.706400117587230897e-02
-6.561393127276254900e-02
-2.435678134220548366e-02
-2.380238891630474113e-02
1.539141491355549771e-02
8.612319298326348571e-02
6.413216329289701811e-02
-6.169091413380464739e-02
-8.324552610320590240e-02
-6.550341103893683736e-02
-3.392257147860545941e-02
-6.560793020205843429e-02
-1.183080496834180567e-01
2.948553677958772393e-02
-3.496316496707811000e-02
-8.511205480166603166e-02
3.812539137177992088e-02
2.698835694109908562e-02
2.517277348053027428e-02
-3.805453423931579038e-02
-4.427418565192581951e-02
-3.329299674072005999e-02
-5.386772430252046578e-02
-5.435216913001676003e-02
-5.910261093111424113e-02
-3.278018845924015462e-02
-5.196536222821846601e-02
-5.452107877234461247e-02
-6.021480112787758882e-02
-5.144045910083953899e-02
-6.639776216313084123e-02
-8.563917253632504639e-03
-8.016434608455646343e-03
-3.298173626262715374e-02
8.407486047785586074e-04
6.256322631038704896e-02
2.520648495358283891e-02
-5.648239678259248803e-02
-6.001284542473109967e-02
-5.157008264006836609e-03
-1.881170857756211262e-02
-7.906274892094126983e-02
-1.350125810650155966e-02
-2.541738148984153817e-02
-5.391072064535107344e-02
-3.618851232540533369e-02
5.457012768837422347e-03
-4.014490926134874418e-03
-6.318546915310048646e-03
4.862028960607265617e-03
2.782608313226575883e-02
-3.815911314533145665e-02
-4.980657541217856088e-02
8.068765675479351585e-02
-1.158559643994016598e-02
1.147025104037356809e-02
5.944555368396121225e-02
1.193695655454131595e-02
-2.143406522987112775e-02
1.482587075544208530e-03
-1.262339849318999674e-01
-4.393012426488992345e-02
7.423514608200561249e-02
-1.641429010171751375e-04
-9.050540636662479654e-02
-1.784236776071431926e-02
4.144789972086627972e-02
-7.306315530838027039e-02
-1.010051684965345559e-01
-6.215456019376619512e-02
-1.491683343185980400e-02
6.017090040123677930e-02
5.085435658883750293e-02
-2.763998092709506887e-02
2.803034202698355404e-02
4.943954391242352288e-03
-6.144809841131541883e-02
-2.593301622824078709e-02
-6.155851358005157148e-02
1.775088902929784079e-02
-5.657259619203600098e-02
-2.249833338519296316e-02
-7.016045615570828953e-02
-5.267078366027255071e-02
-3.755888658913189571e-02
-7.909702898153738240e-03
6.752398369960092850e-02
1.017370683912594276e-01
-1.528179968156991031e-01
-8.604921479960926656e-02
-9.461810719424774974e-02
-8.995897519638351714e-02
-1.099431875124200486e-01
-1.965048150543485250e-01
-3.723495031699764618e-02
-4.987076812180444435e-02
-1.496149248123531672e-01
3.746621712003364579e-02
1.825670945227161543e-02
2.525754452701279781e-02
-3.629814259611942925e-03
2.164288724563582025e-02
5.212435661023086947e-02
-5.897294412978971306e-02
-5.383294363767406748e-02
-6.112167765882787346e-02
1.074277356187957645e-02
-2.204059569144474137e-02
3.566615136117397972e-02
5.899695253280576139e-03
-3.360976180546638298e-02
-1.566195195692210093e-02
3.210767918151801598e-02
-8.643439165836253740e-03
-6.432456631329205865e-02
-8.049572961745124142e-03
4.977004984280542638e-02
-2.272605269638122011e-02
-4.741034973411552278e-02
3.358704920522166681e-02
5.826252077543230684e-02
-6.685285880894133170e-02
1.811682579202158029e-03
3.289955888178708321e-02
2.202727508616742977e-02
1.677188840450923035e-02
1.634833394666673420e-02
-5.019011655169425094e-03
-5.492298158133705407e-03
-9.959973957468880659e-03
-1.668759530117924772e-02
-1.721167541868989792e-02
-1.828796116616842812e-02
1.862944948855981345e-02
-5.773501780211153650e-02
-6.174775640736040322e-02
-4.522811486220393307e-02
-8.266475306937465239e-02
-5.170731000764216406e-02
-4.742363737779610455e-02
-1.178086608920056282e-02
-1.018539811147503998e-01
-2.261178102082800692e-02
4.410249281477432275e-03
-8.437427950232458118e-02
-8.914254322675239928e-02
-8.475907730271547633e-03
-8.366005526384458213e-02
-7.942615876525592478e-02
-8.661616868401270097e-02
-7.763272652773757498e-02
6.687699493814468210e-02
-5.161726304558350922e-03
-7.107378697931768241e-02
2.569684020739225125e-02
3.885675358045816152e-02
-1.274438918422603900e-02
-3.597579054072787968e-02
-7.697866750378337848e-03
4.320655953393741193e-03
-9.505733077113437401e-02
-3.880506155639101146e-02
-1.677115294888226193e-02
-5.530848393585799383e-02
-3.038775748500031904e-02
-3.978769001691938312e-02
-4.604779354911266165e-02
3.112605604968981393e-02
3.456421634119233310e-02
4.485912832774302528e-02
1.061933238213686043e-01
1.557484681737134058e-01
-6.527267574164805075e-02
-1.967819067172342506e-02
-6.054991756160168354e-02
-6.581748973354990817e-02
-2.072217302435957198e-01
-1.280191891308353480e-01
5.322011751112559058e-03
4.978424805059559338e-02
-3.111803711123606667e-02
1.021522423631340826e-01
7.707568790364958955e-02
7.257236125331442515e-03
3.425290024040494874e-02
1.338085639799703463e-02
-2.541976502530486279e-02
4.287180567777731932e-02
4.511246703998735702e-02
5.148240479277447351e-02
-9.359265337917180641e-03
-1.313363680017509000e-03
-1.183411493068313620e-02
3.071099744340370294e-02
8.199339332733837638e-02
6.754446727186698418e-02
3.285402449600849373e-02
1.528555936369658912e-03
-3.755788744073110252e-02
3.361255736088879145e-03
1.355490763739434536e-03
-3.883061503425363353e-02
-8.688954186676768263e-03
-3.011387957779545479e-04
-4.998574641158750470e-02
-2.033672217233351703e-02
-5.124399562374768596e-02
-5.109462808807936629e-02
-6.141196220080361728e-02
-9.489594667335925215e-02
-1.186056723008651337e-01
-8.480278437997551544e-02
-8.900503980580602714e-02
-1.131591516202858916e-01
5.442147088713533004e-02
-2.335563567466579851e-02
-3.637824133626590267e-02
5.544253050934763033e-02
-1.653320524220965038e-02
-3.856254042817252453e-02
2.439989614077433047e-02
-6.113822232028504750e-02
-1.304733386348467250e-01
-6.825897992431833802e-03
2.803308814001087557e-02
3.700678396415377951e-04
-2.784560257782754331e-02
-7.558812074285988641e-03
4.137244032545913655e-04
-1.154351910762830072e-02
-3.349746370551719837e-02
-7.746777639721654602e-04
1.914396765286993348e-03
-3.828163346046561250e-02
-4.902804721868372559e-03
2.155333779767777333e-02
-2.891202765763521004e-02
5.467395671806435896e-03
7.007907397338924982e-02
-5.291468711545378040e-02
-7.919218499108870990e-02
-4.118694069947861219e-02
9.167905552058547292e-02
1.129002671193922308e-01
4.420804614799324350e-02
1.346372144014882088e-01
2.972236791217121032e-01
8.777521379052351247e-02
4.646714952357205303e-02
2.002857862523110821e-01
2.431919791158738686e-01
7.018194505667450789e-02
8.281682963627398641e-02
1.845876198010849567e-01
7.222780338222783980e-02
6.168292094659835051e-02
-7.815248146572769880e-03
-1.570807223508251596e-02
-2.357332023975047125e-02
-8.733347071158708078e-03
3.006949884790230398e-02
7.674772001621567308e-02
-5.679869626478503686e-02
-1.078300463275476961e-01
-9.719715642865706107e-02
6.501659709667578085e-03
-5.075065528533468512e-02
1.402948767702018144e-02
8.949482235187230725e-03
-7.124350006056576201e-02
1.261791615561437367e-02
-4.627077051057181672e-02
-9.076322167572462019e-02
1.149275083230941533e-02
-5.299754432922633429e-02
-1.418028698204633065e-01
-8.758731826848090152e-02
1.008447848770064638e-02
-4.476734052556483739e-02
-8.325595331488387651e-02
2.400445861011166887e-02
-2.842012280482979214e-02
-7.192578532832316629e-02
1.775033988470287385e-02
-2.302602209737618713e-02
-6.248485326447546229e-02
-1.247146647181218704e-01
-4.311446041570823201e-02
4.726592046884515314e-02
-1.431459658745861119e-01
-1.093730808884755823e-01
8.935122199203287749e-03
-6.374359518077082898e-02
-1.186674901064963400e-01
-1.232312423331508727e-01
-1.437463109829045967e-02
-2.099186029076578752e-02
-1.953518588326398978e-02
-2.898429976684396489e-02
-9.220799532119131753e-03
-9.964851785452567834e-03
-3.978837819722810115e-02
-7.487556739075865858e-03
3.328594687180422198e-03
-7.914885775387271727e-03
-2.087414812707201819e-02
-3.307625551140421644e-02
