-7.843394347828162166e-03
-6.901215693953972018e-03
-1.657224759859518212e-02
-7.258099561741113539e-04
-5.816075209929352959e-03
-7.797793265527164404e-03
1.233920783718277930e-02
1.171602929558565077e-02
5.242674880223680521e-03
6.971157424020503132e-03
-2.132462134586627332e-03
-2.109566975183981355e-02
-1.700985394275409540e-02
-3.142326630978865831e-02
-1.930964784185854044e-02
-4.720636696526574595e-05
-7.736559281877922536e-03
2.537863661576988516e-03
-2.028455908613890565e-02
-2.639159463748394843e-02
-1.741659343736626925e-02
2.785452593659479628e-02
2.496806303393164436e-02
2.493156127834686431e-02
3.592695994305639823e-02
3.995405201939453144e-02
4.057833997023815170e-02
1.840094807473429935e-03
1.597809412745051366e-02
6.334879579337710474e-03
-2.513080437961044689e-02
-1.129977861861858335e-02
-6.347711206978448508e-04
-2.116041648930036545e-02
-2.814179882859509443e-02
-2.447459198473071751e-02
2.054906092839197708e-03
-1.845940146961860470e-02
-5.360221879204870449e-03
4.958778958698817005e-03
-5.344578328183225389e-03
5.053724688302969198e-03
2.284184754719942659e-02
6.441391468660487458e-03
5.601912530634039003e-03
-3.149308311099413126e-03
-4.666586736792515365e-03
3.860141652048669492e-03
-3.702816689301756023e-04
-4.610851056639792694e-03
-6.522064792693479593e-04
1.000884978501789986e-02
4.630469803060083506e-04
4.292194191528526589e-03
9.888526498101417664e-03
1.460900897916507686e-02
7.356799710822234210e-03
5.780648661755335635e-03
1.566349048707570135e-02
9.717316204451219991e-03
-3.016113050664112182e-03
3.665616765704922224e-03
7.359856781492795513e-03
2.836586590895552595e-02
1.938583314775830721e-02
-1.033372134896337093e-02
-1.215109999346786901e-02
2.121732179031458800e-03
-5.375502522125206670e-03
-1.563304675724527110e-02
-3.144573302463829489e-02
8.716457440530111459e-04
-5.690751491747887171e-03
-8.617381071255928587e-03
-7.935546790979861390e-03
3.525901652332172342e-03
1.968096508912633730e-03
3.443621046821149397e-03
3.892502732694251132e-03
9.396885759115724927e-04
7.572210654721090069e-03
6.316258625394607570e-03
1.040124724157897793e-02
7.959358231897887756e-03
1.589659688733875860e-04
1.301615576058011078e-03
4.183718051867347338e-04
-9.359239573243072902e-03
-1.332394156196363075e-02
-9.104848162275160778e-03
1.013043894945931962e-03
2.939527358004718257e-03
1.879912093110175245e-03
9.389249328882376747e-03
7.668770424249854098e-03
-1.931413094475788834e-03
-1.248618295579440214e-02
-1.815709513000173317e-02
-2.362470094293986009e-02
-1.451880931747273314e-03
-9.141111529016868664e-04
-5.743163654593591051e-03
-3.771434173441052043e-03
-4.405343080196171685e-03
-1.339403074904649618e-02
9.822027889366263462e-03
5.461392138110981662e-03
-1.196674718363416497e-02
-1.173095010242585293e-02
-6.043620842265362038e-03
-1.108473447404785886e-02
-1.098691128461109535e-02
-1.607354059650596342e-02
-1.699111358958804718e-02
-3.654962586672035919e-03
-7.045171834957588558e-03
-1.448896463177115623e-02
-2.808794629742179805e-02
-3.606244017284062492e-02
-2.989123091838461616e-02
1.178636834039063427e-02
7.905728524660378398e-03
3.932767509415285336e-03
-5.440161194978783768e-03
1.042372214848507478e-02
1.059197592895779610e-02
-6.436788966538191208e-03
3.223058323414157867e-04
8.585316133451482675e-04
-1.445452317838681004e-03
6.656644510671019983e-03
7.801854477518670866e-03
2.060352171975764896e-03
1.368711058027055963e-02
1.801167793572795023e-02
-1.484149954158353255e-02
-2.262063744653044703e-02
-1.856597418496061871e-02
-1.009525857258201410e-02
-2.108733105756617834e-02
-1.072569425219825623e-02
3.550330774307505679e-03
-2.452252882713071291e-03
7.142896719716795850e-03
-1.393739030008212844e-02
1.962293860980224985e-03
1.724408380644269073e-02
-1.929921128824944182e-02
-9.580919765825169146e-03
1.533022197525127361e-02
-1.040548886744376185e-02
-2.060900050463662647e-02
-1.395631789862871765e-02
4.650159737102271644e-03
2.814390079628482574e-03
-1.634970933199487997e-02
1.587895520579277187e-02
1.790173407691159763e-02
4.357133659239039239e-03
8.034936156259957782e-04
1.532356186581776240e-02
1.278081116805695897e-03
-4.204258260236602013e-02
-3.771650511697909741e-02
-2.653935586360274546e-02
-3.871022988510426643e-02
-3.707749298744849459e-02
-2.159815726988103049e-02
-3.500117522730895187e-02
-4.626717332125251936e-02
-3.432460252717932370e-02
-3.031986175363391572e-02
-5.972474240784916844e-02
-3.745296731758976372e-02
7.512941141543396338e-03
-3.996896127768462259e-02
-5.216731008124644853e-02
5.952319462586533327e-02
3.453621671437989704e-02
-1.061334441314150216e-02
-2.322921643333401669e-03
-2.207031345637327710e-02
5.250454111711438162e-04
3.936542278108616337e-03
-7.433698244610685742e-03
2.075076581421864477e-02
-1.188818226943887980e-02
-1.817363901029045003e-03
6.827126042751569847e-03
8.119400704764764484e-03
1.037455911592502673e-02
1.663765396431502938e-02
-3.470531035425612320e-03
4.962292170814829387e-03
1.948898262527711672e-02
-1.047998651178468250e-02
-3.179904612823929513e-03
8.257046843055055110e-03
1.883154772505247002e-02
2.641090904992579938e-02
4.117202807693341737e-02
-2.764374647803871654e-02
-2.183585494736399110e-02
2.137127117865994866e-02
-3.679774857717855313e-02
-4.747050071849687192e-02
-1.219746966222475665e-02
6.120701519175725074e-03
6.725575311288602663e-03
1.849785737600017146e-02
9.097655858985191635e-03
-2.622571217688621226e-02
7.888110507418796477e-03
-2.597018615058337143e-02
-2.828920463898004084e-02
-2.115570064007230716e-02
2.350934204893629243e-03
1.233951215331113458e-03
6.479231164609315988e-03
-1.936393435405459745e-03
-7.049012098381903652e-03
-7.020233249492597444e-03
-5.466159902812474033e-03
-6.636406215168169816e-03
-7.965303725736880280e-03
1.360089475359834051e-02
3.228264708951154079e-03
1.207657588301402213e-02
3.112157102678621279e-02
1.296886105072226139e-02
1.315373013025008218e-02
5.046023814378416961e-02
3.363197182163762955e-02
2.446737889073627784e-02
-5.666645478751620481e-03
-7.228769795902689581e-03
-1.915815454677104093e-03
-1.767744319713385193e-02
-1.267462351523506413e-02
-3.042507657906248428e-03
-7.261506719141014136e-03
-1.069513772450674666e-02
-7.880026800670724210e-03
-3.485372845068334790e-03
9.682165317652018793e-03
2.856259347334184559e-02
-1.453145250593313072e-02
-1.930682979526991000e-02
5.488711751829477431e-03
-1.608968766721334195e-02
-2.498145151101771599e-02
-7.379468232476140907e-03
-3.084149925374500556e-02
-2.730202066517305876e-02
-3.225129564305453944e-02
-6.510413545424569709e-03
6.833042263361404842e-03
-5.125344890709795410e-03
9.766014553368972118e-03
2.339078719057822650e-02
1.612992830513194920e-02
1.252147804194632397e-02
1.105719664213303428e-02
6.414856783229615743e-03
1.358626357605450391e-02
-1.009755206145964389e-02
-5.642359468527832420e-03
1.963679337761552526e-02
-4.611295099674247652e-03
5.444010580781993673e-03
5.745581473086260743e-03
7.736933087422110007e-03
5.017365142085407868e-03
4.003366065276290839e-03
9.701811391333458766e-04
-1.563587650275696317e-03
9.989281132265015808e-03
3.735874714313068903e-03
-1.380446378532456265e-03
-6.912647413044962878e-03
-1.317609740696775410e-02
-3.589685484543697928e-04
4.886368129346171235e-03
1.942920876768506428e-03
1.390721262145635205e-03
9.917277690722876848e-03
1.955276883051974141e-02
2.077362305824200991e-02
1.697829135149071453e-02
1.892410085462124802e-02
1.945978350879817506e-02
6.197923444689160642e-03
6.073015480300940697e-03
8.411365086686748566e-03
-4.941354612951974132e-03
-9.974745943731837608e-03
-1.157808216694642539e-02
-1.248769812421068881e-02
-1.154211468518060585e-02
-1.508327826587397245e-02
2.591011548538949341e-03
1.018796349902899648e-02
1.063358348459791589e-02
1.429367244062519250e-05
1.334913009075531717e-02
1.726180446680305319e-02
2.368318141105186375e-02
1.857571166526298875e-02
2.030283422138840291e-02
8.998462157775090342e-03
6.626966407384916359e-03
8.981330072185884916e-03
1.440088868201545337e-03
-3.784646332601093819e-03
-7.942039459351818431e-03
-1.608694020145720735e-03
4.997750592975510730e-04
-4.392351423979438431e-03
1.082960490860786738e-02
2.121045880105128321e-03
-1.373509067687055281e-02
1.401166966704394008e-02
1.520689270124036922e-02
1.114433960856223149e-02
6.068327113403713599e-03
1.028652040161868661e-02
1.148308659332153946e-02
5.331719796389077469e-03
9.715705355036942381e-03
9.553110378930414898e-03
5.982881141507074944e-03
1.057981975503696249e-02
2.437863590142218696e-03
4.248410381238512321e-03
3.439817501818275588e-04
5.718575774632911682e-03
3.366023410892828548e-03
4.240127137629905521e-03
8.990304510275557229e-03
4.499055438412714186e-03
4.716153303521234894e-03
7.940387718027736366e-03
-9.999967749565113334e-03
5.459961464122788100e-03
1.809865716390023169e-03
9.461251935491344278e-04
4.553261526896465981e-03
-1.908782910687753433e-03
3.285087808758701839e-03
4.619375956397531700e-03
1.901585948658290936e-03
-9.901542542674784605e-03
4.383485808125555522e-03
-9.094398454574562085e-03
6.733512386978959818e-03
2.842565306038736909e-03
-1.939591802596102267e-03
8.570167781159906354e-04
2.744576774362074423e-02
2.230651081481784676e-02
-3.295939257131886538e-04
2.000176121740451698e-03
2.170493456403362921e-03
3.877213576156826689e-04
2.419122044479779781e-03
3.079407960784717995e-03
-4.948490856332678428e-04
1.102317263379815797e-03
5.683221717572009210e-04
1.817645050664762341e-02
9.793903627403101331e-03
6.265745898097403385e-03
1.116872965208375902e-02
3.461185059725958423e-03
-1.355525118863568350e-04
7.313249331997681915e-03
3.638772551501766751e-03
-1.847180098592666932e-03
-7.105881976920211916e-03
-2.693706191375488945e-03
-7.203731742917864056e-03
-1.039506316526913471e-02
-8.368508394946815032e-03
-1.083590134930780859e-02
-9.986978394796628637e-04
-2.215977823913164199e-04
4.287832865020284995e-04
7.431395623299588520e-03
7.000941991723103920e-03
7.141436350071193526e-03
8.187945273500724097e-03
4.349553094228380233e-03
4.619513613060125673e-03
3.130377939367557857e-03
4.785298397632212208e-03
7.038246531405059018e-04
-2.577422770397797425e-03
-3.403337515841368521e-03
-5.638300453147261637e-03
-5.668147273315020038e-03
-5.576457538998183918e-04
-9.352487368557762257e-04
-7.860413355871887636e-03
-1.428915943694869213e-03
6.885317326496319737e-04
5.988657869389225202e-03
4.010427934871330091e-03
-5.825110525435744924e-04
-5.768114013023127248e-03
-1.755167640498871574e-03
-2.274124524975880239e-03
-1.016350331021917582e-02
-1.245825928345684281e-03
-5.521470425703699399e-03
2.158534932393239587e-03
4.843182539058519306e-04
2.440535349314609109e-03
1.574306470891070420e-03
-4.361593408199158375e-04
4.964954205023236174e-04
3.670583023860513874e-04
-1.229980024544548832e-04
1.386742128812882289e-03
-1.948595352366684456e-03
-2.437585227021886404e-04
-1.239282592866204668e-03
-4.045165656059226782e-03
3.765032545527734285e-03
5.847300141761540594e-03
-7.598284572340521618e-03
2.937978562971171360e-03
5.622454410719074890e-03
-4.789170659640974367e-03
4.744572891145961563e-03
1.242540614553679958e-02
-9.739671681146994803e-03
-2.701440081093978585e-03
4.907334698422518345e-04
-5.942419854719113194e-03
-1.525867644712902531e-02
-1.262847934795734324e-02
3.678411879358114457e-03
1.372559021431507716e-02
2.238209638014867619e-04
6.923307752251224925e-03
1.819288332323906396e-02
2.994187530324758997e-02
-8.938989692427034162e-04
2.217073334759301489e-02
2.106106899538738239e-02
-4.947207666568738914e-03
-6.296624838852601762e-03
-9.517918022425252839e-03
-7.817659247479550981e-04
-3.520731094366034986e-03
-8.164022899181298809e-03
-2.300663470165705080e-03
-7.828043784381772882e-03
-7.549077276071168921e-03
-2.403122360647987413e-02
-1.946444668087308691e-02
8.483638054172633336e-03
-2.147474688281082386e-02
-2.558255116598988355e-02
1.078597490088697205e-03
-8.187898200160625365e-04
3.050442023463376638e-03
3.621826692351523850e-04
2.368698112642276827e-04
-4.658166705407751351e-03
-8.310691484688883038e-03
1.333926412912888639e-02
6.393213210570988618e-03
1.176953059859619719e-02
1.362001853898914434e-02
5.840093757029423717e-03
1.324273430802451815e-02
-2.907481565442776757e-03
3.155401727771593376e-03
4.384662735182565108e-03
-5.344445009980856170e-03
-1.160699315727255600e-03
5.365858140539498701e-03
-1.240444760194539357e-02
-7.877702667952495713e-03
8.519835917378175503e-04
1.125820855478239409e-02
6.094512803311776319e-03
1.522440325970747868e-02
-1.858146126504038251e-02
-2.163768387352452138e-02
3.549729808274386823e-03
-2.264892792240037755e-02
-3.346335045881656395e-02
-1.348312439298571426e-02
6.517403981154627768e-03
9.058249096095625369e-03
-1.534960320867433288e-02
2.460788626191805564e-02
-1.693076019820437955e-02
-8.279036446523764178e-03
8.747407399311195667e-03
7.746142717088558803e-03
-2.083010462247324862e-02
1.500689592571677637e-03
-4.371793310221421154e-03
-1.154682982514210199e-02
3.209965044974916106e-03
-7.156018104475372031e-03
-1.931444937585735655e-02
2.124057487305833214e-03
-2.300660191331320090e-03
-1.176014704299122547e-02
9.145410818957123988e-03
9.925278767001072949e-03
1.398686811372594832e-02
1.198593835205564485e-02
9.061337523883843462e-03
7.690773040828981395e-03
1.795926145505588253e-02
1.381664414779403167e-02
4.722854360584600661e-03
8.474063857768419873e-04
-7.582193737562174622e-03
-4.299564570161514866e-03
-3.262398290840266921e-03
3.700908664681001794e-03
1.382446838344647717e-02
3.501494875636579265e-03
1.269736882939857814e-02
2.179788397433656683e-02
4.414926610758616865e-03
2.198355312384150245e-02
3.215163402689886346e-02
-4.962556592932316005e-03
-1.058687447472877498e-02
-3.282726595622384880e-03
-1.546024279094720000e-03
-2.247659004509995617e-02
-2.980411273453704643e-02
-1.943026249038484754e-02
-1.669463259794368853e-02
-1.663658786123085875e-02
-2.056188753849142598e-02
-7.685218695380783074e-03
2.304842344589394000e-03
-7.593984191808196733e-03
2.529145531247932368e-03
8.538248680272083474e-03
-3.903867810505438473e-03
7.176812706347529373e-03
1.050772739411650822e-02
-1.022262806029120875e-02
-6.756041997541951775e-03
-1.845407620715838184e-03
-8.962386986193516744e-03
-8.556457921231665556e-03
-4.386520663266582805e-03
3.342032278358705866e-03
2.454880869237395166e-03
2.042184055902435732e-03
8.942627324974741429e-03
6.570928844667728308e-03
1.877321920999827122e-03
1.191820325452038788e-02
4.672130558446118374e-03
-4.508788163280959835e-04
6.551844154927351140e-04
-7.371943869280223050e-03
-1.574115692688250051e-02
1.142617574584760265e-02
1.940504591193960120e-03
-1.470877142229704351e-02
8.269121953950879164e-03
1.196314951627003471e-02
-1.290080715344813639e-03
4.053448506996314149e-03
5.994378123455655280e-03
-4.946310986461328191e-03
-2.175229477817117781e-03
-8.464386803412556060e-03
-2.080639084883726536e-02
-1.072078969137348591e-02
-1.376803488418471347e-02
-2.109745101925206839e-02
-2.241285899623394681e-02
-1.857887459731756910e-02
-5.859918951268387396e-03
-5.462487226971693421e-03
3.069370627851086483e-02
2.087127850604576784e-02
2.191595115312326703e-02
2.664408877965286637e-02
2.964567433903320809e-02
1.917648357085193975e-02
2.160638036713833504e-02
1.189860436435254305e-02
1.658807889911117703e-02
1.433963910422391200e-02
1.100035925288919345e-02
5.367859048468931775e-04
1.408947965594152833e-03
-5.053228101851655468e-03
-4.264902246906659283e-03
6.621378748780788704e-04
-1.578580154222633536e-02
-1.801375258659905585e-03
2.157897806518700549e-03
-1.852460313227041050e-02
-1.077747097855484559e-02
-1.808621288599773433e-02
-4.981749019498670633e-03
-4.720502871074705106e-03
9.713024746191288236e-03
2.814124620798858639e-02
2.697904491185426634e-03
7.688810041124575015e-03
2.091789278584799475e-02
-1.193291573178264370e-02
3.232685897457768590e-03
1.286821554653446061e-02
3.968183558076064654e-03
-6.166598537317556465e-03
-7.233216836040926370e-03
6.265521503001858505e-03
6.159341119945823707e-03
-5.667983787185065098e-03
8.176322390262457523e-03
1.036221757831585003e-02
-3.579361077342946371e-03
7.560768549477425195e-03
8.695638456304307165e-03
-3.393769920566312021e-03
2.333944397487216701e-02
2.116482752047044516e-02
-1.112189075678338135e-02
-1.188685805584702767e-03
-1.592664423265812562e-02
-3.380068942127495424e-02
1.582877788262141219e-02
2.340839314944583027e-02
3.757138730491777628e-02
6.797215880017728508e-03
4.187825551644677041e-02
1.108170865061637415e-02
2.834646153314226242e-04
-3.537253805043379801e-03
2.078288097814158519e-02
-9.245618115768856893e-03
-1.013631284229522160e-03
7.342436628183818259e-03
5.936611924583891711e-04
6.609730268667201626e-03
1.004117291950592378e-02
1.024378518125738588e-02
4.547476710139937255e-03
2.386924424238783763e-03
3.520002708452249496e-02
1.982399365111319270e-02
8.678962252485508330e-03
2.316983335334949282e-02
1.181550095704447280e-02
7.519118327284073089e-03
1.408657413544751012e-02
9.628656126188284842e-03
1.359686901552824463e-02
-7.648416922394373450e-03
-3.491221664561035623e-03
-8.439826700932606326e-03
-1.289740360484642467e-02
-1.015307738497939552e-02
-1.649986943636961093e-02
-1.314639670404688099e-02
-9.648234572301021134e-03
-1.551557433333471819e-02
2.562023787920353346e-02
2.051461033708857837e-02
7.534298809181098899e-03
1.834099459639619914e-02
1.021468270122125738e-02
2.666814214141482314e-03
-5.160551196441650907e-04
-5.098870654134742171e-04
6.374957483813338890e-03
-2.337099578798033234e-02
-2.043650635744290178e-02
-3.226413665479198334e-02
-1.523812128131426732e-02
-7.615256375730016479e-03
-7.797449074242356754e-03
-1.102729397998667218e-02
2.511557623021392054e-03
9.689351828175724740e-03
-2.261220461787179226e-03
4.849008831912466678e-04
-4.282366253966294299e-03
-7.234825397060270363e-03
3.771287959657641017e-03
1.233350660573762385e-03
-5.789987006817413732e-03
4.953105832547760080e-03
-1.002887966919719688e-02
5.370011273091402845e-03
6.300111862512649576e-03
7.797774133661047012e-03
-1.051195920167638910e-03
-1.403979939637809695e-03
4.491635849937577357e-04
-5.817729378893069479e-03
-5.718869216620870236e-03
-8.791883305058194320e-03
-1.769924724680598319e-02
-1.108505759080573999e-02
-6.145021424375679206e-03
-2.155468315184003517e-02
-1.246979518610767494e-02
2.684531505291689224e-04
-1.214934422658634286e-02
-1.007457087687098005e-02
-5.824380501786418501e-04
-2.979151859310033481e-03
-9.945187366619239605e-04
-2.364173350879619859e-03
1.657387978886021469e-03
3.461329209636174707e-03
2.631089920347235572e-03
-3.494707806854274474e-03
-1.040557079559233881e-03
-1.475704796675406843e-04
-3.413787456643683962e-03
-4.122280363369200049e-03
-3.589409382785675555e-03
-1.022650768167669179e-03
-6.594178884006213735e-03
-1.890783003616798748e-03
-3.024906316270621186e-03
-3.750834802080738398e-03
-2.538960294747714345e-03
-2.120259679144541158e-03
8.888478724268110334e-04
-7.102611564822586916e-04
-2.305611479334308735e-03
-5.468570743083521002e-04
-1.939462912187159011e-03
-5.955916304192560365e-03
-6.063794969247657783e-03
-9.599268434977067596e-03
1.043984002717525741e-02
8.575326819574128484e-03
2.611590894331917989e-03
2.330044555439495998e-02
2.727006299050320146e-02
2.090459491281681723e-02
1.082866089452566051e-02
1.603692350280089274e-02
1.291941793362919901e-02
6.097424302240017462e-03
1.870787428349812058e-03
-7.308206461492392295e-03
2.966380005808678423e-03
6.568927702073474022e-04
-6.569815322787158664e-03
2.554047435959461067e-03
1.029973337690461314e-03
-6.970705260194719720e-03
7.203660090950012897e-04
1.625265672370202353e-03
1.323783508867256093e-03
3.912044243044608465e-05
2.905165317626087242e-03
3.510469001369420205e-03
-2.189098502873293027e-04
1.597020327581858768e-03
2.436295647972736012e-03
-2.871731871957368051e-03
-5.348980025175482066e-03
-7.621427881072505815e-03
1.041137167220307531e-02
7.581369425663231354e-03
3.813570580445156850e-03
1.299529363275334255e-02
1.525757724701929698e-02
1.228417362588021464e-02
5.681926193240770077e-03
6.735801601706796829e-03
2.924167593479660575e-04
7.575626612064321336e-03
3.786173879815846795e-03
7.510352937625824725e-03
-3.255749983952260004e-03
-3.297567206162714017e-03
-3.206177231006251179e-03
5.030532733620792472e-03
2.574346184530420384e-03
-8.783784483910140684e-04
4.046440828058653870e-03
2.500868548067788476e-03
1.618828995734446176e-04
2.957983772842261508e-03
1.440971462818017726e-03
-1.051682474991631712e-03
-2.173333892886863299e-04
2.351924667214941311e-03
5.812946082615406095e-03
1.680275353325129525e-03
2.315775921875453097e-03
2.029770383856673195e-03
-4.186575806649947898e-03
-2.284803624631959618e-03
-2.520342158958551685e-03
-6.736311310568413903e-03
-5.189522319160146460e-03
-4.881131380525966998e-03
-3.682639493323904435e-03
-3.309766265038736194e-03
-6.475305615977887397e-03
-3.927340330734904636e-05
4.062347481468481301e-04
-4.222950977644556944e-03
9.975069726702990788e-03
8.604549190059767802e-03
2.096330083688628491e-03
1.390420277804183848e-02
1.509433580155153214e-02
9.724454699398655741e-03
3.521423221417466914e-03
6.532683524448109139e-03
2.398008013969169655e-03
-1.452801590522347043e-03
3.520291294051939093e-03
3.034170078943170673e-03
4.210215287956797087e-03
9.103277713318031275e-03
6.882976268434539205e-03
2.431783207676362947e-03
5.855319825735073522e-03
2.129224688534779412e-03
5.300528752271073223e-03
4.139003314415900907e-03
3.191825018850787815e-03
4.732772348902984302e-04
5.068303626910099918e-03
1.382698560234339085e-03
-5.647722458342474203e-03
-2.803309132995035913e-03
-4.918118121790485651e-03
-3.333001515273622747e-03
-2.061908964088610477e-03
-1.529240440588195771e-03
-2.712710944446231846e-03
-3.547510791994633317e-03
-3.633231687549904384e-03
-4.381082476251327990e-03
-4.389253288113001417e-03
-5.000724308444836307e-03
1.001579279264211593e-02
1.207336189818923079e-02
7.608622676498614720e-03
5.620692418601003736e-03
8.128636416798683956e-03
7.048046799229918009e-03
2.070177820067142099e-03
9.377457684291196256e-04
-7.146545173768658558e-04
-1.048555006508610984e-02
-1.072685688560089112e-02
-1.503955151942749750e-02
-4.009915294037530616e-03
3.749813376279217264e-03
-5.524414042826128121e-03
-9.373812361949212385e-03
2.504756978722277178e-03
5.927058985553164275e-04
1.029234332860353568e-02
1.082072235493430207e-02
2.201197923525843522e-02
3.839173069006147562e-03
-1.109600473009214085e-02
-1.013004759134129851e-02
1.841086210487653807e-02
4.703692299688078809e-03
-3.804271499907517853e-03
1.119141230843295580e-02
1.872455628997620955e-02
1.548119089342597093e-02
2.515075766598678930e-02
2.500559483470190733e-02
1.870529303577839544e-02
1.420866655696895664e-03
7.334826141512313172e-04
4.720501475131551501e-03
8.314224066420575904e-03
-8.592366412412118931e-03
-7.574219370476467303e-03
-1.685703278812333145e-02
-1.632964227520153355e-02
-8.864473747106024065e-03
-1.642932459469189158e-02
-1.157193215350065495e-02
-9.788286460518552320e-03
-6.672974163045072155e-04
-1.841182416741758698e-02
-2.929231377992021820e-03
-1.377115983848440674e-02
-1.700317032218702853e-02
6.419022423195154189e-03
-2.908563418852885482e-02
-7.920449761663261520e-04
6.664442002553294837e-03
-1.026640204953137639e-02
-4.164897249281508500e-03
-2.423575987986642880e-03
-8.114620667393178388e-03
-6.819654056940303681e-03
-7.745023626304294202e-03
-4.412458880783965039e-03
-7.109307212045241214e-03
-4.954955882306514778e-03
-5.323444093649183986e-03
-2.244795273971771435e-02
-2.546221172006022521e-02
2.485017140745004582e-03
-2.333079727213955776e-02
-2.550365531443798267e-02
-3.746190543688511249e-03
-1.216717335604188162e-02
-1.403901677619038939e-02
5.372986803336007693e-03
-1.111783465479180416e-02
-7.079813558003992310e-04
7.807931046643464858e-03
-4.923247845871515926e-02
-6.910289477367648897e-03
4.661064502294467657e-03
1.747778082008314901e-02
2.908542585868420169e-02
8.008226849806244704e-03
1.053180537663997093e-02
1.635342090322339237e-02
-1.434212874149548567e-03
-5.768722919810236223e-03
3.126250316553308862e-04
5.515003619888118359e-03
5.523985913291437622e-03
1.441080034433424393e-03
2.785803302301229946e-03
9.212494838642943176e-03
6.560654882887799293e-03
4.331156403318693724e-04
3.508908702588165417e-03
7.991538224778499053e-03
-6.225111344574863620e-03
-4.198458719098507701e-03
3.584789454365903635e-04
1.041609991723238017e-02
-6.755960601074893074e-03
-1.453422688231031934e-02
1.405023522128583287e-02
2.092725723140377147e-03
-1.142431571161838487e-02
7.122603571782262083e-03
-6.155993588158673903e-03
-1.118874217524421129e-02
-4.005808153077620483e-03
1.608740031117057712e-02
6.889676058513686911e-03
-3.541050486441306086e-03
3.224690966761672127e-03
5.444366928233762386e-03
-8.136641600130186877e-03
-5.810713321510593658e-03
6.868827624868675992e-03
5.712306963799131110e-03
3.098333181055603226e-03
2.366213652692457196e-03
8.177830048967859797e-03
7.847321772776697651e-03
3.165040163235720988e-03
1.641346671417951743e-04
-7.112163203544834104e-03
-1.080614394737798058e-02
-9.812599021546767816e-03
3.067944879074723311e-02
4.165848544212608778e-02
3.049153761165301207e-02
3.761745526651463084e-02
3.704826301914505154e-02
3.945418246760096920e-02
-3.249843752483585341e-02
-1.539732174545884943e-02
-2.804083895052007953e-03
-3.678622386790991912e-03
-5.889138974491806185e-03
5.771864018894986952e-03
-1.506119043608981434e-03
-5.348987439310205760e-03
1.959199869268067259e-02
7.340479604892214023e-03
-1.969530688778193921e-03
1.844908829058599861e-02
3.426869580155332551e-02
3.873637379509477924e-02
8.631924270578031355e-03
2.024132068434505299e-02
2.518194019624060698e-02
1.840675870917226134e-02
1.994460280672153210e-02
2.192714217278834282e-02
2.817028201028749269e-03
3.755296634931006190e-03
7.181968127497174005e-04
4.927240481953434025e-03
7.323035902394154500e-03
1.331699189983642307e-03
3.083467532183615210e-03
-3.206087329856607241e-04
-2.504377161279705208e-03
-2.440770364222408348e-04
-5.559542788283512033e-03
-1.898782765201648256e-03
1.663150779798619949e-03
1.732259714092857427e-03
-4.716905770451441764e-04
4.937437668204491120e-03
5.522705480981451864e-03
1.227396103422742711e-04
-7.097888129273981824e-04
1.020379681935232536e-03
-1.415488884834530201e-03
8.545335396344833512e-04
-4.663709014286571640e-04
-2.681742517244674589e-03
-9.300496918696540827e-03
-9.829590080228736010e-03
-9.133652515726429361e-03
6.171239074911344727e-03
1.136618083660656184e-02
1.010044571396299246e-02
1.897407903609675192e-02
2.209342516723823702e-02
8.979649595321950728e-03
2.238429086217722658e-02
1.263526712616464681e-02
-5.941999455922003168e-03
-3.052482175094749488e-03
1.273147776904659826e-03
-5.748038855069303142e-03
6.657437196442748777e-03
-3.794312856195603337e-03
-9.810341396971331007e-03
4.223609446856041992e-04
-8.804215972848625227e-03
-8.888639574350267261e-03
1.042715982182886372e-02
9.640136685031601427e-03
8.144994281558001759e-03
1.160912663858064409e-02
1.139656109314281587e-02
8.163236648788060532e-03
1.093486212685311834e-02
1.079054530007216191e-02
7.116665047989940464e-03
4.588045571469338661e-03
1.210430346566081228e-02
1.473367580651487908e-02
7.561962994939865935e-03
1.974271560268163472e-02
1.600296736108368367e-02
8.711385992945757176e-03
1.297476855423197566e-02
1.977706299365617447e-03
-3.892548723019461591e-03
-3.368356220495315884e-03
-3.110257720931530571e-03
1.318772841548031781e-02
8.890958551496590603e-03
1.612747007712392669e-03
3.661261628671086047e-05
5.706586362366540890e-03
-9.231310190688157488e-03
-5.011800006840325464e-03
-4.276535046216834758e-03
-2.888553397734895667e-03
7.923512300041046872e-04
1.497455515905330792e-04
-9.810647052096539353e-04
1.150792926337942642e-03
9.122203902876400332e-04
-1.032897552999509534e-03
2.097003046255811742e-03
5.101682105202679646e-03
2.335210158839550344e-03
3.381727424781891689e-03
3.364362867332972885e-03
1.369731432883824118e-04
-3.507259743216239404e-03
-3.310648981334372073e-03
-5.208564803726036842e-03
3.157596834660220640e-03
2.326517616864555264e-03
1.852508269663014247e-03
-2.952391506035365043e-03
-1.309719102150810801e-03
2.745128180063531251e-03
-9.514301643829341584e-03
-5.388119768133094699e-03
1.579768682611877020e-03
1.464796990241685505e-02
1.808052008139509129e-02
1.092871452602784364e-02
1.517778476882707811e-02
1.325726668138101083e-02
5.922539297956074195e-04
1.086716434638467996e-02
3.025625922061871728e-04
-1.143294371257238921e-02
1.462717948918817318e-03
-7.127028343657236011e-04
-3.397272195791229809e-03
2.756937817844180936e-03
5.785798819969969510e-03
4.784762933163495824e-03
3.765078288904059791e-03
8.746762986314405089e-03
6.758231458761568625e-03
-6.562968891269440816e-03
-2.154485701346203156e-03
6.287558789179670780e-03
6.918972936232269891e-05
-2.856731111375428785e-03
1.673641546762489197e-04
2.030534958444036014e-03
-5.428892126434788253e-03
2.425592655349887924e-03
-4.729806072654599812e-03
-5.771174981643182982e-03
-4.915191770807356489e-03
-6.317735333129655476e-03
-5.363899531817720168e-03
-4.459832905974835462e-03
-6.422689403010268042e-03
-4.950860274989549864e-03
-4.554259640671181643e-03
-6.039284721507138555e-03
-6.563094120175140891e-03
-5.482873374422142683e-03
-3.097142666679341717e-03
-6.776249931887496671e-03
-4.583465229372977318e-03
-4.313024955425120467e-03
-7.140375744102232976e-03
-4.055444620644698892e-03
1.075497268584253360e-02
7.554596949363189852e-03
1.970992118935884548e-03
8.702498682515285092e-03
-3.743494437332429156e-04
-6.237945651788434805e-03
-9.228474991977634115e-03
-7.941978695265427407e-03
-1.730129805786466760e-02
-5.531595808109403441e-03
-1.962048589151472924e-03
1.713264655089294375e-02
-2.201749723426469144e-03
1.261524332541736314e-02
2.478605292799527030e-02
2.946434751964673027e-02
7.739824834944709041e-03
3.051202337198485100e-03
6.566652092849425276e-04
1.158095647699002896e-02
4.724115437650867888e-03
2.355178572456744206e-03
3.435008741965424675e-03
2.682944636472779903e-03
-9.616226229723960628e-03
-7.133630831043271704e-03
-3.487451003621396071e-03
3.599160569139142184e-03
-5.650366931216671031e-03
-3.661592712757783755e-03
-5.250238731780865024e-03
-1.148314427119493698e-02
-6.824239677640754446e-03
8.961817600518914503e-03
-1.452476905496665437e-02
-2.712920778920688281e-02
-1.413292559353829985e-03
1.037484231888928000e-02
2.601076612802595209e-02
-1.124000483259495137e-03
2.005793175211598861e-02
1.848503948480586384e-02
-5.333383329470624962e-03
3.737235407907568609e-03
1.305835418624798523e-02
-1.066538147056091297e-02
2.833700963175812739e-03
1.048474117135349618e-02
-3.615330912755431066e-03
-2.524745688338821820e-03
3.239960900066016572e-03
-2.889835301027713927e-03
-8.791301783874515274e-03
-2.637247225111397520e-03
-9.965569602347278469e-03
-1.232993837084698716e-02
1.072329688091181810e-03
-7.869179463175149727e-03
-1.687523660641127021e-02
6.071734821162660944e-03
2.891543490245384110e-03
-2.163685160890468223e-02
-1.179909877724994761e-02
1.270698490202457932e-02
-1.799410866468531892e-02
7.616920478621068673e-04
-1.307159417531615804e-02
7.916246227552123024e-03
-3.955296501168784930e-03
4.373648566200525473e-02
-1.243275414586702751e-02
2.703065294540867025e-02
-6.425832051489920429e-04
-7.769132440775814059e-03
-1.655751726925699593e-02
-2.463275035584797275e-03
-7.126845986301822908e-03
-1.473162358240716688e-02
8.290171770752147694e-04
-3.094058417184076138e-03
-5.809532851687657963e-03
1.983114496684437733e-02
1.583433341776479403e-02
1.258587887468716818e-02
8.021663062740548925e-03
7.705024184703987769e-03
2.023432147399390792e-03
7.354430630335671154e-03
3.046607645211996031e-03
6.135900531186066174e-03
-3.718824563197125457e-06
1.808946090747226435e-03
6.119796574291215541e-03
-4.106317765705080024e-03
6.595476517038260586e-03
1.804916294945449820e-02
-3.429427384944722015e-03
1.144134946517361660e-02
1.731084109831698692e-02
6.112317206693378482e-03
-1.064642349369672491e-03
1.111697013903839744e-02
3.032100826964092286e-04
-2.077441095077796340e-02
-1.643488353525652743e-02
1.712020563869198373e-03
-2.366686213225132132e-02
-2.673876047910368758e-02
-1.898482998848466038e-02
-1.647343351262726269e-02
-9.392866379797519538e-03
-1.469195396354184592e-02
-9.763186535272727271e-03
-8.188234858475548425e-03
-4.477284734924939259e-03
1.041466562199964323e-03
2.446182789515758196e-03
2.265266183495262542e-03
-4.866485720615570075e-03
7.994018170207841181e-03
1.998593971759279886e-02
-8.573959575569297872e-03
-5.059970124772493125e-03
9.083001789592575620e-03
1.715633666258892069e-03
-1.323332806410355833e-02
-1.438886833057094647e-05
-3.897442199084402703e-03
-2.532784775175203271e-03
6.167574914994304602e-03
3.177212658204931969e-03
-2.322602181910437234e-03
4.643352032180510756e-03
1.232064463588068053e-03
-6.967777717246773778e-03
-5.095330900286752611e-03
-5.374025808180382148e-03
-1.527482734759139267e-02
-2.379669791194906955e-03
-2.715412920202066403e-03
-7.052592742899808399e-03
-1.204519658681260175e-03
1.330222611197625108e-03
5.302924005380447482e-03
-1.362504448780696778e-02
-1.687455945875096508e-02
-1.758602373675132238e-02
1.271042112228718164e-02
8.103530349074803199e-03
-6.539643078627559473e-04
2.282397343250775965e-02
2.565788640634789411e-02
1.286694800334268682e-02
1.015478581562610089e-02
8.970201108690751407e-03
1.548089079501452532e-02
-2.897486124188947826e-02
-2.535696080186763263e-02
-2.086415931154298516e-03
3.501966182713093373e-03
1.790429775679883498e-02
1.538302390379762616e-02
1.971865006350774496e-02
9.720717743579901024e-03
4.089850035124670442e-03
1.212851491530381187e-02
6.270597851453864162e-03
6.573607615834379560e-03
4.064918782653236320e-03
5.620089026933810204e-03
1.453579946136281803e-02
-2.606159803721335225e-02
-2.732622205221879597e-02
-5.383542355024671829e-03
-1.136777683533862424e-02
-1.095000683396584601e-02
-3.923963453846296412e-03
3.479337165162535439e-02
2.603787864455970116e-02
3.248551656903144423e-03
1.882291936351857334e-02
-6.441776784876471727e-03
-2.437958639895347959e-02
3.034842318956955300e-03
-5.405532681624430728e-03
-8.485802915127789057e-04
1.622564785949608471e-02
-6.538857012776980344e-03
-7.622561808416027616e-03
4.542726330867018214e-03
9.676082267852716481e-03
-4.139828050124121778e-03
3.270843504581640634e-03
3.410087890464252262e-03
-8.817302836654135898e-04
1.068383422240622507e-02
9.491602749725035551e-03
1.023646855298400091e-02
-1.404411776126644230e-02
-2.415185951733031869e-02
-2.565995363805020218e-02
-2.026818716615204005e-02
-2.113519967621125747e-02
-1.085690433427248698e-02
1.694271138791170542e-02
2.108377181084641200e-02
6.547298009739469654e-03
-2.238131021732011131e-02
-2.612331426382494964e-02
-1.131359963147181465e-02
-4.485471381458063650e-02
-1.258286695159665201e-02
-1.238861289281874799e-02
7.279703862687914376e-03
1.924908176796797168e-02
-1.282452115955949080e-02
1.172443524549944202e-02
8.243884228966427349e-03
-1.967462280797505590e-03
-1.929930076084408795e-03
1.304859872001568619e-03
-5.046362326043457407e-03
-8.597302582040073499e-03
-5.070589564635540059e-03
-6.011868468954175045e-03
-1.012124209350473251e-02
-4.589013401248080194e-03
1.971060319482452819e-03
-2.126644100757004753e-03
5.999009411482628812e-03
3.164302405581116782e-03
1.035821097458620998e-02
1.799806404100700793e-02
7.375636757078113392e-03
-6.026392862793226828e-03
-1.329261968920687157e-03
5.634792461360566516e-03
-1.769367711793464262e-02
-2.098171469274930437e-02
-3.369926437876986491e-03
-3.368626949740419901e-02
-3.658946142007783731e-02
-1.358863492135070281e-02
1.234303939576999716e-03
-1.974577501127791623e-02
-2.955723705699943998e-02
1.929044034288303691e-02
3.329580169199186732e-03
-4.806594118487252966e-03
3.958114400385810000e-02
1.728400078673351936e-02
-1.526813521165623156e-03
3.005270151229365999e-02
2.752044822925890297e-02
3.578279295682011002e-02
2.895953823541783795e-02
1.421391276471801503e-02
2.091099067327687952e-02
2.734980203618347233e-02
3.893145968215573020e-03
9.559344817340170372e-03
2.025653339637436059e-02
1.995030946509177353e-02
6.853176804939198515e-03
2.516575581027299946e-02
1.517577496365405711e-02
8.529250628824861478e-04
-6.784464851159300409e-04
-3.711500031269051453e-02
1.099604834589903296e-02
-1.284348811000580537e-03
6.147963612552720565e-03
6.500783902350639951e-03
4.765098325591175278e-03
1.272343671580092664e-02
1.392993925681776553e-02
-1.723380170938439886e-03
4.280387259099087752e-03
5.070471863870986903e-03
2.981040522774043230e-02
2.831022035941221232e-02
1.399354148383599554e-02
9.193831764721131436e-03
7.966208409013231934e-03
-1.283267616955430061e-02
-5.069033763666519476e-03
-9.273699002637967800e-03
-1.465244470298536494e-02
2.038569408398633112e-03
7.829189798856165533e-03
5.468935551880164470e-04
-8.900489353972619588e-03
-5.253037652166707254e-03
-1.158623570177820007e-02
-1.038611645197429385e-02
-2.179736994387094628e-03
6.966459550870040271e-04
1.175937255884264288e-02
2.268459942800520046e-02
-2.935319206619303734e-03
1.616047859086790564e-02
1.464774941285195559e-02
1.201855156210637028e-03
-1.004559718124548549e-02
-1.508714069158427137e-02
-8.319953597426651276e-03
1.371795365497067119e-02
9.222089631866336318e-03
4.951628840338645476e-03
-2.309248156766987702e-03
-5.476832961074040718e-03
-3.113236154701930214e-03
-2.730799670608714293e-03
-2.236491433532499570e-03
-1.193236060941873719e-02
9.112773490655914563e-03
1.159622300414460405e-02
-8.130456406531539866e-04
1.948218070075348127e-02
1.472194773068430905e-02
1.511984637702238309e-02
9.618324235681983622e-03
-7.016216276023302771e-03
8.701923601111858503e-03
1.513067674686543324e-02
-2.490220462644492181e-03
-4.583287327136595715e-03
4.675431301166094959e-04
-7.127850598858510335e-03
-1.471422426764148854e-02
-8.982867965688302175e-03
1.254883084747677492e-02
6.023255718942267627e-03
2.968620371946792402e-02
2.601536603688063554e-02
1.742556228421101791e-02
1.957146357801810982e-02
1.877085419838942296e-02
1.088495592280148971e-02
1.041726830310831138e-02
9.419815872354270203e-03
7.891007467645193632e-03
1.712781624505859551e-02
2.524076224167461080e-02
1.179745610061219696e-02
2.210432268616591492e-02
2.061338070795755775e-02
7.474819335783654956e-03
8.718894143119147321e-05
-6.409500481031643604e-03
6.006495689868151036e-03
-9.262388765121954163e-04
6.226516494265588609e-04
-2.712444669600619709e-02
1.601525513929601824e-02
8.391455876885649950e-03
-1.564639686636054225e-02
-1.354327083561773087e-02
-1.780224711820001249e-02
-1.388844576873112142e-02
1.815368919147111433e-03
-1.676287188748985021e-03
-4.961355096510472983e-03
6.037726007222132818e-03
-2.732235170742893741e-03
-7.267089287090165890e-03
5.051597851805741946e-03
-5.561092222709010206e-03
-7.581604497012232186e-03
-1.678455675109470635e-02
-7.285201017422770521e-03
-6.251401205241893105e-03
-1.300334883901520244e-02
2.162087681486709982e-03
7.386744939880878630e-03
-1.064353186980871412e-02
1.952999329199072050e-03
8.415705240022627528e-03
-1.976921368848881880e-02
-1.494217879407893322e-02
-6.342825778620387635e-03
-6.880532183736852089e-03
-7.296714221134704666e-04
5.275805806691855407e-03
1.255177904428516428e-05
5.232955886447411206e-03
6.973411302448546782e-03
2.839957355763284008e-02
2.657699371983894901e-02
1.455244418972102480e-02
7.492804605994762661e-03
9.669584261877939638e-03
2.474179326349407529e-03
-1.649659842062295434e-02
-1.310160556012235182e-02
3.132767387201537197e-05
-1.666769287054442605e-02
-5.909658470928002248e-03
-6.891976570796326182e-03
3.679133771280663698e-03
7.843866791029401389e-03
-4.424107807658397991e-04
7.727914540672242011e-03
9.669824485321585478e-03
5.399227838040881848e-03
5.769730346491802088e-03
2.620229339558789901e-03
6.031610466848624612e-03
-2.263949023928493970e-04
6.490204384913447321e-04
-4.826893706001146069e-03
5.469721229823761022e-03
1.987370326839544600e-03
-8.232894183663680768e-03
-1.534135626204724545e-02
-1.495981490230799751e-02
-1.717767251311873994e-02
-9.118144744651697844e-03
-1.281578460885268722e-02
-1.263671631500526936e-02
-3.859021262621955021e-05
-5.858233132404548280e-03
-6.826800598579998124e-03
4.260413560268368378e-03
3.370669094119449830e-03
-1.179391293178640556e-03
7.270402897783763592e-03
5.744180577165696952e-03
-6.053842562505340301e-03
2.986535555825504777e-03
-1.165073442671735399e-03
-1.045897017875579288e-02
-1.130287922573656317e-02
-1.453354161693952429e-02
-4.770742431585181346e-03
-1.565778686938675696e-02
-1.738399981363407398e-02
-9.592285210774627660e-03
-2.177761593057033623e-02
-1.845459888170749088e-02
-1.326277648311371439e-02
3.786437256710414867e-02
1.863836444343472398e-02
1.645616756032703895e-02
1.989421264114979437e-02
-5.294187579448100291e-03
-7.525873138426336130e-03
-1.483590699881046472e-03
-1.752415886616578988e-02
-1.824858398976735366e-02
2.716868392940303446e-03
2.972496610613030443e-03
1.622686710242575089e-02
-1.151683468247670719e-02
-6.079200577925824266e-03
8.040068060237184205e-03
-1.726826559999609934e-02
-1.200354715789091024e-02
-2.804203380551175979e-03
5.999128120179930516e-03
-7.875985281361930559e-03
-1.712490234234147549e-02
1.746304189953652372e-02
-6.230818538137598665e-03
-1.563481376578138363e-02
1.676011552633345503e-02
8.406494256487172245e-03
-2.230063100290120837e-03
-9.288240909189352185e-04
-1.720084493570673678e-03
7.914039845492722158e-03
-4.994547405447965355e-03
-1.007659197735956023e-03
1.378577463389072874e-02
3.945563025547948327e-03
-2.610796051471364794e-03
5.725635600303801212e-03
6.725963476194467272e-03
6.220042188976270675e-03
9.947119304935525541e-03
2.960964487893039728e-03
3.451615496851257077e-03
7.523161333766500980e-03
1.054927196104701696e-03
-1.246534557721091195e-03
2.470010231286588320e-03
6.431088478775021967e-03
3.222666035537286987e-03
3.324610523107237193e-03
5.135438608379006876e-03
-9.807764947682519330e-03
-3.541999212337764661e-03
9.763686310380529157e-03
-4.722814057011863638e-03
-3.067920100965008511e-03
-4.367148461150311680e-04
-1.714363165427296165e-02
2.253275953831751000e-04
-9.250513383406268678e-04
-1.237539662838029603e-02
1.577161866476745056e-02
7.669101693810693142e-03
5.579900812007886762e-03
2.088643978386934413e-02
-7.435503998931761518e-03
-8.130755525992336419e-03
-8.022288198262903305e-03
-1.170717602704675819e-03
2.381055130549519685e-04
-1.699615612395210520e-03
1.609009738686848455e-03
4.186401134993755074e-03
3.713022341394266439e-03
2.135015737546034319e-03
-8.528474869058340346e-03
-4.264222690997101356e-03
7.535075783079458502e-03
-3.564334825721301395e-03
1.348762942053434487e-03
9.111931721265776468e-03
3.607180032533628764e-03
8.483740479659562100e-03
5.610062057657348375e-03
1.492021738432545465e-02
1.269469881025540176e-02
7.321531134755594750e-03
3.259378938249818392e-03
-1.817788205189199919e-03
5.704904183733431472e-03
-1.815992845079550172e-03
-9.890975934817558199e-03
-9.493146852961724738e-03
-7.711748533100640061e-03
-7.430305563556414104e-03
2.575991095840645013e-03
5.109398850103322176e-03
1.659594462134606277e-02
6.831939147004272885e-03
1.540389822095801151e-02
2.280613142929489509e-02
1.704902844043244478e-02
1.750172591196257066e-02
8.786469926248520468e-03
1.562654063380914532e-02
1.125802873102274386e-02
1.402914427480880452e-03
8.925231694036443383e-03
1.940644214976951871e-03
-4.704146567390987688e-03
-7.180227448006902373e-03
-1.764049136563351078e-02
1.149234148720701182e-03
-9.715839192773726872e-04
-2.094991739103099077e-02
-1.540907353579443499e-03
5.668584832803054765e-03
-7.633535770877059555e-03
3.821196808963967656e-03
2.961193515260516964e-03
3.987759014328836086e-04
-2.280874505543436116e-03
2.514331801787440118e-03
-1.088707576780722315e-03
-3.603191907109020223e-03
-2.529896448068383839e-03
-4.225030026714681093e-03
-3.339193049104234416e-03
1.763588300662119078e-03
-1.766189361291300953e-03
1.036362408587895509e-02
4.696228452969359278e-03
1.508909365406457597e-03
9.135826798245863176e-03
-5.453445369913704393e-04
-3.575546444158933784e-03
8.544473276754353287e-04
-2.376001367747414619e-02
-1.858352904398757194e-02
-1.806528082589761025e-02
5.331304023947248949e-04
1.441239952635763001e-03
-1.849759690277263816e-03
9.489473787280317332e-03
1.139058588552057175e-02
1.303224946856618160e-02
-1.466922231404231211e-02
9.968861112969474789e-03
2.312178111023274751e-02
8.181811177226962911e-03
1.704898149073446126e-02
6.921917894600661432e-03
2.227780615476707832e-02
1.387659621769501105e-02
1.483520678719840204e-02
-4.862198536153482589e-03
-2.159272800347846605e-02
-2.400494240802671445e-02
-1.473916586645234242e-02
-1.759790216414633054e-02
8.436676672724220671e-03
-3.208562612638488076e-02
-1.628030278914829182e-02
1.637929989746539361e-02
6.531924086167360810e-02
-1.545818683776083689e-02
-8.183739243635136662e-02
9.985466365716538784e-02
6.047080516247964332e-03
-9.253176055606697481e-02
6.522748444016544800e-02
5.640493771645997863e-03
-5.547029520851875367e-02
5.527976400337136905e-04
-1.349996360051212594e-03
-9.061730501079941907e-03
-1.027576978859783257e-03
-9.487237806412196495e-03
-5.075252170568044646e-03
-1.620352771083878943e-02
-8.173770330333276699e-03
1.458746403161527731e-03
-1.353547918496673941e-02
-1.440337627577004467e-02
-1.393103048407981839e-02
-8.093199240810452014e-03
-2.128115823357101116e-02
-2.370601696275580900e-02
-9.518929615163200519e-03
-2.086458650148859464e-02
-1.737003293845258006e-02
5.252831971641206549e-02
2.470576824419699544e-02
1.153219898136085414e-02
7.596024270848039661e-02
6.996414614662130500e-03
-6.127027009117123196e-02
7.005141641101472749e-02
-9.707352597848903017e-03
-8.626516896947937496e-02
-8.187329004349187811e-03
1.260616620662715313e-02
1.933035625669590751e-02
2.961331099436655817e-02
1.239464379428967776e-02
-1.529525604102514522e-02
1.643337176418751058e-02
-1.063662069374178391e-02
-1.583677758215341208e-02
-6.569243318712772971e-03
6.352081583513621843e-03
1.898910687293874425e-02
-6.045554721815595868e-03
3.449377397250618250e-03
1.339995089636611576e-02
-6.547718532295827322e-03
-5.648186623011053689e-03
-5.395849574929972858e-04
3.644847759091104922e-02
7.802207968338972614e-03
6.177367161340265381e-03
2.043031229740388185e-02
4.272080995556543602e-03
1.131857440047310398e-02
1.685349025333737066e-02
7.638931889897008359e-03
1.617163612301106279e-02
-9.418550127487613707e-03
-2.237802469190123059e-02
-7.568094863664222641e-03
-2.363807662875773777e-02
-2.635508543256124062e-02
-8.007337032710146879e-03
-3.854894895843201386e-02
-3.063281263991314562e-02
-1.554617104619019155e-02
3.775311637658994995e-02
-1.803870206722623173e-02
-3.752719484032758512e-02
4.569944710018444128e-02
-1.876622565274055007e-02
-4.903158674526633676e-02
2.874225543184869350e-02
-2.216501468739997399e-02
-3.935247835799488003e-02
4.360684581750411820e-03
-1.743315018385228898e-02
-4.706458951157591747e-02
8.371515292821605017e-03
-5.583538781800958042e-03
-2.320158627558368061e-02
3.486261791951919455e-03
2.338983995750530415e-03
-2.736648944970016678e-03
-6.635724868815183822e-03
-3.045064835785362897e-02
-1.767747561081893168e-02
9.706058730850432303e-03
-2.273048967720078806e-02
-7.648456988865415425e-03
5.732076717278743357e-03
-3.446422879724102967e-02
-1.635700062789834791e-02
-6.823735768013474041e-03
2.764645780201672835e-03
2.047729900021376045e-02
2.421229722424327394e-03
7.812173959062908464e-03
1.319161910410037407e-02
4.494563492623557428e-03
5.462847168791694873e-03
3.393951333171438007e-03
-4.291428461419434515e-02
-8.599420424472719107e-03
2.147694590387191557e-02
-4.944054724941002177e-02
2.254618773814477239e-03
5.293917989620694486e-02
-4.028869697045988491e-02
8.130106181112888367e-03
5.607127534499588978e-02
-1.678720154250928562e-02
-4.814365759728309914e-03
6.577413194688853416e-03
-4.179624328308837421e-03
-1.072032773773735730e-02
-3.252754100464610651e-03
6.296459058840912087e-03
6.552608223318953304e-03
-7.848972990215793977e-03
1.969402138243876027e-02
4.642123502437017074e-03
-2.673325962818841415e-03
-1.890402864588742321e-02
2.146611843554788873e-02
-5.073080288098514440e-03
-1.621065382888377607e-02
-3.857808888641167666e-02
3.443602213085869730e-03
-2.327972363380119078e-02
-1.676998764277318199e-02
1.148565191163347307e-02
-1.048934612779339227e-02
-2.782432106563720656e-02
2.089293840373850682e-03
2.210903646934201175e-02
1.109963197016378481e-02
6.640950320521211633e-03
-1.682090857593426109e-02
-3.685125136477638425e-02
-6.602400044344991503e-02
1.128288901115124653e-03
3.241902420521905470e-02
-4.200273674190298234e-03
1.688478511011690456e-02
3.264269636152081211e-02
4.521804268993555309e-02
2.467782495362541920e-02
-3.019341335202599657e-03
-1.690665744079727223e-02
1.863337175456123568e-02
9.331008498969703673e-04
-2.081961622610660131e-02
-4.538281561670399447e-04
-8.068857384530631538e-04
3.409391934176959210e-02
3.251764917269141155e-04
1.713210437715021513e-03
1.415368492297074468e-02
-2.708008098539707240e-03
2.322264788076343432e-03
7.931128292165249422e-03
-3.398790923581978206e-04
1.918901754616907790e-03
4.651212136411522215e-04
-4.663132497961906819e-02
-3.639284005180742215e-02
3.921067916706827937e-03
-3.288187804200539549e-02
-2.178200933671742626e-02
-2.304824860566778710e-02
-1.302255276554320843e-02
-2.596236704521270519e-02
-1.813946366716030767e-02
1.368024518322126168e-02
-3.353700069551016766e-02
1.002155370883156885e-02
-3.389251700820924279e-02
6.650178003379066116e-02
-3.060122407229932257e-02
-7.238724990263021306e-04
-5.586962424905230623e-02
-6.379631119080848671e-03
-1.473776650457550878e-03
-1.293278556396266175e-02
-6.310190282747652792e-03
-7.630354996806897223e-03
-9.324276655562339922e-03
-1.199899574738334286e-02
-8.100615386772126725e-03
-1.134566870192705093e-02
-1.709583843357871669e-02
8.751688901591527653e-03
2.128176015087246842e-03
2.586889480693026384e-03
1.882560830255146367e-02
2.101365982287621212e-02
1.037621490023325939e-02
3.539650669287233015e-02
2.450803453297342727e-02
2.105870990096881182e-02
-2.604344339823187054e-02
-3.029962000386577162e-02
-1.083906521679470561e-02
-7.698230213118082560e-03
-2.005716484907680772e-02
4.604984836443654257e-03
3.343038657763881122e-02
1.591972132221914152e-02
-9.718486106897960240e-04
-1.107929680435419326e-02
3.485115931919454801e-03
1.202952665789688673e-02
3.748471583461522550e-05
1.044976061214599426e-02
8.407970329275661278e-03
1.004164627247548444e-02
-1.795546444542417061e-03
1.048345649819213549e-02
-1.681517676974912537e-03
-3.252449747687238216e-03
-5.228579475733396813e-03
5.200010210542540569e-03
1.818114518338055001e-03
1.144872416578173076e-02
1.315887406130270346e-02
-3.729406045430696745e-03
1.325063987056733505e-02
-4.051815523049382556e-02
-1.436239847028573935e-02
1.211801161755946335e-02
6.850604941291446419e-03
-1.193360933007285747e-02
1.528547888267852220e-02
4.431085726635158178e-02
3.522706829470983320e-02
4.172343036465793464e-02
-7.791492117963049607e-03
-9.190143766279180310e-03
-7.014775029546638577e-03
-5.164197495926260706e-03
-2.934984572609489195e-03
-8.569282288268260939e-03
-3.169675326184389665e-03
-4.123851058482200412e-03
-7.559569141211772668e-03
1.671085255817190626e-02
1.689340848770113160e-02
1.208118683828589626e-02
-1.097938196780992234e-02
-8.954379344111333336e-03
-8.692414768106903472e-03
-2.892759621671095460e-02
-4.004764197104031254e-02
-2.890887419395945374e-02
-6.876572314812978703e-03
-5.455495947639354450e-03
-4.612970889628698924e-03
6.136865404711925459e-03
7.885400014606122610e-03
4.205383863264126020e-03
9.127404295052665012e-03
9.178242452633105994e-03
6.469604349099235090e-03
-7.791421287758001218e-03
-5.877879754645232505e-03
-2.355770235008870523e-04
-1.182059006437251661e-02
-1.361607633566605177e-02
-9.018499523478480315e-03
5.349761223858114957e-03
3.389440821132779901e-03
6.183531498005644458e-03
1.253156825147233762e-02
1.251741449370165522e-02
1.323826027894531472e-02
7.673908583355757047e-03
7.153922258390876462e-03
3.393820411433131571e-03
-1.730719776677978536e-02
-1.783500544822021541e-02
-2.271429156929318308e-02
-7.251174356364999997e-03
-4.460037847470055099e-03
3.956827274729842608e-03
3.763787632068460714e-03
2.549814752043453735e-04
9.456781054214918186e-03
1.987963241463512609e-02
1.171524950811504533e-02
2.044880878009974409e-02
-1.004939334998569689e-02
-2.149421667702206831e-04
1.386186144066873203e-03
-5.081585073234423308e-03
2.893607974046608425e-03
6.455286153343176014e-03
-5.693516194244349800e-03
-3.805536194219294281e-03
-2.746151728050632863e-03
1.206729188915998431e-03
4.127828270287005503e-03
3.545240096517805316e-03
-4.531462629569943910e-03
-8.210737490956474547e-04
-1.382501655993741922e-03
-9.287850922056476582e-03
-7.104000161084583244e-03
-6.625716452362856619e-03
1.809490759823481620e-02
2.031546672123625899e-02
4.464924381613023623e-03
1.734791947086953071e-02
1.299998128433391999e-02
-3.367392281369012592e-03
9.365822226571491813e-03
1.639874406847724496e-03
-8.029121012193640369e-03
1.646143605040189389e-02
2.210796826722571246e-02
1.307973942300018864e-02
1.793647995312631568e-02
1.811019417544218815e-02
1.683176885976674086e-02
1.037761530602337480e-02
7.378745697158801096e-03
1.015784042117812667e-02
2.037840953703966979e-02
1.513858961563949515e-02
5.332551293797727944e-03
2.334302614197451137e-02
1.945275865921571382e-02
9.629098652839482991e-03
1.817483918819849317e-02
1.236255106390987159e-02
5.152572599782289167e-03
-1.114373671630206064e-02
-1.081963406370018040e-02
-7.184832862414646144e-03
-6.571467305770255576e-03
-6.742440601880683032e-03
-4.593048172483363278e-03
-6.394417718328549750e-03
-4.350190415359380877e-03
5.144072167187986513e-04
-5.078127918477706206e-03
-5.427940054386760742e-03
-1.350842507397503835e-04
-1.441058879950006359e-02
-1.167500990630060582e-02
-6.974670784770657835e-03
-2.185316853116910790e-02
-1.343768464407899509e-02
-1.037531581227065479e-02
-8.584867542729614220e-03
3.206372099948295168e-03
2.481230702092001358e-03
2.424684919626105602e-03
7.212457124936561340e-03
2.999529009582670071e-03
5.480094595197725765e-03
4.380089769740464281e-03
3.324199281005727705e-03
3.195764750707141225e-03
3.127683028023850193e-03
-2.703911610638702612e-03
4.374247384848277756e-03
1.785527660681852187e-03
-7.622837178846861240e-05
4.660951167784152874e-03
3.976501576202083783e-03
5.709840841193628523e-03
2.226056363993845003e-02
1.742312346875364570e-02
1.638487346060651592e-02
2.138487860695967996e-02
2.512907217801668008e-02
2.181867502569392187e-02
4.184137728108142454e-03
1.381435293245528162e-02
1.330784304783736056e-02
1.147553058194721552e-03
1.538276529485215101e-03
-2.174771717712470440e-03
1.092234910811360447e-03
1.298564879918073615e-03
-2.524061301360510084e-03
5.137542352375651378e-03
5.999578373057565944e-03
2.581215812143927181e-03
2.257686054448317797e-02
1.361986808215237023e-02
1.103143304674405068e-03
1.386504379932689511e-02
8.599167931698487033e-03
3.041061582000037749e-04
-2.722274804965510702e-03
-5.471850932077913440e-03
-1.558699969089496172e-02
1.076968136260209475e-03
3.844060141885610737e-03
-4.875209594045365772e-05
-1.987247707576124574e-03
3.176434337124813857e-03
5.324584444846281600e-03
-4.792130499619517980e-03
-7.070681018808279254e-03
8.051180596999400448e-04
7.450671503043925815e-03
4.649377539566419866e-03
-1.246482592700113527e-03
1.366124116554217997e-02
1.014928435703063569e-02
5.911469577414206651e-03
1.591213048575335076e-02
1.362852321787500626e-02
2.756751310622300877e-03
-2.508041870742527477e-03
7.570711404895670311e-04
2.948822841058796208e-03
2.835851392497287619e-03
4.179720719631285601e-03
5.815824443127079121e-03
-4.240932377962966689e-03
2.892679849980575178e-04
8.012463887150092154e-03
-7.214671125791973167e-04
-2.708781623705861646e-03
8.461004885425652553e-04
5.643650806103816565e-03
-1.091763334920107424e-03
3.500511709583046822e-03
1.862911163446152527e-02
9.536078119011217246e-04
-1.300530747194626573e-02
-1.181063606828270567e-03
-5.585755339189299451e-03
-4.277876499399434033e-03
2.509505023440670828e-03
-6.225261080263179946e-03
-7.233429455516364199e-04
-4.628734586928728509e-03
-9.922210388195540701e-03
-3.480487181428604769e-03
-4.324965702409344290e-03
1.377082044184179928e-03
3.328410924781491690e-04
7.910342354233394898e-04
2.054039935479852128e-03
-6.403246953943878559e-04
1.184269030092388814e-03
1.187659563551746482e-03
-4.242440225275655326e-04
6.589294246267948622e-03
1.730311702452237439e-03
-6.476644449949112842e-03
5.204080016967367432e-03
9.248251058589668575e-03
1.187554680189615089e-02
1.189137078119363762e-02
9.678612820363289085e-03
9.664261379632999027e-03
-3.237901052723497070e-03
-6.193688804548835684e-03
-1.336681688204974412e-02
9.392429329900595439e-03
2.414679439402244061e-03
9.608057901843094703e-03
9.565001493903550062e-03
6.985669180267470128e-03
-5.160245773752697267e-03
-2.642349932359460904e-03
-4.100085941184296139e-03
-6.614694642659822016e-03
-5.402653719927819065e-03
-3.936711630890536717e-03
-5.067523071328596668e-03
-1.007306752473992317e-02
-5.724961930560326477e-03
-3.428206847921381594e-03
1.308863760112380543e-03
1.064437032689300074e-02
1.427486306347686314e-02
2.623157468945791580e-03
6.934214952219081539e-03
1.428441817613831585e-02
4.016873805789153082e-03
2.221249788611785476e-03
8.579474367504348262e-03
5.427292371105803433e-03
4.893281116526255851e-03
7.326070962724042478e-03
6.790827626603546975e-04
2.530310068547111154e-03
5.634658994567672864e-03
-5.866569963570838868e-03
-2.917167135397301034e-03
5.561252559639530933e-03
-1.457420464846150140e-04
1.803254281772430920e-03
-3.913205392263066108e-03
7.075200389248985713e-03
8.676660870065071307e-03
1.041753398442523543e-02
8.579818516036341602e-03
9.793675380957293439e-03
6.537448940342292271e-03
6.302351543286191515e-03
3.454244738498709645e-03
4.296082552670102937e-03
6.900188495220089570e-03
4.587137905100210737e-03
4.575574812389314461e-03
4.196707801781272493e-03
1.494953214356170221e-03
2.895164423603113074e-03
-1.742160542732122328e-02
-1.392290340268109196e-02
1.034957284336911632e-03
1.931218389800895725e-03
-5.321532994529269180e-03
-1.429381596375657246e-02
-4.372634743551946819e-03
-6.553093098307261055e-03
-1.878417215052178776e-02
1.889653292166656572e-03
-8.907222508655133000e-04
-6.313880072161839017e-04
-2.325855597186922245e-03
-1.179722172463736887e-03
-2.605184572580997778e-03
-2.106997988325621206e-03
-1.961557839064050502e-03
4.339182165403708004e-04
-4.227793800089372014e-03
-5.940922881452988247e-03
-2.810015223613603671e-03
1.787322737435939829e-03
-2.017928027766206864e-03
-2.669421758353256006e-03
1.722250730755011880e-03
7.670001980927107954e-05
1.782623545662714772e-03
