-1.450381198240415226e-01
-7.054556084551054373e-02
-8.807771562266109022e-02
-1.066551678602253687e-02
-1.891396132266180141e-01
-1.431716798243356514e-01
1.217482952297438588e-02
-2.251054225074543627e-02
2.988158667056562898e-02
-1.592935653364991044e-01
-1.263207688552666352e-01
-1.272014780933822808e-01
-1.570708759785108544e-01
-3.501578835271301204e-01
-6.260681912175543318e-02
-1.371948671911094042e-01
-2.530260171058741903e-01
-1.006439874050956140e-01
-1.655106885970628744e-02
1.125884864898195475e-01
-2.607825798165848766e-02
1.806986623508355649e-01
4.192650016690208786e-02
7.730145081021323750e-02
4.752827402221496134e-02
2.438103092451198231e-02
1.166588465517674478e-01
-1.960096181952112118e-02
-8.151907746067130200e-02
-1.143500005545032838e-01
6.518637916296732282e-02
-2.275576939467293669e-01
-2.462045610092106207e-01
-9.865236426489353699e-03
-2.274147137456683232e-01
-2.127398235881381439e-01
9.874942427646883625e-02
7.770182052804011641e-02
2.023781988432817730e-02
2.427217831648039933e-02
7.556877553010134252e-02
-9.098169280972875916e-02
-5.464205344180614321e-02
-8.471649358852671730e-02
-8.613759704995943567e-02
-1.516732287480344055e-01
-1.871870052679510676e-01
-1.860077581997523211e-01
-7.507452537448769392e-02
-4.086810834623811339e-01
-2.872817363939882407e-01
6.415179767117638876e-02
-2.581250447529857550e-01
-1.698560641833211926e-01
-1.212369598959879419e-01
-8.302921150366901482e-02
1.171009104432851472e-01
-9.879879068121591446e-02
2.247706994171273006e-03
1.468292839174006326e-01
-7.131953425672041269e-02
-5.851185509523015166e-02
9.000416253116907961e-02
3.394428079017127176e-01
4.467624412811196377e-01
2.733841564393060253e-01
2.258106766255135039e-02
1.025659064395376269e-01
3.026065651414049373e-01
1.583071302389430224e-01
1.713660724520392753e-01
2.735582028874308236e-01
-4.339227991019519587e-02
-6.908844066136859974e-02
-5.647069827048912388e-02
-7.668166534612048946e-02
-3.953187485320087957e-02
-1.083610066822967982e-01
-1.179727525946882433e-01
-1.099172118439157714e-01
-2.259077743693727325e-01
2.384620472855324136e-01
3.036611195887979966e-02
4.264621455388806215e-02
5.362526523735169359e-01
3.098451264815403339e-01
1.503861176576417880e-01
3.655104958129127279e-01
4.619881976284872516e-01
3.324533047900617433e-01
-2.493303914480830136e-02
-7.243331958561037565e-02
3.626883473721595474e-02
-3.727022188113212481e-02
-1.262919212664952162e-01
-9.761136451161406963e-03
1.548974398284180126e-02
-6.184472509125474304e-02
-1.689792979688713517e-02
-1.325335969241817069e-01
-1.977710366714424683e-01
-1.852600049526128070e-02
-9.345667908390140055e-02
-2.218198461560488555e-01
-2.879819721182909700e-02
-2.319553161687378309e-02
-1.674974820049279223e-01
-1.056268373501310642e-01
-3.107540846228564607e-02
1.409376519150405162e-02
7.342918272316606258e-03
-4.077421533102338486e-02
-4.539572331719506776e-02
-4.521912113570856345e-02
-6.927425958206494261e-02
-9.776390733115390697e-02
-1.140538448892759460e-01
4.852671679024544993e-02
1.021237343821394632e-02
5.161073356986137228e-02
3.178186498245789138e-01
3.372763962451360564e-01
1.731020593689333309e-01
1.195032570400116345e-01
-2.714512070005421773e-02
2.048751830389582973e-01
1.723574379013560753e-01
9.905920632714916574e-02
1.639251780282946838e-02
1.675120089342229113e-01
1.063466309749131894e-01
-1.250055472133811130e-01
1.173782427298259851e-01
1.485532971228757659e-01
-8.667200567530988775e-02
-3.433369431050129622e-02
-6.331771547399792088e-02
-2.130090308562161347e-02
-3.804096792432720697e-02
-1.204810816303855947e-01
-1.394040798350374144e-01
3.051419356472185197e-03
-1.127228586991840670e-01
-4.052970006951847615e-02
-3.944982441756292313e-01
-2.824763497982000771e-01
-1.280882961966144928e-01
-4.068616684463292610e-01
-1.582942112612922558e-01
-1.470116523688805472e-02
-3.751206147635348653e-01
-7.447877255595980461e-02
-7.979726467068249882e-03
-5.304038340048115863e-02
1.309090192523506557e-01
-2.850051164322670028e-01
-5.126399139793150206e-02
-2.932406749491685560e-01
-4.929452525986408040e-02
-4.067859115070222853e-02
-8.836313210089835612e-02
5.485857591765641583e-02
-3.585685893185519557e-01
-3.112637053519347607e-01
-1.510385449450027395e-01
-3.832954811496315783e-01
-3.431536322428872521e-01
-1.038085434661644921e-02
-4.565251689613299413e-01
-3.138086190364940131e-02
4.068094827375666467e-02
-1.229564670158602227e-02
6.059725281400327873e-02
1.630823312084107579e-01
-1.140426046737278015e-01
1.430529388736506702e-02
2.705792419561942608e-01
-1.749091582555795388e-01
-7.074585586506035306e-02
3.754132529976578203e-01
-2.098057806658469304e-01
2.998422861542573634e-02
6.679120943522925957e-02
-1.306740623518160282e-01
-9.664280280131633261e-02
3.155376521295569225e-01
-1.818490133722540925e-01
-1.087717983055728893e-01
1.719964121634251775e-01
-7.996694722782625789e-03
1.250884296242571192e-01
9.677184284276389714e-02
-7.838911632768416930e-04
-9.625264590594947989e-02
-1.609787990970937832e-01
1.539247674504637120e-01
8.476246971015705123e-02
8.775693373049983648e-02
1.437806535391815688e-01
-2.432169393653432765e-02
-1.129667998589851952e-01
2.562074362899467994e-01
4.328390692521292271e-01
2.872523919247090829e-01
-1.499599739197334525e-01
-1.900906540891399432e-01
-4.455338327305181922e-02
4.336569628137272314e-01
4.407857773818731340e-01
5.640697200015176715e-01
-2.713849494729836734e-02
-1.605336729665657602e-01
2.586154030730788977e-01
4.009504410515648543e-01
3.371838988461380859e-01
2.785325734069175607e-01
7.275188879548925847e-02
-1.403458447334230211e-03
6.585509608760079263e-04
-5.751122679233008905e-02
-8.263903300415813280e-02
3.206199470944243179e-02
-2.469491937241447832e-01
-2.039772690263858546e-01
-1.219223415046403469e-01
-1.793143160520813684e-01
-3.970314047121760170e-01
-1.555999698269390219e-01
-1.141473873432092556e-01
-1.082657506089381855e-01
-2.769962659674516381e-01
-3.391211985877757851e-01
-2.469614663483125361e-01
-1.355045542373309042e-01
-3.391501160937512339e-03
-5.812913069209353634e-02
-7.043217451768188364e-02
1.984244693563226025e-01
8.218274462974424488e-02
7.022462864227251543e-03
1.439577732632812967e-01
2.227594272506875916e-01
-7.032015814273862020e-02
-1.298726167039836177e-01
-1.844944240480139996e-01
-3.395658485318280850e-01
-2.562069298006954821e-01
-7.056719502836672486e-02
-1.827921439769463474e-01
-3.316207854099091912e-01
-3.062212801819825803e-01
-2.756699134740650536e-01
-7.296304503017761456e-02
-3.064344169195128489e-02
-7.417286170607027135e-03
-7.219957525377779239e-02
2.587325665909270562e-03
5.659777126300633530e-03
-6.031273355929004341e-03
3.453329645831908906e-02
5.515762102436076730e-02
1.270177770517515459e-01
7.609821349613725416e-02
4.513092604003648423e-01
6.538633379200899931e-01
1.043312295511549914e+00
8.601295704003765197e-01
2.120332273205463303e-01
-7.434760699124370702e-03
2.836208639924100994e-01
-2.192013402598367786e-02
-2.803413028001314200e-02
2.396737873139558606e-01
-1.272528313540652878e-01
1.469943494839428266e-01
2.146398634302849606e-01
-1.079963437813746957e-01
1.647914294040160044e-01
1.661970453007575177e-01
9.606002847655153998e-02
2.247835660896108922e-01
2.989549126568950138e-02
1.485457996533342262e-01
1.828220571455527188e-01
2.978500193419425165e-02
1.344789351481532336e-01
3.315753961808444172e-01
1.282364984147387477e-01
8.606532862968696573e-02
5.498012803445397056e-02
1.280763764595545598e-02
-8.081618185610929539e-02
-7.258078164720725700e-02
-7.109271395122482295e-02
-1.087977484184876331e-01
-1.434722359508448231e-01
-1.041002279567368183e-01
5.167295097045949276e-02
-3.955776209320181758e-02
-1.484356303556833290e-01
-2.572618316533112348e-02
-1.280383890893229681e-01
-2.166656439461700501e-01
-6.833572126022680049e-02
-1.847782114587553093e-01
-2.054311615641771227e-01
4.205220144176070873e-02
5.397489525001379629e-02
6.353657799461312483e-02
3.932401552611719531e-02
4.390258827013366477e-02
8.670205945133395431e-02
1.020408023525564839e-01
1.249397736059746147e-02
3.164153485616536410e-03
2.155227756532138508e-02
4.320153210548028505e-02
1.037499177652973503e-01
-2.577826144041249923e-03
2.082162118247143923e-02
2.229615517189886820e-02
-1.075409462512367208e-02
5.009081276642039088e-02
1.122839932020386344e-02
1.576974142951069469e-02
1.836480683700987201e-02
-8.322540563167443728e-02
8.741193196130347953e-02
5.854192213004040524e-02
-4.097381661565131089e-02
8.667243946765734730e-02
1.253549616326485594e-01
-2.229109897385912059e-03
1.142962884896437346e-02
-9.618979106414200786e-02
-9.652244409340246523e-02
2.321007896820952501e-03
-2.518506738282478424e-02
-4.045169828311410976e-02
-6.795570637591050178e-02
-6.620304478697698614e-02
-3.633831552423426314e-02
-5.809745013285071147e-02
-1.830519697281567937e-01
-1.793036535033945833e-01
-1.797194156702033307e-01
-3.357052429263496784e-01
-2.658097523382216276e-01
-4.495977038342822280e-02
-1.487838698777841362e-01
-1.760976173420350510e-01
-1.303420463771483573e-01
-2.537274438076356775e-01
-2.181953415079934955e-01
7.197495085937351267e-02
-2.080671706929955456e-02
-1.241372857037655320e-01
-2.915592126505596807e-02
-9.295776800258191697e-02
-9.785110789883924576e-02
-7.475206669149025984e-02
-9.339923470559050034e-02
-6.172273283278802147e-02
-9.096055095261582069e-02
-1.656241247662771920e-01
-1.467376156130245288e-02
-9.765590966513433557e-02
-1.029412460914722743e-01
-6.342014990497862881e-02
3.832097953360270176e-02
5.538142563471865065e-02
-1.814512670322830298e-02
-4.560640747543417278e-03
-7.884369048047383532e-02
-4.012939577690709941e-02
-2.075132666448961313e-02
-1.567911387983627336e-01
-1.615184863107240187e-01
8.583941860483594588e-02
1.118897565842188850e-02
1.012497633693636850e-02
-2.426063964568695233e-02
-3.909306059778647202e-02
-3.073253078196076099e-02
-2.610649641427486081e-02
9.674379864570837109e-03
-3.839696745105258824e-03
7.848357284607566930e-02
-5.353449023564795656e-02
-4.937919995299304421e-02
-8.183126161446827029e-02
-1.517856627452820184e-01
-2.436055602977206525e-01
-1.095209108607581860e-01
-1.709961092923059367e-01
-2.354297859536395310e-01
5.568696889626898600e-02
1.205706895377400226e-03
1.183766083064647159e-02
-5.895177159467386921e-03
-1.709770967829234156e-02
-1.810910458644179530e-02
9.350001982958452626e-03
-2.022203063905384651e-02
-2.784045797665333014e-02
4.350125772740223717e-02
-6.253670447890680162e-02
-4.798341822458265099e-02
-1.089755718540142693e-01
-3.451174798174957981e-01
-4.434640047677498309e-01
-1.145901164688037516e-01
-2.302640777422776952e-01
-2.460440087473614035e-01
4.461468110236226775e-02
4.135726222257648382e-02
7.410218711954258408e-02
8.946412904706511904e-02
5.646096156473769806e-02
5.751461036316977971e-02
3.775061742911404311e-02
6.804369099853808944e-02
-2.447866230278423344e-02
4.404388980459249259e-02
1.746969224800119444e-02
-4.558716530999773475e-02
1.115696875772576382e-02
2.346957807337409288e-02
-3.199664147076389936e-02
-2.833358976208888696e-03
5.802422467654130139e-02
-6.690689353159759434e-02
-7.380089012181777208e-02
-1.042727522495917880e-01
-7.632448208214888397e-02
-8.530052474026192377e-02
-8.275684366622235166e-02
-1.049823743304804796e-01
-1.282972765533909321e-01
-1.109635933241305827e-01
-9.809149075048888278e-02
-5.787367809407398256e-02
-3.442593866575217876e-02
-8.879183348866052927e-02
-1.808367592920923361e-01
-2.045894579234885102e-01
-1.580309438057508065e-01
-1.468700937403175644e-01
-1.993217220211020158e-01
-2.241529471205752355e-01
-6.117834191124569415e-02
-7.677242253768792879e-02
-1.855068555919729342e-02
-9.890125663494522823e-02
-2.247433390926845131e-01
-5.880336195332193892e-03
-3.600605650281701875e-02
-1.086659297695270754e-01
1.372571003324273183e-02
-1.922979116286323564e-01
-1.865649042098020405e-01
-8.833401912501931408e-02
-1.638995346230373296e-01
-1.061033587351719182e-01
-1.650555580263190006e-02
5.775255305938357953e-02
2.689669038918054977e-02
3.187673226184840891e-02
4.811350639684393304e-02
4.848247667158132185e-02
8.318366320903464173e-02
2.969429285304145752e-02
-8.220605406435124718e-02
-1.171697260552527660e-02
1.072339824882908715e-01
-1.478613719159290081e-02
-1.304942836992951070e-02
-6.567182927137225901e-02
-6.486041488043842174e-02
-1.489986700777677642e-01
-7.611304630171258911e-02
-1.117027382980021882e-01
-2.699117181678196697e-01
-1.137297107637975577e-02
-4.409725836757252132e-02
-2.219754163341732534e-01
1.263870779085460305e-01
1.533802316228037310e-01
1.014527256172837177e-01
8.472266457998392508e-02
9.294963432833298900e-02
1.332455632629137021e-01
-3.728087515705432592e-02
1.247592798877282527e-02
5.742335778026288248e-04
1.486151254771782559e-01
2.136483765763114995e-01
9.198497472254188456e-02
1.561856575742400499e-01
1.156293015132437707e-01
8.237601363265412147e-02
1.677201427528841327e-01
1.843580402865584167e-01
3.442490291348095088e-02
-1.763704400039452919e-02
-6.858389422096258792e-02
-1.589810159081799651e-02
1.773585951097312718e-03
-3.868980923515475540e-02
-1.208900612419357579e-03
3.958304278451160035e-02
1.103350788161350585e-02
-2.035395398292134603e-02
-6.020954983837753516e-02
-8.201868700558666292e-02
5.318536256912724525e-02
3.009236697594974003e-02
-1.025665203726217195e-01
-6.234666520218594410e-02
-1.436005097720165213e-01
-5.886618968460383128e-02
-1.301717377916255733e-02
-1.060199319205518409e-01
7.921277216853631412e-03
-8.976140171685662028e-02
-7.358637739284036583e-02
3.503292771146971490e-02
-8.801708156552578988e-02
-1.415012468051432201e-02
9.914048641907710624e-02
2.295570043619674094e-02
4.696781811450783523e-02
-4.595051962802152411e-03
4.665212714744252503e-02
-5.050955323970421351e-02
-1.632454425684966015e-01
-8.334156930911243433e-02
3.464422675129073814e-02
-1.714403250804533430e-01
-2.531437190797709569e-01
-3.894997017587209509e-02
-2.497787628842051966e-02
-2.079902174132136281e-02
-4.574163633123581874e-02
-5.865483560472836005e-03
7.426046236526791591e-03
-3.766327067878823959e-02
-5.787197687755723900e-03
1.701599586945851117e-02
-1.087783009844493255e-02
-1.417315764991480265e-01
-1.342463621893643655e-01
6.017224562585059972e-02
8.359521001797476369e-02
3.763055882843080457e-02
1.248711767122972771e-01
-5.274094446196095701e-03
2.895768059655572536e-03
-7.412856603405714936e-03
-3.023164007715329130e-02
7.129810808498186769e-02
-1.131464873570260515e-01
-6.949320960329405383e-02
4.564725637045995849e-02
-5.919353747684887729e-02
-6.226743674219197000e-02
8.396747467016517363e-02
-1.290636937015695596e-01
-1.354096266342877664e-01
-7.453424885113091314e-02
-1.822349721482096896e-01
-1.682402063551264870e-01
-1.211972553506742711e-01
-3.183132915179099492e-02
2.199711829793095721e-02
4.979788864479465366e-02
3.214937788067718377e-02
-4.170951358334354375e-02
2.659671853380503152e-03
1.397995090657393191e-01
1.319265730238240453e-01
3.239177572683769185e-02
2.321166587036714302e-01
8.720921404363189688e-02
1.396404658743615468e-01
-7.105381646201873458e-02
8.871417867524097889e-02
6.023988346926582166e-02
2.590861906051522556e-01
3.527301251488629275e-01
1.827444651814349452e-01
1.944542384688845715e-01
1.515101059641129067e-01
3.508686729483377897e-01
-4.513617428626965494e-02
2.125176994000444602e-02
-2.061839352967809874e-02
1.559371323392215805e-02
9.661760793112751655e-02
-1.681834946802403530e-01
1.447594770746109261e-02
9.534249480593692816e-02
-5.180498331340915863e-02
1.552728247630834613e-01
7.938507237334631317e-02
-8.312906382868820443e-02
1.761472501680112768e-01
8.086623857120908698e-02
-8.521277331998507176e-02
4.209089381194767304e-02
-1.497767056524832163e-01
-4.657026523689166558e-02
-7.428568664482838868e-02
-9.480299043116067982e-04
-1.048730249641834367e-01
-1.838112635722096988e-01
1.372996145940459656e-01
-1.394867460856543395e-01
-8.972084039537574218e-02
5.994534451502260552e-02
-9.865741111626255555e-02
-1.012413923413377215e-01
-9.885456788363682079e-02
5.004780679245492657e-03
-1.344884396419308015e-01
-1.225633718443143623e-02
-1.600032863977332576e-02
-1.114519584297325588e-01
-1.024910323572365695e-01
-5.630250947629179825e-02
-5.782911938737449187e-02
-8.188831358149267770e-02
-1.325473795626677109e-01
-2.029712905461111272e-01
-5.950274384838803721e-02
-7.224226741554139186e-02
-1.537736502470018474e-01
-5.035908073628210524e-02
-4.548101102890858560e-02
-1.169636150257796631e-01
-2.923080537139364360e-02
1.135168948212383344e-01
5.315958796595331159e-02
-1.623579508098310642e-02
-3.940360432330765328e-02
-1.460112166447064541e-01
-5.133775537282859840e-03
6.328755764454306598e-02
-1.115160954962890333e-01
-8.019177704896529590e-02
-2.693843601348424200e-03
-1.012731209716949549e-01
-5.403946197459509604e-02
5.326472255405912543e-02
-1.254064767539015135e-01
-1.118472838293305405e-01
6.091605888662286056e-02
1.112888834667840471e-02
-7.175347524926069254e-02
-8.250081864515017294e-02
1.412012556387895190e-01
1.481336802982740064e-01
1.318017763590567937e-01
7.955211243460028059e-02
1.750377285947035955e-01
2.378260211410420932e-01
3.934522207466764621e-02
-1.278614256008860917e-01
5.513493640603262663e-02
6.166242948644388468e-03
-1.650235741018946378e-01
1.687544270020206391e-02
-7.922044693015042535e-03
-9.286819240955768162e-02
7.020054247158373159e-03
7.141633992242045481e-02
7.042245070820205011e-02
5.370481839762963894e-02
2.150774037126460328e-02
8.279513535517579736e-02
3.334761150173025657e-01
1.616676341236411574e-02
2.002853515179226773e-01
2.808748698918629438e-01
-1.061044749445325987e-02
-3.696648207721103113e-02
-6.404559345114931024e-02
-1.661972588881373281e-02
-2.556580866221307841e-02
-3.289841148915241542e-02
-4.356446840880161264e-02
-2.584018483664585197e-02
-1.955892527612678941e-02
-2.237224030932538632e-02
-2.270371755984974815e-02
-2.395277843346394625e-02
-2.779325264025305775e-01
-1.622612745751826667e-03
1.671871084868714330e-01
-7.804373700791077118e-02
-2.560802721964019688e-02
-4.461232374832476560e-02
-4.618944715542611795e-02
-1.556969072571176838e-01
2.664331007304282170e-02
-5.087472654064141564e-02
4.516324755392799040e-02
1.670522585395559090e-01
-1.705312956679716219e-01
1.619002976730715346e-02
1.497611747036309837e-01
-6.922378174994629763e-02
1.507045883340795978e-01
1.368475960018616100e-01
-7.828537399445577305e-02
2.693861119422045758e-01
1.469518849054084753e-01
-7.455726123480069245e-02
4.772994340815094744e-02
-4.682465250493128561e-02
-3.852716800828772520e-02
4.660435974655367103e-02
2.577583230891042007e-02
-3.992944449058660056e-02
-3.957391991071206733e-02
3.632296954721524890e-02
-6.878395837735910845e-02
-4.638654668310734919e-02
-1.005031763263451380e-02
3.161313362536392630e-03
-2.442784573423132863e-02
-2.183347518809663698e-02
-6.490673607702973635e-02
-1.011994765705495763e-01
1.189749587837426147e-02
-1.015327999874681975e-01
-7.412328880148585930e-02
1.039797508702339050e-02
-4.119575401876008486e-02
-4.311723277884274889e-04
5.311186132755158634e-02
2.536470369511545364e-03
2.517553173953480591e-02
1.281028779935807632e-02
-1.175232070538772752e-02
1.035866227788916349e-01
7.947273706465184107e-02
4.713823626182870458e-02
1.191806864488818979e-01
6.159659298426900520e-02
-5.679200305900721640e-02
-3.540012513048891585e-02
1.268531822578963242e-01
-1.175095679371816332e-01
-1.203640120646154305e-01
3.228930502259402813e-02
1.261818991615777609e-03
-2.857177655346453821e-02
1.993065971819051041e-02
4.580786437299312619e-02
7.871171169206146734e-02
6.890748313803347902e-02
3.251084161675801831e-02
6.780096182582182052e-02
7.901971095131918310e-02
-4.504049966342604100e-02
-1.275061484872304710e-02
3.712628759070917602e-03
5.360153154680493987e-04
-7.532063729613384939e-02
-4.394974579243165341e-02
2.275095626851626751e-02
2.182390083933484493e-02
-8.674602681853416097e-02
-2.484579079478856090e-02
-5.671066206374186097e-02
1.491608340435581458e-02
-9.793098931084820435e-02
-1.498487744945635469e-01
-9.769552007375092995e-02
-7.670772405493404833e-02
-2.215319371576074947e-01
-1.317336212299136944e-01
-2.881465136418971326e-02
-1.970045528385727662e-01
-4.795415933841785244e-02
-1.640740413056632485e-01
-3.046255952201810113e-01
-1.671939762848524968e-01
-1.252625500926281554e-01
-2.359658357803671724e-01
-9.166568214053344432e-02
-2.504098885439975941e-02
-1.890960225210847057e-03
-9.720087131760486721e-03
-1.465871223511378170e-02
6.775482116077828632e-02
-7.483990769938364540e-02
-5.691885721622858690e-02
-2.763481383586662791e-03
-1.227531393157627049e-01
3.834595652575947811e-02
-4.014554618197605645e-02
-3.691170953904792523e-02
7.645345150631013831e-02
7.572633619313021147e-02
-1.541993623058226896e-02
5.181894566846733004e-03
9.299533525310516024e-02
2.754311437227888529e-02
-5.865184234638223110e-02
-4.547045336984655711e-02
-9.478330832323875188e-02
-8.254849790087021022e-02
-6.192664093879029358e-02
-1.130304612704276374e-01
-1.831297335369122536e-02
-3.545957300976858295e-02
-4.219954114780036236e-02
4.955617679524252500e-02
-4.240071137729244100e-02
-3.340000104542926312e-02
8.276474272519533659e-02
-5.944332184402337238e-02
-1.340950035098359971e-01
1.388477326386035327e-01
1.493280299075382296e-02
-1.154782937691014172e-01
5.794332705447250223e-03
5.169678481946251430e-02
4.263517764664485898e-02
3.168995037522803065e-02
2.477743133447094653e-02
1.949093874470361407e-02
4.839483764306141272e-03
-1.517255688116437955e-02
-3.441105891272326633e-02
-9.466760920024260006e-02
-4.444315510033047256e-01
-2.055017951436234613e-01
-9.824215305261833897e-02
-3.657920343193586388e-01
-1.877534044686882675e-01
-1.320150019119183948e-01
-3.105894467956663574e-01
-8.156531984017538484e-02
-3.577432648407740529e-02
-5.298647480151837640e-03
-5.315974551770275697e-02
-1.408662907937036253e-02
1.593205757683136270e-01
5.069038810733431794e-02
2.625033977173992297e-02
2.344586148519555713e-01
1.484566303720365188e-01
-7.493430283325976105e-03
1.363072578659179912e-01
-4.397637681602689468e-03
1.105643119047694349e-02
8.629510621142903737e-02
-2.816693334249661691e-03
-2.331000965973580030e-02
4.739121439086051851e-02
5.120955512048178115e-02
-6.477319756726364341e-03
-7.300340898813627299e-02
-8.318376163439146487e-02
-8.756660885235327541e-02
-1.833393744282497684e-01
-7.703054189287981968e-02
-6.565208590036872294e-02
-9.120028681294281570e-02
-2.755466622218480377e-02
4.860665720074012347e-02
-3.900292673489922507e-02
-1.266111796300445624e-01
-4.846236552649511864e-02
-2.465624731129681113e-01
2.715840002871150547e-03
-1.002680106098706170e-01
-2.096639756421590697e-03
-8.545607516116979219e-02
-4.412569268742688733e-02
-3.372240118977358481e-02
-1.274516649413724549e-02
-8.870172143742387216e-02
-1.127656776347163992e-01
-8.194072002443432423e-02
-5.002513328584294594e-02
-6.796910298543205886e-02
-4.266605448798675010e-03
-1.753276581028939685e-02
-1.028591584054578262e-01
8.675334415363644127e-04
-7.748571497329537205e-02
-2.263993271928435025e-01
-2.220768462079455649e-02
-5.376961306561414689e-02
-8.599365487793947382e-02
-4.638507133793094706e-03
4.677945154299265051e-02
2.498489226650563860e-02
5.310156634518518187e-02
7.302009289225970534e-02
-2.820200462295274074e-02
2.785127962531670082e-02
7.193531157978859392e-02
5.912238511040749517e-02
6.865798528801442258e-02
5.085425468248278014e-03
5.014672842476734782e-02
-1.452311113598343528e-01
6.449326180944409126e-02
-1.237021050932580468e-01
-1.771625328905098717e-01
1.116073751113834667e-01
4.240428701565662067e-02
1.528655361207030897e-02
-6.381711201491040153e-02
-1.155499045370766420e-01
-1.319998908113118874e-01
-7.045711600543563824e-02
-8.666796249573925637e-02
-7.664246431059627829e-02
-9.566814433267653572e-02
-1.478205066883133967e-01
-9.123944610772798114e-02
8.069026589586388368e-03
-8.829654269694352242e-02
-1.586755800339010036e-01
-5.582234663628495713e-02
-1.235918144103162475e-01
-9.798955301686200492e-02
3.112363120540120875e-02
1.157726191144103078e-01
-2.231194702551143536e-02
-1.601094110689036190e-02
-5.313791439065105454e-03
7.168099522207355134e-02
-3.524921729502522583e-02
4.934214052450609789e-02
5.353412529795963104e-02
-1.340654549447386351e-02
2.830945380565493691e-02
1.351856256614420576e-02
-3.841768617159960902e-02
-8.297442526578500954e-02
-1.372356262179323105e-01
-8.623736255083926106e-02
-1.173455783045000561e-01
-1.416573615155316546e-01
4.288985601218154448e-02
-3.785676839137153832e-02
1.637373830800399263e-02
5.727432196466775843e-02
-5.006370529551985166e-03
2.101381953278885079e-02
1.058152992017197397e-01
9.875425455711525982e-03
4.919126666725378433e-02
6.907477412308608844e-02
8.056932688896983885e-02
6.073841013654425469e-02
-6.771568893965065894e-02
-1.387755649637912592e-01
-6.112946378350606058e-02
-1.316084021769786117e-01
-1.298462026175907780e-01
-1.653217385220083768e-01
6.282795281843199520e-02
-2.574677003981740153e-02
-1.330318018601471253e-01
9.033973158068614451e-03
3.628788055790265615e-02
2.892523841025994302e-02
1.668588608028720791e-02
6.212494124979036497e-03
2.890467404325422485e-02
7.359828186171948200e-03
3.733193787281348722e-03
2.401647789941968592e-02
-1.909159156177911709e-01
-2.675196326719997408e-01
-1.487475513571605568e-01
-9.772377260348129313e-02
-2.222457089314357481e-01
-2.474579838052208269e-01
-2.401957392464404775e-02
-8.122894716338723009e-02
-6.657059250773966763e-02
-6.654886400186926787e-02
4.986643695785024670e-04
3.575613509621378833e-02
-6.387027331326246282e-02
-4.379106952448193896e-02
3.817918061385949802e-02
-2.900436125705667390e-02
-1.126722909574217300e-02
-3.699963985819235829e-02
1.513285181533577037e-02
1.457802281517324994e-01
1.834498528755245869e-02
8.270097780880624611e-03
-7.078186067819369764e-02
-1.013026338101827017e-01
8.451054613687265793e-02
-3.841037588023429178e-02
-5.538923690813366213e-04
-1.388727323342946463e-01
-2.582030220122843046e-03
-5.355007113813153863e-02
1.479566725765017465e-01
-1.140445888761263543e-01
2.041248750913750645e-02
-1.033429220440658380e-01
-3.229958752478178513e-02
-4.440663742597530939e-02
-7.117532106565255257e-02
3.123144654712386448e-01
-1.724196424012251205e-01
3.567950182209670418e-01
-1.786798733898283253e-01
1.468952041984840085e-01
-3.566807565981446881e-01
2.774005530751373350e-01
5.134364879591086367e-02
-1.191209069572092411e-01
1.062961156191731711e-02
7.038433222962249547e-02
7.058036975112259859e-02
1.597928940198897474e-01
2.547763696104181352e-02
-1.903557929374783686e-01
3.201886148827691736e-01
-2.072653666774976200e-01
4.183456792169978899e-01
7.752794163981137354e-02
-2.166327760991393347e-01
4.644183348435191316e-01
2.002457785640071597e-01
-1.052545603653305822e-01
2.967546144198878744e-01
1.233676610663443224e-01
1.028828383236573968e-01
-1.648647908391094874e-01
8.192740623339057893e-02
5.907625801367970275e-02
-7.655151567712790983e-02
5.668398316883199728e-02
8.966398312245940638e-02
-1.582512177862937797e-01
4.358397367970118924e-02
-1.754950694948403944e-02
6.352163660587856198e-02
1.301248312547430008e-01
1.211529594502175344e-01
-3.653693087585860311e-02
-9.254958173462822860e-03
-1.221547133782682239e-02
-6.924262650553326091e-03
-1.141297658732760845e-01
1.575378012440885045e-01
2.046371499721164403e-02
5.960779803207739980e-02
5.130943344621215207e-02
1.929944339182933788e-01
1.440874703048253824e-01
5.306008200912661760e-02
1.095241103078977013e-01
1.925609907513287922e-01
3.136969530167060122e-02
-1.576769688102888645e-02
1.268610560796511744e-01
1.847645831070203193e-01
3.576560261541175678e-02
-4.138341312322019183e-01
-1.467481112587070424e-01
1.644499731308018131e-01
3.739014801724803716e-01
-1.186606371483646394e-01
1.012412359228405390e-01
6.090721038282143757e-02
7.884577840724114883e-02
1.311802185285070033e-02
1.569319587715303499e-01
1.357763370615311903e-02
3.205789021475789584e-03
-1.988905729124869695e-02
3.161925983263477735e-02
3.974400889205571830e-02
-9.267031325361561878e-02
-1.860185533262507379e-02
7.096993426173828223e-02
4.513977768091178011e-01
-6.932757255364166427e-02
-5.589244935952457187e-03
1.669028596377196139e-01
2.269699554988633405e-01
-5.482489987725307906e-02
-2.867623466136158261e-01
-9.015938210814471165e-02
1.377983939471103536e-01
-2.517003609904397976e-01
1.306006195099619349e-01
-2.053400325796308004e-02
-1.856956566594004654e-01
-3.531675232283379429e-02
-3.904896027540374903e-02
2.321368504647530057e-02
-9.081182976494259207e-02
5.696038597220346583e-02
1.851815208942972912e-01
3.258845493036953145e-01
-5.432853555780509797e-02
3.946707274593412307e-01
9.097650972344246967e-02
-3.569332885750643985e-03
-8.805063459536794160e-03
-5.335765901812915268e-02
1.451220970874280702e-01
7.480446094713717742e-02
-3.603689297129996499e-02
7.308066727166893928e-02
5.980724163656116199e-03
-5.004101977362713366e-02
-1.487911961375745773e-01
-2.654404499013780505e-01
-2.172225185989601695e-02
4.952331842116643873e-02
6.708741005183609385e-01
5.355042669996495225e-02
9.146367928033848071e-02
-3.111307270216272514e-01
-4.951937567242487709e-02
8.082111546481186848e-02
1.340177099569155039e-01
-5.531911919517331234e-04
-5.672093003093321012e-02
2.451601333655413217e-01
8.963738078360514172e-02
1.538529843671003761e-01
9.543161642094341590e-02
8.247489336616735389e-02
8.044487621542979749e-02
2.442584518170542729e-01
-2.315424640615471874e-01
3.394795889246469134e-01
1.580254194070360163e-01
1.444810722699046146e-01
6.096535471160824046e-03
-1.573078324900556435e-01
1.832534386689890216e-01
-7.352263287194865660e-02
-5.800002934507892532e-02
-4.450261206447348600e-02
-8.945290054057150955e-03
9.317519851511298773e-03
1.239417549024761020e-02
-4.064670964150347843e-02
2.506199750364179052e-02
1.956571988124034250e-03
3.968232521474272800e-02
4.670648788899186415e-02
-1.278416725619685793e-02
-5.450768623464831777e-03
1.898873251171087628e-02
3.956827284897007461e-03
-4.103733203561917703e-02
3.490172618756466616e-02
-5.604509072739759235e-02
-7.744678752899977758e-02
-7.413323750682575264e-02
-6.004894460704088277e-02
-8.535359130232625380e-02
-1.139749159354912361e-01
-1.382586060734093680e-01
-3.870094601127006817e-02
-3.692400980459938087e-02
-1.133038492815105769e-01
5.518663269629777574e-02
1.105058608359577588e-01
-1.089822631858099709e-02
2.217950923294418134e-02
1.045211473464120744e-01
1.200975064880221294e-02
3.282087678508553100e-03
4.866710216017125501e-02
-1.586198933958311765e-03
-5.655537764305139381e-02
1.263494671470308077e-02
6.444740210165207650e-02
-1.021976652790965029e-01
-8.219833677841922870e-02
-3.448775489431508273e-02
-7.478352387543187041e-02
-4.451420257525688651e-02
-5.928377953230607594e-02
-7.505712081815709043e-03
2.402732543602819834e-02
-1.868226114012651665e-02
-1.559235970039885184e-02
3.954132545504362127e-03
-2.792680730971186173e-02
-6.154683872295602792e-02
-3.421293931702269753e-02
-8.692202444052885002e-02
3.087556111830828866e-03
5.137238565575979327e-02
7.769641364274418316e-02
-5.421118487691757581e-02
-3.095521423980690523e-02
2.907544823923054883e-02
-5.485346444238963642e-02
6.808400510194435873e-02
6.184219016284393799e-02
-1.669388531231198042e-02
3.984996270819276404e-02
1.134000787905513619e-01
-9.143478655217928547e-03
6.329075610866324864e-02
1.202415680561983585e-01
3.645519212733950437e-02
1.259900090921532156e-01
1.220938491067008469e-01
2.239958106639681687e-02
-2.552023628468044151e-04
-4.111060667940111962e-02
1.229545913165111526e-02
5.679250775094856624e-03
-3.887913282665489412e-02
4.168293000999470643e-02
-2.164015166356488343e-02
-2.849953598199588337e-02
-3.715128645612473385e-02
-1.280743874028686391e-02
-1.006005537813795155e-02
1.609693529944447934e-02
1.550095340954147846e-02
-5.772844171416682130e-02
-4.202685112651482341e-02
-5.236320775492211976e-02
6.259613179587982315e-03
-2.110441085544918077e-02
-3.975308082518667560e-03
1.919835766339925490e-02
-1.429418769937890578e-03
2.998596484292895964e-02
3.538249796536460656e-02
-4.232265835834649048e-02
-2.671677016157132656e-02
-2.972318947954006099e-02
4.149037531039821876e-03
8.824448649885663354e-02
7.320705783913658560e-02
2.380054980770818923e-02
6.136497425807083822e-02
7.782277760998988769e-02
-5.902075104781864118e-02
5.094888100429735599e-04
-5.115520253422548708e-02
3.554890116727230098e-02
2.476513516565025108e-02
1.536115401793851538e-02
4.065233223525236556e-02
5.224887791275623083e-02
2.751186963316168063e-02
3.645597584592981388e-02
4.934200738256370317e-02
5.631812662851265472e-02
-4.938483094930957995e-02
4.024220994839802779e-02
3.242377762224238347e-02
-1.763519483700426785e-02
9.861009557586775109e-02
8.648475556823065347e-02
-3.389929966030767391e-03
-1.202788838470132161e-02
6.349235706057849982e-02
-2.262602006975072966e-02
-5.858381706082262108e-02
-4.760431973330907923e-02
-8.693537201185878860e-02
-1.451009129810928444e-01
-8.888346505206429216e-02
-8.549350377208319099e-03
-1.412528981942792194e-01
-8.845224064201252789e-02
-6.346204341699111795e-02
-9.114478457880678675e-02
-8.330503267146531499e-02
-6.532145708951417329e-02
-1.520069611743454230e-01
-1.166452304468760526e-01
3.437204723833449035e-03
-1.143187257135212659e-01
-6.491732446549318414e-02
-4.174109212153163809e-04
1.925345313169601788e-05
-1.181006481707485846e-04
1.131825156401572967e-04
-9.642381701582030860e-05
4.876043578286555025e-05
-3.771228186157067819e-05
1.568011401685472117e-04
-1.537671216545792260e-05
-3.840081728295668202e-04
4.341100948008570813e-04
-8.942492561208639746e-05
2.879021730327730962e-04
-2.160816361590327803e-04
-2.528095300184455803e-04
6.704691678665797750e-05
-5.851715053116444683e-05
8.158438148874052362e-05
-3.452059122170519358e-05
7.078565516570979122e-05
-5.652148517698022594e-05
-1.555112002382516481e-04
6.892459320570689274e-05
-2.835846117616093345e-04
-1.845944823494736510e-04
5.791888851984633153e-05
-7.518521748352769532e-06
-3.960801134565421103e-04
6.540619347832849016e-04
2.729366838878824041e-04
9.403750469862220366e-05
3.811883433940791463e-04
4.169237305009237818e-04
-2.785327146446839883e-04
1.541353481933877652e-04
6.373974504499799383e-05
6.921852461332508530e-05
9.332958624698842762e-05
-1.158082318018452964e-04
1.894065006343330164e-04
-4.389668932974153661e-05
-1.473953149125279739e-04
1.406339880396913027e-04
-6.090607528003126868e-05
-4.225538997264951076e-05
-1.081915685247565774e-04
5.192250892613538456e-04
2.992373422393940457e-04
1.134422125708786197e-05
1.726066953724231972e-04
1.230380429634698959e-04
5.494283364934461427e-05
3.332419150432827529e-04
-7.944119206769230401e-05
4.818776246394681551e-05
1.094811699000776672e-04
4.575749358371908153e-04
2.290633245330239340e-04
5.257222624051484513e-04
4.510481012351844694e-04
-6.457861858198364060e-05
1.768882940204023966e-05
2.619521110961004471e-04
3.018906329457944344e-04
2.274008730696159772e-04
5.372776489900191275e-04
2.607279569450993736e-04
1.433222105451747541e-04
2.234438576870935293e-04
-3.024134376222784959e-04
-1.095446110598474092e-04
2.563845492755109428e-04
3.089682813320987172e-05
1.312094108805334240e-04
-7.986532060176427497e-05
1.882793955406427918e-04
3.515803970805431340e-05
-7.717404604845117487e-05
3.334234158810182581e-05
-1.218153744119090676e-05
-2.803446153905570599e-04
-1.084097394139814710e-04
4.597862202856430307e-06
-2.265117367515686480e-04
-4.808605953900171962e-05
1.710932788406161547e-05
5.759731687774463605e-05
-1.999754037133456266e-04
-1.372027182141774809e-04
2.586008817302244212e-04
4.052807743980275511e-05
1.710348149442771299e-04
1.015753453033693693e-04
9.037012562329544774e-05
2.270679876276955405e-04
6.144512806876059868e-05
-7.941005511615895161e-05
4.093915392164969985e-05
-1.352309588836388501e-04
-1.228975022245869090e-04
6.406907818621608640e-05
8.892658784883255456e-05
1.708343853463267857e-04
-7.180303812931318691e-05
1.270718446354277107e-04
-2.630288675067204876e-04
2.333133213480122670e-04
-4.567748849549651169e-05
6.949953534826057444e-05
1.331169458271075974e-04
1.702979677280331238e-04
2.060010758919378977e-04
2.226475208034684643e-04
1.778247673981648268e-04
1.702692511919143205e-04
1.502623146567731770e-04
1.618154627363648727e-04
-6.076683317739366895e-05
-3.249686825033758870e-05
-2.697928421826411519e-04
-9.933784558316204440e-05
-2.504661737585316215e-04
3.955290268070407863e-04
-1.379602021246867122e-04
-2.934609930607379701e-04
-2.328545591453571348e-04
-2.320848013537582489e-04
-3.935478738392252681e-04
-1.857098340271842569e-05
-6.293552538883281477e-05
-3.650504131072741473e-04
7.761466776814548627e-05
1.427279808751944802e-04
-2.248703868638834101e-04
2.426155892063158249e-05
-2.691984255494660064e-04
-1.390279236652416049e-04
2.397729704732923521e-04
-2.926898204125293100e-04
-2.503525607727679475e-05
-1.561327821183341698e-04
2.957831517368021430e-04
-2.659198490705011225e-04
-3.053955157394903116e-04
-9.054998721254836624e-02
-8.215375964507419526e-02
-4.785086995410265526e-02
-5.722528800500826379e-02
1.731843503756093638e-01
6.574222937586875204e-02
5.337303196241231437e-03
1.089128287628083891e-01
-4.517408933051970943e-02
-8.714849230602553232e-02
-1.154247458011393584e-01
1.695738711548457067e-01
-3.650936931498825755e-02
4.122646926189971195e-01
2.944221651163277387e-01
3.397192819685441734e-01
3.128115335279156306e-01
2.340111148641094152e-02
1.072048570072701296e-01
1.437572242691805002e-02
7.296703862129724771e-02
-6.384928824596517588e-03
2.020995191146401568e-02
-5.939521195837736689e-02
1.274531201029249494e-01
-8.781798746327562633e-02
-1.833930526423077634e-01
-2.203619026832953076e-01
-1.208888693451886792e-01
-7.757993225507536783e-02
-1.810502645377613795e-01
5.518285181819063828e-02
-2.208348935826454779e-02
-1.508039850703644380e-01
5.743635547472084740e-02
-7.341817324220252516e-02
-1.384114158660034073e-02
-9.432395301406460222e-03
3.206995871158582062e-02
-1.317213317312068178e-02
-1.542530783940162858e-03
1.291163222181495873e-01
-1.307730173377064098e-02
-1.217157539770144375e-01
-8.580471275642135090e-03
2.883912075526466959e-02
-1.162513877352402553e-01
1.440398592529940069e-01
-3.427877362704401937e-02
2.256245466660849464e-01
2.505190365797075325e-01
-1.839509203293263895e-01
1.864225404761558347e-01
1.512109028624404883e-01
1.349384923224110876e-02
-1.051959670393117635e-01
-2.611317496590663811e-01
-9.043656647579428193e-03
-6.979926432046186513e-02
-1.724644684740357092e-01
5.341516698409046193e-02
8.737052027465722071e-02
-8.088264379429492557e-03
4.481348096098949907e-02
-2.111185036508379451e-02
1.522866470447025583e-02
1.166301849509284866e-01
1.720983050232474387e-01
1.755196687835126335e-01
1.818529198467213337e-01
-4.741596237274606218e-02
1.344832116153726609e-01
-1.852793667760017915e-02
5.551294634210172246e-02
2.576524081089720530e-02
3.292887674645250673e-02
1.330566546134201444e-01
-9.343021055232100802e-02
3.862591594873513584e-02
5.687925902713903553e-02
-6.092701887368018321e-02
-1.735815926183874314e-01
3.225520584001403956e-02
5.833234693538152937e-02
-5.807446442286296612e-02
-1.840308487800489667e-01
-3.236800500092833210e-02
-2.195028336365109287e-02
-1.965011702455329301e-01
-1.791799549707015493e-01
-8.164275284376515396e-02
9.802549781448079147e-02
-1.059230894230106107e-01
-1.264564225696517830e-01
1.632333121934771702e-01
-1.510244435937086425e-02
-9.271336237230817789e-02
-2.648171011279512425e-03
1.816510223060466278e-02
-1.566046170998647846e-01
-5.300835166438711693e-02
-5.212528790253764463e-03
1.209422089118314669e-01
3.667725411784368839e-01
-5.489196915669376092e-02
1.591160073138756237e-01
7.734477164288705575e-02
7.093915620804742972e-02
-3.097521129746674123e-02
-7.037586153023667190e-02
-9.971877826774047660e-02
-2.513068603610368185e-02
-5.469281949359279527e-02
-9.238264627255729500e-02
-3.145001164318785014e-02
-7.489261180862977901e-03
-4.297384299306999250e-02
-1.371406236121906026e-03
9.534976618439754137e-02
2.540967111579934823e-01
2.830584913434054939e-01
-1.817696205942645124e-02
-3.893672139680213334e-02
2.545316389641604296e-02
2.031669846078428820e-01
1.992405668821313480e-01
-1.257948016052528872e-01
-4.735555760566827893e-02
-1.221157414007248559e-01
-4.947431548535282698e-03
-3.227319513470939399e-02
-1.062752977546190802e-01
-1.990773122125380490e-02
-5.728862267295346117e-02
3.570990682943098789e-03
1.100444406130139385e-01
-1.593273215262751633e-02
1.931783552447702834e-01
1.672540773114097323e-01
3.278710891543405725e-02
2.323646400154108782e-01
-6.184100367399829323e-02
1.167614170040463667e-01
-3.501480706220753275e-02
-1.156717212217972940e-01
-8.240982367265210773e-02
-4.386103451388435881e-03
-1.231993441093189728e-01
-5.081008912268400457e-02
2.767747550941629386e-02
-9.610850095388488723e-02
-9.568735853398235847e-02
-3.141190283412133993e-02
2.091291615940672408e-02
7.416701083019371088e-02
-1.232678271785013213e-01
-1.765687187796363966e-01
-1.866891665125358091e-01
-2.068228726791581651e-01
-2.067595116123800147e-01
-1.674976824749933590e-01
-1.994645853876902408e-01
8.277287679433290024e-02
1.042692852107313106e-01
9.949451396624960087e-02
-3.042639163079087841e-02
1.482741984029372073e-01
-7.205777090576329091e-02
-5.268646764151516809e-02
2.015505183707062553e-01
4.449400784348473553e-02
-5.704764135202702174e-02
-2.781257622715229208e-02
1.198476674834417915e-01
-9.130823951030379859e-02
5.762224914805832987e-02
1.912799982970588564e-01
7.574186848299736818e-02
3.382543097025768331e-02
2.516209973353080165e-01
-5.562560674496615926e-02
7.922167504426118334e-02
-2.168269754087783635e-02
-1.240701494167022745e-01
-6.450102016571286623e-02
-1.633822666998509809e-01
-6.976911945137478921e-02
-8.191542896365477944e-02
-1.077391905652683307e-01
1.136090419300082310e-01
7.029878408920817168e-02
4.216816446130731283e-02
4.971439329713359112e-02
1.726529412853368417e-01
-7.320458524718609665e-04
2.707941766209185242e-03
2.511680296080693112e-02
-1.109208892647057902e-02
8.428511222670913294e-02
3.598431671006415561e-02
-5.129198834238525573e-02
4.292491785160797158e-02
4.873118849254654689e-02
9.942421872662599025e-02
1.114090769987298273e-02
9.984711840271398575e-02
9.263389294216972658e-02
2.693387325134452212e-02
5.163864706260848370e-02
1.493661933404606679e-01
2.656140815903401675e-01
2.112110691957265821e-02
9.643215559313476903e-02
1.927213311048610322e-01
3.962119634765570164e-01
2.365865723835529899e-01
7.049679158306071391e-02
-1.172502265124404815e-02
1.058646841233392977e-01
4.267052839366843736e-02
-1.374362959180665811e-01
2.324096110402104620e-01
-5.571414849412917314e-02
-8.692978278583149421e-02
2.918880402453772893e-01
-8.236075861713279544e-02
-2.802848410432587922e-01
-1.104533526189976494e-01
-1.246808641679534591e-01
-1.633045796685835827e-01
-3.900835158890699206e-01
-2.813190928087789255e-01
-1.916763793798025861e-01
-1.177276011302778314e-01
-1.859568100284236802e-02
-1.559668536057402521e-01
-1.629687373926837560e-02
8.649142890690790508e-02
-9.282372986038721352e-02
5.593228289476502579e-02
2.105321875482809788e-02
-6.786519228088610904e-03
-1.055131912845376843e-02
1.916501536624892477e-01
9.179128360903496264e-02
1.912831600269380150e-01
8.076592382369798817e-02
-8.654651456174444757e-02
3.590296373620531778e-01
-6.676258890758392239e-02
1.685586092562832983e-01
3.207687786230376537e-01
3.031732027030205681e-02
-3.112053611321098645e-02
-1.790353839465627303e-02
-3.235907723063295022e-02
-2.896367720866388235e-03
4.449687170512790085e-02
-5.137004146869127673e-03
4.752366893744409959e-02
1.362589758755150537e-01
-7.309807488789939189e-02
-9.204186734264102610e-02
5.411900584804823361e-02
3.294914921391000479e-02
3.747626215695805674e-01
1.537610061928182947e-01
3.019189278192789816e-01
2.059863521721433111e-01
2.124252649930791215e-01
2.194008731406585366e-01
2.554654778208327315e-01
2.007836091712200677e-01
2.967831635697429707e-02
2.943296944648912117e-01
1.160311200493651107e-01
-1.038296782883345731e-01
2.188644274242685372e-01
2.075036996225135960e-02
-1.749327066146965856e-02
2.842432270078508183e-01
1.737813709995465750e-01
-1.570935110871493345e-01
-1.760435887280770439e-01
-1.193908640786392056e-01
-1.985513513293970800e-01
-2.740619742171702677e-01
-1.360001966052485634e-01
8.366723367795774260e-03
1.049440450132236961e-02
-2.813454352489600310e-02
-4.728898985181378273e-02
-2.244722423653502247e-02
1.364426602672551801e-02
-4.012339819696263132e-02
-8.278771714472561716e-03
4.970995094838855100e-02
1.331756953981857484e-02
-1.474590497490777495e-02
-4.173176203626611375e-02
-6.714611783233162545e-02
-4.860744201882299942e-02
-7.371371508010886309e-02
-6.586179434208344619e-02
-7.478562453172844793e-02
3.963722950312804222e-02
-9.665423877824134979e-02
1.046768683411494240e-02
-3.174284135527748185e-02
-1.109126023364770258e-01
-5.905870160269430930e-02
-5.829644393192441208e-04
-1.120957924156550517e-01
-8.776711718360111214e-02
1.640114695266018177e-02
-1.054864437604300653e-01
-1.406626935911964305e-01
-9.175835618226689527e-02
-1.297267350431017541e-01
-1.773280589900478599e-01
-1.200265350067968168e-01
-1.270500640910215417e-01
-1.684661052639207235e-01
-1.051527019641085303e-01
-1.582457487478105759e-02
4.348610182263077523e-02
3.731219886701433314e-02
-3.856271780630888407e-02
4.235350385552378444e-02
1.521387719972102336e-02
-4.953254403674958034e-02
-1.121753302711487807e-02
4.326418958902369244e-02
-3.449365704817004049e-04
2.605555748208785924e-02
-7.364650709351197588e-02
6.894227138764139236e-03
-8.015077354606069127e-02
-2.810758180096423545e-02
1.486868629441634275e-02
-4.894921382030183871e-02
-7.489225884278409573e-02
3.402982762851033266e-02
2.873855928099533497e-02
3.426166072946706248e-02
3.948255759170909984e-02
4.146182067114106973e-02
4.005223833917950782e-02
-3.095932688274414049e-02
-4.544200474707879578e-02
-7.957126123906405057e-02
5.697827893576119102e-02
2.874519346646420975e-02
-4.459952324434392212e-02
2.250047710582789144e-04
-2.415293976252393809e-03
-3.072287056213548334e-02
5.818944700030988237e-02
2.607325351934004776e-02
-3.401779262940977933e-02
2.105839827456776141e-04
2.980529272833183640e-02
-2.311937801242684373e-02
8.821252455499585879e-03
-1.138034118920518319e-02
3.411707136335394991e-02
-1.928014554858801036e-02
1.983808308717403129e-02
2.187919568379784185e-03
4.569450952957659212e-02
1.023736118762589575e-01
-1.266043256647641406e-03
2.860488009734473216e-02
-8.253787465923970168e-02
5.928498145080353388e-02
9.878689420355331319e-02
-1.071054483189357552e-03
-2.635984617416230538e-02
1.429836345449136091e-02
-1.992644932897061349e-02
1.555476131223089593e-02
6.845945096728994761e-02
-1.816700590845565051e-03
3.289631348631828073e-02
5.450197008551839473e-02
1.676714350124104691e-02
1.994872701154312960e-03
-4.467492753342447442e-02
-1.926841927739427265e-02
-8.482854718987362097e-02
-3.740013396759440945e-02
-1.001520027792429657e-01
-3.159297512863243340e-02
-8.698749837991684442e-02
-6.345903279411013731e-02
-4.151429517655914891e-02
-1.242321250999853244e-02
-6.178318303610410601e-03
-3.414778555565931191e-03
-1.599099384455953884e-02
-3.031691877121061533e-03
-3.285736449677778993e-03
-1.259168478982059143e-02
-1.701031176671655501e-02
-1.150002907048536943e-02
-1.724522213810604845e-02
2.406127221084102506e-03
-6.308197285395589216e-02
5.227313167417573653e-02
3.936933374909627747e-02
-1.002781654777209173e-02
1.313878605586693213e-02
1.886303027973594212e-02
-2.681564789834981616e-02
-2.533928179195259200e-02
-6.965540975553159708e-02
3.907666123322635354e-02
-4.686014831176798373e-02
-8.507302350700417237e-02
1.872301562988789789e-02
-5.358353150907180229e-02
-9.105199751000613018e-02
8.879561225450931586e-03
-5.080360685501030676e-02
-8.449417484952292945e-02
3.121464101220443668e-02
-1.512268313348123262e-02
-7.252176359549555862e-02
-2.702317156375128536e-05
2.897888278433697479e-03
-1.694843761288376827e-02
-1.451742784638446540e-02
1.346563907481324041e-02
-5.615404527252481487e-02
-3.849704176357870294e-02
-2.938149906959599753e-02
-4.905628261378362082e-02
-1.103911077051940581e-01
-6.549758901035665493e-02
-7.890663666373548546e-02
-1.335132553512513864e-01
5.039196682688229512e-02
-4.788790593899744374e-02
3.777603317922914594e-02
-1.201517225167528236e-02
3.497689966280599638e-02
-4.724355841647746856e-02
-2.087916821283849339e-02
-3.019467906536392118e-02
-1.333436782060062331e-01
-6.690802606329208924e-02
-1.244635011429038318e-01
-1.436765770977675438e-01
-4.437512660007942450e-02
-6.341502251135859580e-02
-1.724473903743641290e-01
-5.577738360570486283e-03
-3.111387717379229118e-02
-1.773335155301216659e-01
-6.061111707107102314e-02
3.326568539229488551e-03
-6.794463047292635671e-02
-1.044001211029999335e-02
8.017585890108390456e-02
-5.205297049287620215e-02
-2.208508511713066710e-02
1.831562299882422140e-02
-9.157811955706227081e-02
6.326365515169207754e-02
-3.908684206230363806e-02
-4.202811575878091788e-02
1.243210004904981153e-01
-7.005362643970746307e-04
-4.076188498565655460e-02
1.201826866354600148e-01
5.123477856253887130e-02
-4.872646866384645892e-02
-2.279928305550582221e-02
-2.399821318429483374e-02
2.743803748219287089e-02
-3.814314004726146630e-03
4.695131754922265976e-02
5.670275172316886769e-02
-4.970658568710474567e-02
4.444924884144796362e-02
6.019371746558062342e-02
-9.666682104852919108e-03
2.220024006316854981e-02
1.036705980704470537e-01
1.239716160859286043e-03
3.959510807804083460e-02
9.039673302444262148e-02
2.952467686246975503e-02
3.051339594240159991e-02
5.292046226467533171e-02
1.857888097642323988e-02
-3.268720757576269037e-02
3.494797152844410920e-02
1.015327415008332179e-01
1.405706651835559873e-01
1.220576356613558844e-01
3.622575293081918557e-02
2.958163879472630597e-02
4.806938962290373957e-02
4.683412844401594471e-02
3.696873025167442955e-02
-1.568181305389750382e-02
2.385367472236736217e-02
6.887472214707850149e-02
-7.478432869369608382e-02
8.204767774934448171e-03
-8.585802564561494793e-03
-3.813960650562767812e-02
-3.169048874739031907e-02
2.678693224381593560e-02
-2.203242603838736352e-02
-7.405110511586300570e-02
4.927210790544322289e-02
3.134512429398218086e-02
2.462563858323133653e-02
-5.284310489802483690e-02
-6.219677562746568633e-02
2.778551001441661658e-03
2.658957865055750977e-02
6.173188493038903567e-03
-5.207563005867340590e-03
2.069358061965350867e-02
3.891441855436330449e-02
-1.161346003789064107e-02
-1.611672796532209045e-02
4.769944278029385198e-02
-6.737174408449080054e-02
-5.521755452969082795e-02
-7.829541609403220526e-02
-2.857273965122322443e-02
-9.300226824818147442e-02
-1.704207600584499993e-01
-1.002225842057562766e-01
-9.995323378912132628e-02
1.016450719862934879e-02
4.283499250763134723e-04
-9.813375187595821739e-03
-1.737949911645945283e-02
4.846535709376879192e-03
-1.510922964475492659e-02
-2.899447313822675273e-02
1.738561163243648212e-03
-1.654858935652285534e-02
-3.064550312743460556e-02
6.485233437513421295e-02
1.009328972560283727e-01
5.605122760679351335e-02
-8.248010312007253431e-02
-1.425322644620674317e-01
-4.311504849681430107e-02
-4.426718018848505021e-02
4.548114338321757565e-04
6.823534458006925985e-02
-1.575292010374796173e-02
-6.073329438355310611e-02
-5.665917472250908693e-02
1.058002961012680238e-01
-6.130740090245466456e-03
5.558356811702137856e-02
1.429044453206689269e-01
3.826030086223298349e-02
1.026950412505834020e-01
1.397266397055509923e-01
-7.126491848868532096e-04
7.451551214117677069e-02
1.377134061848806768e-01
1.037663157997344571e-01
2.021639735909363245e-01
5.426324641421791800e-02
6.911849636592720669e-02
1.177052194812399366e-01
-4.503304393764780839e-02
2.109764381796948307e-02
1.008291393483504994e-01
8.269983526511549832e-02
8.254477215698492742e-02
1.083494294416349757e-01
1.281231295252393543e-01
1.625489600146493296e-01
1.203627662539428489e-01
1.298573474862382282e-01
6.304419459338327092e-02
2.854749199018239911e-02
9.970570103317348554e-02
-8.906243686526406356e-02
-9.896359864961962183e-02
-4.466567075117323926e-02
-1.790456969728173578e-03
1.752504712768408399e-02
9.226680853051144604e-02
-7.048860410399881982e-02
8.990491517586302571e-04
-1.293711299998505926e-01
-2.313776156543395357e-01
-1.912769947724678177e-02
-1.082105769068354567e-01
-1.666787104066773662e-01
-3.281910769052447108e-02
-5.139100031111512416e-03
-8.358414340751292582e-02
-8.276857778249778474e-02
4.004290240904206932e-02
-7.497563667182681468e-02
-1.578033075495851867e-01
8.540966478751246815e-02
1.599430462501171338e-02
-5.766522009910853008e-02
-3.206784875465321094e-02
-6.431819323792993537e-02
9.988781500137056124e-02
-2.985736044554184732e-01
-2.685829754335532504e-01
-4.448755387161999753e-02
-3.280457088025703349e-01
-3.000131261588839804e-01
-9.087700115123349687e-02
1.384932327122075646e-01
1.576862438486760151e-02
-8.139847379955685025e-02
1.159501142921829375e-01
-1.403674598851188393e-01
-1.851243058521644669e-01
-4.913599275346988010e-02
-2.685609102506975043e-01
-2.569470885736024890e-01
3.546954355254897107e-02
-2.624384986358556469e-03
-8.670600496388025658e-02
1.132059833105757835e-01
6.771396505129928522e-02
-1.862931337726684905e-03
7.866657909430416207e-02
7.711021021076837345e-02
-2.139158082808762310e-02
-6.667522769401665328e-02
-3.977351914694743362e-02
4.111034872018359820e-03
1.281573369688221442e-01
4.106556166955953324e-02
6.701154153594723883e-02
-3.073182828560439353e-02
3.080545534217404152e-02
-2.250453497632997485e-02
-8.416525827393059322e-02
-1.026548088741871534e-01
-1.850811298875190969e-01
-1.416534398242426385e-01
-2.049551788330637447e-01
1.179918488235428935e-02
-1.532274173935482264e-01
1.211923402074410912e-02
4.749872199807429751e-02
1.008597371616326843e-01
6.962467456108066555e-02
7.760420250464640513e-02
-8.288982802778482872e-02
-1.021885426435178851e-01
-8.709488066392533090e-02
2.476047271889483814e-02
-2.156407101478869520e-02
1.071509780516237013e-04
4.892732221948975502e-02
3.215086312917115469e-02
-1.716021521210780651e-02
9.197578173140519286e-02
4.038421474849628046e-02
6.026498581140024569e-02
2.422203809835988403e-02
2.433839525758434846e-02
2.755309867049167329e-03
-1.035391682978358957e-01
9.944855404743330185e-02
8.745010731623524547e-02
-1.409366333423770767e-01
-3.977542937355876829e-02
-4.723230592615968587e-03
-1.975191124971406031e-01
7.765654499296360640e-03
-8.460544656382905371e-02
3.864270345397764761e-02
1.026372108581122961e-02
8.286695516522096100e-03
3.391293250754864874e-02
5.076193462576335247e-02
1.561636037837107679e-02
7.287944002709544067e-02
7.412226251980348624e-02
8.404168897650093895e-02
-5.014113804218545654e-03
-7.155667576151049369e-02
5.939834975799623829e-02
-7.288156962350404722e-02
8.176683557459836493e-02
-6.986530613494031094e-02
-9.007380855257632324e-02
-2.878002539977253613e-03
2.629350435964655786e-03
-2.595367775200116411e-01
-3.722144642285407645e-01
-3.277192039244321009e-01
-4.163614963466642505e-01
-5.573383142473602447e-01
-4.659244411292776111e-01
-3.244836845969301664e-01
-6.230200531659801921e-01
-4.643222439008202751e-01
-2.587529435937243050e-01
-2.358522467062254824e-01
-2.713343285247200032e-01
-3.548247212579613841e-01
-5.016437414694612240e-01
-4.165800399460009573e-01
-1.418819889655017485e-01
-3.242428763876493147e-01
-2.592717674090704860e-01
-6.845573537501441208e-02
-6.904313252286732594e-02
-6.542679343210694443e-02
-5.018391466647199872e-02
-2.676531172563969413e-02
-4.437143401219430933e-02
3.154694218309186948e-02
6.657684907844564626e-02
8.819199393372846585e-02
5.216950434508089290e-02
5.320345066139890722e-02
1.187113311478262294e-03
7.512756254206007234e-02
8.002105092347959470e-02
1.994417377177586798e-02
-1.827137217126276539e-02
-3.703859139481299745e-02
4.395512595448099191e-02
2.790626812651607336e-02
3.629114765974034151e-02
1.561114726843476457e-02
2.418089325986139820e-02
-8.668983773512696500e-03
-9.870761829509697161e-02
-7.219525856218476922e-02
-9.144029485164342774e-02
-1.447374401017096635e-01
1.220308828187451761e-01
1.585405929967559080e-01
-1.036744582811573029e-01
9.899979669132429050e-02
1.658897672201681550e-01
-6.862118986711125690e-02
-9.613452236497255568e-03
1.047704409400397468e-01
7.009562040051575682e-02
9.604946393733287957e-02
3.884267864481690674e-02
3.706470111354033536e-02
4.496132357260657075e-02
-2.499686985447590812e-02
-7.196041171613723475e-02
-7.754917409795437921e-02
-1.506166788626172870e-01
-1.371898499574608354e-01
-4.312405183748602849e-02
-2.022676195605908195e-02
-3.987468170367741011e-02
-6.022057879800043340e-02
-3.558594158925575124e-02
-6.051097153094956577e-02
-1.439596400909080032e-01
-1.155283360455654773e-01
-8.298671880338338858e-02
-8.722068645464511882e-02
-6.098249089099912201e-02
-1.420676492321959472e-02
-2.671065442745697294e-02
1.049845144487248846e-02
2.144863811897318104e-02
-2.534986505677216950e-02
7.866846129917196007e-02
1.037641778597166026e-01
-2.385190450012978844e-02
3.008935967972138636e-02
-1.355692411246182082e-02
2.274289243940495475e-01
1.591754550868991758e-01
5.288954608915565764e-02
-2.465738895918923035e-02
5.098328325911026526e-02
1.174227380952214128e-01
7.063653575130475482e-02
-3.226058317895972444e-02
-8.322536488141586697e-02
-1.810385561994245357e-02
-1.060578205174636801e-01
-1.197411484966456330e-01
-7.980427406848738733e-03
-4.586783923551293607e-02
-6.537207794530415506e-02
8.179034865226347817e-02
1.309907483520681148e-01
4.144408818765353553e-02
1.028226374965841294e-01
1.781868774016978907e-01
7.878065744449343211e-02
1.248090499931258368e-01
6.764017337431785237e-02
-6.584066969040680561e-02
-3.676871378722474520e-02
-8.386648224821588449e-03
-9.368845461697103069e-03
-7.645016078177700736e-02
-2.831125122404967373e-02
-3.807172307045013273e-03
-4.726547048853790151e-02
-3.944173776194073028e-02
-3.980804724786509569e-02
-1.009661538187395236e-01
5.310771947102937290e-02
-2.646205567086793321e-03
-9.749049420282134004e-02
-5.089090640023476164e-02
-3.339133232606676660e-02
-2.286984667348984090e-01
-6.296576878422344148e-02
8.593478462571818577e-02
5.943209632636558409e-02
2.890689418427063936e-02
-8.632566668098990564e-03
4.747450340801009222e-02
3.350642093071051764e-02
-2.091641469330605269e-02
4.469653383248506362e-02
3.634427508212057650e-02
-2.523305625104781298e-03
1.800754860468688212e-01
2.397225675036338544e-01
2.521067666531908585e-02
-7.287821354680994179e-02
1.374583346749563284e-01
8.376546437926106481e-02
1.746822374284625889e-01
1.735794297293519473e-01
1.470507893054513460e-01
-6.385875559296520787e-02
2.372300094727279943e-02
2.432451853359426930e-02
-7.299108371031379563e-03
2.121680738306556263e-02
-1.807663425611933175e-02
5.251896943776000748e-02
-7.981731195617020047e-02
-1.076440253286942011e-01
2.396442189512451668e-03
-6.387247962145958802e-02
1.074954200788942951e-02
-1.238645517084735054e-01
-1.393343721536678681e-01
-1.196816566939460291e-04
-2.440897446656371816e-01
-2.878341672023450593e-01
-1.197647755009169646e-01
