-1.229376622454195038e-02
-1.124852481544277513e-02
-6.087287939237236850e-03
-3.228686248578116241e-04
-6.916765064112061212e-03
-2.953886794054364547e-03
3.578724231206256105e-03
6.542108232768374491e-03
2.900905967590920644e-03
6.744311315231388965e-03
2.490671161650289192e-02
2.076519471330708771e-02
2.412590524506742426e-02
4.713859177990921412e-02
2.016729943089692195e-02
-3.353117691807774229e-04
2.797956820376854697e-02
2.098844435995002311e-02
2.271462670284968288e-03
2.014723247965691764e-03
-1.151939730956876712e-02
-5.171288712570928925e-03
3.782044408288066147e-03
-4.421414151503101110e-03
-5.003647046362639378e-03
-2.746302221900406848e-03
-9.243770556576698036e-03
-2.205935409110174571e-03
1.358986019794822774e-02
1.740674680754853917e-02
3.947707368313495974e-03
2.945566241632153331e-02
1.561451974393028228e-02
-1.217724400825550418e-02
1.903368461948347704e-02
1.841941692606383421e-02
-6.362086945937930720e-03
2.716909355472427959e-03
6.605259568707643088e-03
-8.072642727131623674e-03
-8.436752877630558992e-03
-9.697609445875688197e-03
-1.176999013650208842e-02
-3.184230181851444193e-03
-6.006799581421030411e-03
3.558366866712978777e-02
3.186372119539035430e-02
2.468867776501935257e-02
2.588419291865886110e-02
2.539874376705898718e-02
1.784636238869457756e-02
1.877970714587593251e-02
1.992720357644888959e-02
1.514893244060973657e-02
-1.129318396992636322e-02
-5.400714958744720802e-03
1.272910509548173764e-04
-3.374778669223605938e-03
3.658908517165914039e-03
4.368306815025702929e-03
-7.885975970028338833e-03
8.077263589358136403e-03
1.168791536550204367e-02
-2.063156789531093646e-02
-3.119336142481010394e-03
-2.489446141674457255e-02
4.520657115087122965e-03
2.809795694656176137e-04
-1.928733697355073176e-02
-1.199827465778888214e-02
2.799735349652679017e-03
-2.260014521623966363e-02
-3.899994508395729538e-03
-6.893474682498801527e-05
-3.171364673211093618e-04
-2.210234062646278079e-03
-3.634790782452544536e-04
2.344810713348970729e-03
-4.569542823594435928e-03
-5.192305496517473327e-03
-4.749809965283855254e-03
-1.026988656241582983e-02
-9.073276705310440171e-03
-1.020086001186390132e-02
-1.582121247646374462e-02
-7.334225271185963214e-03
-1.150655307252368420e-02
-1.789775904108947477e-02
-1.106048167416997206e-02
-1.080215942125132417e-02
1.432617087031637024e-02
1.899123883046527003e-02
9.032042053753261066e-03
1.465302348583840883e-02
1.869141569518131471e-02
1.387858247135284953e-02
1.002249096820685692e-02
4.332909089209702365e-03
7.053087105184268398e-04
8.088899151969015586e-03
9.520044244608196621e-03
4.814455015033904280e-03
7.710386788005358510e-03
8.889363164369251669e-03
-3.101906869054074558e-03
5.627606974231897687e-03
1.071897919903200096e-02
5.239500449068378203e-03
-1.183649992146667282e-03
7.521598021340574272e-03
7.338263739525226030e-03
4.923278929037571382e-03
1.231755794406891660e-02
3.116536688588149653e-03
5.785289503447853601e-03
8.505212260279219894e-03
-3.903204504077236944e-04
5.922745880326598386e-04
-3.495054762295799009e-03
-1.720577523849570190e-02
-7.689245733160149712e-03
3.161537644020942549e-04
-4.582159118702871896e-03
2.225918169615228887e-03
-4.618490779506843891e-03
4.007871500542734521e-03
4.459624653947944113e-03
1.991388979692723400e-03
-2.082977079830616702e-05
2.120297086124137923e-03
-9.283643826036810411e-04
-5.006039764962847728e-03
7.593981901360171913e-03
1.760970357621858499e-03
-1.201030318513337082e-03
5.103520544812672035e-04
-1.670694468609237697e-03
5.886949815900288348e-04
3.135303721445831335e-03
1.090924219920452916e-02
6.163771639355078609e-03
5.816936039416456192e-03
9.598212207248102423e-03
4.951299665615084902e-03
1.242911568374861038e-03
1.556468048563107291e-04
1.800009533564752478e-03
-6.201704567582682183e-04
-9.717980939856959164e-04
-4.668412685261858798e-03
5.186298679795712553e-03
-7.468024703550026370e-04
1.892380893390184027e-03
-5.949593602636350960e-03
2.005383352110606462e-02
9.505426598215261161e-03
3.982594520824923011e-03
-6.241654459806871523e-03
6.912162837643072433e-03
-1.034364008460664751e-02
-6.094326021286980595e-03
-6.767068967586604804e-03
4.454096476610539500e-03
9.839546092269143510e-04
3.120316647808300640e-03
-4.604636147764936197e-03
-2.852429202310021242e-03
-3.973344635586882785e-03
-3.272898647343236087e-03
-2.529395553035742672e-04
-2.630441969101379729e-03
-6.979789628050011435e-03
-1.441346610179097473e-02
-1.907125307247161533e-02
1.480267328209563041e-02
-5.478867949685431969e-03
-3.534275851284659001e-03
1.531360247738009460e-02
1.369249347844737723e-02
1.601716113071574923e-02
8.294161663484681674e-03
6.681147663042080569e-03
7.384494051286220190e-03
-2.466781356039957421e-03
-6.326169897495262763e-04
-1.326865415821125676e-04
2.745064896020458535e-03
-4.939802949770360531e-03
9.795869323438130029e-04
5.804204252452487391e-04
9.402622097641634815e-04
1.975994760689868315e-03
1.182117088413636952e-04
3.416536699272036074e-03
5.216089328889796616e-03
-2.424593335350811417e-03
-1.484323393708314280e-03
1.510569505024188935e-03
-6.973298744001500335e-03
-7.066867376843130599e-03
-5.961936016707718687e-03
-1.628287853277842661e-03
-1.565284503614276096e-02
-8.884306455422539758e-03
6.029961193536419010e-03
-6.288634798812199958e-03
-2.551800533945533956e-03
-1.398905050630639725e-02
1.547476040936249762e-02
-1.115845601716029985e-02
2.706162645497955585e-02
-7.625565562722948025e-07
2.904409118470891588e-02
-1.650768484220249991e-03
2.780776606417376812e-02
9.998423398268268397e-03
-1.684466568749003754e-03
-8.529775915068541197e-04
-4.284520142248584434e-03
-2.937342803920079282e-03
-2.623536456124103862e-03
-3.256775956642022057e-03
-1.547330748373607632e-03
-4.269458109504667984e-04
-1.882476635370014528e-03
1.233615069366723882e-02
8.525660219544079974e-03
9.675213083917820825e-03
9.761423638587054738e-03
8.351523634465996687e-04
6.390299876394570089e-03
5.398918102715472359e-03
5.317857646516677486e-03
4.558526785385124368e-03
-9.261402510505544264e-03
-6.295131467863204593e-03
-4.761289565305242542e-04
-6.553416365471395610e-03
-3.165404845997842661e-03
1.400382451267613538e-04
-5.090515169749150817e-03
-1.368552811294429516e-03
1.237995818130460711e-03
4.654267464163220139e-03
-3.959085939439320055e-04
2.096556103919264540e-03
8.272465679130569169e-03
1.539242536136417290e-03
7.480573375210319322e-03
1.026128834910112510e-02
9.559527496540581176e-03
6.162010884218957485e-03
3.358158904102752926e-04
3.285162518880741216e-03
1.936547162432241103e-03
-3.575440816532719519e-03
1.367586938377998631e-03
2.387859793263336083e-03
-9.835701290611476369e-04
3.225140559252585252e-03
4.664375198521117198e-03
-7.355493277532685475e-03
-7.988621194252497337e-03
-1.109214041981867495e-02
-8.888038894531762046e-03
-6.447883679971526741e-03
-9.217973161781205585e-03
2.451146051798877221e-03
9.481554006672715876e-03
-4.020343664600269790e-03
-2.034659580982900104e-03
-1.693130833734556593e-03
-3.174571627450052907e-04
-2.781551240501356406e-03
-7.813202452371616940e-04
3.703728586843325118e-04
-6.661591684610622009e-04
-5.658475923372476837e-04
-2.760399825132033632e-03
1.055960646521942985e-02
8.959915325520911161e-03
6.097834291549553490e-03
5.452339708247919137e-03
6.276589533618945858e-03
5.092219520483972153e-03
-4.871665855393406998e-03
1.158618630782399335e-03
-1.941865915975393925e-03
1.420937752848414840e-03
-5.302179818619323984e-03
-1.652893020558188902e-02
3.747508750564189882e-03
2.542488814685917552e-03
-1.207500232602832548e-02
2.091844114163049495e-04
4.924249134612500300e-03
-5.675103577805351227e-03
2.891798048785744653e-03
2.605139186771622713e-03
3.601532909508443556e-03
8.402491584839407585e-03
2.401740544256990989e-02
1.399726741183925441e-02
-1.889400361872170531e-02
-2.164850005251164888e-02
-2.788153005960441154e-03
-3.367645577856464342e-03
6.159050111639547548e-03
-7.069562526981260434e-03
-4.382128629901315027e-03
-1.916844838104572952e-03
-1.411022577919418715e-02
-1.115168441619583152e-02
-1.180177204683918214e-02
-3.067526276115116815e-02
2.139951303930093945e-02
6.557718168690381683e-03
-2.138499936137482071e-02
3.528947202792525467e-02
3.249480943157034840e-02
2.003361519162336069e-02
1.489586599921563503e-02
1.719151848466682689e-02
3.433533330032840364e-02
-1.421002022106588290e-02
-1.626601339428419141e-02
6.636204427177298457e-03
9.391859145259181434e-04
-1.091402048962469493e-02
-7.035803032511193586e-03
-3.785556837551574787e-03
-1.316379642194102570e-02
3.918704149125686043e-03
2.938114717277797230e-02
2.639484194768110595e-02
2.327738103919108764e-02
2.876720748742954414e-02
2.861042382470697573e-02
2.059575326675651061e-02
2.155470810449813812e-02
2.108851125638340485e-02
1.315581585950641348e-02
5.002396893091955524e-03
-6.687301591431102539e-03
-1.719978984343989784e-02
-2.965835221315512140e-04
1.897368018177154197e-03
-1.593870545174078807e-02
-7.736947638700897821e-03
1.418982359851642030e-03
-3.938331595021676130e-04
2.450855882453595053e-03
4.203195434837199082e-03
5.146244693077625144e-03
2.121356021666895297e-02
3.489445297481586633e-02
2.130767171391730400e-02
-3.108924892375203135e-03
8.532157998894701612e-03
1.842411986512029060e-02
-1.630853500719065419e-03
4.837123610973748621e-03
8.674241416602094037e-03
4.910248434496917481e-03
7.436007082356504982e-03
5.847879732193199571e-03
2.863628052025766080e-03
2.748770359822014838e-03
3.529561469215332890e-03
-4.754482885696408555e-03
-7.231505047443032193e-03
-1.079260681030731056e-02
-1.302126439370250924e-02
-7.159044154436428747e-03
-1.037545652215407163e-02
-2.214666685403383212e-02
-1.747037093531195184e-02
-1.223678049754825005e-02
-8.814196466501951488e-03
-2.941324912811883741e-03
-7.770677073324742251e-03
-1.860072244188978657e-03
-1.251131903352298942e-03
-1.709442224073105809e-03
6.098593879611862757e-03
4.143361964406254427e-03
-3.311930796464188694e-03
1.669570386611154977e-02
8.963915411887315304e-03
-5.530510816413297843e-03
9.668198984845057312e-03
1.699546784086630041e-02
-6.277327111351106808e-06
-9.961051808868305948e-03
6.728075485669696328e-03
7.431608869421711845e-03
-1.224987515469019156e-02
-1.671637523818885265e-02
-2.385155024103733160e-02
-3.603758318341284523e-04
-5.366795745236775661e-03
-1.065106185593225029e-02
5.787261765123338092e-03
4.366139078873163535e-04
-8.856461590503147616e-03
1.527536731018758372e-02
1.950592243288658961e-02
8.410027130854943675e-03
7.454626216454205041e-03
2.353162199074155386e-02
9.327998635646799624e-03
1.758894395916131212e-02
2.756894360001101163e-02
-7.217585704954725991e-03
-4.502695405725126374e-03
-7.251754928198302953e-03
-5.878855423513095792e-03
-8.063951715407483012e-03
-7.425734783384886281e-03
-1.047151635487008139e-02
2.745204673932601785e-03
1.628179219965132248e-05
-3.433491507638095942e-03
-8.907887452640645201e-03
4.802937234013576057e-03
6.640844099094247478e-03
-4.689884602901739884e-03
6.438557670889848150e-03
1.388062246573510197e-02
-7.110188735888412631e-03
-8.418023049950124070e-03
-7.191444747814764935e-03
2.572792504632449503e-03
6.092035554159348602e-03
1.184884370841116259e-03
2.693111760937286908e-03
8.358514030541124365e-03
3.379156102834240168e-03
-2.772770243805443204e-03
3.033480844297732713e-03
-3.615442902027969641e-03
-1.146200190829278244e-02
-4.795289640675210255e-03
-1.093129892523620264e-02
8.136100147172590363e-03
1.032420592741181004e-02
-1.178795103840710179e-03
-5.399371737510241277e-03
1.177027842231517362e-03
-5.961098679084209616e-03
-1.729540027720321812e-03
2.532949799463024912e-03
-3.730896335109549957e-03
9.057150184576052282e-03
1.342483978595988489e-02
7.477718805684653060e-03
6.393029065428918085e-03
8.433687626089363121e-03
2.585291534072491071e-03
1.010316154007994717e-02
1.347668336236152592e-02
6.249077148622082974e-03
1.667851533881314907e-02
2.434748240743790995e-02
1.704772315790625131e-02
-1.612527581892573018e-04
8.029749808979766076e-03
6.798154618148006569e-03
-9.925026662677546505e-03
-6.726153781103186811e-03
8.180915361033398533e-06
1.702981492644575767e-02
1.019789384542823477e-03
-1.062663859491397300e-02
2.090278279210704832e-02
-1.154640577249082265e-03
-1.850205243485587500e-02
1.021210423270679096e-02
9.768875138197180910e-03
1.180845894154908780e-02
1.809268843971169327e-02
2.254201598574953266e-02
2.079504949414220580e-02
1.583106042033348426e-02
2.250761614193893048e-02
1.962074132645070731e-02
8.947138003058847109e-04
3.556404715222954418e-04
-3.029571970698731465e-03
1.424676073035469059e-02
2.424274625403718617e-02
1.382642876663129489e-02
9.802455742980935305e-03
2.340545879726340858e-02
1.728399122494645584e-02
-9.841021734811621416e-03
4.441630387078159686e-03
-3.289772705387242809e-03
1.154547296978322181e-02
1.254576118736010736e-02
2.942704242932259791e-03
2.986965980194363022e-03
7.300037890315352364e-03
-4.053956176887476941e-03
-2.867328398663922771e-03
-2.134346431373715901e-03
4.519634001258277032e-04
-1.699855418180020675e-03
-5.963424685710286884e-04
8.479804724620210264e-04
-1.995480616208004758e-03
-4.129207920638705218e-03
-4.432265773764789557e-03
2.160374700159734505e-03
-2.000711657887033928e-04
6.022429798556732826e-04
-2.931258604438140986e-03
1.463746691520745216e-04
-2.242181409809413176e-03
-5.074931716514336985e-03
-8.913052800889494347e-05
-4.661972318652810206e-03
-4.414155293584197219e-03
-5.555776731443000035e-03
-9.743045547314494598e-03
-4.055966810147554336e-03
-1.266432167006281695e-03
-1.078353882015556939e-03
-4.101755656956853182e-04
6.063125987471174429e-04
1.063517928616210988e-03
1.133434111125535340e-02
1.046766202753001210e-02
7.790871533421710876e-03
1.073237135742024714e-02
1.193035843061776222e-02
4.578619796571399905e-03
-3.302642280239215678e-03
4.181240867404896304e-03
-3.570168165025982762e-03
4.444067030485997737e-03
8.150187312003733323e-03
5.377925470552575617e-03
-4.724395756827802842e-03
2.685084740461613807e-03
3.555960411956515712e-03
-3.969260208170393746e-03
4.351807369403105398e-03
-1.877041394930383130e-04
7.380042332643937421e-03
1.277165983666422346e-02
5.608385106550309827e-03
1.874988350903963180e-02
2.044238450813151697e-02
1.323448832486982286e-02
4.166816523810288816e-03
7.853374583249188301e-03
3.655015161730866720e-03
-4.207238462289516752e-04
1.881724726001714025e-03
2.093459906218059999e-03
-2.173547560284884526e-03
1.159017081499459341e-03
-6.068714608399616069e-04
-5.391271544559858575e-03
-5.497822668023286292e-03
-5.047272228384106114e-03
-4.656358819082967448e-03
-2.955343763523744262e-03
-5.176744775895351057e-03
-2.884464806861177476e-03
5.524720869726635871e-04
1.751189128777883757e-03
-2.017548585779795848e-03
-1.285631804838435668e-03
-1.357607090055085826e-03
-5.783407301070788049e-03
-4.298071956849523756e-03
-1.510067341568208099e-03
-2.586048856906646414e-03
-3.491893331773855604e-03
1.390517915714350019e-03
-3.066461719281927348e-03
-4.581476748814170517e-03
2.852298657441796091e-05
2.634149019460782851e-02
6.567602629726305465e-03
-8.530230970050400874e-03
2.158407739053829627e-03
1.254078428707827882e-02
6.706789897306300770e-03
9.420563547120664599e-03
-1.003542017606968290e-02
-3.209693413782858246e-04
-5.410392571157317601e-03
-1.630068989599321684e-03
4.597358891603457037e-03
2.909020426930472320e-03
3.613816611795571399e-03
9.050953072655222587e-03
1.997376805800083702e-03
9.884723495798136694e-03
1.411116606305550143e-02
-8.000959573986105369e-03
-4.392546619484623965e-03
7.103066031441957872e-04
-1.277521799929090020e-02
-3.587859361222913660e-03
1.091715678461929392e-02
1.628434770802346444e-05
-1.513497498388216046e-02
-6.470698102849932118e-03
-9.261021088141871763e-03
-1.769830228952775156e-02
-4.932315434026677062e-03
3.895684282238400897e-04
-1.206600950913534753e-02
-5.761438072908513230e-03
-7.201432079388943135e-03
-1.770664594975994433e-02
1.086142084501433985e-02
6.526923013025379833e-03
6.078888443371505482e-03
-4.126414624174309475e-04
4.358252414111097803e-03
4.694035170856711639e-03
3.454586021112884386e-04
-2.577338764574434778e-03
-1.871452486942472900e-03
-2.484280920134451440e-03
-1.587389510875676646e-03
3.269996935431090067e-03
-3.636956660858691771e-03
-1.113588282673610638e-02
7.229350997321581061e-03
3.558740171083221715e-03
-6.830191790674553821e-03
-8.920853242268237879e-03
-3.661804885681923475e-03
2.366493839407481439e-02
-2.358749197706927914e-03
-1.243588898972803475e-02
3.828394490024492058e-03
2.445899951587314838e-02
-1.114093162208618787e-02
1.384910991815801323e-02
-2.800437273830893442e-02
-1.988162622807137722e-02
3.013171684361806626e-03
-1.476064625238721279e-03
-4.081907652456693777e-03
3.282302322264551379e-03
-2.169212949977279790e-03
-3.661080173182713979e-03
3.180701626838327960e-03
-8.079291765321682060e-04
4.451141176498470825e-03
1.579004171786035872e-03
1.397558487125849340e-03
1.349708923632578867e-03
-2.014993157200504429e-03
-2.502454348250973508e-03
-2.466686394255596104e-03
-2.913916706587687568e-03
-4.963062334750589083e-03
-4.869763752178158343e-03
-7.342527502357370497e-04
-1.378366096406120076e-03
8.911153112722846898e-04
-6.651076572097185721e-04
-3.252498915171686306e-04
7.004455038033065989e-03
-1.530062411861172990e-03
2.046877614626731352e-03
5.937102360976673557e-03
7.940170368743519310e-04
4.784451469792046739e-03
7.886771863610798211e-03
-2.145068138047874755e-03
7.475158304371673675e-03
3.887722963070739616e-03
-4.745869206826134668e-04
-3.143251924370999133e-03
-3.602449985347515576e-03
1.726032323727945883e-03
3.575024376793875611e-03
7.092564800071876792e-03
2.410010642432871414e-03
5.009765795403581766e-04
5.658272250923765054e-03
7.709714686533816232e-03
2.766424433614897427e-03
3.584852961366794249e-03
-1.058253143791187609e-02
-1.343920032734954167e-02
-1.623249631682002498e-03
-6.132850599172606082e-03
9.683387003728125995e-05
-4.100871401116167915e-03
-4.685982473752374998e-03
5.702944754759758754e-03
1.925690222823099249e-02
-1.672742288807824726e-03
-1.457858590318896223e-03
-4.464909267713955583e-03
-2.458515103052151540e-03
-2.723364914710017619e-03
-5.026981661631181077e-03
-1.847631573641842113e-03
-2.120721242825420686e-03
-1.664348140622130216e-03
7.159847360938278830e-03
2.730762714688344389e-03
5.781854139105409816e-04
9.248905294092129095e-03
-9.870399642657005923e-04
-4.716170062616410752e-03
3.666260053141234647e-03
-4.712296821412814869e-03
-3.480159221393417518e-03
-6.188128531340060696e-03
-6.643112508662168438e-03
-8.857274817984647081e-03
-9.376478283779084155e-03
-7.840368866123962818e-03
-6.179587382305249364e-03
-3.165615679232270351e-03
-6.971848201795724335e-03
-6.453226224363003277e-03
2.069780141497965485e-03
-1.496592410113425572e-03
-1.677400315109727966e-02
1.126658962747051698e-02
1.362093455853881363e-02
-7.994900392813778997e-03
9.711288938990324943e-03
1.614824343486431779e-02
1.812821130650585019e-03
2.910021044298595114e-04
7.945522118417230883e-03
9.528172485415455778e-03
3.794825703403974758e-03
5.898115023429378011e-03
7.489224322179800254e-03
-7.314813949486920382e-03
-5.222020759607524411e-03
3.990743686251060473e-04
-2.323080814790311546e-02
-1.585291762962858994e-02
-1.234220485226186943e-02
-1.586967851779702565e-02
-1.954000802708751733e-02
-1.246565343906462162e-02
4.854099082951184724e-03
-4.249240292891847542e-03
-4.072382464195341278e-03
1.642430951012634806e-03
-6.663887290980815246e-03
4.377473395108671256e-03
1.591521877009347127e-03
-3.871360710921453556e-03
-3.432822345010659668e-03
-3.127118596972682137e-03
-4.616316755991636128e-03
-1.063706482382363941e-02
2.734214303886477616e-03
4.419508638451731097e-04
-3.833040661036526964e-03
4.832475937623626448e-03
4.061434304755606219e-03
-2.607588748457544733e-03
3.661065643819796326e-03
2.466643461959089172e-04
-5.974749818858416522e-03
4.718723354307245189e-03
8.972168829139903420e-03
6.527714750890248850e-03
-6.719951686973189321e-03
7.080593155862555110e-03
5.512951421197048903e-03
-2.045584059354401546e-02
-8.426559691731644319e-03
-3.936904626990735991e-03
1.271018520818846184e-02
4.093413015197604199e-02
3.130998224996044133e-02
1.584789839713350926e-02
3.664847473059403005e-02
2.540553152295024764e-02
-1.290353671888490837e-02
1.810397544180618323e-02
-4.151880940621243375e-03
3.227786366065259769e-04
4.863700934388110603e-03
3.664729617236945833e-03
5.030521955700958080e-03
5.113533729112767524e-03
2.604870108029809072e-03
9.531585497207851684e-03
7.040671360812504088e-03
5.008757085017280508e-03
9.536601414489923739e-03
9.906958778143713090e-03
1.044525488717621374e-02
8.571841276845400953e-03
6.908259929880240444e-03
9.420880589210313752e-03
7.235457364177788446e-03
7.360522946125505617e-03
9.205614691723500512e-03
1.045569449294042174e-03
6.560629180203935221e-03
6.821396541994991826e-03
-2.564476723929278498e-03
-4.272874280669796939e-04
1.489657481781300752e-03
-7.032317687073331124e-03
-5.991856317983003041e-03
6.969645905794085144e-04
5.179918051679739850e-03
9.373082345333683119e-03
8.305534028356256412e-03
5.080404805517421164e-03
1.026236038711227094e-02
1.321835266139843694e-02
1.478005171098530210e-03
6.622327946465145741e-03
9.500470565515254859e-03
7.730826769089204319e-03
-9.244558333175351833e-03
-1.817049353321805241e-02
1.192880110529738469e-02
-5.788751782136436746e-04
-1.101111036194954255e-02
1.353593846438068231e-02
5.075775110550854313e-03
-2.893787274998534456e-03
-1.775731853595116476e-03
-1.234600905918928392e-03
-8.049148217838069524e-03
4.350404017850518362e-03
-7.086970133845326043e-03
-5.737866246145509677e-03
-2.493435521649069002e-03
-1.095215924422989449e-02
-8.981010833755248210e-03
-3.454577435815961786e-03
-6.888775594225207861e-03
-1.012513957666837279e-02
-7.053915636782022956e-03
-1.180095488843867051e-02
-1.413400952156547603e-02
-7.000472911236881729e-03
-1.117356242979895310e-02
-1.260451445114454429e-02
5.593185377628918237e-03
4.852404346061167835e-03
4.216846352020517559e-03
8.952573599609731786e-03
6.523307672477211827e-03
2.789114065548917078e-03
5.768639710898217782e-03
4.515264587950706086e-03
-8.392195685529928693e-04
-1.113237097921704593e-03
-7.049660625669066163e-03
-1.063220413354372743e-02
1.517627008926003508e-03
-4.709566261787423436e-03
-1.527440997843542043e-02
-9.984823453382359743e-03
-5.624796742122331952e-03
-1.242688976926787682e-02
-1.419771171223536618e-02
-4.308304917710194075e-03
2.583461832879370770e-02
-1.002986382566669298e-02
7.394815802757546963e-03
2.010748262079255916e-02
-5.940808743444166151e-03
1.228297316384908099e-02
6.317804427187418033e-03
-4.491378092368292566e-03
1.042682712773858669e-03
2.711738130436491898e-03
5.229061873180908780e-03
5.224013379396861591e-03
3.038308044955937391e-03
-3.062130677640531509e-03
-7.925818130860110347e-03
-7.584713371957730113e-03
5.470419714856525339e-03
4.296562158227845186e-03
1.742167066211734727e-02
-1.184744940055851639e-02
-3.688552612502892479e-03
1.077337897897077783e-02
-3.212410120278477721e-02
-1.278668823144244598e-02
6.265987458496176561e-03
2.132409150332893050e-02
1.287251494198045354e-02
1.625008067428915237e-02
2.005878642814291901e-02
1.196664573694797978e-02
5.074024726294941619e-03
6.928213986765832146e-03
8.224680498183964406e-03
-6.656711524694065157e-03
1.877011711912816069e-03
1.035605830373231145e-02
1.790442129917095906e-02
-5.999198692697754048e-03
4.165226358890518170e-03
1.248096693700307715e-02
-9.627398263373289009e-03
-1.854206105628662237e-03
5.758697427294805779e-04
1.385073620528522696e-02
-1.532407371483454845e-03
7.025163554980205088e-03
2.076109895723190699e-02
-3.516445635553886416e-03
-2.022732012599969421e-03
5.313183222059048201e-03
-1.158836834726280698e-02
-8.503735697306950142e-03
1.834930612719948978e-02
8.561779899697282217e-03
1.633927325791433016e-02
1.677381958092521649e-02
8.702425386041370489e-03
5.055182153940949476e-03
-1.710034717198576429e-02
-9.068464979170192883e-03
-1.396105198506215200e-02
5.991828936172826151e-03
6.646504201342568613e-03
3.137436113199078974e-03
1.081975517226637339e-02
8.558228729874628807e-03
3.599085452806042792e-03
1.706060102222446695e-02
1.023775054941528095e-02
3.570177688119248547e-03
2.621096442114040706e-02
1.202954302929221467e-02
3.742672735390409431e-03
1.970628465662144571e-02
9.249086551679155596e-03
1.223623543135481974e-03
5.649258648544345715e-03
3.322372783435623752e-03
5.419474483079947218e-03
-7.432431040060779974e-03
-8.745588997185512869e-04
2.543405521650609746e-03
-8.266682004006362106e-03
1.053539185336518956e-03
5.005084233600265789e-03
-5.046367925137135689e-03
2.259849928064559636e-03
7.162573297080906086e-03
1.401875296736289876e-02
5.780775112198769522e-03
1.271844660223080646e-02
1.743875586338685529e-02
-6.600851297008775674e-04
-4.686582517959839850e-03
2.138768829084961801e-03
-9.692774531248038103e-03
-1.272154905916332741e-02
-1.030418658827831312e-02
-1.362021548529727955e-02
-2.410542498196845650e-03
-1.123576866326178765e-02
-1.246135348811657807e-02
-5.863251110291600385e-03
1.050031328625783801e-03
8.589467443268019448e-03
1.243672523576157436e-02
-1.641864806246147099e-02
-4.963535230828498498e-03
6.689862795187914192e-03
-2.128231003737992080e-02
-1.374690370560551454e-02
1.589017840382981814e-02
-1.299792587820068103e-02
-9.544108433595634156e-03
3.237262623796311779e-03
-4.146708266388095428e-03
-2.130114208151030709e-04
3.817565464583561920e-03
-5.184190373603231664e-03
-5.181056963693304700e-03
-2.461418454262089689e-03
-1.362549012532440589e-03
-1.678161783615095401e-03
-1.325791657001603721e-03
3.737360614887241285e-03
5.352083955464700948e-03
7.349248808728388088e-05
1.304008088552326876e-03
6.918747639791798798e-03
6.702251777035261870e-03
-2.338377000046861377e-03
1.809372928784914493e-03
1.106052638132260521e-03
-1.131867354116805093e-02
-7.956162674928780529e-03
-4.712485141482258832e-03
-7.826602345131706412e-03
-7.118734363507225882e-03
-1.177539815473403577e-02
-8.149943551373172584e-03
-8.165268518887864799e-03
-1.538964262360013359e-02
-3.663229855862252214e-03
1.540703605351174954e-02
4.693070074129308085e-04
9.837508707289732007e-03
3.755169575575353219e-02
1.416829410006635939e-02
1.006011286523978039e-02
-5.375519308711046787e-03
-4.638456327471967623e-04
8.044171259524631953e-03
1.806621663651458362e-02
5.730431821031002106e-03
7.665883969505168059e-03
3.835246252823267150e-03
-7.748696905055021608e-03
-9.351608064219359834e-03
-7.981691640713127478e-03
-1.674910891765992588e-02
-1.516854454832404671e-02
-1.686533085869895351e-02
-1.901986712910314417e-02
-8.541342549340061666e-03
3.392020433504201217e-03
1.280887943352169902e-03
-1.166974664725810296e-03
1.184809834064563111e-02
1.769209772805399594e-02
4.731592845024197927e-03
-4.120735605738568182e-03
-1.809645595270269192e-02
9.527789000691613483e-03
-7.268239002719340718e-04
-1.621496344227555536e-02
-9.893668878121228069e-03
-3.958965469571221370e-03
-1.881013695240294284e-02
9.240855998376464042e-03
9.581917928962676440e-03
4.399195932500782162e-03
7.336243245905813178e-03
7.487541400980779298e-03
7.448004089381569893e-04
1.133433588849092413e-03
-6.267906190565421471e-04
-7.625051887852069520e-03
-8.540276381120613658e-03
-5.510940922307340506e-03
-1.475678942146095921e-02
-1.669896299214922164e-02
-9.198488778564144902e-03
-1.018020038645824424e-02
-1.075493829577431164e-02
-2.373973620588902024e-03
2.867507691931361208e-03
-1.059621730466340020e-02
6.631235908875543483e-03
-3.926609185134765333e-03
8.240290502212489418e-03
3.074185601911424287e-02
1.414579170730857760e-02
-1.201327181063600695e-02
8.488198145776146980e-03
1.419824718370546295e-02
-2.346424938387037511e-03
-7.298017273190930557e-04
-2.424641344194393422e-03
-4.265460017305508153e-03
-3.062993957270916147e-03
-3.971020854546270136e-03
1.260723412569100896e-03
3.132183232025628067e-03
6.350936922190735835e-03
8.435675673673577761e-04
2.783298652321174638e-04
1.604056041334762624e-03
4.011453363245051987e-03
2.692834278900932150e-03
1.869859510564253176e-03
3.007965509596687362e-03
2.212599695584188328e-03
-1.155942272959882859e-03
-6.700588710782833142e-03
-4.821624027573295258e-03
-9.995468732840413761e-03
-4.688014179566132693e-03
-2.257255815276639280e-03
-4.705497417341275579e-03
6.928588064128056445e-03
3.449748880155791009e-04
-3.619163490482181673e-03
8.554036674734869644e-03
3.332316453982924701e-03
2.534710966325651356e-03
1.251055716124068080e-02
1.418665188393502391e-02
8.886154318420625212e-03
3.680242442801783323e-03
1.053960689387436513e-02
1.782842894642850664e-03
-5.176682537703480858e-03
-4.555081012199151298e-03
-7.867318444971743360e-03
3.499972367003179865e-04
1.040888170325915060e-03
-5.212412860349729428e-03
5.989882416466036329e-03
-6.867469490692190183e-03
-1.452198676226136055e-02
-5.281226815075837529e-03
5.527266743231641459e-03
-2.115608643739482018e-03
-6.776746979696293867e-03
6.935528002801545286e-03
-1.014885191914273975e-02
-1.387996139177121759e-02
-8.452271878700378868e-03
-1.259239661797034379e-02
-2.314583968589981056e-03
-3.550389637128291680e-03
-1.828210129327435081e-03
-5.121532825400688591e-03
-5.870583955781156875e-03
-4.991314064689709486e-03
7.733403154177387676e-04
-2.207452792517596626e-03
-3.707128972106096647e-03
7.272946951843330468e-03
5.937428861092967566e-03
6.413683083057101879e-03
7.514823300999803543e-03
1.012067458189616458e-02
5.210801121365733583e-03
6.760387540855164121e-03
8.470067763102037033e-04
-9.328925095222605907e-04
-3.129406933958166388e-03
-1.790048558409312309e-03
-1.883930069104152165e-04
4.159939898886141386e-03
4.175383465992920859e-03
5.093122410268035964e-03
-3.329876978483263549e-04
1.066821088524815459e-04
1.299025773302920489e-03
3.417954972702345277e-03
2.256556302255347327e-03
-7.234347880394910967e-03
1.639364935347014524e-02
7.157091072666723307e-03
2.802931851660747393e-03
2.543388729332215440e-03
-2.084603882530835367e-02
-1.547172813600183362e-02
-7.073379216886054553e-03
-6.859728776251296581e-03
-5.714051628168227226e-04
1.443358459746060937e-03
3.119968425246200106e-03
7.392377344522084795e-03
6.411014622827867007e-03
1.592811535773578507e-02
1.825965332669109847e-02
-1.314938203744317989e-02
-8.575192488410383895e-03
-7.106206609629737644e-03
-8.011528734430504659e-03
-4.041312436679763559e-03
7.379552987244565772e-03
-8.833795267365204817e-03
-1.456199380206154269e-02
-5.334800400360154536e-03
-1.149289313748334557e-03
3.894658399320883170e-04
-2.556844018598045803e-03
-9.057994506690035183e-03
-5.160996940593165147e-03
-3.558934658572264573e-03
-1.251779642975938724e-02
-1.033573853899477993e-02
6.442597828268766501e-03
4.495542825832454445e-03
9.364538095335099566e-03
8.160127484284572172e-03
3.955326553362138557e-03
5.939111039495652798e-03
4.465197683492375287e-03
6.882866011257010586e-04
6.252841657513850959e-04
-5.694760391993530400e-04
-5.104200395682035457e-03
-3.708630754068476584e-03
-7.263713707166986194e-03
-9.079403603251702927e-04
8.362419618079243444e-03
2.445379924075411372e-03
-1.651577568360552625e-03
-2.799915543008929964e-03
-2.103642077815447414e-03
6.117920477619488880e-03
9.316657970918826998e-03
-1.065193512260682700e-02
1.395162799742428496e-02
2.068988002650720692e-02
6.669266095288424803e-03
-4.154137774274464442e-03
-2.963019743578596682e-02
-1.741605007412698816e-02
4.152954828991284948e-04
5.525589473450223926e-04
-6.866664434971246058e-04
-2.175348966703593168e-03
-2.328394861485637291e-03
-7.933298735336275463e-04
-2.920407546339379417e-03
-2.842055202392353326e-03
3.008305015787041993e-03
9.747252002606045240e-03
4.932495866950503856e-03
1.828466094865002734e-03
1.037354713491465442e-02
5.191172136328847490e-03
4.938562445737735424e-03
6.181442788147023006e-03
1.447201535662507579e-03
-1.157341525834759731e-03
-5.467623484337508048e-03
-7.414570478121069314e-03
-4.811482053775762227e-03
-2.336528775993668237e-03
-5.161425217171155926e-03
-1.543664536669989195e-03
2.576783585062075634e-03
-2.082724726833904902e-03
-3.474386988410434109e-03
1.431186538756917641e-03
3.451844079367676846e-03
4.886152778039837795e-03
-5.481525979532842104e-04
5.938895300562962130e-03
4.150104291351618992e-03
-4.728885359497485980e-03
2.695642096706044044e-03
-1.432208514959029547e-03
1.862218242104678656e-04
-1.601217977268839252e-03
4.843770516746945427e-03
-6.281091487665085111e-04
-4.526891084616334673e-03
-9.247805238516961174e-04
-1.583864981421349068e-03
-5.395190181585036299e-03
-4.602581349320379600e-03
-3.140884662736477713e-03
-1.066865280209414700e-02
5.457924001110190998e-04
-4.512404424065839977e-03
-1.387641027057603341e-04
-3.076774289634353395e-03
9.200738797842947713e-04
1.594656312427687045e-02
1.550787401108950740e-02
-4.414140072563603988e-03
-5.669927170604059478e-03
-7.819743365030634719e-03
-2.693625564024233407e-03
-3.347585665196875591e-03
-6.367934063325100813e-03
-3.437234517218753452e-03
-4.512948086176217337e-03
-5.130997954850246602e-03
1.253138519879066874e-02
1.243069218365198091e-02
1.253185704071442357e-02
9.149947450513038621e-03
4.275467262222974046e-03
3.575194414776651248e-03
6.393406567887373326e-03
1.770802418630868826e-03
1.661750981307745165e-03
6.414934543921785824e-03
6.685928923868619464e-03
8.140141956277516851e-04
5.752983683282808514e-03
-1.708745226495430713e-03
4.482189709759505647e-03
-4.325207520373004419e-03
3.980977257520787807e-03
8.305788911738675590e-03
1.449526415194116527e-03
-8.054766285316606808e-03
-2.046527364373873156e-02
4.590561532344027314e-03
3.806907597348336419e-02
4.464374283309953742e-03
2.207679998872978406e-03
-1.037242766184092932e-02
-2.218935932795353463e-02
1.194897509298736317e-02
1.717699805892354548e-02
2.205707915443597122e-02
1.426888604577478126e-02
4.833712252366641031e-03
8.476549272580220437e-03
1.625686628748636980e-02
7.863083963336301233e-03
7.552520683612843483e-03
-8.047863107527012186e-03
-6.589139971046541720e-03
-1.844786756589955265e-02
-2.449213916482561107e-02
9.956787525223576366e-03
6.539699863629764437e-03
-6.707636819440647501e-05
-3.987672839104545661e-03
-5.889116223940496150e-03
-5.771435426729459167e-03
7.106376627856364307e-03
-2.166341136100118601e-03
9.560222403826800289e-03
1.960501364879859917e-02
-8.773849908742258757e-03
1.923394050400747957e-02
2.218551179237755050e-02
2.126948588414565369e-03
8.018686096952580208e-03
1.051972755774511180e-02
1.038251757828443679e-02
9.710626096533845134e-03
1.128107577163264645e-02
1.159730728135178329e-02
5.857190858631690887e-03
9.839824054235035353e-03
6.420007847319821222e-03
8.996925318715395456e-03
1.158109883313484688e-03
-3.333312526779996961e-03
-1.019394001941982195e-02
2.775759849325529563e-02
2.945962969769717194e-02
-2.264002830457827534e-02
1.009195536357485393e-02
2.277756199883626195e-02
-1.804155653542596077e-02
-4.367922412612637584e-02
-2.663592994162000769e-03
-1.313175004680933525e-02
5.546633054680924491e-02
1.177232505546043674e-02
1.948602349770590762e-03
-5.366653425253707990e-03
9.487772455354686468e-03
-3.793073862905693185e-03
2.274657556749179552e-03
2.674844740728788643e-03
-3.441599474887810112e-03
-1.192124884007171853e-03
-7.207858478926604251e-03
3.194710734743028916e-03
6.913039495158468210e-03
3.386672965339117530e-03
7.130637521919414371e-03
7.190184778358461523e-03
7.172251139639642878e-03
3.400436158945331893e-03
4.668681643437475222e-03
1.067672762391892678e-04
8.183244339961094974e-03
4.766072609151265557e-03
3.132131349702514580e-03
5.574389746450642523e-03
-6.537997703583613499e-03
-1.011856600833081418e-02
1.203363859139419331e-02
6.775330415122240817e-03
4.291138067951471603e-03
1.473021667393280623e-02
7.340178593374384504e-03
6.271465917327652580e-03
4.328465283019760496e-03
1.184703553174102676e-02
1.257030940969225408e-02
-9.347904149304760157e-03
1.868803270138857074e-03
1.233651968413671841e-02
-3.281954771556471178e-03
5.422371828164775087e-03
1.175522453945131163e-02
-6.221275629052234850e-03
-5.432630044092456173e-03
-3.375956556078925364e-03
4.542888327932864917e-04
-4.108742978559056132e-03
-1.244133821340131672e-03
-3.621101423673822421e-03
-3.228553103650031592e-03
-3.490487817679918583e-03
2.145800385371922532e-03
3.868353819546128600e-03
1.337481959655441310e-02
8.071208420185731766e-04
-1.077492755452171512e-02
-1.331493880113764072e-02
1.650029884875042069e-03
-6.602022531562363496e-03
-1.785930510454061208e-03
6.458881968173265167e-03
6.588737984910180215e-03
4.619921014990773303e-03
5.593948884397942529e-03
1.940467525755908834e-03
8.317417520308300694e-04
-1.148874928249577631e-04
-3.264637962526058777e-03
-2.517391473838739846e-03
5.228794083572759106e-04
1.504892919183729687e-02
1.734168755942450124e-02
2.702699996406942012e-03
2.450430343280610938e-03
3.613485912278008175e-04
5.498466547571174631e-03
-2.966521919389503072e-04
-9.774231222641057912e-05
1.048013063073222409e-03
-1.267181268933217312e-03
-1.052279011723850988e-03
2.066587765475276853e-03
5.060491295441588155e-03
4.884529548089721479e-03
4.479398116225150267e-04
2.275575391121912802e-03
-3.597211879785922398e-04
9.819966872219514781e-03
4.734676505083849907e-03
1.210101479266646914e-02
-2.375164237187131835e-03
-5.476662806621838096e-03
7.929312100016428291e-03
1.752090680030092551e-02
2.658441745877206108e-02
2.265130884812859707e-02
7.041677461238553953e-03
7.080451841921923430e-03
8.559588471505692048e-03
2.575745508488430126e-03
5.165293140474771193e-03
3.767461810988774994e-03
3.543799028494058929e-03
2.362753464113553133e-03
4.088774770090540696e-03
-1.008843231167638396e-02
-5.912441956087958854e-03
-2.337639171689693141e-03
-6.257837944198531462e-03
-5.190819161573993930e-03
1.113870960979610868e-03
1.193238946696532216e-02
1.343065549169367850e-02
7.480546021736552038e-03
3.144515581523635306e-03
4.795313901521025741e-04
2.169254372212504108e-03
-4.953389619794303436e-03
-3.847554977900196575e-03
9.568156820281758720e-03
-2.468616896548115128e-03
-2.012236110007318505e-03
9.709950623565050468e-03
1.061742574257283980e-02
1.214093024760365576e-02
1.429697625153823065e-02
1.000212347120828932e-02
1.144267939701317308e-02
1.304032877528906245e-02
1.400878766171679071e-02
1.473514116335081919e-02
1.715648354360461286e-02
-1.320628443342027232e-02
-1.151847614255964089e-02
-1.202123626809817152e-02
-4.129165824115705978e-03
-9.074397878455202349e-03
-5.672403229457649403e-03
8.275099077509263934e-03
2.962571994079129124e-03
-1.192779707688370293e-03
2.629961986731243258e-03
-9.206316473156363894e-03
-3.238966949393372752e-03
-2.019943029627199391e-02
-1.218249542654893311e-02
-3.898139683677240373e-03
6.668377291335538665e-03
4.424360163671588013e-03
-7.868658508752767941e-03
3.711025154237628920e-03
5.084101369415720828e-03
4.841820816090655274e-03
1.537261349115905075e-03
3.787583717642186744e-03
3.080041498489663986e-03
-4.107713132383946503e-03
-1.856745614851596209e-03
-1.683362315230694075e-03
-1.001800563838944370e-02
-7.562099201831532468e-03
-7.842886260189651376e-03
-6.298993129628425308e-03
-2.856951814548494561e-03
-5.488011909667372783e-03
-4.728267485129353763e-03
-5.266322912963763980e-03
-6.477972568066309514e-03
-6.333418207880772005e-03
-4.312052842829588485e-03
-5.781385653270422129e-03
-3.178443412501581918e-03
-4.689873021855038397e-03
-7.399811671899015654e-03
8.782059446973827788e-04
-4.236855305863038764e-04
-2.179825793080127864e-03
7.404828763042519432e-05
6.035554035501621006e-03
3.202423488684880571e-03
4.351193424895501323e-03
5.148849772979935749e-03
3.372753567753497463e-03
7.781442923254884396e-03
3.587645033920319228e-03
3.848059826827845368e-03
1.575176908235612766e-02
1.071393368815275193e-02
4.516457332581168098e-03
1.388150954581670975e-02
5.413979573941034643e-03
9.970458949858189684e-04
6.487907433101102947e-03
2.470369738635043357e-03
-2.411711250842250593e-03
-5.553798434659898767e-03
-5.110052091576828062e-03
3.771380132731318407e-04
-1.220696680088669906e-03
6.684209717263919250e-03
-3.589260880995456425e-04
-1.049969712093855442e-03
-7.653473387415920572e-03
3.066688864053358624e-04
9.106260042789743022e-04
-5.462214046837876201e-04
-1.572893107194663640e-03
5.410729536670965019e-03
4.142490200232329389e-03
3.799737273905328186e-03
-1.647007904333406582e-03
-2.208045443482352897e-03
-1.810272907721581959e-04
1.493848307418103004e-02
1.523594402843138872e-02
1.022940976350220077e-02
6.544228577773549514e-03
8.495890252862983022e-03
3.081198437063302487e-03
-4.997817151694014873e-03
7.082039926437374124e-04
-8.909745738602648608e-04
3.251019920190445067e-03
5.882446437150992864e-03
6.167316967371634998e-03
-2.566124693609522171e-03
5.998081326323090670e-03
8.050751286505709869e-03
-3.410161447614152436e-03
3.677438638406417461e-03
5.195038717124956552e-03
2.237358559478284589e-02
2.848051764995349414e-02
6.396293881435798426e-03
1.554965018768456400e-02
1.088183462526345945e-03
-1.785278380314849964e-02
-1.228867606380026553e-02
-3.744310770160638735e-02
-5.365645368491452072e-02
-1.765093256229994731e-02
-1.437121238026336026e-02
-7.782635171155961352e-03
-2.100295140180776648e-02
-1.582310535160517603e-02
-1.454487859163110935e-02
4.558935139496416225e-03
7.457868641954227065e-03
4.358550946566626394e-03
3.245650241242719475e-02
2.090157261231449445e-02
2.687610653547327366e-03
1.796249994046017137e-02
2.150397180731491911e-03
1.723212301822716480e-02
-5.335867291899742439e-03
-1.578599016282020151e-02
5.784587332097386805e-03
1.298880622454847951e-03
-3.046484174260791905e-03
-7.688458934209136710e-03
-3.361028183017668140e-03
-8.238697673831037530e-03
-2.835934173898320681e-03
-3.712483802246938948e-03
-6.171974389739546402e-03
-1.087995721054904087e-02
-1.985196991516373615e-03
7.821417240973355632e-04
1.444398132771292174e-03
-7.463796221783531616e-03
-5.046200766951247120e-03
-4.426216792977113838e-03
-1.140369572517452301e-02
-8.443457864181521180e-03
-6.102949036122067017e-03
1.359478689977070822e-03
-2.121506716283189011e-03
-1.083862573032577659e-02
5.752731205134973755e-03
4.111573001420511589e-03
2.545700251313849638e-03
1.063261303845165415e-02
1.721453770422503443e-02
1.921192612075995135e-02
-1.919112956620042110e-02
-9.653659506163246931e-03
-1.917281286835258169e-02
2.674455909864405017e-04
1.441355666927955637e-02
3.815140507113647106e-02
9.497203286363267369e-03
1.088611405005492777e-02
2.442646287847695732e-02
-4.248702657236014778e-03
-6.983764713551735871e-03
-7.050287739264020359e-03
-4.758090907181320058e-03
-1.226636029605134015e-03
-1.613180872265047167e-03
3.159586238907940558e-03
6.510839987779786821e-03
5.562604309497132422e-03
3.626429296666557230e-03
6.225602695579455365e-03
6.446884028411125830e-03
6.028246228460119871e-03
7.903504510843449571e-03
1.023779684372854923e-02
1.333530587555328828e-02
1.237276487497746512e-02
1.183426492633352610e-02
-6.294417783029146636e-05
2.251159349974446531e-03
1.485421490129343368e-03
4.387486085887727823e-03
7.405963930158916686e-03
5.648054500480781392e-03
6.621772512196966859e-03
1.174509200762604774e-02
1.203339528016863363e-02
1.685712053086199679e-04
-2.037491739027503471e-03
1.713261121039418066e-03
-1.051514888712264811e-02
-5.096130153831873386e-03
8.210653089309636124e-03
-1.109320963944457859e-02
-3.437023886848719774e-04
7.451425294731165057e-03
1.161349802332457132e-02
1.588500519676822390e-02
1.300202249649932973e-02
3.354912808214080555e-03
8.219127404402724532e-03
9.798611277431807168e-03
-6.154628500953921236e-03
-3.990408593561180217e-03
-5.113783951471344638e-03
1.173335107653441893e-03
-8.181880866141437100e-03
-2.319798145560815223e-03
3.540645515465057607e-03
-2.560557722933115479e-03
-7.655302688193992358e-03
2.454888273051622147e-02
1.718363874310021092e-02
8.352165430401042867e-03
-1.653591595334485530e-03
-6.969981043964910148e-04
6.668053272789485402e-04
2.726549219176624861e-04
3.507798515874801550e-03
2.934437185651498324e-03
5.201176563122047319e-04
1.540397024274079265e-03
-6.657811223807415279e-05
1.548664310121302887e-02
2.311325007530242240e-02
2.791360421469479478e-02
7.673496061991768626e-03
1.035831868245934949e-02
1.053231661144549136e-02
2.745122730664509812e-03
-1.062916879301874923e-03
-8.893368075092254049e-03
-7.819601166932876836e-04
-1.537839754459950506e-03
-2.636810113165243951e-03
-3.946079512024011637e-03
-3.415007427839873190e-03
-1.001317630008326590e-03
-5.294975945704221906e-03
-5.712200701225531377e-03
-6.786100275015856213e-03
5.573458124444915195e-03
7.421700351929246854e-03
2.805833184601586820e-03
2.716178162583675337e-03
-1.174889229201748868e-03
5.125770784626459270e-03
-1.829623809863012212e-03
-1.626919516182124496e-03
-3.446668388348540779e-03
-5.727343132834807581e-03
-7.402856357609288729e-03
-3.437474549310688774e-03
4.066047594347805064e-03
5.958235379577883108e-03
5.604103989809705588e-03
6.133820032378520769e-03
4.401611996393385053e-03
4.179951912898405633e-03
-6.162699806935477420e-03
1.832611906835833037e-03
-1.067848458992220898e-03
-1.548369301438882843e-02
-1.419134186792800865e-02
-4.276144687756106358e-03
-1.737404838608453891e-02
-9.392077866041027498e-03
-7.972496100129622398e-03
4.108603551972884668e-03
-1.163865359481977557e-02
-1.626545408347409433e-02
4.528401788140642634e-03
1.092231771118141494e-03
1.157987259628878154e-03
1.650989503067919195e-03
1.131947309051013848e-03
5.284483650651930747e-04
-4.377102571801526169e-03
-5.630864614254094819e-03
-9.588566886247080687e-03
-5.687194054755686547e-03
-4.326943527720283900e-03
-6.046501992901353283e-03
-1.149433156902651340e-02
-1.038769060971229605e-02
-7.735212645972458674e-03
7.031475498952555192e-03
1.658835044760911120e-02
2.207960413393545221e-03
-3.907530122223268169e-03
2.197217323120848227e-03
-2.144350961513859959e-04
-1.376161706559389693e-02
-1.013979770359069513e-02
-7.605261801878686161e-03
-1.149139033481855025e-02
7.158553814417351058e-03
-8.758665247677117210e-03
-7.937258478092882111e-03
-4.759159800862344109e-03
7.380053452514002098e-03
-7.114595945267277680e-04
8.716073150123206797e-03
-7.735418166996306522e-03
-1.015760753994717457e-03
2.235354082305594358e-03
1.655278041765554167e-03
7.805974428053101891e-03
6.960433135995874529e-03
3.556531984856349613e-03
1.930672043730509435e-02
1.600778433374843920e-02
9.098051149340048369e-03
-2.729344216656369795e-03
1.547927262452227209e-03
3.738886520039653560e-03
-4.555723177195028853e-03
-3.405250441339573359e-04
1.346829507750512984e-03
-1.065361853174693826e-02
-3.072727254019355387e-03
8.388390628270488711e-04
1.051525939563980119e-02
9.334636824871315672e-03
8.313580181305551403e-03
7.704942675581720121e-03
8.644125501806404488e-03
6.568940406944524628e-03
6.763287242797655233e-04
5.943651925439267202e-03
7.029882959231527860e-03
-1.351666301082780908e-02
-9.546971813872633800e-03
-1.846643929203216003e-02
-1.226130346437827312e-02
-1.100747509919916892e-02
-1.097750477250407017e-02
-1.094944132348241693e-02
-6.215744882476247068e-03
-5.504887772334502750e-03
-9.581759871080395771e-03
-1.684426800649956382e-02
-1.421453893653280322e-02
-1.219129565652714818e-02
-8.897402264468681765e-03
-7.537356464172978096e-03
-8.929996707424800104e-03
-3.025074275717319627e-04
-3.171429271792862003e-03
-3.249974045689675117e-04
-1.036686487643774090e-03
-8.313739236706616659e-03
8.124196827106635113e-03
6.484984572274893333e-03
7.687217033345157026e-03
2.623236591323528048e-03
-1.447503832354332534e-03
-2.104551765602874307e-04
-4.836339597447144429e-04
-4.842314798537598148e-04
-4.015856977471596496e-05
1.195742682993143017e-03
1.891263039908279171e-03
5.378090832029894068e-04
1.616200055862893937e-04
-4.827735117248695444e-04
-1.663153766256251489e-03
-1.559605920168268510e-02
-1.892248150825488404e-02
-1.408206425455196635e-02
-2.552041527238983927e-04
-1.337974033760619755e-03
-2.361196293061737072e-03
1.893255978269391820e-02
1.352670395391178393e-02
6.429076896657025253e-03
-2.013169107881978073e-02
-3.635754393670259654e-02
-3.604620910510263065e-02
-3.162469053141162261e-03
-1.566982531584962257e-02
-1.564715410625676720e-02
-4.976827489998785544e-04
-2.724041616798430869e-03
-2.670691793300036983e-03
3.635582548388095053e-02
3.578962131631228949e-02
-1.932907597174585851e-02
3.020213250313392994e-02
3.547501100948560748e-02
3.350761035388471337e-02
-2.766562583804054246e-02
-2.870901636422925826e-02
7.853451769596524537e-03
1.992759681629796206e-02
2.684425258165305805e-02
1.740567161395370835e-02
-1.687628399623063689e-04
-3.571702644853420178e-03
-2.157052949479528262e-02
-2.006963996058905297e-02
-2.630583169535710350e-02
-4.477521258732820864e-02
5.444455931192079996e-03
-2.527822294517628049e-03
-2.990719783018600322e-02
2.115942025088394032e-02
2.027046655903334479e-02
1.225608298454779720e-02
8.718760787386547334e-03
3.522973116100498996e-03
9.023941735283541252e-03
-1.675802449936277666e-02
-2.945735374837400722e-02
-1.050688027225910211e-02
-3.501889522580370340e-02
-1.297502831615139629e-02
3.967621807307960993e-04
-2.057145357074478473e-02
-4.970020398944856657e-03
-1.364272209420757569e-03
7.733609538624182378e-02
6.816338152710516018e-02
5.050103229614544276e-02
4.735231900219119550e-02
3.313908684442435498e-02
2.675762530982093296e-02
1.985889548092618917e-02
1.260646151990594784e-04
6.368805520129453349e-03
4.572109718911593866e-03
1.834552275392180645e-02
9.954039353630594889e-03
-1.729318553273039450e-03
9.833674426591668821e-03
1.432469335112360707e-02
-2.394407703632046511e-02
-1.401573571259358275e-02
1.939380208310937390e-03
1.411919633639320722e-02
1.542474465167332880e-02
-2.326605464078418048e-02
3.782986419274894652e-02
3.777114387871836204e-02
2.203801375519312197e-02
-3.126810506162891468e-02
-1.519777218410513914e-02
2.171847624055073863e-03
-1.396915229708042307e-02
-8.632226923880144051e-03
-4.299748616191656665e-03
2.978107218061996865e-04
4.245856568753704778e-05
4.508643155354852793e-03
-1.004115026578335755e-03
1.410147739538637193e-03
1.582410104523571462e-02
-6.674488985290960054e-03
1.160666273909089288e-03
-1.044306383431158926e-02
-4.979115505782152375e-03
7.498091673842894808e-03
-3.145520161258571774e-03
-9.010758142774744073e-03
4.385727237176520465e-03
-9.703124086474440926e-03
1.785421383756748831e-02
1.936147271300849362e-02
2.494068366083349725e-02
3.219235278016228247e-02
2.459415179098652787e-02
1.258864656685699385e-02
2.646634755655179888e-02
2.556384217178685886e-02
9.233687038779272299e-03
3.189070247169885353e-02
3.627077834243691568e-02
2.003638138919919612e-02
-9.563245281437886183e-04
1.019708586437217436e-02
9.237826296920504873e-03
-1.268565778514265004e-02
-1.304993918966411426e-02
-1.178925681346915458e-02
-1.262243304174622861e-02
-1.196996286799545221e-02
-1.781017783308369226e-02
9.697268002834309383e-03
2.015728235635123877e-03
-6.028450316503924933e-03
1.054920661146409137e-02
5.736181198216849970e-03
-3.560767686917494512e-03
5.173864053763519918e-03
1.442226501936359415e-02
-2.036459546326814963e-03
-1.383752141465867391e-02
-6.955382141177463354e-03
-5.692730053528600835e-03
3.355560172903924304e-02
2.662081303177027750e-02
3.002059618854171705e-02
-9.385349938761540153e-03
-2.251760008940158903e-02
-2.921752380377566974e-02
-2.230149032663932603e-03
-1.502165941076670161e-02
-1.322270846568498158e-02
1.367491476919764290e-02
1.050101800479252834e-02
1.559938795257052868e-02
-4.112878914025900473e-03
1.074347509923486571e-02
3.474448955478346389e-03
3.338358883263154060e-03
8.862429952567210667e-03
-1.468901901882380947e-03
-2.849010565355352548e-02
-1.791451395652161535e-02
-1.266038774112160543e-02
-4.876549087319903032e-03
-4.689720632419078564e-03
-1.518122245299690937e-03
-7.270927157609772401e-03
-6.218647886831379056e-03
-7.209984222508941838e-03
-7.522051052899325629e-03
-7.630557257986669839e-03
-7.493690393367132170e-03
-9.955942436133416451e-03
-1.006139312238665297e-02
-4.481200372007910007e-03
-6.595510355498476751e-03
-2.372821803519177888e-02
-1.347429551676504293e-02
1.408778252253844402e-03
5.685734891444894044e-03
7.050704548156292578e-03
-2.990400300404937733e-03
-8.629184456424254758e-04
3.189431688937172885e-03
-3.409662612464554703e-03
-1.919111383026961964e-03
5.330143884179719752e-03
4.234020828057713775e-04
-2.022972727711103776e-04
5.195913161038651952e-03
-2.226283930797095731e-02
-5.353880371818185713e-03
-1.346181473838487441e-03
-2.034474378876443765e-02
-9.507676187242292479e-03
-5.243404891319500098e-03
-1.531908913334075265e-02
-1.133843371356656887e-02
-9.667035908725063768e-04
9.116042316159859993e-03
-9.385380027161114094e-03
-1.621899289141481501e-02
9.968087364598072694e-03
-3.161007997123771972e-03
-8.099808616106504364e-03
9.429377332846071089e-03
8.075890378945540377e-03
-4.434554743759464989e-04
-4.661528187870475973e-03
-7.355851748853888677e-03
-8.069622727327080761e-03
-5.543959049562860973e-03
-8.758805315612728376e-03
-6.353011635154872695e-03
-3.263883834024742473e-03
-8.828214298152042144e-03
-8.168491954009709718e-03
-8.587494402922264333e-03
-4.058174491378657711e-03
-7.124122267770060775e-04
-1.559215038934657878e-03
1.727135162927166418e-03
-6.743889505563926967e-03
-8.587575030104053000e-03
-3.160741173356698252e-03
-1.269877919838423991e-02
1.318890603596761411e-03
3.391567127293036027e-02
1.575972441584411188e-02
2.438848504784994417e-02
4.955758429483625091e-03
2.128815335541048553e-03
-1.929631316080025055e-02
1.612135588782462325e-02
-1.679702211215296573e-02
1.323648129368859127e-03
-9.776397690022047785e-04
-3.284223345747465991e-03
6.030069029348437623e-03
2.681646338438500518e-03
-1.108101316407517816e-03
9.732114612215542193e-03
6.077217949093761257e-03
3.485753016811848209e-03
9.952284050266164972e-03
1.238907221152801309e-02
1.251814066817842110e-02
6.732947797608330488e-03
8.061560009148103015e-03
1.091225215851527632e-02
1.741205862928095309e-03
3.513495921318098361e-03
1.219644672026166943e-02
-1.148254619691606001e-03
-4.401551157329626723e-04
-3.967410326646736776e-03
1.566838851351854333e-03
1.381004276313269486e-03
-7.901806045881951818e-03
9.559489882498072673e-04
3.238685616184045456e-03
-1.147129802832943992e-03
1.038072065285034450e-03
1.513071735430312516e-03
-4.671170386740197689e-03
2.739649571688177083e-03
-3.277778778370403143e-03
-2.661188882876708902e-03
-7.945445266337473542e-04
-3.660700660107309764e-03
-1.846113234119389987e-05
-6.447219373286496892e-03
-1.552493786912172852e-02
-1.866608509049906550e-02
-2.711038523186157408e-03
-1.049733965391063360e-02
-1.213857109837885445e-02
1.879378037150182144e-03
-2.837606570448303073e-03
-5.848861855157862395e-03
-7.261093928390869104e-03
-1.076602886714756249e-02
-1.700672239100648950e-02
1.638096748581491409e-03
-1.521389096291345805e-02
-2.258730860976638968e-03
2.347796924451800785e-03
-4.381547882223528131e-03
-2.473328516059308899e-03
2.856106738333217664e-04
-3.517776702624634058e-03
-4.078408820398998248e-03
-9.617248913995709745e-04
-4.068021448487026820e-03
-2.918037694774447237e-03
-1.851660751592582640e-03
-2.514581984006187404e-03
-2.862562133341408147e-03
8.905083325187747659e-03
1.097970037306770716e-03
-2.020652134339782522e-04
6.198994769581925302e-03
-1.895919563904327997e-03
-1.983980107813788051e-03
5.977833636530345031e-03
-1.704072115274729267e-03
3.495399082692688363e-03
4.856455664415415020e-03
2.465227701319664191e-03
4.273902188690026707e-03
7.084380074312226008e-03
5.888540838312871645e-04
-2.771146391839400275e-03
4.448835209019381606e-03
-2.631776434093272780e-03
-4.784787137551423791e-03
-1.704365832750406873e-02
-9.077331439753958189e-03
-4.609202876982227738e-05
-2.735981209901965343e-03
1.146136448635183373e-02
1.767749817760713021e-02
3.255955141437955579e-03
1.463212963417326838e-02
2.182977949493540917e-02
1.631646738412561443e-02
1.431562026463574500e-02
1.298728029838306861e-02
1.104842086184495108e-02
7.170898035915172081e-03
7.825276270032365325e-03
3.897055073393971745e-04
-2.790010453316026096e-03
-7.091693473273878029e-03
1.772787389025741803e-03
-4.064544777362443309e-03
-1.422961632404715418e-02
1.169893560325093937e-02
3.006106899196567608e-03
-1.749193121838368142e-02
1.126768919349698840e-02
8.050219360617987679e-03
6.985516239983948286e-03
1.235523283997036481e-02
1.426688677404149876e-02
1.730442583094475573e-02
9.713945157212418302e-03
1.404386557923454834e-02
1.092753843932719668e-02
2.994694144758614819e-03
1.304422765466365514e-02
8.323814657316897653e-03
3.833229810091257593e-03
7.101478471537993158e-03
7.701767118846786567e-03
4.444095083846549832e-03
9.936041362180085892e-03
1.194999856628663377e-02
4.571819455336377513e-03
8.784136939221793769e-03
9.207482359655955531e-03
2.323873713386535780e-03
7.950385072249210872e-03
8.227284514214061595e-03
6.937858322174223803e-03
5.676811711155191516e-03
-4.348699065908592093e-03
3.348221018007352303e-03
-1.759883408787907885e-03
-7.259751755298160872e-03
-1.159325420529487734e-02
1.305665315862626977e-02
1.391497732419359409e-02
8.894255367675915971e-03
1.847837350297742640e-02
1.745259228500432164e-02
-4.346406568004856398e-03
1.899982446997170588e-02
1.694816421710772583e-02
-1.056957715321622760e-03
2.775112936740028145e-03
4.607733143350193836e-03
7.136317000078207500e-04
2.819612608038621609e-03
4.406501975793879027e-03
4.334717033020714719e-03
5.101029370464225249e-03
1.293006153459825332e-03
2.389332519215967704e-02
1.071216762965212198e-02
5.022554852678213014e-03
1.528299927188935328e-02
4.768850281781569257e-03
8.527822998715970174e-04
7.468527775931408513e-03
4.115828671874596084e-03
1.346975604560771275e-03
-8.259410207644753837e-03
-6.920665001207128471e-03
-4.653249972823262845e-03
-1.098759113832113894e-02
-8.780351011193269009e-03
-3.422971053321634781e-03
-5.344013758254772227e-03
-5.152034555645894527e-03
-1.478199341841155996e-03
7.073659340124901704e-03
6.194529653918725426e-03
7.896256220903395337e-03
8.435164752313050601e-03
2.734317082367156929e-03
-3.437289245757896403e-04
7.017290068051290110e-03
1.722567632362653929e-03
7.771776753447624158e-04
4.512086383454015290e-03
-4.944314544413616402e-04
-6.560354455826058334e-03
4.175548931118434372e-03
6.275876269288822688e-03
-1.587082383954965337e-03
7.782054418328552409e-03
9.626045772744042106e-03
6.154448965208011470e-03
-2.186537107597212939e-03
1.047615882803116204e-03
-9.050826774837233968e-04
-6.492082655874122088e-03
1.683620931046509676e-04
-5.649028951103072117e-04
-5.871105041605958856e-03
-4.996242515109661870e-04
1.630483888138734710e-03
-2.090626517563674586e-03
-1.340476841422724632e-03
2.111671758536210267e-03
-1.510981510783343789e-03
-2.132790017771304253e-03
7.354939464532365707e-04
-9.943771103008629362e-05
8.157235201764890913e-04
1.995998982396572207e-03
-3.348732145845264348e-04
2.796442948936542737e-03
3.008319490322407860e-03
-9.140780590119340914e-05
4.838095842261365409e-03
1.031606353196469136e-02
-1.538889641814573158e-03
5.348480271598467749e-03
9.913216955466633631e-03
