-2.883625102502648634e-03
1.641825531292642401e-02
1.314941591099682769e-02
8.098810597125194466e-03
1.315555621617304658e-03
-8.999045850640141446e-04
2.168116675814602337e-02
2.000821140357400899e-03
-1.052869064155110244e-02
-1.663411053431639865e-04
-4.176237921493452035e-03
-5.552581294385280052e-03
1.292424228438854815e-02
1.230566368653656165e-02
8.892116436401928739e-03
-6.181999245332856982e-03
1.007397231017975736e-02
1.419387578911400320e-02
-8.567939596109954911e-03
-7.315843107760591074e-03
3.592912104677737587e-03
-3.162878498598318492e-03
1.006544128639046132e-02
-2.272346609972110323e-03
1.004051336183457363e-02
1.375577803198373833e-02
-3.079315898235979957e-03
-1.616203806225569722e-02
-1.332493116883560688e-02
1.139052168335867371e-03
-2.078476633793361131e-02
-1.004751407171749177e-02
8.384323834327737923e-03
-1.294901781253881938e-02
-1.611702318021602121e-03
1.396374927932325129e-02
-1.715465300067531632e-02
-1.061651621386799742e-02
-2.275575191323556991e-03
-1.445094788837247672e-02
-1.097850784101938280e-02
-1.798730076579272558e-02
1.341839715436905257e-02
4.483476377540138169e-03
-1.961541538296773454e-02
-1.585025962203799816e-03
-1.916869532295105861e-03
-4.180625985497615250e-03
7.633097817566293457e-03
-1.241837352818898422e-03
-1.362769615539248351e-02
1.526302705986585205e-02
-4.750868729637577025e-03
-1.975790506973979649e-02
1.864337459429109972e-03
2.238872580732620236e-03
4.630498587409186649e-03
4.945762936659060457e-03
4.639161370590838551e-03
1.077369723163381287e-03
-6.071018150406625244e-05
8.692691452492275097e-05
-2.471472357189491258e-03
-4.413613579057523544e-03
-1.399214501583814774e-02
-1.327032023437614561e-02
-8.709669523301524904e-04
-3.238068980173463857e-03
-3.870978872510939112e-03
3.875830475582180655e-03
1.056258598335361662e-02
8.917515361098918986e-03
-6.326044327919722043e-03
4.426625692156912519e-03
-7.911995939541375047e-03
-1.918324140112070975e-02
-5.445536947857834709e-03
-1.123422964462560993e-02
-9.916029945370892495e-03
-3.231156056970029607e-03
-3.442697983842343736e-03
-8.883271888757331494e-03
-3.670692372670794103e-03
-7.435450791722141538e-03
-1.098569333154410937e-02
5.455504625262561254e-03
-1.250742382786974687e-02
1.859776679498583251e-05
-2.903389487594552334e-04
-1.643751440868596383e-02
-2.625099522525627463e-03
-6.738373757815638992e-03
-1.226893139039578022e-02
1.476143873770898590e-02
-1.198113950943678792e-02
-1.647081143585018073e-02
9.062695955653869359e-03
-4.158629151809714597e-03
-3.292694519288461279e-03
1.222505868766693600e-02
7.304763730326158631e-03
-1.643196622704405641e-02
1.311634112859079437e-02
-5.920147613803297421e-04
-1.526506155188080485e-02
-5.926639700682476489e-03
-1.928760738081947840e-02
-1.195529641271593675e-02
-1.066965112564057698e-03
1.136944811789478843e-02
1.214816517625904799e-02
4.856772008077983246e-03
-1.219755351764734846e-03
-1.434382115253824558e-02
3.714795416216875538e-03
-3.407975415300605257e-03
-2.013815632622389939e-02
-3.104192865243739913e-03
6.418485130132899064e-03
-2.173820111294726826e-02
-7.819265901650043413e-03
-2.901799802588485733e-03
-8.838237957166955594e-03
-2.253020047053837238e-02
-9.446107373853146819e-03
-7.542448943089134772e-03
-1.506124945644452158e-02
-1.294949087638124809e-02
-8.083139166747832158e-03
-2.187232582451364982e-02
9.700733669547762297e-03
1.049768606906759279e-02
9.113940040773036919e-03
1.609186507358915247e-02
1.080106064124692700e-03
3.172694890821220817e-03
1.214456735111649720e-02
1.803204673167499092e-02
-2.618419638825779036e-03
-3.849274766918823337e-03
1.293252407655616325e-02
-4.713824338357798516e-03
-1.064407456388329412e-02
1.401817225821578618e-02
1.848314818835308446e-02
1.213037686455994621e-03
-6.215564077430691878e-03
-8.831652686235592063e-05
6.708482314078137400e-04
-2.737538225573060203e-04
-2.485648874075528127e-03
-1.481900108255718163e-03
6.236548268752535595e-04
-7.199024436768042788e-03
-1.684684956670406400e-03
-1.833408354915629437e-02
2.715948893523922533e-02
1.396258344682030014e-02
-9.657890912526861937e-03
1.542934868704342287e-02
-7.687645888508437726e-03
-1.308904312243508970e-02
9.977003747257269864e-03
1.633186877541879800e-02
1.213439552602675088e-02
6.297670339641876260e-03
7.324149505597862472e-03
6.579756086434395204e-03
-1.224902619737493897e-02
-1.358374328580443449e-02
-1.136792732876375916e-02
2.717666686758458787e-03
-1.737993536846885265e-03
4.612401355496203136e-03
8.574655197717367906e-04
-3.943851500004440583e-03
-1.405588084383003447e-04
-8.099426850090398963e-03
-7.312252267453298211e-03
3.588575633206724132e-04
-2.192218643601309951e-03
-3.640524710448116152e-03
1.207243368744397201e-03
-4.304986056120501704e-03
1.221989864062058163e-03
1.098406300749654729e-02
5.872751379179640000e-04
1.601682413098701879e-02
1.616599560641399785e-02
-1.376905556882290424e-02
-2.437410014325826647e-03
9.918375580047310638e-03
-1.849434360930054394e-02
-7.805982491199408776e-03
2.482894944029069139e-03
-2.519839801406430213e-02
-2.251219388273748012e-02
-9.673638699853288198e-03
2.573054245053190813e-03
-6.072530049747326296e-04
-8.864924948983898129e-03
-1.863434828218355280e-02
9.070370225900351718e-03
1.826112313498330642e-02
-1.740971299114090973e-02
7.948198023187620295e-03
3.867867604642564842e-03
-1.513121369378462276e-02
-1.621892954542667256e-02
8.259175588544564323e-03
-6.084285686231673956e-03
-4.977490439591706131e-03
9.749141911552454409e-03
6.459580408369419366e-03
8.476445239074146751e-03
2.541081002916491857e-03
2.096891596337424352e-03
2.972688736868904242e-03
-9.465313765855742911e-03
-6.798069811088693938e-03
-9.302339779721504123e-03
-4.947719801754905250e-03
-1.077357023462913350e-02
-8.952253328027475268e-04
6.636406592788995917e-03
2.338393942195406486e-02
1.392136085408659033e-02
-9.507379936193032649e-03
1.381772113850832616e-02
1.739560441765237650e-02
-3.514239047741788118e-03
4.773666279439977428e-03
6.421726569931069349e-03
-1.158043776654300644e-03
-3.061084366990549869e-03
-4.890739420680650755e-03
-2.830147933802459274e-03
-3.130732064296488926e-03
-9.589638277317318570e-04
-6.770054748095321326e-04
-5.266065733323309524e-03
-1.914423808104376117e-03
2.380138175125834799e-03
-1.290152887010174651e-03
-1.380875895988814377e-02
-1.418194600798699037e-02
-1.467673586299088860e-02
-1.655619310955828635e-02
1.798480146474064519e-03
-4.080318830068378928e-03
-3.372118763507085150e-03
3.288905404907613468e-03
5.932147560775396199e-03
5.817384495049829785e-04
6.994747373548379672e-03
-2.681184098478128081e-03
-1.060449213746500995e-02
2.406474178971097951e-03
-1.937688706883994652e-02
-1.346798948469611797e-02
4.743079685848115151e-03
1.847176989171889000e-03
-1.685395346165328512e-03
6.175973872445872023e-04
1.882333331857733490e-03
-4.083144989661250009e-03
-7.494309141003083555e-03
-9.554415975562170890e-04
-5.943581418599138723e-03
-6.450048013198229728e-03
8.762408204419508406e-03
6.664929326308571302e-03
-1.609031729759462931e-02
3.963918931698759418e-02
2.399944786721793996e-02
-3.096206341112002491e-02
3.062009222677122833e-02
-1.294830821677517762e-03
-3.760879295543433781e-02
6.107178325041327837e-04
8.172770477725002994e-03
-7.573220317322804833e-04
1.614416720250355262e-03
1.353130860376640203e-02
1.607587773816265136e-02
-8.736224438233602951e-03
7.355426804148921908e-03
1.394134002286265793e-02
-2.989014715438546421e-03
8.360309591860345035e-04
1.371356380480269260e-03
3.180448849016633255e-03
4.209389196740817227e-03
6.706327044786837208e-03
7.419230738477361475e-03
6.136871965280601450e-03
5.132597342167983211e-03
-1.488251687099314624e-03
1.209226565313235337e-03
3.498738503196943792e-04
7.263346019774404722e-04
7.021189134402250993e-04
-2.665990531026288506e-03
-2.189889226512302389e-03
1.132550413064314920e-03
3.067384462945048872e-03
-7.927013495730531392e-03
-5.909768448222465359e-03
-8.210162217881735239e-03
-6.165995369497377643e-03
-3.490940928391968873e-03
-4.539608934016484479e-03
-3.119104261510124466e-03
-7.017105972172652537e-04
8.024335334867745790e-04
-2.155647802676914637e-03
-1.109060790930032443e-03
-2.887447320671698847e-03
-5.772413752116033192e-03
-3.081243656588094227e-03
-3.601357545830629302e-03
-3.577069414712751982e-03
-1.785137070856915179e-03
-1.920855528490702114e-03
7.315355101610101791e-04
9.122717766415710215e-04
2.037987568029924097e-03
1.026284247938140035e-02
1.051024568413020353e-02
7.927655250863896094e-03
7.787479113624898482e-03
9.303608889807021137e-03
4.912273076660462687e-03
3.138607619134166100e-03
-9.977757340902083331e-04
-8.551109660600254500e-04
6.848032909910138979e-03
3.678345475463594243e-03
2.844077003762860226e-03
2.275732659224816157e-03
1.815832115066764790e-03
-1.671895423481268130e-03
-1.920711848142289332e-03
-5.216102284285682039e-03
-4.110855751596871610e-03
5.944731221746404198e-03
3.335706552318668146e-03
7.005555148801605701e-03
6.143766571259022015e-03
7.092368327737214907e-03
1.258800066577380264e-02
3.413502988318971375e-04
9.318837596851306613e-05
5.692402254758668640e-04
4.744222567314661590e-03
3.410785878857777406e-04
9.545689641256823246e-04
4.612679555452719148e-03
2.800741934040295884e-03
3.601358314860148187e-03
2.120135942076615924e-03
-6.824039829784273254e-04
2.233364387778858555e-04
1.131418222172550622e-04
5.239288524274832029e-04
-1.123526236176995187e-03
-5.693936853163256758e-04
4.674579254100151397e-03
2.205082814541898476e-03
-4.780962311713170612e-03
-2.995013530199255522e-03
9.337998608167935198e-04
-5.001215954676556386e-03
-1.508927814739391372e-03
1.747172518778272688e-03
-9.289120373674497914e-04
1.155514659865731130e-03
1.042923995977673235e-03
-3.419822360217396589e-03
2.794523561351994765e-04
-1.416418818673445784e-04
-8.209985597435603966e-03
-5.794918631951606093e-03
-2.329210459269665662e-03
-5.372323966089421164e-03
-7.670119697691310523e-03
-7.707634623844679574e-03
1.374531703363028861e-03
-1.872848732613552163e-03
-2.003145403968836693e-03
7.865263501496074644e-03
3.941404070467979456e-03
2.852283061413857235e-03
5.899026131218758004e-03
3.578548514820406763e-03
2.771523811021131024e-03
-4.899867733322541170e-03
-5.711109282316084376e-03
-5.828557649330669364e-04
2.509830371584045872e-03
5.058178355642274290e-03
1.102564362802082795e-02
4.475018272911494496e-03
4.930807713434100584e-03
3.681427617603003164e-03
-6.844087147621215979e-05
1.391938686519063068e-03
9.588018564025739760e-04
2.761282901263623947e-03
1.635993793086568939e-03
-8.917833306555359883e-04
-8.352551365732411041e-05
1.375275867593968694e-03
1.989645731625788987e-03
-5.456477200091393483e-03
-8.297728533059335262e-03
-6.163791587239923417e-03
-4.311287146029124141e-03
-1.205867252118124127e-03
1.250532358393299684e-04
6.587681170640032231e-03
9.141936326774655758e-03
4.878769408476691521e-03
-4.959250142012057829e-04
-1.169477159807456694e-03
-2.113996523085569148e-03
-4.319756339947106172e-03
-3.987046741433023650e-03
-3.232129811591013830e-03
-5.288872984209619203e-03
-4.870726385083661708e-03
-4.382738960328470997e-03
2.042904614600978951e-03
1.060239208277807691e-03
1.467148748076353183e-03
3.190024163725696266e-03
3.202391311930855022e-03
2.648905899410180891e-03
-1.604150844148455714e-03
-9.067725362733758290e-05
-5.786384455039292373e-04
-7.183978584638959358e-03
-5.836822025053502866e-03
-5.023530756049420128e-03
-3.734269814750638180e-03
-1.927528397624561499e-03
-4.607863764434961748e-03
-2.252958234542935259e-04
-1.543299589078200428e-03
-5.529967455301672448e-03
-4.622445076796076642e-04
-8.705886335938335880e-04
-2.181193297057885776e-03
-8.602009801869970359e-05
9.027575997792456003e-04
-1.555721594722360424e-04
1.628802726228684335e-03
2.392478902288818279e-03
1.139126833079369449e-03
2.834607430612619619e-03
1.910344176685780824e-03
-2.503302849029222688e-04
2.672903081026813208e-03
7.428697235509526108e-04
2.576343991000573305e-04
8.939476745158388788e-04
7.686819814548062147e-04
1.533443834937980735e-03
-5.124044964890392753e-03
-5.513113660712764923e-03
-4.212562981564538407e-03
-3.393891453875964598e-03
-3.162283987269909162e-03
2.625052526313548088e-04
-2.426388105372122295e-03
-7.814816446784466882e-04
4.525479811012371630e-03
1.955665521483590345e-03
1.902068906378099776e-04
6.626714801921269318e-04
-6.894703388826940119e-04
-1.741024640462520128e-03
-1.936923759426245964e-03
-3.773419825832374785e-03
-4.009213889138296162e-03
-3.376455503941392516e-03
-6.775120580383172221e-05
-3.862151477073995218e-05
-2.499600997269318600e-03
-6.115349648826768529e-04
-3.215056843589273215e-05
-2.340940851033331167e-03
4.372272084064049089e-03
6.236193665681224671e-03
2.122300119313856245e-03
-4.422098147439297057e-03
-4.488244427089053967e-03
-6.283353631886687274e-03
-3.747534420404132795e-03
-2.870769633842575660e-03
-3.759690470006405317e-03
-3.425706974094576852e-03
-1.608301937318873907e-03
-1.925334100064504759e-03
-3.917557746808600534e-03
-3.252292099341004550e-03
-9.442157888756013296e-04
5.038989018405038789e-04
2.173400849116368880e-04
5.536545990147903070e-05
-6.363098916858992132e-04
2.048306021597235457e-03
7.461898546920857356e-04
1.497986959948269508e-03
-8.584013485759430222e-04
-2.560509032352371959e-03
-3.125166649377713463e-03
-3.158906537795314311e-03
-2.891532405475093648e-03
-1.729431648639531433e-03
-2.479010231905819008e-03
-2.615705741543128838e-03
1.039001689089071728e-03
4.425192722222591857e-06
-6.441036213432805744e-04
8.093670908103186472e-04
8.014939716722888725e-04
-1.878024493531859967e-03
-2.694353493220645775e-03
-2.438926106302021052e-05
-3.193651163279112278e-04
1.739711650730906998e-03
7.315679119380651802e-05
-2.027152839312384785e-04
2.812654713971482132e-03
-1.069263333896492877e-04
-3.413681659510485727e-03
4.792045436965253029e-03
2.360661587667995439e-03
2.551803490028971993e-04
1.724034471305627711e-03
-4.745793438278216665e-04
-2.931093719177754308e-03
-2.916209921872612871e-03
-1.523606665677796354e-03
-2.645584076404106436e-03
-1.279143460779027727e-03
6.969652749377387192e-04
1.789276372241379665e-03
5.564055970434422967e-03
5.049279146051744750e-03
5.127970604240241967e-03
1.146811168287713983e-02
1.088090432596096856e-02
1.152740129533806612e-02
6.737968379819461034e-03
5.943379908710441466e-03
5.773171246191964937e-03
-2.558518143100014988e-03
-1.596175687610451891e-03
1.442010839340299166e-03
4.189534392626723634e-03
3.745179267503079105e-03
3.006701625339391459e-03
-3.142648484740235421e-03
-1.855064284135417253e-03
-3.405520718257919275e-03
-2.393337139231700109e-03
-9.865615662081364773e-05
2.248525035710736367e-03
-1.830039550910199939e-03
-3.342491956105432191e-03
-1.709301531957739670e-03
-8.361980308489746529e-04
-2.173629891741358979e-03
-3.210413058840534700e-05
-2.836269677251366628e-04
-1.413061896317685453e-04
4.330662219919435081e-04
-9.617320333404765116e-04
-1.933466029491223486e-03
1.385935408301584143e-04
-4.002299075431290515e-03
-1.909715797570902315e-03
6.696007815623018149e-05
-4.400926798182376413e-03
-3.895585998524636259e-03
-3.080515347794182592e-03
2.539376952131688469e-03
4.525153857040505045e-03
4.364891984326980251e-03
5.922339635306375638e-03
6.586985721873423946e-03
4.592893776826969740e-03
-2.638752307159347721e-03
-3.872805611536362779e-03
-5.403593375261769513e-04
-9.988172111951101623e-04
-2.103478544273864898e-03
1.341463208719931516e-03
-3.476936872211777978e-04
-5.332694287463368883e-04
1.752551980343766214e-03
3.483332593327169630e-04
-9.181776667485175639e-04
6.380174908547392876e-05
-3.022100090460894638e-03
-3.998985860461467742e-03
-2.800272350566472904e-03
-4.786114104664134297e-03
-5.349373426511616972e-03
-3.581964955046211367e-03
-6.371191005679462983e-03
-4.738701994829854457e-03
-1.894140902795893918e-03
2.761546054298985153e-04
5.580686866993593738e-04
4.354181863553029043e-04
4.217700236603732708e-03
4.816103961604021634e-03
2.594552160773274437e-03
-2.471295549534821816e-03
-1.030644542177271659e-03
-1.413150009248996487e-03
1.045739215449759986e-03
-1.966057206773954788e-04
-1.962697825931776811e-04
2.565231889788832306e-03
1.189127823429843734e-03
-1.341172954357966419e-03
-6.310502290073325988e-04
-1.865616902706444596e-03
-2.666892997916966643e-03
4.763055999216572202e-04
-1.898147449613732298e-03
-3.905186812449267311e-03
5.967148978347503081e-03
2.720447579525072431e-03
2.440129487418831453e-04
3.354125164980806262e-04
-1.671452645505265263e-03
-2.493004719531906766e-03
-1.446664624516367939e-03
-3.139741581600601593e-03
-3.810248805356415257e-03
-1.561935383599959712e-03
-5.204878585389118711e-03
-6.420967218005943673e-03
1.612039819609011092e-03
-2.203894861373754521e-03
-2.505832323020408970e-03
3.411411347310553625e-03
9.528660161727137970e-04
-2.077226194394379225e-03
-7.694116386704344737e-04
-3.069219896795271924e-03
-5.497048288638002426e-03
-3.954572965342476043e-03
-4.269302954057644511e-03
-5.314800250693258420e-03
1.983275510174806102e-03
-7.483015401762425391e-04
-4.086791059469071369e-03
4.590302461098762568e-03
2.954705872298232089e-03
-6.507962525378146697e-05
-2.187655684294432037e-03
-3.220010051274225572e-04
2.916048282420411353e-03
-5.206747399188083048e-03
-1.205136231416150446e-03
4.684942378890476385e-03
-4.462542326823875152e-03
-2.339463537103149242e-03
1.936806003791758258e-03
2.949286022991174684e-03
1.424928574651044850e-03
6.309174689764903907e-04
3.828849674177424445e-03
2.696961204248580612e-03
4.254668493058405380e-03
3.950246150318765387e-03
1.602204319121778133e-03
2.361211279108468321e-03
-2.687967176228489574e-03
-2.425823732252265462e-03
-3.902358399407943219e-03
-8.547496756013353179e-04
1.284977998248679545e-03
-1.813585674348551762e-03
3.748924977527191295e-04
2.010248674458175577e-03
6.427030135012786784e-03
4.593036131644860805e-03
2.276606471946601186e-03
-8.388950855516162305e-04
4.956819710219740986e-03
4.525768598421743907e-03
2.648597450648638996e-03
-2.878994926472571792e-04
8.081949130263363194e-04
-1.062129908198928803e-03
-5.685735561744927405e-03
-5.778325497836500277e-03
-5.112453785707799479e-03
-2.259235447500645977e-03
-6.479766869508794477e-03
-1.159863301051053570e-02
1.704826714017632127e-03
5.463479069871473659e-04
-2.397946657063425129e-03
9.439300872400260183e-04
-1.243667136354425313e-03
1.463462975177565878e-03
-2.375465323676494676e-03
-3.487522718796699089e-03
-8.733130572518409823e-04
-1.945157446262166853e-03
-1.676632866211165244e-03
-1.009098736688812919e-04
2.702563426832071914e-04
-7.440979145038310481e-04
8.496203940538100225e-04
-1.271321940345814406e-03
-1.639164318755937906e-03
-1.310373687932781363e-03
3.376828287415085342e-03
8.864146425363344422e-04
-3.849472559992603770e-04
1.770204399643545085e-03
-2.753662176890894439e-04
1.361426754269351187e-03
-3.308061628984427203e-03
-4.247490724476058604e-03
-2.591137332669259195e-03
-5.404958101128117670e-03
-5.609914083008170349e-03
-4.881083210438625329e-03
1.542872976592919417e-03
1.704865768175969735e-03
3.320021482825178099e-03
-1.384599731978937128e-03
-8.940608922661950810e-04
1.224013131171087588e-03
-6.161266225913646826e-04
-2.152511763291727693e-04
1.479525685319215420e-03
-3.082978652670061224e-04
-1.636463615223127761e-03
3.631057478526734521e-05
-3.355800636588494520e-03
-2.231740596805904461e-03
-1.510819396674957093e-04
-2.661188438974127976e-03
-2.434180357836280770e-03
-6.739700257950704794e-04
1.235702739879145128e-03
1.342765616685476010e-03
-9.772728159957023812e-04
1.835824968383809996e-03
3.506060425954223795e-03
1.724960699628438508e-03
4.111605758279139947e-03
4.935337873996188500e-03
6.024002672034920857e-04
-1.836470928984213109e-03
-1.498413553988994415e-04
-2.120765915676961759e-04
-2.231577147921010723e-03
-1.094441800034536699e-03
-1.194650310440062337e-03
4.480850409994878387e-05
2.282725197827858033e-03
-1.210041023875750793e-03
-1.000687109831805647e-03
-2.566921825899608905e-03
-1.528254185472025049e-03
2.282207007004732370e-03
-2.090420473036161408e-03
-5.232241085880605033e-03
3.026662797422464708e-03
1.053882067731887499e-03
-3.994509940518425548e-03
-8.460031111215739761e-04
3.503094479596038555e-04
2.488465999537957645e-03
-1.387277473113095053e-03
-1.486970203446009390e-03
2.350847944796050949e-03
-2.745551327321849033e-03
-3.288211027096618871e-03
-7.035991500816975684e-04
1.631934056081134343e-03
1.998607401297937056e-03
1.845764733830801852e-03
-2.625636377909291736e-03
-1.815734617357318966e-03
-4.602024735476293281e-04
-3.840477929284883980e-03
-4.423367389885609138e-03
-3.056382047617082001e-03
-4.587474771282592828e-04
6.743468261005118201e-04
6.345526517312976515e-04
-2.708632973402829683e-04
-2.833002628153900252e-03
-2.397743310257513614e-03
-1.940047860546346287e-03
-3.314552454207621724e-03
-2.191838939124994556e-03
-2.797659338083634088e-03
-3.255107806404573898e-03
-2.585694460694787150e-04
-2.180775522863119802e-03
-5.720977841368629635e-03
-4.898271017845465605e-03
1.011055386182778534e-03
-3.964131108982998052e-03
-6.547945063738824442e-03
6.656113149118600240e-04
-1.275268218400785929e-03
-1.136819660106579274e-03
-2.760281615654046252e-03
-3.679367231315147386e-03
1.316922732780905175e-04
-4.232013826709471460e-03
-1.775473998924776082e-03
3.622449411664039904e-04
1.702193812843047114e-04
1.810482797361133694e-03
4.635296829241890119e-03
-6.567286997268039286e-03
-2.808456486951164260e-03
4.192336368826423895e-03
-4.356148794897939797e-03
-2.814924892194572894e-03
-1.464984761439944638e-03
-9.541259949292006616e-04
1.121272802360056441e-04
-4.633102081973344616e-04
-3.578124870551410057e-04
1.101756740321167827e-03
2.889538343848434407e-04
-1.173266832837508225e-03
-1.793782564245882444e-04
1.420758458410787079e-04
-1.227474004609932761e-03
-3.190763067105429392e-03
-3.128651526545540330e-03
3.955372852363239853e-04
-2.715824965413213277e-03
-3.593356233378079256e-03
-3.355861508038990131e-04
-2.984148368333766534e-03
-1.262131556696304393e-03
3.923262619808182486e-03
4.804428817399052434e-04
-1.187327294139207522e-03
6.887739625554905980e-03
4.065143001997533444e-03
2.556944452744588144e-03
-3.791790894040926322e-04
5.708779564301978877e-05
-3.192120560720234680e-03
-3.105109390312527518e-03
5.036796918229355033e-03
8.597618828438860494e-03
-2.813544619730259152e-03
-4.363044804217880066e-04
-6.350051106574417696e-04
-1.044874482375375644e-03
1.200588772473796563e-02
1.513676539682475529e-02
-4.762566631266902661e-03
-1.116831120841332153e-02
-4.151428935519212854e-03
8.668533672692410640e-04
-3.909288635361670740e-03
2.640940024466445946e-04
3.781650965354066765e-03
7.162307925775261708e-03
4.406210273170956156e-04
-2.874998005338093819e-03
-3.405904802655764299e-03
1.905489980967040248e-03
-4.140943205763794252e-03
1.169288342105038493e-02
9.579044765746684911e-03
1.780180138220005016e-03
1.513301419877490818e-02
9.687005042125929749e-03
5.202714941536777139e-03
2.615377308684253832e-03
-7.984607990967883609e-03
2.921510149650933131e-03
-2.988410610375919017e-03
-1.230030127052772829e-02
1.703902444981256247e-03
-5.042316356642973646e-03
-9.006619569448670939e-03
4.229210497359468454e-03
7.373926675448260089e-03
8.036169466470927114e-03
6.146060499057266497e-04
1.151394102119347729e-03
-7.228225635314747656e-04
-5.309550960050076450e-03
-3.887603033154559285e-03
-3.601585663383841378e-03
-2.822614774274005787e-03
2.188407930763344722e-03
-6.243219324788078749e-03
-8.630500913716098593e-03
5.316722044101543886e-03
4.056114441768364498e-03
-9.337884674738469379e-03
8.354166329207454375e-03
1.267400261932635080e-02
-8.460986756565544789e-03
-2.148003282566087174e-03
-1.534812129995719032e-03
-3.026303726831648406e-03
3.233137856014866272e-03
1.730504853559282829e-03
-2.721457495107997612e-03
-3.545578675016845555e-03
1.171244354207650945e-03
-5.168749440441483024e-03
2.168556831329649466e-04
5.743539238790071680e-03
-5.976586845016444716e-03
-5.657526563813108575e-03
-3.384195474777678975e-03
-6.534228745200509371e-03
4.568649604706559930e-04
5.265642369188322991e-04
2.745025729306785865e-03
4.695844113074210818e-03
6.355469541417324911e-03
3.429503541288659706e-03
6.924771931008109720e-03
4.695909867076621287e-03
-3.907050287774484383e-03
-6.087373357215760533e-03
-9.811683951494171510e-03
1.115771701844774262e-02
2.996105353879567786e-03
5.597646698597994082e-03
-6.472598603343929918e-04
-3.069020780603342376e-03
4.527038336671267843e-03
-7.537068456313731658e-03
-6.109509408233194591e-03
1.088900006901208622e-03
-4.431258650300277588e-03
-6.919727514421178047e-03
-2.952374705550109019e-03
1.397132654483502047e-03
1.088859080118780931e-03
-2.955247206428576745e-03
7.316218387003452055e-03
8.426489969909542119e-03
-7.564120127418532888e-03
4.346873725821112644e-03
3.741077695423825934e-03
-4.773178276547554270e-03
8.115553866854459050e-03
1.009809177802146671e-02
-8.056513212515460914e-04
8.156936012695788912e-03
7.186559459298060004e-03
-2.559847121569268618e-03
4.584427684310572911e-03
-7.378612495465348324e-04
1.213414700732505166e-02
3.406022753134313030e-03
-3.392432688801208691e-03
-7.463633437395656703e-04
-1.088353808061603761e-03
3.945160494119613788e-03
-2.098412562975474419e-03
-1.252026467761994770e-02
-7.120222144320517178e-03
-5.599305800875292033e-03
-6.981571865192824286e-03
-2.373159984830590027e-03
-1.689697377362726124e-03
-2.203373236667468399e-03
-2.653501072555653276e-03
-4.321668759263372090e-04
8.791488064719101686e-03
8.262353066615848313e-03
-1.964653161449704966e-03
-3.955392528664703443e-03
-1.298314641740853058e-02
-1.101271317410266494e-02
-6.376418122602581749e-03
-1.078321577559918781e-02
-2.360765609579965193e-04
-1.286849787438211273e-03
-3.213325734469197649e-03
6.740835955287781747e-03
-1.138418871602590214e-03
-9.061720067715436228e-03
-5.312588184872725668e-03
-7.252948631813587073e-03
-1.753772110674875484e-02
-1.769404955278720826e-02
4.265883605919971143e-03
2.132566852624079214e-03
-1.356946028255574897e-03
7.494609673417481667e-03
6.887490428456237088e-03
9.372439928226509315e-03
3.797114849286771857e-03
5.901816579229847946e-03
1.294835373774168470e-02
-6.550020043392635986e-03
-7.519099819402633861e-03
-1.866972879364731368e-03
-8.282704099830751412e-03
-5.973220680712667228e-03
-4.877767474019748667e-03
2.979579576701760994e-03
1.001998347979810369e-02
1.184019001123243035e-02
-4.558220477623318480e-03
-9.071003583828856145e-03
-8.577570975405171202e-03
6.039854566577368238e-04
-1.148963796907085267e-03
1.247499118280095574e-03
4.595466900075967191e-03
4.935152584932095757e-03
8.854758328316201382e-03
2.336963508053018878e-04
1.442366578272693016e-03
6.438265354348560350e-03
4.339034255724531254e-03
2.131115095764173767e-03
2.249788105729320226e-03
7.491145894924560941e-04
-2.329106243703207846e-03
-1.362977771693122840e-03
-1.840629080600306037e-03
8.480996987463833986e-04
2.841890695655693334e-03
2.663823264650438775e-03
1.590645073619222820e-03
-4.060965833075026103e-04
-1.031997374454997818e-03
-6.290351048051459094e-04
3.493322037354304639e-03
-1.384740651799974426e-03
-6.012690368004526380e-04
-2.209385999568238418e-03
1.780920209685271649e-02
1.022610855035739619e-02
1.468667162422132404e-02
1.446818700430701175e-03
2.148424752164007634e-03
1.625455886477455069e-03
3.882176463795890785e-03
2.371913116086441040e-03
-1.501791249543291346e-03
-6.566947123348036708e-03
-3.541499045893107059e-03
-7.158462333448759366e-05
-1.008446731146545212e-02
-8.111815378985491945e-03
2.133570787444376629e-03
-1.420109187395140983e-03
-4.417905503738741441e-03
-1.202349301994502448e-02
-2.771675080819522053e-06
2.045236894500901924e-04
-8.792600290280481318e-03
-3.870396159750760052e-04
4.494537895758531423e-03
6.289293730471473727e-03
-1.478709561068519912e-03
1.906101594870898090e-03
-4.821528313015378646e-03
2.090802554011013392e-03
2.309794225407825648e-03
-2.482172071044772867e-03
3.344585128150768388e-03
-7.045361212576989850e-03
-2.669473533192562916e-03
-5.386639054421618611e-03
-2.451564938675650056e-03
-9.852767323350324503e-04
-5.848363659343052030e-03
8.449192725525064840e-03
5.476556974840670472e-03
5.741986902032151369e-03
3.751869825272947760e-03
4.027572459588328428e-03
1.120636311739548960e-02
-3.955391342381155487e-03
-1.199247594187531282e-02
5.233063803030455104e-03
-7.746315825173019903e-04
2.948731628772266033e-03
-1.392294566499493232e-03
-1.766313500350991149e-03
-1.468786299184230261e-03
1.125748685426908834e-02
1.316052292298124961e-02
1.008982456797106499e-02
7.923100205785890693e-03
2.843351858049448806e-03
2.427845029651715635e-03
4.793407969902340263e-03
3.921868663987656753e-03
-2.539866124086998488e-03
-3.859228994831192822e-03
6.906236928437079446e-03
5.066163536944767558e-03
-1.738838664957486572e-03
5.011680414530526352e-03
1.694140856597736982e-03
2.707659661684804452e-03
7.950244407007485414e-04
-1.822013071809813018e-03
-3.448610501999206917e-03
-2.593128391260621224e-03
1.024738742677640821e-03
-8.475070145385801129e-05
1.115319558343667991e-03
1.456140008148600149e-03
8.609044433702950014e-03
8.987136726322286773e-03
4.776852874573974707e-03
-8.745005577494977325e-03
-1.651135027516490925e-02
-1.320414595844593940e-02
-4.406216882465012648e-03
8.188513694476769189e-03
6.876849465025026281e-03
5.040573197702800760e-03
3.111471937391065493e-02
2.625995902197119161e-02
-8.383190789853627381e-03
2.522151182386229203e-03
9.828452408392211650e-04
-1.449829064404428106e-03
-4.397452619607734522e-04
7.262495672343881412e-04
1.784226720873459968e-03
1.919694709647413588e-04
-4.861745020004717608e-04
1.026668119156863308e-03
-1.844183832856747217e-03
2.637799613250358180e-03
9.059027618623028549e-03
7.943866600450594576e-03
2.515156453891979720e-03
3.201646572132196920e-03
1.144261899450489672e-02
8.353527321468956837e-03
-5.416719108188675427e-03
7.146164739258235345e-03
1.011038031531297579e-02
-1.213512001400162896e-02
-1.476449564369972317e-03
1.523947974095864362e-02
-2.131875668415760330e-03
-4.046287379664801308e-03
3.101417311106479096e-03
1.944925935319308892e-03
1.275839917430066561e-03
2.172675899585422427e-03
8.504203909771447089e-04
2.321598138841591673e-03
1.854908784018350623e-03
-7.999987057722139638e-03
-1.236063941931577793e-03
4.621268738251821211e-03
7.038863531195568455e-04
6.989957741212413263e-03
4.365837229750426166e-03
7.841174939353352065e-04
2.867853082374725599e-03
5.723358960063137284e-04
-1.590842700304787548e-03
4.780301280120055661e-04
-4.495716464434908362e-03
-1.806113364362976130e-04
-7.563078503454816887e-03
-4.521432116495622752e-03
-1.292514241562007409e-03
-4.501534059039749396e-04
5.283141198899075908e-03
-1.849284496065183806e-03
1.154543815236009187e-03
7.126534837297012447e-03
8.934901754430239068e-03
9.086035840427626048e-03
-7.824027894033028924e-03
1.062331689899114438e-02
1.556556935012139847e-02
-1.158392171669275479e-04
9.640659899505245670e-03
1.422285167433452562e-02
1.011926702963602230e-02
5.860297614118052651e-05
1.617652699537938232e-03
-8.971980634332610153e-04
-1.928367531747149409e-03
-1.472820188375833063e-03
-3.724202025023303116e-03
1.233131992232812781e-03
1.019323259283549206e-03
-1.445479904119551092e-03
-5.277542442013111526e-05
-2.152289738869620807e-03
-2.487809509357297340e-03
-7.039063656703699800e-04
-2.494233982186875014e-03
-4.160603922398010100e-03
1.860499453423400059e-04
-4.888718719127045469e-03
-6.760623423577250858e-03
-5.441303147233520279e-03
2.159507419141095709e-03
7.958009860212262795e-03
-5.550804467261174525e-03
-1.083768937693359953e-03
8.226491232771231815e-03
-2.782033650824754928e-03
-6.459658604634244648e-03
2.801652135165861972e-03
-5.196486695300118856e-03
-9.445407019336085966e-03
-2.235621873593092966e-03
-7.147256549181756763e-03
-7.609520307585876733e-03
-3.676095785604330604e-03
4.993447949680691108e-04
-4.417301518107743553e-03
-3.942347233523566495e-03
-3.684441907330529824e-03
-4.809337239541511093e-03
-4.281084552790946803e-03
2.442037380361610031e-03
-3.531027468871233890e-03
-5.225866927683660811e-03
6.615789009478459208e-03
1.146218530666519818e-02
1.017580486435400167e-02
-6.276046146750650229e-03
-5.384104993485541680e-04
6.916707047894603451e-03
-6.397550239924474497e-03
-8.304059530851239405e-04
9.371117005431672461e-03
2.515873068132269859e-03
3.645321652098383516e-03
5.357471650208063541e-03
-1.318031512473218959e-02
-1.064016423178344196e-02
-2.305889396499676176e-03
-3.144261296276773272e-03
-1.051617997779569214e-02
-9.213369262982520208e-03
9.570440425749981647e-03
9.080909646151985939e-03
1.307491939060431534e-02
-5.015973011231418532e-03
1.240202036333074498e-03
2.747458559866825575e-03
-4.325578066911781299e-04
3.275241379834036102e-03
4.389138848047047410e-03
-2.258245412117314537e-03
-3.479036701364157311e-03
-5.519345276548312182e-03
8.055521093338318794e-04
-2.991767720595383921e-03
-3.186367893481290101e-03
-3.042762617903517919e-03
-5.271592910464715197e-03
-5.744810448166915405e-03
1.941396304923121438e-03
-1.590049651440948123e-03
2.019036597441078041e-03
1.041598718972312158e-03
-1.712832835223795577e-03
-2.720504888913890737e-03
-1.416885267431161957e-03
-3.619020212694533129e-03
-4.853208176209950625e-03
-3.019506987243471795e-03
8.273008202901382209e-04
1.131441434410398452e-03
1.500349894121388416e-04
-4.302531917865237872e-03
-8.008620047153735058e-03
-1.720181025236309884e-03
6.357959325018686710e-04
-6.682081931960473726e-04
-3.548615361190452736e-03
-1.242680135632258159e-03
1.079685235565467673e-03
-4.811323271129338761e-03
-3.211280981994735478e-03
-1.299133606823830826e-02
-2.415209303229943084e-03
-1.055940835617653418e-03
-1.285497638267006984e-02
-7.986019026713630023e-03
-8.932805035358515637e-04
-3.905893468322504600e-03
4.646431428627231276e-03
9.112083396361967541e-03
2.426465015148849234e-03
2.005383819610195590e-03
3.035292005630878774e-03
-1.839435688669369736e-03
-2.611122502429104406e-03
-4.433356753504545493e-03
-5.645136210341245540e-03
2.863944291843876968e-03
4.470028880690311499e-03
1.432508536200270037e-03
4.728920086664688944e-04
1.628640414540249775e-03
-1.539914881514830181e-03
1.224968076694285578e-03
1.574797931059757680e-03
-1.481477836695316687e-03
1.289833320927720808e-03
5.735283712805186278e-03
5.753553173614063022e-03
2.032598985779381345e-03
8.932464568269800993e-04
-1.408410856056722656e-04
2.496059849936974225e-03
-6.786791974569203467e-05
-5.032138934112116019e-03
1.184697179079411897e-02
8.462753667145501979e-03
3.964748921345825731e-03
-2.211939509381238584e-03
-6.945134067576578391e-03
1.409339013425259073e-03
-8.642136213932505090e-04
-8.569619102707100311e-03
1.160497897974644430e-03
-4.366371954959156858e-03
-6.927961332610995011e-03
-1.096757083171088359e-02
-5.635347186872978649e-03
-4.620838674560813833e-03
-7.653758828190803352e-03
-3.851862118375938993e-03
-3.021965264285510298e-03
-8.060140472143284898e-03
-2.286520117575390615e-03
4.594232289553051228e-05
8.306708735874094836e-04
3.387427584947404896e-03
4.410810442494159621e-03
8.378733303653970862e-04
-3.966849287712862805e-03
-6.451683555561790739e-03
-1.013239094964628675e-02
-1.258196998525014203e-02
-4.718350066264927201e-03
6.099570177173266848e-03
-8.992493816072194904e-03
-3.583865043203525273e-03
4.731059146077671793e-03
-6.971949934197844805e-03
-9.874240144620773096e-03
-5.047745710763279145e-03
-3.743295615995222494e-03
-9.596573930991304400e-04
-1.027181214318598516e-03
-4.075180143100644477e-03
-5.448746801236443484e-03
-1.224010836110066584e-03
-7.169600514591210720e-03
-8.672191988839533794e-03
-2.497416009481776607e-03
5.720255428906528827e-04
2.349633787878504469e-03
1.293047063834052812e-04
-1.075700866732578250e-03
-1.957047324852231440e-03
-2.969677480077380187e-03
1.142862860399032669e-04
-5.038705810037021060e-03
-3.209600847479162754e-03
-2.114245515044309125e-03
-6.181746595016183142e-03
-4.297670707523108639e-03
-4.930095857268642148e-03
-6.768804941280121348e-03
-3.572057796801829388e-03
-4.091827033228697709e-03
-5.271188536418966973e-03
-6.399154732706782180e-03
-3.687862911757565799e-03
-4.627815157607352917e-03
-4.823521729598038987e-03
1.883494064601367538e-03
2.298074986999121803e-04
-1.160022116229757943e-03
-2.574804480044968168e-03
8.242248341420579721e-04
-7.185355244569701337e-03
-1.803809225192493093e-03
-3.004717997633063464e-03
-4.135442659225115059e-03
-2.142997540454426181e-05
-2.348596528806644410e-03
-3.667977064812092975e-03
2.700457133772060994e-03
1.147153189735399849e-03
-1.317014709970731976e-03
-2.039244992154806615e-03
-3.919438095918406271e-04
3.217705771980427891e-03
6.151191299229111405e-03
4.342422862455165740e-03
1.025681081755704495e-03
5.873553312493815654e-03
6.973026044893707899e-03
7.981265332294250683e-03
-6.366958946918428036e-03
-8.754962122928443497e-04
3.834208099006885997e-03
-6.832395217934018709e-04
4.965071833555064103e-03
9.946310700037225977e-03
-2.421013577277982866e-03
4.178162636354712544e-04
8.878953037194593952e-04
-1.731081295479946266e-03
-1.762337132601039791e-04
2.109554891912909444e-03
-4.116732161072386882e-03
5.540015466532258702e-04
2.307835369103300276e-03
-7.904607854597402519e-03
-2.719518015532722873e-03
-1.679972925887638702e-04
-4.534109585917205955e-03
-4.135630072254623457e-04
1.156604019763022911e-03
-2.450605561371834232e-03
3.920593616819369881e-03
3.174275987710923740e-03
-1.281986970292102457e-03
-1.770711372318265527e-03
-7.842265017207801113e-04
-8.202787370463737390e-03
1.390924461498335403e-03
-1.007853980665138378e-02
4.723277531419914051e-04
1.253204377186538029e-02
-8.108168289645457591e-03
-5.913143774562310169e-03
2.158800829683159197e-03
-9.569172883839051347e-03
-2.687815885573840036e-03
1.686392589309423842e-04
-6.340224432842180707e-03
-3.498349123162845689e-04
1.989448717927987022e-03
-3.714900906392802106e-03
-1.080351798007880273e-03
6.318610816107796038e-04
-3.778108606583130153e-03
-2.958133684976738467e-03
-1.999936713234375975e-03
-4.953397730378394058e-03
-2.814645538420528816e-03
3.208958894808147319e-03
-3.279414308878969304e-03
-5.619473884211427864e-03
-2.631860898470946702e-03
-3.292355210518106267e-04
2.988191303088838600e-03
-1.279293420316167428e-03
-1.342034092321736476e-02
4.649374709690180275e-03
7.992116245252695386e-03
-1.548983819248019207e-02
2.713740863821145766e-03
5.598649005990264521e-03
-1.147461492833696563e-02
-3.741405338171861772e-03
-1.735647502928499078e-03
1.049283999238757739e-03
-7.221568028194791378e-04
1.549873791701788118e-03
1.277801384281073609e-03
1.220954720449318319e-04
7.991946953926751165e-04
-1.311360492381715174e-03
-2.907156999039980233e-03
4.444958955781922079e-03
9.070529259914333897e-03
-3.633746962232388151e-03
3.171360881972847966e-04
4.019371469720540123e-03
-2.205860977836965504e-03
-9.904846906233345880e-04
-1.599256525952867485e-03
3.859616471871272266e-03
4.707794419433135313e-03
-2.723901070217905635e-03
2.659379714785592170e-03
2.748502622046023521e-03
-1.971432257824052973e-04
1.624973469020440150e-03
-8.350011060787979099e-04
4.554582020049055893e-03
-9.378592889612298155e-05
2.644218029081427633e-03
8.954307924195625953e-04
-4.881361203494263834e-03
-4.265628654209963587e-03
-1.457677735592953841e-03
-1.377697639307697485e-03
-2.593761147048153151e-03
2.772156369685537227e-05
-5.251585085910157914e-03
-2.697428906047281885e-03
6.701181603483610805e-03
-4.767532329151659594e-03
-2.343446878889742999e-03
-2.343512095816650039e-03
2.241425904104188665e-03
-1.738557382222954842e-03
-6.511146636431723936e-03
4.353208965274197283e-03
-6.771333429351130209e-03
-3.376806131655855046e-03
1.087472600203086628e-02
-7.076435369791799455e-03
-6.212204287033587687e-03
6.053710111898410150e-03
-9.827970465320664054e-03
-7.831195750476225431e-03
-7.555820685161199028e-03
1.971824127477193357e-03
1.177967221677019005e-02
-4.812459747453596247e-03
1.391446537768610851e-03
3.092263884231817150e-03
-5.716888544274565352e-03
3.551273000202972378e-03
-1.580767981648063900e-03
4.803834183969265051e-03
-2.273854282489535302e-03
-3.194156924767027356e-03
3.435780412514199706e-03
-4.140832883259728051e-03
1.847247867158985672e-03
3.428243653577866396e-03
-4.245577630499539241e-03
2.436556312830295400e-03
2.579195616771657023e-03
1.154931671423048119e-03
-6.910903333849294054e-03
-2.444880674096454407e-03
-1.095526663439433911e-03
-7.137622254194723147e-03
-4.434848741454567797e-03
2.530033529336001680e-04
-5.999972045837000112e-03
1.010477655362244150e-03
2.182867920841989693e-03
1.762677305909680437e-03
-6.471188543447096899e-04
1.897632601546639765e-03
4.014114690004145776e-04
-9.519055834259398984e-04
2.685318895325342851e-03
6.483645544578050113e-06
2.474137737388019086e-03
1.225973696981015213e-03
1.784324894527593817e-03
3.170348997040732010e-03
-6.221774359774675774e-04
-2.036191757296083177e-03
4.376590937845484947e-03
-1.538330509257571522e-03
-4.860297613141686263e-03
8.977612181822653987e-04
3.868990780213299886e-03
1.680028826110701895e-04
5.852285019924033382e-03
4.215069174816067979e-03
-2.770528218879650915e-04
1.505375964341725600e-03
-2.230357887174349261e-03
-7.248715426157416840e-03
-2.438964680773935984e-03
-4.316104396887604673e-04
-7.363344400847199149e-04
-2.401093415831996418e-03
3.820025025268403368e-04
-1.160145730643768591e-03
-2.381056821650696150e-03
7.204577882552098066e-05
-3.415594069361360067e-04
-3.459122845903320285e-03
-2.676356567082557522e-03
1.554859478059994167e-03
-2.416391670780311876e-03
-4.661642309049088967e-03
-6.818471746922552014e-04
-6.489228977020677566e-04
1.299719157310458891e-04
2.414076924348467802e-03
-1.109499105983430267e-02
-1.437107476070742908e-03
1.278683971542770963e-02
-1.031034735157066243e-02
-3.637991061688290468e-03
1.244771851261118265e-02
-8.429795676720024111e-03
-2.872375584842358932e-03
8.168330336625556978e-03
1.257505513048898628e-04
-3.575714918264009988e-04
-3.427338910739954631e-03
-4.832927068760165847e-03
2.279306372131632407e-03
-7.210627718278616975e-03
-2.831763731931906738e-03
2.607990480657893829e-03
-7.071048951549967210e-03
2.258235510205323232e-03
-3.952297223816667038e-03
-6.715503536040091058e-03
2.976826742292749094e-03
6.563352672802515034e-04
1.540679341191283219e-03
-3.969193747947564327e-03
1.573247242897608713e-04
1.598843182433550383e-04
-3.893037192834330768e-03
-3.767892840818326105e-03
-7.214439045479136741e-04
-9.363332810426075025e-05
2.813985188631009434e-03
6.275117942961135585e-03
-1.874864281627312574e-03
1.480265175115702461e-03
6.519639607313788485e-03
-8.476823443647056242e-03
-1.109889953071514605e-02
7.661872043305944027e-03
-3.139754873129232786e-03
-9.854437857521025287e-03
1.623848079367104513e-02
-2.000739881276721380e-03
-8.632439666241194590e-03
8.589693038348760606e-03
5.832246153375942287e-03
3.421532331878431987e-03
9.276122781530464620e-04
6.117740863340506707e-03
4.384228589867347130e-04
6.523173478529105613e-04
3.691119565357963653e-03
-3.337269903566012288e-03
-2.623581302830574249e-03
-8.897441377154446636e-04
-3.345512914101046297e-03
-1.508588522892767439e-03
2.790963613432804590e-03
-2.489095250935995812e-04
-1.817623021302267440e-03
5.222325295778445023e-03
3.060541530208492952e-03
-1.411454386510002526e-03
-1.177439180443916713e-03
-1.880343980525923074e-03
2.308559572399651941e-03
-2.480768276448026312e-03
-2.581459234950698577e-03
2.730854853453959855e-03
-7.184431873909801099e-03
-2.109944034725900423e-03
5.355097301402429559e-03
3.094498643352610982e-03
-6.554483738834847089e-04
-3.521149710690607386e-03
4.553322674373379460e-03
7.106045104409356014e-04
-2.119583755509138294e-03
-1.408437592358021372e-03
-2.133642775227879117e-04
-1.990419473021182769e-03
-2.151596177153357933e-03
-7.360081282135052605e-04
8.289079931267403882e-04
-2.536705879944966928e-03
-9.139745552373919942e-04
-5.916002411985623851e-04
-1.018053499007385860e-03
4.544940708609063922e-04
7.356364826248064544e-04
-5.011513283826349134e-03
1.256205605625999476e-03
3.612442841854963341e-03
-7.136383814293526320e-03
5.331771797145903446e-04
-4.390976155817100969e-03
2.083506296912162551e-03
-2.206562911938763673e-03
-4.042528818834519380e-03
3.340441900369831192e-03
-2.022280100563750901e-03
1.326481048246959393e-03
-5.013590227073494617e-03
-6.718433753017328397e-03
3.512549824951016579e-03
-5.146716040206868181e-03
-4.441934321964510421e-03
6.928538377187327089e-03
6.163477349173058844e-04
2.505264680312536659e-04
2.550216271257271794e-02
-6.347948230554811312e-03
-3.493592961814217905e-03
2.994762850986223968e-03
-1.111878861520785092e-02
-3.195000030111444077e-03
-9.542002388624779008e-03
5.298115130515787356e-03
1.099470912703173764e-02
-1.604567910828637312e-02
-5.554201711829444277e-03
2.184000387841992727e-02
4.353060209604236487e-03
-1.071719709669168366e-02
-1.300800124287995047e-02
-3.564438642848256032e-03
-1.959317961784125608e-02
-6.588083323646330008e-03
8.868451441683645672e-03
-1.373724088609833485e-02
-1.611967645114732728e-02
2.820442275302615601e-03
3.738675390012668326e-03
-1.144406256684906559e-02
5.367976448938271972e-03
-7.556201047160959403e-03
-4.616471619027182408e-03
2.759162382792027576e-03
-2.914359058793117123e-03
-9.842367650269918944e-03
3.053639935941627505e-03
3.954902340433767705e-03
-5.560604841220242144e-03
4.257662939766045963e-03
8.323097540183314533e-03
-4.202009517865679632e-03
-1.123481019072437512e-02
3.658960278154246761e-03
1.091852311283295074e-02
-1.177814079546558694e-02
-2.375073678094335658e-02
-1.372334610154519498e-02
4.793342324663572851e-03
4.134237272540397176e-03
7.099373381873397455e-03
3.829896588619801940e-03
5.818575489252472178e-03
1.056227161839997514e-02
-4.946047592174584832e-03
5.526331426648986751e-03
2.284343436564604656e-03
2.089872788075492274e-02
-3.534630549398552670e-03
-4.727552084326814945e-03
-2.767997161728525442e-03
-1.065601368997670531e-03
-1.199650226068117546e-02
-1.468449485316444987e-02
1.836182581930645603e-03
-4.292485804631440000e-03
-5.349978216871199843e-03
-1.127108573742861527e-03
2.119041377821821465e-03
-9.278444071796903767e-03
-9.947298754196023593e-03
-6.227153201859787594e-03
-8.615113979307696332e-03
9.741645816988412851e-03
-5.593096899758572861e-03
-1.396129127832087570e-02
2.028805786804249636e-03
-1.460620856106639026e-02
-1.546868990061345782e-02
2.335724612682804971e-02
6.168526979972968789e-03
7.635298649927477720e-04
-2.029662124177327928e-03
-7.829884977623154801e-03
-2.813671047414158764e-03
-2.483149928462450185e-03
-1.227840180101729111e-03
-1.265035848552318112e-02
1.024365373418148787e-03
1.054168943447757493e-03
4.292683548638356363e-03
-1.113398087434152271e-02
-1.357379685328412647e-02
-1.748357268336305295e-03
1.032327194525163062e-02
1.552734703945413824e-02
-2.364135010822342522e-02
-1.775108629532192589e-02
1.928763919011374645e-02
7.829554643458401866e-03
7.414333728201103098e-03
-1.014982368415886724e-02
1.005603803835186140e-02
-8.632915089856856017e-03
-8.179304862734292081e-03
-1.814481702269641586e-04
7.930078317740320293e-03
-2.080845452540444358e-03
-1.133084156936123993e-02
1.607612089554208076e-02
2.393504664516942285e-02
2.903037643782238695e-03
1.728931876479547838e-02
1.293720660594423373e-02
5.726088770500341318e-03
-1.365018579889819457e-02
4.326151254942186587e-03
3.370734589567488115e-02
-1.570922795158685714e-02
-3.232184307013261093e-02
-2.954381989301039808e-03
-5.347911553378139650e-03
-8.224990783207335523e-03
1.587319923258739655e-03
4.242038465767307052e-04
2.363685158768833231e-04
3.898154167871817604e-03
-1.162545254265401513e-02
1.092612411856365168e-03
-2.468855505968784066e-03
1.046388868380258332e-02
-1.313617380375326112e-02
-1.733110852659290255e-02
7.750073587465457908e-03
-1.358259386788771873e-02
-1.395008232632337364e-02
-1.070956309904377499e-02
-1.259794221393960648e-02
1.633598930505096927e-02
-4.503035447840328907e-03
-9.758438495351200517e-03
-9.974240285782613388e-03
5.235768706845125853e-03
-3.623200567337931874e-04
-9.899327261596872068e-03
1.065002534575886298e-02
2.346446363286560418e-03
-1.063288448854654220e-02
9.921152556060127553e-03
-2.979918563205750069e-03
8.795571674081086380e-03
1.916775818277283161e-02
-2.518058489314052920e-03
-1.038539593285155334e-02
8.500678713269529604e-03
1.979239352879217512e-02
7.935556635967606562e-03
-1.040209627534542311e-02
-6.541388348497911495e-03
1.112855588267224090e-02
8.392246523688964496e-03
-7.954136895253358097e-03
-1.028969281341609622e-02
1.762515490235910809e-02
1.564302417105515111e-02
-8.250006541312087868e-03
-4.177236945465131828e-04
4.328903278828577679e-03
1.129521444870276378e-02
2.566607651708856090e-04
5.695990182182134563e-04
5.037654111475152810e-03
3.707868616704319571e-04
-1.046835047748644531e-03
-1.742644686747205334e-03
7.053441993236469988e-04
-4.434260995218713411e-04
-9.277913918661886625e-03
-9.643961937542438372e-04
5.455252104742138418e-03
4.625576765687720859e-03
-4.221405030250249477e-03
-3.796377215728644668e-03
-3.154812658758316020e-03
2.792243108431746029e-03
3.190646238269764269e-03
6.881697484547473747e-04
-9.610466634226100474e-04
-4.058068065544717835e-03
-1.346039720145217160e-02
3.675539027796015292e-03
7.612597513435686572e-04
-3.491261740494485451e-03
4.739228110573601334e-03
-5.737888257066240706e-03
-1.064729054406824728e-02
-9.210110756382741681e-03
-6.568287758328566518e-03
-4.713353525139754585e-03
-7.153835567316567737e-03
-1.399575434454199477e-02
5.117880494302138282e-03
-6.604361411099198519e-03
-5.451914318703045921e-04
1.057760144760351746e-02
8.744325059335903219e-03
-1.100703938922165896e-03
-6.113736742824726032e-03
-1.150091946749037114e-02
1.636777566855517453e-03
-2.877132971379869029e-03
-1.185171422331486243e-02
-2.290132688049356050e-03
4.525346076230319335e-03
-1.173064031954607761e-02
-1.071596871839058766e-02
-8.029099718559414706e-03
-1.184118544430232643e-02
-8.508719611229677640e-03
-8.549175379091666915e-03
-1.203596121615153544e-02
-3.672648396358081050e-03
1.507631557677853971e-02
-1.739749905382578440e-02
-1.934747075820851189e-02
-8.726697415722507040e-03
-9.220707594193041853e-03
-4.810254105922445213e-03
-7.449330060002260639e-03
-2.234506448168829557e-03
-1.836449629713333108e-03
-5.683356145358294496e-03
4.938417951949701859e-03
1.029820804799724127e-03
-1.501263868661013509e-02
-3.665882770870659054e-03
-1.911380083591185039e-03
2.987264348444837979e-03
2.056104004590092633e-03
-6.160330667258172646e-03
8.618624817289881682e-03
8.785537981323013682e-03
-6.244000451758585819e-03
-5.139674456818864312e-03
9.222082672402731954e-03
2.524856193734810461e-02
-9.874385372187250917e-03
2.775771426898654241e-03
2.237918517895724768e-03
-5.592213587861991249e-03
-6.303345855941282390e-03
-9.378918154454842990e-03
7.439888976775931809e-04
6.845097828568518557e-04
-1.768280443899875520e-03
2.692017606382710211e-03
-7.446434656148630260e-03
-3.173545842842699118e-03
-7.355429668722195807e-03
1.923957888908336272e-03
2.438431148405186162e-03
-2.648857746287630772e-03
-7.473505457951702680e-03
4.866981113858261619e-03
-1.904508012484090870e-03
2.956450001520275015e-03
1.854019381849364347e-03
-2.512185720554606979e-03
-5.593502555092803516e-03
-7.129233141910428298e-04
-1.583865254534341360e-03
2.571968527010733878e-04
-7.169303589078983643e-04
6.122837117069568564e-04
-9.805930256424654975e-03
1.236016863663267793e-03
6.613801664340188645e-03
-2.732489351462469209e-03
-1.799960880525244920e-03
7.166897461582444340e-03
2.812174791345036645e-02
2.296623173397039155e-03
-4.767459646872675150e-03
9.820389846000698430e-04
-1.071792125889959452e-02
-2.351515913734596869e-03
1.024241020864796389e-02
1.290195941107449189e-03
-1.105813826657657453e-03
-3.904468903824056744e-03
1.599669005366212210e-03
-7.131201659637200971e-03
-1.921868886167598257e-03
-3.515202108653843124e-04
3.997831218632947117e-03
-2.141700498119104195e-04
-6.150168226243896358e-04
7.319490701490089651e-04
-9.931540709741777054e-04
-2.294924838919285438e-03
-3.568097456111666340e-03
-2.965734742135622739e-03
1.032990932181684397e-03
-1.982155000168112254e-03
-2.051413395385692263e-03
-3.925033294011447647e-03
-5.370316370922731744e-03
5.732850081489798471e-04
8.818375714449307699e-04
-8.648592264021747258e-04
-2.410866637031077418e-03
-3.238031590822855422e-04
1.857845495988867549e-04
-5.424446142279905174e-03
-1.964196192613910149e-03
-2.009881824409925129e-03
-4.034889515560243639e-03
-4.856291629003932700e-03
-4.986165154543630365e-03
2.580396891937404135e-03
4.310062959461498019e-03
3.849286323188907868e-03
2.443066428974692821e-03
1.548097001252421142e-03
2.294135996248773679e-03
2.235950501351832015e-03
1.041120223954641703e-03
4.275407339452578842e-04
1.434859478353810690e-03
-1.807027332114502678e-03
-4.389511210728745780e-04
-3.579519591634007600e-03
-1.956676147777256219e-03
-1.943706961580708194e-03
-6.800122507811911902e-03
-4.478724568390256636e-03
-2.850973910429587324e-03
3.171901760953857626e-03
2.169124192332773111e-03
-7.983324478379090223e-04
3.575206536892984541e-03
4.291114498995805132e-03
4.914194212752828793e-04
4.151116062900090352e-03
1.810759400399359991e-04
-4.588603000072494220e-03
-3.421124425421955689e-03
-4.237532628654636611e-03
-5.451865853986888333e-03
1.147845123034841415e-03
1.148558298078317661e-04
-1.142926497517533736e-03
3.872743747089910874e-03
2.729370060023530477e-03
3.820718883689663836e-03
1.588255832808163799e-03
3.632850104533951342e-03
6.807735222515684352e-03
4.653423504281777208e-03
8.506902334797786930e-03
8.895735294133040941e-03
2.514725203510639537e-03
6.040846885977706887e-03
8.794724219934024409e-03
-5.815623266319919042e-03
-4.682426721916477935e-03
-2.713129397757703832e-03
-3.839287167940169405e-03
-3.465308345850650479e-03
-1.262174312285439717e-03
-4.167893904048535457e-03
-2.043674312681303690e-03
4.797985280346401854e-05
-1.084957359954979994e-03
-7.846216269924129530e-04
2.913662854521813033e-04
-1.447277853241007214e-03
2.375367797818048524e-04
1.889951699025360339e-03
-3.387295481897066324e-03
8.301057286327787142e-04
1.563642409754859453e-03
8.175450557182219538e-03
8.802003016769503405e-03
-2.340659333008871922e-03
4.200154812152448805e-03
9.230381654804178937e-03
4.440816618978818929e-03
8.455926249215985633e-04
9.410595137069243873e-03
4.924703128857385592e-03
-6.487614442288680778e-04
-3.463384182427938548e-03
-6.334658307996472899e-03
3.826150869636140393e-03
-2.050412254474145903e-03
-4.258734422037978480e-03
7.151192726056435252e-04
-3.274048768598410934e-03
-2.789478033436510254e-03
-2.533884124137357648e-03
-3.647320542577817213e-03
-5.841591354339826722e-03
-1.374235693738317353e-04
-3.747651067653515991e-04
-1.460103822370190313e-03
-6.344866851192898505e-03
1.040944380967117906e-04
2.527821676747807507e-03
-3.342081777143351192e-03
-5.109621023732047532e-04
2.642595375013905967e-03
-2.578822576409729988e-03
3.561287369678472888e-06
1.929988298260507107e-03
-1.260882448385809446e-03
1.453857566979744860e-03
1.470653176234943240e-03
-3.755481594838350635e-03
-9.083700112969221975e-04
-2.500305925360356892e-03
-1.944103833689309405e-03
1.245857676045908878e-03
7.156255104747777981e-04
2.011319509323599482e-03
2.346487425197279261e-03
1.460569867556461995e-04
-2.095895237949172915e-03
-4.378443824648133725e-03
-9.667475242854666091e-04
-3.348187572586446004e-03
-4.115468798726338272e-03
-2.726250531901658510e-03
-3.631387299193487937e-03
-3.074379362611845846e-03
-2.695371247271146926e-03
7.462007460371413835e-04
5.023692468219879926e-04
1.481824873356063434e-04
-1.976138657952120417e-03
-9.047119410497586178e-04
1.474667083454508042e-04
-3.864092364007742312e-03
-4.733539591285613503e-03
-4.006104569926606691e-03
-2.648803949764167841e-03
-3.393691234461573315e-03
-1.209599709789179692e-03
-6.179882934015398267e-03
-2.920432809541478273e-03
-1.574962685010036821e-03
-5.882889182807787658e-03
-2.685447453302776052e-03
-3.005895871291376469e-03
-4.117823838737816886e-04
7.164874780949791059e-04
1.648256891233954979e-03
1.192324361651642692e-03
2.235337042148842143e-03
3.536784690945708048e-03
-1.717279399517052194e-04
4.847544665761297834e-04
2.823594789656135636e-03
4.654411472286592438e-03
2.994137979820732810e-03
2.137477049778518153e-03
7.940146140888629245e-03
4.122704094334937903e-03
1.968483820581476071e-03
4.481493942270421867e-03
1.764647793561269044e-03
3.871106630495264964e-04
7.985463543989516130e-04
1.568383124444633217e-03
4.897866394859910245e-03
4.522594330310754558e-04
-6.573462122280453093e-04
1.392534316334175393e-03
-1.534569804599820097e-03
1.236187077598772379e-03
3.765707140274858543e-04
1.665760467639271127e-03
3.549637771755023621e-04
-2.702295447838229999e-03
1.011918340505638765e-03
-2.688362495023651107e-04
-2.052881561792848676e-03
3.069968430110346820e-03
3.164016397715423059e-03
-3.159877960575251240e-04
-3.426102405606219065e-04
2.780264963738269916e-03
1.458298980974726596e-03
-5.842661729598377154e-05
1.148558757598320060e-03
2.079823372697501887e-04
-2.103998949775338825e-03
-1.533799802249400128e-03
-1.899276432084144378e-03
-4.984774340670184312e-04
-8.423116061536061426e-04
4.089627844573716928e-04
-3.422187295187136599e-03
-3.189109253304397724e-03
-1.553301065277786852e-03
-4.432669329339107393e-03
-4.945060937169946068e-03
-2.184538484461239112e-03
-2.350273716842400922e-03
-2.272731248197775757e-03
3.945537995551392347e-04
-4.276859422659656448e-03
-2.265459190988997236e-03
3.561533978746341759e-04
-5.218955077384965571e-03
-2.229955450229277516e-03
5.148412936454461065e-04
1.888991914914015270e-05
-9.524653362691854527e-04
-8.598730667618711358e-04
-1.928531313506738837e-03
-2.833755236425659842e-04
3.025370328986299023e-03
1.900307441795836411e-03
2.479174898057359602e-03
2.470542202121948569e-03
5.004704335860661775e-03
2.980299381779947122e-03
-8.849429003987334353e-04
5.369435317905104027e-04
5.565532568567590566e-04
-1.046018140437181753e-03
-3.812746824344139494e-03
-2.977137118297866654e-03
-2.742073337312115992e-03
-2.091293298300075324e-03
-9.305600177624143501e-04
-2.041266734216235466e-03
-8.816197589638691181e-04
-3.174796430621300465e-03
-2.812599088695873391e-03
1.791974375881131502e-04
-3.337029661065393435e-03
-3.291504401750160267e-03
7.685849150209131397e-03
6.163584984922625826e-03
5.051013842646383256e-03
5.380701982493353054e-03
4.334437432113637419e-03
3.589146382507597301e-03
1.165553461553155666e-03
-1.736173483449146094e-03
-3.613888011641526281e-03
8.920123399211913814e-03
8.789332518574411238e-03
6.795020304053709000e-03
1.155536415658997215e-02
1.281717544807364079e-02
1.059362172416890117e-02
4.156198813644864862e-03
7.254518862026736181e-03
8.453218757362788993e-03
2.218513861693509055e-04
-3.013772809996436743e-03
-4.109126197308756410e-03
2.560705540801423968e-03
5.038843149040394057e-03
7.058806689126126757e-04
2.442501219371937958e-04
3.381004806239737252e-03
2.430049605871246066e-03
-4.176640867291169998e-03
-3.179455044404007791e-04
2.427796272953595784e-03
1.171468433656653284e-03
8.154481893613348565e-04
1.852843773937821884e-03
2.316171971609515181e-03
2.591424759297822691e-03
3.244186095386187262e-03
-3.690811861287395575e-03
-1.076894002064586247e-03
-1.914530948960439100e-03
-3.724027394027574762e-04
-2.526999607042669537e-04
-1.403179338051660507e-03
-2.642242145361730840e-04
-1.474794574057493790e-03
-3.447356084138242759e-03
-4.509498524819189539e-04
3.481941655590646990e-03
1.867924129418038976e-03
-4.310231997571216476e-04
-1.098467572189977797e-03
-1.053812034036097182e-03
1.474289826788076309e-03
-2.246847311653899469e-03
-8.877379262276162940e-04
-4.472072174235053148e-03
-3.319475408688780417e-03
-2.247587782529000095e-04
-1.146984867798120887e-03
-1.483991948078051005e-03
1.865286356767120745e-04
-1.171720617265428668e-03
-2.734383770323870616e-03
-1.177854167345291150e-03
1.555973994788986854e-03
3.344248903079656381e-03
3.605884034458981414e-03
1.672380650673547164e-03
1.487117344336149694e-03
1.014704941353450655e-03
3.250072404110622876e-05
4.104531345321142579e-04
-1.166014138608412312e-04
1.241636515604229080e-04
-1.810665226098094388e-03
-2.091371308010261248e-03
3.273287718104614559e-03
-2.961617245669877609e-04
-6.306087517625598134e-04
7.930758439175410656e-04
-4.069085073024742674e-04
-1.435572935004481422e-04
-3.880887281046523259e-03
-2.600049150144101689e-03
7.580300321442050814e-04
2.978945663186862184e-04
8.483424710729051610e-04
6.662219469757752919e-04
-5.865788466468220612e-05
-4.002954072400088611e-04
-3.346303013881572665e-03
-1.726796005929143142e-04
-8.690831316937780210e-05
-1.511816514746254113e-03
1.974243855245511221e-03
1.446919000735819678e-03
-8.747903973105907501e-04
4.923784474173053746e-03
4.742772062335911740e-03
1.196487845124592471e-03
5.036842178924017671e-03
1.136161503678221642e-03
-9.660426994094733349e-04
6.657269201171764524e-03
5.011985616554632053e-03
4.203364314552172736e-03
2.149484499909194019e-03
2.203341842375819318e-04
1.609192151020975414e-03
-9.534117032105578280e-05
-1.457174981415839321e-03
-3.403642944913888146e-03
-7.456544043992235536e-05
-1.005816521919630649e-03
-1.136764737508826322e-03
2.474377937189698178e-04
-1.708143164221465927e-03
-1.202334082012118882e-03
2.381715024229086580e-03
-8.612740421940590996e-04
-2.106270060022488212e-03
-2.036040747658104076e-03
-2.079505411613408010e-03
-3.757170934519711396e-03
-4.995878298321738444e-03
-3.783539917031153964e-03
-4.128200035597841787e-03
3.781670450314801937e-03
-2.552869307283280563e-03
-3.907770119158359909e-03
6.101997801225426780e-03
6.413204258846874097e-03
3.375353197566031450e-03
3.858782600498533982e-03
7.910195616895196458e-03
1.117621211794760615e-03
-2.528476322527296958e-03
5.241662310601889762e-05
1.412490602642753161e-04
-1.155251880459370927e-03
-1.674138339952150830e-04
-2.058769603911279715e-03
-1.266365503046619533e-03
-2.310130100748744499e-03
-3.428197693628022222e-03
-1.106496806406076679e-03
-5.216534975769221601e-03
-6.410428331031697846e-03
2.043197126873351737e-03
4.212239326522793830e-04
-1.678837655803062327e-03
-5.131872237805559962e-03
-1.066827328935591014e-03
-2.658639910052816059e-04
-1.502468889697901365e-03
-4.093230019711563221e-04
1.340053722316153415e-05
-3.013717481791082248e-03
-1.223428102154907942e-03
-3.481728010579252333e-04
-2.069828939383464364e-03
-1.771935145451244888e-03
-1.128842617265016137e-03
-2.249174890985067461e-03
-8.831871417516115466e-04
-1.767351979036951024e-03
-1.458619489842132326e-03
-1.270999457514440699e-03
-1.116991061024452973e-03
-2.251239275984326035e-03
-1.099883924943554758e-03
-8.961632343945805188e-04
-2.564670206630282777e-04
-1.894206400618581119e-03
-1.311931932591511082e-03
-1.247878068629483615e-03
-9.850769251518159270e-04
-8.625043955424223233e-04
-1.659662797430435819e-03
-1.523260804718847786e-03
-8.251581836975536858e-04
6.365619714624086781e-04
2.570843177566613496e-04
1.373125634893488040e-03
-1.230531434450545837e-03
-1.079736748595809016e-03
1.128851565289367993e-03
-2.071739138555945322e-03
-2.672917109559177183e-03
-2.176097731424113651e-03
-6.578068255661755721e-04
-1.918990387806742640e-03
-2.542558385150808266e-03
-4.143156206528546379e-04
1.332629849636775320e-03
3.242961785150203250e-04
-9.961712366149521464e-04
-1.859652453291328784e-03
-2.839252575460042474e-03
-1.448776954521817254e-04
2.380513890406497403e-04
1.408408248698894477e-03
1.327886668063878867e-03
2.186378923964277157e-03
2.824999859147346928e-03
1.745583796668573979e-03
2.065670876992525395e-03
2.770848135423547610e-03
2.858873814917186305e-03
1.450735318548504070e-03
-8.028974227899443377e-04
3.105698945861324212e-03
2.202206725736150818e-03
-3.150722227413399208e-04
-2.098443890580521242e-04
-1.937402040910150445e-03
-2.887305360761691954e-03
2.224934853322848172e-03
2.436975632599341045e-03
-1.324097456644181443e-03
-1.911006680672198976e-03
-2.971240743846859968e-03
-4.074129193853116837e-03
-1.533002784065177256e-03
-4.102248870444972356e-03
-4.602987599832731452e-03
1.452555818877524722e-03
1.121004993186012696e-03
6.959933647403106563e-04
-1.496582430420780822e-03
-1.128950663930396864e-03
-1.135048975699375941e-03
7.921325997349000318e-05
6.728312725458837661e-05
-2.433286394220446867e-03
-1.008949248562499880e-03
1.561870363930210545e-03
4.475762432747017357e-03
-4.422954661475525170e-04
-2.075759628715808790e-04
1.776667105560377933e-03
-1.724066567035273129e-03
-1.952049111520822713e-03
5.969009902430581598e-04
-2.611887502948080989e-03
-1.742136184093835260e-03
-1.493252424615616390e-05
-9.744321280390532206e-04
-2.421701180150977965e-03
-1.078556818967733980e-04
1.891075320761952680e-03
1.268414163423279509e-04
2.251783006910324566e-03
9.047094283302707077e-05
2.426389711738013294e-03
1.049430766529570137e-03
-4.071786093925965078e-03
-1.756595695953030783e-03
-6.123053930711351567e-04
-1.458335309915652009e-03
-4.127898513409180854e-05
-1.236790723217878469e-04
-8.340108110339665946e-04
-6.248825991106331723e-04
-1.296376797815763232e-03
1.939011519427097287e-03
1.394206101839783399e-03
2.602339931818122183e-03
1.891366204420031694e-03
1.729417747917541505e-03
-1.248557914453601566e-03
3.610758230264650166e-03
2.465619803322171861e-03
2.457930477444802541e-03
3.850844945085409965e-04
2.787552377235344957e-03
1.878041663467209339e-03
-3.005366526751548396e-03
-5.522787667205585841e-04
1.180159158015636235e-03
-6.997878225586505333e-04
3.679059491127838200e-03
3.428681819636107946e-03
-1.238811125908515854e-03
1.377404655919800287e-03
1.658168448217037499e-03
-1.190554022526392128e-03
-2.838544165909980769e-03
6.521643675459297797e-04
-1.824151531009066997e-03
2.733547406940245190e-03
5.034262845324646504e-03
-1.384918373175934771e-03
8.515698660646159020e-04
2.460889009079404287e-03
-1.584360800511733875e-03
-3.960089246689601876e-03
-4.853903172918635697e-03
5.641178481910160379e-03
5.352850548636500956e-03
4.987566545538729343e-03
1.192936470443364816e-02
1.164730592607143671e-02
8.944667093801534144e-03
7.166403042787633688e-03
7.598712848945231475e-03
6.191903440232703060e-03
-2.125219177520182388e-03
-4.720102519534057593e-03
-6.428217994429353925e-03
3.016408884294792710e-03
3.374654114946890049e-03
1.469069441538636530e-03
2.782465119351463633e-03
4.150283147618076887e-03
4.324795417270196896e-03
-2.232346557272040649e-03
1.142566380007889763e-03
7.426512638028295041e-04
-1.041148102112369111e-03
7.288271636859141407e-04
-3.233065765710392146e-04
9.532273505915849106e-04
1.494589090403142381e-03
1.536423435980224230e-03
7.736558034209944923e-04
-6.520818211524290545e-03
-2.414207186570784566e-04
-8.401868243358154645e-03
-4.505075775650234783e-04
8.968131234684411507e-03
-5.725858218242510338e-03
5.008362107891354414e-03
6.116799817841778696e-03
1.053778356992354738e-03
-2.212775486739337362e-03
-1.231501572350792708e-03
-1.879131307682886578e-03
-9.631946727855007773e-03
-5.940703174846077156e-03
-2.750744308057129998e-03
-5.039370491106831031e-03
8.103066636550017255e-04
-2.102667598073921888e-03
1.427987884611118911e-02
1.496117766521464724e-03
1.723066435883702230e-02
4.861284784384735554e-03
-1.098250068449262151e-02
1.417524357348530495e-02
-1.073933646908806737e-02
-8.152224297756128363e-03
-5.044539388742596067e-03
-6.306337838280375203e-03
2.466829223460100060e-03
-8.621650613693042364e-03
-2.198647616263519570e-03
7.645632915033884897e-03
-4.606667042512379955e-03
-6.657905041412999752e-04
5.865949639477699602e-03
5.234959988939981955e-03
3.863356459577079165e-03
1.163836280304197945e-02
-6.478945850566867866e-04
5.811090986002816379e-03
5.154940990613551474e-03
7.946557442993187198e-03
3.242755691459417011e-03
-3.767467549328916161e-03
3.737384040573825394e-03
-3.056838188433935646e-03
-1.445036984940910492e-02
2.108708009112860576e-03
-2.444771854404266618e-03
-7.861773999589639211e-03
4.242510268131403049e-03
-4.442414431903173380e-03
-1.965193748926505671e-04
4.140590952042528562e-03
-4.330335898171736898e-03
-5.491737186096423001e-03
8.112536101890535992e-03
3.977045527035306255e-03
2.566358358330007514e-03
6.734518634088205655e-03
4.853595941140871443e-03
4.185530815820131742e-03
-4.406683443530439587e-03
-1.132827108800375446e-02
-4.486409714011761404e-03
1.046420549375297803e-03
8.103684533337516182e-04
7.102239078165095698e-03
7.450425888642063683e-03
6.961051784536179295e-03
3.227854009857055763e-03
-3.714210788727809534e-04
-1.042403856431159230e-02
-7.833925288293165645e-03
3.056369460056372091e-03
1.369972682051831580e-03
-7.596365499835094209e-03
4.670648011268072747e-03
1.895843930164411561e-03
-5.493232053667947493e-03
-7.029856319994878810e-03
-4.995149788850301864e-03
1.153161249214838422e-03
-1.279580870260075588e-03
7.194960130422978217e-03
-8.566076891732724713e-03
2.573966402018488826e-03
-1.424454169872322500e-03
-1.004170962125918755e-02
1.169690245990107980e-03
-7.630016619727825362e-03
-8.087346347819955594e-03
1.185709220206038715e-02
-8.172720097918920873e-03
-1.141367394413392647e-02
1.425039019186889180e-03
-1.108527453546646717e-02
-1.052245712217825778e-02
9.325227825776813417e-03
-3.277269987090131176e-03
-7.080629669120808850e-03
5.042490597014661832e-03
-7.627735131344146567e-03
-6.410904590457791423e-03
3.066725446597406805e-03
8.431390854636859524e-04
2.348654643723823311e-03
-1.551713469599100628e-03
-3.272564663638903321e-03
-5.939800129909096789e-03
7.417481802757405762e-03
-3.067703378927181482e-03
-4.367349219450619539e-03
7.335755250600162376e-03
4.222401335633405050e-04
-5.346586014842495682e-03
3.414977290862854231e-03
1.303509059790524532e-03
-4.863334637270056576e-03
4.620494832838330582e-03
-1.246240366294133067e-03
1.917186988704371389e-03
-2.314801752333506702e-03
1.515063064146830946e-03
2.573453863000202402e-03
-1.508772068370469246e-03
-4.773645766450733581e-03
8.446470204304713531e-04
-7.586071060422550430e-03
-4.584349993084371288e-05
-1.162499889008839112e-02
1.340857100428288285e-03
-5.721844921002012738e-03
-1.203965523498925529e-02
6.776376138842199644e-03
-5.480452535247187307e-04
-8.882679565314401940e-04
-1.535009184782765200e-03
-4.134739427018609831e-03
6.596509052053884173e-03
-1.302515058506021131e-02
-7.086466641129122480e-03
8.743694021671169839e-03
3.220962095811398269e-03
1.304239287667213840e-03
2.298297874669544619e-03
2.450117358948137626e-03
1.787597311557122476e-03
3.204807945303658322e-03
-3.457079922973419969e-03
2.311202079083365338e-03
4.438415839272192621e-05
-5.616479572093353335e-03
-1.333515407244133949e-02
-1.200237526001822063e-05
-9.597190791527711665e-03
-7.014356448813647074e-03
8.809773201770282683e-03
-5.686272499861791743e-03
-3.311594941924087508e-03
4.426747959012065047e-03
-4.624319244063807791e-04
3.456423066550398573e-04
-2.920771737170510789e-03
-2.434872620321705278e-03
2.749741059543962308e-04
1.364196953984182044e-03
-1.188458678997717519e-03
2.234143330883997026e-04
4.160885435489472192e-03
2.154606552793346570e-03
-1.039966302114524828e-03
-2.029902216868462519e-03
-1.327778790405918557e-04
-1.964225821794958471e-03
4.581086479335280508e-03
-2.385708592171265855e-03
-1.320077759011487354e-04
7.115836445743990712e-03
1.074871482648715295e-03
-6.252872484455617580e-03
-4.243189105671742699e-03
-7.017010403440427507e-03
-1.549626173017382234e-03
6.312054596316046991e-03
-3.368357008564781038e-03
3.306843079141710828e-03
7.260988678155304819e-04
-1.421632400784363743e-03
-4.491596651323118312e-03
-4.265851486032509569e-03
1.789279473407586266e-02
3.272363346923054875e-03
3.837624757269180939e-04
8.784625136025651579e-03
-2.552003172782341556e-03
-5.287171206326321711e-03
-1.669912910737033273e-03
1.474825128116814647e-02
1.209740342003100093e-02
-7.974030807762219966e-03
1.098876227104995246e-02
1.338277881600388091e-03
-1.783554226112811329e-03
-2.493488528918810961e-03
-2.768500199844733337e-03
-6.730017810824988345e-03
5.247275781582291104e-03
3.844193624687223046e-03
-5.729466153360885522e-03
4.700724546703186936e-03
-2.539621891569815958e-03
-4.548444216930482486e-04
-2.719796107624930254e-03
-9.909249892362836584e-03
-7.023828946032418391e-04
2.012932794299100280e-03
1.814160430678328495e-03
4.741036399924956554e-03
-2.648113258548895951e-03
3.729768720377542399e-03
-3.780172331950795456e-03
-3.133051269992218665e-03
-4.355882049530690470e-03
-4.758124672121747875e-03
-9.989650755754945263e-04
-8.933034212053905104e-03
1.549229148560448614e-04
2.439888408105808561e-03
-4.307587564062562158e-03
3.747167153719383717e-04
1.331793148803804084e-03
9.484877287231841458e-04
-6.709139236033041451e-03
2.590987669705939467e-03
8.405092645877810728e-03
-3.049932024560499891e-03
8.187599343622228160e-03
2.087076012575606130e-03
-2.795189369304213953e-03
5.145828074155317598e-04
-3.779709364141908053e-04
6.026020228821753200e-03
1.170066774950066562e-03
-2.871030287807218705e-03
-6.452717375007585923e-03
-4.245477415781484867e-03
2.504969493884780848e-03
-8.128455281833844165e-03
-1.091996895354077987e-04
4.447448107768956632e-03
-2.492990694510039806e-03
-6.811661137924250251e-03
1.445599610587899463e-04
-6.697986017105976748e-03
-8.816667086536804018e-03
7.731873933906472339e-03
-1.562315038278445055e-02
-4.961739096902855264e-03
1.208958420602235587e-02
1.107913285969395166e-03
-7.713996312207102276e-04
-4.558720616667435478e-03
9.545395093055634300e-03
5.692889574144020977e-03
3.334172126506009057e-03
6.641599145398811681e-03
3.863429224655096864e-03
2.597814398369206051e-03
-6.072469209998659781e-04
4.064329663620059284e-03
-7.212015203552923220e-03
1.524603702829287026e-02
2.053264961105149417e-03
-1.030047360823333619e-02
5.787970792026188478e-03
-1.344748303931628600e-02
-1.173108127820335009e-02
3.910112266832960551e-03
-8.731876973001106296e-03
-6.584288460388647117e-03
-7.694166160914258160e-03
-2.347469785703436371e-03
-6.690313849192493049e-04
-3.728250355749574557e-03
6.467425774371463390e-03
8.288885300344522866e-03
-4.680942125142055141e-03
-2.961552515233815790e-03
-4.318884450287600548e-04
1.038525016692453534e-02
1.156424041690556556e-02
1.730824046897966317e-02
-4.073101159955411633e-04
4.461287141731565264e-03
1.099492966517936175e-02
-5.167525139092717448e-03
-1.412424022591480047e-02
-6.085380811659111058e-03
-1.643735877650734541e-03
-6.491033141687215999e-03
-6.214798614717843145e-03
8.544292174576159291e-03
8.150507635165058981e-03
7.712597544506327903e-03
7.152914516373603399e-03
1.560532928227097724e-03
7.136570190362910397e-03
3.087713915795251441e-03
-9.938705202197764543e-03
-2.265889444914578692e-04
-7.790002495137009382e-03
-7.469803788113379799e-03
-5.740643834296392197e-05
-7.418402896161611221e-03
-4.397901597629558755e-03
-8.683136176639461024e-03
-1.389672275309188250e-02
-8.558267450250308869e-03
-1.332541758978558928e-02
-1.101881771567472280e-02
-5.176088987107335671e-03
-9.859754345838999887e-03
-5.784075792457005899e-03
-5.805263337699851332e-03
3.771646701936907063e-03
5.789252171230410866e-03
6.339950687709448862e-03
1.029607610454040360e-02
-1.227567013466766051e-03
-2.866024178006324960e-03
1.253332178382528597e-03
9.312359393156732085e-03
2.387106106338170164e-02
2.415945525069694566e-02
6.198295947958722303e-03
1.335196618154073714e-02
1.963838102883395248e-02
2.346082026089971531e-03
8.052980908898483767e-03
8.721651616680790170e-03
-1.041850911080419856e-02
-9.748667704258686881e-03
-7.919315937247914383e-03
-5.165850439454428185e-03
1.555425681479023423e-03
6.512784728495639441e-03
3.385927502346807328e-03
1.356739198962625924e-02
2.012652207029248450e-02
-1.997866287332041892e-03
-3.756034038977866616e-03
-3.059258227155016181e-03
5.170065598971519683e-03
3.512223947111149137e-03
2.770992928451383817e-03
3.699563970242658682e-03
2.230116557549390206e-03
2.118451669192816973e-03
1.450950599517985282e-03
-4.869377843524355653e-03
-3.458456467059355544e-03
9.280644271574251371e-04
4.913382555779765518e-04
1.049301544084402032e-04
-3.879966357878702251e-03
4.117300010090175176e-03
6.906102200579434906e-03
-9.122599559735832669e-03
-1.228072472743479970e-02
-1.706076107649175458e-02
3.133766261820119256e-04
-3.612530917212882116e-03
-8.182421629697121321e-03
-1.712060289403501872e-03
-6.821027761998827224e-03
-6.197780772317900561e-03
-1.054351079796535945e-02
-9.007148509224837188e-03
-3.340872930320413527e-03
-1.552508120607251109e-02
-1.431637971622955370e-02
-1.152745024705256228e-02
-7.512277936268244721e-03
-1.668105011281273767e-02
-1.658340917665226261e-02
-4.113067993723071476e-03
7.077854183117089810e-03
1.031611435353747396e-03
4.363241072962365658e-03
1.709070641822576370e-02
1.540025983038564167e-02
9.929840014313826707e-03
1.924310569991222533e-02
1.590034309776516483e-02
-1.108589093247040573e-02
-1.027114652799766131e-02
-7.409198677249339594e-03
1.202421650303586720e-02
7.757727877656371909e-03
1.056246054901838552e-02
3.784816826269462448e-03
-5.451258880886612410e-03
8.621501661507823726e-04
1.119198624182182918e-02
-4.677407868723769749e-03
-8.872429321538673544e-03
9.587147829678429115e-03
3.707371154034819725e-03
2.466521946593338600e-03
3.771137776588786260e-03
2.907480096659329893e-03
7.075164095019077781e-03
4.504264722553085951e-03
-1.296603522961003487e-02
-1.563768496415392228e-02
-2.786272337167767458e-03
-1.921710448227545096e-02
-2.154410360713757827e-02
5.788922420939723347e-03
-4.570849658906843242e-03
-6.112333589008932949e-03
-1.148572727043868993e-02
-1.274085669207701077e-03
-8.202475977932969283e-04
-3.048906606025060528e-03
2.553290972107193947e-04
-4.831556564778473209e-04
6.432874925714270964e-04
-1.436795694219661834e-03
-1.552449216333613149e-03
7.433261735940331280e-03
2.180411767753342826e-03
-1.547131353661791026e-03
4.404230681899303813e-03
2.391288120363665743e-03
-9.743163658625494852e-04
1.863260173122927498e-03
4.191693834861375911e-04
2.355945461479405818e-03
-8.433805939900774346e-03
-1.341627411732318649e-02
-3.176077523559136390e-03
3.420672690069679819e-03
-6.339211637948241086e-03
3.839303847593124232e-03
1.757193652998491644e-03
-8.955785876640511012e-03
-8.169477841721471678e-03
4.102009142503839668e-03
2.309426142828638947e-03
-2.492635669498735086e-03
-3.774701390442486600e-03
-5.970671651951458409e-03
-9.261939418353425102e-03
-1.452895444382930681e-03
-6.326622033225656229e-03
-8.278297331676549506e-03
-8.257038949783090248e-03
-5.108680527339500184e-03
-1.715102856129296829e-03
-6.893547824779347986e-03
-4.376316874695976994e-03
-1.225545460464124922e-03
-5.647508601562203565e-03
-2.864307999152836820e-03
-4.206424638341126759e-03
-2.501924551466686540e-03
-2.299419424214100942e-03
-2.408932886061815413e-03
-1.386671869648704739e-03
-1.366017247089895388e-03
3.480293853340311796e-03
-1.878438914246260798e-03
-1.428828180949575678e-03
8.899950875524302585e-03
-2.140744190424102248e-04
3.575351903392744342e-03
6.465264889505665385e-03
-3.809760418620080150e-03
-2.333697355206860481e-03
-6.941344570676261788e-03
-2.959018495050523469e-03
-2.538546152819566928e-03
-1.087333836499932045e-02
-4.862251562831002016e-03
-8.044863862110592304e-03
-1.338097700981451948e-02
3.050454973989662980e-03
1.761250661169963842e-03
-4.972608814193371467e-03
1.085537142512284746e-02
1.133816922393313283e-02
4.377961648690423951e-03
1.169874747344550568e-02
3.185573422797462109e-03
-1.532548663178776114e-03
-3.823926233520208873e-04
-1.316395093739469464e-03
-6.519929570664287355e-03
-3.868292894543858430e-03
-4.032436376836125158e-03
-9.901355725849412398e-03
2.173943851224509078e-03
-4.377478671527153947e-03
-5.156970099345760221e-03
-1.112106814800089454e-03
-5.699237917984995537e-03
-8.528598257812004466e-03
2.634281317914623482e-03
-1.257028260560931129e-02
-7.646693321848569910e-03
1.819388611042332959e-03
5.535472673102552477e-03
6.215976700190605810e-03
-8.583317297576846657e-04
-3.623906449928971339e-03
-6.267838409176977425e-03
4.759302802347584183e-03
-5.901189799632124665e-03
-9.611781559033318349e-04
-6.386064779050092122e-03
-3.649338701527133494e-03
-6.586863386992453800e-03
-8.667903455715527186e-03
-8.698804334621574458e-03
-1.022718613599958755e-02
1.477919589748269652e-04
-4.455922685968697824e-03
-1.065804646469985066e-02
6.892832260966470434e-03
3.349720314340293419e-03
-4.249891257215810715e-03
-6.599687851198356072e-04
-1.848079727374312125e-03
-1.005318859375693707e-02
-4.039737665725111164e-03
-2.555954733214737228e-03
-6.744824761594858317e-03
-1.959603510638086802e-03
3.721016111209853126e-03
-2.585322585783722451e-03
-1.417200837198753609e-02
-7.969744435177631954e-04
-3.300394140759687657e-03
-1.073230562407376243e-02
4.275845313553113501e-03
5.721293875107683058e-03
-5.610396825739306058e-03
-4.504642581157292103e-03
-9.058949988117906242e-04
1.678482959401698081e-03
2.432383037262477159e-03
6.649945886599858622e-03
-1.031651342525630248e-04
-7.844449741870755517e-06
4.067417749861977454e-03
-8.376033726852828319e-04
-7.218410386574887309e-03
-5.575504472033742179e-03
1.697062427962883757e-02
5.089319772190671783e-03
1.016449816244359081e-02
-6.493008044777970160e-03
-1.536913072109459544e-02
-1.020550709046705827e-02
1.090727404511599059e-02
4.909176108791893584e-04
2.437984057133942353e-03
7.959072344494635270e-03
-7.055972855384416058e-04
2.857153497440922734e-04
-6.300873668339062282e-03
-4.823632330050272275e-03
-1.069013035355169698e-03
-3.862638154579037773e-03
-3.553296068214212549e-03
-4.561383975405780902e-03
3.416225547556763550e-03
8.413471123543572565e-04
-2.366282376035879018e-03
6.116207298792395580e-03
7.148902093614433427e-03
1.820166134073299136e-03
-3.128273485701557957e-03
-4.971051409236214996e-03
-3.512132065633905703e-03
-2.830991167039709037e-03
-2.836622115867136647e-03
-3.200948024767742012e-03
-5.898068612318612715e-03
6.235664267021655575e-04
3.520784767472854258e-03
3.266963775627432405e-04
8.313719599478426982e-04
-1.109422429122921758e-03
2.974693400780067162e-03
5.807285046062648191e-03
-6.153383981766359298e-03
-5.952938042457248287e-03
2.899102701684341029e-03
-2.204103231864041213e-03
-3.393561300043462098e-03
-3.762436337364782456e-03
-5.403236884912595954e-03
-5.058297610595900891e-03
-4.937289237785265524e-03
-3.749200324761594195e-03
-6.307045799717170796e-03
-4.634986683552336055e-03
7.901792408145845393e-04
3.055418727844017111e-03
2.567124542856693246e-03
8.271887687443201659e-03
-1.500829265837360553e-03
4.140133803706019973e-03
5.520446787103888177e-03
2.510329986821457828e-03
7.696327248582788237e-03
4.876170192245302126e-03
-2.556461597701378298e-03
-5.710670513503779584e-03
-9.429817958745461554e-03
-8.543540694120232070e-04
4.897843321015899441e-03
-6.701416296381089779e-03
2.294547005319023188e-04
-9.366361483942568387e-05
-6.177981393103574789e-03
-2.531393586872365212e-03
-1.508106212959185602e-03
-1.195114281481542444e-03
2.003290763069408894e-03
4.263671669937510109e-03
7.369254171441227096e-03
-1.101487996468758588e-03
1.064847180956382967e-03
4.641398072817078460e-03
-2.727170251899856557e-03
-3.363749389123449254e-03
-1.962946967514181320e-03
-1.306027305258901676e-03
1.388982099530489513e-03
4.393315822634853533e-03
1.388166292212992658e-03
3.175383354640480982e-03
5.487356755595917089e-03
6.285342719091108893e-03
1.005872535970146623e-03
1.238816576897869325e-03
-5.660094859526554160e-04
4.101585596502993307e-03
1.431646960820830193e-04
4.157702682180294991e-03
7.327905888801024975e-03
2.260218963785163692e-03
-1.366606709741926716e-03
8.401323700127991264e-05
7.949137830659950762e-03
-9.432553392325080180e-03
-7.632429956924040911e-04
2.095777185379297039e-03
-8.870780790930402754e-03
-3.440329853205701185e-03
-3.214283538450102718e-03
2.420831473618610067e-03
-3.158248355021642945e-03
-4.466634241983774740e-03
1.170694669096514727e-02
-3.140771870406599327e-03
-7.026392235981531419e-03
4.477614389133830614e-03
-3.964534874529665291e-03
-3.171709429589625144e-03
1.698634703718921325e-03
-1.190439761394727599e-03
-5.559060989920651744e-03
3.390581513473496511e-03
-1.316634272596205928e-03
-5.552099298769059416e-03
-1.819080590837094627e-04
-1.322212475698500899e-03
3.163398212746882927e-05
-2.143429402887516398e-03
-6.745332654493255316e-03
2.112242921787037665e-04
5.726468171237078519e-03
-6.361703028574715313e-03
-5.540123633168717206e-03
5.056609815079469734e-04
5.885867207875386016e-05
7.000325660750827050e-04
1.040839736562068282e-03
4.766811060576298456e-03
-2.211527738409400489e-03
1.820227729979453403e-03
6.181067618753130488e-04
-1.957132077065903888e-03
3.084767654150739630e-03
2.850003318820545418e-04
7.717473596980150077e-04
-9.096826936466481314e-03
-1.119343549735933412e-02
8.192127926974074326e-04
-1.190787287527883195e-02
2.541509191482473388e-04
3.055819439673063131e-03
5.982121641290584838e-03
7.415033636495030854e-03
-1.512729628750235399e-04
2.716190443188844835e-03
-3.051052018068450226e-03
6.475659685447842078e-04
7.646635935829632254e-04
-6.284018914767362275e-03
-1.424838531790677786e-03
-1.043374238880786804e-03
-5.553012745750983067e-03
-4.463132074748156421e-04
9.821609042229416386e-03
6.430319852713237139e-03
7.148673647259191910e-03
1.369223181997296064e-03
2.346828222862530969e-03
8.793020020679402984e-03
2.040071472360952941e-03
1.755224419522289844e-03
5.255419232387437307e-03
-5.423068059181853501e-03
-7.629394158692159519e-03
-6.648784455987166893e-03
3.427147990849681129e-03
2.429272989493600887e-03
-4.343271856397014179e-03
2.843901939720842181e-03
-1.865398681630701418e-03
-8.055511929953795836e-03
-1.577517861194426821e-04
-2.841172767263553897e-04
-5.986166664754066042e-04
5.219618981008686265e-03
4.580858265702295387e-03
3.211349102712140937e-03
1.661870408721049597e-03
7.196554818781219663e-04
1.124636668708838558e-03
1.659611497316514214e-03
1.924222095129767733e-04
7.602226979687758341e-04
1.208316737853438799e-03
-4.354257587791309165e-04
3.882842627114714172e-04
-3.179145443062507664e-03
-2.002585794539084568e-03
1.769583372876133752e-03
-1.193325241924858690e-03
-3.228204551679971380e-03
4.754453297294373022e-05
-8.675999136694633254e-03
-6.188508201153118150e-03
7.136256318705380556e-04
-5.498427096751413480e-03
1.252031098621712597e-03
3.404294725129857185e-03
-1.494892875771999243e-03
-1.796488769279380379e-03
4.434028347529393732e-03
3.599388927823502947e-04
8.783079389055459133e-04
4.166795185557964007e-03
-5.645997519554342946e-03
-7.197080922276366186e-03
-1.252085468854260324e-03
-3.349928046192274678e-03
3.028173030981220950e-03
6.091910082887921213e-03
-8.421883026002142947e-03
3.274727398095683868e-03
7.255364863938016003e-03
-1.928933843511510720e-03
4.397883057544466588e-03
2.610875827324755493e-03
-9.256132394708899494e-03
-5.191037972894621544e-03
-4.947266590045571073e-03
-8.457423356194485736e-03
7.596822785020348242e-04
1.713485239785340940e-03
-5.048863114563458335e-03
3.790040948834591788e-03
3.132541202056519924e-03
-8.883709670100433092e-04
4.986554625000536381e-03
2.126293895610111267e-03
-3.504187547496207845e-03
-4.727865018276105821e-03
-1.762563977867403348e-03
-2.940028781616151488e-03
-6.981233468135896033e-04
2.582880657197243746e-03
3.300217950072133200e-03
7.131036742536911617e-03
2.283009956720744200e-03
3.344599661870901151e-03
3.747465824656980461e-03
1.813686718560551673e-03
1.919692257734605979e-03
-1.567781815973065236e-03
-3.525771497578498830e-03
-5.481361815575804337e-06
-4.192958385135958817e-03
1.274969160244212142e-03
-3.902401865611473670e-05
6.687616444329259977e-04
3.600166491528937040e-03
1.836995015576113220e-03
-1.766588187329629816e-03
2.943550747535890032e-03
-4.061692770974964853e-03
-3.426868778637718552e-03
-4.415344820061061458e-03
-5.005504503997128783e-03
-3.740262488027400016e-03
9.482153326536138299e-04
2.812296809521943122e-03
3.378030670716511159e-03
7.830649305757395387e-03
1.242455676571014656e-03
1.980933987428309950e-03
1.973777693825957101e-04
-1.927322535219205303e-03
-2.343732013261153740e-03
4.270054291883444188e-03
-5.982042954212667997e-03
-4.717176097924102862e-03
4.196131420400506587e-03
6.113416530428952486e-03
4.199416817427928383e-03
3.696081978240766536e-03
1.112068734780090676e-02
8.756460481303636467e-03
5.797970188232544515e-03
3.847422612002798781e-03
3.156035978985767630e-03
2.040195594880634625e-03
-3.737077268957239400e-03
-1.200742979689321723e-03
-1.084038874650486862e-03
1.070535596733617791e-02
1.320748726829729103e-02
-2.797077713335733174e-04
1.894115996070060669e-03
3.671140882053555016e-03
-2.275897660194215518e-03
-4.218679921760485458e-04
-1.000496380977599102e-03
-4.328100818555166013e-03
-1.901260021257039417e-03
8.171141491025382285e-04
-7.871413611825789532e-04
1.250824292675755366e-03
5.053719714856377138e-03
1.867943404808572894e-03
-1.754944560448826879e-02
-2.303021234946282803e-02
-1.306833034080353076e-02
5.626803202867792543e-03
-5.369536772710827889e-03
-1.374631924489616401e-02
2.669893967796791584e-02
3.783517575866856414e-02
2.050904999565939663e-02
-1.299380110309966870e-02
-1.255373733025299263e-03
-1.378941079703884659e-02
-5.116249541807828000e-04
6.073264562616511632e-03
7.433045761164820513e-03
-6.706372299970521020e-03
-1.278108394962981266e-02
-1.461688270955963966e-02
3.808979113000497078e-03
6.633430564331231107e-03
1.052378482427994769e-02
7.924639912918489751e-03
-1.716926226252639908e-04
-4.237893236843934611e-03
-8.872445565025081915e-03
-9.052520674337734621e-03
-1.716820624872613483e-03
6.981861157273926317e-03
8.463629549982840811e-03
1.127838211412641664e-02
3.486794524585925571e-03
3.325226153827476067e-03
5.156819812650094773e-03
-2.806556079007782936e-03
-3.596876807126072294e-03
4.824337735819093746e-03
-2.404343631581374804e-02
-1.655273007365412954e-02
-1.200288049634676280e-02
-5.341897448875540869e-03
-1.357807651878362165e-02
-1.728739345904307251e-02
2.842520505044279257e-03
6.791576754103987278e-03
7.052830893516237945e-03
1.144055179384183100e-02
4.100878540805492044e-03
1.588954373663169477e-03
9.138935869568206444e-03
5.456997731058155741e-03
-6.473213349691584080e-03
8.817591450374947029e-03
9.960020445870368389e-03
-1.525446361306246603e-03
-4.369968070524764096e-03
-4.941474422635955266e-03
-8.123513034921462164e-03
2.236762558071527136e-03
7.109943059653205631e-03
-3.167857662129971129e-03
-3.808975244818078171e-03
4.828649211942813088e-03
9.173204677841531943e-03
2.682554528852715715e-03
6.119402695232044158e-03
-3.769278602975041897e-03
1.266155131062290072e-04
1.437263019892253465e-03
-9.124134656361856249e-03
-2.666806771408544545e-03
-1.575933491414957532e-02
-2.277327336094759486e-02
3.682903636841722544e-03
-1.015676838845258959e-02
2.079831364396439106e-03
-6.565814155427563727e-03
-1.398062085626154347e-02
-3.283360235284115032e-03
1.160370786007397384e-03
1.995990831383755246e-03
1.052702249296427750e-02
1.460016442514665714e-03
-1.381803631398174220e-03
-1.259220756486022740e-02
-5.863380272540885327e-03
-3.588397944673725644e-03
-7.494950025091010872e-04
-1.856609968159883897e-02
-2.033959556140424452e-02
-1.491329185783730679e-02
-1.474430721433688668e-02
-2.102401531876772409e-02
-8.416837114311211468e-03
1.187289119321689561e-02
1.229668500399289620e-02
-1.682313149744065622e-02
4.138618655981224359e-03
8.726098105265396934e-03
1.154211730574192761e-02
1.272002855833537401e-02
2.135593728278451647e-02
1.597147454798434132e-02
-2.252384792996215638e-03
3.894584117423403880e-03
1.691531608674839982e-02
-6.026077959156430838e-03
-1.208699663735676895e-02
-4.089790976130072871e-03
-1.990553714176237360e-02
-2.007860735953326953e-02
-2.775204267096290783e-02
1.616144601519662119e-02
4.306694276613284161e-02
2.583002019083232778e-02
4.118331973287123887e-03
5.167715708886674864e-03
1.161949526638793480e-02
1.879680968558859397e-02
2.315826949547462876e-02
1.657696036832394595e-02
-5.305694936211183786e-03
-3.129759933489643410e-03
4.314978376080857124e-03
-8.502344253718928033e-03
-6.464373005592221819e-03
-3.237639092733303296e-03
-7.858651041767427542e-03
-2.104082740660435935e-02
-2.033170446927039590e-02
2.114600715474722770e-04
3.621735294620661259e-03
1.059010829321021391e-02
1.436983156894271196e-02
1.166871730743665805e-02
4.446908346330111575e-03
-2.905980165120970130e-03
-5.238807873102533687e-03
-3.870640068252561433e-03
-1.111366252856069332e-02
-1.061456004132349182e-02
-7.500583645965392190e-03
-6.868908876788334603e-03
2.450192037333757305e-04
6.674778146430506744e-03
-5.328816996618084174e-03
-4.936971278073396842e-03
-6.923433422296410185e-03
-1.547279543331284840e-03
-2.186767267357334673e-03
-6.061098742091920039e-03
2.204590884896421958e-03
2.217517383493621420e-03
-4.412672030789105068e-03
-1.862986666876868466e-02
-2.170410271182241987e-02
-8.154925383887805593e-03
-2.066323477981731136e-03
9.357279874593209842e-05
5.768127247529624031e-03
1.561250741295175035e-02
1.602578305550433901e-02
1.122633185150236947e-02
-2.006572244389706692e-03
3.157152854104867436e-03
5.934930429555100410e-03
-1.358206848303956937e-02
-6.738970053439029620e-03
-7.546059932569108451e-04
-8.546235552576643413e-03
-6.821230240524613422e-03
2.952468755063623364e-03
-1.757518352325571510e-03
-1.547801361139547645e-03
3.054915825736909465e-03
-4.743643582385661042e-03
1.505526382305424600e-03
9.872980152361057749e-03
-3.214620119387857737e-03
-2.555646619837467770e-03
-2.477049794911374836e-03
-3.143756951571177044e-03
-3.459921487687755114e-03
-3.160462277573060624e-03
-3.084094879583900405e-03
6.131833099434064009e-03
-2.674914288348710818e-03
-4.281917601176848422e-03
7.391044456236809876e-03
-2.575951676398056858e-03
1.063640927630556815e-02
1.747461078037334040e-03
1.019315773432776396e-03
9.394162607135868662e-03
-1.052445866165725892e-02
-1.577871644215773613e-03
-9.510680771584003809e-03
-1.824522041134140835e-02
-1.334303415048509155e-02
4.756684579182449135e-03
-2.839114570424743252e-03
-1.143595175130968609e-02
-7.469705879809292355e-03
-7.624439945870641576e-03
-1.357422380909474591e-02
1.846489835907344848e-03
5.014570885571987581e-03
3.342136106679301569e-03
1.232447209239657081e-02
1.123368275196146536e-02
-1.113969539623755429e-03
1.577910132630838246e-03
-4.164467784993204809e-03
-7.704383671914876580e-03
-1.191778725245782981e-02
-6.891094063413460633e-03
-8.984460971728900139e-03
-9.370097483855326440e-03
3.416272143640319836e-03
-4.625831317509399368e-03
-1.494462993770121276e-02
-3.758863715222208590e-03
2.523766220798480397e-03
-1.367632835221486813e-02
-5.643265220195549901e-03
5.798152079462431420e-03
9.757951238144065400e-04
3.460407137990404239e-03
2.611025066614439116e-03
-4.110111312011215101e-03
1.377119746012108771e-02
5.263460573292455362e-04
-1.836918405330877774e-02
-1.197423718576474125e-03
-3.146267208551697513e-03
7.116033706280337941e-04
-3.181939780224712910e-03
-7.315283009023514907e-04
-1.043368228415898942e-02
-7.280938577783909946e-03
-2.873542360995468958e-03
-6.576600001874335043e-03
-9.074200869748120027e-03
-6.014186972992678105e-03
3.684866352600895713e-03
1.436599162425581354e-02
-8.456825417108606831e-04
-1.377603346178076296e-02
-1.614387092837792428e-02
-5.530136937409913314e-03
-2.040949168361628856e-04
-1.189041947502832673e-02
-7.765014530188878682e-03
-5.104450618385636927e-03
6.685585848107944082e-03
1.139961733362485595e-02
-1.020122424853429216e-02
-1.993784516836773213e-02
-1.868606942521905054e-02
2.069139514782437905e-02
1.075928557219507815e-02
-9.631543098297296740e-03
-4.643316855905105234e-03
-5.415779733069902430e-03
-5.643983735079795630e-03
8.632057948851473142e-04
-8.192343086058952433e-04
-5.281406618805089409e-03
-6.087652267122319744e-03
-5.179712876657816163e-03
-5.612949694353987391e-03
1.216889495597709737e-02
2.701054304678565839e-03
-1.192162274873494708e-03
2.580684784405398464e-03
1.251941107947075575e-02
1.359594462042052268e-02
-2.177754982549469365e-02
-2.289102547558724901e-02
-2.182027854212651580e-02
2.589034449564966284e-02
2.309903969287262562e-02
1.913955849878579835e-02
-2.777833470686181389e-03
-2.111773460945002602e-03
-9.906755573966894574e-04
-1.120158960288945805e-03
-1.572542449297733257e-03
-4.184724102455320179e-03
-1.087473859963153247e-03
4.709256464551762715e-03
4.896461855571281746e-03
5.001397367808218218e-03
1.121432886274780112e-02
9.280966907505551478e-03
1.045344934344524411e-03
5.755149171759299694e-03
7.342615551517271341e-03
-4.663962967013967828e-03
-6.767639549785511160e-03
-2.926904977395698368e-03
-6.184032076952394874e-03
4.970500518311516411e-04
7.788158593068466619e-03
7.067814800416457460e-03
-1.214495178962487088e-03
6.207394939678645418e-03
4.684723252690545583e-03
6.653640224135042719e-03
-4.808585397782574010e-03
5.422372436307268048e-03
