2.508114687250908616e-03
2.898035641957259247e-03
1.939387201134431474e-03
2.604817063705213895e-04
1.614624795616378169e-03
1.237038807674915430e-03
1.342855468001130041e-03
1.630541494477579217e-03
2.438999451646987825e-05
6.923693045525501633e-02
5.789967547246098467e-02
-1.418903479056611745e-02
4.081612056146236706e-02
-2.870488997965257340e-03
-6.009019533974816613e-02
1.158354934950796451e-02
-3.244144192393911413e-02
-3.157684116507090966e-02
-1.328529722267493725e-02
-9.706387363173724081e-03
-9.912374095764387577e-03
-3.588968490688868116e-03
1.605565684234272743e-03
1.111532431451705237e-03
1.691132678961024954e-02
2.177132250988816214e-02
1.847083930314090752e-02
-9.088932838562590114e-03
3.248048734624627704e-02
5.565846106444449076e-02
-5.619475235889345027e-02
-4.549904108062079178e-02
3.572841244002008393e-02
-2.739985542364250029e-02
-3.429386498873261691e-02
9.013795218386289748e-03
1.416541311642366061e-02
1.407679577647462897e-02
1.833606719196302116e-03
5.817858772913625000e-03
9.838292081750601731e-04
3.660841992403730556e-03
1.273492520640451785e-02
-6.120738718923977341e-03
1.535914850799805463e-02
-3.817473985194817809e-04
3.382290265281851427e-04
2.444118720439522282e-04
-1.413557893750199898e-03
2.760321953667884098e-05
-3.820335643727379893e-04
1.629436360298886432e-04
-5.557915889787150071e-04
-1.031886507475521545e-03
-1.505633772918830125e-02
2.451831221685609255e-02
1.251960269362935134e-02
-6.276166915721216599e-02
-1.699539826761109138e-02
2.537128536005880258e-02
-4.133897980058252181e-02
-1.224223791867526910e-02
5.596604545523342633e-02
-2.014083477230223934e-02
-2.019032695055482038e-02
-1.712269530381437541e-03
-2.577893820466798519e-02
-2.618024415226881743e-02
-1.510252565050033968e-02
4.053719755340877418e-02
2.187892767991878040e-02
3.249144658455882517e-02
-6.261899478296063803e-03
-4.995052205412661532e-03
-3.625528911084344511e-03
-7.153385671388885411e-03
-4.833664877985560659e-03
-2.896240699344819047e-03
-2.353442312350372857e-03
-2.253019063045181257e-03
-1.163314420342361107e-03
1.063352118464167776e-03
-1.636233274166264953e-03
-7.564352628368746674e-03
4.349634779278458395e-03
1.112293091468657610e-03
-5.909594550147702352e-03
6.948533030022552813e-03
3.643976484404776650e-04
-6.838512742039404464e-03
-7.342150666978543988e-03
-8.656453986248185267e-03
-7.196879476480694086e-03
-5.809408727113998631e-03
-8.995690793224271620e-03
-8.672285749220567594e-03
-4.666703140083226613e-03
-7.708752598842470542e-03
-8.238090797734819171e-03
-8.443975750610612559e-04
3.348763167092963424e-03
4.963953485209576626e-03
-9.962497738304303824e-03
-3.668253096677258872e-03
5.148339444404825480e-03
-1.411222156807685757e-02
-5.402367994311153311e-03
5.007119373262276102e-03
-1.727039953122864145e-03
2.542379509182975290e-03
5.112943935851564647e-03
-8.624164371705250048e-03
-5.875340121214689924e-03
-2.876941616860534054e-03
-1.274656894913751143e-02
-1.131991659333812447e-02
-5.969537964086677265e-03
-7.119207218862748029e-03
-1.330365412603810513e-02
5.391932168933702418e-03
-1.543410442988055013e-02
-1.802778933727171295e-02
-1.777751516867873529e-03
1.617032925172990840e-02
1.682288953524826991e-02
2.004071793727949663e-02
1.554114067280779683e-04
1.906550699813702125e-03
2.577578805081686287e-03
-6.232714145056705672e-03
-7.500376193227995675e-03
-3.699182841050899576e-03
-5.933724585295599777e-03
-5.318170366804554280e-03
-2.270247967631739468e-03
8.728034154524236254e-03
5.747349262729749969e-03
-1.171643638568506006e-03
1.292651835206427326e-02
5.051014742334766078e-03
-5.665010548536663845e-03
1.323179943923532241e-02
4.013345283482308242e-04
-1.109531599944216934e-02
-2.694546459333669979e-03
-1.300368601883622466e-03
-6.892855623844725260e-04
-3.322179658717619270e-03
-1.727843606650311540e-03
-3.141136976548313670e-03
-2.693272453722252938e-03
-2.826903510707965469e-03
-2.032839529944737225e-03
7.651678248642262460e-03
1.998112585166727032e-02
1.506067063282427732e-02
-8.314681406788823961e-03
-3.459144734105643049e-02
-9.280614646416957686e-03
-3.268059375732642463e-02
-3.685155770473991926e-02
-9.048239228856542679e-03
-3.947978537754561032e-04
-5.593778660363938650e-03
-4.300167862223073026e-03
1.059200250427035084e-02
9.665563985066957103e-03
6.529474395062359951e-03
2.364331454700401361e-02
2.175516682536481755e-02
2.086671932107826352e-02
-4.457716853552726177e-02
-5.275383272846487226e-02
-1.746902504722511532e-02
-1.443721775296798356e-02
-2.156730928790035265e-02
-6.315302102288124220e-03
6.147319343812866245e-03
1.819226896141121555e-02
1.054542643295286811e-02
1.493870308446010493e-02
-6.503795003145871299e-03
5.557682624053842009e-03
2.746594160699158179e-03
-2.054505640244019479e-02
9.268398655808082493e-04
1.779343744265739907e-02
-4.796336579219850904e-03
4.583559062105698259e-03
-1.579206279107813783e-03
-1.167166925227797452e-03
1.487138152399862943e-05
-9.372988978934572142e-04
-1.345617404901558803e-03
-5.581555747791490385e-04
5.559886905138165802e-05
-2.147703504269958302e-04
1.373667860793107874e-03
-2.383306196268101043e-02
-3.012057657083060808e-02
-2.086055221584804525e-02
-1.703263714000410531e-02
-4.399480916752427501e-02
-2.871009898285157777e-02
1.730494536542069584e-02
-4.341662847963651916e-04
-1.204804373531575580e-02
1.227275253174758482e-02
4.217839120420132509e-02
3.900739597346436060e-03
4.642221246136581797e-02
2.809263615168356223e-02
2.257381106309181568e-02
1.357962362621225813e-02
3.206105433708632269e-02
7.082429626118508063e-03
-3.213295896606127577e-03
-3.093698756452043994e-03
-3.389660788655159476e-03
-1.804029470095542750e-03
-1.831192530256954597e-03
-1.423003974007101260e-03
1.157509219492955854e-03
2.133421489691296122e-03
1.637251133282093473e-04
4.543279973913905904e-04
1.393258729981633600e-03
2.217639381079025088e-03
1.948247670367096859e-03
3.071662867572381734e-03
3.492788391584383118e-03
1.415946121359121712e-03
1.240788747639813170e-03
3.416670654833270631e-03
-1.789704466479949971e-03
-1.807259659044250458e-03
-3.013916750773384164e-03
3.751909183451621944e-04
-7.658646662234594275e-04
-1.310613399423667938e-03
-1.561676770671510130e-04
1.093563373156477159e-03
-4.506599395995711721e-04
-7.993476248531292128e-03
-8.500526474422726367e-03
-6.460048921988378358e-03
-2.062575556829235584e-03
-3.407308516943022628e-03
-7.260625377532761715e-03
2.986355131235681176e-03
1.269936225463618416e-04
-5.739060110671787528e-03
-3.672060326177396285e-03
-5.360620878762770852e-03
-2.852655947555849270e-03
-2.676690889981662384e-03
-3.345499025369378081e-03
-2.623877036542736439e-03
-4.657068311531174304e-05
1.084838365581792781e-03
-3.089463425529673213e-04
2.494899542804790015e-04
-7.215174853923735088e-03
-8.440027237690793382e-03
8.576932929917631399e-03
1.452933451557788559e-02
1.382742919351987289e-03
1.761444821562928656e-02
2.080656272154322167e-02
9.944975602365561940e-03
3.451268632500488248e-05
-5.384146629223184651e-04
-2.278911327534097772e-04
3.795872759990873775e-04
-9.456094437913246855e-04
-2.115956100496516870e-04
-1.587375106909358130e-03
-5.531223782607577527e-04
2.011711511234835347e-04
3.664397348187533286e-03
4.490028215200481641e-03
-2.933670062750612199e-03
3.959550421437216770e-03
2.407200632367278244e-04
-7.554714836432278174e-03
-1.638789266450924780e-03
-5.304296679007342551e-03
-5.952065323956124386e-03
8.041305547596590687e-05
2.291884533828253100e-05
1.784675725233005348e-05
3.621852855196618982e-05
2.822092852426174843e-05
4.553777610792113592e-05
2.578046857002576762e-05
-9.493445218839318114e-07
9.710780528993565348e-06
-1.105958744700511067e-04
-8.454091183923701089e-05
-1.162758106140784865e-04
-1.069655693719925908e-04
-1.041529643699631191e-04
-1.192707002958540358e-04
-1.105603976311758820e-04
-1.168937520912137094e-04
-1.057604755714607151e-04
7.916951171330085624e-05
1.110934561352970156e-04
1.004383782195501372e-04
7.409161174897976681e-05
6.785174955139001572e-05
6.196143909683617373e-05
7.300335743647963060e-05
7.526729047727886382e-05
9.181245388733308118e-05
-5.194902396531389153e-05
-5.265637802042665965e-05
-2.328155178373327399e-05
-6.755308746411854378e-05
-2.582315021679596552e-05
3.554600503102043804e-06
-4.814576091772947440e-05
-2.099420889328171687e-05
-5.082859425755621740e-05
7.905208854462950204e-05
9.285169726612742757e-05
9.603614939562393716e-05
5.758495606112200391e-05
5.925975773635593649e-05
9.131115125800975951e-05
7.200920338709378230e-05
3.877993017472905300e-05
7.446809792153022466e-05
-5.440295113430713655e-05
-6.561200885710054016e-05
-8.664730886740957996e-05
-6.713413244503106886e-05
-3.614076344275182285e-05
-1.084463306745986767e-04
-9.845786468931966751e-05
-3.600705011222984561e-05
-7.877641496254866307e-05
-6.539959166433554196e-05
-5.436322133077154192e-05
-5.291516134399930192e-05
-3.854601286240437881e-05
-1.006125278503818579e-04
-7.785857107678286675e-05
-2.703681925872453699e-05
-7.860736949731002884e-05
-5.986533855994642536e-05
-2.362379049475564266e-05
-3.599822376655801383e-05
-3.793362364735330716e-05
2.078937894083073752e-06
-2.038159714998679715e-05
2.742208435289486192e-06
-5.153161326791867975e-06
-2.231310400251614692e-06
3.276041532259410391e-05
1.529757036295199292e-04
1.726773997784767755e-04
1.637471224727522388e-04
1.965201641451821968e-04
1.726545936734860264e-04
1.626023544983248728e-04
1.801058850385499181e-04
1.545896170780330198e-04
1.470349716797146242e-04
-2.911763344286363445e-06
3.161115239924122954e-05
5.367941453346167344e-06
1.250664788068205112e-06
3.433542098447237570e-05
1.763760502314275854e-05
3.976727765665632075e-05
5.143944644692303650e-05
-1.114140852866398085e-05
-4.538615837377966901e-05
-2.551939673194539559e-05
-1.355059900863512575e-05
-1.851914458112656801e-05
9.693647070218861981e-06
4.469538753683865829e-07
1.067952683853781779e-05
1.308031718130416054e-05
-2.131091096832124862e-05
-2.864515490912553664e-05
-1.502492948819435950e-05
-2.517889629482780777e-05
2.325255987996418500e-05
2.514433267295327704e-05
-2.885720000548281592e-05
-1.761250371563695053e-05
2.611225635759610265e-06
1.073995784875762107e-05
-7.449151810719386853e-05
-8.243828745519847815e-05
-5.592991440754095070e-05
-5.209880492944264033e-05
-9.527005639614551276e-05
-5.320473990131710252e-05
-6.009037784654263064e-05
-4.346768462353188626e-05
-2.383367171674176589e-05
1.800197374241500762e-04
1.570393490424291949e-04
1.141302553029966050e-04
1.584182033533664132e-04
1.490215652166075079e-04
9.064213772491022919e-05
1.368984332121790095e-04
9.251901146157306402e-05
1.031759194593253551e-04
6.032690226572414805e-05
7.500386810862278797e-05
8.740789034084851751e-05
-7.286010031949965091e-06
5.028800262518035025e-05
3.730945624339579030e-05
4.352560276699811285e-05
5.919073750072411988e-05
4.813324218401154837e-05
5.080865183570348302e-06
-2.959681153594305274e-05
-4.637847686915413177e-05
-2.261559284598093798e-05
-3.078405869291874554e-05
-3.067246625063665792e-05
-5.983040892167081141e-05
-4.872514299261159219e-05
-3.059195845041687083e-05
-2.226221132696681350e-03
-1.350796359719974322e-03
-1.679800367596922910e-03
-1.522051167366894392e-03
-1.498325362591659609e-03
-4.178782972064231868e-03
-1.145128897776134363e-04
1.095562017238352033e-03
-2.108319392385530310e-03
7.964790375513218848e-03
1.117033534407399151e-02
1.509638989464191783e-02
-3.818007540761995510e-03
3.642498564257332094e-02
4.113706613168758436e-02
-1.161510307155737970e-02
2.261969314246666321e-02
2.111708562660121261e-02
4.968142423305404445e-04
6.166348533946023128e-03
8.137134481506741457e-03
6.857864393408240854e-03
1.331033900922611903e-02
1.670410534923603627e-02
5.366605704226815304e-04
8.383914304634185188e-03
1.190034604561830342e-02
1.131884459378624391e-02
7.986574078791781883e-03
2.077145035859263768e-03
5.668902477635659291e-03
-1.113510299255903542e-03
-6.216811877850224842e-03
-4.075910391139592366e-03
-8.872113336509671738e-03
-1.042431382151917836e-02
-9.907928059561674911e-03
-1.179768936064359668e-02
-9.680338641703442257e-03
2.269696295374807118e-02
1.239563059581918168e-02
-1.845831144055837605e-02
1.386513217965034545e-02
5.078195030087908485e-03
-2.248964625047555552e-02
2.217650940650061145e-03
2.582579610160839600e-03
4.669170956847559784e-04
1.460548409912677250e-03
5.364949275798363898e-04
-1.230736791736228948e-03
-5.729042940134499275e-04
-1.983140402299873959e-03
-2.038931962043149474e-03
4.615897004200651970e-04
-5.449306586101945954e-04
-5.385454580778372032e-03
-7.561849588023341652e-03
5.980319510884925293e-04
9.410216872838352703e-03
-5.450223931671648384e-03
-1.350484343384468098e-03
1.063149527149671696e-02
-5.683800430007773666e-04
-4.698710785792720862e-03
-1.191050334170578109e-02
-3.201702982704689171e-03
1.246722005166820552e-02
1.288832694123101877e-02
-9.212926739665281903e-03
2.360611409788019449e-02
2.503405613578427516e-02
5.814449170865868726e-04
5.046498505296890223e-03
3.928092404606482214e-03
-4.020779110818555545e-04
1.977890056140250812e-03
2.155135254858268304e-04
-3.251724631225082728e-03
-3.903643532320816376e-04
-2.007748013285294043e-03
1.880380438135486514e-03
2.780204764047828898e-04
2.494623741636466173e-04
1.104228499444556173e-04
-1.947162318444094990e-04
-3.604495217935438454e-03
-7.084899216165728517e-04
-1.467919176871262466e-03
-1.603444676179023674e-03
6.635355745768878408e-04
3.267698384909970086e-03
1.738298266544831012e-03
5.265751453329529805e-05
1.895750362256603270e-03
9.736013198857863078e-04
-1.418646910832916871e-03
7.247852555728873233e-04
1.243725776839375158e-03
6.549640526338522915e-03
9.729932459717547180e-03
7.184946474600092080e-03
5.398549533159696830e-03
9.231820606329604537e-03
9.224035902037916804e-03
-2.239931940300849030e-03
1.518373720822589496e-03
1.146833174179858568e-03
5.555002791776758597e-03
6.339294771763211156e-03
8.687983518711941272e-03
4.379291030126704516e-03
9.492959915259408660e-03
1.490115459290844609e-02
-9.838384663495044861e-04
2.975532168181960462e-03
7.787766731878815150e-03
-1.115137668032901985e-02
-3.401605371984943969e-03
-5.016902367971601273e-03
-2.487115967051462592e-03
1.338854823669858272e-02
1.380088686453593769e-02
-1.717534395746934256e-02
-2.833803268011346379e-03
3.938742611237582535e-03
8.191856323505952026e-03
1.216706384557422749e-02
1.364507676646172993e-02
7.501171224868115502e-03
1.494751365011044719e-02
1.975984710716837886e-02
4.028586168688283627e-03
8.982456256850014989e-03
1.515962505439425595e-02
5.675149595306198426e-03
1.085790221337228816e-03
1.635426449603237607e-03
2.986647980036671000e-03
-7.744097743872113563e-04
9.672744650216808394e-04
7.449253766564561258e-03
8.133092162318349486e-03
5.396171848143593505e-03
5.921624494881857397e-04
4.240691873199289993e-04
2.387796842128114610e-04
3.624296903023482104e-04
5.746517259290232979e-04
8.111399891014612175e-04
1.540540503045402174e-03
-1.136647612903499615e-03
-2.065373643215973661e-03
2.156759969548225145e-02
1.986400561105590781e-02
1.072263620465831353e-02
1.860135229783033139e-02
1.925526534575428342e-02
1.298392542187734242e-02
-4.640663001586693183e-03
3.484466357421078277e-03
3.641553222618874788e-03
-9.669531781765970625e-04
-6.574011377148463115e-04
-2.861276239519324784e-03
1.029807326671824778e-03
1.656957580951512509e-03
8.999744029752919155e-04
2.690698672202880212e-04
1.976413780461048868e-03
-6.348246842265678523e-04
-9.947525383728249293e-03
-1.418382224400140806e-02
-1.108214598190934708e-02
1.385404225979724319e-02
1.480993735141811381e-02
6.083259742436891195e-03
9.037149607904332305e-03
1.657383638219660227e-02
1.095842159272124652e-02
-4.359086835984795141e-03
-1.123576794556964756e-02
3.111610428202453427e-03
3.359966194245208714e-03
-3.314598311939835271e-03
5.975707546711269379e-03
-7.694378728143218445e-03
1.620774096889689804e-03
5.728976571689341039e-03
4.745817428660807310e-04
3.709794660597998811e-03
1.510797954308121379e-03
3.015376165137429872e-05
1.657406331732958317e-03
6.769206996753327713e-04
-1.539413140929806346e-03
-4.661246555909053998e-04
-2.759706527128745392e-03
-3.890373506594969021e-03
-3.462217680004493325e-03
5.853388434512519882e-03
1.384552821287921183e-03
2.182695235088136579e-03
1.108176653776282716e-02
1.463728596266368823e-02
1.440375142695290121e-02
1.632562527385709658e-02
9.113617068021336032e-03
4.427320315101435609e-03
1.126194012708630222e-03
2.522618681975576094e-02
1.056074799433893464e-02
2.235995306932666085e-03
1.113070794932337869e-02
1.374496282289231711e-03
-2.448808191301779340e-03
-1.576615165795589892e-04
6.795109867571886859e-04
-4.148254632852164101e-04
-1.642361328302562170e-03
-1.460208843109052140e-03
-2.436406347612657744e-03
-3.254251312679167386e-03
-4.215992941659684259e-03
-3.232878110135789171e-03
-5.513941874060928304e-03
-4.576747097815261900e-03
-4.002000209703460674e-03
-5.094031644107952471e-03
-3.604271974805720122e-03
-3.594874063943215379e-03
-2.886543907069928378e-03
-2.903350228278405148e-03
-1.547806729388625331e-03
3.733537238013213294e-04
1.649423270005224030e-03
3.158616975761901883e-05
-4.471460381540404106e-04
-8.139707198720813391e-04
-4.618200295300613862e-04
-1.947135168875250167e-03
-2.345233490878482346e-03
-2.937133448477780712e-03
7.370072935597097273e-03
8.893673903284396443e-03
5.824040021551695270e-03
3.613434776568368208e-03
5.574238216237408644e-03
3.163634285692502445e-03
-4.563398794803754689e-03
-1.433860491095797834e-03
2.636857612813850926e-04
7.721595456584761687e-03
8.027190823849278747e-03
6.014019144559476157e-03
6.843757016324934252e-03
9.265175105045660164e-03
6.909715766501977642e-03
6.917066098662257110e-04
3.930222240424486452e-03
1.223786315838641626e-03
-2.847912233887242225e-03
-1.022098415490995272e-03
-7.364852136912182837e-03
4.624419608570643804e-03
3.792512624121792061e-03
7.190958090088343151e-04
-1.879569481341870213e-03
-3.414732310069674114e-03
-4.191622044317041239e-03
1.528146553687447125e-02
1.404344081605249719e-02
1.055479046311330084e-02
1.094542347965902183e-02
1.140469071480265835e-02
8.635542180411159494e-03
3.464473694862033829e-03
3.735279153375184718e-03
3.268431209268024811e-03
7.549045166894317697e-03
6.363681442769871487e-03
5.605095586504264468e-03
4.920437237701404294e-03
3.049883426718429883e-03
3.815515672639196738e-03
3.746951793177286973e-03
1.800718019254413365e-03
5.124608733352746699e-03
-2.716632140002313582e-05
-1.267616200698813310e-03
5.381414786483380971e-04
6.304764719634453618e-04
-7.469005187095402671e-04
8.989903538177136362e-04
6.974213667412895072e-04
-7.088021063422105580e-04
2.282887435478856905e-03
-1.343868802660196614e-02
-4.990881195018320726e-02
-3.085679911745612541e-02
-2.073761078874467381e-02
-4.245385398446962361e-02
4.601559201808479507e-03
1.653117314117347886e-02
1.913409276997960623e-02
2.641356617833535633e-02
1.163222323432176221e-02
1.830412916098703852e-02
1.271492654428546011e-02
9.186444189206104116e-03
1.238884195011028672e-02
4.247734902949427439e-03
-5.429218029724110738e-03
-1.108057578938464625e-03
-2.634894082844707695e-03
-4.826507359579779860e-02
4.392858607132910792e-02
8.598944565948812846e-02
-7.614130670051491578e-02
-2.106508028444898858e-02
4.573389034153892835e-02
-5.259586650682280401e-02
-7.002970321806795129e-02
-5.810265680990486098e-02
-1.554605787037458518e-02
-2.374694971894140971e-02
-3.522724976373716333e-03
-1.211421648510240152e-02
-1.283766820687504834e-02
1.828265175231860024e-02
1.213270708045459736e-02
-1.141570518815215873e-02
2.446548999543786407e-02
-1.888871388416345177e-03
-3.550563529992425884e-03
7.858247135537961992e-04
-3.984330443762422978e-03
-2.346208817991574883e-03
-6.462494331167957908e-04
-3.094954305059340657e-03
-3.455530570621291597e-03
-1.888719049248139712e-04
-7.811699959867607346e-03
1.060674405554216243e-02
-8.303199733787087339e-03
-1.978463717660934595e-02
3.685489784934730534e-02
3.799635655959870267e-02
-3.395678684077036574e-02
1.215353498301138466e-02
1.476400753441396187e-02
2.841836487854198373e-02
2.573487040821858217e-03
-4.711377573193018670e-02
1.089739372062851000e-02
-3.151380021453612651e-02
-1.102081919423001169e-02
5.335802991093534665e-04
1.157941427085671174e-02
-1.207328692743291250e-02
-1.857699033767991098e-04
9.960939823797671389e-04
2.485965329946113536e-04
5.306946979544056945e-05
-9.642641933761480436e-04
-7.562933020457318547e-04
-2.196836007217352772e-03
-2.218767511121124986e-03
-2.937172346789137384e-03
9.374675431060224690e-03
9.365029401326980737e-03
6.369979605586510198e-03
5.727070961534596640e-03
4.532769491138633096e-03
3.885974737162839932e-04
2.950560914085903399e-03
-6.014722886558693119e-04
-2.404704390423575543e-03
1.943679666879767143e-03
1.140729667593210796e-03
5.790876297251397464e-03
-1.391407517003341663e-04
4.763125625853636193e-05
1.760968871220135222e-03
-4.711745525012137753e-03
-3.011990317821517348e-03
-3.103597361153041106e-03
1.039822692855540791e-02
1.282274227182575096e-02
9.489084306320715381e-03
1.018177977917968449e-02
1.050153982029819986e-02
2.835654998937156036e-03
6.387619185301806647e-03
7.532595037216475130e-03
5.773040290218297427e-03
-2.006193766150663610e-03
4.619957555095522556e-03
5.918051931727588005e-03
-3.359330228199721921e-03
5.140765402916836011e-04
1.247282720693446059e-03
-8.772391920451764330e-03
-6.257368307099806654e-03
-4.325322677040088423e-03
-1.036855268160706382e-02
6.649450447173781403e-04
4.984090095318084203e-03
7.973339313589618976e-03
2.413325084804511522e-03
-1.749423112343429995e-02
-1.640622453000029762e-02
-1.508649392571709442e-02
-2.127453457048885527e-02
-2.776812184681381763e-03
-9.599440629363455981e-04
-3.657718824675058183e-03
-9.972153714528128165e-04
9.983850669076361865e-04
1.187919412162049724e-04
3.298946488646202577e-03
1.790336915169835541e-03
2.771786135627275945e-03
-5.365081079971433466e-06
-8.090241519823307415e-03
-7.527762874376449191e-03
1.201393690887398759e-03
-8.367335158877532708e-03
-3.553995671736157914e-03
6.457558999516770093e-03
4.201351374358846744e-03
8.579747035540825906e-03
-2.995834815230066350e-03
-7.321733309317211792e-04
-9.890983428773054281e-04
-3.451376041331684959e-03
-4.498137048880642731e-03
-3.183551142505364456e-03
-8.955137458681105634e-04
-1.641043839011912045e-03
-2.812569219174872702e-03
-9.515611323927676557e-03
-6.731004701832428612e-03
-5.400801124739462895e-03
-5.788407548904032224e-03
-1.554583188060503114e-02
-1.000932269073571794e-02
-5.801448031807513936e-03
-8.022261484418811636e-03
-2.311669181515848062e-02
-2.781135178526341831e-03
4.380291802563449424e-03
8.715312535994312534e-03
-2.892635165482148447e-04
1.226642946178263527e-02
1.893519562437948750e-02
-2.156174784266308431e-03
1.511613335612738487e-02
2.496200506860216453e-02
-2.316038902913735223e-02
2.108737347232834611e-02
4.417822346022682450e-02
8.920637242165751352e-03
3.569463705060749864e-02
3.626986362201019276e-02
-2.942094438051560436e-03
1.568537490612609839e-03
-7.050090718788168918e-03
-6.229109725407065180e-03
-1.195802030331689133e-03
-1.202234004740226035e-02
-2.292893614150433648e-02
-1.539446854710659930e-02
-1.447251272311014629e-02
-3.024565322470107454e-02
-3.201095692831382872e-02
-1.985083176416080342e-02
2.606880558999137131e-03
9.743660749790784489e-04
1.367818190648326581e-03
1.008550602381518132e-03
1.164980787674535978e-03
1.236579633704927529e-03
-1.164083121900336181e-03
-1.766651317088119809e-03
-2.389091357192276441e-04
-8.225463234860685285e-03
6.959143750002902765e-03
6.573359937542730923e-03
-8.872092554313440460e-03
8.835717482846224685e-03
4.747667630272995806e-03
7.024315343190219024e-03
1.131300090653178901e-02
-1.143320693557955264e-02
-1.169196227549160715e-02
-1.361726802866873066e-02
-2.413649399547029145e-02
1.080461268464239129e-02
-2.924132160336827616e-02
-3.300262775929897752e-02
3.022545760280502189e-02
-1.193378949167951501e-02
-3.938990686738031571e-02
-1.583130996948117677e-03
-1.595176300635167384e-03
-1.547439372081401560e-03
-4.877962945220034956e-04
-1.758710780655649633e-03
-2.702052235917156396e-03
-3.431767117662379903e-03
-4.010852257283595984e-03
-3.225794289195001857e-03
1.420943977389307195e-02
1.353079780343180265e-02
1.145953665793720058e-02
1.440949206529957075e-02
1.226947159264016839e-02
1.160801174863757695e-02
1.535663809680418504e-02
1.371553692137466099e-02
1.072611031971213054e-02
9.841298788889269941e-03
1.045695376455297275e-02
9.225796826921065993e-03
6.474210341723701627e-03
1.036242911697592486e-02
7.782203980914857711e-03
2.619523206294319204e-03
8.808674935258541464e-03
6.323017727791247627e-03
-2.511692269165606735e-03
1.051728706468858278e-03
-2.747938857287639432e-03
-5.905825449828793969e-03
-3.421939048000421923e-03
-6.458499332651759794e-03
-7.586945827179362653e-03
-1.373784719254251933e-02
-1.609342439719144147e-02
8.767458947647695016e-04
2.641186666712201300e-03
4.981354299269315396e-03
-5.490400698640356602e-04
4.199940680225540922e-03
5.467401428660761606e-03
-5.424008711935932210e-03
-1.837331621904425734e-03
1.568041420211799221e-03
-3.040051510705161532e-03
1.035983728356515074e-02
4.806675394623588851e-03
-1.456254160972241495e-02
6.142760380989582478e-03
1.585487473436114278e-02
-2.589693710974999216e-02
8.887978436180239434e-04
2.121030380092898612e-02
2.754992023581707278e-03
-4.890949654739098210e-05
1.526127012517394192e-03
-2.885759167188370247e-04
6.567754390103589489e-04
8.895881812143802744e-04
-1.465545196281193619e-04
3.548689035622728453e-04
-7.125486468517794108e-04
-9.732143846112494695e-03
-1.125664705543414669e-02
-1.086479297108250072e-02
-1.037264387410551103e-02
-1.188178669430890733e-02
-5.649993545864762101e-03
-9.004295294270383068e-03
-5.735861115732412453e-03
-3.548619305095779622e-03
-1.043034039043803810e-05
-3.202361708250631165e-06
-4.306960071964753706e-06
-4.008479148298595199e-06
-9.839217895717857005e-06
-1.012289139464070335e-05
-6.156696601665516876e-06
6.992420103611523839e-06
5.677796851880576079e-06
-1.714852114743686694e-06
-1.938524381315075823e-05
-1.664198764241407537e-05
-7.148262241366145618e-06
-2.569016540319197332e-05
-1.638606095443601967e-05
-1.497556342136450496e-05
-3.531856228916597612e-05
-3.083385025522470785e-05
5.124707040539349451e-06
-6.129348105072373703e-08
1.487023065285310465e-05
1.123746012256051173e-05
-1.908184133290292738e-06
1.400396537981725886e-05
1.981980781265486692e-05
-6.734357186647820720e-06
1.289917335117017621e-05
-1.671959049918950025e-05
-1.532682361600121428e-05
-2.262606169895311605e-05
-1.833879157114099763e-05
-7.604153380372384324e-06
-6.943521059975786975e-06
-6.737947254567372313e-06
7.608580466104284325e-07
-6.906005661378501464e-06
5.930360428313397138e-06
3.733798225359701815e-06
-1.967738128080598628e-06
-7.429959208826598549e-06
-8.299172210855135535e-06
1.025372946304036495e-05
6.016242376476821820e-07
-1.841219919932939061e-05
-1.986016819305528431e-06
-1.928067488887755945e-05
-1.423067840552583666e-05
8.784899240999230102e-07
-9.309248060941388195e-06
-1.064846811109498017e-05
-4.577580959987096175e-07
-1.827413181839299120e-05
-1.045421508566824143e-05
7.803176883454038663e-06
-1.702209647640997111e-05
-1.787663707837358569e-05
-1.124217432585008952e-05
-1.345224508035797622e-05
-1.165739363203755083e-05
-7.200118815535680641e-06
-7.290345719276191860e-06
-3.040903456432252575e-06
-4.921166209950751416e-06
2.616851947752444688e-05
6.805544258798609006e-08
6.073725711211664810e-06
1.484626419491906461e-05
-3.603388551903368433e-06
6.605106967907928316e-07
1.522753146967887067e-05
-2.074129294039757541e-06
-5.011555008111657645e-07
1.046492631118814953e-05
7.487197336041610223e-06
-4.746413181569624814e-08
-5.884856942703811594e-06
2.761618851029396533e-06
-5.327793958379315908e-07
-2.644950769216741451e-06
-1.385859094998359399e-06
3.680233479163672111e-06
-3.252937998360737569e-06
5.505860245639688366e-06
-1.290308602498590515e-05
-1.342990939607408176e-07
-3.515790827069485653e-06
-1.281239540695565560e-05
-8.054821987888046892e-06
1.518396615432768111e-05
1.194511111162857887e-06
1.459374607735794330e-05
1.044532187703209177e-05
1.197105950877183136e-05
9.833891772077278412e-06
1.014760091078611112e-05
6.982041623513080178e-06
1.357622612579097920e-05
1.699635729147178358e-05
5.024147791540446970e-06
-1.817978522552883154e-05
-3.374830301584850394e-06
-1.330835676694704510e-05
-2.065751342280217640e-06
-1.749354891386452732e-06
-9.979704398395380157e-06
-1.219384042657454747e-06
-1.519271318480762707e-06
-2.623074912404560358e-05
-2.756789902111999544e-05
-2.057869889275508902e-05
-1.842522257459865170e-05
-1.241847366665490529e-05
-1.048473302887365913e-05
-1.164975518965552707e-05
-1.294493759157169475e-05
-7.908256839801645511e-06
-1.189592258454593187e-05
-1.073169553153856566e-05
-9.224403555206795913e-06
-2.054979279608595084e-05
-1.207837556842914813e-05
-1.879453450408597715e-07
-1.267219348695449079e-05
-1.895812222520647472e-05
-4.635286350325698718e-06
-9.421757247465955122e-06
5.735828058965031546e-06
1.361400430708525733e-05
-3.104414569957458191e-06
-1.143078656436821101e-05
-1.207709900219565735e-05
-1.241765861781400866e-05
-2.322518596904473120e-05
-7.823251453599183584e-06
-5.565614158070214400e-06
2.361902372027769722e-05
2.039507546966970875e-05
5.797773122809834977e-06
2.502878275792422136e-05
1.717706560103747897e-05
1.277193363130238248e-05
1.219608971126713011e-05
1.285299744604204996e-05
1.194590368452175670e-05
2.225488807305681365e-03
1.753478042634654859e-03
2.387242492869001774e-04
-7.091189368706034583e-04
-1.319379178345076202e-03
-6.830300241158654981e-04
-1.059932673062320046e-03
-7.601491684317425142e-04
-6.469593430764377122e-04
-4.698420530950895256e-03
-1.207127094856220474e-02
-9.483293693334921004e-03
-1.119829709074974047e-02
-4.484960023679632202e-02
-3.607402714970926738e-02
3.454342434435597048e-02
-7.988389009556774029e-03
-5.823505239743820804e-03
2.909466157345590165e-02
4.363983179228691361e-02
2.513088204775287479e-02
3.665042511523045748e-02
5.528871919588605049e-02
3.293585767857949709e-02
2.859135174194584166e-03
7.411972208315456209e-03
7.692998105658208248e-03
-1.128406166440646188e-02
-2.452638728171138705e-02
1.686047189464133511e-02
-1.836289092276668922e-02
-3.290006316243664075e-02
1.101712350073941540e-02
2.196731094605629958e-02
2.942404291930338089e-02
2.238956624192497274e-02
-3.459522534466455412e-02
-5.622779895245602969e-03
8.678887673698950506e-03
-3.102853326878967505e-02
8.362197725274808993e-03
3.407508081129494160e-02
-2.107817908732944473e-03
1.065441401010220300e-02
-7.081349920906657158e-03
-2.918091255188531592e-03
-4.284637154201190873e-03
-4.329802995099086248e-03
-3.396008320000083996e-03
-3.634860208990434507e-03
-1.572827365454567165e-03
-2.251861862438455254e-03
-5.729583968284379875e-04
-1.623446008831339049e-03
2.451123283688553742e-02
8.701568927686796975e-03
5.082299155043979583e-03
3.884007758001476341e-03
-2.993713901540304492e-02
2.535836103972878997e-03
7.358012302085241950e-03
-9.603637048198643581e-04
2.362666864028952277e-02
2.792443429141935538e-02
1.365782221359855206e-02
4.394793431430836506e-02
-3.200069741377126881e-02
-6.423149530856675504e-02
9.191893192144473534e-03
6.956081025229678833e-03
-1.381182361535011720e-02
5.094729899340264684e-03
1.725993126022608900e-03
1.929666343819495247e-03
6.145665856881369704e-04
2.789630812933533398e-03
6.819959707804719787e-03
6.405617630356536668e-03
2.849732548904628134e-03
7.034627363139427277e-03
5.523156109517659250e-03
-2.338264357616542119e-04
-7.347146861530702393e-03
-3.329912947086168147e-03
-2.868209836357620349e-03
-4.594903845066078754e-03
-2.284077591757149167e-03
-1.806402787545938323e-03
-3.167118587985821073e-03
-1.174073840781989474e-03
-2.858198097118257175e-03
-4.146917847520147776e-03
-6.409004736028817151e-03
-4.075756496879672972e-04
2.495338474711796071e-03
-9.772493739221099849e-04
2.498828068861239874e-03
4.770086845088307263e-03
2.867028448911408244e-03
9.161724739406072390e-03
1.654508825880719042e-02
1.948808005900796655e-02
1.030550390042522281e-02
1.756412509332526753e-02
1.947193923183839978e-02
1.398937105224007729e-02
1.416884250254184935e-02
1.444719899054834264e-02
3.497315409716452144e-03
5.630844630414761492e-03
4.720161383911804752e-03
4.625740965868993873e-03
6.121596022525910806e-03
5.153068556508278927e-03
7.097712621779489819e-03
5.915079248080354173e-03
4.715088481288141377e-03
1.589809623021641583e-02
4.725162544601454323e-02
-6.148910586669159919e-03
8.652618769018644018e-02
1.568987371511581241e-01
7.777380192856771235e-02
-7.241718904044746469e-03
1.149545245843080869e-02
-2.147487320300199998e-03
5.664828978454219781e-03
2.933311348038943663e-03
2.431703933233318651e-03
1.391718730979093349e-03
2.337011505232200644e-03
4.796213650880007569e-03
-1.333002971614297713e-03
2.446403827813158939e-03
4.651791320796648532e-03
-3.670876737334496411e-03
1.131621091471294053e-03
-3.984184981506097849e-04
-3.153784006119316613e-03
-4.593054620543005062e-03
-1.057936114428427790e-02
2.310616290428688623e-03
-5.592564630202769699e-03
-9.950691562447214894e-03
1.068952739389860936e-03
-5.416072468079430541e-04
-8.169527910852244753e-04
9.791099218965754972e-04
4.609358383693828044e-04
-5.115311675708590226e-05
-7.777367491407768734e-04
-4.765110677552405918e-04
-7.474294660193638072e-04
-2.773455319694916130e-03
-1.580224203208699732e-02
-2.147481572170962041e-02
-3.100387571582145351e-03
-9.472484827496038470e-03
-1.379424370596526658e-02
9.106891488464077550e-04
-2.131075538903243281e-03
-5.162698478088398150e-03
8.322399030057471558e-03
1.339291835627516580e-02
1.559554889551609605e-02
3.256581492773809750e-03
8.913077914228802190e-03
1.020372337049451315e-02
-6.878799746385253627e-03
-6.502762773854122531e-04
3.404580754306119669e-03
-4.159556723380804927e-03
6.636986812154438420e-03
5.368373786857294667e-03
8.399128117620253877e-04
7.659805709490388748e-03
1.178056573873811214e-02
-1.513262161596863522e-03
2.102018597014685720e-03
1.004225973072002225e-02
-9.602129243767961592e-03
-9.369554298693901634e-03
-1.386403460929314449e-02
-1.133830534329432864e-02
-7.827067021865877217e-03
-1.192776497073178531e-02
-1.240170191803093014e-02
-7.910735327516080564e-03
-1.272739819923527672e-02
-2.913345731326698763e-04
6.766223545917550344e-04
-3.467722779794820906e-05
1.055540674084989427e-03
9.747409128565674447e-04
9.965686410269652094e-04
2.607535603267694280e-03
9.118189773376476643e-04
-7.948264690773293028e-05
8.680775389292710864e-03
1.396346192884479961e-02
4.349169410226048395e-03
1.149281287872363881e-02
1.593666767162793541e-02
1.519281767871298160e-03
2.014357552947674667e-03
4.701295441767032977e-03
1.928873285353110284e-03
8.890262856905622318e-03
4.169790829436730711e-03
-1.302988449145532635e-02
1.359680544480888070e-02
2.579875568437011140e-03
-9.996503830684210987e-03
1.163014036996824763e-02
7.475822004977281197e-04
-7.401182333349343861e-03
3.208096049786995398e-04
6.737012043077849569e-04
-1.382282007874263230e-04
-8.955733635186622060e-04
-3.755611246797644557e-04
-1.870813161906827388e-03
-2.029036363278655542e-03
-1.621177496459290466e-03
-1.165720800730725730e-03
-1.716449504285995874e-03
-6.129079366575674714e-04
-8.172747155278329428e-04
-1.458421110267912532e-03
-1.439298284896887211e-03
1.509755678480082224e-04
1.951353202152354173e-03
-3.136520027781483557e-04
1.510090474386515053e-03
-1.024704730479517783e-03
-1.244609847431694732e-03
1.469310334201480005e-03
-2.383233201409196405e-03
-1.993802669533230754e-03
2.692466242839938067e-04
-2.406932891868572566e-03
-1.742239816841485321e-03
8.700541443237443497e-04
1.277429960785881908e-03
1.701238087600520036e-03
-6.308439510328457548e-04
-1.441793832561768900e-03
-1.779290506383787544e-03
-4.315040215585221571e-03
-5.266106646752927688e-03
-5.586787364784632365e-03
-4.052912079414923083e-03
4.753017876981457078e-03
8.264405073172212055e-03
6.944447658063996817e-03
1.098223878288859560e-03
3.355842534379141137e-03
3.084379916150593696e-03
-4.050366045285510273e-03
-3.135795641785269709e-03
-1.112015264081853009e-03
8.693198850360029858e-03
1.354169662567828586e-02
1.038005501561041315e-02
-4.063139465429495409e-04
7.354576951162883520e-03
6.896569948047839849e-03
-1.398896362423957158e-02
-1.127686348826819653e-02
-6.240215410488584441e-03
7.501937464149054449e-03
8.396902922388307586e-03
4.741333965080586979e-03
3.827722632097693613e-03
4.671560464936728822e-03
3.566894220848765631e-03
-2.162110929889927719e-03
-9.343879777620206105e-04
-1.228466860705797973e-03
3.160995796862873641e-03
3.354666010215928435e-03
1.145130800792488373e-03
6.108826023478399272e-03
4.226351694426054573e-03
8.794746601422008753e-04
5.261077988115083100e-03
3.624693124226004929e-03
1.221906670181619869e-03
1.422746955117968996e-03
1.155262942456677152e-03
2.464226764816635287e-03
1.950875607363232109e-03
2.263736902739532566e-03
1.640487229441022756e-03
5.873048573579593397e-04
1.502845867601627309e-03
1.119826979469765692e-03
-1.455732773149675304e-03
1.087118047658415174e-02
-4.007681647074768684e-03
1.430203238122182072e-02
4.877479685411023613e-02
4.308161349108485805e-02
1.508861403993942002e-02
2.798024294232763498e-02
2.849343928588303487e-02
-1.854559469930702059e-02
-2.100999543428681490e-02
-2.196155944930840848e-02
-9.947559197319596341e-03
-6.677815392093968544e-03
-9.506737569192375004e-03
2.989284159529792193e-03
9.463101551885717486e-03
6.422020610620301356e-03
2.956830514272472616e-04
-1.645343538130409483e-02
-1.451219615720319468e-02
2.422130676662085855e-02
6.393516869955094550e-02
4.510609255145562463e-02
8.367127641034068303e-04
4.124349166043558834e-02
3.474885121238193569e-02
3.212466572406267457e-02
2.850667470132975737e-02
1.145839819248285589e-02
1.512775146248768361e-02
1.027492295825228885e-02
6.976862283682781600e-03
-7.891901360684917474e-03
5.249507060445580443e-03
2.471123997633614330e-02
-4.928523508642721016e-04
-1.755268638180224093e-03
-8.108783121573588919e-04
8.183921421458800619e-04
7.308236350084459107e-04
-5.254199172576479344e-04
2.428351185091580551e-04
1.030077922488396364e-04
-8.228053742410701204e-04
4.850194322304218417e-03
-1.069106193419683964e-02
2.760721377281420696e-02
-2.567713600524864498e-02
-3.114256896804598607e-02
1.433630254864346268e-02
-4.224796606170912183e-02
-4.661139382221176491e-02
-3.474530925804882823e-03
1.718501510236996200e-03
4.861032077052825431e-03
1.038597280472774824e-02
-1.160171481289430824e-02
-3.311391480397828796e-02
-4.324758884562351913e-02
4.158631648207089873e-03
-6.750759126786146092e-02
-4.848136978520777712e-02
3.818797745073485624e-03
3.249839272894968802e-03
2.616427591874869157e-03
-1.044373383097836735e-04
2.009339551261857086e-03
2.476412495121593782e-03
3.826312669705730115e-04
1.422283099840239472e-03
1.625312144411108790e-03
4.272330727964922248e-03
5.708684495507146926e-03
1.282403543436554105e-02
4.488573686052235896e-04
3.319188862205091871e-03
1.060367554840886163e-02
-2.923526174464508021e-03
2.231459768782587810e-03
5.888839982120119484e-03
-2.720896088436346779e-03
-2.319164578610776787e-05
-1.465121786477761607e-04
-2.400978445959008663e-03
2.457716566744665068e-03
1.416775595418771254e-03
-1.878572434721252279e-03
3.599290989442028091e-03
5.091994865664433876e-04
5.340237778280197516e-03
1.139756610417222253e-02
1.227905063708679446e-02
3.095285352775921459e-03
6.423164122366917250e-03
1.044818570790643185e-02
1.133018863281280188e-03
1.824695048023069121e-03
7.993894594127182868e-03
-6.487099134688792314e-04
9.280437571897649134e-04
-2.699754804170502063e-04
-1.252485093042295019e-03
5.684756952021429582e-03
5.762430524958539989e-03
3.587978628450553664e-03
7.177201632247936537e-03
6.694527083250402695e-03
-2.797398392589573596e-02
-2.765842746129510560e-02
-3.806344022528423271e-02
1.916701807683653070e-03
9.315206975045934104e-03
3.813067676126428562e-03
8.177879183578522920e-03
1.144345239621854561e-02
1.422486586289509018e-02
-1.231351588565769142e-03
2.314709183185032111e-03
3.195004463883123307e-03
1.882806360265130985e-03
4.565129745031158530e-03
4.788510171138286864e-03
6.586317446292605038e-04
3.667344794244747561e-03
5.805597995657225084e-03
-6.985550627291936369e-03
-9.534220359113552631e-03
-1.126839091236058257e-02
-5.564498806168266878e-03
-8.189071524704626126e-03
-1.106756034242461530e-02
-7.400770493453139769e-04
-3.619724078313344903e-03
-3.415211400553277640e-03
-4.658140313205026868e-03
7.628257559154239670e-04
1.191723222311343814e-03
-2.030953769739480327e-03
2.325707761584312045e-04
-1.878876039873886338e-03
6.474217924976568206e-04
-5.395129683319116378e-04
-1.354023680230366218e-04
4.063959454993226923e-03
1.185287300881763921e-02
2.232731060204456996e-02
2.815738051287262648e-05
-1.883410901590369668e-02
-2.939998774927744460e-03
-3.527711373705872885e-03
-1.521351281763203868e-02
-1.002586469063219445e-02
-6.021761168814949473e-03
3.808219519755944721e-03
4.290217470755994765e-03
1.662374781942642247e-03
1.272992611217707570e-02
9.935392702685416286e-03
3.905151534446961881e-03
1.247996124392321098e-02
8.741969199490865275e-03
-3.132050954019377324e-03
-9.606062403144967343e-03
-7.950326626614837022e-03
-7.235820402034530245e-03
-1.609660937365040706e-02
-7.947465273075523043e-03
-1.122937521422755908e-02
-9.118294654082734901e-03
-6.315944470628290230e-03
-4.082158308946107206e-03
4.035811889822003666e-03
4.368983891559439885e-03
-9.337054665617558480e-03
-4.706733268621591387e-03
1.118907784599120457e-02
-4.464786051952680107e-03
9.789247975717323396e-04
4.051806029544743198e-03
1.684852164593822000e-03
2.663363285986928338e-03
-1.174561983603833329e-03
-1.556075020461186427e-03
-4.607621237768731682e-04
-4.320066568179217444e-04
-5.051528839915607992e-03
-3.472615252252439933e-03
2.846806838115354567e-05
-6.990764851143318158e-03
-5.651905949502216905e-03
-1.304840967873583616e-03
-5.039135678550837188e-03
-1.642577962970828004e-02
-1.110224503608136376e-02
1.205563888062972412e-02
-6.388003884004506486e-03
-3.433263984685716846e-03
7.796787627305653938e-03
1.149187945641052394e-02
8.751174992814780493e-03
-4.343499272112195421e-03
-2.807956644958278444e-02
-3.284453183571660155e-03
5.210396694440944804e-03
-7.160496891951939960e-03
4.961902184519804623e-03
3.176220320749834243e-03
4.375245675142134735e-03
3.063959038334682430e-03
7.865903360248228645e-04
5.151592898974492914e-03
4.743971369464667666e-03
8.951621880667392844e-04
3.689215664695214263e-03
4.322953278401983797e-03
-4.153231775435835618e-03
-1.681201131484101662e-04
-1.515688969694258545e-03
-3.193083503169114653e-03
-1.422086221679164531e-03
-4.330605398576113478e-03
-3.416642349374398886e-03
1.952047722523251943e-04
-2.576783384296467503e-03
9.185179657496560148e-04
-2.574647824657562509e-03
-2.695256066234984552e-03
-9.834227439087981647e-07
-3.909857010419253223e-03
-1.297186015654289148e-03
-2.578778197876826681e-04
-3.979357374612135789e-03
-3.913311282251526017e-03
2.661226079810136841e-03
1.898229973084966096e-03
4.216579027546538648e-03
2.779248927598038099e-03
4.125822188545381908e-03
6.610124150058279378e-03
7.920514740947851278e-04
2.315306911062312446e-03
9.667419978873517358e-05
-3.747613753226410396e-03
-5.608529555417940057e-03
-4.524189681171216296e-03
-4.286957984355704680e-03
-3.642019961329208758e-03
2.194876034546034121e-03
-5.038427008644449576e-03
-1.491213710902250392e-03
1.090015226895731538e-03
-1.029732082999696048e-02
2.148117980950283411e-03
-4.824780485170213767e-03
-9.347254638517394276e-04
2.664002471994501506e-02
1.348822958592546702e-02
-9.076508815596902357e-04
1.579860083501894580e-02
1.354625917927764801e-02
3.101142803427500618e-03
2.576608192665334404e-03
3.416061780115588198e-03
2.406252311582241996e-03
-1.225614076284774808e-03
-1.418487976574088266e-03
2.321963205122633527e-03
9.973216971016116931e-04
6.582061546242003180e-04
4.911040629203099542e-03
7.025027658025330066e-03
5.479153499594437496e-03
-4.024106981293826095e-04
1.255980614704237238e-03
-6.399211208783357708e-04
-3.890486974067642375e-03
-3.098194512687776209e-03
-3.278922462810610668e-03
-4.969270580804651359e-03
-2.082727199524754720e-03
-1.115788045512810470e-03
-1.250858878914789998e-03
-2.136799951887260844e-03
-1.153446248987274620e-03
-1.019769556530184798e-03
-2.302450943354066894e-03
-1.892559966242689847e-03
1.225560655338802860e-02
-6.374317427267930242e-03
1.555815556118853547e-02
2.906619576333288948e-02
-2.901612983110379157e-02
-4.281162128868331402e-04
4.502686035988470725e-02
3.377598272464728962e-02
1.050083546135659185e-02
1.356936575444728579e-02
3.611110597989514864e-02
2.699996453706141400e-02
1.929377350056700816e-02
4.192635435416684764e-02
2.819973308230021986e-02
7.995606591913440725e-03
1.520057914188030317e-02
1.089154236168167825e-02
4.105927596419952502e-02
-6.812894754850542210e-03
2.633318631592701867e-02
1.757502043880105258e-03
-5.577174462297890961e-02
-3.527738896179517109e-02
-8.495351146644359794e-03
-1.298919924632288732e-02
-1.600721439097195498e-02
1.336417603991647090e-05
-3.998722618506341323e-03
-1.246222841946632853e-02
-2.902912443099705479e-03
3.800713452357296421e-03
1.539279781680871935e-02
9.152477816090878043e-03
1.705044113853607796e-02
-1.577789328412376388e-02
-4.248433115207849147e-05
-1.062152006701811216e-03
4.902891189042191990e-03
4.583071863602619297e-03
1.513879777648339912e-03
3.782616478805318674e-03
2.884940810295139480e-03
1.336272943805725090e-03
9.530391478475306937e-04
2.139673679098583539e-02
1.806240777804095712e-02
4.308316149435312964e-02
2.759117202576040137e-02
-2.536895156916936858e-02
1.134235564779164339e-02
1.014095955765976186e-02
-2.725295808176090087e-02
-7.221170092869160125e-03
6.513355499514661591e-03
-3.929737144436804691e-02
-4.573986701307181969e-03
-2.428382739928826653e-02
-1.130176220903983536e-01
-2.692451506158966695e-02
-1.293793393822006629e-02
-4.881044830801676768e-03
-1.375473246851722196e-02
-7.221339412826189262e-04
-1.820932158431863481e-03
1.548984516798663537e-03
4.428814157593165615e-03
1.020178720248237627e-03
1.032604606133698906e-03
1.173643261212231354e-03
3.359802399430028498e-04
1.278398031703139931e-03
1.757180838581288507e-03
-5.827351452758561257e-03
-3.198797654390754877e-03
-1.033657908204049184e-03
-5.521837307658868793e-03
-4.114266054563519605e-03
-1.012399206445193604e-03
-4.157778456285115588e-03
-3.917608306698592245e-03
-2.519262006957823184e-03
-3.889036899033065887e-04
-1.957603206789513661e-04
-3.710130730856009678e-03
-1.650430511453964506e-03
-2.091569722237986151e-03
-5.237230250537136880e-03
-6.822290598848208820e-03
-6.554950407696914783e-03
8.400526630375419572e-04
9.687581341217433445e-03
4.943709864174687663e-03
7.958386986813753344e-04
3.296107310140322221e-03
3.288168748667066876e-03
-9.836543007977248745e-03
-7.315697121198756238e-03
-3.312475743685707689e-03
7.849150797690215148e-03
8.211879695542406710e-03
5.797777633250958233e-03
1.029023096371017160e-02
8.016194830621669459e-03
5.521465055063174213e-03
8.208349735696139626e-03
4.700861694859640935e-03
9.496257014930320137e-03
-8.092401690910477202e-03
4.219951864922039803e-02
-7.984074300739974666e-04
4.389656640035382792e-03
7.234819040574097526e-02
1.874426898325104451e-02
-1.603307008244357276e-02
-6.092894779059750479e-03
-8.256516080206952393e-03
1.872391100711888641e-03
2.745243521109955176e-03
3.828026112216113570e-03
2.675549667628357702e-03
6.002362633649523278e-03
5.045607808036254791e-03
3.521064108708355216e-03
2.057067309777101637e-03
1.924272620368900656e-03
-2.822962009660774391e-03
-3.452835862387277060e-03
-9.348003413445354903e-03
-7.780379251061749109e-03
-2.172653688391099416e-03
-5.763701599227320088e-03
-1.513519839231338045e-02
-4.418867945200849814e-03
-3.423500944229062020e-03
1.154467588375209560e-04
-4.114362442900870373e-03
-3.570852144076847902e-03
-6.205045373387531847e-05
-1.719851467616247912e-03
-7.169458446808604953e-04
9.582023971575706232e-04
-1.050266901274016359e-03
-4.760593754814460422e-04
-5.054910033243247697e-03
-1.422534647567000928e-03
-1.063589240159101487e-02
-7.549465316595809460e-03
9.904955409765795957e-03
-5.715684332714319159e-03
-1.302847145209148731e-02
-3.221412241611346593e-04
-1.771001722040893220e-02
1.177123297891169602e-02
1.193885137368537637e-02
5.905313949444479342e-03
-3.276881232767032796e-03
-4.881057234694073481e-03
-6.119518677621197875e-03
-1.115634439214238660e-02
-1.370415190187300805e-02
-1.001571961002175812e-02
2.219729837828823013e-04
-1.084263372875080879e-02
-1.312388241419532899e-02
7.798727883136795554e-03
4.002658369531066095e-04
-1.826350757441516648e-02
-4.802473033176798224e-05
-1.583093668125151547e-04
-1.640409670329946723e-02
-7.294946227352197467e-04
8.325802925322096926e-03
1.626062742325243976e-02
5.454007663719439084e-04
1.740680817806498177e-03
4.093401822447524999e-03
2.879920396565093053e-03
-7.112677631818706270e-03
-1.035811288082446290e-02
1.857458734006520585e-04
9.184889792716725062e-05
5.878137160248005045e-04
-1.398048074892036679e-04
4.681776452461796885e-04
-4.125385410114733049e-04
1.480326737905900353e-03
1.333886619568239867e-03
-5.356750349664045514e-04
-6.744908226340578204e-03
-8.441245180326323316e-03
1.112699785379389628e-02
-1.586777364361669981e-02
-1.263594436514398761e-02
5.156554080927469412e-03
-7.884864244141774614e-03
-4.667188206872183512e-03
3.626906853260001987e-05
-1.248189722843210531e-02
-2.395442609679026072e-02
-5.221637987219731637e-03
-1.514230276751669067e-02
-1.099604351812672604e-02
-1.352636473031712180e-02
-5.817637716851156628e-04
6.428111228796760425e-03
-1.564269182848502387e-02
1.017425607988190796e-03
-1.209678213289221626e-03
-9.726189258641119040e-04
-6.747021293102839490e-04
-1.989486629741667612e-03
-3.196254927324281968e-03
5.328923909977239777e-04
-1.834713826621411480e-03
-3.083598238287897988e-03
5.968165492316972881e-03
7.920220873397772893e-03
5.191933119500347256e-03
4.803611514353970172e-03
4.276166718440150769e-03
4.028637798168763565e-03
3.105139523687454328e-03
1.312166257362911174e-03
1.215079517754826411e-03
1.672169889835666131e-03
6.343811333280006005e-04
-2.946601955331379190e-03
2.168597049489392591e-03
2.298295804313735952e-03
-1.071082256626175932e-03
1.553400971740622567e-03
2.573272183177636400e-03
-6.958239650256538246e-04
1.497510729367432005e-06
-1.265395310734637128e-03
2.211157395325531044e-03
-2.859815504437699003e-03
-5.475567184151358853e-03
-3.539698799630120775e-03
-2.633256871383802405e-03
-5.900780676459192048e-03
-6.956070340502891469e-03
2.439479993136569984e-03
9.329863133384923204e-04
-3.004281559687509151e-03
-4.733371927285039984e-04
-2.502457863040494571e-03
-4.723700769157079121e-03
-4.271116053873960129e-03
-5.611653692782390783e-03
-6.624180887739663376e-03
1.855398944296645508e-02
1.772156329138251107e-02
1.315786658264202907e-02
-3.416314858483015301e-03
-7.136461606499730839e-03
1.414244650336069116e-03
-9.295347292910290452e-03
-1.735623342565570035e-02
-5.952288051909212195e-03
-3.340356062227646267e-03
-1.276725417409264526e-03
-1.419781003890753122e-03
-2.816802797979446604e-03
7.067081922041270822e-04
-1.509032347821708279e-03
-2.680070593443414635e-04
8.186731144163968349e-04
-2.627163953883513044e-03
-8.097541623583700068e-03
-7.598073541599291783e-03
-2.198621799222277330e-03
-6.919836672099987165e-03
-5.905873303569736041e-03
-1.958539143431376611e-03
-6.805402177257799043e-03
-4.417004881046456694e-03
-9.761690230261725870e-04
3.348247806892362726e-06
1.466611899345517534e-04
8.285350273951874451e-05
-8.918687073685549862e-05
1.119949314914489485e-05
-4.346770560373820768e-05
-1.081543079531194885e-04
4.278715822024756795e-05
-8.221191307825465022e-05
1.464026159401003680e-04
1.092718603419393374e-04
1.966487202389238993e-04
1.840110675874985155e-04
1.732374977214100342e-04
2.080992967837373708e-04
4.577034583535144230e-05
2.349393771058332900e-05
1.254562850970413791e-04
-2.464955908479393043e-05
-1.225391203741809060e-04
6.162420606378762032e-05
-3.186117710810984700e-05
-1.120408595311023306e-04
-7.163792872339973087e-06
1.912694838719528691e-05
-4.562467275271586974e-05
-5.717272549791630105e-05
-1.658187242569210960e-04
-1.422970505509208133e-04
-1.262842559759419123e-04
-3.348592049990456236e-06
-3.984331857399363964e-05
-6.405503803841707065e-05
-4.531594494586784622e-05
-6.204578066065697436e-05
-8.416117502256790009e-05
-6.057798335158641055e-05
-8.863010701864585436e-05
-1.558833015913544816e-04
-8.597511254105464381e-05
-1.199264263517546992e-04
-2.352224340910013904e-04
1.574437183818856319e-05
-7.482014211644155862e-05
-1.645833586913068196e-04
8.828049446883599546e-05
6.564507369311023410e-05
8.976343163778546515e-05
6.416559889475017793e-05
-3.027248880124786109e-05
8.720364166947051324e-05
6.841380797033179081e-05
4.640578840016799277e-05
4.532750849453736513e-05
-8.724154116818906460e-05
-3.473686602104238184e-05
-1.339628639029907117e-05
-1.389427811246886390e-04
-1.527844870351019381e-04
-7.330580148836973568e-05
-1.109517509938010162e-04
-1.432794750614835950e-04
-1.699020000123184482e-04
1.444734873033363520e-04
6.762214854275891461e-05
1.011110400443292770e-04
1.613613387184196612e-04
4.114370150588001927e-05
4.646232716005638030e-05
1.619098631055474933e-04
-7.635145277560061348e-06
3.694863148693834209e-05
-6.214718211540200927e-05
-5.600870100298269507e-05
-5.522577797244624406e-05
-1.528776334919299137e-04
5.017741234755726049e-05
4.086001072601332411e-05
-2.251766599349908776e-04
-2.905423711675356283e-05
-1.630643949225796130e-05
-1.800530125734515899e-04
-1.676111526348723977e-04
-1.417379866564454441e-04
-1.844460643894007146e-04
-1.122819293978103577e-04
-6.891945222939052705e-05
-1.384857937831316592e-04
-4.384486614694206065e-05
-3.367023084677299997e-05
1.188710299953879085e-04
1.745862128400312290e-04
-1.253729232909535879e-05
-1.233081341035341338e-05
1.569996917858505878e-04
1.070670096474179793e-04
5.428288800849861577e-05
1.218896730829119004e-04
1.751924766363304332e-04
-4.494034538915762949e-05
-6.572279686276710200e-05
1.157359111090964623e-05
-5.449171695252750169e-05
-3.807209596967704718e-05
-1.075645356373036481e-05
-6.421326452885815859e-05
-1.013445698905105798e-04
-1.027135892276109889e-04
1.547412462722094002e-04
2.119096562691442595e-04
2.040525674821963835e-04
-1.368561153382343472e-05
4.761650576116657557e-05
6.613467653713450169e-05
-2.656047431345525517e-05
-8.670635495488680572e-06
-3.328317740923998792e-05
-1.522564862021467133e-04
-1.148746268414312853e-04
-9.604203550038991309e-05
-3.158453782836173574e-04
-3.191105319024530713e-04
-2.231179950558949659e-04
-2.262263948668027740e-04
-1.973986346718541575e-04
-1.741575397425375630e-04
1.068639674626259721e-04
-3.435607362057688707e-05
4.641616696638978782e-05
-5.526213215150640638e-05
-5.381108268931413305e-05
5.567880160468592041e-05
5.695192851601699386e-05
-4.331735668291049422e-05
9.702747658886649352e-05
-8.656971166638411199e-05
-3.127687109353720395e-05
-1.098368349060757971e-05
7.839238564571318610e-06
-3.402251815263673132e-06
4.875327423554487536e-05
4.862803355458597874e-05
5.210276242851142150e-05
6.411945151940334178e-05
-5.557346845793015603e-04
-7.515318424814935831e-04
5.881201468822109027e-05
-7.381293099779959828e-04
1.610301688503554046e-04
7.713312398561215011e-04
2.222532045742993151e-04
3.643840446726428497e-04
-2.186337314154537619e-05
-1.149771729623117437e-04
-4.223901064597733457e-02
-2.731857853396876118e-02
1.057178977281097824e-02
4.278629161079387615e-03
1.889071125681147110e-03
2.594389129054149035e-02
3.397185593818319999e-02
2.808533610963597979e-02
-5.352913416486662808e-03
4.475491555610251228e-03
1.040088094244497746e-02
-4.281334655577972471e-03
8.609081896381613665e-04
4.294586900216922250e-03
-1.198976805758289466e-02
-8.445394706932139728e-03
-4.569929601967631476e-03
-3.950141196826995049e-02
1.886928839062249064e-02
2.286911110975597267e-02
-3.841782160038810512e-02
6.847103530123184456e-02
8.333617775179689990e-02
-4.225574024355923525e-02
4.491910719956063516e-03
2.116218519889976821e-02
9.785556579756750362e-03
4.455838816034104165e-03
-5.037056830401043760e-03
8.224515513657930377e-03
1.542727695726759871e-04
-8.179374390365956246e-03
3.332807310927540356e-03
-6.587701512458228256e-03
4.674181813580619016e-03
3.154523813584080428e-04
4.921528882535326169e-04
1.021562865706277228e-03
3.112147955706105621e-04
1.983695291158651605e-04
5.729252849048928169e-04
4.457885422247826737e-04
-2.712167092008042164e-04
1.073348011298678746e-04
1.701303220161240470e-02
-8.469520564125863557e-03
-7.415789367266736876e-03
-1.223815032124020083e-02
2.792489031883509110e-02
2.759034374302294507e-02
-5.146989782472396330e-02
1.416738585916311154e-02
3.395696797325692406e-02
1.756118313053814384e-02
2.286872619757816371e-03
2.033145709690086650e-02
4.198125404963833768e-03
-6.014787900093361778e-04
-1.591734057038428352e-02
9.047321152933635036e-04
-1.983497515145337536e-02
-3.565821251778129863e-02
2.347995891252259350e-03
4.296640078101973681e-03
3.098985836845374528e-03
1.719541016313023193e-04
3.353031472972535076e-04
-9.314955127747687842e-04
-4.050166884965587799e-03
-2.653823011612081121e-03
-2.115367019047845274e-03
-7.235132557763510096e-04
-5.511238435068837411e-04
3.692180565740082153e-04
-2.012226906338836652e-03
-1.298687898602286306e-03
-9.107694940959904341e-04
-2.689566644904347269e-04
6.615948120511632325e-04
-1.606173114225626372e-03
-1.609903945919816635e-03
1.277632733070970797e-03
7.145462415423298186e-03
-2.667872462570520034e-03
1.604215225574838087e-03
5.616977722022437058e-03
-3.400109831091123122e-03
4.462308157051885502e-04
3.780236893364060866e-03
8.409764982609566758e-03
1.887882122575789204e-02
1.886301557387110375e-02
2.785744775948486174e-03
1.111349185807474806e-02
1.259899390927830300e-02
-1.101543861014488493e-02
-6.526955799128442322e-03
-2.925075630302644784e-03
-4.735005917561252377e-04
8.530181941006935095e-03
1.108625462744372223e-02
2.630538015411670611e-03
1.144139713413601551e-02
1.455708127489029752e-02
-4.669466639402443202e-05
7.226231698354195279e-03
1.035735050450193803e-02
-2.585237137919068132e-02
2.671102595496827048e-03
6.931570473454900681e-04
-1.376081533027460890e-02
-9.074148123511725783e-03
-6.592870444894797892e-03
-2.311507781479497231e-02
-2.904281141067358019e-02
-2.377847551793459135e-02
5.396859121470316822e-03
8.547916847833724255e-03
1.102956926818473953e-02
4.638665215885915197e-03
8.683266677578115392e-03
7.094700791993467995e-03
-1.458392968163438666e-04
6.356133026363171984e-04
4.893161793840901039e-04
1.653274942598959019e-02
9.079355390697711053e-03
2.993505817972519183e-03
2.036648254039794687e-02
6.110078699039792754e-03
1.863411017934772521e-03
2.005590222404726730e-02
7.638034529367077226e-03
4.710405648284957808e-03
