4.292195172661543434e-02
4.352395948715992446e-02
3.072250445165959631e-02
-1.404479913779168969e-02
-1.658220275734600957e-02
-1.672012287657150334e-02
-7.124281323389551612e-02
-7.294190880653976528e-02
-5.116914543966377682e-02
1.501605699795828808e-01
1.315934364113741373e-01
8.811194269431218973e-02
-2.338051334369806861e-03
-7.225219201823097903e-03
-1.784073342495314657e-02
-8.746787212804321698e-02
-1.414834614873936025e-01
-1.364187431906671577e-01
-1.324359780563801395e-02
-3.063011312620556731e-02
-7.902367457156873887e-02
-2.137527238675821905e-03
4.736300230967772223e-02
-4.800497276407369313e-02
7.804225854814599017e-02
1.543825612182480322e-01
5.906057229047115276e-02
2.874954637982085615e-02
-2.550337539856960094e-03
-4.885631040442294654e-02
4.920557915711930297e-02
7.266347525748871605e-02
-3.889059353879642522e-02
1.762695835263196689e-02
1.914253826357934785e-01
9.904712262173001602e-02
1.605575699726983704e-02
4.056974113886488431e-02
1.382089680439023763e-02
3.304373869830534022e-02
3.681837396976142540e-02
2.349832974338133054e-02
-2.367615693254171080e-02
-2.284603054571833491e-02
-4.106775566104196168e-02
4.739873140543326979e-02
2.133916875663097179e-03
4.681668521442194919e-02
-6.646149261175390843e-02
-8.315197041295763203e-02
-5.783750743208104089e-02
-1.300328827097341489e-01
-1.103666885345172960e-01
-9.284735504396247896e-02
-2.423888431927821718e-02
-2.410575156514046732e-02
-3.604251674813616774e-02
-1.064632987292025296e-02
-2.021773621037084925e-02
-1.831935250545922017e-02
2.098810891382044824e-02
2.224331203512853669e-02
-1.699799709623908348e-02
-5.203514801659991224e-02
-7.040652495320114113e-02
-4.826782667213174588e-02
-1.715256174543850366e-03
-5.756811709578028846e-03
-1.316969154375348741e-02
6.209770488492051543e-02
5.287695418981989970e-02
-1.336851490729559257e-02
-3.019638749073481204e-02
7.619345553030756847e-04
-1.640127298972700667e-02
-5.012636016711210368e-02
-2.899412721323595815e-02
-5.943383349252282649e-02
-6.247714775823576955e-02
-5.953458200242256471e-02
-1.127017978581343893e-01
2.172062768790080159e-02
1.801665209573101445e-02
1.951987113632532370e-02
2.501630766317720911e-02
1.217957346760217482e-02
-2.061569443138795699e-02
-2.006688414858197236e-03
5.902586791086786603e-04
-1.350652155261355611e-02
6.030486694369265738e-02
5.940527493765909717e-02
2.334071504942229064e-02
1.884755598129959908e-02
6.104782941713432498e-02
2.442556559987250214e-02
-3.605840170262689798e-02
2.131432217113426314e-02
2.814909608894084966e-02
-1.574095529546597552e-02
-4.914476861933034235e-02
-1.004988574012167651e-01
4.290551300513288646e-02
4.655774970226582432e-02
1.337461870507593992e-02
3.699248548129367709e-02
9.737074138444656857e-02
4.875671887198824994e-02
-2.622828976520875238e-02
-3.667374684228235510e-02
-5.719726997170856975e-02
1.793402833002998367e-02
6.978890046905256335e-03
-2.795651867318814723e-02
4.346712420527650694e-02
5.943243300591181943e-02
1.055782233293116150e-02
-4.098721222982135300e-04
3.571598334428020480e-03
1.782603882227741824e-03
-5.201229647557818921e-03
-3.156444041401829884e-03
2.241276720679878133e-03
-4.614386573588582065e-04
-7.481707632475425099e-03
-4.335019037173645957e-03
-5.889287730673918586e-02
6.848686942649890967e-03
-3.915879846763031802e-02
-1.894264444866466598e-02
6.445242102109163254e-04
-6.162738612885653583e-02
4.436201908057590959e-02
7.094988162000733997e-03
6.989828675515502923e-03
-2.116781742744856115e-02
-3.176992875885477872e-03
5.360168190731672000e-02
2.778617475493951744e-02
2.071424765071298944e-03
9.932241156536326943e-03
9.853715019357338345e-02
8.478465597354298278e-02
5.756441254293547666e-02
-2.805862290734062372e-03
-1.212502735247615246e-03
-4.627177361929622236e-03
-1.213190054536484284e-02
1.452733380629402614e-04
8.683357216682450466e-04
8.939918385302975045e-06
1.685910692286039445e-02
1.074088911065599304e-02
-1.467964434549768118e-03
4.064519155049061208e-03
-2.177436056516687639e-03
5.591690428738474265e-03
1.650890875085267440e-02
1.440118500508285118e-02
2.424336966198455037e-03
1.764679021043153231e-02
1.248864169443718135e-02
-2.145682674497308151e-02
-2.523761995092524066e-02
-3.803472581303311839e-02
-1.154960291920361509e-02
-3.316234842306338415e-02
-3.120838924671389195e-02
-1.952796746728187663e-02
-4.167668853171822840e-02
-4.618851727928321993e-02
-3.354050751668250646e-02
-3.171867598666681942e-02
-1.022427837217817874e-02
-3.735199903490316747e-02
-1.783291307022345437e-02
2.124291871847900238e-03
-3.259630002157708206e-02
-1.634131961173512088e-02
-9.815383781255506909e-03
3.569420436078497654e-04
3.441198807528932525e-03
4.947749231269028651e-03
4.652692334568893362e-03
7.813599564699583166e-03
1.694251835942983675e-02
-2.861206335719951224e-03
-6.239755669069459165e-03
1.141810868974889922e-03
3.123051116436010959e-03
-8.568207240325566298e-03
7.087992084741513710e-03
-1.990781895672696575e-02
-1.253671368141483569e-02
-3.682538901802601735e-03
-9.843051354257077463e-04
1.861123939525709259e-02
5.722288721323071439e-03
-2.195870712443836505e-03
8.905302931521804494e-03
5.544235967599289543e-03
-6.044490375788400850e-03
-1.054490204631000280e-02
5.891291845234936618e-03
1.903162034816025666e-02
8.913788747212545924e-03
-7.320942980851405726e-03
-2.358301143045123116e-02
-2.901985924157376301e-02
-2.809621793123793024e-02
-6.237335145762317248e-03
-1.984944989324877434e-03
-1.185047244074150311e-02
-1.371774630833315356e-02
-1.361112918514724435e-02
-2.415495858621544145e-02
9.346422328074869418e-03
-1.133205361966201563e-03
4.891505117742458129e-03
2.186812183649171348e-02
2.852945219343566360e-02
2.627073781829603397e-02
-1.860119721104808816e-03
1.269182136158831034e-02
7.753485029319761093e-03
-1.110267280473767153e-02
-8.326975205128107557e-03
-4.214889398193089921e-03
1.668086824396136690e-03
3.332561615259490434e-03
-1.422003413407991676e-02
-1.240788978242579783e-02
-5.595160078547306744e-03
4.122172803878569082e-04
-1.519243551345222584e-02
-2.332018887400586112e-03
1.000325624461962173e-02
-2.307839302468723056e-02
-1.063342785539238451e-02
-4.749706660818922392e-03
-1.251523376180963508e-02
-1.710732751990143991e-02
-1.494878994700549711e-02
-1.691190172711012560e-02
-2.329875408495602276e-02
-2.741123144713189866e-02
-4.020729167876702786e-03
1.437527053168241066e-02
1.338484871224773992e-03
-1.308563154111345300e-02
6.276582520063221822e-03
3.143160115966979820e-03
-6.542040128864094577e-03
-1.412587336199390767e-02
-1.121378613895642438e-02
-1.031991033680472805e-02
-1.034629740975319314e-03
9.086380385917077612e-04
-1.116576786369606437e-02
3.965657813147841632e-03
7.476832182402541084e-03
-8.132793998638103775e-03
-9.132869625249041834e-03
-6.735967078704189689e-03
-6.445905053891535369e-03
-8.940359520590569070e-03
-6.504795979143667903e-03
-5.769907495822261187e-03
-6.159038081705810880e-03
-5.618017751374207100e-03
-4.994821036150097655e-03
2.744366506103603290e-02
-8.556565146147002837e-03
-1.493138893970647613e-02
-4.076978684357083355e-03
-2.699833581000208454e-02
-1.009787912816684230e-02
-6.208367685638081258e-03
-1.723791882042816428e-02
7.331164733819408273e-03
-2.177587307441302810e-03
-8.151143065420475911e-03
-7.039760869536853920e-03
-1.911064585751875641e-02
-2.553448842625598639e-02
-1.624830299457370730e-02
-3.131986044716738443e-02
-2.828466660373490232e-02
6.197204733526274004e-03
-1.224192424948275515e-02
2.413828656252057017e-02
-1.838929921903609960e-02
-6.823528185071926766e-02
-4.319291428604719874e-02
-4.610553071849417262e-02
-1.074838511820330883e-01
-8.647507837976348144e-02
-6.643964063699428491e-02
-3.255296035599835464e-02
1.264140236219730429e-01
-1.741052454185550158e-01
-1.337888473307638215e-01
3.284406320295052417e-02
-1.859951964623501597e-01
-1.712290286381066284e-01
-6.272194913738417255e-02
-4.011375630976973111e-02
-2.640086110936360267e-02
-1.463968011121948715e-02
-2.186968870802997317e-02
8.780645072934328832e-02
9.760877227458662764e-02
2.412436072184140010e-02
1.697905765581810833e-01
2.072229054296352291e-01
8.069075740487954840e-02
2.121894662747512289e-02
-4.453072120586637483e-02
1.121661165663835474e-01
7.150823072142081793e-02
-1.960347571055186255e-02
1.539091647792705242e-01
1.672237154604516718e-01
1.141568954721419865e-01
-3.422794551364895937e-02
-5.000369659291296204e-02
-1.747879063694425875e-02
2.280001711791684871e-02
-9.908169817913332206e-03
-3.986259137116540674e-02
4.985254069720504444e-02
3.268022224463783265e-02
-1.953873971646351553e-03
9.378679716423506119e-02
8.102317524908467239e-02
1.229196080980141659e-01
-7.546849142195173610e-02
-8.201713169066669751e-02
-7.321041513252209317e-03
-1.598694548812507332e-01
-1.982493886865967225e-01
-9.252703460277079961e-02
-4.439110745887497184e-02
-1.284698705610228323e-02
-5.165366114030457180e-03
-1.231418017423686062e-01
-5.811315645583562534e-02
-5.784640664558693413e-02
-6.231104421588679054e-02
-7.528867763039957806e-02
-5.960218800930300320e-02
-2.003810687194143569e-02
-6.266699723181115567e-02
-2.535375625935331126e-02
-1.363837395275261689e-02
-5.295837015935787873e-02
-4.886185222041052045e-02
-2.750125766893187374e-03
8.255237073056791858e-03
-6.228339292310008934e-03
4.599294379757784546e-02
9.594629276186616984e-02
8.378020160615126666e-02
-2.766703843522003853e-02
-2.749098076433629731e-02
-6.285092015413177614e-03
2.556039532335907527e-02
-2.154050737226679679e-03
-2.928464022829173341e-02
-2.120560797191285360e-02
1.290982168885972114e-02
1.625406228907182865e-02
-6.380176742171475568e-02
-5.225918996685814666e-02
-4.461855081778644109e-04
2.264632141356836756e-02
1.912634353117717220e-02
-4.606387669173918516e-03
-6.022621899228809000e-02
1.412948440004905583e-03
-5.522068256998800828e-02
-7.673332777544794592e-02
-1.365374329017749605e-02
1.235256437212460361e-02
-2.586474595198637663e-02
7.112772544527115950e-03
4.503110195470085703e-02
2.684556296152794050e-02
-5.811035218088249354e-02
-2.456462140403426614e-02
2.932286551338196198e-02
-1.682820234296764778e-02
1.945944991983486472e-02
2.214545367390281100e-02
1.904744402624328897e-02
4.730160233557220012e-02
1.918272262279822199e-02
-7.949025510327856550e-03
-7.082109947431587671e-02
2.225548214538122099e-02
-2.707243544602020227e-02
-7.072679218531255363e-02
1.776565386754643677e-02
-1.734294699121929906e-02
-3.318601698005610445e-02
5.646218297528680236e-03
3.767761030839109591e-03
3.629915712992430772e-03
9.684380055284792180e-04
5.956262524700205088e-04
6.395406856141060137e-03
-6.287661416319547845e-05
2.224648446550460314e-03
2.237372538324705184e-03
-5.186292156643935308e-02
-2.379537627950035761e-01
-2.380543531977676874e-01
-2.553551917927962892e-02
-1.339161756272438941e-01
-1.453769922147715721e-01
9.006178915166040966e-02
1.050063610571556200e-01
9.147546062159299385e-02
-4.503303244227765262e-02
-1.052419166580690069e-01
-1.258609511642456713e-01
-4.021908147506376399e-04
-3.158972977371789920e-02
-8.642486473186987428e-02
1.088702954373189508e-01
1.192735659982139956e-01
6.228093583299782604e-02
7.065838437688937677e-03
7.991343923936286564e-03
1.197969292130616255e-03
6.895402203020971690e-03
5.793591132764096437e-03
1.378958082832904605e-03
1.523187860791206391e-03
-3.645300422207351301e-03
-5.634222910910916503e-03
6.652365996183288999e-03
1.418760621793198513e-02
5.914959989304649501e-03
9.316381761551426402e-03
1.810247147959253775e-02
5.186352147573294706e-03
-6.353436833427114280e-03
2.200516325311049383e-03
-1.127468582146856071e-03
-2.266630626371369216e-03
-9.625974058710836355e-05
-1.280728012094446699e-02
1.104437321936616902e-02
-6.449490150780208195e-03
-1.095588030482679692e-02
1.547901571192813325e-02
5.174233547745443057e-03
1.153917164164022183e-03
-1.286450118906292371e-02
-1.175120736001751022e-02
-1.482991698607496328e-02
-1.501217764387266854e-02
-2.725974496788251267e-02
-2.276768343923543658e-02
-3.561606843233390812e-03
-8.932385578507468643e-03
-1.007410076194304241e-02
1.078302096691589711e-02
8.087412659355319028e-03
1.502370048963264917e-03
1.194188258148194681e-02
1.201191914600868715e-02
9.280728409152038880e-03
4.588417040092569038e-03
3.458490818235077612e-03
2.726195900215131439e-03
8.314849175437498754e-03
8.429893849691299026e-03
1.229426525376378816e-02
2.049210333481766167e-03
1.239161677226892355e-02
1.552309380391776739e-02
-6.937205205200685544e-03
6.199390927935988400e-03
1.194488077858439287e-02
-1.621432578692306005e-03
-6.188190628115447338e-03
-9.352541443236241786e-03
-3.617067168221643932e-03
-8.811781766398794555e-03
-6.196290354875707077e-03
1.553210566345896359e-04
-5.139154980844252551e-04
8.662608278105630348e-04
-7.176765871614455838e-03
-5.425721629969425253e-03
-8.828694459649639309e-03
-6.267561289761503472e-03
-3.232644521473819216e-03
-7.814701301005338996e-03
-1.190869519454880281e-02
-5.993745381167670319e-03
-1.183344084814707230e-02
1.525155576038572658e-02
1.077399338094744453e-02
1.137772968991827968e-03
1.362957954068842042e-02
1.193908543595934013e-02
8.574961198663657441e-03
4.050391448888039127e-03
3.424313899829984839e-03
-5.526190989768694356e-03
5.399703335336477825e-03
2.407792486733048142e-04
-5.002579594229635170e-03
4.993945477303939062e-03
-2.126304671872625111e-03
-1.008892245709127472e-02
1.355382441550499967e-03
-3.639111610539539493e-03
-4.490024185413930315e-03
6.208015485660802260e-03
-2.973721231131537870e-03
-3.061363685153728996e-03
2.505911824921933703e-03
-6.358487483467327277e-03
-1.083505971471102232e-02
-1.475958501140483799e-03
-5.734023126648443887e-03
-5.504601688757310325e-03
-6.425925487160751709e-03
2.553761792562822975e-03
-3.932149530300521612e-03
-1.294585307218210947e-03
1.271292433265123036e-03
-5.245965174441488167e-03
-1.514119756145466521e-03
1.484389592973898303e-03
-2.771574043524720893e-03
-4.658429244075125951e-03
-5.919975794515841853e-04
8.303792571991507054e-03
-7.099696202129099007e-03
-3.862244636056898044e-03
4.651043065406511637e-05
-1.244270915917673227e-02
-7.825126072109160613e-03
2.650309598126704522e-04
-2.047893815667388515e-03
-1.675139992927851020e-03
-6.688934256615481581e-04
-1.752436184637980263e-03
-5.130635882690460147e-04
-2.265295946075316248e-03
-3.242371933455231645e-05
-5.825115218743769042e-04
-1.148066439846115580e-03
4.477787791562306587e-04
1.013724884296966951e-02
7.232114878166630983e-03
-1.586920471533704734e-04
-7.886087871385675380e-04
6.254499721020837823e-03
4.499542990963191318e-03
1.384986885812403677e-04
5.646551504796854144e-03
-3.093212475602071312e-03
-1.147243485158569096e-02
-1.359918436549678242e-02
-1.059068922844700299e-02
-9.455077132232621653e-03
-1.475124630462252846e-04
8.606421145489024857e-03
6.801610099218454233e-03
9.623598134749677263e-03
-1.133651900671812365e-03
-3.664740112971114766e-03
-6.229334851303202844e-03
-6.335581101121984336e-04
-3.208959305149690182e-03
-2.783247834139902527e-03
1.908412006023484835e-03
3.582131849281635695e-04
1.924203904317911117e-03
1.188402104339120191e-02
1.309111376065844219e-03
-1.722818822336014263e-03
1.052831940879921449e-02
1.926213253137080712e-03
-7.639695104745369662e-03
1.200679159418355582e-02
2.918531298501385318e-03
-7.720741736959654475e-03
-4.636331438373484694e-03
5.529026857545736064e-03
4.754855432916208630e-03
-6.005749968264593834e-03
4.807754354331257932e-03
9.475212078994777951e-03
-3.919482316311586473e-03
4.408462206555286041e-03
3.296726525036547482e-03
-5.815380167405468162e-03
3.964608252230733369e-03
7.219160796553231868e-03
-1.116857948617689007e-02
1.733930929575689707e-03
1.107102993197496034e-02
-9.940776048704923901e-03
6.581895984068274500e-04
9.038633876332169068e-03
-3.820145616815176677e-04
-7.474170719969075276e-03
-6.019133489312210837e-03
-9.741285972449726565e-04
-1.350935362090941588e-02
-1.196166193418298808e-02
-3.570440992203599475e-04
-1.047810941209790202e-02
-9.850469832863695263e-03
8.496996164463088697e-03
1.448793256441502234e-03
-2.841729015673666661e-03
9.236494322144031544e-03
4.298798491353983918e-03
-2.094264496120897164e-03
1.208083598782680804e-02
5.671330767098522324e-03
3.969185286224097991e-04
2.689298639096867997e-03
1.405764599041705015e-03
1.693994018363159399e-03
1.420166587393052651e-03
1.331404968802748969e-03
3.618759431401748997e-03
3.591471155836742867e-04
6.381896812090154421e-03
8.476252065454532511e-03
-3.620868640774534738e-03
-2.867248766351289477e-03
-5.622147237579545095e-04
-4.085054838288449362e-03
-5.593847529086822413e-04
9.250793415505049848e-04
9.922214951052831054e-04
4.171391872981322635e-03
5.423562664825024721e-03
4.675118022214250213e-03
-9.811847522392207893e-03
-1.355929631132218177e-02
1.855497222780167366e-03
-1.505444189886581165e-02
-1.367769865253853911e-02
5.448501734659106678e-03
-1.020270310853491763e-02
-9.857386969277846453e-03
2.170916988118191601e-03
-7.018396256878958088e-04
-7.560162518521477320e-04
2.961840572332579639e-04
2.955603011812994816e-03
1.361981125509775488e-03
3.062003466188326648e-04
-2.348778840850079819e-03
-2.720199549496558466e-03
-8.986007640434382675e-04
-1.371081677067217735e-03
-2.208056010753233281e-03
-6.443369258577331645e-04
-1.063010545043804878e-03
-4.577427090847324687e-03
-2.086002414598582023e-03
-4.220649332412921770e-04
-1.752250099864463388e-03
-4.108050765195261564e-03
2.810421904541380179e-03
-2.516672844840633287e-04
-1.064441502639861675e-02
2.324598793980845249e-03
6.151074659564267216e-03
-8.693739799635960552e-03
3.426461108083148771e-03
5.948778005208269631e-03
-3.048795804541070027e-03
-2.304821852709795001e-03
-2.587880591873846677e-03
-7.284976349549061002e-03
5.754071856358625864e-04
6.608425236668432484e-03
-8.952428287920507002e-03
5.061810361187972680e-04
8.675948345477208640e-03
-6.436218884323174699e-05
-4.969538382073076643e-04
-1.692251010329946131e-04
2.986344338427418124e-06
6.155858311111936289e-05
-1.361280584416106902e-04
-1.762981937012537384e-04
-4.584639395196198086e-04
-2.727225649774463190e-04
-7.630225731198467254e-03
1.946937490378069027e-03
1.227483442327782781e-02
-5.374976367622562659e-03
-4.174158313760158341e-03
-4.912521730039719203e-03
-5.948340080819138585e-03
-6.518487980745606147e-03
-5.319070181496889961e-03
-6.754406469729448605e-04
6.853159453945606092e-03
1.141583780308275640e-02
-4.172697784199052434e-03
2.984769051987018820e-03
5.841168603661053317e-03
-4.288702368697092961e-03
-5.224585132516288647e-04
1.287549841185731559e-03
-1.893282787033741602e-02
8.268799451162192962e-03
-3.506672602206497430e-02
-3.457856974133938222e-02
4.056219410001191822e-02
1.390861364217845647e-02
-1.763704359018115550e-02
1.969850111597154160e-02
-1.358072569389297268e-02
-1.050097880972285583e-02
6.743250910300509215e-02
1.664804631853458727e-01
7.036611426888580989e-02
1.286615146168336166e-01
1.674013180579238813e-01
1.043301093563515393e-02
1.174952324239839918e-01
1.617219050992372009e-01
7.115033610228729821e-02
9.945478536214209103e-03
-2.600035145304555387e-02
1.746324663938219612e-01
1.885749415224348691e-01
2.300417817149380817e-01
1.737041674140075986e-01
1.878894688757626330e-01
2.351586195658983414e-01
5.987404654694512829e-02
5.714222704258083152e-02
2.786958073399949457e-02
5.286266419243259435e-03
2.103670730253820453e-01
2.793166956322255534e-01
-4.112273476821653312e-02
1.746636624813600602e-01
2.470251655492198273e-01
4.663400918741835918e-03
2.495208222176829166e-02
-1.984979182677234361e-02
1.092620417313704129e-02
1.446055546659906835e-02
-1.908460393450325809e-02
4.409960311967371649e-02
3.666998368128133318e-02
-1.346224224157164737e-02
4.653082103970464407e-03
4.538432336541269735e-02
6.954603493333610942e-02
8.777777391248105590e-03
7.507328556747058790e-02
1.030573652048949740e-01
2.381812992080984716e-03
4.248193451012697436e-02
-4.581124220760974391e-03
1.850349520407156001e-03
-7.270563680442608534e-02
-3.207837704121885292e-02
1.429958195616566896e-01
1.345216610348279884e-01
2.941908854149593092e-02
1.886962272837476307e-01
1.514223426780121895e-01
-2.226131855632236534e-02
1.383469836929386576e-01
1.285127740335049729e-01
4.250196949257479401e-02
1.774902472302488932e-01
2.761090963579442281e-01
2.048668464621520025e-01
1.311874350899127628e-01
2.155498380417605886e-01
1.845333716948352187e-01
2.675274826184007720e-02
4.463386392546696974e-02
-9.753361315960017153e-03
5.482351807717811970e-02
8.373700491793370504e-02
3.395672085390715605e-02
2.370416490608650076e-02
5.288704510980322959e-02
-1.082760605264264549e-02
2.566956493401791745e-02
-2.753446445849454596e-02
-6.747764292134267317e-02
-2.055719435632174380e-02
-3.950427139253454012e-02
-8.609248546765545240e-02
-1.216702299362452076e-02
-5.164607542531144541e-02
-7.297215444869935286e-02
-2.921600354857518955e-02
2.899143256887572878e-02
9.330535013783124165e-02
-7.105147164413384842e-03
4.009165412413168844e-02
8.481604251909613534e-02
-5.201430493414641726e-02
-1.211967515502007718e-04
1.400825507017712697e-02
1.329738307298994511e-02
5.127182349013857665e-02
2.154296018570997506e-02
2.915720298840029120e-04
1.843890801840194493e-01
2.598543492629324936e-01
6.028977597177225672e-03
1.376220275500202039e-01
2.242626711081546209e-01
7.655736470790076853e-02
3.025933329821030304e-02
1.113172826894768923e-02
5.897964747737330371e-02
1.285812493040897064e-01
2.219090389458314161e-01
-3.973454931888462105e-02
7.354451144903706439e-02
2.102545236246400884e-01
1.807620344870570703e-02
2.488327225959223801e-02
3.210996545606036728e-02
1.564085537376883051e-02
2.776264424269366676e-02
2.795449330521367418e-02
3.485380150082084509e-03
1.842143731956610506e-02
2.007923858548479878e-02
-7.052557105005345661e-02
3.163651133768418527e-02
-1.012508921140410217e-01
9.624721035552905035e-02
9.369866028180479089e-02
-5.484117685044291417e-03
1.253667944135271883e-01
-4.433250802111208741e-03
-6.711045692224254511e-02
-3.642038464639117679e-02
-7.812272638083574139e-02
-2.040912841417051315e-01
4.285559997665042142e-02
-1.404632942382015755e-02
-1.250874937750021121e-01
2.987069670268097804e-02
2.735216977919596726e-02
4.194857363036473552e-02
6.311336260384547980e-03
1.122327242515377271e-02
4.120920914784329155e-03
1.156309378879767646e-02
9.236909023496617591e-03
2.227576100466310827e-03
-3.755446586506783310e-04
4.184320520847105082e-03
-4.891236695081191584e-03
1.543923817629335934e-02
1.900858953624660549e-02
-1.684487606519064970e-02
1.957428279423734790e-02
5.732555087830496637e-03
-1.047934082454954905e-03
9.222177366109007499e-03
8.173017752901013105e-04
7.527199785729444658e-04
-1.884047369117087742e-02
-8.560872669555791639e-03
-5.699114821983996410e-03
-3.303964428867383479e-02
-1.960517991080851230e-02
-2.371591272148372564e-03
-6.889009675921545228e-02
-3.305603400304676920e-02
-1.259524221447492348e-02
1.542746279077287196e-02
-8.192552208927894597e-03
-2.297155368412669152e-02
2.340263418615048246e-02
6.145641894215450249e-05
-2.368961045060139284e-02
-1.335930310401970897e-02
-6.911831617597029298e-03
-5.937521150001201856e-03
-3.475399171222849810e-03
1.194504013787405124e-03
7.123154757724903469e-04
2.214943853362278444e-03
8.695311667512530332e-03
8.666791894518167949e-03
-2.595997754260339144e-03
9.439925974074499931e-03
4.652101140082910181e-03
2.017611095888743183e-02
2.087064916118346394e-02
7.732423105183005088e-03
1.037061085502379888e-02
4.651761576374165326e-03
1.779860555254247825e-03
4.694926724174408247e-03
5.853399608969896660e-03
7.210310503277795463e-03
-1.332286879282560538e-02
-1.749905787617189040e-02
-5.891156986019797752e-03
-8.969905387446167402e-03
-1.586253177471987769e-02
-7.540505196017207971e-03
-4.153136127016491923e-03
-7.126856558812046105e-03
-9.635596181506609834e-03
-1.182665924289318278e-02
-1.291537325678301408e-02
-1.916850257182418221e-02
2.637527111547960726e-03
3.687778775957441160e-03
-1.229759871913616541e-02
-2.028667950287364914e-03
-1.074354803019765027e-02
-1.545624339959034491e-02
-2.755189435645403334e-03
-6.416490870578871533e-03
2.898263650047902974e-03
7.258675667685735716e-03
2.285716127106903958e-02
2.230460483435843869e-02
4.502443803263731723e-05
1.237171148068674266e-02
6.624599686325598896e-03
1.303838438523969266e-02
1.900312232196645079e-02
4.664618078667579978e-03
8.310053975852512917e-03
1.455507869244478114e-02
7.225693852607600887e-04
-8.743977429301982851e-03
3.976283077097706418e-03
2.862420911319691220e-03
-1.441127982364042055e-03
-1.403170564913825552e-02
-1.299563593857149153e-02
-1.121414913557863824e-02
-6.512955194569048332e-03
6.064078015428296317e-03
-1.175775802880223674e-02
7.342900986384468323e-03
2.019583945131931194e-02
2.323774022015199744e-04
-4.877257326378529531e-03
-1.140854100890815147e-02
-1.696880687849314185e-03
5.221402361882969759e-03
-1.515325833649598143e-02
-1.088855167422156378e-02
-3.421155658020889889e-03
-1.117481421869917502e-02
-1.585325142698905745e-02
-1.151145346482423774e-02
4.146769506285306016e-03
-1.658493169621873264e-02
1.738759827566190366e-03
6.140676669610111577e-03
-1.726338316721684127e-02
2.142683185202024550e-03
2.718584626888875897e-03
5.061156124445991521e-03
4.146313441210445344e-03
3.283885239490407816e-03
3.351177303312859526e-03
2.214947034286950545e-03
3.207701298362716346e-03
1.322797226708318473e-03
1.501496843160809568e-03
2.643047646077928935e-03
-1.995700210800903721e-02
-7.106813950068799693e-03
-1.207428070968542821e-02
-1.522154483689404370e-02
-2.092394356598638663e-02
-1.290551040222161910e-02
9.511398568147243562e-03
3.527795362421494527e-03
1.862208333165279181e-03
-2.021043830510186115e-02
-5.368663667192898233e-03
-8.556277028635791049e-05
-1.073992098084030136e-02
1.697277388917482061e-02
1.981665096393363593e-02
-9.882138121988265356e-03
8.771725430447779165e-03
8.349508575022764056e-03
-2.147094957647871592e-03
2.108926067466847763e-03
-9.795453562745529835e-03
4.445002783281174277e-03
7.798386734596761925e-03
-5.255117882757686515e-04
1.935991910880701349e-03
4.290650722783687088e-03
-5.394937353389746108e-03
-3.607286102874611520e-03
2.013405833166019478e-03
9.137707263451965009e-04
-1.299348943566230223e-03
2.765145813370940581e-03
4.334785895641419390e-03
-4.773322409476375532e-03
2.091306795041855075e-03
8.020859857006170865e-03
-2.357789753446100540e-03
2.641950741891429481e-03
-7.128037117423239796e-03
-1.753773478637794250e-03
-1.387402191336528992e-02
3.402784989358220843e-04
-1.595255541313778461e-02
-5.703572605880146904e-03
-2.150305737055706757e-03
-1.089323851051397785e-02
-8.276870033428185974e-03
-9.137045477185022288e-03
-1.790283133864440952e-03
-1.637972137440179762e-02
-1.198691233287088771e-02
-6.697966088049392235e-05
-1.224449198626556025e-02
-1.655492666546703323e-02
5.719789135606716691e-04
3.797170877845498869e-03
4.334592834902836820e-04
4.381955670444455907e-03
5.882783144185064865e-03
9.114859135509349730e-03
-4.998057700105272127e-04
3.388610286790800542e-03
-7.133456935193157548e-04
7.434177651259039031e-03
-6.137309309257829928e-03
-3.491536460748297967e-03
-9.907038663445680293e-04
-5.242180905557785806e-03
-1.838038577113575156e-02
-5.126226184089596868e-04
1.263242006935581157e-03
-1.004256444035906814e-03
-5.146822254701206856e-03
-9.084539824063627214e-03
-1.021546979045161001e-02
-2.167976899323480547e-03
-1.266976167901028710e-02
-4.773056092489159907e-03
-1.886915756669893919e-03
-1.529341705434872226e-03
-8.295766520917225578e-03
-9.305821387803872927e-03
-1.364816183408551487e-02
-1.084909589756849306e-02
-5.974504927531410457e-03
-9.368075845137810225e-04
-1.461861635698485408e-02
-7.830339431461212640e-03
-7.077564134429914847e-03
-1.849822531483437740e-02
2.512784713833930011e-03
2.482673724845255777e-04
-2.844769823261485489e-03
-7.270420365985955828e-04
1.152441434873128882e-02
1.271482457357921668e-02
-8.787207209496996144e-03
6.112794410887344501e-03
-3.485006352960045000e-03
-1.292540805421839040e-04
2.523935306887491268e-03
2.019084146292439517e-03
6.723979877944630777e-03
1.120229212486180230e-02
-4.962204489544105347e-03
-4.618668166953279579e-03
-4.346825293024091444e-03
2.431757198159038326e-03
-1.397415404821479058e-02
-2.122440319167690718e-03
9.629129447198098157e-03
-1.234386599525030392e-03
4.453139377709359505e-03
3.282715899363322816e-03
6.042835838072226073e-03
6.464976496988648902e-03
1.056081081125093309e-02
-4.827202380345552851e-03
9.527027978352157946e-04
-5.463976598438823398e-03
-3.296822114969131037e-03
7.951238186626167657e-04
-5.228796950778338837e-03
-5.289175933684396418e-03
-4.914020764320545069e-03
-5.693455994252595229e-03
-8.444055100668529726e-03
-9.362749505393491017e-03
-2.714226329726770765e-03
-9.322259021676704976e-03
-6.800116203622938969e-03
-2.650544997102086998e-03
-9.283241675334763174e-03
-3.090303974586097128e-03
2.211823434930741943e-03
-4.046165814603551285e-04
-8.821328596555337055e-04
-2.970171930002530464e-04
6.497072654006670655e-04
1.379075321433379864e-04
7.188849533133706646e-04
-1.231866393800592910e-03
3.327898216879241920e-04
-2.013016087030716739e-04
-1.140029002936873356e-02
9.404580540305955416e-03
3.771485024125779267e-03
-4.968819490641321161e-03
-2.181885475675165650e-03
-1.365750772893057838e-02
-2.271122651255394215e-03
9.784781233794368621e-03
-4.213145039416097944e-04
-2.461564097407295624e-03
-9.444157419401124839e-03
-2.297916314964199014e-02
-5.136582404697049957e-03
-7.425796106249488507e-03
-1.182798366454868022e-02
3.458924076103193999e-03
-2.092594693308828455e-03
-1.014379770819582270e-02
2.087109183651707743e-03
7.562325521932059154e-03
-1.431194094974747900e-03
-6.472462979954716339e-03
4.485151919029140705e-03
1.996443773858647477e-02
-4.249087854759209942e-03
1.516026564914952669e-02
4.483193990635297999e-02
-1.522184061245172859e-01
-1.576857865890499144e-01
-1.529554184786800497e-01
-7.055904462260485788e-02
-4.961690082407286401e-02
-1.975311989233197955e-03
-3.635517269595518047e-02
3.609364409057483347e-02
1.003353018310830513e-01
-3.651672101348615168e-02
8.952795563562522541e-02
1.459396533764478754e-01
-6.719609365206831442e-02
-1.031979794681764720e-02
6.352287324459446327e-02
-1.319406153788104108e-01
-1.081819226907602405e-01
-7.405268551699231705e-02
-1.429017190235525037e-02
5.797451061267812344e-02
7.958040360871321273e-02
-8.498831251830439582e-02
5.466981592248918408e-03
8.003657281179860083e-02
-1.270801548966202232e-01
-4.782705978232367622e-02
4.413665534166686354e-03
-4.905776735496011204e-02
-6.168669292533522641e-02
-6.608580415951677278e-02
-6.416630441239981608e-03
-1.659128993345229675e-02
-3.630474636426134216e-02
2.327062504819354949e-02
3.185128184780528643e-02
-2.597169259549967756e-03
-7.684868063371209923e-02
-5.077631564896054744e-02
-6.538876223717113301e-02
-9.290450280584471032e-02
-6.876432987589746471e-02
-3.519246377094959605e-02
-6.200709175165153991e-02
-3.545327127978672305e-02
-1.469518737391212280e-03
4.373521887900196081e-02
9.712195318009919642e-02
3.950379915020997557e-02
3.692610970865916557e-03
5.119816973332828869e-02
5.477040132631889185e-02
1.598686038156640551e-02
3.712545130113637654e-02
3.223744543525842304e-02
-2.614777882445798278e-03
1.166570699552523828e-02
2.997682794279043009e-02
-5.648298796725482194e-04
2.672917677967185345e-03
-9.297378858559204873e-03
-1.867900372882101354e-02
-8.262054033164527994e-03
-4.518364466004312630e-02
-4.666496857988135932e-02
-5.239441216891027597e-02
-2.455936954663471422e-02
-1.411812608322391728e-02
6.807224990459049586e-03
-9.756936080805278175e-03
1.510182783400782977e-02
3.210913059163027911e-02
-3.617223352851968703e-03
-2.964037967575425606e-02
1.150505878801500424e-02
3.834396074413606859e-02
-1.848991633089374503e-02
3.005564429922790229e-02
4.269495391195706618e-02
-1.883093448423967670e-02
3.024903810588181873e-03
8.398503022292376149e-03
-3.466573552324159896e-02
-1.203419993569455372e-02
2.527943865334835588e-02
-2.593432038042307874e-02
3.095857819453779261e-02
7.681547237297511876e-02
5.232963576387465732e-02
1.010147399210343661e-01
1.487784541454842679e-01
-3.005605527383120590e-02
2.610528329408128706e-02
4.784534184887927893e-02
-6.134010014102054403e-02
-2.866232693477834340e-02
3.099197051138545100e-05
-7.197371753852674359e-02
-5.073273469179415129e-02
-5.470037427949565184e-02
7.961718583570897775e-03
3.765648091493786070e-02
5.539749814463030414e-02
1.063998750385743326e-02
1.847508090410941717e-02
2.737984664739184781e-02
-2.896944724730138529e-05
1.206497764724388973e-02
3.065585631879674897e-03
-8.014401241476377946e-03
9.497364647423802830e-04
1.566307920905172374e-02
1.477579512578301767e-03
3.630976882689804664e-03
1.169587959109424577e-02
-2.669326692821437884e-03
6.123338415591515933e-03
1.408659323735746670e-02
-9.524597387855060493e-02
-3.100283108257401166e-02
-3.527999379750376696e-02
3.976906938940200087e-02
7.643953650624779605e-02
1.383698793810613122e-02
2.367484756568453974e-02
4.827552005995137951e-02
-4.964913585660815469e-03
-8.380618063098864076e-03
2.918153031313933457e-02
-1.279587454803049126e-02
3.197392120780129243e-02
3.341438593172629812e-02
-1.591651123654947569e-02
-1.931942822659911060e-02
-5.497926971351135839e-02
-1.026081048466048473e-01
-2.036637374763310485e-02
5.207619472317411013e-03
2.099547129423783021e-02
-2.713926191877568186e-02
3.668599092242033274e-03
1.895987833146683954e-02
1.654574885099814249e-02
5.470248506697026475e-02
3.224204570488568844e-02
7.413125082339941732e-03
5.583306722860923582e-02
8.872823710588352217e-03
1.033191979345657839e-02
7.198322289268598018e-02
1.274191694560852448e-02
-1.607023445684590103e-03
3.561893352372646343e-02
2.467042440776252756e-03
7.661824915517053899e-03
-8.486528880374913375e-02
-1.102230763813841913e-01
4.604993340751954711e-02
-2.187168454616543814e-02
-7.960253797413298360e-02
7.018671581680382965e-02
1.055949963856414424e-02
-2.594958911019450490e-02
-6.993761737668288681e-02
-5.941815353115768167e-02
-9.557766399019108905e-02
-1.284132766341005566e-02
-4.250644951599850951e-02
-1.178159392056450372e-01
1.988088181998027074e-02
9.866036855458368976e-03
-8.495321304961934994e-02
-2.270155124343977110e-04
3.309515005399309151e-02
2.985299859210631748e-02
-5.266332833152331111e-02
1.514232899125107388e-03
4.573802192899660557e-02
-3.516960358881363047e-02
-1.050505940596643990e-02
2.928428227254870758e-02
1.171858683165030897e-02
2.391337815216178567e-02
3.079226590058801311e-02
3.482477459267475928e-02
1.522190000116693809e-02
-3.131420821876965133e-02
5.859057959630436380e-02
1.778059711321161931e-02
-5.585476504224849703e-02
-2.742362007855448508e-02
-6.857545282062457725e-02
-6.986559002892851755e-02
-1.991069803137443181e-02
-2.380681104922944408e-02
-3.637222957808061707e-02
-4.271769677633071444e-02
-3.859341784786159135e-02
-3.663415965981922651e-02
-1.621105909712001678e-02
-1.977324970521355738e-02
-4.267448860761491325e-02
2.550688305449529125e-03
1.077027207253692005e-02
-1.980748561272116862e-02
1.568765316016018652e-02
-3.114375070569568721e-02
-5.020220958132913525e-02
-9.923751432951126092e-03
-1.009652848824077465e-02
-9.303348049686807966e-03
-3.297256039390836224e-02
-4.136462911052501967e-02
2.625471809071998341e-02
-3.351241736473538346e-02
-1.014107461669821672e-02
6.471210694153847753e-02
-1.591917272506126677e-02
-3.668599092242032927e-02
-1.919413561537737511e-02
-3.917229915948252945e-04
-3.939076254448749953e-02
-5.697428817867885437e-02
1.813183060024619112e-02
-6.063444030568516767e-03
-6.627767845804187659e-03
8.306594821959195629e-02
1.844908258782256352e-02
-3.869260093740839457e-02
4.745316580870388712e-02
-1.447147247481929888e-03
-5.847145173967740334e-02
4.210929486104915409e-03
-6.169050150868869839e-04
-5.968212402725209384e-04
-9.948667971911887356e-03
-1.307328909492327072e-02
-1.485515586305509797e-02
-9.082331829254844391e-03
-1.051039167508304936e-02
-2.948046074841577727e-02
4.751590468767449837e-02
3.424712618160097657e-03
-2.473369064268980677e-02
-3.865133430380651713e-02
-2.854637636019577429e-02
1.192613642033317489e-02
-4.268584530054125858e-02
-3.558478516554759025e-02
1.426992156014360476e-02
-9.866053335332015256e-03
-2.485616082369060745e-02
8.052129504987003920e-04
-2.273318230091920644e-03
-5.936105076897403923e-03
-1.837041385098882014e-03
-4.288217621523955983e-03
-8.214262209888651550e-03
-5.043621039720605145e-03
-6.509622704642588700e-03
-4.367383844543388204e-03
-2.734696394628977067e-03
-1.174450555292717163e-02
2.943718254023698286e-02
1.220067669538733163e-02
-1.014650885503300959e-01
-8.129300221306318130e-02
-4.005711078548497561e-02
-1.455652304272248287e-01
-9.552886296435664226e-02
-2.872388210922974597e-02
-1.117149725627686191e-01
-9.934375801492328906e-02
-9.379360436887222707e-02
-1.033687405547143029e-01
-7.543610661885351287e-02
-3.542866411255360393e-02
-7.997373682808978090e-02
-2.310663580758920421e-02
2.471118840521819692e-03
-3.524216006045707145e-02
-1.599181884768120787e-02
3.251804323865841329e-03
1.575361120392313602e-02
6.130082393112219231e-03
-1.563012673355530791e-02
5.532555874560347170e-02
3.736783697954181721e-02
1.805357403712377212e-02
-7.126114067987894540e-02
-2.662150085148307782e-02
-2.480861198130581216e-02
-2.487247089818845486e-02
-7.073258863598516936e-04
2.717268498242725663e-02
7.770067229883537846e-03
3.847938456815230834e-02
5.427991257153937099e-02
2.454335261477849361e-01
8.789260568351267566e-02
3.204499059973502789e-02
1.323240396246610218e-01
1.021846744366963419e-02
-6.718725996188283645e-02
-3.761064836538291923e-03
-5.288969942415364806e-02
-7.512584732774768570e-02
1.922353749210894414e-01
9.457618220095019568e-02
5.673765455883952175e-02
7.632743375822675924e-02
-1.015095563992600251e-02
3.088111131859659197e-03
-5.921881920757741252e-03
-6.207625611150539152e-02
-1.261514459890817653e-02
-4.820418487500381655e-02
-3.653433548594002545e-02
-2.216651129581207955e-02
-1.709601301151075434e-02
-3.296062302537469679e-03
-1.676375842203810945e-02
-1.644636338211175964e-03
-8.774092369900326344e-03
-3.075807195243862591e-02
-1.424244234123048791e-01
-4.618307062396398432e-02
5.252316964456434784e-02
-7.731663725294869727e-02
-4.301368606253205135e-02
4.256802303570512286e-02
7.516286895162641035e-02
5.548334872948910979e-02
3.288704762437797552e-02
3.544399153558965010e-02
2.720198605177530024e-02
2.426459608579978680e-02
-2.688575196492187444e-02
-1.252730853553803841e-02
-2.496266027408421476e-02
1.447368318357238753e-02
-4.010551810846584714e-02
-4.131005240672898371e-02
5.048040231914009690e-02
6.568860924897559905e-02
6.106565295939443000e-02
4.223905095440788626e-02
1.555709390484359689e-02
2.050871362681734936e-02
4.144952055844319111e-03
-3.299732625354126481e-02
-3.423434666125269726e-02
-1.846511024190401057e-02
1.058273163200094610e-02
2.060693545508428606e-02
3.044068449336256518e-02
3.175411445710042690e-02
-2.535859942088284150e-02
4.975967247146827893e-02
1.835470273828579413e-02
-4.433926379736975731e-02
2.125981777564250191e-02
1.378586072402925196e-02
-1.403482992626276307e-02
5.807655834550777552e-03
-2.688250844397652509e-02
-1.816291480680837234e-02
8.400651670591273781e-03
5.113750284139519445e-03
4.249414223473958058e-03
1.140265690571261176e-01
7.437398942580801531e-02
-1.162438811285547088e-02
4.997691256630383549e-02
2.853519228796159296e-02
-2.156281678086884035e-02
6.402000561938230028e-03
6.028908365146777755e-03
-4.774957536185649859e-02
7.674696884304116340e-02
6.153886263021666331e-02
6.229330885104093080e-02
6.264216875158371001e-02
4.042225578037423467e-02
1.663389737359808815e-02
3.618766320219511667e-02
2.068410851103275050e-02
5.507649099231619327e-03
8.544650355034296221e-03
2.247344151340290030e-02
-8.873544461871406275e-03
1.315689598613482662e-02
-1.479964458432602228e-02
-5.695729236832382941e-02
9.106637197641202774e-03
-1.685670831041791509e-02
-7.202352513393509015e-02
-4.330641951348762446e-03
3.219938003077646958e-03
6.388140493353693669e-04
-2.197635216416831804e-03
-2.798242159334965624e-03
-6.735391629167150748e-04
2.772564953021088626e-03
-4.992787746067326241e-03
-1.335261621295534247e-03
-5.115684808835571640e-02
-1.481851115473969416e-01
-1.551441913260602767e-01
-2.951333748806818716e-02
-1.121748012547491569e-01
-6.631095373860994291e-02
-4.401291685622995414e-02
-4.529156696181760311e-02
2.129415361256147346e-02
-1.146052749235574979e-02
-8.761412206514440637e-02
-6.767605261196472932e-02
-4.743750099585485741e-02
-8.987560991716792014e-02
-4.619836444793400804e-02
-6.243700495125953376e-02
-8.066778461283932722e-02
-1.282253500326027695e-02
1.989473104766608866e-03
5.460279275344309159e-03
-1.299145127575315924e-02
1.322218417216760797e-02
1.150174085571092041e-02
-6.309882169588402513e-03
6.012312964184656286e-03
3.014908057022737398e-03
-8.643597831155669722e-03
7.541261755454814648e-03
-1.205962663603029131e-02
-2.761773924816769699e-02
1.653083534669160665e-02
7.961264096119815680e-04
-2.443326928706677018e-02
3.255169153751836381e-02
1.639403844442316460e-02
-6.257952616696225989e-03
-3.548573504218411993e-03
1.919036515284217384e-02
2.313768613436904126e-02
2.407223858128108157e-02
2.689355900481284548e-02
2.350035139948518717e-02
1.121457959360460353e-02
1.033897305809284434e-02
-4.383397141348398945e-03
3.040051639361138550e-02
2.987815865227307424e-02
2.142579028262872956e-02
3.999194613812460941e-02
1.308591236439498977e-02
-1.843652629737332037e-03
7.134067470521832446e-03
-2.779003063705325679e-03
-6.977323687884847726e-03
-8.364367229475106608e-03
-9.338035022280579897e-03
-1.584113630856256658e-02
4.465751977870842035e-03
-1.861433593171659589e-03
-7.308605749379938447e-03
-4.719422388693951184e-03
-1.435519325978589725e-03
-9.153124030107191375e-03
1.904633659773027898e-02
-2.436935986262608791e-03
-2.330747563531602659e-02
2.199242260502391744e-02
-4.502327689416259736e-03
-2.746387593597586149e-02
2.882579434902789173e-02
1.118482479804727920e-03
-2.647614243299629532e-03
-1.209332047911539781e-02
-1.874138028019677396e-02
-9.021820768229570076e-03
-1.511465381383464597e-02
-2.192330082084353177e-02
-1.216928750474774272e-02
2.728593041455858789e-03
2.797956458577294941e-03
-1.570012690700014341e-02
7.477191279667168983e-03
1.249413925569172953e-02
7.885134341522312407e-03
3.527245384867243316e-02
5.057923800499046496e-02
2.031128979737764281e-02
3.437514396653932464e-02
5.131433115472020662e-02
2.196327678487229595e-02
-3.151216604633881591e-02
-4.044129058027035040e-02
-4.217709193211929136e-02
-1.916122548395727404e-02
-3.670042009016092482e-02
-2.778320608622573615e-02
-1.927117266618043681e-02
-2.326441509062808846e-02
-1.928098449581168092e-02
7.832603082903290617e-03
3.079256290463286937e-03
4.314501500101037938e-03
-1.132282678938760761e-03
-8.918982772721441299e-03
-1.705923530957132589e-02
-1.824114640844132565e-02
-2.379093556192051276e-02
-1.576824994914693967e-02
-6.808153787258813643e-03
-6.253948701264805399e-03
1.747175435466324575e-02
1.017164294542342862e-02
1.121675881964318347e-02
7.478601038159153440e-03
1.382115034849577991e-02
1.544395852268092353e-02
2.278672449300488470e-02
-7.664278142642743166e-03
-1.692164824913184804e-02
-2.407644381089620381e-02
1.648685155278896419e-02
1.009983193927241341e-02
-3.769866834479649199e-03
1.602101276852518907e-02
2.020840035491145575e-02
1.050830568768403896e-02
3.050374807018986154e-04
-8.193004402261878580e-03
1.011424659403159336e-02
7.725085091830142039e-03
1.353400250733504361e-02
4.206364803436642846e-02
-8.311143673746575894e-03
5.890634197906220552e-03
3.789837928470842637e-02
2.996915601854308747e-03
3.280299091462230560e-03
2.803377178497129529e-03
5.581793075833322085e-03
3.578412516209252426e-03
3.847246973840373271e-03
3.007054231510429207e-03
1.702636573622726785e-03
1.671930288944374361e-03
-2.954145285114539218e-03
1.883976419939047825e-02
1.708510530058925461e-02
-1.022575116514812081e-02
-9.920335180228497668e-03
1.705680835524557635e-04
-4.397823539434959732e-03
7.318042910947067858e-04
-6.547351262271971367e-04
1.955235321941258680e-02
1.689507309926489495e-02
4.041174213175131869e-03
8.476060253035823736e-03
2.298841222635955930e-02
2.412843319883742343e-02
-6.600358405253022509e-04
1.767287449386109599e-02
2.126565994805701063e-02
-1.954721514844307700e-02
-1.178225488967307548e-02
5.747236928275365614e-02
-5.095486410234423974e-02
-6.182111998303060560e-03
5.455233357395729288e-02
-2.905449864096829038e-02
1.475764803091160482e-02
7.212470299069760615e-02
5.007587520490704852e-02
6.099219814016356572e-02
-1.020341635005896919e-01
1.930962009698454773e-01
1.561007612680819223e-01
-6.837514704797342802e-02
1.466874063941358275e-01
1.015517876974867811e-01
-2.506033220012331142e-02
-9.421102160386893298e-02
-1.009701666087857441e-01
-1.751304983428278450e-01
-3.512467896243916948e-02
-1.465427910482353380e-01
-2.397880670657682178e-01
1.139965466181966924e-01
-9.804438484356899075e-02
-2.081899269525501195e-01
-4.440185104735795002e-02
-5.691527722008769830e-02
1.309343861600592296e-01
-7.890690482941631334e-02
-9.861771358418100486e-02
5.924869565038481251e-02
-1.528762721994950807e-02
-1.372200335823814954e-01
5.883042906195391081e-03
5.846558577586288830e-02
1.882898313317749386e-02
1.039979627830868968e-02
5.208499697686912178e-02
3.341833430417893297e-02
4.822068389994003945e-02
6.386062825335694915e-02
2.656923034188325011e-02
3.598551457792602271e-02
-8.418310659186814537e-02
-7.345448816634429778e-02
3.955239725291177094e-02
-2.111454530098253943e-02
-1.745765234218801115e-02
9.098017807288780179e-02
1.251997029254186405e-02
3.974194951412079319e-02
3.336302193884594508e-02
2.295942249726816431e-02
6.211109428213301004e-02
-5.770110489166597155e-03
-5.803966779378462622e-03
-5.431187050174515231e-03
-1.078432763179043921e-02
-2.751340505715616988e-02
-2.582339096665278028e-02
-2.552721493258160862e-02
-2.979952305264109425e-02
-1.430233252314271584e-02
-3.653524317569770141e-02
-2.157369276489582918e-02
-1.956632360273519167e-02
-3.405341249555174366e-02
-1.930647103273062937e-02
-3.349501223485543827e-02
-2.659793057924573698e-02
2.504010583115071770e-02
-5.471818053573789670e-02
-7.025788562342642762e-02
6.731634664423070957e-02
-9.881876922500810057e-04
-1.943776216261576886e-02
-7.296708487683959028e-03
-3.901681221623759521e-02
-1.475841604956387200e-02
-6.685020626720973580e-02
-4.702750839899373647e-02
3.706831071357854362e-02
-6.470773467477791696e-02
-6.159842587047661272e-02
-1.095912041474317138e-02
-8.749099484971994967e-02
-7.299378964275674009e-02
-2.174768685852477342e-03
1.226267778471153008e-01
7.823793241634806328e-02
3.172812241914081677e-02
9.831147005866479327e-02
-6.883349957815536498e-03
-6.947572341006141849e-02
-1.809286949048079240e-02
-1.258000281162933165e-01
-1.296918358854143305e-01
-3.953492999251227713e-02
-1.944955597471521858e-02
-6.759742144113431439e-02
3.229554736845031276e-02
4.046553825605801735e-02
-3.636489075486329381e-02
7.403605918047959089e-02
4.546637247023817274e-02
-9.586403184214352391e-03
-4.616862068411476533e-02
-5.453787454309553390e-03
2.264040745375613117e-02
-8.720859933614455439e-02
-3.370395336792480351e-02
-7.922205161272375534e-03
-8.298563594504421159e-02
-6.357155154084569160e-02
-6.481755195307109529e-02
-1.688687364883706930e-03
-5.629326348292037173e-03
-9.121408888817088625e-03
-2.852739999132544897e-03
-5.748404917521600724e-03
5.354986204923238373e-05
-6.307570943514712730e-03
-7.148967988134712938e-03
2.907082044567613557e-03
1.437697116712884915e-01
5.860778752769398026e-02
-3.723034950463347675e-02
4.239126584621168842e-02
-1.795891877522199157e-02
-2.673629787120412882e-02
1.060156235203743233e-02
3.146941968635240394e-02
5.310295030546133277e-02
-2.260601874572387357e-02
-6.937012616579724122e-02
4.429882763577358551e-02
-1.278582993264080758e-01
-1.489243749514680693e-01
1.613264553197849699e-02
-1.356319813226684601e-01
-1.048382765896632013e-01
6.777397184134505148e-02
1.434871576438217534e-02
9.706088056169815195e-03
1.098711164180723836e-02
7.833352750084697502e-03
8.303256842542315933e-06
1.494553220034152601e-03
7.920863879074091507e-03
-5.420671356450134336e-03
-7.046278848511256486e-03
-9.845533845418891206e-03
-1.783003496513234365e-02
1.252389280253370443e-03
-9.311345391737651384e-03
-8.234025197623884990e-03
6.419472766399032630e-03
2.632005321659681291e-03
1.767669548355978604e-03
1.821131787819793568e-02
2.068156802881232666e-03
6.244864826147864673e-03
2.925903943154327391e-02
9.503331039477168340e-03
2.772420230846447953e-02
3.645086644763192302e-02
3.420725612170989575e-03
1.587764897133801117e-02
2.535826656888847189e-02
8.748366984785449843e-03
1.264951848656914977e-02
9.788306711021797085e-03
5.861622266047654753e-03
1.494898633467996521e-02
7.020707104844708599e-03
1.473828057217531178e-02
1.777448918469986400e-02
4.018602772870243957e-03
7.273316043596841571e-03
-6.577685052591576709e-03
-5.519235492331291126e-03
1.311632523067551501e-02
4.007782345843876638e-03
-4.680848407089597749e-03
1.169249314785979731e-02
1.014156497675894331e-02
7.313997227838208402e-03
-3.579261860039898054e-03
1.277210346202880750e-02
1.028491980248011882e-02
-1.000011717213927440e-02
6.198888937856665430e-04
1.307718491591630325e-02
-9.989311908517362754e-03
-1.286118177346691309e-02
-4.186823351985824275e-03
-2.684204003549879505e-03
1.588917271274161791e-03
4.849626018327671956e-03
3.418022066353091585e-03
5.667097194044344241e-03
-2.731978672993723607e-03
1.119668416282009436e-02
8.585009844657692096e-03
3.000403800763041823e-03
2.690655675359657217e-02
2.207186802660490374e-02
1.973290084783527187e-02
2.877047097213101395e-02
2.976214156814352418e-02
2.350175432164067560e-02
2.244568117904628679e-02
2.638096327434663255e-02
2.467150260162973702e-02
5.495265940738447256e-03
6.995145172792807328e-03
1.593247894988370286e-02
6.537569820122381484e-03
-2.440237447167091598e-03
1.444360924142891770e-03
1.505996327804654498e-02
2.810289227936820563e-03
-2.588002147689878393e-03
3.513934791768728080e-03
-2.408643914207075356e-04
7.249988929772172193e-03
3.615254430427166168e-03
-1.190802221092871361e-03
9.869187418421833391e-03
3.287112560240423084e-03
1.670037738857586308e-04
4.460668638677718449e-03
-3.754650715620518140e-03
-1.041656446611938236e-02
-1.829375328053713372e-03
-2.452913027532077021e-03
-2.920121780249502943e-03
2.902202917615088291e-04
-1.984357050927039023e-04
1.035546174393648690e-02
1.796595526284554267e-02
1.107883908920019415e-02
3.649174966193853911e-03
7.757988846011517302e-03
5.653704786032854104e-03
1.258585983877055607e-02
1.588454207661043477e-02
2.383880424596247164e-03
1.289839098407048398e-02
1.550359811023266539e-02
7.725404919749322662e-03
9.214398611334655154e-03
6.194621554458685543e-03
9.011954674345764096e-03
1.730922464802310545e-02
1.866933965933482986e-02
8.582707237092894112e-03
1.469115360309295251e-02
1.508702995499939907e-02
6.817777046948276555e-03
6.900260615395743119e-03
7.897372197712831943e-03
6.840813826175872782e-03
6.290838038544161771e-03
6.049985198069788780e-03
6.526191023026070397e-03
5.981074214557340930e-03
5.693102878667807148e-03
-4.010427021973889290e-03
-8.524804439232568478e-04
3.733244894336843010e-03
-1.079447396767613775e-02
-5.048683610315689470e-03
6.939702860296609842e-03
3.121587365463283654e-03
9.434932043856331801e-03
1.146342673247209391e-02
1.031063604447147661e-02
1.811225937073328990e-02
7.283190541774682558e-03
1.402290682856914029e-02
2.345282736725297010e-02
7.259408971798836895e-03
1.531734422937728289e-02
1.648461507666782247e-02
9.965433114360008546e-03
-1.662252894297671854e-03
9.792303594208070366e-03
3.360174780612971458e-03
-4.023523415390739544e-02
-1.389308900956152601e-02
-1.337292866722536531e-03
-9.091885604370329721e-02
-4.476482584339428611e-02
-4.674236131076982964e-02
6.222503514925994961e-02
7.282488435962494733e-02
-1.191597669663939070e-03
-2.101875523372984458e-02
-3.216704043555233122e-02
-5.912663967332874859e-02
-8.468057984918220260e-02
-7.420413946217670198e-02
-9.258061579467947999e-02
-1.311461864338062389e-01
-1.158623395487311525e-01
-6.872630110447192076e-02
5.063316108727776432e-02
4.848845325516604188e-02
3.530720228097632141e-02
1.603977644313001050e-01
1.020168283274359988e-01
8.022985009346854379e-02
-1.517356902759153248e-01
-1.616134183584300721e-01
-1.112767069819097510e-01
-1.405908561988218316e-03
4.248539529705293478e-03
2.938992607652154282e-02
9.332504550817714850e-02
9.351116025756285588e-02
1.137252118917242288e-01
2.757252455361393004e-02
8.360272785363657977e-03
1.632986931977166781e-02
-6.678281858907861822e-03
-2.660452579689619526e-02
-2.517205279896898504e-02
-1.702382578503196242e-02
-3.774452068551734790e-02
-2.525513749206271044e-02
1.367421419878995549e-02
-2.624364679405142425e-02
-3.921499412472224944e-02
-3.705550224238200741e-02
-3.929689134978236326e-02
-3.908056864355158311e-02
-1.324792049573626229e-01
-9.978514980943008206e-02
-1.045136445908495665e-01
-7.761892415525459277e-02
-6.878926180169153692e-02
-4.776627795183215064e-02
-2.408598955714412113e-02
-2.196034271006507693e-02
-4.466258499212093225e-02
3.453443586112305702e-02
1.375219907540889061e-02
-7.164928807794926358e-02
-1.231935636641079551e-01
-1.225133026146951881e-01
-1.573900587150058317e-01
-2.102898268652238223e-02
6.196249782706770952e-03
-8.278905162261318562e-02
4.557158811134161269e-02
6.278167506598539283e-02
-3.038690139598290534e-03
-2.561140279358331551e-02
-2.918017910264455658e-02
-4.300759424819698001e-02
-2.447261069993814792e-02
-1.801868679642855756e-02
-5.462058649938843213e-02
-3.930335726696659177e-02
-3.930857275541999735e-02
-6.197811207997817179e-02
4.246111735936459325e-02
2.009854803880858909e-02
4.284026814222340052e-02
5.149621753955074127e-02
1.857113470208097278e-02
4.465099875963025877e-02
2.767077984633305524e-02
4.750118706089685207e-03
2.205413072168613611e-02
-4.892934212635661334e-02
-2.526916894232911909e-02
1.385673067111945801e-02
-5.724582794310740380e-02
-3.913073953402205346e-02
-3.713164808096122704e-02
-2.468940780770147170e-02
-1.870832752552478717e-02
-3.369269672956684558e-02
-5.872636484445162980e-02
-7.175099156699285552e-02
-8.719544679806841281e-02
-1.280721567476990385e-03
1.662731102756088639e-02
-9.414969300674161379e-03
7.237138577856333521e-02
6.982467243050208272e-02
3.963919841114960790e-02
-6.312480500902326042e-02
-9.276044911636585621e-02
-9.161318807684352972e-02
-7.332633556473172956e-03
5.186105867371356044e-03
1.994702946044392064e-02
8.999426356301057361e-02
8.211712481246957740e-02
7.862835983595639622e-02
1.057677191853061138e-02
4.222692552874151954e-03
1.746171450578989188e-03
2.112034890760387806e-02
1.396151703802342610e-02
1.272578011268265565e-02
1.203211721997567672e-02
1.542567683707923680e-02
1.143299142476644076e-02
1.085222936147322847e-01
8.501976815973368018e-02
9.972431220548880204e-02
1.164751814050398043e-01
3.942374836946633404e-02
8.789995942952881502e-02
9.469278612414901153e-02
-1.479866150288487552e-02
2.377376453122750574e-02
2.279611228900351935e-02
1.160223768558498597e-02
2.457620300989833695e-02
1.364742295792074622e-01
6.249996255098411169e-02
6.601982864772153181e-02
1.239647868147782106e-01
6.093970715754402911e-02
9.617543733355800317e-02
-2.114175193607559927e-02
-1.682764225224446519e-02
-1.458851392056394365e-02
-3.822179695573428918e-03
-4.109880090523659532e-03
4.272685005098945596e-04
1.360366150841022144e-02
1.859241514417732388e-02
1.975967079792012929e-02
-2.106513952096007031e-02
-1.857032708945794558e-02
6.569897808905685380e-03
-9.816529791245965503e-03
3.588911783711941882e-03
2.424159652664035353e-02
3.866762958094573793e-02
5.787111185717656869e-02
4.498729498944378791e-02
-3.852227124291660726e-02
-1.001839669128819221e-02
3.308925466421620137e-02
-4.891166140312005334e-02
-3.654340614391517195e-02
1.606301746910143713e-02
-2.057279166506518001e-02
-3.228554184584487424e-02
7.425550101327759063e-03
-9.950091404440730355e-03
3.717430524724306407e-02
3.859299734948910821e-02
-3.605635194775096142e-02
4.924378916381908812e-03
3.139283929258545464e-02
-7.829973650877439240e-03
-5.004310499676453000e-02
-4.990237601606849899e-02
-6.954312597026785685e-04
1.286982165018547267e-04
-1.501959059483731068e-03
-4.569899589881385588e-03
2.366043706533091113e-03
-1.118379537875228806e-02
1.026673261549629476e-03
4.444787072805781759e-03
8.475384949021721971e-04
-2.224198135295013881e-02
-2.354333903524541069e-02
-3.337391627749333040e-02
2.764750907165249363e-02
1.069433241673719073e-02
-2.129735204917379554e-02
6.455373280951114123e-02
4.689073564959309742e-02
3.279255323964269490e-03
-1.421104216395298846e-02
2.088075341707339161e-02
1.276191603845835401e-03
-1.832874133477359335e-02
4.635631642461789798e-03
-1.017648224627006048e-02
-2.955410048057256073e-02
-2.762736570862923957e-02
-2.613716198901195817e-02
-2.854723367626370301e-02
-2.405226297707496047e-02
-5.133694106159047976e-03
-3.571245692724325793e-02
-3.886471711988766231e-02
-2.896207378205762142e-02
-1.687660107108189880e-02
-3.066604023618339434e-02
-2.860460877789622325e-02
8.483813285690958508e-03
2.972036559365441241e-02
1.632152552377241078e-02
-2.688865474592872732e-03
7.934234304993667553e-03
-7.267217776755664641e-04
-3.852753008034419044e-03
-1.579476653581924706e-03
3.948515948739082619e-03
-9.322003532428379743e-03
5.581553456376803050e-03
2.108615009326241310e-02
-8.867719132459076295e-03
6.381865073258932361e-03
1.853129664496169435e-02
1.113846209739517007e-02
3.976719536508237229e-03
-4.328408926870879261e-03
-4.221288825942507567e-02
-3.212071382242551870e-02
-4.195868142884646122e-03
-9.686017808211036181e-03
-3.896390041434823464e-03
1.854882431729449471e-02
3.127835360489202715e-02
2.850853404364689370e-02
1.648369834658048802e-02
-2.234328880789972910e-02
-2.218809116026619274e-02
-6.816319176103034436e-03
-4.643723876940156203e-02
-4.643265494892635792e-02
-2.879734285929113832e-02
-2.265652412984837244e-02
-5.077457425973985750e-02
-4.908251435463514833e-02
5.791896573755028234e-03
-5.062125567715430874e-03
-1.581844570192636815e-02
7.902477034227322781e-04
-1.106652055851259364e-02
-2.042713867677906428e-02
1.500180845182802047e-03
-1.207888995637072110e-02
-2.471552003589765414e-02
-1.308910104109640548e-03
-6.398345732689906310e-06
1.907638287889957878e-03
3.764595927986187380e-03
-1.294401324557596655e-03
1.384911119941918114e-03
-1.497629240923244349e-03
-1.301170512416115546e-03
1.308679339385644029e-03
1.396675835043816039e-02
7.967532462672130902e-03
-2.517258285385843078e-02
2.015654862225218710e-02
5.012568073128571139e-02
2.445125692597994397e-03
1.334694211473110535e-02
5.316756962527974251e-02
2.276930084605125609e-02
1.426107980452680571e-02
2.380455318466296113e-02
-1.718738075100240516e-03
2.008539058518933260e-02
3.006709796220498332e-02
4.201362432653946676e-03
4.112047912823489182e-04
9.644493551085178001e-03
-1.067794919278892323e-03
