-1.948962379619484982e-03
-4.220311732851763677e-03
-3.119668665583710462e-03
-1.958558242627681835e-03
-2.886458544037597690e-03
-3.847749500993629963e-03
-3.024884174931068148e-03
-1.401160800343807973e-03
-2.623502823684277681e-03
1.855663115767217097e-02
7.308346094157487649e-03
4.214616102552129354e-04
5.482254610246903130e-03
-6.982840914191401106e-03
-1.073795750524776833e-02
-1.161713899458970481e-02
-1.159914835546494924e-02
-5.819517133004352936e-03
-1.260235654833809747e-02
-1.227731699119019755e-02
-1.322940566474065278e-02
-5.080730089149323222e-04
1.796717283461506630e-03
9.047324498319167215e-04
1.342473443697012395e-02
1.400516810989362732e-02
9.116550145890814361e-03
-7.394948821967089591e-04
-3.748425737811874204e-03
-1.162312976376228373e-02
9.338732339288698461e-03
5.233582144815575841e-03
-4.458983573391996774e-03
2.325873235293773617e-04
-9.372783849267714946e-04
-7.922598648966983764e-03
4.872537844961186658e-03
-7.369604825320311310e-03
-1.604593609402577741e-03
1.910272239801332405e-03
-8.322786062648870886e-03
-3.321279496221235441e-03
3.011170483039038101e-03
-2.273665826752759803e-03
-1.611473828147537077e-03
-2.870706194129402436e-03
-1.270733066275015876e-03
-9.937374797460438516e-04
-2.996127016374122449e-03
-2.657317122668516590e-03
-1.111433417789363214e-03
-2.497354236641052480e-03
-1.287253198879829844e-03
-9.975458711034598368e-04
-1.344172783667325032e-02
-7.217108586146223428e-03
-4.130355604170865731e-03
-6.097714484694423225e-03
2.623219050407681486e-03
7.083896464287887766e-04
-6.862866779023049646e-04
8.017685794451447426e-03
7.176412235256324039e-03
2.439996104818932066e-04
9.447829782066698764e-04
4.132233310677435947e-03
-9.350468784048064988e-04
-3.518722636003846979e-03
4.450622344116276705e-03
-1.782565832793952740e-02
-1.237985025212818072e-02
-1.000142231599848979e-03
-2.466237616945175966e-03
-2.673253155279004065e-03
-1.137055138282422068e-03
-3.516860144731098325e-03
-3.025893146581187278e-03
-1.341093806953045416e-03
-1.726578721860501592e-03
-2.294808585703785129e-03
9.191292690593695939e-04
3.775087777003048161e-03
3.841763131406733794e-03
3.831980286006982008e-03
5.961185625178818358e-03
6.317470123271701384e-03
5.837476241765042310e-03
3.355467210040375282e-03
3.118352456200016581e-03
3.452734716863231808e-03
-3.409770012921266389e-03
-6.179314150317424294e-03
-9.284934388865007798e-03
1.771687307242899830e-03
-3.885016008210979456e-03
-1.019329191398418884e-02
5.432293648487571298e-03
-1.009036782318463964e-03
-7.489582626810065494e-03
-6.352938299840855734e-04
-2.306325326153073861e-03
-3.775334153801332328e-03
-4.088383556748774808e-03
-2.641568805713865372e-03
-1.224509919186091535e-03
-6.298919820184770840e-03
-3.333513460794995664e-03
-2.842114203351665119e-03
-4.253211467962012687e-03
-4.778376628947062811e-03
-6.221801865844854909e-03
-2.086910105518068222e-03
-3.340679835925463009e-03
-5.779733146195602071e-03
-1.766121098088792351e-03
-4.262205870944039791e-03
-2.717044248065216862e-03
-9.823305822859906139e-03
-7.878573828191326109e-03
-5.209028790379365351e-03
-4.851417267254650063e-03
-6.342812103441708405e-05
1.292294409140627449e-03
5.682846936798661291e-03
8.881603654528216416e-03
8.574252448305392030e-03
-1.586926339825571334e-03
-1.299257303433225654e-03
-2.735762651988476752e-03
-2.887889142649066859e-03
-3.010989733393868144e-03
-2.694303339614602388e-03
-1.389391542007884341e-03
-2.854796559033017517e-03
-3.110698460322943674e-03
-6.719089418777550969e-03
-4.273590348848713659e-03
-4.656729734638570322e-04
-7.955899113006585643e-03
-7.159525342189955975e-03
-1.582873588146642332e-03
-8.557864724898049669e-03
-6.808007978501386288e-03
-1.557728672752050009e-03
-2.473184735301610523e-04
-2.008829206338224888e-03
-3.883343304204908263e-03
6.502177361966864294e-04
-1.097493149852930361e-03
-4.523340575651470762e-03
-1.231085144138003001e-03
-1.489034117874074191e-03
-2.553591028955994307e-03
6.560937183533110343e-04
6.444426965290115696e-03
-4.520963762005742489e-04
1.487417014973775901e-03
2.684962107313091078e-03
-1.454093915548137356e-03
-7.633900281935140919e-03
-1.345888881745942699e-02
-1.696307878689971502e-02
5.701060569200115842e-03
-5.312762623972322115e-04
-5.293451296180600243e-03
1.187976692515564127e-02
4.665500090106924902e-03
3.465637366675976727e-04
2.239001935336077526e-02
1.725849031737823613e-02
1.378901121786676315e-02
-8.393045773583142008e-03
7.072201982484633762e-04
-8.539329647765079440e-03
-8.761473629201082169e-04
2.925160089218095325e-02
2.243816858844275772e-02
3.488512631641113365e-04
2.440614552705753018e-02
1.835749072006422067e-02
2.271265636848225980e-02
5.344898750846178472e-03
-4.063711196365139659e-03
9.773497568872663299e-03
-2.566125652351976087e-03
-7.061672922988153529e-03
1.396993017207405876e-03
-4.618122794818541391e-03
-3.378591303770149025e-03
-1.139335487355074049e-03
-2.065950939353612681e-03
-1.595046377656669529e-03
-1.769994989767773377e-03
-3.251128538621904721e-03
-1.799612083694987702e-03
-2.233366608769321061e-03
-4.237202589057544738e-03
-2.229106823657575100e-03
-2.180607173504023680e-02
-2.139643787515739873e-02
-6.027454468699439301e-03
-2.431663040422905528e-02
-2.072421011689741521e-02
-2.260344643906766950e-03
-1.070825732538943989e-02
5.893763796563966694e-04
1.361007759678792978e-02
-3.594736408664239019e-03
-8.892376984209741930e-03
-6.321893412408871246e-03
-6.824846082028043943e-03
-1.397824532092447475e-02
-1.385623776809034521e-02
-1.338836646326670068e-03
-9.625306416104277910e-03
-1.314138045377320763e-02
-6.062380781242271421e-03
-6.542274448221984534e-03
-4.869708889109830401e-03
-5.753959204248261863e-03
-5.983954083632021109e-03
-6.396656528749527365e-03
-4.498253362727014024e-03
-6.391547353205788429e-03
-6.286383879951572967e-03
-2.328075151695579471e-03
-2.291177093855585503e-04
-9.924332309707917851e-04
-1.280734626771124103e-03
2.186640321575988605e-03
4.151002746089741194e-03
-1.611751559405543886e-04
3.599586509557907259e-03
5.018897690647255126e-03
-1.309222873869328105e-02
-1.560967492859086959e-02
-1.679468992681130285e-02
1.811703894766576164e-03
3.191369860479395092e-04
-6.466927508063249376e-03
6.503511234072562562e-03
1.108011474962685393e-02
2.549944507963472669e-03
-2.957692678814029773e-03
1.638473690386888166e-03
1.630833705776049735e-03
-4.939934877604368509e-03
-3.777730828614264420e-03
-1.989894261473441287e-03
-7.970200616305713262e-03
-8.935528765916429111e-03
-8.839478349161596776e-03
-1.033770961711319609e-02
-8.019704105240339775e-03
-9.688454352300078856e-03
-9.666978030054961674e-03
-5.612728795501744326e-03
-7.728357449982396765e-03
-9.702180326549037295e-03
-9.845896553543467822e-03
-1.131440746004999144e-02
8.944831599126266269e-03
2.211179340995544484e-03
4.102066624599735346e-03
6.885494008241019662e-03
-9.610475751170835437e-04
1.325199294932950019e-03
9.982487472781425078e-03
2.862868337369936858e-03
7.685120366890342038e-03
-7.797101157058288975e-04
1.676049328080914200e-04
-5.339671965073764437e-04
-9.190557865682583705e-06
1.421994415428423262e-04
5.556830420230836337e-05
5.759566449297003283e-04
-8.123902087592919908e-05
-2.960016801869504925e-04
-1.404264681004541507e-02
-8.970032194954104254e-03
-5.021359956654253623e-03
-1.615260239398348327e-02
-1.504984027569075851e-02
-1.176090133184518917e-02
-1.410379295673929757e-02
-1.874839299962402506e-02
-1.643836052520469479e-02
3.329853499365815540e-04
2.780990703774927010e-04
-9.449051204354814732e-04
3.225904601065405271e-03
4.045327380439548391e-03
4.095188640127944181e-03
3.129735687281193137e-03
2.800072970615129740e-03
4.835777729359402172e-03
-1.348567863306405178e-02
-5.320017128678834750e-03
1.777207905263335219e-02
-5.774488673385778925e-03
-5.715143563202168932e-05
1.307172159812427202e-02
1.833121544619140423e-03
5.020183506028443217e-03
8.155800756327154927e-03
-4.470174879919006083e-03
-6.493646895856639359e-03
-1.035148623101412278e-02
-1.055681764936749947e-03
-6.736507403071996872e-04
-1.095280556403448831e-03
-1.485181102373233156e-02
-1.243345237026023328e-02
-9.797508913132664879e-03
-2.636136292439276996e-02
-3.739994080937555877e-04
1.988809997673557026e-02
-3.193650529896156082e-02
-6.632113142932146398e-03
1.329007206634032733e-02
-3.261480221774161470e-02
-1.737970563892053330e-02
-5.749932188771702396e-03
4.935293479740053557e-03
1.278850931281425365e-02
7.987169802664038226e-03
1.018948323860001913e-02
1.088451089994635877e-02
1.359435105038695607e-02
1.088066107454399925e-02
9.312636477285946013e-03
1.449012181940941002e-02
3.191776019288045671e-04
1.430523730886660932e-04
-4.548888155504870871e-04
1.042326035973198915e-03
-5.524072840813091341e-04
-1.145509871785807890e-03
1.445621824083251090e-03
-1.755716659203532736e-03
-1.788459957515065772e-03
3.921712204698354562e-03
-6.722957497034533214e-03
-1.323506153616067944e-02
4.808930615833002103e-03
1.089122487159310164e-03
-8.519782997853537695e-03
-2.849799538020681908e-03
-6.377791406177779404e-04
-8.271219485206347116e-03
1.629320251241366674e-02
1.422194311949768510e-02
-5.940223312915762430e-03
4.665622327406932640e-02
3.717968538287059338e-02
-5.111204525487766633e-04
2.297318629038916718e-02
2.764868570782973156e-02
-1.078347964635771941e-02
-3.329976666255363496e-03
-4.310487115390977154e-03
-5.717956791291095749e-03
-1.273256763406879115e-03
-3.702048013667382648e-03
-5.162403074840056331e-03
2.735534208575039587e-03
-9.486771408320549860e-04
-4.430064447000375133e-03
1.064675201346191279e-02
5.885473050199641759e-03
8.627616297736194050e-04
1.320840691390439726e-02
9.448267993673091503e-03
2.300824584871154471e-03
1.021770325009497236e-02
7.630941914555330365e-03
1.727811617785063227e-03
1.472624788450336598e-02
1.775209367661699164e-02
2.072458893922714263e-02
4.109811611887478726e-03
1.008182058334645623e-02
1.883683445007438423e-02
-4.037102378125499540e-03
-1.494301128886052184e-03
9.633537830797719859e-03
5.756175339501274843e-03
4.933348612626601085e-03
7.991490104941976081e-04
1.057945541402903131e-02
6.945063007194650709e-03
-5.608638263860450841e-04
1.064049682127665708e-02
5.315033686234403761e-03
-4.525266431893315393e-03
-5.781970373842651272e-03
2.896664539493783164e-03
1.245216909291008839e-02
-7.028489824596871431e-03
3.075309339722921698e-04
1.085797325183098828e-02
-4.772371208195018595e-03
-6.045473032471428615e-05
5.190523486294440318e-03
-1.121060642137700070e-02
-1.411028270095767041e-02
-2.353933425157010012e-02
-5.124860052293642686e-03
-5.777033377012994603e-03
-5.309238305635410188e-03
-1.847725422070378362e-02
-2.095338691843456891e-02
-1.609906328307520590e-02
5.705411314678313431e-03
4.551814745298004249e-03
6.093817412785472974e-03
7.262989777111358847e-03
6.155328608825494201e-03
6.468007712355948111e-03
6.157377720540995261e-03
4.628872148706786489e-03
4.003586878463153732e-03
-6.844706935228185574e-03
-9.587546866986344438e-03
-1.695850498030479492e-02
-8.412388006957708742e-04
-6.822698422636439171e-03
-1.200249297191813801e-02
4.047203783276408229e-03
-1.723148306040980646e-05
-6.672108665959409525e-03
-7.036760887855402456e-03
-3.850039421929319153e-03
5.963228626686261366e-04
-7.428774376448503414e-03
-4.640089418270401840e-03
3.102939333792888166e-03
-2.541799803087586417e-03
-3.260815361010389792e-03
2.699949904511742948e-03
2.191889581402754056e-02
4.160452052968502228e-03
-2.144330648024472472e-02
2.327934548820188854e-02
4.573911116943865131e-03
-1.885071583021063341e-02
1.104846924422499266e-02
3.894700545192226505e-03
-4.571142776685741156e-03
-3.899464857886193996e-03
1.289800211451444696e-03
-6.352930226217381321e-04
-2.881979945304046636e-03
-6.701067295888671425e-04
-2.089803997947444619e-03
-1.282418903420893055e-02
-1.380588468826498584e-02
-1.564209793365282930e-02
-1.838299007331759341e-02
-1.658983636581706431e-02
2.407040250058393703e-05
-1.907981134362863457e-02
-2.036245446645849888e-02
2.525675082732620571e-04
-3.235906530536981733e-03
-7.349997945800102774e-03
-3.279119448235536406e-03
-8.721557609021568860e-03
-9.220353588042589157e-03
1.108087994994375958e-03
-8.502679785516633476e-03
-6.461681981153812211e-03
3.952687270845241935e-03
-7.784302674237639566e-03
4.480880029576069342e-05
1.088283507284036611e-02
-9.442411689789571708e-05
-1.937684928056366358e-04
-7.937673074114462522e-04
1.077547988814211381e-03
-2.846594485203071440e-05
-1.289128189127563065e-03
5.362010671506172452e-04
8.856269850865204196e-04
1.824982180403488376e-04
8.857665022116713652e-03
1.382553727145911619e-02
5.933393709787626591e-03
-9.487557498343226689e-03
6.106738586973217871e-03
9.326813421272232146e-03
-2.126868496413272802e-02
-6.971594435432878351e-03
9.611849833109720534e-03
-4.833622944905831623e-04
1.710948233344087438e-02
6.050891802202418290e-03
4.870968003789238714e-03
2.237219420293778266e-02
1.027049148539857515e-02
-7.601664328605229996e-03
1.071044735689806286e-02
3.715352870568164323e-03
-1.017818507312568234e-03
1.808487364484083330e-04
-1.116825620601202048e-03
1.818364973455805812e-03
6.143413404061230133e-04
-1.919790235203016780e-03
2.149469634784707209e-03
9.261368824863650548e-04
-2.015788954839066449e-03
9.371999927619915557e-03
9.160965332107747633e-03
8.269847197162047414e-03
1.008359068174479942e-02
7.976042699962514193e-03
6.757258740102641860e-03
8.343639165486910550e-03
6.065232941734122370e-03
4.513179960986717261e-03
3.860219466382909526e-03
9.477575092551883060e-03
1.613615643508781866e-02
-3.755493613540056806e-03
1.026015806113374099e-03
8.753122563708198509e-03
-9.327480356371859946e-03
-9.953348075130249994e-03
-1.826635782647074492e-04
1.377297289095725423e-03
7.439541486580943108e-03
7.496912022196258393e-03
2.783255999635420117e-03
1.042392089707673726e-02
1.077938560456270442e-02
4.444875454283448574e-03
9.425547287028152380e-03
8.931022795851546389e-03
-1.143059736582938612e-03
-2.336820276243093374e-03
-8.014074788481348834e-05
-1.145928931061887578e-03
-1.684664135384060946e-03
4.337546977512527803e-04
-1.631377432628509884e-03
-1.493360529909829992e-03
-1.355846244947391107e-03
-1.315890549757717937e-02
-1.243976784627229271e-02
-1.148895291524077746e-02
-1.013950054809634269e-03
-4.423124391084767501e-03
-6.645047163951435173e-03
-4.773584160169578976e-03
-9.404993120515701965e-03
-1.726102820033919433e-02
5.859519582791068541e-03
4.328611013750120404e-03
2.188151616201921244e-03
6.295568466063902399e-03
5.506561986597810487e-03
4.057791358811339844e-03
4.226747741994686496e-03
4.020694047749076398e-03
3.618923008676634082e-03
-1.141741636778868287e-03
-2.115888231584614129e-03
-5.111085370094169307e-03
1.757281590809408635e-03
-1.239519994639383133e-03
-6.501784569943803993e-03
2.549472609067860926e-03
1.925234582599064971e-03
-4.479719379362642924e-03
-6.198965267502395959e-03
-6.577714729752668146e-03
-7.015649764882097433e-03
-4.127601684044574296e-03
-4.312241625521990619e-03
-5.433093448297612524e-03
-2.472827114016332324e-03
-2.574110318257540227e-03
-3.757590303478193852e-03
-5.789737861756480940e-03
-1.099459956064172822e-02
-9.404777708640532988e-03
1.459476618458373080e-04
-7.742277748514280605e-03
-6.927920054021085954e-03
6.415999822292504842e-04
7.770823571974502320e-04
-1.539187834533244613e-03
1.780674747654737485e-04
7.229459437728817314e-03
5.424840784383597354e-03
-6.188895096081958175e-03
1.593705109886284265e-03
2.230261213826498050e-03
-1.380608928123885741e-02
-7.498255875927879385e-03
-3.567433369933948988e-03
2.479888144724436833e-03
5.769422510078434300e-06
-6.915030639117734391e-03
-6.595658051541344229e-04
8.490128152099354810e-04
-1.024716181834365962e-02
-7.982676685349472667e-03
1.792071390550496355e-03
-5.199568734984780401e-03
-1.143971529544336252e-03
2.746167882807573016e-03
4.029941836924168415e-03
-5.537003189661702553e-03
-6.242043847274404353e-03
-5.606687045466673784e-03
-5.807208125949976478e-03
-6.532929884046500754e-03
-1.129601056708045767e-02
-1.354393952698252496e-03
-1.145598999364808848e-03
-2.074247886405726146e-03
-3.311637166840910532e-03
-3.054375580763752426e-03
-3.027788564079772482e-03
-9.465682188541605778e-05
-1.935879775833009324e-03
-1.540252214122400133e-03
-1.299560931064344498e-02
-1.062263864343012711e-02
-5.987972309921037878e-03
-2.930374375431447562e-03
-2.832588538803062529e-03
-2.995946225845536916e-03
1.510445540477969796e-04
2.394253202561322149e-03
7.107161127373937647e-04
-2.929155212745532255e-03
3.673260764310804448e-04
5.492093899469391305e-03
6.073694616046208111e-04
-1.963215706738337743e-02
-6.823835303819823783e-03
-1.088820570507681787e-03
-7.325906442707186099e-03
-1.560874997054702111e-02
-1.083630954522457959e-03
-5.513491047346392787e-04
-3.771642136629084203e-04
-3.702367290241322974e-03
-4.826352136389299059e-03
-3.824630205550484056e-03
-6.406859192191812803e-03
-6.545183592692196961e-03
-4.375493414963042491e-03
-2.123796483896231088e-03
-2.658473145622689861e-03
-3.207489632570454351e-03
3.034481036851488921e-05
-1.905893289738059583e-03
-2.973246203190361373e-03
1.539699377217818889e-03
-1.361779044713838996e-03
-3.377646117978336509e-03
-1.140017734389561083e-02
-1.434720031281633626e-02
-1.508810457913536615e-02
-6.433352945739451850e-03
-9.684801960985530561e-03
-1.232102047161168744e-02
-4.881119227727727036e-03
-6.366180171789180033e-03
-1.046280529165435728e-02
-1.910876827901535242e-03
-2.424874411718213219e-04
2.745034117692283799e-03
-2.829699067054830628e-03
4.974065775049599106e-04
-1.478016599589188594e-03
-2.345863399539865717e-03
-2.096275936927035572e-05
-2.059719456155083110e-03
-6.560181260120385299e-03
-9.684087318157657415e-03
-1.018275856626445902e-02
-5.351223864807772707e-03
-6.524133653358925658e-03
-8.550354507870519538e-03
-7.403522721536324666e-03
-7.842208918191592021e-03
-9.336968666606482864e-03
-3.346449598871962909e-03
1.293650520255205764e-02
1.489786744491213011e-02
-7.918367820058856699e-03
8.163021466120055220e-03
1.714501462376467888e-02
-1.348769904663773070e-02
-6.664838511140518118e-03
2.725646060029491766e-03
-2.419928094535355682e-03
-9.272374955471739599e-04
-2.437701183008901887e-03
-3.210766904799771011e-03
-2.541196577607617458e-03
-3.851309923544683680e-03
-2.551690927750574402e-03
-3.081775559847050802e-03
-1.547495978776860853e-03
3.625655832382538961e-03
2.399309356751136088e-03
4.073262985124584575e-03
-8.464911710241314856e-04
1.253399920362317050e-03
3.355161415184625129e-03
-2.730565971384589855e-03
-1.681629942959654393e-03
4.756538498750020601e-04
3.520932052918340771e-03
-6.932111268253928534e-04
9.383116409534148503e-05
6.310032078478384305e-05
-2.006961128044291564e-03
-3.362645644726738620e-03
1.014422794325735679e-03
-1.571086465185009187e-03
-1.197400864978209007e-03
2.448891305770425214e-02
1.961994427691949802e-02
1.085123206937661268e-02
6.058827530427152316e-05
-1.086764073124284712e-02
-1.549910641373854550e-02
-7.043061836187278039e-03
-3.476533091388397251e-02
-2.406696338841433219e-02
3.050529678113506928e-03
-7.653628178381000069e-03
-1.510009462231568476e-02
2.310700422279865496e-02
1.043918599570865975e-02
8.005780904284961032e-04
4.361390661030732641e-02
3.675537086856170421e-02
2.442799346725493467e-02
6.454507631192486251e-03
1.348345308089123930e-02
-5.442611120946155845e-03
6.461203943993752523e-03
9.387821709072367848e-03
9.548367339186992825e-05
2.133499022183903138e-02
1.104671825030549732e-02
3.856346070283083252e-03
1.338072269979177949e-02
-4.238530604059337174e-03
-5.494035466202610782e-03
5.086449779390188504e-03
-1.148103893731438420e-04
-2.059112649303827813e-03
-6.377257438696118602e-04
3.740220868148676475e-03
1.152146441011095424e-02
-1.480383004364079890e-03
-2.451308842764230497e-03
-5.532456753141644585e-04
-2.580458569666333087e-03
-1.556475569741957478e-03
-1.588729057642985099e-03
-1.722622943237043418e-03
-2.247057519888784154e-03
-1.786407914499038617e-03
-8.597969525673546803e-03
-4.003075112402236860e-03
2.292629818075828888e-03
-2.310110241259451247e-02
-8.193969711804867384e-03
2.198750444724033824e-03
5.119551777525740803e-03
2.012744238535885480e-02
2.915082963172648325e-02
-1.040152554806972850e-02
-6.558893368332505656e-03
8.895097641098152676e-04
-3.466298229408770054e-02
-3.397423123699982658e-03
1.993286755281893988e-02
-2.466116790463333125e-02
-1.746547960698759117e-02
2.729086563249285072e-02
-2.224934391384451350e-03
-4.911904364641944166e-03
-4.256671706037573957e-03
-2.964060133097701829e-03
-5.390391785218703880e-03
-5.037237942133714758e-03
-1.118941038008818998e-03
-5.917563651398580508e-04
8.917201498584623708e-04
2.662868760147663332e-04
2.805377205418341149e-03
6.422959023458685301e-03
1.412550241178326272e-03
5.798712697953060068e-03
1.019616943481590175e-02
5.236018491369075038e-03
5.549584785029041539e-03
1.083111312672981573e-02
-2.163222493770420403e-04
-3.409065013920391067e-03
-4.294935409716631874e-03
3.482106562478096221e-03
-5.458348224430477260e-04
-3.785574354905072228e-03
1.321815166130627800e-02
6.951134202252003645e-03
-8.215608625493326734e-04
-5.505191190111667285e-03
-1.011172139518001258e-02
-1.218688631448811531e-02
-7.874188392916287027e-03
-7.927195888880555694e-03
-1.174233905935538960e-02
-2.023161077468983368e-02
-1.742052446924596820e-02
-1.476579051800495750e-02
-7.994425639963116670e-03
-5.406164015621658242e-03
-3.234513500748772367e-03
-4.974244399863466184e-03
-8.524981155367662364e-03
-9.655569816114860718e-03
-5.365898809391348237e-03
-1.096249731595604418e-02
-1.172564596702300663e-02
-6.580641809704758025e-03
-2.230384430385066660e-02
-2.321943963485503457e-02
5.948638777541646536e-03
-6.082653338737423893e-03
-1.095324405620265104e-02
1.296214277532123718e-02
1.309500424662551205e-02
1.206480953901483896e-02
-1.335622045436089637e-03
-2.537244409829433976e-03
-1.241089579728357024e-03
-9.581393228998841272e-04
-2.879781385694667704e-03
-2.472206676044317979e-03
1.197032788537065668e-04
-4.338147861994987096e-04
-1.251199863115305504e-03
-1.491235880568398016e-02
-1.088339100732165464e-02
-5.478056621215756164e-03
-1.270289562652475619e-02
-1.372608324567903965e-02
-8.527361979852756887e-03
-1.349220553811718466e-02
-1.320616069733195758e-02
-5.850493435071474520e-03
-3.998210975706926475e-04
-2.738500794601945922e-03
6.273263421746140458e-04
-1.478135651531052846e-03
-2.715116441781045397e-03
-7.788318638233761217e-04
-2.438115684761250554e-03
-2.668812454163838489e-03
-1.700415861154878786e-03
1.330319889571015754e-02
3.055028631895174637e-02
3.191366665449860140e-02
4.479732613952338779e-03
6.204007066217799571e-03
9.298151309302131809e-03
-1.102821514310910363e-02
-1.077715307444122340e-02
-9.709145302383473050e-03
-1.754494263212994258e-03
2.894270311589763542e-03
3.548967761662340063e-03
3.607908921494473124e-03
4.500203258523799953e-03
4.790901671524465562e-03
1.002317781595833159e-02
9.646110774336195265e-03
1.039585285732124581e-02
9.472851631375156164e-04
-8.221955648239624714e-03
-6.369836022627872914e-03
4.006168349818529234e-03
-1.069422441957025918e-02
-1.285766893082190832e-02
3.359293998932295564e-03
-3.934734781124369675e-03
-8.668229023658288387e-03
5.325183327999590856e-03
5.341883670978658447e-03
-1.978134510706416275e-03
-8.135152499044561846e-04
3.074171280167187410e-04
4.409939850267633951e-03
-6.983814284657080540e-03
-3.407324082069423509e-03
3.897669830424690691e-03
1.169417266942491618e-03
2.727845013151106515e-03
1.122506264457148132e-03
1.877851542104510630e-03
-9.187028147334865957e-04
4.962608066165232444e-04
9.185823937533039779e-04
-1.636336847075240417e-03
-1.437480569679469057e-03
7.567020191539867990e-03
4.393207465718417491e-03
1.124151748918934303e-02
1.267978289292552704e-03
-1.126960480686032759e-02
-2.095607205405551707e-03
-1.741951579052770623e-03
-1.304962651985585621e-02
-9.526849514581093442e-03
1.436951076969899231e-02
2.165784375726076752e-02
2.735127900685347530e-02
6.028966504162484516e-03
8.295721566622695474e-05
1.229002923364388121e-02
-6.408535323919998389e-03
-7.847668155199112594e-03
1.143808445402675527e-03
-4.342265979480781739e-03
-8.766729651106343118e-04
-2.966933907753782022e-03
-4.334371535935008235e-04
-1.057629761053161498e-03
4.712551503461283016e-04
4.833916211616395148e-03
1.943035391015536864e-03
1.540016291177680012e-03
5.348835308611439923e-03
1.992503195541253398e-03
1.572985222740942929e-03
5.517103804135739531e-03
3.512760902652418710e-03
2.479393295133280103e-03
5.266888186155515433e-03
4.634321203142539522e-03
3.855797030598543014e-03
-1.445757483535959525e-03
-1.292193579148797570e-03
3.560195335305642566e-03
1.858110477169875934e-03
1.699725077174570574e-03
4.695355092432152225e-03
4.503355088657865456e-03
4.716739959069853332e-04
5.864920580450939946e-04
8.033472610190156918e-03
5.253940164607173724e-03
8.299065646177650885e-03
-3.893976290291717803e-04
-4.609230579082528208e-03
-5.975384008794006356e-04
-9.973028609408457826e-03
-1.386551738709466616e-02
-9.389217370416251540e-03
3.643407292980291919e-03
3.649771809180215026e-03
3.333647833979788352e-03
2.469180332792185809e-03
4.053555526918657496e-03
1.623057206801610357e-03
-9.210609820904304846e-04
-1.808726810580159935e-03
-2.939752283097990266e-03
-1.068189533051003108e-02
-6.979964224911656316e-04
4.126085424444647654e-03
-6.160424076399357608e-03
7.668084605629559448e-04
4.023885263476398300e-03
2.999041405161336372e-03
6.323010610322357325e-03
1.074389738235088107e-03
7.022427834408952879e-03
1.020300409771037267e-02
1.160189917130046572e-02
2.696707983443721868e-03
5.664469209149025457e-03
6.547601501235137712e-03
-1.325160274717596901e-03
-1.181118364279306904e-03
1.054312743946662911e-03
1.497631517773841950e-04
8.821899472029064886e-05
-3.628364352082985404e-03
2.600708442586364445e-03
5.133691148534916260e-03
6.956015110602534798e-04
5.757382155587078935e-03
8.000368366384612642e-03
1.072377412372339843e-03
-1.823892203968357530e-03
-8.223161845899153123e-04
3.438977735877847227e-04
-9.483166040159033121e-04
-2.336374554909483980e-04
4.576806273381256972e-04
-1.060676082764719022e-04
7.750019047751338175e-04
2.326948332524226160e-03
6.969865467432005864e-03
1.820096820546935126e-02
1.418578331785684717e-02
9.867143213743337360e-03
1.463300172271463258e-02
1.215559229976681879e-02
5.248610854753589863e-03
4.019743313208579832e-03
4.633107424426082845e-03
5.955241253770179573e-05
3.767968035225473158e-03
2.986331487396564136e-03
3.792042181064567662e-03
6.197452146648014908e-03
3.137098487077223663e-03
-1.236703948485738105e-03
2.980652968131858186e-04
-1.331071761387439501e-03
-1.130663116710903596e-02
-7.538914122246228623e-03
-3.742957593049156539e-03
-4.318186905214149197e-03
-8.634381623599855999e-04
2.920917576538539437e-03
-7.030758876629628930e-03
-3.798938357649849808e-03
6.146640209910974326e-05
5.482321907857466356e-03
4.595568865175545317e-03
-7.501677066152350956e-03
6.672115364158895910e-03
3.757194647639718055e-03
-1.696587688973384038e-03
-2.901943334563819935e-03
-2.457023261832638923e-03
-5.359537737162164582e-04
-1.069779086212724084e-04
-1.524570696456004244e-03
-1.885551330473027700e-03
1.012932491409230011e-04
-7.549996251582174155e-04
-2.473765577908368461e-03
-1.367159612077833248e-04
-7.951430394992710143e-05
-2.091553204899181725e-03
-5.688821986351458998e-03
-2.573777920157323349e-03
2.542378160303656286e-03
-6.238128950915899744e-03
-2.270320185884653306e-03
2.912817905098287388e-03
2.035293754447526672e-03
4.162592078369459908e-03
1.049003693334501532e-02
9.031786230824299759e-04
1.406652040819314671e-02
7.627890284492090493e-03
1.543069866390039090e-02
1.829139806612920666e-02
1.528472203953027200e-02
5.526523907175176324e-03
9.031145143214578189e-03
9.030232450986696788e-03
-3.624529009970320608e-03
-1.875411005099817926e-03
-3.124102693916579274e-03
-2.349634871455484782e-03
-1.361415316028428404e-03
-2.822814334653143617e-03
-1.755984440278013630e-03
-6.554038954391438803e-04
-2.056980265946340390e-03
3.981963362599840980e-05
-2.506471903894464510e-04
-8.773432644928379426e-04
2.445647261335389105e-03
2.356461258557479479e-03
1.472094512649643186e-03
3.372188964331030315e-03
4.013388142809410676e-03
1.649749031961838608e-03
-1.755078514561477605e-03
8.518101801274762398e-04
3.385423316356754846e-03
-3.513011395385287356e-03
-2.635913692309967745e-03
1.104135402386099713e-03
-5.206260833854834671e-04
-1.405995295817063064e-03
6.435547741742482389e-05
7.749995443641995510e-03
9.112084420951037378e-03
1.059603039954043653e-02
6.030719956851521117e-03
8.389461451051776625e-03
8.205680170438475751e-03
1.036929310186121165e-03
2.126663845462827343e-03
1.402831243640167719e-03
-5.718430194306088621e-04
5.930366456542212955e-04
3.761240077259433556e-03
1.134856780137285344e-03
9.470245622787554348e-04
1.762417032155823423e-03
-1.088070571456697076e-03
-7.469252887953252819e-04
-1.563752888520371061e-03
-3.504975297679529048e-03
6.844109539370578062e-04
-2.047117839620447594e-03
6.400793995312084594e-04
6.720630306335527264e-03
3.520729152336390250e-03
-5.272508441854809220e-03
-1.383373274784671821e-03
-5.268550819521843932e-03
6.115513470922026573e-03
7.497901352822046277e-03
6.375639095986595194e-03
5.294311557653770713e-03
6.048029637035461613e-03
5.664894028629554636e-03
1.427656865640338944e-03
1.044356107149405207e-03
1.326557239434738873e-03
-2.950330027746361338e-03
-5.483452387334207014e-03
-6.863743437521034434e-03
-4.049432876660073906e-03
-4.801119429031084490e-03
-8.297256246647965322e-03
-5.131067583135798769e-03
-6.118856599608461615e-03
-8.594617668920580961e-03
2.804353894748737221e-03
2.251218955366354746e-03
4.242899259421237593e-03
1.359063604168445451e-04
2.140534657513785098e-03
3.940498990664389675e-03
-1.055300511230539790e-03
-5.425565149287475642e-04
6.236065442952947745e-06
3.070131175092206174e-03
3.249901692280066090e-03
-9.167642196801051302e-03
5.273295362982673325e-03
3.173781151801819030e-03
-1.738079228140010951e-05
2.416947521206201589e-04
-7.291687000842181181e-03
6.179884292091942719e-03
-8.015467430067793955e-03
1.283604873049448963e-03
4.586259290397492160e-03
1.278297254147533167e-03
1.202869570128941960e-02
1.320486234777719023e-02
2.840994509253181623e-03
1.437347545883947177e-02
1.320694852155544774e-02
-1.364136393177108227e-03
-1.101141592749375724e-02
-1.643045942308698354e-02
-1.633717459512911254e-04
-6.192432054520200305e-03
5.102826134050098689e-03
-2.031346814792680047e-02
-1.803023316074899712e-02
1.867139632413090293e-03
2.625979615774568562e-03
-2.330422550973266105e-03
-3.084031865910394268e-03
-6.069690754974897684e-03
-4.883165506569211133e-03
-6.500278281813698204e-03
-1.354684855085553329e-02
-4.922849391596771478e-03
-2.718234828212910941e-03
-1.905837060664103150e-03
-1.741262575726837880e-03
-1.611803293012945048e-03
-2.234477694072303821e-04
-5.038370792440328115e-04
-1.144260299323008679e-03
6.109454209213554957e-04
-7.790126920641684118e-05
-1.272296652885310502e-03
1.417600683541400328e-02
5.845287701792175813e-03
1.670652530458670813e-03
1.166751644764980715e-02
-9.935190476354110230e-04
-1.060472887653722725e-02
6.615302878690506629e-03
-1.261191586010767217e-02
-5.011096179125510038e-03
2.127960204147628410e-03
-9.814796720337436164e-03
-3.478483136250525715e-02
1.507100383983336900e-02
-1.389449147015941327e-02
-2.631982181086938224e-02
4.304026291435233444e-03
-2.288253387105463818e-02
-6.190916966092465876e-03
-4.536212019227295507e-03
-3.244052851661917945e-03
-3.764839381515615833e-03
3.540518163755697681e-04
-4.587001348831350796e-04
-8.316442251660039874e-04
1.859782250201032563e-03
1.309605976104651678e-03
1.346826891887234175e-03
3.098072306450602633e-03
1.347510230257715352e-03
-7.081131508403148631e-04
1.538674303070601676e-03
1.726172199302115657e-04
-1.125648330623911855e-03
-2.244954138999059618e-03
-5.591894261230054980e-03
-6.079723022406801659e-03
-6.867366808383685043e-04
5.714270952491601243e-04
2.855621395023270632e-03
-5.780543040487627973e-03
-2.292813508665420431e-03
-4.054712535550883401e-03
-4.341231444456377167e-03
-4.044648541155060513e-03
-2.882996477057162520e-03
-3.293789148225458041e-03
-4.778671491898858412e-03
-3.688791611613339259e-03
1.710278173845325260e-03
-2.755575450333959159e-04
-6.931472397986454276e-04
-9.660104101915026201e-04
-2.004383679687120161e-03
-3.342967704907424172e-03
-5.442075508788567044e-03
-2.555199780889179893e-03
-3.683390473708255276e-03
-5.459941062891298345e-03
-2.256622359483146604e-03
-1.695956169090410059e-03
-7.948577925281870293e-03
-6.102790791386877335e-03
-2.950764768383352856e-03
-9.579344877870928782e-03
2.329874127739826536e-03
3.379881020220782892e-03
-9.760286019306843195e-04
8.263484157451020731e-03
4.655512453995302828e-03
-1.716073456326764224e-04
7.934318921212451040e-03
-5.652237939396837288e-03
-1.944430897859911016e-03
-2.253632722637130461e-03
-1.745521945812956045e-03
-1.587440333681243681e-04
-2.093752242011528812e-03
-1.227843500137235392e-03
-1.293735040827157044e-03
-2.058768228265944224e-03
-1.075473824256352375e-03
-9.376128637950289016e-03
-9.800029833044026153e-03
-1.352207130284340322e-02
1.836360700393141693e-03
-1.813584769120851346e-04
-3.277630303340473093e-03
2.628292788425619451e-03
-9.844718268927697517e-04
-4.388559261576461222e-03
1.091920700581329841e-03
-7.092106511048955797e-05
-4.239320407418473613e-04
1.989971593380780431e-04
1.368076558932021080e-03
-1.119724544518437015e-04
-7.144957449530178067e-05
1.444261575997879887e-03
1.107988244031409301e-03
6.390389767368202627e-03
-4.108522016316109790e-03
-1.309438617394330893e-02
-2.662498320879766022e-03
-4.024531674611978721e-03
-7.691115214773362393e-03
-3.851687850083569415e-03
-7.537243246418422887e-03
-1.315437734835327860e-02
-7.601022554024552610e-03
-2.678708369791166135e-03
-2.868322191487009232e-05
-4.969636661065935865e-03
1.422542748978306622e-03
1.476763000140591175e-03
4.981469967267022425e-04
4.410686912686515374e-03
3.717910163348707008e-03
-8.906049719082010166e-03
-8.879553439674283191e-03
-1.244851673468442242e-02
-1.963734529763387984e-02
-1.089389553223749606e-02
-2.179601220917498031e-03
-1.147428074052129696e-02
-9.540677833566681837e-03
-7.048215376897902680e-04
-2.739954949455628876e-03
-9.011638426223799944e-03
-1.854348838154547090e-03
2.455531793349596467e-03
-2.726574778294329430e-03
-1.314249662462957239e-04
3.591277981156214359e-04
-3.559076636171111443e-03
1.579525096072726190e-03
-9.650251930798742434e-04
-6.275261286908434587e-04
-1.244160557807608277e-03
2.433008996965347909e-03
1.957742851604829352e-03
-1.749319447035156607e-04
1.107650778791519726e-03
1.194807135795008038e-03
-1.249928783525116075e-03
9.378098532846466245e-03
5.368538150710448417e-03
-1.052384644601367727e-02
4.618650261914479874e-04
6.571436823310276669e-03
-5.311814148981431130e-03
-1.663869699356982377e-03
2.906656624220357778e-03
-6.180286518030429430e-03
5.133298556513754898e-03
1.343534534764422809e-03
-6.969024109972242129e-03
3.669286760439946157e-03
2.059377148104460375e-02
1.299897790353626501e-02
6.373099863408283362e-03
8.809676238658917941e-03
-3.313806023122072269e-03
-2.099529884771966781e-03
-2.759647973462048113e-04
3.650549884434137800e-04
3.086366927513571699e-03
3.643009233869916059e-03
8.712447135383174840e-04
5.566305046618248882e-03
5.784958412890736992e-03
1.812785482875162515e-03
3.876158242180325481e-03
4.655233828968066007e-03
3.205869832493659592e-03
2.010431095297322574e-03
4.757091514685385207e-03
3.706201196429164280e-03
-7.710068736171418139e-05
2.884290937894397854e-03
4.783153871074982168e-03
6.198911067193758895e-03
5.174977505176065785e-03
3.373914792988143459e-03
2.304180961986351112e-03
2.299141006192958678e-03
-7.158404005223148892e-04
-1.024924061379137424e-03
1.393862481701957454e-03
-4.224891149912223952e-04
-4.371445646176082972e-03
-4.408851116955124494e-03
-5.724259558298698709e-03
-3.767174651163322351e-03
-2.180293200630966516e-03
-1.409775212209288383e-03
-2.453009813379723302e-03
6.023772445314974503e-04
1.424432579611033646e-03
-1.834373943319205771e-03
-2.190406304483586124e-03
-2.568193087421188642e-03
-2.045181606298601684e-03
-1.265851440100515838e-03
-1.704424115127236477e-03
-1.455129124247102725e-03
-2.175826996861304936e-03
-1.142803179640091609e-03
-1.183176038984838294e-02
-5.590732657572372588e-03
5.866282203867132818e-04
-2.851995390097685455e-03
-9.521617043195227141e-04
1.938040344093885144e-03
5.474428854785205224e-03
7.796146081104566965e-03
5.613199501279926562e-03
-2.952777646401929124e-03
-3.793513082906853785e-03
-3.845667089177801957e-03
-2.295545388138643152e-03
-1.396884958891723115e-03
-2.564368495418743385e-03
-4.966645985228009420e-04
-1.643795143426316158e-03
-2.057694352912729525e-03
-7.100130188110290001e-03
-3.538939573408401984e-03
-1.837513931667257051e-03
1.549884508053774902e-03
3.804055157280797957e-03
2.413154437265194793e-03
7.635940185450008563e-03
5.210819672920384560e-03
-3.871266018312970441e-04
-1.242464127173856280e-03
-3.182678767215966955e-03
-2.268822665201323911e-03
7.754205305739483552e-04
-2.505178852108519861e-03
-7.200969838111080309e-04
-1.280664151625675708e-03
9.345063073507192978e-04
2.710838896823360503e-03
-1.558472920656807023e-02
-2.541476204164873007e-02
-4.821557238187097402e-03
-7.848920567430719281e-03
-5.247833881074094250e-03
-2.991683937438631251e-03
2.317706194145595019e-02
1.525067481443981819e-02
5.277586197352358323e-03
-3.626264849737568640e-03
-6.974812011534888001e-03
-2.550280121563254510e-03
-1.893329753829243404e-03
-3.413235150181647207e-03
-1.586467880967392611e-04
-6.478076558960264505e-03
-4.894477051893709324e-03
-1.465104015921046658e-03
-2.840757478984015302e-02
-1.686231817426751475e-02
-2.466361522664984891e-03
-3.957672496939310808e-02
-4.608869533762129794e-03
2.179213640317937545e-02
-8.618985484496686708e-03
1.273728732311958656e-02
2.177552053067843829e-02
9.294483329360734084e-03
1.046596963080224062e-02
5.625540158723320999e-03
1.719399296578673006e-02
8.304371637992238528e-03
-1.057909138799030969e-03
1.268066784919176689e-02
4.586127739634004823e-03
6.131379435996130861e-03
1.943000350418296008e-03
-4.430021453672762928e-05
-1.067440142382233403e-03
1.586298571955620544e-03
-1.535149860817530947e-03
-3.793510549691553064e-03
5.170362533052799778e-04
-2.037896312558237950e-03
-4.030971605172147150e-03
1.362303707068371686e-02
-1.021788454824327369e-02
-1.543579322530157054e-02
-8.636674974726338272e-03
-1.118818547228761506e-02
-1.070765257459067345e-02
-2.539175612747842162e-02
-1.057499450306121323e-02
3.670527134821674042e-03
5.116473979713789810e-02
3.171751304516615133e-02
2.578290707296182829e-02
5.762901482377950045e-03
-4.718129039379184535e-03
-1.385932621948860258e-02
-9.278669393858093514e-03
-3.029363282494319104e-02
-1.897304558845712766e-02
-3.165327491773153347e-03
-6.140065910704001033e-03
-5.940267415551223583e-03
-1.612022603949332233e-03
-6.752572637645554501e-03
-9.404221930588652079e-03
2.343329215344549816e-03
-4.933468781212424492e-03
-7.973883118456369032e-03
5.774714301669077975e-03
8.095431514700122955e-03
6.671751400692325744e-03
1.081602319529477614e-03
3.753947736388503660e-03
7.075837423623190098e-03
2.933927840046846557e-03
3.147873390970406908e-03
9.228285471536800191e-03
-1.764491493207532083e-02
-2.023244076802195590e-02
-1.385750812599213962e-02
-4.582393263694083639e-03
-5.147717263711082056e-03
-7.838707841792078848e-04
4.506765211463354022e-04
1.641157842056527880e-03
4.235208980384972711e-03
1.556328558260910121e-02
1.534194870287153116e-02
7.426010699012707342e-03
1.047171701397202684e-02
1.087180343282902542e-02
6.536269916154705852e-03
7.189894689968296532e-03
4.437802157930634955e-03
3.984178505714396253e-03
-1.501084423926782666e-02
-1.306671911046379184e-02
-7.878488402916163438e-03
-9.687663563565172831e-03
-3.125256348198082214e-03
-3.247792422347664867e-03
2.307166569550167317e-04
4.602818462948425095e-03
-3.455590629694053548e-04
-2.023028219153218642e-03
1.488660449003700100e-04
3.871195361143884347e-03
1.277268646541417259e-02
1.209114082603465366e-03
6.689781625938226277e-03
8.971953694302030324e-03
-2.784973713128592251e-03
1.547278792483570541e-03
-2.076567468695985751e-03
-2.843966739114865954e-03
-3.338059479130034250e-03
-1.771780173077665624e-03
-3.703421925151420459e-03
-5.317851650614949244e-03
-1.334155012763768838e-03
-4.397226968473539818e-03
-4.675798006092056654e-03
-5.371721806279265883e-03
-1.437039598087918105e-02
-1.248005330375599221e-02
-1.373232933928310480e-02
-2.129523285130309820e-02
-2.357962927414427451e-02
-1.427096083354866679e-02
-2.207524738205729128e-02
-2.318651254972097300e-02
-1.582656466202382465e-03
-4.161718287044529978e-04
2.160915051285146934e-03
-7.044326081318245546e-05
6.420563370056887973e-05
3.472195553405749147e-03
-3.384352766944838343e-04
-5.055772100585709077e-04
1.887455200622507445e-03
1.368642381156240546e-02
1.742766640484875312e-02
1.284561882294579229e-03
1.708371597632943675e-02
1.604325702631375847e-02
4.089952134917832979e-03
2.883969533815449425e-04
3.169508442577759297e-03
9.611448842111716597e-04
-6.891504996649767392e-04
-4.906803670370966366e-04
-2.581136516460690554e-03
3.172996905149719042e-03
2.825432787196884617e-03
5.431184670232144665e-04
4.031566710928830011e-03
9.038916390676241062e-04
-1.545214619342647746e-03
-1.164180381183107724e-02
3.579552886480094360e-03
1.335922785084811722e-02
-1.251618125217232591e-02
2.348883852969519412e-04
1.186291620837343942e-02
-2.064539933432636351e-02
-9.664272256780508108e-03
-4.559770658740544200e-03
4.349466177384661396e-03
-2.212697425347305569e-03
-5.568562804593243584e-03
4.799602583655995965e-03
-7.247065580066303601e-04
3.564784979529969384e-03
1.618147203061860630e-03
3.264339314636830261e-03
8.306409003403779703e-03
-9.246551225727936332e-04
-1.113166913180858317e-05
-9.140889625200921331e-04
-1.684755846684852051e-05
9.191255442196103690e-04
1.947150172617234177e-04
1.279338510698417889e-03
6.032425748959418686e-04
1.309308712455134732e-03
-4.389525150763918734e-03
4.683583425095989503e-03
4.823470528045070184e-03
-8.107429921237642792e-03
2.870254976796486179e-03
1.084101413952271928e-02
-5.430891544183990595e-03
2.811893350834909072e-03
1.177297935962339295e-02
1.260188205204059234e-03
5.283710920264065095e-03
-1.012803459293418543e-02
1.505851697234510990e-02
9.194356407231841014e-03
-9.429148566435828840e-04
1.199282225449583954e-02
1.305785619650162536e-02
-9.981783897451462686e-05
-3.425909374808647212e-03
-3.176338148200292654e-03
-2.207178908973767093e-03
-7.220749885463247260e-04
-9.785562760477478118e-04
-1.471895686957502359e-03
2.829771577907414654e-03
1.233160112546905244e-03
6.859508302589368547e-04
1.257565317920655932e-03
7.469749467040402149e-04
4.541217880683763824e-04
1.926030654209342748e-03
7.724904367380143770e-04
1.760994452374048763e-05
1.178212699311719305e-03
6.132732793315642350e-05
-2.340528775851159933e-03
2.873730309422280020e-03
5.059672351094297166e-03
4.586241943205666798e-03
-3.468324517027380550e-05
4.186602817515500813e-03
4.478076461944808899e-03
-3.303051812036772450e-03
-3.868191775532178940e-04
2.227649315668080599e-03
-3.757291982982267197e-06
5.241055171781841028e-03
7.639684451790204091e-03
-1.990486708808161115e-03
1.090184682135272431e-03
5.541655277666757140e-03
-6.056927213250996866e-03
-4.416024008115989816e-03
-1.935833800265477017e-03
2.757441166344236361e-03
6.348154999438348871e-03
7.984721875727731830e-03
-1.018738244197715153e-03
2.389419771643254767e-03
5.590888636805129049e-03
-4.380289546630806476e-03
-2.798068502268151892e-03
-8.182407822320852302e-04
-1.993988301326286329e-03
-2.412428689304422884e-03
-9.153557725510460402e-03
4.434090321667322459e-04
-9.508434566980406488e-04
-9.079806982020781694e-03
-2.464475877968315496e-03
-1.128984493677218093e-02
-1.236152919651100843e-02
6.539780327005605132e-03
6.741661455523065803e-03
5.186520761003304662e-03
5.332021572435626834e-03
5.905877030071646910e-03
4.651986702020671077e-03
1.535908605873220843e-03
1.095062506373211970e-03
1.944458041280238379e-03
1.400399519348841581e-03
-1.585590680921812861e-03
-3.018484191042087195e-03
1.563850936681908345e-03
-2.097347237544453132e-03
-4.616995395488479245e-03
5.302047218333434501e-03
-6.656684936310175828e-04
-2.995253049042061015e-03
-4.600787818499925234e-03
-5.385196013205537438e-03
-2.452474199408453352e-03
-4.408846391011024025e-03
-4.125290195325662101e-03
-3.184420818595787815e-03
-1.586607126630002786e-03
-2.213900779325518597e-03
-3.241340884951313291e-03
1.863382085137363364e-02
2.468225092145554661e-02
8.117089353420561121e-03
8.497346818420419348e-03
1.461159843796897007e-02
8.621919600122162491e-03
-2.850576349366219179e-03
-9.871195951227865607e-05
2.164098481282571238e-03
5.550274608781848723e-03
6.048621785187916974e-03
6.209196031164082759e-03
6.748878725358622814e-03
8.813527702343709053e-03
1.167798492600443522e-02
6.972866086512957695e-03
8.074224148656741068e-03
8.094334065423600469e-03
-6.610321993300395660e-03
-7.191455489117912214e-03
-4.458974901966896234e-03
-6.766598466418543081e-04
-6.892693079659399169e-04
5.485925847455119103e-03
1.507232401945399333e-03
3.584658691819139200e-04
1.702531837347463035e-03
-3.152542609109468957e-03
-1.208937539559352958e-02
-9.388126112139258059e-03
-5.881862763184139004e-03
-1.132788830228220571e-02
-8.219956078635709540e-03
-8.700671622253164025e-03
-9.946611748358081401e-03
-3.668228219454330082e-03
-2.511888472923787686e-03
-8.655811773612393347e-04
-1.461626626556647868e-03
-1.702608480928046288e-03
-8.767793352571573787e-04
-1.310829511292025762e-03
-1.801166817830800139e-03
-1.267427504231399479e-03
-1.204499303009052029e-03
-3.805064610976641171e-03
-6.371087867337198911e-04
-2.487095229996029531e-03
-6.053082399116039257e-03
-1.754072628353305768e-03
2.043426985217963298e-03
5.272950958668784320e-03
5.646967598041932948e-03
8.396150328796540135e-03
1.575303493579420511e-02
1.481703975109488133e-02
-8.441305923996183028e-03
2.033854605390393588e-02
2.230121618227774716e-02
3.617342614292474914e-03
1.612478602489477233e-02
6.720775159138750801e-03
-9.526750995414565507e-03
-4.781835454400731357e-03
-2.062730127452370305e-03
-8.855029245838594862e-04
-3.281717190282513671e-03
-8.831934900228915119e-04
-1.449912154190868005e-03
-4.609790785354852768e-04
6.252884782878269810e-04
-5.454998994989832895e-04
2.872063833647245639e-03
-5.389160885414375976e-04
-4.832687727035850042e-04
3.801306527819015880e-03
1.833752441196629269e-03
7.011933930937968998e-04
4.765028430107920779e-03
5.189855304916867092e-03
2.031165073870095511e-03
-4.411518937804321736e-03
-1.754565610054452949e-03
-8.428043824537158899e-04
-7.027225492964290707e-03
-2.892394764174181787e-03
-3.269195200302472872e-03
-8.907887627041387313e-03
-7.190687354839380395e-03
-6.615706788686353916e-03
4.163874187340289683e-03
2.695345180040319491e-03
1.498120435604955476e-05
1.158051339932053211e-03
-5.335119942594274698e-04
-4.049298403641092559e-03
-4.646787766940507075e-03
-5.999495373124987159e-03
-8.086817049872001978e-03
4.152101011511818464e-03
3.998318957862567746e-03
5.837945354582726662e-03
1.918734673499964847e-03
3.604816165821597175e-03
4.285903293864838474e-03
-3.443548730674783425e-04
-3.957500412702129929e-04
-1.327255992776422543e-03
-8.255606171370339979e-04
5.113828906851035838e-04
-4.839755921176499935e-03
2.307855618284271044e-04
2.161284855100636861e-03
-3.170957025503650696e-03
-7.092591214820088454e-03
-1.002400584156550901e-02
-8.007120039992590352e-03
8.353104873617440626e-03
1.019679422934485769e-02
5.852095755263800152e-03
5.918781402716509141e-03
9.073217808886370819e-03
5.049814107718924618e-03
-1.050054335465028721e-03
6.782740326340253425e-04
2.463472022449417730e-03
-2.325742871214220124e-03
-4.446315760316338697e-03
3.179921776722830200e-03
6.306113855747817352e-04
-1.157633239646063119e-03
-1.405000820596380762e-05
6.727520006539156223e-03
3.306638455590026841e-03
2.720791485721190447e-03
-4.489375343630410813e-06
-3.049407538254823936e-06
1.266194371976332040e-05
-1.392242443032529347e-05
6.667225739290566786e-06
1.153168770468193472e-05
1.238714954117895645e-05
3.559729755464694249e-05
5.422099064547623032e-06
7.004028542804029351e-05
5.387333211296267764e-05
4.356069644559910393e-05
4.336084154415970711e-05
3.834564224781347746e-05
1.634767358348373351e-05
1.683352586295068084e-05
7.072201550779234794e-05
8.144802715885235292e-05
-3.200703692757072248e-05
-4.116119029853066450e-05
-2.911445438263499561e-05
-3.787496432927831257e-05
-4.000463839347758561e-05
-3.200019393771907271e-05
-5.006122992193639642e-05
-3.215563251407076205e-05
-5.386338812264661384e-05
1.827060718878783494e-05
2.360205557048553212e-05
2.397241303042091381e-05
3.633406853649687310e-05
4.572465030040710862e-05
3.782080645748027751e-05
1.563475530911668322e-05
6.336985771396850825e-06
1.515163329598041616e-05
1.833696760878208179e-05
1.842406241176985601e-05
4.493501134415902676e-05
1.239739249466828715e-05
3.131957705031250468e-05
2.630000517007119110e-05
2.279153670943441894e-05
2.221479764540620496e-05
1.684529283566266929e-05
1.505313037508300298e-05
-6.614265700074158601e-06
-6.116724653493528604e-06
-9.249639436656941640e-06
-1.669199699371009992e-05
-1.897680374147782151e-05
-9.575789449748186769e-06
-7.819817372242158238e-06
-6.689612834263452706e-06
1.597233323900321399e-05
1.326118273241260311e-05
-1.577890703573331415e-06
2.513869806765791701e-05
3.779007363723516013e-05
1.275487275937904092e-05
1.215076668566565349e-05
-5.129803660995844498e-06
-3.735805898259090744e-06
8.152237197445579096e-05
7.572121928442460516e-05
9.300734420845427309e-05
7.083154294318998677e-05
7.310326213257308859e-05
6.474989449048032867e-05
7.504088997583204369e-05
6.689019857638332843e-05
4.646926164097314738e-05
-2.396949467467658764e-05
-2.866901162877299688e-05
-5.784544889778574204e-07
-2.845920877724041268e-05
-3.428668557065532975e-05
-3.122677521853706406e-05
-8.792893498979233237e-07
-1.240090630189843940e-05
-5.603760769966244838e-08
7.320010343199260417e-06
4.554617324574477031e-05
6.281349417813147722e-05
5.397683078768089805e-05
2.174920705053797097e-05
1.247994444334442319e-05
4.301125757001700355e-05
1.916225891338635358e-05
4.646163906999915767e-05
5.261614742188874176e-05
6.106380725687399885e-05
4.979515764745155065e-05
4.421845502455439464e-05
5.178632662722064037e-05
3.450355018972596391e-05
5.060505581343763981e-05
4.651424718402319788e-05
6.499949409210710493e-05
1.700413731531772831e-05
4.523778580291147003e-05
2.882403442852609770e-05
5.740452771443332365e-05
8.459595593197382257e-05
5.073203101681146229e-05
7.485102856192283835e-05
6.221274154067450691e-05
5.260192192255157853e-05
1.034853451184606779e-05
5.603734536442762741e-05
2.231856855480207342e-05
5.028162121751284376e-05
3.358920547737131009e-05
4.484464675520669503e-05
5.713932659091693810e-05
5.103445899506508631e-05
5.065868109521177320e-05
-2.586745050082092940e-07
1.543718173427593475e-05
-7.139003485923405253e-06
-2.077064811739317467e-05
-1.687786695227293200e-05
3.905651232746037667e-06
7.337745195017308911e-06
4.013386572009371969e-06
-1.444552435335941572e-06
1.622436513373168366e-05
3.228548350558476537e-05
4.171950897432531724e-05
5.620205229412268097e-05
3.575289947180521050e-05
3.742902264349802185e-05
4.145229331419437335e-05
2.711979337440996039e-05
3.327883121636337409e-05
-8.489614168642795240e-06
-9.541163178640639248e-06
1.465449763158340202e-05
-3.580298471282571197e-05
8.309087929316013948e-06
-2.719877360411542509e-05
-1.257094309160958921e-05
-1.853163322229346745e-05
-2.624665162800255642e-05
-9.384396080776905274e-04
-1.035481999478964641e-03
-2.638042499588392955e-03
-1.432881871187174699e-03
-1.564090571108747935e-03
-3.678177374470987995e-03
-3.454335124855011097e-03
-3.875985686985341638e-03
-4.758822692740457237e-03
-2.462812004628977744e-02
-1.275903552777597240e-02
-1.721446022642818957e-02
-1.109266612787802517e-02
9.868740776230929337e-03
2.624083059811317502e-03
3.726681105617538070e-03
1.828371037513691275e-02
2.977617521981535363e-03
1.182833099963034526e-02
9.702564278542888734e-03
1.193599943320108187e-02
-5.101761811305229391e-03
-6.318079053582742292e-03
1.734937119486528942e-03
-2.496840404641432337e-02
-2.393512437059596223e-02
-1.171130420463910304e-02
6.662986279143314882e-05
-1.493971651995643253e-02
-1.819438442396245637e-02
-8.508088576423621097e-03
-2.339160792181082388e-02
-2.539698890432124170e-02
2.749323438205665895e-02
2.385611082278733808e-02
1.666126595590088771e-02
-1.056196135777655309e-03
-2.646891839766323060e-03
-1.884026919381705982e-03
3.150309057672575925e-03
-5.299796656803757930e-03
-1.467884851171295454e-02
6.426191875082533714e-03
-7.130648709594261669e-03
-2.163198630033351388e-02
-1.148330155834965834e-05
3.165704803349719517e-04
1.444186463712750137e-03
5.162654347512152979e-04
1.523211401447949762e-03
2.721831228917001317e-03
1.501583648403661403e-03
7.613636195860568664e-04
1.350105127795457258e-03
-5.905949927694728076e-03
-1.135283519237303800e-02
-1.661184090624885992e-02
-1.122025409669497736e-02
-1.434210876747171910e-02
-1.087193043553826011e-02
-1.361038191763585398e-02
-1.530013176332756762e-02
-1.359403466110817651e-02
-1.159690685555516548e-02
-3.505527240259098676e-03
-8.942930119871935271e-03
-1.019847698117367849e-02
1.536489524743886968e-02
6.406738422863616014e-03
1.298324894436442452e-02
3.389178597880500299e-02
1.069665067462657881e-02
2.216116500106593036e-03
3.365447053080137217e-03
4.753913272800078769e-03
-1.552359850695141834e-03
3.409408373031620840e-03
3.467515258623874493e-03
-1.077955722702279764e-03
1.942760250935786880e-03
1.833370492111786832e-03
3.473804125227670722e-03
3.570766570191911005e-03
3.366784555886946986e-03
3.142299227400488829e-04
2.232009786703490365e-05
-7.677445095649088232e-04
3.220759369411374008e-03
1.339954949526751685e-03
-7.328537293972120070e-04
-1.033957900747998516e-02
-9.227417039197386567e-03
-1.215951607555089756e-02
-1.042181789322770870e-02
-8.229142404397480834e-03
-7.380617100479403350e-03
-7.671080115408949150e-03
-6.302871151297904581e-03
-6.412123688625504317e-03
-1.230431892403284228e-03
-2.424880475649746504e-03
-2.904393853517073330e-03
-1.563719765721242145e-03
-1.933582862793142474e-04
3.216205568289729703e-03
6.961749115491491953e-03
1.065237640288291092e-02
1.144670626662984067e-02
1.425099658654175130e-04
-4.820588999029201379e-04
-2.805701947637727692e-03
1.568664440196269189e-03
2.819764619923953095e-03
2.076980049701292966e-03
6.001210572994125116e-03
6.118510907015742642e-03
6.513446486752037107e-03
8.195713873851503614e-03
4.698175130351218282e-03
8.359246823818378830e-03
-4.171619547789119295e-03
-5.423706040920770605e-03
5.955024963095064371e-03
-1.601211607376040041e-02
-1.668748990590463929e-02
5.219872457246298950e-04
-2.778440067975431783e-04
7.159048858744481878e-04
-1.889751351846158606e-04
3.498196285769597080e-04
3.511510386770123979e-03
3.532987630070337070e-03
1.971171790012586893e-03
3.457578542042652296e-03
2.294066807308718994e-03
-2.479304618314896128e-03
2.215298414110267872e-03
3.698523037605234466e-03
-3.151090442794370235e-03
3.753476540667564053e-03
4.036680375724302321e-03
-1.890687856920404805e-04
6.296402034586189370e-03
8.900081396875455034e-03
-5.623545852207190859e-03
-5.182581195569585172e-03
-5.047129833516224816e-03
-7.181585285214803910e-03
-6.994489178838090605e-03
-5.507788993943588465e-03
-4.985888299171566812e-03
-6.315754297711854114e-03
-5.090457662812467726e-03
-2.238784134817181984e-02
-2.949821582725996316e-02
-1.698065582453372330e-02
-1.934493805546980486e-02
-9.135680128306018777e-03
-2.302097141998667076e-03
3.300442714935601825e-03
1.069024708280923858e-02
1.205069788476565047e-02
5.705840608955172963e-03
4.005058656331169677e-03
6.234269120684608756e-03
-7.893861111476037015e-03
-8.142502665697650896e-03
-5.338626945730064535e-03
-2.775228216913215237e-02
-2.843361553044576259e-02
-2.321196939630862724e-02
8.417464354179194155e-03
-9.933687423666476973e-03
-1.684085877607117629e-02
-2.527719817416658986e-03
-3.009520825217994883e-02
-3.591621883832218226e-02
2.083053759134197158e-02
-4.846087496250955917e-03
-5.573094630342526230e-03
-5.783468771930904556e-03
-6.166722863232844062e-03
-4.668406582687013168e-04
2.194327102857002686e-03
-3.840179456755000997e-04
2.750166814120480301e-03
2.868502886273493167e-03
-9.814932531836113947e-04
-1.400590305942894396e-04
-1.397485211040354206e-03
-6.465857333563954437e-04
-5.219785503761141451e-05
-2.920106825565767878e-04
6.567302197682208832e-04
1.181667856148742139e-03
6.246380804800570315e-04
8.603944531830124949e-04
5.295925518121577698e-04
2.161319488370352232e-02
2.231869924843920064e-02
4.429437105251066912e-04
2.433298062315869190e-02
2.184612047406638002e-02
-1.080422966323235125e-02
5.829927226444532769e-03
-5.395297723784667904e-03
-2.853003791768777761e-02
-2.039997634040056559e-03
2.678927750756799134e-02
2.376342735860518737e-02
4.243310044261341257e-03
3.656041468127718685e-02
2.338531312039479615e-02
-4.224974654291263794e-03
1.171846391452681380e-02
8.054258476137384631e-03
4.852952028815920790e-03
5.342259877915991016e-03
5.372608150473993580e-03
3.849932748396716481e-03
4.240808587174497817e-03
4.959901916473348667e-03
2.067583811080252881e-03
7.047842003978151701e-04
-7.123239030847746626e-04
1.246198394560229031e-02
9.223300485018258443e-03
4.021525511803009448e-03
1.028704812464549707e-02
6.079151314475454010e-03
1.342528046688026876e-03
7.098800077681646434e-03
4.601359272951836658e-03
3.909958431137348749e-03
6.141695052959640980e-03
7.566355979972114176e-03
1.102896361890564822e-02
-7.826471553247739063e-03
-6.534499299961651908e-03
-7.966539515500161946e-05
-1.162767914247459823e-02
-1.158797970049399266e-02
-5.077936742767376159e-03
2.161413843829627750e-03
-1.232451446353724023e-03
-9.536449359292271943e-03
7.786338965368217076e-03
4.365726718323817424e-03
-3.940471109438005611e-03
1.538321612057239919e-02
1.085908486440774479e-02
4.566792372749703573e-03
9.529651221354146912e-03
2.049350779493221402e-03
2.212728986255449448e-03
8.229155953053464423e-03
1.342766316453041300e-03
4.268870197167607891e-03
9.587426995698318521e-03
8.335246662623080685e-03
1.173984970287350951e-02
-1.957432753914421179e-03
-5.460808472155811999e-03
-4.061961420373605067e-03
-1.260253880178487844e-03
-2.544537220709973662e-03
1.507978417897778544e-03
-1.443062039759001117e-02
-1.560098852058019840e-02
-1.239176668764156719e-02
5.790553039094224535e-04
1.027148510555214072e-03
1.262169009477348862e-03
2.095792832953194667e-03
3.963315405941586142e-03
3.374355940457136535e-03
1.140455288526552331e-03
2.892660057481632324e-03
8.548136291115284455e-04
4.798509620424666134e-04
1.767189818869723938e-03
5.960367572598904325e-03
-9.289811104853138384e-06
3.895577473525430132e-03
7.527523027392393415e-03
-1.039589361841984595e-03
5.208357131013085194e-03
6.381950333481462012e-03
