-3.977392401351640891e-03
1.042102990922747462e-02
1.388232700094143256e-02
-4.250827410581034006e-03
-1.714237336925254372e-03
5.009186334499567475e-03
-1.305809869055861612e-02
-1.133746625757917417e-02
3.263092389984827407e-03
9.129831090604357061e-03
1.377043778688777538e-02
-9.674686810265280268e-03
3.959977432466077474e-02
1.966967012919677502e-02
-1.801109964637817584e-02
1.863581311345197458e-03
-1.276663062292071084e-02
5.960188607060006374e-03
-8.434323010191958903e-03
7.733713814915260838e-03
1.380767326226173437e-02
-8.738381655832613837e-03
1.107678234078798493e-02
1.680834537115510202e-02
-4.579015636887220561e-03
5.922704249574964851e-03
1.044400683645831454e-02
4.127713443845318873e-03
-2.925651946988841109e-03
5.696794102607653960e-03
1.621040852031251089e-02
2.701370065233673744e-03
-6.329035043025584614e-04
-3.552840556341481382e-03
6.144142750052307596e-03
1.473395292231705588e-02
3.349823689942192390e-03
-1.674663810221287130e-02
-2.105501744310426734e-02
2.815963451213138787e-03
-3.401249198247757038e-02
-1.603144218787713043e-02
-6.910093667823339995e-03
-2.084717667002860750e-02
-1.027886750317480447e-03
-1.381094528729215657e-04
3.008848539921109289e-04
-1.306296012323422857e-03
-3.428249033648632458e-03
1.216127209784152079e-03
1.542206111778273662e-03
-1.096746353663059260e-02
-7.759559544262120689e-03
8.694767971104121489e-05
-9.944945909442944737e-03
-4.746851515845081776e-03
-1.328105396771487971e-02
1.436347083699109767e-02
8.740066694250057944e-03
-1.581598605798814963e-02
4.602144120734342515e-03
-1.210190173023900119e-02
-1.258840452108322440e-02
-1.926587706170759806e-02
5.187561935075959627e-03
-1.500609631086296213e-02
2.495944513889680055e-02
9.760405392449631595e-03
-5.191728652559207680e-02
-4.165212811730056169e-03
-2.538188015439504785e-02
1.167978810676649666e-02
2.459622251864944115e-03
1.961432049083530575e-03
1.802547694615114389e-03
3.009029633130340126e-03
7.533991973352379681e-04
5.839812948804247623e-03
-1.208923791601193218e-03
-3.918604897253430419e-03
3.204491184315096889e-03
8.868486716226560776e-03
1.233849044502202674e-02
6.066350143113681363e-03
9.634931524568223285e-03
6.876671802384950148e-03
1.065699641873279384e-03
-8.330637463778398392e-04
2.043686497331677430e-03
-3.542782499080925854e-03
-1.149493503451500497e-02
-1.365465797407430446e-02
-7.432162995488267310e-03
-1.901337066540864651e-02
-1.173873358321634273e-02
6.740002113156381112e-03
-1.276111430103257262e-02
-9.657893320347759464e-03
-3.373170792997784613e-03
-7.422049012383684363e-03
4.395729698784594554e-03
-8.911481827225660110e-03
1.237736253816924988e-02
1.573912796948218756e-02
3.682263975116992650e-03
7.498691629023049830e-03
6.419153851249739459e-03
1.041370737625983353e-02
-3.464284766511436988e-03
-2.437784178185202835e-03
3.789237041167113976e-03
-4.825689282388320386e-03
-1.089155086120223263e-02
-3.121886170603090181e-03
-6.991773241973467910e-03
-8.491188214716246727e-03
-2.880325987230555537e-03
-1.348529648166995991e-02
-1.216033636889275564e-02
1.352935454686040803e-02
-7.398289728594515183e-03
-1.400303603533236720e-02
1.147367595068803786e-02
-5.945264638214252731e-03
-6.183288661942365830e-03
6.893391208716876696e-03
-4.611768571126271740e-03
-4.080963311890107442e-03
-2.879505136260104630e-04
-5.445681373499797456e-04
-8.132058833624592484e-04
1.862515209811977605e-03
-3.771903297912162015e-03
-1.807343033111421257e-03
2.936076185371003407e-03
4.463633236510851539e-03
4.142954204755616883e-03
-3.469829051321589135e-03
-5.857112192350221944e-03
-5.365328767103406775e-03
-1.950554835575069382e-03
-6.081097860814622426e-03
-4.460778234278423363e-03
4.937460350070178861e-03
-1.531431469905360047e-02
-2.227372629701713375e-02
-2.667577662055545251e-02
-1.379626841455524125e-02
-4.258097322353864705e-03
-1.734201271050976254e-02
-4.882003231832614948e-03
-1.330424874080438427e-02
-9.209345311475295934e-03
1.258798017602796339e-02
-2.968128175156070289e-02
-1.006319146189375673e-02
1.121509185671711560e-02
1.525496796229835854e-02
1.794201747159236216e-03
1.027184622540880908e-02
-4.346913349493314316e-02
-5.708728891616207668e-03
3.465219591393529225e-02
4.222894582049872142e-02
2.952635729862557873e-02
-1.343540809733896092e-02
-6.670908108509020912e-03
-2.568658347123412185e-03
-2.437681423946580841e-02
-2.209518421662775428e-02
-2.241717647666537430e-02
-1.585417472609902678e-02
-1.206368597196948167e-02
9.108081716003466012e-04
-2.564813688981808009e-04
4.248161483171158763e-03
-1.202227264834852295e-02
-1.171074354790315656e-06
-9.965683567489480241e-03
-1.216469006966647282e-02
-4.121617428949109208e-02
-4.870288964728307184e-03
4.884286859821821564e-02
-1.272444365756611592e-03
-1.708722204929545574e-02
-2.057804272547081662e-02
-7.261428713520205053e-03
-2.000174954383244705e-02
-4.709015022242942286e-03
1.538820139820652917e-02
1.261078220506799304e-02
1.857017453022756504e-02
3.816467073990103143e-03
5.388217505223082820e-03
7.319027229702518809e-03
-2.300646857021272466e-03
1.716175023836474149e-03
9.090064340711054985e-03
2.121842900325663500e-02
4.820328626404279601e-03
1.574568515225910348e-02
1.342044546991295884e-02
1.882026521341179787e-02
1.029529355001541913e-02
1.265579020318128439e-02
-6.200011458488765247e-03
4.734901055085499223e-03
1.206954595975930598e-02
-6.317456440871724310e-02
2.174785917014929529e-02
-2.165026802714630633e-02
5.473702637001543608e-02
-4.066713788833634102e-02
1.362576600812307435e-02
-5.367222922187633860e-02
3.171752106924460163e-02
1.583242781358437309e-02
-4.937301232452839805e-03
2.626906202375670508e-03
2.538821097932901071e-03
5.888706891406777881e-03
1.163732565728753734e-02
5.371007403485027198e-03
9.975189606049698898e-03
1.996528427906572173e-02
5.317651711599294742e-03
7.658229829331334414e-03
1.814537595925743395e-03
-3.737822122788001140e-03
7.569238980134591378e-03
2.487639145886077346e-03
-5.132195002600995794e-03
3.515863995345821103e-03
-3.482263909493581340e-03
3.365536054325231341e-02
2.520308274551590760e-02
-1.879149592481617684e-02
-1.713070279240211380e-02
-2.810199161366905632e-02
2.372700184177453393e-03
-3.458395584830635527e-02
3.123487185776462776e-04
-2.070348647107104686e-02
-1.268979083371989287e-02
-9.810982934358320959e-03
-3.092063931853941162e-03
1.140518646407616236e-02
-9.998204989355568076e-03
-1.822256310856953943e-02
1.317531901959642128e-02
-2.037582474360807860e-02
-5.407365158632847224e-03
-1.817511093159809897e-03
-3.336604074182415725e-02
-2.268280848396322241e-02
3.671523414480989955e-02
7.544992468980359253e-03
1.487967852224724233e-02
2.831249520963490668e-02
9.285741361246510270e-03
2.531875786269028022e-03
-5.594343176309301245e-03
2.791043420950408901e-02
-4.221366137777540946e-03
-3.252401684383518423e-03
-2.832241249627275373e-02
-1.559192023337744974e-02
-1.479366036158389318e-02
-2.737616373122924232e-02
-1.174178837748125238e-02
2.423798530845857127e-02
1.388108303833437106e-02
1.231112387909251080e-02
9.180984416719635902e-03
5.614636806143605101e-03
7.832817125575671988e-03
8.618859433022431696e-03
5.720151550771887007e-03
8.885730179469093770e-03
-8.116845408216631641e-03
-1.004740253266226541e-02
-1.028476426725047528e-02
5.521978499393941867e-04
-1.295292823729408439e-02
1.579450450907451172e-03
-5.823500880421131516e-03
-7.481584865580004698e-03
8.413782456426828482e-03
9.781727357802576239e-03
2.903113901878383654e-02
3.858626266129171201e-02
-2.082925591653434980e-02
-6.398869654225261376e-03
1.530237565722358632e-02
-2.288155509260560508e-02
-2.877530959667836188e-02
-2.514767709255413472e-02
7.302831284815789088e-03
9.792838544028846168e-03
4.105997803921299441e-03
4.762320366791328655e-03
-8.762677787807210059e-03
-3.232343312788568852e-03
-2.538221096476236081e-03
-1.046789092536875611e-02
-1.664320863287141461e-02
-8.849367959537465453e-03
-1.247579961671618255e-02
-1.316696412940382942e-02
-1.226694903662898552e-02
-1.155385125979040660e-02
-7.220330669473582971e-03
-1.908011298204261713e-02
-2.077371360282300947e-02
-1.600756736950710232e-02
-4.108933510175211135e-02
-3.776328026598088639e-02
-1.149676494014947696e-02
-7.380367198323613265e-03
-3.001225946509748430e-02
-3.630458223524265365e-02
1.969357146822178425e-02
5.529637682112018351e-03
-3.330994816750828397e-02
2.764078367655991371e-04
-3.298575091703618862e-03
6.741638970593971832e-03
1.004000435402954000e-02
2.713909697376666423e-03
1.980169168805916494e-02
-1.429452002546835465e-02
-2.293804538824793359e-03
6.473364064600689062e-03
-6.335983361156833499e-03
3.494317333797005484e-03
-3.859049663141884967e-03
-3.309883625770548669e-03
4.448067394400616326e-03
9.386811283775007078e-03
-6.929084642426357188e-03
1.375967280997972362e-03
1.116446930525212024e-02
-2.224260584367437552e-02
1.038644576482617918e-02
2.931413205131407074e-02
-3.064387730459778442e-02
-3.497732163736259198e-02
-1.370747304913223427e-02
-1.678032767235243874e-02
-4.263629705897542532e-02
-4.858106137088615689e-02
-8.820607758992026620e-03
2.887191576415614608e-02
-2.736546667893607031e-03
1.238877257096492567e-02
9.924795533834828050e-04
1.908716261562886859e-02
1.535447695364951411e-02
8.103580623236844929e-03
5.281647494454208037e-03
-3.780769191008041645e-03
-1.475523631094625976e-02
-3.189155351000401428e-02
2.272242506493024443e-03
-2.045163647989602096e-03
-1.305654193708960867e-02
4.273212808100687577e-04
8.974110230727005630e-03
2.262232445798088420e-03
-1.482420707677086641e-02
-1.711810777553075813e-02
-5.861993652654928603e-03
1.362922609680147432e-02
-3.081022561236866110e-03
-9.709540366871991998e-03
2.566804899057941250e-02
7.922552108206254093e-03
-1.367234639048716706e-02
1.122342393491748171e-02
2.090565802270283324e-02
1.635181176671030717e-02
-3.864904106249396603e-03
8.301522183410126043e-03
5.700983792522825756e-03
-1.421528549593921269e-02
-1.208433608240633500e-03
3.375071891315817481e-03
-2.513138856324266535e-02
-1.033871063225080301e-02
7.224037750195979983e-03
-8.281606811404893312e-03
-2.561746132276152693e-02
-2.178448231496507223e-02
5.588400829902259205e-03
-1.965117205980118284e-02
-2.831551845776559759e-02
-1.517203369342997980e-02
1.610154642241812392e-03
-5.595254791638001705e-03
-8.230990861253157861e-03
1.398378013793968692e-02
1.291887233484291866e-02
-2.472625146325949444e-02
-5.522740144632265306e-03
-9.069643764506080466e-03
4.521973532231906808e-05
-3.165344558879187777e-03
-2.502848067278495934e-03
-9.149701624198487704e-03
-8.525856817534758700e-03
-2.351647149022820932e-02
8.056669658819813618e-03
4.452394381981312176e-03
-1.211464343136289985e-02
1.852511512743085231e-03
5.890201195447006960e-03
-1.201653515770938338e-03
1.384689112810733123e-03
4.891333898888935820e-03
-7.006553097330473975e-03
-2.015719433962467107e-03
2.075480005393246820e-03
-1.037052218237079389e-02
-4.345338206393103801e-03
-3.527650892475812233e-02
-6.312393799735978306e-02
3.786059244431114190e-02
1.020478498250990303e-02
-3.019315536740712486e-02
4.672834433985040975e-02
4.907893729106621583e-02
1.983768357662135662e-02
-2.797416653644305140e-02
-2.328745703440509782e-02
3.498520737534452103e-03
-1.603649702927300788e-02
-2.022346265559737261e-02
-4.998973228276375538e-03
-4.351074437667467286e-03
5.119541229198891659e-03
3.525892825547586110e-03
5.903705085070955899e-02
6.236705270684311103e-02
1.338893203198763225e-02
3.848121023754631082e-02
-1.918934611032474535e-02
-5.961124036104008261e-02
-1.684482765475459401e-02
-7.071115384052052699e-02
-3.849736821865577113e-02
1.754917676148911448e-02
2.741270930040082612e-02
2.938477133030415953e-02
-4.660129392942209854e-04
3.778633265392652291e-04
-7.329094508370785979e-03
1.383271643053167466e-02
-3.221579769714773278e-03
-2.768680228978373948e-03
-3.105254389686846681e-02
-6.149641871687937245e-02
-3.191597929909433667e-02
-4.771230474163411228e-02
-6.915846085522695495e-03
4.655923023928314197e-02
-1.551848949442740169e-02
5.867757221471352896e-02
6.481622784846215179e-02
4.307712009516966034e-02
3.742627475507494250e-02
1.245051661557014695e-02
1.538570863769764437e-03
-6.776651331234540302e-04
-6.404066777227488023e-03
-1.012730505902140719e-02
-2.321633544789626982e-02
-9.129793322805411504e-03
1.826444363038829191e-02
1.914475054280396354e-02
-3.638977594335669492e-03
3.645923953379820535e-03
-8.026934388527303538e-03
-1.599793001524546163e-02
-2.495583111365647783e-02
-2.938258662701787385e-02
-1.629683156679240935e-02
-1.844385975040234351e-03
-1.626050871680784563e-02
-1.620183437657297248e-02
-2.607510121678223436e-02
-1.838644175841375530e-02
-5.013045671297009995e-03
-5.257713833898581927e-03
3.170774389297276868e-02
2.979909963721737859e-02
-4.355268339103346431e-02
-1.013234982470469399e-02
1.861010627185305522e-02
2.243947797635969729e-02
5.181278949256881705e-02
1.005652028892792087e-02
4.417360330185898798e-02
2.127544236303434769e-02
-2.661238286000587941e-02
-1.760669257601291116e-02
-6.332309344239816715e-03
-4.065479244424259619e-02
-1.958792307098073185e-02
-1.872109917285885022e-02
-3.815601360491796545e-02
-4.225045253955909963e-02
-3.265498635462597832e-02
-2.256909168465546373e-02
-2.574350392140907842e-02
-1.616336134890277929e-02
7.242596753798578695e-03
3.381126214739382449e-03
2.140708847835570347e-02
1.924153730999100809e-02
2.654219615003939811e-02
3.432872034157112562e-02
-2.147237830729506209e-03
-9.765231440517888745e-03
-3.149639159234705367e-03
-2.089028818867988760e-02
-1.018696030993284513e-02
-5.436161319005193907e-03
-1.184199657422210783e-02
9.781873163654397282e-03
3.389820720030348178e-02
2.959427267511664447e-02
-6.441974544091294552e-02
-4.030800580266741956e-02
2.227461900043778680e-03
-2.046414253589589477e-02
3.571500376785530922e-02
5.493826169038511925e-02
4.263803501449339728e-02
5.788803886070306021e-02
2.975293890913328562e-02
2.381912366410786699e-02
1.480311981596181201e-02
-6.456438852679435847e-03
7.363712560918254241e-03
7.052005080468264075e-03
-9.273759515104953175e-04
4.330267968046748288e-03
1.896341518301093015e-02
1.312932445017104058e-02
-1.056790005929992117e-03
-9.691354135649617521e-03
-3.657535871926662768e-02
-2.437940319354975176e-03
7.117396568120677898e-03
-1.845266377857096443e-03
5.870456548016384467e-03
1.961889637095172445e-02
2.754948246742038379e-02
-7.175590427079682303e-04
8.523862509698075518e-03
7.535658299993673766e-03
1.872850318792065524e-02
2.054354182697214898e-02
3.579683711377818368e-03
1.524187882152071641e-03
-3.598339811504018809e-03
-2.801001370037405763e-02
2.944698838078466802e-02
6.692914665670769703e-02
5.518321123663207789e-02
3.064321412969542649e-02
3.250092737020869593e-02
-9.313947122465757525e-03
-2.973163661352529186e-03
-2.736656775320598853e-02
-4.466081706985704225e-02
-3.247217858213993086e-02
-2.838053852908731245e-02
-1.482914377433038403e-02
-1.471859161699488709e-03
-9.446127670122235823e-03
-2.300787093600583505e-02
4.360027617287605406e-02
5.095797806802473962e-02
1.233934394004110834e-02
1.568540768823796505e-02
-7.523154694329529414e-03
-1.616107789733472674e-02
-1.029716226439919384e-02
-1.348730135827740095e-02
-7.087455992257876876e-03
-2.600374370603989599e-02
-1.943628302474248795e-02
1.221839262441544623e-02
1.220667016174890526e-02
2.608208780091705870e-02
5.433759556203551777e-02
2.405997624165014115e-02
2.330860790362052765e-02
3.972451376500607534e-02
2.586824193147917953e-03
-8.342865195827253375e-03
2.193359454008234413e-03
-4.030638489228174914e-02
-6.519930968501764200e-03
-1.258670851452282219e-02
-7.500456520197712126e-03
7.966819429621928295e-02
6.732015965627513587e-02
-3.145697091294108461e-02
3.606770316735864734e-02
2.695868301744392889e-02
1.997205109914765991e-02
1.633838036601134754e-03
-5.299863473401706000e-03
-1.197887865473535804e-02
-6.916793013362849095e-03
-2.579588421354275535e-03
-1.794244582090559134e-02
6.246970731000047947e-04
-1.463397669657272087e-03
-1.410151187728418860e-02
-1.891499591665269861e-02
-1.394095153520469267e-03
2.260721535970709750e-04
-1.932650529787202989e-03
7.774366686475170547e-03
5.780460885909652347e-03
2.498214919395640686e-03
1.024109055412820470e-02
6.202133562756603768e-03
1.401724942578469815e-02
-1.817566923620373212e-02
2.335567148583587993e-02
5.050953277052708246e-02
1.184512096825235741e-02
3.632067102599211700e-02
8.775521240106055887e-02
5.918475289808061701e-02
2.609689915163614787e-02
2.178985730116950875e-02
3.363511107099591280e-02
3.434280211971811603e-02
1.646532041425976742e-02
-5.059372190142361406e-03
-2.381823320785586562e-02
-2.864672883091541611e-02
-2.808249175034279246e-02
8.794232127953832343e-03
1.148057534722266189e-02
-7.794147937342110581e-03
1.467665576562291949e-02
2.785730327196456538e-02
1.221756931354843652e-02
1.223689532886444720e-02
2.884324306432993479e-02
2.729189688972781525e-02
4.878286790597188838e-02
2.399290702985516430e-02
1.569145119046775824e-02
2.074596890888139034e-02
-6.033292114985796054e-03
-1.377007831168911879e-02
-3.117685970819855309e-02
-4.182710131138089177e-02
-3.820426848231150974e-02
-4.389951551564466592e-02
-2.912862069069495352e-02
-1.578480392443343261e-02
-2.491094281560869012e-02
-1.003875572489531035e-02
-6.093280441080137222e-03
-5.582180774358702982e-03
8.077337429568091573e-03
-1.649631265033402487e-03
-6.648490842601197321e-04
2.146019962535946832e-02
1.260679747635400430e-02
2.440482453298496376e-02
6.196376275892594154e-02
3.431303689951754887e-02
-1.069916205175225842e-04
3.395336223999073644e-02
1.455991169809018639e-02
-2.383582426336200086e-02
1.036982857668061926e-02
3.289686682643647338e-03
6.135352038628676813e-04
6.008686132875668690e-02
4.988965565841416844e-02
1.729581670035967161e-02
6.646905763060027839e-02
4.407833828260682846e-02
1.282839265626652125e-02
2.773529955539516881e-02
1.043600645729017388e-02
3.900953188042293601e-02
9.821413139954662808e-02
5.721557940307370888e-02
1.062649721177209676e-02
6.271011054964421849e-02
2.098688303706384983e-02
-1.071434206670793428e-02
-7.372135453363353082e-03
-1.312372892838342166e-02
-7.490597107551046074e-03
-8.163787720746365842e-03
-1.297591724295170043e-02
-1.613509560800270928e-02
-1.463438805754597137e-02
-1.572639478867520271e-02
2.842193080683249121e-02
3.990101029597060284e-02
2.278955398208845975e-02
8.946930970202349523e-03
1.300872570986562338e-02
8.692617428213283981e-03
-1.019375165157642218e-02
-6.129338865804928420e-03
-6.316639143447059547e-03
2.991879603855655389e-03
-1.051792106272386767e-04
2.985995356250110110e-03
-1.066419520615862794e-02
-8.963446617978772235e-03
-3.940707086400177593e-04
-4.582254857270208828e-03
8.074703116162556052e-03
8.847902165656859261e-03
-1.367623275502046452e-02
-2.647659163837132526e-02
-1.091170274656085709e-02
-1.377377030372602291e-02
-3.625577026095703342e-02
-2.778993639615495725e-02
1.642464077206775078e-02
2.942001557191279912e-02
3.306102716608267517e-02
2.233675889067730444e-02
8.175891757561601358e-03
1.421460895389376096e-02
1.687972352917766275e-02
7.900632065929270170e-03
2.172830323914758457e-02
-4.995031026274724187e-03
-2.575217837774341698e-02
-5.951682041096247738e-03
-1.238340528137296150e-02
-2.014118386086568430e-02
-9.683402815800833813e-03
-1.761318592188399965e-02
-2.752452477897952832e-02
-2.658142138568412444e-02
2.767729661721182385e-02
5.134963934461064805e-02
2.948042634226674674e-02
-9.487212343046063420e-04
-1.648767029799558638e-03
1.386965633496866713e-03
-5.942270795782390869e-03
-1.614994070998108239e-02
-1.724017784952956711e-02
1.619857410798639791e-02
-1.199033117937394616e-02
-4.741185209669921546e-02
8.510201058458623583e-03
1.109251228394741648e-02
6.029821564757004496e-03
7.725392377527097454e-03
1.435922547683355114e-03
-3.096643697338744526e-03
7.845742875124343818e-03
3.326020054199079097e-03
-8.236919119093748199e-04
1.052522805656034253e-03
2.838575507251772136e-03
5.862457376874509636e-03
-2.354682370141008771e-02
-4.133458962941292253e-02
-2.320748402257451215e-02
1.453293016020300310e-02
2.139385634261871394e-02
2.029501466763019429e-02
-2.854704156517247696e-02
-3.319507564172310965e-02
-1.397276243807605602e-02
-2.000441417268893768e-02
-5.942615154742742628e-02
-1.384303786817839450e-02
-3.262108732609072907e-03
3.236068944222095928e-02
5.440826263175223103e-03
8.124558600102353700e-03
1.595136913002194110e-02
6.175143080369652031e-03
3.883779297947582369e-03
7.507365625950250185e-03
-2.158340431226985021e-03
-2.998491036977906157e-02
-2.217090991920843066e-02
-2.116897144747218948e-02
4.773666655923722649e-03
-1.525607657932800433e-02
-1.047218974893221986e-02
8.482195538927940134e-03
-4.103241926521300313e-03
5.807080868206786683e-04
1.873882989438599087e-02
2.027238980309010313e-02
2.814976931687915643e-02
-2.507425542616670538e-03
1.526061686529827689e-02
7.379372097872618358e-03
-2.110162541341619943e-02
-2.958881064340230377e-02
-3.423646744160754180e-02
-4.238263558364400996e-02
-4.459166502503759261e-02
-1.751410227172379985e-02
-1.545540715454669575e-02
-1.654885411907685427e-02
-5.770600456432204393e-03
6.130068119934764179e-03
-6.190260105836456299e-03
1.597294797185539773e-03
5.179671048509196241e-02
4.727921286664305001e-02
2.400699046916451168e-02
-3.968468669588914866e-03
-5.070959587867268636e-03
-1.850447457300868253e-03
-1.701380344468020681e-02
-1.407285586263127414e-02
4.641529723899941000e-03
5.925391843454537238e-04
3.026196583235931433e-03
1.632420890664387086e-02
1.638454200204435187e-03
2.113945773926176677e-02
-1.222043953020048588e-04
-1.882565773147230198e-02
9.913125381025175015e-03
-7.088584443281591325e-03
-7.474882700173525463e-03
-2.833252553655178640e-02
-2.565941044106120894e-02
-2.155060698787196385e-04
1.714924822007931823e-02
1.674104895523741837e-02
-1.820613987198690855e-03
7.937897549554923451e-03
9.239720522574891223e-03
-4.365408764985998467e-03
3.695086862426730928e-03
2.766753546472665130e-03
-6.601775536370121759e-03
-2.401783537219085579e-02
-1.495382946487644991e-02
1.616101382941831713e-02
1.406720778387232813e-02
1.103800924862542200e-02
-1.358681593775908775e-02
-1.862069479742572628e-02
-1.300311640354018770e-02
-2.556019506173443957e-03
1.086149733501318507e-02
4.022277912152957650e-03
-1.518079813394965748e-02
1.115099567872876278e-02
8.019037001370280318e-03
-2.955796337939657972e-02
-1.430268780854414105e-02
-5.952742592125160118e-03
-2.423369965160897949e-02
-5.777231966806881808e-02
-3.007919007123120367e-02
4.969614977414378836e-04
3.585175152178319419e-02
-1.369417586920673897e-02
-1.138425971000392792e-02
6.085515413946075702e-02
2.022558944391131264e-02
3.873643568449152558e-02
4.020299026880817805e-02
2.643930746225392134e-02
2.060552415347103108e-02
2.235795019056071101e-02
1.224291662824563733e-02
6.592811678831889642e-03
-5.967112264028237752e-03
-1.030117692905751711e-02
4.109138373561708503e-03
7.547681353683276771e-03
6.515802267203114895e-03
-2.880164931791114047e-03
2.001698614026611173e-02
3.872560675916366865e-03
-7.891493721000734235e-03
1.218279820934890963e-02
9.660323715530138786e-03
-1.431016988822252783e-02
-2.088788895213928871e-03
1.079554058054967534e-02
1.357521232430566535e-02
9.605737713157199570e-03
-3.704714159716984007e-02
2.725320127117482685e-02
2.214210832488328756e-02
-3.826809798143313013e-02
3.935424756273592228e-03
-7.302556947650223028e-03
-3.757488543000992711e-04
5.044999213152065974e-03
1.291344094497280486e-03
-6.472291903973298802e-03
7.095888087306738076e-03
2.976311177643683331e-03
-5.985383697416976102e-03
8.501037870760811896e-03
-1.441060721939756324e-02
5.843297238821461639e-03
3.747836568896755708e-03
-2.497071646162121218e-03
1.061891418781638237e-02
7.839466175897804798e-03
3.357167144898544342e-02
1.915951180459358680e-02
-1.576648759948857254e-02
-5.471601340025586402e-02
1.664954650786119872e-02
6.223375014998299868e-04
1.082088391858154579e-02
-3.016720039252543395e-02
-9.308488963756866158e-03
3.263336143066879191e-02
-1.452058191918460979e-02
9.114069041015429584e-03
1.695455844762270778e-02
1.142636025826098377e-02
5.738908833837415811e-03
1.638422642243912361e-02
1.185536042515510438e-02
-3.031681763432856908e-03
3.306641647076860330e-03
1.045579693650403215e-03
4.788354900470169657e-03
1.374387416802411166e-02
9.204732639263144348e-03
-1.237321683276681669e-02
4.517407731039362051e-03
7.738135743755462752e-03
-1.555952347399911298e-02
-3.924150650248845601e-03
7.140147115099980228e-03
1.309322317420185712e-02
7.443294622883047697e-03
-2.189077832823333250e-02
-1.076834270344373921e-02
-1.409560725118010928e-02
-1.601369910394777676e-02
-1.276114957501773249e-02
-2.312401256781915562e-02
-3.143889824432285433e-03
8.234911437532877257e-03
2.681671872020526589e-03
-1.690911957683380318e-03
8.571435169502119450e-03
1.484401536008430993e-02
-1.318876656168163977e-02
-3.306296004217836168e-04
1.687599204504377365e-02
-8.442808083408614647e-03
1.670249181009310704e-02
2.060977201441130131e-03
-2.636236653996312969e-03
8.712861999673587529e-03
1.223346357761860917e-02
6.118660144169865873e-03
-1.713987765933141366e-02
-4.494703819894852273e-04
-3.333983503991091481e-03
-6.228985509367389664e-03
2.329377480690120183e-02
1.430513607407926137e-02
-1.595645723724636519e-02
-1.387970435389261625e-02
1.022498482352867874e-03
-2.449929978232414166e-02
-2.456764605369063381e-02
-3.450309904982738762e-02
2.049016527852729700e-03
5.685357020468029439e-03
-5.452078530332622177e-04
-4.803890869699843288e-03
-8.349203400789353448e-04
5.973992550723542742e-04
-4.370840852151488230e-03
3.950265634821996732e-03
8.556826545908743573e-03
7.728031587822004403e-03
6.222441429222319575e-03
1.367329727501875695e-02
1.776778714897253282e-03
-2.223686104100568335e-03
6.467880429614510270e-03
3.220521631510976385e-03
-9.233928883052914399e-03
-1.337325400843016390e-02
-2.392399824594463459e-02
-1.772137991984457442e-02
-1.902714523404666624e-02
-5.730944119512604643e-03
-3.486558322216198880e-03
1.215936441082540861e-03
-4.740284696691315740e-03
-1.280256167362220235e-03
9.231888080036606409e-03
6.269231974011438453e-03
1.817592922292837841e-03
-2.219486075437991993e-02
9.496202561589579122e-03
8.309072087540553611e-03
-3.771179239802033203e-03
1.112852444467999843e-02
9.229965435797123779e-03
-1.446663475442457481e-03
3.540979211101901673e-03
-8.965423786432471370e-03
-1.340262402837734748e-02
4.420865219853089244e-03
-4.747594057665271809e-03
-1.738737342989881557e-02
1.716725136987749594e-03
-6.165935930442682095e-03
-1.553359771549110181e-02
-1.239780992119012860e-02
-1.055917801766170089e-02
-2.811297979232664935e-03
-5.222567403451111936e-03
-7.439925437086559665e-04
1.216838462938108281e-02
-1.291613706066950182e-02
-1.503640215179389075e-02
-4.201092430342228887e-03
-1.926858202389832020e-02
-8.095180814653981857e-03
-8.605920075956952076e-03
-1.329607901183528507e-02
-8.399596094163849086e-03
-5.043782312895248900e-03
-6.515299674357450527e-03
-1.240045547966365722e-02
-1.405512239326363495e-02
-4.349614745618921550e-03
-7.223158834950269870e-03
-8.827297474770943921e-04
3.585560657511057108e-03
4.219307029442533746e-03
-3.597079248728943246e-04
6.973436572433847243e-03
1.135767595194934164e-02
4.075059255155629064e-03
-1.911467819781617269e-02
-3.025994159735309781e-03
6.827588921506555844e-03
-1.033850957172666347e-02
1.097178007441929510e-04
9.780775442648569074e-03
-1.509418985695521083e-02
-1.131333681787264483e-02
-1.154301885663551984e-03
-6.929104773984403644e-03
4.170438973753595117e-05
6.751690262559013021e-03
-3.319490239763735803e-03
1.639949184347473318e-02
1.262956415633517508e-02
5.363398431870459657e-03
-3.989680836100032314e-04
2.102292567723408265e-02
1.584956447822491975e-03
-3.590531609823527392e-04
-1.180391966855171698e-02
4.150588056509778821e-03
1.080383420134451052e-02
5.997186924500352845e-03
-8.399398505494315437e-03
4.963170868387884425e-03
1.186279872574164986e-02
-3.748859292405016218e-03
-2.795602576510641639e-03
-6.804879002699486257e-03
-6.976090886333451840e-03
-8.146165790388017539e-03
-8.902094606464973012e-03
-1.528415893947300368e-02
-2.230267696413484185e-02
-1.750248480263946402e-02
-5.656830620951850547e-03
-2.582991725529281812e-03
-7.359301924289198948e-04
-2.670148205977552420e-05
1.816378686676092119e-02
1.061136343330058504e-02
-6.566754130235626270e-03
1.386767913285196115e-02
1.383022483990114550e-02
-5.322152092896538685e-03
1.827121831103481085e-03
9.381756127964369779e-03
1.173092686452858894e-03
6.581100250809522774e-03
6.444010392288787407e-03
5.007397128458151471e-03
-3.349991896194877070e-03
-1.424305430110355810e-03
5.069788058036781746e-04
6.074902689308201743e-03
-8.052353529690647188e-03
-5.078377840915949959e-03
5.157104502485777842e-03
5.596129488605731429e-03
-1.657126241794554602e-02
1.891384765430240318e-03
6.634655299046330820e-03
-1.305058159734984527e-02
-1.243128759427085221e-02
-5.972171725671000797e-03
-2.503066280486565369e-03
1.101372022175139097e-02
9.916286721511262045e-03
3.133416493633418842e-03
2.176977771943558113e-02
1.181459939529834642e-02
-4.955933680520763912e-03
-1.943074434646760353e-03
2.377944379511196232e-03
-3.853657009862235076e-03
2.712047415776918193e-04
7.630122397315444900e-03
-6.689807620959017584e-03
-5.866883231087296688e-03
3.133660699030975383e-03
3.505650356989119254e-02
3.135293704310565532e-02
1.827060779754091993e-02
2.941219273496058217e-02
3.148741802128912637e-02
2.330509374100941944e-02
2.173139345825569196e-02
2.576035421195978919e-02
1.703062649547129603e-02
1.165730857996202970e-02
-8.512817093745430469e-03
-8.853195202133595787e-03
9.864927708634738460e-03
-3.091166658328281004e-03
-8.522657126066824837e-03
-2.657058682581605723e-03
4.593902012345225938e-03
6.114423910315891150e-03
1.549485131369394801e-02
-2.294963290640380724e-02
1.263770880991311150e-02
6.100434031566134840e-02
-3.190129513936596634e-02
-2.340768878396289401e-02
9.361811760237986543e-03
-1.658585962399940217e-02
4.100739868347752157e-03
4.637107585130039594e-03
9.272772387385944917e-05
-5.742118034675684247e-03
-3.587074493016507385e-03
2.131178826615184353e-03
7.000398193451644151e-03
1.009060378752988686e-02
2.098721748942853054e-03
-1.502292658029066690e-03
-5.936195138395549374e-03
-7.721948225894787431e-03
2.843234361633963439e-02
4.981614446629692959e-03
-1.038030071980010870e-02
1.927948014371688376e-03
-1.976420061046843188e-02
9.052534429247197567e-04
1.519472558189510422e-02
1.399265647592188092e-02
-2.339300915375137901e-02
1.785902190882885862e-02
-6.722998664918555106e-03
-5.013901986767654861e-02
1.428994436560188271e-02
-1.398073611522385531e-02
-9.252549169833666765e-03
9.607780400964629564e-04
-5.121953029784062639e-03
2.224017765002258271e-04
-1.629114116398102828e-03
-1.471616779133455045e-03
-2.159487903524381046e-03
4.519156525672377890e-03
-1.252302919206926823e-02
-1.000405395340181816e-02
6.229064769189978507e-03
-1.382127459465861373e-02
-1.311764320306610908e-02
7.676326018162446183e-03
2.858720679382649801e-02
-1.688260304243761195e-02
-8.677823519983743003e-03
1.829928425527301006e-02
-1.546389027952085361e-02
-8.584614130219081138e-03
-1.311996267692278929e-02
-2.580172751579039997e-02
1.795109291864851672e-02
6.452155598435840855e-02
-6.623654811274215515e-02
-2.399818564317252392e-02
8.902956445969400362e-03
-1.060485555707020751e-02
-2.740936784461210207e-03
3.185473559736506574e-03
1.805680009866060705e-03
1.398207501351239092e-02
3.192920159758934513e-03
2.055199117238787863e-03
2.118007368560112513e-02
-1.756628094726735883e-03
2.470667983530370603e-03
1.613926400916404144e-02
-1.686925360952142364e-02
-1.426290062403862482e-02
3.616197640123783140e-05
-3.416567984403481167e-03
-2.564234905016034641e-03
4.158915763617238893e-03
-1.177306738463040209e-02
-1.635766684873481364e-03
1.120247866155225447e-03
-1.526867888268612812e-02
9.893138701620475799e-04
1.347508316814016727e-03
-1.086151310428916557e-02
1.045547598280424997e-02
3.266608607589968193e-03
-5.727373674348015808e-03
8.582414492768888209e-03
-3.757381142452158318e-03
2.061096808636563027e-02
-1.864952559863113438e-02
-5.809771289049575106e-03
4.338947618630555753e-02
-1.402287212500996291e-02
-4.570830406015670422e-03
1.753653541547908756e-02
-3.492596603908377888e-03
-1.504759864203798411e-02
1.618601602768141023e-02
-8.045454581115382003e-03
1.918078846906362198e-02
2.226461557595260654e-02
-1.831498691135288043e-02
-2.505900678036767932e-03
1.692006477320459612e-02
-9.605599879332852448e-03
-1.585701960941161490e-02
-2.293932882111119828e-02
1.592576997992938004e-02
-8.762159874172418747e-03
-3.982610043029589930e-02
-1.251371833833493392e-03
2.080956825638928444e-03
-1.577044868196667438e-03
-1.261678555790710261e-02
9.036597110017115589e-03
5.310057956330944094e-03
4.179392891971378358e-03
1.395417567428345641e-02
5.481164965308707275e-03
4.670402331148701923e-03
1.557358791958568522e-02
1.408636617279613104e-02
8.586697754426471721e-03
1.250232860638950290e-02
4.278557847921985770e-03
-1.684631199075709929e-03
-1.140524937582145133e-03
-1.067393419233181318e-02
-5.246264647111636460e-03
7.170505642876073317e-03
-1.787073529135506378e-02
-1.910953919966252440e-02
8.377754608307225181e-03
2.320569772046645555e-03
7.543311547487654631e-04
-5.363384757558991786e-03
9.688040398658009575e-04
9.149914665259247307e-03
8.289954784737077823e-03
5.315136805272633984e-04
1.554294384530785327e-02
1.858248612041191877e-02
3.259678458986131448e-03
-1.906516831516398905e-02
-2.204099084224971430e-02
-7.569033547412583329e-03
-2.176599593092387250e-02
-1.845184499599162101e-02
6.856989779395634803e-03
3.421129675778625256e-02
3.152779758849347941e-02
3.436066593961383669e-02
3.111861185742476749e-02
1.687158437722388951e-02
2.950540383904324757e-02
2.861364899826170441e-02
1.584002852384377991e-02
1.173804789918956107e-02
-3.239114752351010453e-03
-9.492627541627081736e-03
2.595514602855111472e-03
4.854761882851570468e-03
5.616811561492118625e-03
-6.415926697538960367e-03
-5.033662855516900323e-04
1.494177937080886157e-03
-6.506738389957568598e-03
1.499756172398220531e-02
5.514294686330269840e-03
-1.298076818065693229e-02
1.153048985580817747e-03
1.149146670544988133e-02
-2.984636698144033182e-03
1.281368341968245998e-02
2.509595821043319672e-02
1.048066709699897216e-02
2.407345944065022308e-02
-6.647683470680371132e-03
4.381412875428804428e-03
5.149552403727841038e-03
7.865813924388377620e-03
6.172409080316815060e-03
8.275181325838307234e-03
8.103394136459475539e-03
1.605157685360969824e-02
1.917529258246542315e-02
1.328970240894073590e-02
-2.243907367855689278e-04
2.284444976557647739e-03
2.027252147090525473e-04
1.962980338471541179e-03
-9.057887528964364207e-03
-4.911118766769717071e-03
1.223780740350341976e-02
1.888841786747211607e-02
1.845371163345748203e-02
-1.654188861691814269e-03
-2.461446267427468571e-03
-6.509976146808265848e-03
-1.026776908994656533e-02
-3.559430769538571987e-02
-2.627509591456618498e-02
-1.844745230310382289e-02
2.891421581482403122e-02
1.586449013960411145e-02
-7.065339124324309869e-03
-1.414663146354764494e-03
-2.802989374525785039e-03
-5.390060343405700047e-03
-7.027684449804479875e-04
-1.835101866873453235e-03
-1.137581448895765186e-02
-8.129841496136085241e-05
4.306318534827384588e-03
6.312254152021576532e-03
1.115112773372391652e-03
-1.062431006365787724e-02
1.773341427307673079e-03
2.115589773832508673e-03
-7.325891166911545523e-03
-9.148528272050928181e-03
-5.473520773955410125e-03
-1.178298157864412533e-02
-4.928809966544509501e-03
-4.119682104887124538e-03
-9.333231388411284898e-03
-9.892110870056562352e-03
-2.459479322063166593e-03
-2.169603741346809792e-02
-1.865313930310872476e-02
-2.290428643770202680e-02
-1.227406511062944378e-02
2.392197982763582251e-04
2.267437427247337954e-03
4.816669260816146443e-03
7.453914005514270316e-03
9.750835346037284995e-03
1.672555046973538476e-02
1.429609170086137103e-02
1.941542646033167507e-02
1.908887798884523375e-03
-3.087077644779535890e-03
-2.286681269924497727e-03
-6.013199297120227181e-03
-1.033152320406773884e-02
-6.305005694733805885e-03
-4.846848279923919069e-03
-1.002004529671951874e-02
4.362519743236969831e-03
1.187774757584387532e-02
4.542722515626720046e-03
8.650388086753481309e-03
-5.307508264762074088e-03
-5.909987169262598088e-03
4.522114456158027838e-03
-4.677483607067460178e-03
-8.770702931590804510e-03
-1.489272689924335535e-02
-1.948176772516871033e-02
9.537504091107278439e-03
5.209411105406490557e-03
-4.428853811753327707e-03
7.236376574579364215e-03
5.838902207325064216e-03
-6.257772864254216791e-04
5.219548665151257629e-05
1.741821836462027198e-03
-1.654820228683611099e-03
6.563325262410060756e-03
5.365159605220275359e-03
2.363050093604497637e-03
-5.077857370033172797e-04
1.213168810895525135e-03
-3.899925563636784647e-03
-1.056302090966471270e-02
-1.003508927853033472e-02
-1.204634929184469558e-02
-1.433815997290587355e-02
-5.347128620422683318e-03
-4.404563601014573407e-03
-1.808642747731894042e-03
-1.792240011481394807e-02
-3.761684981777018572e-03
3.506991489215297714e-03
-1.988642407746996424e-02
-2.189850464598799493e-02
-4.156063776446235203e-03
4.148097074570165216e-02
-2.619217779737074460e-03
-8.894710417671937083e-03
-1.828681637513425787e-02
4.309608945254097406e-02
3.357167518725438088e-02
-2.494744717232621339e-02
-1.985827716458230321e-02
1.034396137021872421e-02
-3.358947071115047592e-03
-6.328772740676748970e-03
9.383872214086026384e-03
1.048042283608633871e-03
-1.151051641088622277e-02
1.187875773106815414e-02
6.650484741168415613e-03
2.692674182386400623e-03
6.587376250973636660e-03
5.325541715617400015e-03
-8.069132172852334570e-03
-1.524425850904222515e-02
-2.137498597242555240e-02
-9.092800889946680426e-03
1.556549704864781773e-02
8.630985533770276982e-03
-1.763431470141184343e-02
-2.621296748877951360e-03
1.372936945104793159e-02
-1.268711016949661784e-02
-2.555252757732791660e-02
2.231281442742083510e-02
6.872098332087735011e-03
8.853700317792227150e-04
-6.030023701801525554e-02
1.304385088791669249e-02
-7.278827089970701762e-03
-1.230500507151016838e-02
-2.076461471263911507e-02
-1.087172446092141143e-02
-7.338050550040179677e-03
-4.055427807336417674e-03
-2.971548076373964082e-03
-1.453793917304045148e-02
6.090422231385412416e-04
-1.530720773038455121e-02
5.562530726096369220e-03
-1.299834475652956187e-03
-2.837225115343776707e-02
-2.096089782022805218e-03
1.406854148961278819e-02
2.356863955124600257e-02
2.166887720265920411e-03
-3.763347635609166214e-03
6.087883490222995540e-03
3.488594741697467055e-02
-5.237905387577854871e-02
-1.091891475721353255e-01
3.053322528422437385e-02
6.043511579040229675e-02
7.644537708482088134e-02
-6.465741780949994799e-02
-1.923959046279948362e-02
1.495586759494905906e-03
9.529148874147345960e-04
-1.806932726082782770e-02
2.434795095492072164e-03
7.678990190398623204e-03
7.741374474474405597e-03
-5.651898152290738865e-03
-2.768959834323285029e-04
8.855912047190741404e-03
-1.147270689790504117e-02
-2.011083888809708006e-03
8.027549530781340897e-03
3.833542611962028907e-03
-3.301028181564154458e-03
6.795532601636785491e-03
1.089997436621843556e-02
2.030361721179781316e-03
-1.220402731535409104e-02
-1.766738743269662820e-02
-2.944865871991594539e-02
-9.576296582860912079e-03
1.074954591285337720e-02
-2.693329509615590214e-02
-7.454349404864889748e-03
-2.143720729382829482e-02
2.430208674022002469e-02
-2.445733367390156340e-03
-5.864550099894181960e-03
1.835424902553729060e-02
-4.501789956437241870e-03
-4.638562572368582805e-03
2.058087755803870295e-02
1.500639601863575610e-02
5.121694749880151276e-02
-1.438222073402491315e-02
-1.066198498221055963e-03
-2.277336432412018115e-03
5.819865300379175981e-03
-3.340118907080785911e-03
2.346205109889890669e-03
-9.439986129070316104e-03
-6.642890897888262312e-05
1.467315908062305843e-02
3.165607503968362671e-03
-3.526168719295213333e-03
2.302860602311401425e-02
-1.288686220918569027e-02
-1.503976642840329850e-02
1.057050425607219263e-02
-1.871488759381294536e-03
-2.148095082094381505e-02
-1.628129863938494043e-02
9.068940112643563908e-03
1.355038254972489031e-02
-2.182069974737123937e-03
-1.200394565649834941e-03
3.257042817841842268e-05
-6.520062889247268782e-03
-6.589685757975975028e-03
-5.916084763766015116e-03
1.140251778820840570e-02
1.807124804753407156e-03
-5.210354048939266208e-03
5.168466992595030507e-03
-6.591046822221214435e-03
-1.275440006459806902e-02
-1.365986369816025309e-02
-1.035546371024909443e-02
-2.148632424348289119e-02
-2.443705894453960734e-02
-7.523935118104142609e-03
9.871737696756964844e-04
-2.780423210168983094e-03
2.013157995627116309e-02
2.042694933951170674e-02
8.956531839875837495e-03
3.720730142368205984e-02
2.495054619473396212e-02
1.467993292848912210e-02
1.740571233745160859e-02
1.825558123159445444e-03
-3.307715052232941544e-02
-5.025123039086271809e-02
-5.876161816458469163e-04
-9.301566239465380512e-03
1.784243140090252186e-02
4.495901606398975542e-02
4.173716867659391094e-02
3.554555341558863352e-02
2.601818317351063670e-02
1.959871082546951054e-02
1.064833801833872315e-02
1.364352400331126161e-02
-6.710455716663663028e-03
-6.711620086776945611e-03
1.355649659937837800e-02
-6.265746824884275024e-04
1.556740899256921565e-02
3.086424968531080448e-02
2.611409816159229041e-02
5.604074542892154703e-02
6.138790347051502859e-03
4.930096324265278995e-02
1.949314920741902074e-02
-4.256770417531412914e-02
-3.638897196393346342e-03
-5.284996555318464961e-02
-5.102977720507415049e-02
8.268439603068979127e-03
2.810955067470894894e-02
1.740198988148338941e-02
1.308572941319822470e-02
2.281256860506152354e-02
1.019762027109593835e-02
-4.327206429448589645e-03
-1.434315651519353640e-02
2.702982453502126084e-03
-1.408926076045012230e-02
-2.738816605312327165e-02
-2.713078733217356899e-03
-1.728684293931472687e-02
-1.510192447420415085e-02
9.028556070269503839e-03
-3.179622431441149304e-03
-8.380472296233891722e-04
4.566930829604927584e-03
-2.241343311541108690e-02
-2.310620378251213112e-03
4.417911081797948683e-03
6.158674171982230806e-03
3.401582248482790116e-02
2.386968766100618436e-02
3.861102898411561402e-02
2.923129116931757684e-02
1.275632513870700183e-03
-3.012500477291551321e-02
-2.856393949567821375e-02
7.622570999068957291e-03
-1.874629266645742864e-02
3.124017363317266663e-02
1.275549464290271807e-02
2.427629871551839277e-02
3.417243247031084841e-02
-1.730700683054164218e-02
-3.380022436267792613e-02
-1.539260682668944918e-02
1.200691492238332471e-02
-9.744557685327675731e-03
1.836410692136703632e-02
1.515853976571609509e-02
1.888801944380676112e-02
2.523122775467430412e-02
-8.892569328844154505e-03
5.465473261303344099e-02
4.218026002011933395e-02
-5.171360206952075982e-03
3.628305618330684990e-02
7.202259851131050323e-04
-4.136768845879078282e-02
-1.696385703454833180e-02
-3.983025680750812425e-02
-4.522859861866465603e-02
-1.965362146149363456e-02
-4.614756008860155037e-03
-1.341878447314880096e-02
-2.992015722709555695e-02
-1.639315579867391473e-02
-2.564976147399231077e-02
-1.080125509815555752e-02
1.838255711559578197e-03
-1.872516750831312513e-02
4.044571241698862590e-03
2.094155814780194677e-02
-2.669789745861793004e-02
-2.102538176972616399e-03
-5.424800798833025357e-03
-1.937799653160965016e-02
-1.808926595658773631e-02
-1.454307313000345429e-02
-1.046835639017663216e-02
4.502483825933305261e-02
4.053642522874977006e-02
-1.909151517356716399e-02
2.622347617910877893e-02
-1.013906149590817173e-02
-4.535826710855294513e-02
-4.276126306467595284e-02
-5.075593411430291690e-02
-2.713276764346472109e-02
7.901483069276534973e-03
-3.249922820703085927e-03
5.572508204491491771e-03
-1.534851292438814754e-02
-2.741886220128396737e-02
1.189227981791029555e-04
-8.095400752231977221e-03
3.615375155907896067e-03
2.187953104718318165e-02
1.005716084886801483e-02
5.115885248367366307e-03
-1.367976017154504467e-02
-8.021184727414842550e-03
-6.169723338678425803e-03
-2.112795219152351425e-03
2.337360534847105105e-03
1.099599158910922331e-02
1.836232839012392343e-02
-5.631376816802205303e-03
-2.264852032338141724e-02
-8.129251505406030059e-03
-2.809966896547103424e-02
-2.515955504056104769e-02
-4.995341406618713891e-03
-1.770321772238102505e-03
1.488958350102636760e-02
1.914045488436643197e-02
-1.792707226911992649e-02
-1.555351005793917558e-02
-1.168127492950800199e-02
-3.124591030791453936e-03
-9.255073389191802863e-03
-8.610042981969342687e-03
-1.314835913499945268e-02
-1.493396448991876103e-02
-1.455783261155012796e-02
-2.238978741669349001e-02
-2.417373689009064651e-03
-1.040243977580115713e-02
2.115436926191237993e-02
-4.070894238834791602e-03
1.585962908393627468e-02
-3.727347462272800199e-02
-7.542523345414854467e-03
7.252863531398681587e-04
5.054257720496149221e-03
1.159952516744895343e-02
2.164778261491582048e-02
-1.267803692464778732e-02
-5.489974152885631134e-03
1.188514505972123290e-02
-4.595003450849888954e-03
-5.258250343025004165e-05
1.403201691169854177e-03
-3.593244484516259222e-05
-1.043934823047616180e-02
-1.931140781901207609e-02
1.605473269841063352e-02
-6.234013042386247344e-03
-1.922087544733326950e-02
-6.878894312979175543e-03
-7.330773472299506426e-03
-6.836268596530278678e-03
-1.003984213597308196e-02
-1.062138111017944808e-02
-9.742182232589952778e-03
1.075146616116263998e-02
-9.448776478387382535e-03
5.313669621851957112e-03
-3.719767065555140868e-03
1.081497315159692281e-02
1.191428928979469323e-02
1.729418219153249945e-03
3.095672115050379647e-03
-3.501748089372450686e-03
-4.766075324745204511e-03
-1.239001904412366387e-03
-3.010694993411223465e-03
-3.265553220581115363e-04
3.062298055438583601e-03
1.516796147104392195e-03
-3.117112383165166270e-03
1.434857353473305633e-02
1.078125736524767134e-02
7.492977617827273340e-03
3.068699307150080362e-03
1.172381820952258721e-02
-6.519132236142111472e-03
-3.276691974362413214e-03
9.512183865581079478e-03
-6.214330226064086055e-02
1.873875105766605736e-02
-3.820752949331348430e-02
4.919627578730179085e-02
-2.402547290654353379e-02
2.301665659462100166e-02
-2.560013576470521884e-02
9.774285054432743647e-03
-1.936787695533541756e-02
-3.211542156331585220e-03
-6.243141312803231029e-03
-1.532933392057174264e-02
1.091402848495054423e-02
-8.236853601489155718e-04
-1.206774086761368790e-02
1.269407000642706548e-02
3.344429509618625403e-03
-1.482470849721853091e-02
4.744483058866505280e-03
6.762748887513940661e-03
1.809485365965788836e-02
8.031090830883868062e-03
4.305473460806187244e-03
1.494439690115011501e-02
-1.506383137940551543e-02
-1.460414901252771701e-02
-7.619900400037492479e-03
7.877715609588626516e-03
-5.097045091037488880e-03
-4.209911214888171702e-03
-1.265120842521275622e-02
-6.163738217398091485e-04
-1.800269562718881389e-02
-1.336287697680609357e-02
-1.310304770747267207e-02
-3.324854522298391346e-02
-1.277272974335622556e-02
-1.009821178080802517e-02
-4.537833336603563396e-03
4.705908351057222321e-03
-1.945260587356715046e-02
-1.315160240963954416e-03
-4.937705656307223788e-05
-5.497610699365489129e-03
1.325368035264423976e-04
7.615309173462844576e-03
-3.769818141002506846e-03
-6.904239135417523064e-03
1.188340334416769332e-02
3.945641643818621411e-03
-3.265224905411064863e-03
-6.571701467485257641e-04
2.001198267969059308e-03
-2.880633725607561514e-03
-4.503282993119984631e-03
-1.837792982464587013e-02
-1.610553821922970294e-02
4.167310175723299218e-04
-1.563555755679459439e-02
-1.048907707066403308e-02
3.410504546979432894e-02
1.713894419293528551e-02
-3.121262279761771881e-04
-4.695229524627433058e-03
-3.852898867010731872e-03
6.775629356848775382e-03
-7.213263106914337766e-03
-9.407077769477453777e-03
-4.036046158554843465e-03
-2.776025109244176854e-04
-6.007708936324040062e-04
-3.894869920149413283e-03
3.358472493616042505e-03
2.699017498598295633e-03
-7.568534096880037872e-03
5.071516261894357634e-03
1.619232894242368052e-03
3.984104588566204919e-03
-7.994784823816650536e-04
-2.024380609279181030e-03
2.059485834011489866e-03
1.433661336873886995e-03
1.558191915245484178e-02
2.243371882824665708e-02
-2.611805122514548449e-03
2.393055210310567060e-02
1.775632834369499438e-02
-3.738362463965832615e-03
1.946242876552893228e-02
-6.380031828798987323e-03
1.780921800241214159e-02
-1.504690575637294969e-02
-1.910900566752016944e-02
-8.361693888017865742e-03
-5.852042494456699551e-03
1.571130556702968542e-02
-1.523309715112880144e-02
3.773595524901837521e-03
7.722913197919780912e-03
8.549743479924289818e-03
1.788721838990061513e-02
5.109056790047120447e-03
1.223183553012310680e-02
4.374813410946651673e-03
-7.757090213341131558e-03
8.092935438792057262e-03
4.292106221552348042e-03
1.920101350714486718e-02
-4.409017607711086806e-02
-1.311961282630814268e-02
1.682348357530269109e-02
-3.419157455407970114e-02
3.860191458446767671e-02
3.150682296180086495e-02
-3.935955727444154922e-03
4.594724167843624446e-02
-3.743135105124910920e-04
-1.779906224726263489e-02
4.315282041382622474e-02
3.903800802605011250e-02
-2.636257660096667354e-03
3.355598213485379289e-02
9.124103581538927851e-03
3.484025227320978850e-03
3.625691165984997778e-03
-2.960720345780205182e-02
-1.372069500698081847e-02
-1.481486084523648238e-02
-1.348193106917713879e-02
-7.135096519388764262e-03
-1.298444302729804406e-02
-4.682080977651638387e-03
-4.144933946809250744e-03
-1.065340527272732804e-02
2.707875465542331894e-03
-3.193856537505695981e-02
-3.120408118939108771e-02
1.578946300227820204e-02
-3.291373129328858255e-02
1.193751634989045907e-02
3.673774156528390039e-02
1.522107293032133775e-02
6.483454020429647857e-02
3.219409617467814538e-02
-2.896171904312619047e-02
-2.108015639935333779e-02
2.738124273529763883e-02
-1.942338709506857830e-02
2.332590916648892565e-02
-2.159572708139851499e-02
-3.916596570869511872e-03
-7.520134539554059784e-03
-4.898893464123539598e-02
1.859505479217954827e-03
-1.048637491275652631e-02
-2.502139154899763601e-02
-1.704037760580384697e-02
-2.461509489973429804e-02
-3.562990653160595655e-02
-3.255332279145038005e-02
-2.990570494069063820e-02
-2.500149802735228063e-02
-1.260917800870296800e-03
5.272195184374783156e-03
5.430659394408320247e-03
3.703580814668312998e-03
1.567582485385668467e-02
-4.253044618107067361e-03
1.916602004471457121e-02
2.571396532511968300e-02
-1.951087276457714320e-02
7.281301943691181194e-03
-9.082019614085929879e-03
-3.173836773622457086e-02
-2.851315842551565422e-02
-2.125894621371563278e-02
-1.598310893071080638e-02
-2.610049610437852746e-02
-3.322463753578781820e-02
2.749106945538885762e-03
-5.006034063488161434e-02
1.326862698939596137e-02
4.214303150480338406e-02
-1.195845282973713453e-02
6.550180190836508987e-02
2.554269064876205780e-02
4.222149095497506471e-02
7.633952286183215419e-02
-3.407954916534786799e-02
2.346143534310835780e-03
-3.337140672128013994e-03
8.516385126287988327e-03
-1.454805683525008933e-03
3.171478439759131164e-03
1.983953466575231681e-02
6.757724242003152436e-03
1.141761517653371548e-02
9.457356109546153494e-03
1.716846414814940380e-02
9.568414647837307149e-03
-3.738627633068368483e-02
2.388519852209453065e-02
2.523103339582055682e-03
-1.011949725126420549e-02
-8.057983654421156270e-04
-1.848303343031335727e-02
1.862397976808712052e-02
2.796410133550675334e-03
-1.112410358420560033e-03
1.408466325804668198e-02
-3.782180198421058667e-03
-3.232286124388440533e-03
8.582952436845266153e-03
-1.205449075649649843e-02
-4.852432293717523666e-03
-4.219621029247363434e-04
2.379182758844996040e-02
1.842759053743580483e-02
-2.211457361864357929e-02
2.954954478210490565e-02
8.855529361416246761e-04
-3.909370561817953477e-02
2.307063407283601458e-02
-4.900089845905822653e-03
-8.314830836420762997e-03
1.061677956176645260e-03
7.768598682635296203e-04
1.223105470197409375e-03
-3.626476367714260522e-03
-1.924380289987561799e-03
-8.249840697408253798e-04
-9.105992035801806217e-03
-4.662075214568108840e-03
-1.961549710362547796e-03
3.624979500481797373e-02
4.853045284511359192e-02
3.754268348770667396e-02
1.881199844177768553e-03
-2.349787670414109526e-03
-7.488169240206852054e-03
-1.902217735493782341e-02
-1.115334277055933000e-02
-4.151163896153759955e-03
4.344425808195789655e-03
-3.737457694980762194e-03
-1.127748921094569139e-02
6.704095546791331156e-03
-8.998109646808774087e-04
-7.874242060137752464e-03
9.403016692916568026e-03
9.329352528764878194e-03
9.629640790983879164e-03
2.907972548902480314e-03
1.570908529397507455e-02
1.011626055000498445e-02
1.691568927235734276e-04
8.798525671984932725e-03
-7.705632373589134908e-04
2.302308962913422209e-04
-1.643728776041512418e-03
-9.810856638243473440e-03
-2.647058184255365182e-03
-7.399770139148655231e-03
-9.498962566310409708e-03
-9.039283901730383458e-03
-1.525037153128255829e-02
-1.847302948360354455e-02
-3.237655670044926968e-03
-1.629966425474617614e-03
-6.906627743997705710e-03
-1.376297264158911349e-02
-9.211696705957934592e-03
-3.551697271895917166e-03
-7.621705349209864470e-03
-6.329011722070909847e-03
-6.148801714702586789e-03
-2.743171926335017784e-03
8.785137801235673449e-04
-2.055989797070594243e-03
3.763589177503900377e-03
1.412638822042213728e-02
1.354276002954087586e-02
-6.446901508999901796e-03
-4.597126499842651634e-03
-7.089772708920526710e-03
-1.099005410968381669e-02
-1.366179036297686562e-02
-1.782732967345662320e-02
5.622527209681565941e-03
1.967365193935818879e-02
1.705591588617601240e-02
-7.087858685716787004e-03
-8.602871516818141884e-03
1.213156071578507618e-03
2.500086405381385900e-03
-5.166325759677912847e-03
9.731642744487059224e-03
-6.067231713042606916e-03
-3.178789793788806394e-03
-1.651540616233907388e-03
-6.298656306634654867e-03
3.650996631039125136e-03
8.764115335841028004e-03
5.622898853570450738e-03
1.057596117016244668e-02
8.244582336612413589e-03
-1.250854804332838209e-02
-1.170404765826008747e-02
-1.299392502518505535e-02
-1.491726654191519175e-02
-1.112664524580542734e-02
-1.441815451674105866e-02
-1.175871979052206702e-02
-6.467612250935748930e-03
-2.068792871866696314e-03
-1.226989594808923154e-02
-4.919545069301073555e-03
1.950735902363689295e-03
5.876351523744483690e-03
2.109591594932583650e-02
1.871258084270182795e-02
2.928426685027047879e-02
2.378122944022352525e-02
8.510797143578788249e-03
4.412923093124285212e-03
6.316498186452241051e-03
7.726327792361562495e-03
4.971426784893336233e-03
-2.287888951320756457e-04
-8.372870605200437646e-03
-4.281973396883981091e-03
-1.024938956600970896e-02
-1.355191207477257458e-02
5.780979011107217035e-04
8.822864801795953990e-03
-2.930666840037279928e-03
4.526910962275883092e-05
7.557560300100124064e-03
-7.620860745590385572e-04
-4.774723107384335613e-03
-2.542035394871363253e-03
1.610407756723921269e-03
-1.173337848008268111e-02
-4.578204451356016145e-04
-5.466798128561868760e-03
3.062128833084417148e-02
2.856450813298588853e-02
1.455441631920113658e-02
2.148508313345157475e-02
7.244741349467582331e-03
-1.419246330201083019e-02
3.683826623015525200e-04
1.117233343022545032e-02
9.887233231024195046e-03
8.108957703305833681e-03
1.183583418218619662e-02
6.478989356718190679e-03
-1.901440370830200866e-03
4.268125602528232386e-03
4.754697105019764156e-03
-1.845148099916616878e-03
-1.054364347499287934e-03
-9.139935358517339153e-03
3.750980043641813800e-03
1.254549081810712920e-03
-6.583590301700316047e-03
1.106624453746419580e-02
9.365518167583979439e-03
-5.579022690400665778e-04
-4.078042348256795402e-03
1.442248935557174060e-02
1.906086222045265052e-02
-1.583633165325485856e-02
2.978656103520790997e-03
2.464379067423139516e-02
-1.542424183703688771e-02
-5.897479472992226725e-03
1.136203376541024095e-02
4.414506657570933107e-02
-5.388970992743678801e-03
-3.575404424661966785e-02
5.300257961911475357e-02
-1.813430098039673505e-02
-4.001264115018498407e-02
3.866165338969854148e-02
-2.683623231376356527e-02
-1.537162067711619375e-02
-1.585774384974755064e-02
2.258811101007462963e-02
-4.794282853371138915e-03
1.363671267434683927e-02
4.369426757138187428e-02
9.437054883988603080e-03
1.273778825919589207e-02
2.871174690154622289e-02
-1.000925454251629446e-02
-5.942581414978155563e-02
-3.806909906026165191e-02
6.236490988606466224e-02
-5.503868919786173569e-02
-2.958882485470987894e-02
7.240640371737788739e-02
-4.700822212674427014e-02
-2.247394631640232954e-02
5.379430283000646851e-02
1.855997964863564942e-02
1.164146203859837102e-02
8.524518402840488424e-03
2.026886595648209541e-02
1.087514406259430973e-02
8.652564819809516888e-03
-4.537314688390253412e-03
-3.816851349964803675e-03
1.711863324433587213e-02
4.463572327375780850e-03
-2.137062471648501407e-03
-2.120312767107499982e-02
-8.146624649475819142e-04
8.561100346583371684e-04
-1.348649948941556959e-02
-1.813901412102382135e-02
-1.149770655978003472e-02
-1.760198246405088665e-02
-1.838426860739644092e-02
-1.269568725122715083e-02
2.641036957510712810e-02
-3.489358187280105356e-02
-1.073496377059891815e-02
2.993468027258694431e-02
-2.749585041360096474e-02
-7.958191880297210002e-03
2.980572311739923541e-02
2.782506680367215560e-02
4.143636134647788599e-02
-3.643429112987339215e-03
6.117460739311674639e-02
4.552944259957343587e-02
-3.276882069818925353e-02
4.135297158522360100e-02
1.583193647375664287e-02
-2.908549191873601586e-02
2.696309669382208549e-03
-1.194975419464676565e-02
-2.533295031744708242e-02
-1.273277873002389739e-02
-2.616877539347026854e-02
-2.187446648405892008e-02
-3.289113724926955029e-02
-3.278979769124891475e-02
-1.834379750194008521e-02
-4.120083562650416614e-02
-1.159635376552801793e-02
2.610488912399700975e-02
-1.479236654914741107e-02
2.372334948245244726e-03
2.935960911554586286e-02
8.621741583562189280e-04
3.926497759719524416e-03
7.494887108354596553e-03
-1.204172492014225770e-02
3.672484804257204402e-03
1.819133701652274684e-02
-1.849444120061221816e-02
1.800804391547374417e-03
9.386969909591421496e-03
-8.408979160394259092e-03
-4.449688962686796853e-03
2.165551179135466377e-03
-2.490157226631851961e-02
2.349741512089715406e-02
2.693790835719712604e-02
-9.285584392587560923e-03
3.958686165356449516e-02
1.876542099336283784e-02
-1.407029464630893748e-02
2.609073797788533100e-02
-3.428670991318058438e-03
-2.953536001916847852e-03
-2.475049641251326343e-02
7.612338338297010808e-03
1.832710970133567818e-02
-4.493808414163893462e-03
2.141257635775825618e-02
1.112106894046209667e-02
2.649426347826928582e-03
2.557172833893810518e-02
-1.586546542789929112e-02
-1.295000198838036978e-02
1.225965491510818718e-02
-2.084115612606859957e-02
-9.124334486112222094e-04
1.357469266787114312e-02
-3.517672203733877845e-02
1.076471001904026441e-02
1.313273725054619513e-02
2.326151563245778056e-02
1.712464308484692999e-02
2.469624488111097152e-02
1.629525695616801037e-02
1.205389396785986819e-02
1.116786268889699910e-02
2.573452865764360928e-02
1.289819261417365567e-02
2.637183906426916573e-03
2.095694931534563057e-02
-1.220018258390180750e-02
-4.672027033804396906e-02
3.070550621518582449e-02
-1.442425596261076928e-02
-4.534257947036286762e-02
3.403100913750763123e-02
-2.326359551093351574e-03
-2.511864639246410430e-02
